FANN_FLO_2.1
num_layers=3
learning_rate=0.010000
connection_rate=1.000000
network_type=0
learning_momentum=0.100000
training_algorithm=0
train_error_function=1
train_stop_function=0
cascade_output_change_fraction=0.010000
quickprop_decay=-0.000100
quickprop_mu=1.750000
rprop_increase_factor=1.200000
rprop_decrease_factor=0.500000
rprop_delta_min=0.000000
rprop_delta_max=50.000000
rprop_delta_zero=0.100000
cascade_output_stagnation_epochs=12
cascade_candidate_change_fraction=0.010000
cascade_candidate_stagnation_epochs=12
cascade_max_out_epochs=150
cascade_max_cand_epochs=150
cascade_num_candidate_groups=2
bit_fail_limit=3.49999999999999977796e-01
cascade_candidate_limit=1.00000000000000000000e+03
cascade_weight_multiplier=4.00000000000000022204e-01
cascade_activation_functions_count=10
cascade_activation_functions=3 5 7 8 10 11 14 15 16 17 
cascade_activation_steepnesses_count=4
cascade_activation_steepnesses=2.50000000000000000000e-01 5.00000000000000000000e-01 7.50000000000000000000e-01 1.00000000000000000000e+00 
layer_sizes=265 51 4 
scale_included=0
neurons (num_inputs, activation_function, activation_steepness)=(0, 0, 0.00000000000000000000e+00) (0, 0, 0.00000000000000000000e+00) (0, 0, 0.00000000000000000000e+00) (0, 0, 0.00000000000000000000e+00) (0, 0, 0.00000000000000000000e+00) (0, 0, 0.00000000000000000000e+00) (0, 0, 0.00000000000000000000e+00) (0, 0, 0.00000000000000000000e+00) (0, 0, 0.00000000000000000000e+00) (0, 0, 0.00000000000000000000e+00) (0, 0, 0.00000000000000000000e+00) (0, 0, 0.00000000000000000000e+00) (0, 0, 0.00000000000000000000e+00) (0, 0, 0.00000000000000000000e+00) (0, 0, 0.00000000000000000000e+00) (0, 0, 0.00000000000000000000e+00) (0, 0, 0.00000000000000000000e+00) (0, 0, 0.00000000000000000000e+00) (0, 0, 0.00000000000000000000e+00) (0, 0, 0.00000000000000000000e+00) (0, 0, 0.00000000000000000000e+00) (0, 0, 0.00000000000000000000e+00) (0, 0, 0.00000000000000000000e+00) (0, 0, 0.00000000000000000000e+00) (0, 0, 0.00000000000000000000e+00) (0, 0, 0.00000000000000000000e+00) (0, 0, 0.00000000000000000000e+00) (0, 0, 0.00000000000000000000e+00) (0, 0, 0.00000000000000000000e+00) (0, 0, 0.00000000000000000000e+00) (0, 0, 0.00000000000000000000e+00) (0, 0, 0.00000000000000000000e+00) (0, 0, 0.00000000000000000000e+00) (0, 0, 0.00000000000000000000e+00) (0, 0, 0.00000000000000000000e+00) (0, 0, 0.00000000000000000000e+00) (0, 0, 0.00000000000000000000e+00) (0, 0, 0.00000000000000000000e+00) (0, 0, 0.00000000000000000000e+00) (0, 0, 0.00000000000000000000e+00) (0, 0, 0.00000000000000000000e+00) (0, 0, 0.00000000000000000000e+00) (0, 0, 0.00000000000000000000e+00) (0, 0, 0.00000000000000000000e+00) (0, 0, 0.00000000000000000000e+00) (0, 0, 0.00000000000000000000e+00) (0, 0, 0.00000000000000000000e+00) (0, 0, 0.00000000000000000000e+00) (0, 0, 0.00000000000000000000e+00) (0, 0, 0.00000000000000000000e+00) (0, 0, 0.00000000000000000000e+00) (0, 0, 0.00000000000000000000e+00) (0, 0, 0.00000000000000000000e+00) (0, 0, 0.00000000000000000000e+00) (0, 0, 0.00000000000000000000e+00) (0, 0, 0.00000000000000000000e+00) (0, 0, 0.00000000000000000000e+00) (0, 0, 0.00000000000000000000e+00) (0, 0, 0.00000000000000000000e+00) (0, 0, 0.00000000000000000000e+00) (0, 0, 0.00000000000000000000e+00) (0, 0, 0.00000000000000000000e+00) (0, 0, 0.00000000000000000000e+00) (0, 0, 0.00000000000000000000e+00) (0, 0, 0.00000000000000000000e+00) (0, 0, 0.00000000000000000000e+00) (0, 0, 0.00000000000000000000e+00) (0, 0, 0.00000000000000000000e+00) (0, 0, 0.00000000000000000000e+00) (0, 0, 0.00000000000000000000e+00) (0, 0, 0.00000000000000000000e+00) (0, 0, 0.00000000000000000000e+00) (0, 0, 0.00000000000000000000e+00) (0, 0, 0.00000000000000000000e+00) (0, 0, 0.00000000000000000000e+00) (0, 0, 0.00000000000000000000e+00) (0, 0, 0.00000000000000000000e+00) (0, 0, 0.00000000000000000000e+00) (0, 0, 0.00000000000000000000e+00) (0, 0, 0.00000000000000000000e+00) (0, 0, 0.00000000000000000000e+00) (0, 0, 0.00000000000000000000e+00) (0, 0, 0.00000000000000000000e+00) (0, 0, 0.00000000000000000000e+00) (0, 0, 0.00000000000000000000e+00) (0, 0, 0.00000000000000000000e+00) (0, 0, 0.00000000000000000000e+00) (0, 0, 0.00000000000000000000e+00) (0, 0, 0.00000000000000000000e+00) (0, 0, 0.00000000000000000000e+00) (0, 0, 0.00000000000000000000e+00) (0, 0, 0.00000000000000000000e+00) (0, 0, 0.00000000000000000000e+00) (0, 0, 0.00000000000000000000e+00) (0, 0, 0.00000000000000000000e+00) (0, 0, 0.00000000000000000000e+00) (0, 0, 0.00000000000000000000e+00) (0, 0, 0.00000000000000000000e+00) (0, 0, 0.00000000000000000000e+00) (0, 0, 0.00000000000000000000e+00) (0, 0, 0.00000000000000000000e+00) (0, 0, 0.00000000000000000000e+00) (0, 0, 0.00000000000000000000e+00) (0, 0, 0.00000000000000000000e+00) (0, 0, 0.00000000000000000000e+00) (0, 0, 0.00000000000000000000e+00) (0, 0, 0.00000000000000000000e+00) (0, 0, 0.00000000000000000000e+00) (0, 0, 0.00000000000000000000e+00) (0, 0, 0.00000000000000000000e+00) (0, 0, 0.00000000000000000000e+00) (0, 0, 0.00000000000000000000e+00) (0, 0, 0.00000000000000000000e+00) (0, 0, 0.00000000000000000000e+00) (0, 0, 0.00000000000000000000e+00) (0, 0, 0.00000000000000000000e+00) (0, 0, 0.00000000000000000000e+00) (0, 0, 0.00000000000000000000e+00) (0, 0, 0.00000000000000000000e+00) (0, 0, 0.00000000000000000000e+00) (0, 0, 0.00000000000000000000e+00) (0, 0, 0.00000000000000000000e+00) (0, 0, 0.00000000000000000000e+00) (0, 0, 0.00000000000000000000e+00) (0, 0, 0.00000000000000000000e+00) (0, 0, 0.00000000000000000000e+00) (0, 0, 0.00000000000000000000e+00) (0, 0, 0.00000000000000000000e+00) (0, 0, 0.00000000000000000000e+00) (0, 0, 0.00000000000000000000e+00) (0, 0, 0.00000000000000000000e+00) (0, 0, 0.00000000000000000000e+00) (0, 0, 0.00000000000000000000e+00) (0, 0, 0.00000000000000000000e+00) (0, 0, 0.00000000000000000000e+00) (0, 0, 0.00000000000000000000e+00) (0, 0, 0.00000000000000000000e+00) (0, 0, 0.00000000000000000000e+00) (0, 0, 0.00000000000000000000e+00) (0, 0, 0.00000000000000000000e+00) (0, 0, 0.00000000000000000000e+00) (0, 0, 0.00000000000000000000e+00) (0, 0, 0.00000000000000000000e+00) (0, 0, 0.00000000000000000000e+00) (0, 0, 0.00000000000000000000e+00) (0, 0, 0.00000000000000000000e+00) (0, 0, 0.00000000000000000000e+00) (0, 0, 0.00000000000000000000e+00) (0, 0, 0.00000000000000000000e+00) (0, 0, 0.00000000000000000000e+00) (0, 0, 0.00000000000000000000e+00) (0, 0, 0.00000000000000000000e+00) (0, 0, 0.00000000000000000000e+00) (0, 0, 0.00000000000000000000e+00) (0, 0, 0.00000000000000000000e+00) (0, 0, 0.00000000000000000000e+00) (0, 0, 0.00000000000000000000e+00) (0, 0, 0.00000000000000000000e+00) (0, 0, 0.00000000000000000000e+00) (0, 0, 0.00000000000000000000e+00) (0, 0, 0.00000000000000000000e+00) (0, 0, 0.00000000000000000000e+00) (0, 0, 0.00000000000000000000e+00) (0, 0, 0.00000000000000000000e+00) (0, 0, 0.00000000000000000000e+00) (0, 0, 0.00000000000000000000e+00) (0, 0, 0.00000000000000000000e+00) (0, 0, 0.00000000000000000000e+00) (0, 0, 0.00000000000000000000e+00) (0, 0, 0.00000000000000000000e+00) (0, 0, 0.00000000000000000000e+00) (0, 0, 0.00000000000000000000e+00) (0, 0, 0.00000000000000000000e+00) (0, 0, 0.00000000000000000000e+00) (0, 0, 0.00000000000000000000e+00) (0, 0, 0.00000000000000000000e+00) (0, 0, 0.00000000000000000000e+00) (0, 0, 0.00000000000000000000e+00) (0, 0, 0.00000000000000000000e+00) (0, 0, 0.00000000000000000000e+00) (0, 0, 0.00000000000000000000e+00) (0, 0, 0.00000000000000000000e+00) (0, 0, 0.00000000000000000000e+00) (0, 0, 0.00000000000000000000e+00) (0, 0, 0.00000000000000000000e+00) (0, 0, 0.00000000000000000000e+00) (0, 0, 0.00000000000000000000e+00) (0, 0, 0.00000000000000000000e+00) (0, 0, 0.00000000000000000000e+00) (0, 0, 0.00000000000000000000e+00) (0, 0, 0.00000000000000000000e+00) (0, 0, 0.00000000000000000000e+00) (0, 0, 0.00000000000000000000e+00) (0, 0, 0.00000000000000000000e+00) (0, 0, 0.00000000000000000000e+00) (0, 0, 0.00000000000000000000e+00) (0, 0, 0.00000000000000000000e+00) (0, 0, 0.00000000000000000000e+00) (0, 0, 0.00000000000000000000e+00) (0, 0, 0.00000000000000000000e+00) (0, 0, 0.00000000000000000000e+00) (0, 0, 0.00000000000000000000e+00) (0, 0, 0.00000000000000000000e+00) (0, 0, 0.00000000000000000000e+00) (0, 0, 0.00000000000000000000e+00) (0, 0, 0.00000000000000000000e+00) (0, 0, 0.00000000000000000000e+00) (0, 0, 0.00000000000000000000e+00) (0, 0, 0.00000000000000000000e+00) (0, 0, 0.00000000000000000000e+00) (0, 0, 0.00000000000000000000e+00) (0, 0, 0.00000000000000000000e+00) (0, 0, 0.00000000000000000000e+00) (0, 0, 0.00000000000000000000e+00) (0, 0, 0.00000000000000000000e+00) (0, 0, 0.00000000000000000000e+00) (0, 0, 0.00000000000000000000e+00) (0, 0, 0.00000000000000000000e+00) (0, 0, 0.00000000000000000000e+00) (0, 0, 0.00000000000000000000e+00) (0, 0, 0.00000000000000000000e+00) (0, 0, 0.00000000000000000000e+00) (0, 0, 0.00000000000000000000e+00) (0, 0, 0.00000000000000000000e+00) (0, 0, 0.00000000000000000000e+00) (0, 0, 0.00000000000000000000e+00) (0, 0, 0.00000000000000000000e+00) (0, 0, 0.00000000000000000000e+00) (0, 0, 0.00000000000000000000e+00) (0, 0, 0.00000000000000000000e+00) (0, 0, 0.00000000000000000000e+00) (0, 0, 0.00000000000000000000e+00) (0, 0, 0.00000000000000000000e+00) (0, 0, 0.00000000000000000000e+00) (0, 0, 0.00000000000000000000e+00) (0, 0, 0.00000000000000000000e+00) (0, 0, 0.00000000000000000000e+00) (0, 0, 0.00000000000000000000e+00) (0, 0, 0.00000000000000000000e+00) (0, 0, 0.00000000000000000000e+00) (0, 0, 0.00000000000000000000e+00) (0, 0, 0.00000000000000000000e+00) (0, 0, 0.00000000000000000000e+00) (0, 0, 0.00000000000000000000e+00) (0, 0, 0.00000000000000000000e+00) (0, 0, 0.00000000000000000000e+00) (0, 0, 0.00000000000000000000e+00) (0, 0, 0.00000000000000000000e+00) (0, 0, 0.00000000000000000000e+00) (0, 0, 0.00000000000000000000e+00) (0, 0, 0.00000000000000000000e+00) (0, 0, 0.00000000000000000000e+00) (0, 0, 0.00000000000000000000e+00) (0, 0, 0.00000000000000000000e+00) (0, 0, 0.00000000000000000000e+00) (0, 0, 0.00000000000000000000e+00) (0, 0, 0.00000000000000000000e+00) (0, 0, 0.00000000000000000000e+00) (0, 0, 0.00000000000000000000e+00) (0, 0, 0.00000000000000000000e+00) (0, 0, 0.00000000000000000000e+00) (0, 0, 0.00000000000000000000e+00) (0, 0, 0.00000000000000000000e+00) (0, 0, 0.00000000000000000000e+00) (0, 0, 0.00000000000000000000e+00) (265, 3, 5.00000000000000000000e-01) (265, 3, 5.00000000000000000000e-01) (265, 3, 5.00000000000000000000e-01) (265, 3, 5.00000000000000000000e-01) (265, 3, 5.00000000000000000000e-01) (265, 3, 5.00000000000000000000e-01) (265, 3, 5.00000000000000000000e-01) (265, 3, 5.00000000000000000000e-01) (265, 3, 5.00000000000000000000e-01) (265, 3, 5.00000000000000000000e-01) (265, 3, 5.00000000000000000000e-01) (265, 3, 5.00000000000000000000e-01) (265, 3, 5.00000000000000000000e-01) (265, 3, 5.00000000000000000000e-01) (265, 3, 5.00000000000000000000e-01) (265, 3, 5.00000000000000000000e-01) (265, 3, 5.00000000000000000000e-01) (265, 3, 5.00000000000000000000e-01) (265, 3, 5.00000000000000000000e-01) (265, 3, 5.00000000000000000000e-01) (265, 3, 5.00000000000000000000e-01) (265, 3, 5.00000000000000000000e-01) (265, 3, 5.00000000000000000000e-01) (265, 3, 5.00000000000000000000e-01) (265, 3, 5.00000000000000000000e-01) (265, 3, 5.00000000000000000000e-01) (265, 3, 5.00000000000000000000e-01) (265, 3, 5.00000000000000000000e-01) (265, 3, 5.00000000000000000000e-01) (265, 3, 5.00000000000000000000e-01) (265, 3, 5.00000000000000000000e-01) (265, 3, 5.00000000000000000000e-01) (265, 3, 5.00000000000000000000e-01) (265, 3, 5.00000000000000000000e-01) (265, 3, 5.00000000000000000000e-01) (265, 3, 5.00000000000000000000e-01) (265, 3, 5.00000000000000000000e-01) (265, 3, 5.00000000000000000000e-01) (265, 3, 5.00000000000000000000e-01) (265, 3, 5.00000000000000000000e-01) (265, 3, 5.00000000000000000000e-01) (265, 3, 5.00000000000000000000e-01) (265, 3, 5.00000000000000000000e-01) (265, 3, 5.00000000000000000000e-01) (265, 3, 5.00000000000000000000e-01) (265, 3, 5.00000000000000000000e-01) (265, 3, 5.00000000000000000000e-01) (265, 3, 5.00000000000000000000e-01) (265, 3, 5.00000000000000000000e-01) (265, 3, 5.00000000000000000000e-01) (0, 3, 0.00000000000000000000e+00) (51, 3, 5.00000000000000000000e-01) (51, 3, 5.00000000000000000000e-01) (51, 3, 5.00000000000000000000e-01) (0, 3, 0.00000000000000000000e+00) 
connections (connected_to_neuron, weight)=(0, -3.03615860282135996417e-01) (1, -1.64631480823603765229e-01) (2, 5.64094935038248687653e-02) (3, 1.00061408623466047141e-01) (4, -6.71621607990367797125e-02) (5, 3.88137967738591202482e-02) (6, 2.98652265506437752940e-01) (7, 4.65525131833903871303e-01) (8, -1.00158044446161768881e-02) (9, -7.32798192073767784560e-02) (10, -1.86555807326510392219e-01) (11, -2.21672090580645270164e-01) (12, -2.16214568484625502265e-01) (13, -1.85909383930036170574e-01) (14, 2.91512040172989712883e-02) (15, -1.37398499800698487006e-01) (16, 8.29795390223588835710e-02) (17, -1.04125896529809011670e-01) (18, -1.47424790582911441339e-01) (19, 1.62754132992836725302e-01) (20, 1.08453145084710877999e-01) (21, -7.41643014934503519431e-02) (22, -1.24150261663629440934e-01) (23, -2.02085937702485757272e-01) (24, -1.01193680819915116098e-01) (25, 2.85716710223187647655e-02) (26, 8.91332367563244104547e-02) (27, 1.19855983234603991755e-02) (28, 1.26075618099199843192e-01) (29, -3.25674956416587783187e-03) (30, 6.65232329772566799431e-02) (31, 3.45788812445307180976e-01) (32, 3.95333828415956323177e-02) (33, -4.85712996763744755957e-02) (34, -2.19366433169051217034e-01) (35, 1.75065407565782177324e-01) (36, 3.06231880184235354548e-04) (37, -2.00490647108888614403e-01) (38, -1.15211737774256528510e-01) (39, -2.14413510053941824829e-01) (40, 6.92007258078842224513e-02) (41, -1.90071567171860078549e-01) (42, -3.18792053885627035825e-01) (43, 1.66651121531043888702e-01) (44, -1.90043774334140332105e-02) (45, 2.10981129527252862788e-02) (46, -8.60878881763250669579e-02) (47, -2.42255589828666073604e-01) (48, -1.34266795888808410098e-01) (49, 3.81192664536339903547e-02) (50, -1.00965057167969385343e-01) (51, 1.78049611119143941229e-01) (52, -1.96912910448154600263e-02) (53, 2.27528810472883535887e-01) (54, 2.17632412107094996845e-01) (55, -8.90310275149324426014e-02) (56, -1.41075996134119308056e-02) (57, -8.66135826695836053002e-02) (58, -1.84697333336305474782e-01) (59, 9.38032538255871295441e-02) (60, -4.12616974804967950874e-02) (61, 1.74998908326867014251e-02) (62, 1.44574992795995588279e-01) (63, -3.39544430699260935125e-02) (64, 2.50375166103400714768e-01) (65, 6.10792303090199571736e-03) (66, -9.94094243299119967316e-02) (67, 6.90724455387912994464e-02) (68, 5.04302084184614571316e-02) (69, 2.21058297538723164122e-01) (70, -1.10008342512226200971e-01) (71, -4.32104050388739613364e-01) (72, -1.70336357910149865935e-01) (73, 1.88352984679459350970e-01) (74, -3.32785743363231245606e-01) (75, -1.22618397176491519818e-01) (76, -2.41793960352781001077e-01) (77, 3.07189566222047683031e-01) (78, 1.62094509851714863036e-01) (79, -6.81824872542093202155e-02) (80, 7.12984425623355982937e-02) (81, 7.30110690398740325158e-02) (82, -1.33588347858615813513e-01) (83, 5.95817605188714224940e-02) (84, -4.05515311137318468920e-03) (85, -9.71959125494564063485e-02) (86, 1.02898077306001492492e-01) (87, -4.29224420345237223096e-01) (88, -7.70218553281089204215e-03) (89, 3.81678875658730681897e-02) (90, 3.23747507932908781814e-02) (91, 1.10994481196975094961e-01) (92, -6.20425096978421269922e-02) (93, 1.92507601167717812274e-01) (94, -1.58091830550758538632e-01) (95, -4.21406188175246831928e-01) (96, -1.73339657583362838356e-01) (97, 1.84048064262942109859e-02) (98, -2.25724633500338417447e-01) (99, -2.43321722011191586554e-02) (100, -2.84100378773608552851e-01) (101, -2.61958089341464764321e-02) (102, 1.51023086078589913184e-01) (103, -5.58325522448984035151e-01) (104, -5.45548318589817657354e-02) (105, -9.28651120885054803811e-02) (106, -1.67426204901084674237e-01) (107, -3.48272100379076873441e-03) (108, 1.14469847194855700589e-01) (109, -2.47218940732154918161e-01) (110, -2.13648280344009455778e-01) (111, -6.45089397447629331328e-02) (112, 1.15803564323764540678e-01) (113, 3.43150801834533683565e-02) (114, 6.65159350198777418045e-03) (115, 7.29230233930685534105e-02) (116, -4.58296791078574738965e-01) (117, -1.93775428807255067909e-01) (118, -1.72532611257989014486e-02) (119, -3.85423112793318423108e-01) (120, -3.20633977039071482729e-01) (121, 1.78149524250011570548e-01) (122, -7.44709908976750489806e-01) (123, 1.43402618204813259162e-01) (124, -2.88159629068847455979e-01) (125, 4.02521770668195166820e-01) (126, 6.75154837594035717174e-01) (127, -7.12942514780847247380e-01) (128, 9.13862086371521747941e-02) (129, 8.10897226065661058669e-02) (130, -2.42064146589357404027e-01) (131, 2.35567742421550763154e-01) (132, 4.57177329318420172521e-02) (133, -6.13748512880883320686e-02) (134, -8.01172409127416274011e-01) (135, -3.59619590285145562802e-01) (136, -2.69911054831252050779e-01) (137, -2.45136926465143352438e-02) (138, -3.17198705118593715646e-02) (139, 9.05993051430288159898e-02) (140, -2.67536096204749995753e-01) (141, -2.71838204013338385900e-02) (142, -1.74878158034975278445e-01) (143, -5.11910319328308105469e-02) (144, -5.19477267330249597999e-02) (145, -6.70145965748861344169e-02) (146, -2.50598403345633491401e-01) (147, -1.13113669851072129457e-01) (148, -2.17183193547249631106e-01) (149, 4.15152633290770844976e-01) (150, 2.98617977810295143204e-01) (151, -5.78591907082587675326e-01) (152, -3.31375284736752026560e-02) (153, -1.28309284455606714692e-01) (154, -1.01540292889523292574e-01) (155, -1.57455216720561508303e-01) (156, 1.42200944818306168616e-01) (157, -6.45581477780342860573e-02) (158, -6.46364089796530816301e-01) (159, -4.31163936092413213608e-01) (160, -5.34962565061969042013e-01) (161, 1.92914792646397582898e-02) (162, -2.64331786138425284260e-01) (163, 1.10781573402884969681e-02) (164, -1.83289036692186713129e-01) (165, -2.62431937231526302146e-01) (166, 1.93256209928247213448e-01) (167, -2.42394970554114574934e-01) (168, -7.66810752074486290386e-02) (169, 8.21613141905235544460e-02) (170, -7.87920393564417731458e-02) (171, -1.46389040731279090890e-01) (172, -1.36704542203414172730e-02) (173, 3.73371922324967187024e-01) (174, 2.47080881114878081473e-01) (175, -2.72900019574032065561e-02) (176, 8.23934366632209924663e-02) (177, -1.38099263837121427612e-01) (178, -6.52152943455494987779e-02) (179, 1.83536932724369383774e-01) (180, 1.15760695264566546014e-01) (181, 9.54978634711391299872e-02) (182, -6.56271487177970791471e-01) (183, -2.86823231587190197178e-01) (184, -2.60063425794747726805e-01) (185, 7.57423062670340152547e-02) (186, -9.02870781132254218715e-02) (187, -5.29128340633642016422e-02) (188, -2.24679344795647939481e-01) (189, 5.41861627120592825868e-02) (190, 2.62711232222480051135e-01) (191, -3.03535282839199838101e-01) (192, 2.03481100999986036504e-01) (193, 8.69629234862634020731e-02) (194, 5.04260312530553159172e-02) (195, -3.85804207029359802483e-01) (196, 3.68933850856685008335e-02) (197, 2.22469203699297096710e-01) (198, -1.71455010944881261481e-02) (199, 8.93013190303153792104e-02) (200, 7.46954376873919523305e-02) (201, -1.66272477191974489379e-03) (202, -3.02769959039071289569e-03) (203, 1.78463988232334502815e-01) (204, 1.64260119025348344524e-01) (205, 2.19122249333114429981e-02) (206, -6.70135668990402111334e-01) (207, 5.28590126083361075415e-02) (208, 2.22149945157512559990e-02) (209, 1.43914928302524114390e-01) (210, -7.16116852758125893574e-02) (211, 1.27731415948167559282e-01) (212, 8.12036268704744851332e-02) (213, 5.96920983730896068109e-02) (214, 2.21272199017372078744e-01) (215, -2.84776122622193317291e-01) (216, -1.58786327780229052919e-01) (217, 1.46578819211460043004e-01) (218, 1.22865225890550752719e-01) (219, 6.33284181420519787231e-02) (220, -9.28403974214995625358e-02) (221, 1.84342474918670257145e-01) (222, 2.10393393414859630752e-01) (223, -1.97815327729719651895e-02) (224, -5.72728771160294428122e-03) (225, 1.12600697591198079667e-02) (226, -3.47841195692884658230e-02) (227, 1.37235559220146047243e-01) (228, 2.91351306898509465615e-01) (229, 7.86432513690863699285e-02) (230, -1.94615022409987542540e-01) (231, -1.31289988505069538105e-01) (232, -1.09851072933283069877e-01) (233, -2.80716658217710322842e-02) (234, 5.91498094460646064996e-02) (235, 3.04734462660090493769e-02) (236, 3.43329689469097469601e-03) (237, 5.19514084066782788618e-02) (238, 1.75102245827814001489e-01) (239, -3.59722249139611260915e-01) (240, 2.17654793884283215277e-02) (241, 4.94686333392224050765e-02) (242, -5.35790203073819356477e-03) (243, -4.30629397596865998166e-02) (244, -1.20325867717521878264e-01) (245, 6.84329872732734184604e-02) (246, 4.35893372229043238233e-04) (247, -1.05766652448903403227e-01) (248, -1.12267014470498707746e-01) (249, 2.67047599561243798050e-01) (250, 2.01431309723672402612e-01) (251, 1.35296657692448696331e-01) (252, 3.17771457453422501160e-01) (253, 1.33279103610785765177e-01) (254, -1.10899804355531081401e-01) (255, -8.65156608150864786522e-02) (256, 1.06747332729712221533e-01) (257, -2.29694587594630669769e-02) (258, -3.11632437773021117589e-02) (259, 3.16279909733791719795e-01) (260, 1.55935662766582328054e-01) (261, 3.66653257652789568710e-02) (262, 8.33837396399404046088e-02) (263, -2.45991716512886454682e-01) (264, -4.91618625009331622344e-01) (0, 3.79556362386728601832e-02) (1, -2.45737406193787255582e-01) (2, 4.79203950894082145173e-02) (3, 7.40501935372680775149e-02) (4, 1.76357307563864973421e-01) (5, -9.04690615870389590325e-03) (6, 2.50513638669624082167e-02) (7, -1.60860958810352977499e-01) (8, -8.80583524424875391245e-02) (9, 5.69882712430820406735e-02) (10, -1.11149093031179868607e-01) (11, -6.83611212706248805304e-02) (12, -5.36567747109313319953e-02) (13, 5.53011416947022590995e-02) (14, 3.15691935886108387965e-01) (15, 2.58817989987968177790e-01) (16, 3.10293603765542269635e-01) (17, -6.85826153300268803736e-02) (18, -4.64325933861032616456e-02) (19, 1.75329839226518291451e-01) (20, -8.29510579241575507492e-02) (21, 8.52935583547070469423e-02) (22, -6.87205031969252005952e-02) (23, -2.65000482192109032553e-01) (24, -2.92766433856938568248e-01) (25, -3.32436055590986823116e-01) (26, 1.37741620974691086898e-02) (27, -1.47771607970909019114e-01) (28, 2.31873374491816906795e-02) (29, -2.09446016096312748189e-01) (30, 6.93678116246268655631e-02) (31, -1.04070334379957104426e-02) (32, -8.26705995749344307866e-02) (33, 1.45654237904165317907e-01) (34, -5.09929651057690613847e-02) (35, -8.37762819991068330427e-02) (36, -9.04183755178446652012e-02) (37, 1.05478176924415856242e-01) (38, 4.13979761964044304379e-02) (39, 2.81544301760680848457e-01) (40, 2.52097507238622342562e-01) (41, -3.71536192369006701419e-01) (42, -1.78680759963318974703e-01) (43, 1.85157442579599207377e-01) (44, 1.16300094969725112404e-01) (45, 1.78483365698087093065e-01) (46, 2.01644829842503210682e-02) (47, -4.08220151328176350525e-01) (48, -1.60464669905622747681e-01) (49, -1.52899947929264728996e-01) (50, 7.69060739269616516767e-02) (51, 8.10291054748695643850e-02) (52, 5.31797098689546984818e-02) (53, 1.51881951778032764366e-01) (54, 4.51121192248742752806e-01) (55, 6.75036647999117112029e-02) (56, -1.28235511728150036737e-01) (57, -3.92246260279029090867e-01) (58, -4.21336755881576707772e-01) (59, -5.86102268689349184538e-02) (60, 1.02242407785353331406e-01) (61, -1.72041078083680160082e-01) (62, -1.99742072022498745598e-01) (63, -4.97328655231735750064e-02) (64, 2.38024809755432192881e-01) (65, -3.30446345330070334612e-01) (66, -1.49977855954697841812e-01) (67, -1.30113365873976150056e-02) (68, -2.00688966952347697115e-01) (69, 8.85506056184564085965e-03) (70, -4.38451645784955074125e-02) (71, -2.70363367449587388425e-01) (72, -8.39480272893905810072e-01) (73, -5.18646196787038507581e-02) (74, -1.61340612909658870366e-01) (75, -3.82577832504360004773e-01) (76, 7.79595213025730156275e-03) (77, -2.01509281241670640261e-01) (78, 4.32291448877144129925e-02) (79, 3.98415405316839332794e-01) (80, -6.77796691948715814002e-03) (81, -6.82009030240252195343e-02) (82, -5.73581645094544678720e-01) (83, -5.25274298435310260658e-01) (84, -2.38905622392509481289e-01) (85, -2.24550528487928030552e-01) (86, -3.03724867958542088520e-01) (87, 1.03549682725143005202e-01) (88, 4.79235079604215685745e-01) (89, 3.34071655291523661457e-01) (90, 3.36708657236791317202e-02) (91, 2.16003031467221551232e-01) (92, -1.85265073579337719023e-01) (93, -2.75362269493600216042e-02) (94, -5.40381107715143318981e-02) (95, -1.53303279329028319111e-01) (96, -5.52816304120175128212e-01) (97, 3.37394393868681030657e-01) (98, -4.96358363557486415019e-01) (99, -8.05681506743729181075e-01) (100, 5.91658414826695538968e-02) (101, 7.17987415965991471190e-01) (102, 1.96419948555910939270e-01) (103, -4.92062401454143816260e-01) (104, 5.36498234408393781525e-02) (105, 1.30185132739426862036e-01) (106, -6.40136079091402021568e-01) (107, 1.11889961171997620593e-01) (108, 2.96085965898992657663e-03) (109, 3.73576407975867053057e-01) (110, -1.37999729966441431195e+00) (111, -8.12677400464933308299e-01) (112, 6.26332847353329058571e-01) (113, 2.33012206765710605527e-02) (114, -7.13972583420068307447e-02) (115, 6.34772085694459642369e-01) (116, -1.90159451775178872657e-01) (117, -2.90204817190090724743e-01) (118, -1.50279524020868332501e-01) (119, -1.72111856176844102428e-01) (120, -1.53523427479506957560e+00) (121, 7.48560573259156813997e-01) (122, -5.44005292083362401723e-02) (123, -3.82584491179736377320e-02) (124, -1.35663099961628591528e-01) (125, -1.69801859675795890903e-01) (126, 4.87171768911913716238e-01) (127, -1.13952499812297936010e+00) (128, -2.45766441971436181910e-03) (129, -8.14275780368789309227e-02) (130, -1.38772074428078567854e-01) (131, 6.85670785218299022601e-02) (132, -1.93753247640997883217e-01) (133, -3.47276884576448313657e-02) (134, 1.00298176330231192388e+00) (135, 3.40693398196163843572e-01) (136, 8.73579073162886743376e-01) (137, 3.04350686246043722338e-01) (138, 2.55342611020606347072e-01) (139, 1.90088048461577591164e-02) (140, -7.25381667208130798130e-01) (141, 4.22264021004565170969e-01) (142, -1.43072111111155697571e-01) (143, 1.94528549909591674805e-02) (144, -5.22756853430575429975e-01) (145, -2.11691006660584685184e-01) (146, -1.90556815727997458376e-01) (147, -1.53093704056564833271e-01) (148, 8.75333442209434570147e-02) (149, -1.45882751976105062841e-01) (150, -7.34961487110267319700e-01) (151, -3.34983235869359519121e-01) (152, 1.07759191460619616065e-01) (153, 5.09302871265458811934e-01) (154, -2.78218665219728600313e-01) (155, -4.00585886552021153140e-01) (156, -8.19693633972445462321e-02) (157, -2.19668176946293036700e-01) (158, -1.40208666468302012298e+00) (159, -3.09082997674636816843e-01) (160, -2.56441934249854739183e-03) (161, -1.95625691735015455608e-01) (162, -2.78134263553688532156e-01) (163, 1.18891312652520486637e+00) (164, -2.01939035153259921485e-01) (165, -1.16380078306238740615e-01) (166, 1.58261598459269764438e-01) (167, -2.91689857767937654742e-01) (168, -3.13901430523642221981e-01) (169, 6.11712937573941975544e-02) (170, 4.54262100122132750357e-01) (171, 6.99430421803161728178e-01) (172, -6.01349734437222727124e-01) (173, -4.75559050959019402605e-01) (174, 3.48369482943637953642e-01) (175, 6.35422598345543820919e-01) (176, 2.60074255139553260283e-03) (177, 5.74663456002727640604e-02) (178, -6.96305917420060203546e-04) (179, 1.36760385055560929057e-01) (180, -3.65502692257476335946e-01) (181, -3.70320512186360029094e-01) (182, 5.64714765463829149184e-01) (183, 5.48684733413857955719e-02) (184, 4.76241787583896236669e-01) (185, -5.09887448683835134422e-02) (186, -4.71932724603542630426e-02) (187, -1.91515925491347244192e-01) (188, -6.29847060657615531731e-01) (189, 2.83633435245001841452e-01) (190, -4.51162001236080426048e-02) (191, -1.74906639338764491320e-01) (192, -8.02177758899862702879e-02) (193, -1.23284659400934401563e-01) (194, 1.65890614842731931589e-01) (195, 3.77847844014109923716e-01) (196, -3.22097494590892485800e-01) (197, -1.24233575887746083843e-01) (198, 1.31008342614849893071e-01) (199, 4.71180126788700415208e-01) (200, -7.61376944232416974501e-02) (201, -1.55453787887440020299e-01) (202, -2.07649838406805925528e-01) (203, -1.30650251759219293568e-01) (204, -3.79043848603285660204e-01) (205, -1.00877768059199665607e-01) (206, -5.12100311076306782820e-02) (207, 8.28323128132593400341e-02) (208, 6.53540219925867471584e-02) (209, 4.60084534702342867751e-02) (210, -5.22310978396501424115e-01) (211, 1.50621110949378578248e-01) (212, -3.28176668117937178626e-02) (213, 1.38718019898243533072e-01) (214, 4.46075475135721266629e-02) (215, -1.93342448177967779488e-01) (216, -2.09180115679339223567e-01) (217, -1.95164345192989252542e-01) (218, 1.14568877224089052391e-01) (219, -1.76356158489500564057e-01) (220, -9.23144691208594020404e-02) (221, 4.25534771063910619016e-02) (222, -3.59079641918990666305e-01) (223, 6.61327781140358395007e-01) (224, 1.71405010121270656720e-01) (225, -2.56578334643135230753e-01) (226, -1.20881052346180850599e-01) (227, -1.17769979136904734407e-01) (228, -4.21622215275217704367e-01) (229, -5.88456314397512933456e-02) (230, -6.90570722325723890256e-02) (231, -4.23817693330859446288e-01) (232, 4.05920300554421867312e-02) (233, -1.19513138348326553029e-01) (234, -3.74463692381027168921e-01) (235, 5.53148824285467771711e-02) (236, -1.38200813645250442097e-01) (237, 7.68412061524808148727e-02) (238, -9.83043506533702315942e-02) (239, -1.51835847206624047212e-01) (240, -2.07035092693557742916e-01) (241, 1.61334384524769253177e-01) (242, 2.09062253427505055636e-02) (243, -3.73986660287050354246e-01) (244, -6.72327517991843648382e-02) (245, -1.75815392331031342121e-02) (246, 1.15953549908559536141e-01) (247, 3.51377403813309896474e-01) (248, -2.19452236360312240293e-02) (249, -2.99909324728989012954e-01) (250, -2.21366981811027485616e-01) (251, 1.56436897058310458997e-01) (252, -1.52464209507704451241e-01) (253, -1.82530928860068289432e-02) (254, -2.90671392457255983732e-01) (255, 1.08253584521805445995e-01) (256, 3.36244566936874600405e-01) (257, 9.27969717459216220101e-02) (258, -6.17152873373580587724e-02) (259, 1.21238351130103005904e-01) (260, -1.31075220987377727422e-01) (261, -9.60785858919519925037e-02) (262, 4.45853321260311977192e-02) (263, -1.67931828337252342376e-01) (264, -7.96489895050753515804e-01) (0, -1.44983108187942633105e-01) (1, 2.10295433069735748788e-01) (2, -9.95876974336417780664e-02) (3, -3.96357362125594692159e-01) (4, -1.56153792125427098858e-01) (5, -4.92640183260781294727e-02) (6, -2.91726807761035156208e-01) (7, -1.08913385820894409450e-01) (8, -8.13300314649657851707e-02) (9, -1.56174591053891809178e-01) (10, -4.26510379338006714867e-02) (11, 6.11477033159138344542e-02) (12, -1.87315415931409885719e-02) (13, -4.68450763268067060796e-02) (14, -1.09026844443683337826e-01) (15, -1.41099228781918994979e-01) (16, -1.62452814840306714039e-01) (17, 2.05269344650116980500e-01) (18, 1.59850470590685383998e-01) (19, 1.19378631658200173860e-01) (20, -1.48170153492994560729e-01) (21, -2.32516678945631494191e-01) (22, -1.10228568679414232201e-01) (23, 2.15337248986264440109e-01) (24, -1.90998943815267302471e-01) (25, -1.39717249790104997009e-01) (26, -8.54535564357718491202e-02) (27, -3.65057312830730229525e-01) (28, 8.23166574400886474905e-02) (29, 2.48654496647624546901e-02) (30, -2.56670748017768290961e-01) (31, -1.18088736326510540531e-01) (32, -1.45103907681744803693e-01) (33, 5.09230214691560115203e-02) (34, -2.80936780060804802694e-02) (35, 1.39883383573604941352e-01) (36, -1.90991984946178652849e-02) (37, 7.79052140965694056574e-02) (38, -1.56929355352442456706e-01) (39, 1.62727469990880557749e-01) (40, -1.68011008097712383202e-01) (41, 5.74551683697453671740e-02) (42, 8.03556967974334429572e-02) (43, -7.43012762295397061196e-02) (44, -1.09310634504113504684e-01) (45, -1.64914351644083856385e-01) (46, -1.20724021884149240735e-01) (47, 8.80152313796970370285e-02) (48, -1.32328636800485652941e-02) (49, 1.37646391187200983763e-02) (50, -2.62274584764142781879e-01) (51, -1.94402985555647139781e-01) (52, -1.34712597221751467780e-01) (53, -7.74191169215111690827e-02) (54, -1.45012861996703490419e-01) (55, -2.02989491493112239606e-01) (56, 6.29060620510395185345e-02) (57, 1.20174088500416220704e-01) (58, 8.98006388924308118771e-02) (59, 2.20145697218499594716e-02) (60, 3.46666207573617310422e-02) (61, -1.68266694020665556579e-03) (62, -4.51246389008466419757e-01) (63, -1.66854994022886116145e-01) (64, -1.73576258657348325709e-01) (65, 5.31255711709085129413e-02) (66, 9.93232766780837716958e-02) (67, 3.21151965383341342353e-01) (68, -9.73850054847219120946e-02) (69, -1.03242019195191200853e-01) (70, -1.57770671268277123955e-01) (71, 6.33194577528816034129e-03) (72, -2.13800483735510776784e-01) (73, -5.59665733708015755710e-02) (74, 1.55395155106404753154e-01) (75, 1.44920260671262152163e-01) (76, -8.79013700862445734874e-02) (77, 2.89532113053457447471e-02) (78, -6.51395106257450645648e-02) (79, -1.73564811995385426258e-01) (80, -9.35559568476421882233e-03) (81, 2.51343504617101975995e-02) (82, -6.26722018537756997425e-02) (83, 1.43344696607129784560e-01) (84, -1.92228823586490182862e-01) (85, -9.84875180794306526177e-02) (86, -4.47341874858613208765e-01) (87, 1.35797885278211294402e-01) (88, -1.22206554975024681009e-01) (89, -9.34037464827503421472e-05) (90, -3.22946169972755589561e-02) (91, -1.59866162562879096654e-02) (92, -1.35531389603091301232e-01) (93, -2.94028571999486402350e-03) (94, -6.35201841368914082997e-02) (95, -2.12490634215192958356e-01) (96, 4.63331142638998341732e-02) (97, -9.00750187910447364104e-02) (98, -1.18996319013734593029e-02) (99, -6.31975936226047280142e-02) (100, 3.61339332526391596168e-02) (101, -4.03626476525559718667e-01) (102, -3.90190564571476661282e-01) (103, 1.27669728065644277892e-01) (104, -3.15783592129928958325e-01) (105, 5.80590593452005143682e-01) (106, 2.86376813601311119850e-01) (107, -2.61622437733802781779e-01) (108, -5.82229439820062463773e-02) (109, 3.56079314772125177235e-01) (110, -2.89083964861997833040e-01) (111, -2.12155678013506820978e-01) (112, -2.87403917663755836820e-01) (113, -3.73443730885286220844e-02) (114, -6.74892373222806402078e-02) (115, 4.92204542845564363418e-01) (116, 4.29462923182165889902e-02) (117, 2.24960173055544387921e-01) (118, -1.24682944234578554910e-01) (119, -3.49188930979068501426e-01) (120, -1.36374001962705736213e-02) (121, -7.57403820851050221807e-03) (122, 9.23560912275488699041e-02) (123, -3.41750291306091191768e-01) (124, -1.47122354228035434609e-01) (125, -5.69173159907163592197e-02) (126, 6.65811191486184728028e-02) (127, -4.16216514963899178459e-02) (128, -1.11583058545411034634e-01) (129, 1.06549388479148118836e-01) (130, -1.33713714205356465348e-01) (131, -9.81606098796503623305e-02) (132, -1.43507619819967291441e-01) (133, -7.53945393982561745672e-02) (134, -8.54885996819157112370e-01) (135, 1.71427793496448627186e-01) (136, 1.43211840194527900705e-01) (137, 2.35481737641548616313e-01) (138, 7.70041163206119927409e-02) (139, 1.74922897552311801261e-01) (140, -1.57721963720414692922e-01) (141, 2.93542221509579093208e-01) (142, -9.25501514797118091105e-02) (143, 4.05994877219200134277e-02) (144, -2.81409067328408146746e-01) (145, 3.67869727246742175830e-03) (146, -3.08182937922898803063e-01) (147, -4.30273436255693808583e-01) (148, -1.10532756468670542715e-02) (149, -2.70992942090913443987e-02) (150, -4.09122310902054336923e-02) (151, -4.84241388572818898250e-01) (152, -9.35827060111374536833e-02) (153, 1.02510777909887773607e-01) (154, 1.14478595781661862674e-01) (155, -1.24001432829177096751e-01) (156, -1.28308111777685474042e-01) (157, 2.10910833875631253953e-01) (158, -6.98090186410479790480e-02) (159, -2.22752555626952897239e-01) (160, 5.21090076054988513010e-02) (161, 2.52868969544514710091e-01) (162, 2.56133243106286379032e-01) (163, 2.12704022670721165644e-01) (164, 3.40229059354645813062e-01) (165, 2.30465036423543045974e-01) (166, 2.26626550108744856393e-01) (167, -1.31499400633929203197e-01) (168, -2.87163274285710812261e-01) (169, 6.09884883169178396156e-02) (170, -3.32705015610332555109e-01) (171, -1.23637077271232881381e-01) (172, 1.47099386029371448359e-01) (173, -8.67948139764548876052e-02) (174, -9.01452249075513356580e-02) (175, -6.85174288773523487706e-01) (176, -5.44958994696218002041e-02) (177, 4.19067237104869677600e-02) (178, 5.53186796016490872629e-02) (179, -1.92628976696662929102e-01) (180, -6.98680388662691331803e-02) (181, 1.95917051424526538969e-03) (182, -3.27962551335738705660e-01) (183, -7.32755424887440304227e-02) (184, 7.27093111475117653830e-02) (185, 1.77558701507251004426e-01) (186, 1.74482789970785950873e-01) (187, 8.06429492174772916124e-02) (188, 1.88207895884411419152e-01) (189, -1.39754512900276073317e-01) (190, 3.92278304908228458991e-02) (191, -5.61945349412130285005e-02) (192, -1.75058783241589938084e-01) (193, -7.16259118302273595225e-02) (194, -1.63622570829568519946e-01) (195, -6.88606581080483115542e-02) (196, 1.77862648444007787063e-01) (197, -2.05799128910432865824e-01) (198, 1.45993832906857495813e-01) (199, -2.91649405103392433958e-01) (200, 3.96047438548320779317e-02) (201, -2.15842254891143760231e-02) (202, 1.10659377174759709916e-01) (203, -1.39442149286977262745e-01) (204, 5.68399446623959157809e-03) (205, 4.55786979656547033835e-02) (206, -2.86311854571821788884e-01) (207, 1.81288306130281212658e-01) (208, 4.89962429580278330254e-03) (209, 1.08387166491043074323e-01) (210, -2.06178913973451456709e-02) (211, 4.98908370327007105738e-02) (212, 1.00219249902062768065e-01) (213, -5.74847707132426985477e-02) (214, 7.25179984246712566742e-02) (215, -7.02646936854006559647e-02) (216, 1.16959059853263783180e-01) (217, 1.45647142606714231211e-02) (218, 7.67617851881873120012e-02) (219, 8.65191813448352442517e-02) (220, -3.15490979463591003640e-02) (221, 1.49877998532487344274e-01) (222, 7.85850730261572309743e-03) (223, -2.82282599848120929753e-01) (224, -2.11511627893180370608e-01) (225, 9.91304419771431855057e-02) (226, -6.79413810063637102488e-02) (227, 1.52753217109858133171e-02) (228, -3.20378891084739034212e-02) (229, -6.69979789522835711413e-02) (230, -6.56605586877693613718e-03) (231, 1.12635415063962962545e-01) (232, -1.60445667849796524962e-01) (233, 1.05250538415079912535e-02) (234, -2.07408355358850521322e-01) (235, 5.07344445964682394523e-02) (236, 1.10991235115775771503e-01) (237, -2.60629150670418197056e-01) (238, 1.57677453328990031800e-02) (239, 1.38990546809317494503e-02) (240, -1.39644993078011869780e-01) (241, 9.62570414551652125956e-02) (242, 8.06705072628089436826e-02) (243, 1.09295323959243156908e-01) (244, 4.86833201492715625380e-02) (245, 2.30089230704448616249e-01) (246, 2.58973605344260393579e-01) (247, -7.41810581312206673843e-02) (248, -1.04661636318673610668e-02) (249, -6.22314602030799995935e-02) (250, -2.33151654785635126244e-01) (251, 1.63782033395731524417e-01) (252, -2.07661228989455826088e-01) (253, -1.02424839181931598420e-01) (254, -2.35675778012426166697e-02) (255, 8.00414126216645177569e-02) (256, -7.33479324012265149202e-02) (257, -1.75264290943286937807e-02) (258, 3.75822236363856712615e-02) (259, 7.66270129518055453932e-02) (260, -9.75354395692608205914e-02) (261, -1.85511221533362608005e-01) (262, -5.51511715101380486925e-02) (263, -2.02241230898669403782e-02) (264, -1.64923760689662524115e-01) (0, -3.93030323458309516216e-01) (1, 2.73560257671048689954e-01) (2, -1.03086111243452488440e-01) (3, -8.95701758012793225472e-02) (4, 3.64794686971978698864e-01) (5, -2.95223577368206036020e-01) (6, -3.56493111797670569896e-01) (7, 6.17156509529024396160e-03) (8, 1.37875563551716706634e-01) (9, -4.04073026978137295195e-01) (10, -5.55733477175532564196e-01) (11, -7.17620149299349752159e-02) (12, 1.40525707746890965444e-01) (13, 4.14713001459208682742e-02) (14, 3.35854818741756627754e-02) (15, 1.24917228056442564110e-01) (16, -7.00094223133106430268e-02) (17, -2.08089073143399555521e-01) (18, -1.70252004374068122150e-01) (19, -4.63059195402568679611e-02) (20, -1.41247303806357527023e-01) (21, 1.16104888543933151834e-01) (22, -1.89160153603053465821e-01) (23, -2.33073697842493515742e-01) (24, -2.52392430382965271551e-01) (25, -3.39013727937417685965e-01) (26, 5.30807466989281148684e-02) (27, 2.77735996653468319995e-01) (28, 1.46955687650774685649e-01) (29, 3.96804656830705357318e-02) (30, -1.96065515546323315688e-01) (31, 4.59211428494535167655e-01) (32, -5.95431643021453183007e-02) (33, -1.24042160822971772594e-01) (34, -3.58663574097006110364e-01) (35, 2.16253843786490151935e-01) (36, 4.41893605504093817116e-02) (37, 6.53796361740101583671e-02) (38, 1.74946597170954676326e-01) (39, -8.93071899829067095133e-02) (40, -7.66665697516849264925e-02) (41, -1.30666462511658226786e-01) (42, 1.09272346688759278144e-01) (43, 6.37864733007552225930e-02) (44, -3.27702603434446917974e-02) (45, 1.74828305057842803283e-01) (46, -1.51742131125346763065e-01) (47, -5.15422481312115210450e-01) (48, -4.03219258896956533889e-01) (49, -1.38233224978942803585e-01) (50, -6.25515891846362484530e-03) (51, -1.65564816433265843409e-01) (52, 2.77096955074791317930e-01) (53, -8.75581416356196184925e-02) (54, -6.50549440632244985183e-02) (55, -4.95937344888427722456e-02) (56, -3.44858404488877917649e-02) (57, 2.36975289123115828716e-02) (58, -6.68182961620630427868e-02) (59, -7.94895367473375247247e-02) (60, 7.18415242219249405853e-02) (61, -5.10315175134573806304e-01) (62, 3.53144746917025131872e-02) (63, 1.42350196849104937424e-01) (64, -1.08668102453246557398e-02) (65, -4.88406973740043853782e-02) (66, -1.00626698883249765526e-01) (67, 3.33033033963417712808e-01) (68, -9.91993436733130951044e-02) (69, 2.15207108224706213095e-02) (70, -1.52495259353900819432e-01) (71, -6.56806848709622248528e-01) (72, -6.96272874469407998532e-01) (73, -2.24234888382034314169e-01) (74, 2.63001563456332243529e-01) (75, 4.56342214599505247019e-01) (76, 8.98580637126955295013e-02) (77, -8.75431711976798997144e-03) (78, -1.13882632041919884536e+00) (79, -5.94796915655193325634e-01) (80, 7.70667806145299283394e-02) (81, -4.81070600657704794401e-01) (82, -3.55675472496113420640e-01) (83, -2.68069459324595971150e-01) (84, -1.34516296472815849450e-01) (85, -1.51264253539130588688e-01) (86, 1.30504324688362038920e-01) (87, 4.03100355485826844504e-01) (88, 6.37524832749783443298e-01) (89, -2.77005327418697155917e-01) (90, -2.06133053679483750631e-02) (91, -5.59878865433970362986e-01) (92, -1.11416744436686823705e-01) (93, 4.34849947218896443202e-02) (94, -1.49614768574199280549e-01) (95, -5.93368009384500072478e-01) (96, -1.96103052339228645096e-01) (97, 4.79769629077110917881e-02) (98, -2.01179471821000460663e-01) (99, -3.21708020284745890849e-02) (100, -3.96352932240884359150e-01) (101, -1.48882394483521196538e-01) (102, -1.05027415180543551299e-01) (103, -6.72197484496696584522e-01) (104, 2.08916617089542011598e-01) (105, -2.51621664739139702660e-02) (106, 2.00460016325666630366e-02) (107, 4.27421434364218880142e-02) (108, 4.60396408253192779281e-02) (109, -3.00405076460376119218e-01) (110, 1.01974995879507823737e+00) (111, -2.48496581696926649441e-01) (112, -3.95892262911400061309e-01) (113, 2.59430686536748500437e-01) (114, -4.37608974280036464033e-02) (115, -1.48626006135520932760e-01) (116, -2.68822432618064766086e-01) (117, 7.34802149611188393230e-02) (118, -3.02368546930137871431e-01) (119, -5.51457579505350903304e-01) (120, 6.05930757295925381811e-01) (121, -2.36433580490282679865e-01) (122, -4.13180925674102167422e-02) (123, 7.13493940241264446023e-01) (124, -3.45134146034383137991e-01) (125, 3.10911492678523526667e-01) (126, 8.90315950270017975043e-01) (127, 4.15544018181688706859e-02) (128, 9.48493394909379408664e-03) (129, -3.36083614591913604208e-01) (130, -5.95310599191155032095e-01) (131, -2.42730570398560940859e-01) (132, -2.36431071409572757247e-01) (133, -4.18415940094957250484e-01) (134, 6.80923826460849923592e-01) (135, 7.15445364069224210013e-01) (136, -6.10663126630786035065e-01) (137, 2.10874835911146085721e-01) (138, -2.67802128346128320846e-01) (139, -3.79595973684854703922e-01) (140, -5.45022195166584566550e-01) (141, 7.17424191350478079876e-01) (142, -2.34579601823655170545e-01) (143, -4.52099815011024475098e-02) (144, 4.10953073843528415843e-01) (145, -3.67639246688279519581e-01) (146, -9.41537138765592640510e-01) (147, 4.20510672457709344663e-01) (148, -4.12446678268675315238e-01) (149, 7.24243365323031240699e-01) (150, 4.60836274264267986567e-01) (151, -1.30664520997324595797e+00) (152, 6.14749146048505501483e-02) (153, -8.66758597634751104533e-02) (154, -4.82042651227684526560e-01) (155, 9.87789409142434370048e-03) (156, -7.83480264615764449010e-02) (157, -3.35232414684003943162e-01) (158, -9.86199107395190788239e-01) (159, -9.07109894276212358477e-01) (160, -9.78344973256820571450e-02) (161, -1.82537283806625649785e-01) (162, -1.93474025655800629941e-01) (163, -9.18111857906305228738e-02) (164, -9.76027461884415720172e-02) (165, -3.16259740706641256924e-01) (166, -1.24454091136268665818e-01) (167, -1.65094763342018752139e-01) (168, 6.56895466464129440531e-01) (169, -1.90904985353719004737e-02) (170, -7.44331610090807282987e-01) (171, -8.54219713923010548484e-01) (172, 2.25833167623618852327e-01) (173, -2.17509986936671034785e-01) (174, -7.96560114111138029003e-01) (175, -1.21021663149660985148e+00) (176, -2.45652178046880692586e-01) (177, -2.68644906437582250969e-02) (178, 1.18902953214653564484e-01) (179, -4.48826537395455749113e-01) (180, 4.38800164881084364676e-01) (181, -1.78103750564244711629e-01) (182, -1.21778851111357266923e+00) (183, 2.48138839958135931640e-02) (184, -6.11483791567672407830e-01) (185, 2.40100428798953741127e-02) (186, -3.29439631955164791144e-01) (187, -6.63989600288889675328e-02) (188, -3.31954865169248103385e-01) (189, -6.63117630966746918197e-01) (190, 1.06511446181226029917e-01) (191, -3.53941285811938510797e-01) (192, 4.48902258881750948483e-01) (193, 8.24485312476407772309e-01) (194, 4.63864523229941150273e-01) (195, -1.56305291063682322283e-01) (196, -4.78970628194487976770e-02) (197, 6.13763674527002978110e-01) (198, 3.04241565046385109561e-01) (199, -4.98210344163265761441e-01) (200, -2.53828004698200937472e-01) (201, 4.02720918096847249612e-02) (202, 1.99919838626998025433e-01) (203, 4.89220481764481407438e-01) (204, 4.56361271355562758689e-01) (205, -3.60463473247519261555e-01) (206, -1.12448797356706142736e+00) (207, -5.11892950954257575091e-01) (208, -9.73646628006562320223e-01) (209, 3.15042673207543810765e-01) (210, -1.82943362334472892083e-01) (211, -4.54041174973461858499e-01) (212, -2.12992226212350449499e-01) (213, 9.77833812000623303629e-02) (214, 2.07852235960207215593e-01) (215, -5.29599395888671220511e-01) (216, 1.32203302397150301850e+00) (217, 4.87889860404932873550e-01) (218, 5.27882978592723928202e-01) (219, 1.36029847567922274054e-01) (220, -1.30007404834294237883e-01) (221, 6.43473174131781844309e-01) (222, 1.00006721188189012794e-01) (223, -4.18939144317215961255e-01) (224, 2.31884222127558353721e-01) (225, -1.10009762832699156676e-01) (226, -2.61709739288955800518e-01) (227, 4.34063996912719463062e-01) (228, 5.31050874828743246781e-01) (229, -2.48932989775150631528e-01) (230, -7.60582661702086659794e-01) (231, -3.07726193288312632745e-01) (232, 3.97313921828343769027e-02) (233, 3.14259567109665904905e-01) (234, -1.01427694456669714729e-01) (235, -4.05022982886770577249e-01) (236, -1.08702323389851002178e-01) (237, 2.76708306485982047374e-01) (238, 2.51979809930281239971e-01) (239, -3.65502232081898803528e-01) (240, 4.47021243985560756684e-01) (241, -2.86824064400094724814e-01) (242, 3.17010765632068980402e-01) (243, -2.04077693586708380780e-01) (244, 1.48923806042695505703e-01) (245, 6.59788329237666199001e-02) (246, -3.46168749348059801019e-01) (247, -3.63007393021634650054e-01) (248, 8.09599745668660164544e-02) (249, -1.05720451580121818647e-01) (250, 2.43703222694102689116e-01) (251, 1.15018230648010602590e-01) (252, 4.72184476748846837513e-01) (253, -3.49010026242199122848e-02) (254, -3.51331897869405662682e-01) (255, -3.66821266145560487271e-01) (256, -3.74290106634053154622e-01) (257, -1.71555621172654271245e-01) (258, 2.76905562450824982434e-01) (259, -2.23140611555248641329e-01) (260, -2.77550235102876179105e-02) (261, -3.44021082693042490330e-01) (262, 3.87336330437626386036e-01) (263, -5.13524106960710380321e-01) (264, -5.52473433076045239432e-01) (0, -5.51171326424462093563e-01) (1, 3.54304398936983122592e-01) (2, 2.89152254284195497913e-01) (3, 6.99547751909342097054e-02) (4, 1.09130650752719729479e-01) (5, -1.55209559577042799372e-01) (6, 9.11138347886209370996e-02) (7, 6.13408127162356375806e-01) (8, -8.75193600166611351820e-03) (9, -1.80060230407572435807e-01) (10, -6.05117551705897427361e-01) (11, 2.24196660401680625263e-01) (12, -1.62749428805282508881e-01) (13, 8.30508176144265503060e-02) (14, 5.94815081917748122997e-01) (15, -2.85540627935263920112e-02) (16, 1.19581988993728655091e-01) (17, -3.33630655470821060882e-02) (18, 1.56085977951081117387e-01) (19, 3.63208415952700480744e-01) (20, -3.55803601680332662327e-02) (21, 3.41853822830728515392e-01) (22, -1.37056700732065356307e-01) (23, -3.57527276368205637613e-01) (24, -2.90627810240274897513e-01) (25, -7.48374118630650286832e-02) (26, -5.26448242482060041469e-02) (27, -1.80695352380887352961e-01) (28, 2.22998539766187386935e-01) (29, -2.62102724097380945789e-01) (30, -6.90512651135565813654e-01) (31, 1.04906553396741680784e-01) (32, -2.77892676889059594969e-02) (33, 1.93068927620793466537e-02) (34, -1.94374406885096689956e-01) (35, -4.77151048928643350955e-01) (36, 1.54562706132962385253e-01) (37, 1.18031340756665006908e-02) (38, -1.88192625883325317937e-02) (39, -3.09109962930081250132e-01) (40, -1.40637076799622284806e-01) (41, -1.12970206008127849184e-01) (42, 7.13596645400601525822e-02) (43, 4.36961216272647057224e-01) (44, 1.70516077819824890538e-02) (45, 2.79749029222436523812e-02) (46, -1.23184721103894320726e-01) (47, -5.22967320093839505013e-01) (48, -7.92282757158477402015e-01) (49, 7.08027106402477568459e-01) (50, -4.36286425248017875611e-02) (51, -1.00940401998385761995e-01) (52, 1.07126449581810653799e-01) (53, 2.00127360140868598704e-01) (54, 1.28267085449184498058e-01) (55, -5.52875909337104287644e-01) (56, 4.65445100428566349571e-01) (57, -1.18622887793210396445e-01) (58, -2.84447821579169812800e-01) (59, 8.18710477231449074154e-02) (60, -1.80962996798137404353e-01) (61, -1.35262904143474676361e-02) (62, -4.22746394378340939468e-01) (63, 3.44712405566460378115e-01) (64, 7.56803312585411447344e-01) (65, 4.23222509154247694685e-01) (66, 2.90440454675898074299e-01) (67, 5.21644840778003660020e-01) (68, -2.98074113111931937592e-01) (69, 3.78441406651350509271e-01) (70, -9.27335443124972930162e-02) (71, -4.54217383597163848474e-01) (72, 3.87543409414865813734e-01) (73, -6.34739514973892693384e-01) (74, -1.34608343901019011923e+00) (75, -8.91281579306822724362e-01) (76, 3.85185968407617651543e-01) (77, -9.21460817955914945898e-01) (78, -1.14453539554752881102e+00) (79, 1.47426070511186918521e-01) (80, -3.44483252923704685866e-01) (81, 6.66818205183006051939e-01) (82, -2.55205298183047102345e-01) (83, -1.15694510513082304826e+00) (84, -1.00087259579429890821e-01) (85, 2.78211657512933197012e-01) (86, -7.18806840856176632037e-01) (87, -1.27839913797067694645e+00) (88, -1.05509976974559882557e+00) (89, 2.19720830784486433063e-02) (90, -3.88998329069797754709e-01) (91, 1.38236040191123876752e+00) (92, 2.11979454057481336848e-01) (93, -2.72145428140103007308e-01) (94, -7.84684297226526383806e-02) (95, -4.46389558307395850623e-01) (96, -6.93211133856989514257e-01) (97, 3.62642494296390227593e-01) (98, -5.41979841201962742048e-01) (99, -7.01632184483755971804e-01) (100, -2.31463364337757096815e-04) (101, 1.62757877161978009584e-01) (102, 7.88401057493045787083e-01) (103, -4.07534609876898212821e-01) (104, 5.58018949263306002218e-02) (105, 2.52577540018722734860e-01) (106, -1.10429640657159586214e-01) (107, -1.43024009582743277802e-01) (108, -6.06075426438686060138e-01) (109, 6.43373493563885595625e-02) (110, -2.07989946241318923725e+00) (111, 2.36248770496140791941e-01) (112, 4.19243420472697747581e-01) (113, 2.84553620679357244239e-01) (114, 3.05846454510128373805e-01) (115, 7.34914212576869618765e-01) (116, -4.95022263864214884244e-01) (117, -3.15154596464919833920e-01) (118, -1.28355568834864590400e-02) (119, -3.26989924061203529604e-01) (120, 3.18403100934474214689e-01) (121, -2.49639961844868529806e-01) (122, -1.10272347915455992684e+00) (123, -2.90475674048596144150e-01) (124, 5.17451952189097341694e-01) (125, -5.26422274677057044912e-01) (126, -5.40376300217713989582e-01) (127, -3.47428928175728790606e-01) (128, -3.30330844081704655402e-01) (129, 3.99462590861178967749e-01) (130, -2.82052709066753948264e-01) (131, -6.90317126915647949481e-01) (132, 2.60067072490325512657e-01) (133, 6.32739940224096630850e-01) (134, -6.26620888782857043964e-01) (135, -5.62059013899377735157e-01) (136, -1.15104892416966464452e+00) (137, -1.24764615360307279390e-01) (138, -2.11852806522661613053e-01) (139, 1.00862717039931704122e+00) (140, -3.32481895046377484704e-01) (141, -2.61125915112353189362e-02) (142, -2.15806539989714746275e-01) (143, 1.46882086992263793945e-02) (144, -2.63268033146292157465e-01) (145, 1.08223938871645872228e-01) (146, -2.95293074636714336645e-01) (147, -2.02974150447375704942e-02) (148, 1.64439485989693850998e-01) (149, 2.59269445239433959927e-01) (150, -3.11739952865193792331e-01) (151, -2.17942688826558872428e-01) (152, -2.14404996889752036404e-01) (153, -1.33743341082746790283e-02) (154, -4.21868367106541575229e-01) (155, 1.46040222458735297062e-01) (156, -2.43759172533531354166e-01) (157, -1.57924001156020649139e-01) (158, -3.72668793491305050392e-01) (159, -1.75595902602371817247e-01) (160, 2.35407581307405494586e-01) (161, 1.89298548275289024723e-01) (162, -5.66994120589614999939e-02) (163, 3.28162175454206783698e-01) (164, -1.39301479455037457988e-01) (165, -1.36175620854459805686e-01) (166, 4.59145552736262674287e-01) (167, -4.78823753481801950294e-01) (168, -6.75142317935990415867e-02) (169, 3.55932897902907774412e-01) (170, -7.40454373499928875102e-02) (171, 4.03528928914239706782e-02) (172, -1.28301870551105645646e-01) (173, -3.44154573571899269346e-01) (174, -1.87847746373686591559e-01) (175, 4.03986904738566465767e-01) (176, -2.31725696005010584066e-01) (177, 1.28987380806722118365e-02) (178, -7.28250862630431400335e-02) (179, 3.30257303847841576783e-01) (180, 4.72234373885171559992e-02) (181, 4.83640357962238989775e-02) (182, 4.87085193437780228365e-01) (183, 2.62165749478066145706e-01) (184, -1.00851490371823393488e-01) (185, 2.22840728564979689841e-01) (186, -1.35176074324077549749e-01) (187, -2.42016469332865580277e-01) (188, -2.00031040598976028733e-01) (189, 1.06613958718097243117e-01) (190, 1.93743620665289384419e-01) (191, -3.69587640095011604746e-01) (192, -2.01770262493939617210e-01) (193, -9.84160219258973512080e-02) (194, 3.05761456928976216307e-01) (195, 3.23548580603903845887e-01) (196, -1.07304430934762565220e-01) (197, 5.90484353493679225977e-01) (198, -2.24688237257355705179e-01) (199, 3.33791025348219028146e-02) (200, -2.13997641775607594372e-01) (201, -2.79054055922117516531e-01) (202, -4.04755012723648499584e-01) (203, -1.18272680062328341966e-01) (204, -2.34010217786249558047e-01) (205, -3.45579690965053698548e-01) (206, 2.39194278408458027574e-01) (207, -1.94392114903179480390e-01) (208, -4.99345832529458910631e-02) (209, -8.92572090302788251348e-02) (210, -1.41255665507963479310e-01) (211, 2.77549482276708225914e-01) (212, 2.22452323444996859225e-02) (213, -2.28004475897351024938e-02) (214, -4.68686450052318015480e-02) (215, -6.87808367716953306115e-02) (216, -2.93671555384816040934e-01) (217, 2.76513468839663656418e-01) (218, -1.13642321223096694899e-02) (219, 5.70898654347876399751e-02) (220, -6.64239747426065372388e-03) (221, 2.95199674464731096069e-02) (222, -1.26841818108734127879e-01) (223, 4.41499723249468734032e-01) (224, 1.03752052301551225821e-01) (225, -6.90548086043848985405e-01) (226, -8.78746477551384241877e-02) (227, 1.88139253653758220519e-01) (228, -7.30438021618768362764e-02) (229, -3.52243321253277452687e-01) (230, 2.39247996997544619055e-03) (231, 1.13254815128877847630e-01) (232, 2.86712456261222714549e-01) (233, 1.11959928503468406080e-01) (234, 3.67286698806951819596e-02) (235, -1.95643972969518978311e-02) (236, -1.58005642272768975776e-01) (237, 7.89421873969323451004e-02) (238, 1.01424252267381664883e-01) (239, -1.86654692569452468343e-01) (240, -3.99241858765744583870e-01) (241, -2.07145771805301859292e-01) (242, 1.59724809872764106355e-02) (243, -4.05539616544975806134e-02) (244, -2.66244055417867053759e-01) (245, 1.03887601003770910224e-01) (246, -2.40419064039652206899e-02) (247, 1.15987961716344831209e-01) (248, 1.60474714457876865836e-01) (249, -2.58513783221358817155e-01) (250, -4.63213318031116816353e-02) (251, -8.19630437124280707140e-03) (252, -3.88134058091915978839e-02) (253, 2.29824428155008253505e-02) (254, -3.48299142169149755777e-02) (255, 1.62265302027949337438e-01) (256, 3.04884419679659290914e-01) (257, 1.76077284848965287534e-01) (258, -2.53666511647907717830e-02) (259, 1.23854228426871340596e-01) (260, -4.27247502360347600203e-02) (261, -1.31637635910835631980e-01) (262, -1.85982812580364365029e-01) (263, 1.00451220647835903765e-01) (264, -1.07018528767029308391e+00) (0, 2.39368161888792924108e-01) (1, 4.02309743917233023081e-02) (2, -1.04031904577905578990e-01) (3, -3.11553128853631657036e-02) (4, -6.17460873794292569583e-02) (5, 5.78996784260655140281e-03) (6, -4.27134037778395050933e-02) (7, -2.71109004031631906084e-01) (8, 1.22600028030900295994e-01) (9, 7.85891973288667250452e-02) (10, 5.56682349939898180047e-01) (11, -2.39861664731190221689e-01) (12, 1.13711302366245561868e-01) (13, 1.82802920239039622119e-02) (14, -3.52242938117557913280e-02) (15, -1.14751728149109291643e-01) (16, -2.82252401025042898297e-01) (17, 7.08412231820475246646e-02) (18, 2.20872747773864286369e-01) (19, -4.32142874318676914469e-02) (20, 2.97595532262086459596e-01) (21, 5.15133634513561533552e-02) (22, 2.56415029534760099961e-02) (23, -9.96216628717348090527e-02) (24, -4.12307167059055568181e-02) (25, 2.27235914038614678079e-01) (26, -2.05750776139135754805e-01) (27, 2.30960185301659931545e-01) (28, 1.37614681295633561886e-01) (29, 2.62159026385003074422e-02) (30, 2.24218678585902525535e-01) (31, -1.65909966087075394503e-01) (32, 2.55285650804594865804e-01) (33, 4.99577927273590904900e-02) (34, 1.30660995043416050532e-01) (35, 2.18163497448480542262e-01) (36, 3.37432964111215108471e-02) (37, -4.03755612148212136847e-02) (38, -1.62879366082119177161e-02) (39, 1.95004962671641079996e-01) (40, -3.17663268081810681864e-02) (41, 8.28119542770605759907e-02) (42, 5.00039502733811147550e-01) (43, -1.38452410368342989505e-02) (44, -5.97509914527350957658e-02) (45, -4.79647138501279116096e-02) (46, -4.68900918300306709940e-02) (47, -5.40898827081529517957e-02) (48, 1.36381976410882621575e-01) (49, -3.53969497292944829114e-02) (50, 1.78149469206897325844e-04) (51, 3.36674133283655974136e-01) (52, -1.12926578759107109316e-03) (53, -2.92611575193164830111e-01) (54, 8.37779718330260991799e-02) (55, -3.33421486783260001552e-01) (56, -1.60842057050740228075e-01) (57, 2.89838314034181143697e-01) (58, 1.93159876746976905126e-01) (59, -1.11007353251258475413e-01) (60, -1.02072416563766435460e-01) (61, 1.98351487715534777201e-02) (62, 2.19111648088543276014e-01) (63, 3.20869178665534604544e-01) (64, -2.94965996549050923914e-01) (65, 2.90514738770827507519e-01) (66, 1.48623138133474386180e-01) (67, 1.23314128080707158253e-01) (68, 2.53307876326019532076e-01) (69, 5.05348248952422057778e-02) (70, -4.51791997897144220753e-02) (71, 9.05675070028743312012e-02) (72, 3.44506714464919483465e-01) (73, 5.61736241700649605035e-02) (74, 1.64652931717837430758e-01) (75, 2.08019749892391137003e-01) (76, 1.03392743148578263035e-02) (77, 7.44786158876104692483e-02) (78, 3.87845986612031165541e-02) (79, 1.72524760043743785598e-01) (80, 9.62578125831560216241e-02) (81, -1.36679511922856822270e-01) (82, 2.61109266896086100740e-01) (83, 2.22697344788309881114e-01) (84, -7.21487765466742869691e-02) (85, -6.00510960774390620959e-03) (86, -1.07112514782707141103e-01) (87, 2.23780680355963428052e-02) (88, -1.25138638782199662636e-01) (89, 1.86270790429111460229e-01) (90, 8.05389507220699851775e-02) (91, -4.28732763869580979499e-01) (92, 6.37959751695657828474e-02) (93, -2.01069361966487059057e-01) (94, -3.13592858311747190933e-03) (95, 2.71837047848361712532e-01) (96, 4.08504687234011620856e-01) (97, 2.66648563607761013294e-01) (98, 2.19177662370421438842e-01) (99, 7.32489908188247551557e-01) (100, 9.68965273937158338979e-02) (101, -2.71813037157920323050e-01) (102, 1.80073184587624723907e-01) (103, 1.74314214584889187742e-01) (104, -3.33779508432600402479e-01) (105, -1.43391397634155426388e-01) (106, 5.24697406581818515114e-01) (107, 2.05792257024760200101e-01) (108, 6.53482297386154264984e-02) (109, 7.89717303349253829658e-02) (110, 3.82610020113034132727e-01) (111, 3.06656308099285068725e-01) (112, -1.84679135319681997363e-01) (113, 2.79118133663171563708e-01) (114, -1.99893768748622274734e-02) (115, -3.07520039736238093298e-01) (116, 1.86454103919547975465e-01) (117, 1.54422468328727163778e-01) (118, 1.27302633222991734563e-01) (119, 2.39861470419857669700e-01) (120, 5.12528849659693586105e-01) (121, -2.60847231743207397248e-01) (122, 4.47631972978671521801e-01) (123, 5.48594881813730617104e-01) (124, -3.49039264455354393199e-03) (125, -4.76948032471747190852e-02) (126, -8.04920465385526417990e-01) (127, 7.10997136861189260593e-01) (128, -2.47148900644796609694e-01) (129, -7.05532573849808469779e-02) (130, 2.93644450088097752616e-01) (131, -1.40786561072057114785e-01) (132, 3.36200485099889978535e-01) (133, 2.21058293913822728749e-01) (134, 3.33399558088111669374e-01) (135, -4.97134288917976174815e-01) (136, -6.83778769723606960618e-01) (137, -1.37328070459018014571e-01) (138, -2.60335205543460401767e-01) (139, -4.83148530966897638006e-01) (140, 7.92118824093018258914e-01) (141, -3.45230610621984568276e-01) (142, -5.61107222501778125229e-03) (143, 5.64544573426246643066e-02) (144, 1.60518301906661872702e-02) (145, -2.34683287465754508716e-02) (146, 1.04423528798816822594e+00) (147, 8.39730179090292572219e-01) (148, 1.89705181935843264496e-01) (149, -2.16596841272319817762e-01) (150, 2.65095477119625666518e-01) (151, 3.49764734024497481180e-01) (152, -6.38193924977890486572e-02) (153, -5.32234822523730777277e-01) (154, 8.09746925289390739877e-01) (155, 7.22556901127885620184e-01) (156, 8.95673044609941598759e-02) (157, -3.92860403523340395715e-01) (158, 1.50494151476617155083e+00) (159, 6.56715091931584282747e-01) (160, 3.35621626305082521036e-01) (161, -2.03510338125929002295e-01) (162, -8.76378199940090751863e-02) (163, -9.66485596249651579548e-01) (164, 2.68536301211622308038e-01) (165, 4.89836237915680539068e-01) (166, -7.59354240478829350947e-02) (167, 2.63934544698742445945e-01) (168, 5.74600947743681755853e-01) (169, -9.21631639846867578569e-01) (170, -3.95437392649140087575e-02) (171, 1.71628417015586953731e-01) (172, 9.72279122476389090490e-02) (173, -2.54311928606726356250e-01) (174, -8.06689156847210653289e-01) (175, 1.03228015112052462499e+00) (176, -4.69437528088573863272e-01) (177, 2.37484830839171157102e-01) (178, 1.09238276251259151112e-02) (179, -8.31549219328967526010e-02) (180, -3.63079176891481919531e-02) (181, 7.70690254434054922150e-02) (182, 1.22220436823916187019e-01) (183, -7.45666215094104578576e-01) (184, -1.02546825531865604120e+00) (185, -5.99132209447238772704e-01) (186, -5.88009435796588153522e-01) (187, -8.54714159413785257158e-02) (188, 8.24085816428389628108e-01) (189, -2.21782414344609046797e-01) (190, -1.76024381244360761389e-01) (191, 1.66535008246000287846e-01) (192, -1.63798813113404134745e-01) (193, 3.27156200918865047722e-01) (194, 3.80570941596566791887e-01) (195, 3.72950432875349402462e-01) (196, -2.00887957471639622131e-01) (197, 2.60470201695318093194e-01) (198, 6.64662717102338040931e-01) (199, 2.95675179002982013721e-01) (200, 1.17118710299891140569e-01) (201, -4.32137248224282344289e-01) (202, 2.09125113708673343593e-01) (203, 5.07870345054627247983e-01) (204, -2.57771851845868205100e-01) (205, -4.51285308216713698659e-01) (206, 8.59544496541809643908e-01) (207, 4.64446684559411460125e-01) (208, 7.04538314919140318260e-01) (209, 6.73235120606759801509e-02) (210, -4.59565859157865935769e-02) (211, -1.00970467229949645294e+00) (212, 1.41167314180208822161e-02) (213, 2.43133046347492054462e-01) (214, -6.88261944244231149703e-02) (215, 2.85088171581082017170e-01) (216, 1.74836198760172839561e-01) (217, -3.31512731230496571211e-01) (218, -3.46342051548083756929e-02) (219, -3.49785863846817757228e-01) (220, 5.34211615644908266454e-01) (221, -1.49893149221532934190e-01) (222, -1.55307814306857971953e-01) (223, 6.76698184634527133419e-01) (224, -2.01552934771984076923e-01) (225, 2.26098027788607970623e-02) (226, -9.27115386736668961598e-02) (227, -1.20469155410206224532e-01) (228, -9.69780166757634731756e-02) (229, 8.40284916529698555632e-02) (230, -3.96673997042890857934e-01) (231, -3.85819963481885797041e-01) (232, -5.89357703139124722291e-01) (233, -6.58370823873347249533e-02) (234, -5.43523395074200110777e-01) (235, -2.78770599449118305913e-01) (236, 5.71597446560826116801e-01) (237, -1.11193770413755513293e-01) (238, -1.93185946508692141244e-01) (239, 3.45716842957582315421e-01) (240, -2.36685278012115224433e-01) (241, 2.27754107192202792653e-01) (242, -8.89014288727685425551e-02) (243, 3.94688904925245345745e-02) (244, 1.74430481499474376861e-01) (245, 4.95925432375008690133e-01) (246, 1.47975506986297522527e-01) (247, -2.94011452346374269062e-01) (248, 2.26348237999752510685e-01) (249, -1.60049735207703658357e-01) (250, 1.13973330354052257429e-01) (251, 3.21086720907251377266e-01) (252, -1.56044788042862925259e-01) (253, -2.63285433208267694027e-01) (254, -2.01375899626357712791e-01) (255, 2.81112865091440622400e-01) (256, 5.48035804860615871625e-01) (257, -9.08594214163500751846e-02) (258, 2.62351709122589926704e-01) (259, -1.72585180691902456696e-01) (260, -1.16149037354494180652e-01) (261, 1.24983722615732262273e-01) (262, -6.72494586977071956424e-02) (263, 2.96114078110215728223e-01) (264, 5.69988630294204878801e-01) (0, -1.77206315634584082863e-01) (1, -1.70329791446205219829e-01) (2, 1.87097646623631069795e-01) (3, -1.23911707564686012634e-02) (4, -4.68880641642961046300e-02) (5, -2.48991714812985626137e-01) (6, -2.40504678521733128438e-01) (7, 9.79414709502247626816e-02) (8, -1.09361807280985798979e-02) (9, 5.94839240587860043630e-02) (10, -3.34821905045405987522e-01) (11, -3.12149340559862986666e-01) (12, -5.79448731632091762478e-02) (13, -2.13817525362651833509e-01) (14, -6.32226727730378704195e-03) (15, 6.50270871106111425508e-02) (16, 1.50019311620037232302e-01) (17, -1.07670508826531521884e-01) (18, -3.91592404190894832761e-02) (19, -8.31684249937669206609e-02) (20, 1.14400151077184319970e-01) (21, 8.15817667521075012838e-02) (22, -9.88495651870999331168e-02) (23, -1.25046646189324095477e-01) (24, -1.93680359538915408679e-01) (25, 1.63981387033718617463e-01) (26, 2.29971802395099927940e-01) (27, -9.52290082914858254659e-02) (28, -5.38815013787761754038e-02) (29, -1.65264319317580787860e-01) (30, -1.36372664913126412367e-01) (31, -1.40344847518956289401e-01) (32, -1.74591936750338766471e-01) (33, 7.73888819788555032408e-02) (34, -2.81822763564174294526e-01) (35, -3.11394180339155529635e-02) (36, 1.04651096514630406742e-01) (37, -3.62196030780149391681e-01) (38, 7.64411961788716703969e-02) (39, -5.89959560700358768420e-03) (40, 1.63907732095971564457e-01) (41, -2.32555540382643782804e-01) (42, -9.89759968147561480789e-02) (43, 3.83919971278228674971e-02) (44, -4.52269073853220210379e-02) (45, 1.00781653604879520292e-01) (46, -1.17369107466273797646e-01) (47, -2.52978970238292411032e-01) (48, -3.22964082188438750265e-01) (49, 8.85628392797880963083e-03) (50, 2.02875258573135652806e-01) (51, 1.05447340273493117557e-01) (52, -1.14654503408567517986e-01) (53, 6.24042198344696499857e-02) (54, -2.50158607149300160621e-01) (55, -1.39980185046404664861e-01) (56, -2.44552761868859963590e-01) (57, -3.14526236691292870873e-01) (58, -2.51697411857241759581e-01) (59, 1.92833695863861842579e-01) (60, -2.82719158899694678055e-01) (61, -3.46732364507192636349e-01) (62, -5.13309096844552295580e-02) (63, 3.48446670822455006888e-01) (64, 1.19249690413390105337e-01) (65, -2.90209655348842680833e-02) (66, -1.33650181647802929197e-01) (67, -4.23013127276394007570e-01) (68, 3.52777913874673249017e-02) (69, 9.91521491946866506684e-02) (70, -2.20440649752715989163e-01) (71, -1.77600369242718603147e-01) (72, -6.05799631982727251889e-02) (73, -4.73683401419121227760e-02) (74, -7.75067354920980083888e-02) (75, -1.48256276133213377166e-01) (76, -1.09463657689625695757e-01) (77, -1.59531131100799222766e-01) (78, -2.89039827495130297041e-01) (79, -1.90293967596209478987e-01) (80, -1.23676888752652189285e-01) (81, -8.00098695532131393149e-02) (82, -1.24807192276221376459e-02) (83, -3.22729905336755634737e-02) (84, -3.89785476089999569083e-02) (85, -3.13990443000377261740e-01) (86, -4.56154971258263264300e-02) (87, -1.39069983890953624561e-01) (88, -6.27863943394585816149e-02) (89, 2.54989727464095261578e-01) (90, -1.35550900612004421308e-01) (91, -1.74621513382770848777e-01) (92, 1.22924733631812180268e-01) (93, 6.89145679648015246216e-03) (94, -1.25159091901245939082e-01) (95, -1.50352833371401428675e-01) (96, 3.51748763764508198815e-01) (97, -1.28895479937596701969e-01) (98, 1.13554501138659044712e-01) (99, -4.75446741649938262042e-02) (100, -1.33974244576742007595e-01) (101, 5.07062399655511461538e-02) (102, -1.86254234929926834607e-02) (103, -2.00614922569102599459e-01) (104, 3.09620423412405067209e-02) (105, -2.28402587282698521509e-01) (106, -3.52342801926917081889e-01) (107, -2.70608784189901641071e-01) (108, -2.61776817006293072154e-01) (109, -4.77215785818518256622e-01) (110, -2.30112532591340679389e-01) (111, 4.93947556454306324625e-01) (112, -4.37881927936245238242e-02) (113, 1.00562531680551178054e-02) (114, -2.17995005644148726054e-01) (115, -3.98734976641373140005e-01) (116, 3.06639072003839531499e-02) (117, 1.89801002272998176057e-01) (118, -1.85167571818809412187e-01) (119, -3.18922972093281853478e-01) (120, 3.85091874024167224455e-01) (121, -1.76882882668662304304e-02) (122, -6.30496951184326831497e-02) (123, -8.49127445146907224027e-03) (124, -3.65552749548227084997e-01) (125, 1.48594690880912705389e-01) (126, -1.37609306261569336316e-01) (127, -3.21754834434168190960e-01) (128, -1.78318699116714718400e-01) (129, -2.93632689883291247979e-02) (130, -1.13409112082031249269e-01) (131, 1.04029611211952963123e-01) (132, 4.01529436590078933622e-02) (133, -3.35400090083713020572e-01) (134, -3.32667482417560000929e-01) (135, -2.76616415680269400745e-01) (136, -1.02169362257052039056e-02) (137, -4.90952833296496443660e-02) (138, -3.78714167202164997406e-01) (139, -9.29728248212951663421e-02) (140, -1.63331629613056444894e-01) (141, 7.39529071054594450141e-02) (142, -1.12810217454891059674e-01) (143, -3.79661917686462402344e-02) (144, 3.24074495073594759376e-01) (145, -1.87519035989489407656e-01) (146, -4.20187625471024062129e-01) (147, -6.02500659795083715053e-01) (148, -2.06004176640902536555e-01) (149, -3.16943503853030439377e-01) (150, -3.97118541177600314906e-01) (151, -8.09894078535671857466e-01) (152, -1.79282695154267035509e-01) (153, 1.00309063898053080210e-01) (154, 1.82093034850979634820e-01) (155, -1.60923755260900303021e-01) (156, 2.21790130529567364182e-01) (157, -2.77010340847320735147e-01) (158, -7.02426562271857179987e-01) (159, -2.17906420984709109367e-01) (160, -1.12188995399408061870e-01) (161, -2.25031878228122879382e-02) (162, -2.88228619773275129834e-01) (163, 8.17951741745679833384e-02) (164, 1.02487594155810907148e-01) (165, -2.20754450254675493870e-01) (166, -2.68783679822114478231e-02) (167, -5.49256013873618276211e-02) (168, 4.85007879215826540054e-02) (169, 5.93058197754611701735e-02) (170, -1.41123083073434935075e-01) (171, -3.68470820140616439620e-01) (172, -1.28754368383099199180e-01) (173, 9.81525217986824044525e-02) (174, -1.04435656061810641648e-01) (175, -7.33064201284598704333e-01) (176, 1.10136648918349996928e-01) (177, 4.09816575288322257342e-02) (178, -6.51042304250628312001e-02) (179, -1.24582741543821498564e-01) (180, 1.55401877779589026041e-01) (181, -2.55137890223350261021e-01) (182, -7.05720963369205644966e-01) (183, -1.45738727277268109717e-01) (184, -1.26056032284404123667e-01) (185, 1.12397305799288471650e-01) (186, 5.97428754833106978595e-03) (187, -5.48288594214170130203e-02) (188, 2.31681999633457036403e-01) (189, -2.14182375057570539845e-02) (190, -4.34405797067407145606e-02) (191, -1.75123232363003672463e-01) (192, 4.98021772869754186797e-01) (193, 4.05205776798514438752e-01) (194, 1.89013601009883930315e-01) (195, -7.31642345465300381058e-02) (196, -1.44292007502884789272e-01) (197, 3.72671427410195432728e-01) (198, 3.06599678492678684796e-03) (199, -4.56879781404919305121e-01) (200, 2.77842869406532168297e-02) (201, -1.95015691876456898068e-01) (202, -1.25523170451634080713e-01) (203, 1.44161497446086001029e-01) (204, 9.49671612247222213243e-02) (205, -3.75712973162180108311e-01) (206, -4.59364574144629111974e-01) (207, -5.42083887092880117170e-04) (208, 1.10840240598390274429e-01) (209, 1.98460956024198081904e-01) (210, 3.57120141215380854094e-02) (211, -2.24288011879088727829e-01) (212, 1.37305418739599810474e-01) (213, 1.05373765257423483016e-02) (214, 3.60044607461533772153e-02) (215, -2.36801670965852167905e-01) (216, 5.78633251840565465685e-01) (217, -1.08967187445788482592e-01) (218, -8.46881565472656361315e-02) (219, -2.29766130958751757518e-01) (220, 5.32689279725520187236e-02) (221, -6.40523533468233957633e-02) (222, -3.23172600036988055816e-01) (223, -2.84801691377360943758e-01) (224, -8.51274520515716420777e-02) (225, -5.70757531682726734767e-02) (226, 1.02180823726166533638e-01) (227, -7.25167870230546407484e-02) (228, 3.69903609190723736688e-01) (229, 1.65230770878174032523e-02) (230, -4.97282503526758012935e-01) (231, -1.76212825910152637299e-01) (232, -9.21465628869517633381e-02) (233, 1.10172138107323305811e-01) (234, 1.39297101368772741070e-01) (235, -7.42687154213667183322e-02) (236, -3.04766662593778728252e-02) (237, -4.57073117324215266732e-02) (238, 1.23410368589408958595e-01) (239, -1.75515928841299878593e-01) (240, 6.73347253312327698183e-01) (241, -2.94206712744814968818e-01) (242, -2.15100554802729465598e-01) (243, -2.54298930892695063122e-01) (244, 2.01112611526087850522e-02) (245, -1.13583645177535150217e-01) (246, -4.17929705988976218922e-01) (247, -3.51494971602077765915e-01) (248, -1.32351131254248632896e-01) (249, 1.61261541316301493243e-01) (250, 2.84678978291257933630e-01) (251, -3.88900826993611448135e-01) (252, 4.84729169483176292044e-01) (253, -1.85268919946844745628e-01) (254, -5.69162570782859811303e-01) (255, -5.07739001837799255878e-02) (256, -1.67803098501954933708e-01) (257, -4.07004838497696669330e-02) (258, -1.45242593606698111586e-01) (259, -1.63958238993945126794e-01) (260, 1.44862140365551228527e-01) (261, 1.36163749919421567247e-01) (262, 1.99727867200675562875e-01) (263, -2.77660866319861920903e-01) (264, -2.82735772395557471981e-01) (0, -1.20230327603936787417e-01) (1, -1.18588412925484470994e-01) (2, 1.98722300310175487015e-01) (3, 8.25184780185816459108e-03) (4, -3.22183983127886985898e-01) (5, -7.62951842074320735199e-02) (6, 2.64649765846651618961e-01) (7, 3.51277573014284916209e-01) (8, -2.14233571256474103484e-01) (9, -9.57412435323042598778e-02) (10, -6.21428414255470046301e-02) (11, -8.19257490171609870089e-02) (12, -2.01943798523133322131e-01) (13, 9.52558163403033897332e-02) (14, 1.65195019527223652123e-01) (15, 7.29664150452740724317e-03) (16, -3.49044862279766707203e-02) (17, -1.50480462260250302808e-01) (18, -1.96498000491795360434e-01) (19, -4.44438751610681595516e-02) (20, -1.42528271162043945752e-01) (21, -1.56306796193025399067e-01) (22, -1.75302861988944846949e-01) (23, 5.89968820603338911512e-02) (24, -1.28410910704415986983e-01) (25, -7.33651481784742126591e-02) (26, -3.55732550299548214157e-04) (27, 2.55363230759969528361e-01) (28, 3.85099921851772136749e-02) (29, 4.31695652990553013773e-02) (30, 1.04971068688733334962e-01) (31, 2.67553028164942585665e-01) (32, -2.22382870295824236484e-01) (33, -1.35588935273175309471e-01) (34, -9.98874827803662435066e-02) (35, -2.12560135824512164149e-02) (36, -2.24131356340501186608e-01) (37, -8.20990207870408578161e-02) (38, -5.48409201857181644035e-02) (39, -2.18482963334451552040e-01) (40, -7.07974745806761729394e-02) (41, -1.67123584130127539327e-01) (42, -2.29658765785265200909e-01) (43, -2.25706570773660970819e-02) (44, -3.83240142451661937664e-03) (45, 2.75028814255968909186e-02) (46, 1.99371056019455783394e-04) (47, -1.34931797417623150492e-01) (48, -6.36245450763235076419e-02) (49, 1.91304896146872377427e-01) (50, 8.10099155878955812238e-02) (51, 1.60824543464168800977e-01) (52, -3.20622165400661768286e-02) (53, 1.70630134223936025251e-01) (54, 8.75260101342910518119e-02) (55, 1.39315604101580114982e-01) (56, 9.97386257337357917674e-02) (57, -2.18960473595940091629e-01) (58, -1.63388897320322690199e-01) (59, 2.33187398029198661442e-01) (60, -5.61393565445851006057e-02) (61, -1.43328972033878093706e-01) (62, -6.91824263090106278407e-02) (63, -7.67038018940654486855e-02) (64, 1.43252754154677836018e-01) (65, -2.51100135304540283965e-02) (66, -7.05049872154242251998e-02) (67, -1.46366247377871690205e-02) (68, -2.15115921498415935131e-01) (69, 7.75757346472236153367e-02) (70, -1.84943365713246488102e-01) (71, -4.44904584362725771807e-02) (72, -4.35301843546214428660e-02) (73, 2.40987017681730843199e-02) (74, -1.42001273459128801724e-01) (75, -1.79316464266159575347e-01) (76, -1.22672113737798918476e-01) (77, 1.75104657490325638092e-01) (78, -7.61174228484959580765e-02) (79, -1.42530408941254849164e-01) (80, 1.01467050951106627088e-01) (81, 6.62167114349358210124e-02) (82, -1.11576873189607225778e-01) (83, 8.90485207548260826460e-02) (84, 8.45349762900135526245e-02) (85, -7.99404988201831978589e-02) (86, -5.09519024279112414666e-02) (87, -1.70102682535729410329e-01) (88, 5.33230603544330716836e-02) (89, -2.74267365177186632497e-02) (90, -7.19374506494588478178e-02) (91, -9.28810489019270615896e-03) (92, -3.07620289328906837412e-01) (93, -1.20142681451505695112e-01) (94, -3.19885074187195792006e-02) (95, -1.72124684884402967544e-01) (96, -1.59899217012498748303e-03) (97, -6.67688175911773373894e-02) (98, -1.12669302628729428584e-01) (99, -5.67702993447305598318e-02) (100, -1.61053590444268368564e-01) (101, -1.43006742221613650234e-02) (102, 7.62482934883175200724e-02) (103, -3.99695586113313849896e-01) (104, -1.09517837959004452064e-01) (105, -9.30409533446114852054e-04) (106, 7.67159994580561416244e-02) (107, -5.59983414311501989657e-02) (108, 1.34139369856478229970e-01) (109, -1.76877794839128896220e-02) (110, -9.71118886125240943219e-02) (111, 1.81321869022536386051e-01) (112, 2.17452562740482580050e-01) (113, 2.01728270476822929558e-01) (114, 1.33264188425043120061e-03) (115, -3.47098954756677458011e-02) (116, -1.80713682231903816078e-01) (117, 1.56357149948170792708e-01) (118, -2.90696356686218730647e-02) (119, -2.76843427373606676412e-01) (120, 2.97901708873881343465e-01) (121, 1.08297297461282193698e-01) (122, -2.78965706881021957564e-01) (123, -2.05868608560382332362e-01) (124, -2.12455847706294359556e-01) (125, -9.77334842455803917693e-03) (126, 7.77696913999088995650e-02) (127, -2.53472866031820509569e-01) (128, 2.16741408654274353429e-01) (129, 5.66612844597558715232e-02) (130, 8.64944366744825471338e-02) (131, -1.00559640617787826589e-01) (132, 1.51365562213578414008e-01) (133, 1.51195518634235304134e-01) (134, -4.85309087018536700064e-01) (135, -2.80296193308878061057e-01) (136, -2.40017575746462069608e-01) (137, -8.60027890964868216295e-03) (138, 5.94801474607532590366e-02) (139, 2.04562728577807814712e-02) (140, 1.11521702388486590451e-01) (141, 2.89207302898681184455e-01) (142, 5.58549063748215151443e-03) (143, 1.60636454820632934570e-02) (144, 3.99315605148177599215e-01) (145, -1.02714082538330679466e-03) (146, -5.00204848741873028817e-02) (147, -1.23804362671228601611e-01) (148, 5.89331947411336348752e-02) (149, 1.05783715850189141694e-01) (150, 8.20590090484963202710e-02) (151, -1.55586345652802299222e-01) (152, -8.06975694232074242107e-02) (153, -1.02754535629865320634e-01) (154, -1.32255471332805400742e-02) (155, -1.99706933590406629508e-02) (156, 3.21869519651744179223e-02) (157, -2.07684611684541636789e-01) (158, -2.00683198226830200595e-01) (159, 4.51636166614868828084e-02) (160, -5.11559644218105152857e-02) (161, -1.84780094119441740119e-01) (162, -2.32401687688691710454e-01) (163, -7.16937085230592574536e-02) (164, -4.86937933380598042543e-01) (165, -8.76526498097525696984e-02) (166, 1.03176747306114521829e-01) (167, -1.72160264264631851505e-01) (168, 1.76588803503201302592e-01) (169, 4.84661574904983669110e-02) (170, -3.34635461043292226080e-01) (171, -1.96834423281272569151e-01) (172, 7.97290985998178880489e-02) (173, 4.49231337265340452403e-02) (174, -1.28491051330773736749e-01) (175, -2.27031137870951638114e-01) (176, -8.46958240675963272559e-03) (177, -1.57335029862659153688e-01) (178, -5.28097283439616302370e-02) (179, -9.33521137460727734592e-02) (180, 1.84966638862443771840e-01) (181, 9.00693180133825821443e-02) (182, -5.62753162897963843392e-01) (183, -1.44774125052337138131e-01) (184, -8.71278861187857883719e-02) (185, 1.16087956295489055925e-01) (186, -4.95518477914247620908e-02) (187, -6.77115440590253525599e-02) (188, 4.35949893680435685006e-02) (189, -7.62239011757112616685e-02) (190, 1.43899396521897204870e-01) (191, -2.12881039081744216634e-01) (192, 1.23697473049996786720e-01) (193, -6.41170772789374354000e-03) (194, 6.73069545985213301548e-03) (195, -1.25829730904149561521e-01) (196, -4.65053527983981043747e-02) (197, 9.46487923084232962712e-02) (198, -2.40963613079530243610e-02) (199, -9.30232894490869710591e-02) (200, -1.23844084160554174234e-01) (201, -5.66902759388134610402e-03) (202, 3.18548844358105013794e-03) (203, -2.21314874837817525399e-02) (204, 1.34556052664777492378e-01) (205, 1.17855363875772015114e-01) (206, -2.13909065413688648238e-01) (207, -3.30975367711668078119e-02) (208, -1.30064279074211752718e-01) (209, 1.47526395775953722556e-01) (210, -1.20857404354173747496e-01) (211, -7.37210797595499039980e-02) (212, 1.67433255932311446379e-02) (213, -9.10340378841873326676e-02) (214, 1.47392371356328100163e-01) (215, -1.40527843930678103535e-01) (216, 1.46632794102749597354e-01) (217, -6.71948932709554302978e-02) (218, -2.26232818128894563880e-01) (219, -1.79540588884215673859e-01) (220, 5.92713130219374925711e-02) (221, 9.07432869276567355410e-02) (222, -9.63470274903504009245e-02) (223, -1.99945477864404891344e-01) (224, -2.12544066971669970423e-01) (225, -5.31019525683102677771e-02) (226, -1.47339495118850721811e-02) (227, -9.96021535438437743970e-02) (228, 1.40170075570091590134e-01) (229, 1.68106646385498437191e-01) (230, -5.34087698235762742272e-01) (231, -5.01059528374917170779e-02) (232, -7.72640803982248408621e-02) (233, 1.19839580615924201634e-01) (234, 6.13631159649539181800e-02) (235, -4.42895228618156151876e-04) (236, 2.97114657091902045760e-01) (237, -1.18244759786651706945e-01) (238, 6.76101616347358214121e-02) (239, -1.91113133724000461289e-01) (240, 1.89827768259880347301e-01) (241, 1.39413771167086392166e-01) (242, -7.89965654978218717597e-02) (243, -6.67789817541531438572e-02) (244, -2.79842679777155933785e-01) (245, -4.65614871179051079131e-02) (246, -1.36653032065766344427e-01) (247, -1.09905673392182226533e-01) (248, -1.44932832380889470292e-01) (249, 2.25672233644383076270e-03) (250, 3.05301424124154396900e-01) (251, -1.11054355133051479987e-01) (252, 8.04310373182414162230e-02) (253, 5.49848358594855965431e-02) (254, -8.28306385764888443435e-03) (255, -1.16527690328835142886e-01) (256, -2.55042490670900831584e-02) (257, -2.40026464474626770318e-02) (258, 1.00199213865332079076e-01) (259, -8.27059615758203442448e-02) (260, 1.92034051918868686748e-01) (261, 6.37879888110050724537e-02) (262, 3.36581984986908597235e-02) (263, -1.04758470169696277230e-01) (264, -2.25620079806423068369e-01) (0, 4.51002402883347086604e-01) (1, 3.20445416855111644971e-02) (2, -1.16812655952980640195e-01) (3, 5.67492123723339347841e-01) (4, 1.99897223288993952650e-02) (5, 1.73531720403996780888e-01) (6, 8.91970230713107492537e-02) (7, -3.71894610292821226061e-01) (8, -1.74449449706636200430e-01) (9, -2.09226437885403765415e-01) (10, -3.47299197803879189372e-01) (11, -9.07725688137148711832e-02) (12, -1.01460138761550508479e-01) (13, 9.35069153367711070057e-03) (14, -4.41573909430168554113e-01) (15, -1.13424981771757277249e-01) (16, -5.73459176267863274257e-02) (17, 6.18605531167488523203e-02) (18, -5.14595897675968749763e-02) (19, -7.29657130841452755687e-02) (20, 2.12765017163607156325e-01) (21, -1.83298987199847968066e-01) (22, -1.91345665637743744814e-01) (23, -8.97139655210963504750e-01) (24, -2.14304246672843590193e-01) (25, -3.51693106888178563807e-01) (26, -2.90737357478033586755e-01) (27, -1.63954411787925156962e-02) (28, -8.57590957351965221811e-02) (29, -1.79488041689012056690e-01) (30, -4.13577910345726940111e-01) (31, -7.14650834371290288871e-01) (32, -1.31563513107767343646e-01) (33, 7.65085795323395684298e-02) (34, 2.01922831845635503134e-01) (35, -7.63271678785709561943e-01) (36, 9.82616184891447475014e-02) (37, 2.22690428116781719003e-01) (38, -3.27409202467460636043e-01) (39, 4.82722385520512123347e-02) (40, -1.18332202169167774453e-01) (41, -3.76175680484622965150e-01) (42, -5.31159013795340795988e-03) (43, -5.50776274535392310061e-02) (44, 4.72882859211848777248e-02) (45, 2.41485061595387157096e-02) (46, -2.41577619918577540803e-01) (47, -6.62994995496051120476e-01) (48, 9.49593097907192179585e-02) (49, 3.77195691874636918062e-01) (50, 1.16479010543878297446e-01) (51, -2.42098071060711322877e-01) (52, -1.25268653133070503175e-02) (53, 5.34606971079799597746e-01) (54, 5.32897596532443285078e-01) (55, -4.87597948599691355387e-01) (56, -6.86929358946779949902e-02) (57, 4.42459694235260880824e-01) (58, -9.35175597823711263201e-02) (59, 1.37298907725595692453e-01) (60, -4.79086864634905781890e-02) (61, -1.65558731574856843327e-01) (62, 2.52159323952927449941e-01) (63, -4.10543909053670330600e-01) (64, -3.84941072755942859107e-01) (65, 3.32392731129191099093e-01) (66, 1.54061429638966573830e-01) (67, 1.04193239504615595831e-02) (68, -1.32899943389613278688e-01) (69, 3.94104194640992000487e-01) (70, -2.39923933289041491079e-01) (71, -5.89846452764560380544e-01) (72, 7.21108891941974583517e-01) (73, 1.72577929478158365040e-01) (74, 3.62090388969205922987e-01) (75, 7.89037207609299739985e-01) (76, -4.46157911423702480125e-01) (77, 6.17290182995617664474e-01) (78, 6.61171217166274471921e-01) (79, -1.95832967705581312279e-01) (80, 8.42522918339317916647e-02) (81, 2.45582543344439949151e-02) (82, -3.25501363095601070619e-01) (83, 3.28698400300337534308e-01) (84, -1.99168112966924909513e-01) (85, -1.77465153370366494900e-02) (86, -2.30356128981368424302e-01) (87, -4.10656037543603191775e-01) (88, 1.61826136942654241757e-01) (89, -6.17477736470947377589e-02) (90, 2.64972404629955748945e-01) (91, -2.23352126838875841841e-01) (92, -4.14254773618587535111e-01) (93, 5.49087248102722025322e-01) (94, -2.41834412278514654382e-01) (95, -6.03991233352591971872e-01) (96, 6.72574503504771770146e-01) (97, -2.74819369756583442577e-01) (98, -8.76227607373025629833e-01) (99, -3.55691598957819710147e-01) (100, -3.23246808785067674119e-01) (101, 3.43954742892564446777e-01) (102, 6.71461554673858235232e-02) (103, -8.94044205316486650936e-01) (104, -7.58387517843863573352e-02) (105, 9.99810303765244906549e-02) (106, -3.07967210934372639941e-02) (107, -5.65009918644273079202e-01) (108, 1.92931543111333342333e-01) (109, 1.91527188082533633695e-01) (110, -1.25096738658076978012e+00) (111, -1.03716050818518601417e+00) (112, -1.43255706549541922401e-01) (113, -1.77036856581659463039e-01) (114, -1.01029434899705491957e-01) (115, -1.86397018200903569207e-01) (116, 1.64819706352966305341e-01) (117, -4.16368901805286462103e-01) (118, -2.04989585353842374005e-01) (119, -4.75370051167801621617e-01) (120, 3.58689840291277761697e-01) (121, 1.69572057449940499785e-01) (122, -5.23946610012333557904e-01) (123, -9.29912580986352654833e-01) (124, 2.50552429459604708573e-01) (125, -3.45176715740818262912e-01) (126, -3.65749415886046924662e-01) (127, -8.43728752376122548284e-01) (128, -3.01744730419227502605e-01) (129, 9.49988786551953096060e-02) (130, 3.76588970718678028859e-01) (131, -6.29070131183244507511e-01) (132, 4.25552145480103061193e-01) (133, 1.22750424086575122412e-02) (134, -9.09686290900052707542e-01) (135, -6.84795303507587660441e-01) (136, -3.76896324456251374801e-01) (137, 1.25232584506775129762e-01) (138, 1.37334956855327788849e-01) (139, -3.51077867311051505794e-01) (140, -3.91939856728497515448e-01) (141, -8.37099595271146079689e-01) (142, -9.82417352602834442754e-02) (143, 7.75413289666175842285e-02) (144, 5.66402406442635841799e-01) (145, 9.57136181444018130371e-01) (146, 1.00206688713754044073e+00) (147, -4.02183351171581868200e-02) (148, -1.81350575550962234139e-01) (149, 7.20862819715382130425e-01) (150, 7.42573123673403556744e-01) (151, 1.54101884540818134806e-01) (152, -2.82516837580247814898e-01) (153, 2.59771586021040223891e-01) (154, 1.86437801914746570375e-01) (155, 4.93233227630471615655e-01) (156, 2.90193061776228611315e-01) (157, -2.41512391432418288550e-01) (158, -1.22198458264996356881e+00) (159, -5.02944230955646665038e-01) (160, -4.52188507917596738128e-01) (161, 1.41444594775266219155e-01) (162, 4.59555418526866460427e-02) (163, -6.18294658999668289567e-01) (164, -7.15027324270728459332e-01) (165, 6.57464151277816877261e-01) (166, 1.36385270479408543531e-01) (167, -3.11646674671825996139e-01) (168, 1.36201027002194585691e+00) (169, 3.61887476322531209671e-01) (170, 3.08838930912081643942e-01) (171, -2.22671132547435840499e-01) (172, 1.05580597120970967606e-01) (173, 7.49365205155130609249e-01) (174, 8.54090794318032447974e-02) (175, -5.72301214748602071758e-01) (176, -1.15995024655000111835e-01) (177, -1.49129725567311494094e-01) (178, 4.21084624070333021773e-02) (179, 2.87872412369361563300e-01) (180, 4.19694294870626372074e-01) (181, -2.14708279814616043168e-01) (182, -1.24388905118990500398e+00) (183, 2.23737048088630929854e-01) (184, 1.39442449242009353094e-01) (185, 1.23253855706733125852e-01) (186, -1.03348102144293602089e-01) (187, -5.25762742795737425539e-01) (188, -3.71472544771889179316e-01) (189, 2.08229893044809794000e-01) (190, -1.58797810259589555759e-01) (191, -2.13150720658447090372e-02) (192, 3.63184345038994771393e-01) (193, -5.22158179971318303636e-01) (194, -1.68152368820098763180e-01) (195, -6.94915116573681101997e-01) (196, 3.15933873326176617446e-01) (197, -3.24905010677940697672e-01) (198, -5.21602975176073124786e-01) (199, -6.41065919915009052588e-01) (200, -6.79974534814364872659e-02) (201, -2.40795951665712743006e-01) (202, 3.11384322716063866032e-01) (203, -2.60618135348507473648e-01) (204, 3.28344859635804731113e-01) (205, 1.13019180800649113317e-01) (206, -8.61020685243243155682e-01) (207, 9.98131072562367764600e-03) (208, -2.14732330262690535028e-01) (209, -2.95743352495593136986e-01) (210, -6.06008638247169870161e-02) (211, -6.60612842095327224001e-01) (212, -7.38326701024740184032e-02) (213, -4.34942413038885644649e-01) (214, 3.43058918903941911793e-01) (215, -4.11876765340119854741e-01) (216, -3.96864965106736300449e-01) (217, -1.24321404121342349303e-01) (218, 3.29830724223461657640e-01) (219, -5.83511150929168276313e-01) (220, 7.90433044478760227225e-02) (221, 4.58245183800430222476e-01) (222, -4.58283320971088092843e-01) (223, 2.40246399918853770217e-01) (224, -4.60337217225687822530e-02) (225, 7.28819468994879732238e-02) (226, -2.09123546234675009026e-02) (227, 4.29351355310339521942e-02) (228, 1.25655562229317174783e-01) (229, -1.56204079999158092218e-02) (230, 2.54036766223077747906e-02) (231, -7.59031874722208288464e-02) (232, -5.36935035822985629039e-01) (233, -1.06670519666896487787e-01) (234, -6.75491784964754038434e-02) (235, -9.71798744330386182755e-02) (236, -2.66616000639823325091e-01) (237, 2.87177972656346876257e-02) (238, 5.14212588623700672663e-01) (239, -5.45733120755276801539e-01) (240, 3.39991524639601916391e-01) (241, 1.40398384312995061496e-01) (242, 4.56023306371177883367e-01) (243, 6.15333517219616432659e-02) (244, -1.21748035970576970466e-01) (245, 1.26110935586202371761e-01) (246, 4.30555888752979343259e-01) (247, 8.28887305989310513299e-02) (248, -1.19145518845433520672e-01) (249, -2.84691555678188046308e-01) (250, -2.98904649562498330589e-03) (251, 3.92046920081968175431e-02) (252, 5.28344677060169146121e-02) (253, 1.62635158869718909891e-01) (254, -3.71535612552478577975e-01) (255, 1.10973005338704813760e-01) (256, -1.13219756740039464993e-01) (257, 6.19605500289593935648e-02) (258, -9.00285010336571989153e-02) (259, -1.91440342532874341330e-01) (260, -1.78211830939659449102e-01) (261, -1.40835158594492166652e-03) (262, 2.20854016901076866120e-01) (263, -2.46514687500053203406e-01) (264, -8.61726897625154864002e-01) (0, 7.23349343869500893689e-01) (1, -5.86286881404577825405e-02) (2, -2.83300800382305650871e-01) (3, -4.60905827198998807592e-01) (4, -4.87206898800500234903e-02) (5, -1.06532958864369559082e-01) (6, -2.17139092809925243754e-01) (7, -1.45495764009349715096e-01) (8, -3.33038148526327182353e-01) (9, -4.94041446253410676537e-02) (10, 3.00981316571821977401e-01) (11, -4.81473959228898740204e-01) (12, 2.91480538052716287023e-01) (13, 3.17664135197219144047e-01) (14, -6.69044826702072992219e-01) (15, 3.48104778686532667642e-01) (16, 6.28808436514654151006e-02) (17, -2.22860768521454338797e-01) (18, -1.35050612684031845490e-01) (19, -1.61080273089683728704e-01) (20, 3.35962605991263485450e-01) (21, 1.52876991771625114769e-01) (22, -1.22714743702178372131e-01) (23, -8.59675964375214429758e-01) (24, 6.66532549389127426664e-01) (25, -5.06287882271128863998e-01) (26, -6.24262127249279985541e-01) (27, -1.06570796135326428811e+00) (28, 6.25668734334891979421e-02) (29, -2.78686598365873797190e-02) (30, -2.72251549933755165878e-01) (31, 1.79579358902778901674e-01) (32, -1.26619630178653741481e-01) (33, 4.55594763432401878012e-02) (34, 5.84179815866366247690e-01) (35, -9.06716835167185042366e-02) (36, 4.65390204801010176627e-01) (37, 1.30011752746586856100e-01) (38, -1.70176366622028091280e-01) (39, 2.40534391428385598000e-02) (40, -1.27561538850479078144e-01) (41, 2.80158215852462644246e-01) (42, -2.99206021798424148805e-01) (43, -3.94605833229113855953e-01) (44, -2.68612592316300968776e-01) (45, -1.31942653231105821998e-01) (46, -9.76358754524782462836e-02) (47, -6.77418541790735795338e-01) (48, 2.34268177689855833234e-01) (49, 2.89586089137793267767e-02) (50, -1.64635406746374085563e-01) (51, -6.47349634372971327601e-01) (52, -1.14308933903622567119e-01) (53, 1.62082588696199153544e-01) (54, -1.28276388094620302782e-01) (55, 3.52308142831477488777e-01) (56, 5.93885375780347016250e-02) (57, 3.16973651716362797570e-02) (58, 3.39937502010935033159e-01) (59, -1.35453708458118465829e-01) (60, 3.92094458345230212348e-01) (61, -3.31405822429580110278e-01) (62, -3.92190227659551859940e-01) (63, -1.12336608068442464492e-01) (64, 3.64284858490183716118e-01) (65, 5.23751235781768964550e-01) (66, 1.08115736458730959946e-01) (67, -2.77304390731074601462e-01) (68, -3.09553915058448203546e-01) (69, 1.15136235648690243849e-01) (70, -1.13378076061353486037e-02) (71, -4.51875505204926419811e-01) (72, 4.41648461082517151954e-01) (73, -4.79478529614629708777e-02) (74, -4.49531094985921864104e-01) (75, -4.01825923845828436587e-01) (76, 3.02609659565489103050e-02) (77, 3.27277706617625299690e-02) (78, -5.11590561967721679792e-01) (79, -3.80724357573752059114e-01) (80, -1.36975665479526255430e-02) (81, -3.92822776920511013143e-02) (82, -9.58192169996841544913e-04) (83, -1.13024060270127410868e-03) (84, 1.05240416659950805633e-01) (85, 1.68764728149219458975e-03) (86, -8.43349188413581196677e-01) (87, -1.29345194839550231558e-01) (88, 1.77753365928976891919e-01) (89, 1.54575409802051949582e-01) (90, 2.32267650185114457595e-02) (91, -6.67601626420597837885e-01) (92, 1.01778115720239398234e-01) (93, -1.15586604847174923005e-01) (94, -4.49647864744993699948e-02) (95, -3.21581947849063909395e-01) (96, 9.34693710408951883295e-01) (97, -3.12640722407446114417e-01) (98, -1.16525445984757136664e+00) (99, -1.18534586064841818143e+00) (100, -1.33529985418207569614e-01) (101, -3.50994221434695108375e-01) (102, -4.02709348318213533613e-01) (103, -5.35257879138156589249e-01) (104, -3.23090295055799059387e-01) (105, 3.28701945456012889490e-01) (106, 4.68737285744064202664e-01) (107, -1.32872859513767205275e-01) (108, 4.50374704846466578090e-01) (109, 9.67724762276915978498e-02) (110, -8.37093871644340792315e-01) (111, -8.26217367218515658100e-02) (112, -8.11113227005712256190e-02) (113, 3.81745683872396879277e-01) (114, -3.76481345782333359784e-02) (115, -5.78036377303492221458e-01) (116, -3.29127577695392636858e-01) (117, -4.27590635384410167052e-01) (118, 2.68835244123710424835e-02) (119, -2.23777960531595571103e-01) (120, 4.68931569272234616275e-01) (121, -8.94948519799799446783e-02) (122, -3.16630759766642622122e-01) (123, -7.74601855092444835371e-01) (124, -1.67739390989022241207e-01) (125, -3.00165712705781517755e-01) (126, -2.28651428895004449338e-01) (127, -4.99819129151701180280e-01) (128, -3.18971029464360927852e-02) (129, 4.95082507197638799212e-01) (130, 8.23895034048414798278e-01) (131, -6.65988982864833128916e-02) (132, 4.15737716523093880916e-01) (133, 1.07985812927503699310e-01) (134, -8.68524286713280302408e-01) (135, -5.03243746236894384793e-02) (136, -4.48358253468615353121e-02) (137, 2.52391821679998962225e-01) (138, 2.21568230023392626071e-01) (139, -3.65584437039638665556e-01) (140, -5.05135834787794668621e-01) (141, 6.07283830297504698126e-02) (142, -1.55419946140482323482e-01) (143, 9.48370769619941711426e-02) (144, 4.62883890179363710615e-01) (145, 3.27275639160565290364e-01) (146, -2.08663267904716648315e-01) (147, -4.51979266564736192890e-01) (148, -2.19017218906575120152e-02) (149, 4.56129908315582033307e-02) (150, -4.02312814032826926436e-01) (151, -4.34332164817957722125e-01) (152, 8.56670785304234488899e-02) (153, 2.36085698613659300538e-01) (154, 3.50605580982942255375e-01) (155, -3.83518486687507449001e-03) (156, 1.82447654450543589322e-01) (157, -3.98335063309700129763e-02) (158, -1.21942516341851736605e+00) (159, -2.27018967388952441766e-01) (160, 1.50700244144047784678e-01) (161, 2.55118318380137876211e-01) (162, 3.84170082804920820507e-01) (163, -4.64291300826074559982e-01) (164, 1.82435287621173273208e-03) (165, 1.49736936161316364080e-01) (166, 1.34390257404239349404e-01) (167, -7.26510438299592248290e-02) (168, 5.79467375484147839693e-01) (169, -1.27416958825433440650e-01) (170, -2.03628610397695058998e-01) (171, -6.05664186418107264309e-01) (172, 2.26107469029521557236e-01) (173, -2.36663939130722950077e-01) (174, -4.63899333062716578979e-01) (175, -2.82516781928515980926e-01) (176, 3.21596080576521559102e-01) (177, 