FANN_FLO_2.1
num_layers=3
learning_rate=0.700000
connection_rate=1.000000
network_type=0
learning_momentum=0.000000
training_algorithm=0
train_error_function=1
train_stop_function=0
cascade_output_change_fraction=0.010000
quickprop_decay=-0.000100
quickprop_mu=1.750000
rprop_increase_factor=1.200000
rprop_decrease_factor=0.500000
rprop_delta_min=0.000000
rprop_delta_max=50.000000
rprop_delta_zero=0.100000
cascade_output_stagnation_epochs=12
cascade_candidate_change_fraction=0.010000
cascade_candidate_stagnation_epochs=12
cascade_max_out_epochs=150
cascade_max_cand_epochs=150
cascade_num_candidate_groups=2
bit_fail_limit=3.49999999999999977796e-01
cascade_candidate_limit=1.00000000000000000000e+03
cascade_weight_multiplier=4.00000000000000022204e-01
cascade_activation_functions_count=10
cascade_activation_functions=3 5 7 8 10 11 14 15 16 17 
cascade_activation_steepnesses_count=4
cascade_activation_steepnesses=2.50000000000000000000e-01 5.00000000000000000000e-01 7.50000000000000000000e-01 1.00000000000000000000e+00 
layer_sizes=313 41 4 
scale_included=0
neurons (num_inputs, activation_function, activation_steepness)=(0, 0, 0.00000000000000000000e+00) (0, 0, 0.00000000000000000000e+00) (0, 0, 0.00000000000000000000e+00) (0, 0, 0.00000000000000000000e+00) (0, 0, 0.00000000000000000000e+00) (0, 0, 0.00000000000000000000e+00) (0, 0, 0.00000000000000000000e+00) (0, 0, 0.00000000000000000000e+00) (0, 0, 0.00000000000000000000e+00) (0, 0, 0.00000000000000000000e+00) (0, 0, 0.00000000000000000000e+00) (0, 0, 0.00000000000000000000e+00) (0, 0, 0.00000000000000000000e+00) (0, 0, 0.00000000000000000000e+00) (0, 0, 0.00000000000000000000e+00) (0, 0, 0.00000000000000000000e+00) (0, 0, 0.00000000000000000000e+00) (0, 0, 0.00000000000000000000e+00) (0, 0, 0.00000000000000000000e+00) (0, 0, 0.00000000000000000000e+00) (0, 0, 0.00000000000000000000e+00) (0, 0, 0.00000000000000000000e+00) (0, 0, 0.00000000000000000000e+00) (0, 0, 0.00000000000000000000e+00) (0, 0, 0.00000000000000000000e+00) (0, 0, 0.00000000000000000000e+00) (0, 0, 0.00000000000000000000e+00) (0, 0, 0.00000000000000000000e+00) (0, 0, 0.00000000000000000000e+00) (0, 0, 0.00000000000000000000e+00) (0, 0, 0.00000000000000000000e+00) (0, 0, 0.00000000000000000000e+00) (0, 0, 0.00000000000000000000e+00) (0, 0, 0.00000000000000000000e+00) (0, 0, 0.00000000000000000000e+00) (0, 0, 0.00000000000000000000e+00) (0, 0, 0.00000000000000000000e+00) (0, 0, 0.00000000000000000000e+00) (0, 0, 0.00000000000000000000e+00) (0, 0, 0.00000000000000000000e+00) (0, 0, 0.00000000000000000000e+00) (0, 0, 0.00000000000000000000e+00) (0, 0, 0.00000000000000000000e+00) (0, 0, 0.00000000000000000000e+00) (0, 0, 0.00000000000000000000e+00) (0, 0, 0.00000000000000000000e+00) (0, 0, 0.00000000000000000000e+00) (0, 0, 0.00000000000000000000e+00) (0, 0, 0.00000000000000000000e+00) (0, 0, 0.00000000000000000000e+00) (0, 0, 0.00000000000000000000e+00) (0, 0, 0.00000000000000000000e+00) (0, 0, 0.00000000000000000000e+00) (0, 0, 0.00000000000000000000e+00) (0, 0, 0.00000000000000000000e+00) (0, 0, 0.00000000000000000000e+00) (0, 0, 0.00000000000000000000e+00) (0, 0, 0.00000000000000000000e+00) (0, 0, 0.00000000000000000000e+00) (0, 0, 0.00000000000000000000e+00) (0, 0, 0.00000000000000000000e+00) (0, 0, 0.00000000000000000000e+00) (0, 0, 0.00000000000000000000e+00) (0, 0, 0.00000000000000000000e+00) (0, 0, 0.00000000000000000000e+00) (0, 0, 0.00000000000000000000e+00) (0, 0, 0.00000000000000000000e+00) (0, 0, 0.00000000000000000000e+00) (0, 0, 0.00000000000000000000e+00) (0, 0, 0.00000000000000000000e+00) (0, 0, 0.00000000000000000000e+00) (0, 0, 0.00000000000000000000e+00) (0, 0, 0.00000000000000000000e+00) (0, 0, 0.00000000000000000000e+00) (0, 0, 0.00000000000000000000e+00) (0, 0, 0.00000000000000000000e+00) (0, 0, 0.00000000000000000000e+00) (0, 0, 0.00000000000000000000e+00) (0, 0, 0.00000000000000000000e+00) (0, 0, 0.00000000000000000000e+00) (0, 0, 0.00000000000000000000e+00) (0, 0, 0.00000000000000000000e+00) (0, 0, 0.00000000000000000000e+00) (0, 0, 0.00000000000000000000e+00) (0, 0, 0.00000000000000000000e+00) (0, 0, 0.00000000000000000000e+00) (0, 0, 0.00000000000000000000e+00) (0, 0, 0.00000000000000000000e+00) (0, 0, 0.00000000000000000000e+00) (0, 0, 0.00000000000000000000e+00) (0, 0, 0.00000000000000000000e+00) (0, 0, 0.00000000000000000000e+00) (0, 0, 0.00000000000000000000e+00) (0, 0, 0.00000000000000000000e+00) (0, 0, 0.00000000000000000000e+00) (0, 0, 0.00000000000000000000e+00) (0, 0, 0.00000000000000000000e+00) (0, 0, 0.00000000000000000000e+00) (0, 0, 0.00000000000000000000e+00) (0, 0, 0.00000000000000000000e+00) (0, 0, 0.00000000000000000000e+00) (0, 0, 0.00000000000000000000e+00) (0, 0, 0.00000000000000000000e+00) (0, 0, 0.00000000000000000000e+00) (0, 0, 0.00000000000000000000e+00) (0, 0, 0.00000000000000000000e+00) (0, 0, 0.00000000000000000000e+00) (0, 0, 0.00000000000000000000e+00) (0, 0, 0.00000000000000000000e+00) (0, 0, 0.00000000000000000000e+00) (0, 0, 0.00000000000000000000e+00) (0, 0, 0.00000000000000000000e+00) (0, 0, 0.00000000000000000000e+00) (0, 0, 0.00000000000000000000e+00) (0, 0, 0.00000000000000000000e+00) (0, 0, 0.00000000000000000000e+00) (0, 0, 0.00000000000000000000e+00) (0, 0, 0.00000000000000000000e+00) (0, 0, 0.00000000000000000000e+00) (0, 0, 0.00000000000000000000e+00) (0, 0, 0.00000000000000000000e+00) (0, 0, 0.00000000000000000000e+00) (0, 0, 0.00000000000000000000e+00) (0, 0, 0.00000000000000000000e+00) (0, 0, 0.00000000000000000000e+00) (0, 0, 0.00000000000000000000e+00) (0, 0, 0.00000000000000000000e+00) (0, 0, 0.00000000000000000000e+00) (0, 0, 0.00000000000000000000e+00) (0, 0, 0.00000000000000000000e+00) (0, 0, 0.00000000000000000000e+00) (0, 0, 0.00000000000000000000e+00) (0, 0, 0.00000000000000000000e+00) (0, 0, 0.00000000000000000000e+00) (0, 0, 0.00000000000000000000e+00) (0, 0, 0.00000000000000000000e+00) (0, 0, 0.00000000000000000000e+00) (0, 0, 0.00000000000000000000e+00) (0, 0, 0.00000000000000000000e+00) (0, 0, 0.00000000000000000000e+00) (0, 0, 0.00000000000000000000e+00) (0, 0, 0.00000000000000000000e+00) (0, 0, 0.00000000000000000000e+00) (0, 0, 0.00000000000000000000e+00) (0, 0, 0.00000000000000000000e+00) (0, 0, 0.00000000000000000000e+00) (0, 0, 0.00000000000000000000e+00) (0, 0, 0.00000000000000000000e+00) (0, 0, 0.00000000000000000000e+00) (0, 0, 0.00000000000000000000e+00) (0, 0, 0.00000000000000000000e+00) (0, 0, 0.00000000000000000000e+00) (0, 0, 0.00000000000000000000e+00) (0, 0, 0.00000000000000000000e+00) (0, 0, 0.00000000000000000000e+00) (0, 0, 0.00000000000000000000e+00) (0, 0, 0.00000000000000000000e+00) (0, 0, 0.00000000000000000000e+00) (0, 0, 0.00000000000000000000e+00) (0, 0, 0.00000000000000000000e+00) (0, 0, 0.00000000000000000000e+00) (0, 0, 0.00000000000000000000e+00) (0, 0, 0.00000000000000000000e+00) (0, 0, 0.00000000000000000000e+00) (0, 0, 0.00000000000000000000e+00) (0, 0, 0.00000000000000000000e+00) (0, 0, 0.00000000000000000000e+00) (0, 0, 0.00000000000000000000e+00) (0, 0, 0.00000000000000000000e+00) (0, 0, 0.00000000000000000000e+00) (0, 0, 0.00000000000000000000e+00) (0, 0, 0.00000000000000000000e+00) (0, 0, 0.00000000000000000000e+00) (0, 0, 0.00000000000000000000e+00) (0, 0, 0.00000000000000000000e+00) (0, 0, 0.00000000000000000000e+00) (0, 0, 0.00000000000000000000e+00) (0, 0, 0.00000000000000000000e+00) (0, 0, 0.00000000000000000000e+00) (0, 0, 0.00000000000000000000e+00) (0, 0, 0.00000000000000000000e+00) (0, 0, 0.00000000000000000000e+00) (0, 0, 0.00000000000000000000e+00) (0, 0, 0.00000000000000000000e+00) (0, 0, 0.00000000000000000000e+00) (0, 0, 0.00000000000000000000e+00) (0, 0, 0.00000000000000000000e+00) (0, 0, 0.00000000000000000000e+00) (0, 0, 0.00000000000000000000e+00) (0, 0, 0.00000000000000000000e+00) (0, 0, 0.00000000000000000000e+00) (0, 0, 0.00000000000000000000e+00) (0, 0, 0.00000000000000000000e+00) (0, 0, 0.00000000000000000000e+00) (0, 0, 0.00000000000000000000e+00) (0, 0, 0.00000000000000000000e+00) (0, 0, 0.00000000000000000000e+00) (0, 0, 0.00000000000000000000e+00) (0, 0, 0.00000000000000000000e+00) (0, 0, 0.00000000000000000000e+00) (0, 0, 0.00000000000000000000e+00) (0, 0, 0.00000000000000000000e+00) (0, 0, 0.00000000000000000000e+00) (0, 0, 0.00000000000000000000e+00) (0, 0, 0.00000000000000000000e+00) (0, 0, 0.00000000000000000000e+00) (0, 0, 0.00000000000000000000e+00) (0, 0, 0.00000000000000000000e+00) (0, 0, 0.00000000000000000000e+00) (0, 0, 0.00000000000000000000e+00) (0, 0, 0.00000000000000000000e+00) (0, 0, 0.00000000000000000000e+00) (0, 0, 0.00000000000000000000e+00) (0, 0, 0.00000000000000000000e+00) (0, 0, 0.00000000000000000000e+00) (0, 0, 0.00000000000000000000e+00) (0, 0, 0.00000000000000000000e+00) (0, 0, 0.00000000000000000000e+00) (0, 0, 0.00000000000000000000e+00) (0, 0, 0.00000000000000000000e+00) (0, 0, 0.00000000000000000000e+00) (0, 0, 0.00000000000000000000e+00) (0, 0, 0.00000000000000000000e+00) (0, 0, 0.00000000000000000000e+00) (0, 0, 0.00000000000000000000e+00) (0, 0, 0.00000000000000000000e+00) (0, 0, 0.00000000000000000000e+00) (0, 0, 0.00000000000000000000e+00) (0, 0, 0.00000000000000000000e+00) (0, 0, 0.00000000000000000000e+00) (0, 0, 0.00000000000000000000e+00) (0, 0, 0.00000000000000000000e+00) (0, 0, 0.00000000000000000000e+00) (0, 0, 0.00000000000000000000e+00) (0, 0, 0.00000000000000000000e+00) (0, 0, 0.00000000000000000000e+00) (0, 0, 0.00000000000000000000e+00) (0, 0, 0.00000000000000000000e+00) (0, 0, 0.00000000000000000000e+00) (0, 0, 0.00000000000000000000e+00) (0, 0, 0.00000000000000000000e+00) (0, 0, 0.00000000000000000000e+00) (0, 0, 0.00000000000000000000e+00) (0, 0, 0.00000000000000000000e+00) (0, 0, 0.00000000000000000000e+00) (0, 0, 0.00000000000000000000e+00) (0, 0, 0.00000000000000000000e+00) (0, 0, 0.00000000000000000000e+00) (0, 0, 0.00000000000000000000e+00) (0, 0, 0.00000000000000000000e+00) (0, 0, 0.00000000000000000000e+00) (0, 0, 0.00000000000000000000e+00) (0, 0, 0.00000000000000000000e+00) (0, 0, 0.00000000000000000000e+00) (0, 0, 0.00000000000000000000e+00) (0, 0, 0.00000000000000000000e+00) (0, 0, 0.00000000000000000000e+00) (0, 0, 0.00000000000000000000e+00) (0, 0, 0.00000000000000000000e+00) (0, 0, 0.00000000000000000000e+00) (0, 0, 0.00000000000000000000e+00) (0, 0, 0.00000000000000000000e+00) (0, 0, 0.00000000000000000000e+00) (0, 0, 0.00000000000000000000e+00) (0, 0, 0.00000000000000000000e+00) (0, 0, 0.00000000000000000000e+00) (0, 0, 0.00000000000000000000e+00) (0, 0, 0.00000000000000000000e+00) (0, 0, 0.00000000000000000000e+00) (0, 0, 0.00000000000000000000e+00) (0, 0, 0.00000000000000000000e+00) (0, 0, 0.00000000000000000000e+00) (0, 0, 0.00000000000000000000e+00) (0, 0, 0.00000000000000000000e+00) (0, 0, 0.00000000000000000000e+00) (0, 0, 0.00000000000000000000e+00) (0, 0, 0.00000000000000000000e+00) (0, 0, 0.00000000000000000000e+00) (0, 0, 0.00000000000000000000e+00) (0, 0, 0.00000000000000000000e+00) (0, 0, 0.00000000000000000000e+00) (0, 0, 0.00000000000000000000e+00) (0, 0, 0.00000000000000000000e+00) (0, 0, 0.00000000000000000000e+00) (0, 0, 0.00000000000000000000e+00) (0, 0, 0.00000000000000000000e+00) (0, 0, 0.00000000000000000000e+00) (0, 0, 0.00000000000000000000e+00) (0, 0, 0.00000000000000000000e+00) (0, 0, 0.00000000000000000000e+00) (0, 0, 0.00000000000000000000e+00) (0, 0, 0.00000000000000000000e+00) (0, 0, 0.00000000000000000000e+00) (0, 0, 0.00000000000000000000e+00) (0, 0, 0.00000000000000000000e+00) (0, 0, 0.00000000000000000000e+00) (0, 0, 0.00000000000000000000e+00) (0, 0, 0.00000000000000000000e+00) (0, 0, 0.00000000000000000000e+00) (0, 0, 0.00000000000000000000e+00) (0, 0, 0.00000000000000000000e+00) (0, 0, 0.00000000000000000000e+00) (0, 0, 0.00000000000000000000e+00) (0, 0, 0.00000000000000000000e+00) (0, 0, 0.00000000000000000000e+00) (0, 0, 0.00000000000000000000e+00) (0, 0, 0.00000000000000000000e+00) (0, 0, 0.00000000000000000000e+00) (0, 0, 0.00000000000000000000e+00) (0, 0, 0.00000000000000000000e+00) (0, 0, 0.00000000000000000000e+00) (0, 0, 0.00000000000000000000e+00) (0, 0, 0.00000000000000000000e+00) (313, 3, 5.00000000000000000000e-01) (313, 3, 5.00000000000000000000e-01) (313, 3, 5.00000000000000000000e-01) (313, 3, 5.00000000000000000000e-01) (313, 3, 5.00000000000000000000e-01) (313, 3, 5.00000000000000000000e-01) (313, 3, 5.00000000000000000000e-01) (313, 3, 5.00000000000000000000e-01) (313, 3, 5.00000000000000000000e-01) (313, 3, 5.00000000000000000000e-01) (313, 3, 5.00000000000000000000e-01) (313, 3, 5.00000000000000000000e-01) (313, 3, 5.00000000000000000000e-01) (313, 3, 5.00000000000000000000e-01) (313, 3, 5.00000000000000000000e-01) (313, 3, 5.00000000000000000000e-01) (313, 3, 5.00000000000000000000e-01) (313, 3, 5.00000000000000000000e-01) (313, 3, 5.00000000000000000000e-01) (313, 3, 5.00000000000000000000e-01) (313, 3, 5.00000000000000000000e-01) (313, 3, 5.00000000000000000000e-01) (313, 3, 5.00000000000000000000e-01) (313, 3, 5.00000000000000000000e-01) (313, 3, 5.00000000000000000000e-01) (313, 3, 5.00000000000000000000e-01) (313, 3, 5.00000000000000000000e-01) (313, 3, 5.00000000000000000000e-01) (313, 3, 5.00000000000000000000e-01) (313, 3, 5.00000000000000000000e-01) (313, 3, 5.00000000000000000000e-01) (313, 3, 5.00000000000000000000e-01) (313, 3, 5.00000000000000000000e-01) (313, 3, 5.00000000000000000000e-01) (313, 3, 5.00000000000000000000e-01) (313, 3, 5.00000000000000000000e-01) (313, 3, 5.00000000000000000000e-01) (313, 3, 5.00000000000000000000e-01) (313, 3, 5.00000000000000000000e-01) (313, 3, 5.00000000000000000000e-01) (0, 3, 0.00000000000000000000e+00) (41, 3, 5.00000000000000000000e-01) (41, 3, 5.00000000000000000000e-01) (41, 3, 5.00000000000000000000e-01) (0, 3, 0.00000000000000000000e+00) 
connections (connected_to_neuron, weight)=(0, -7.30446137858062782833e-01) (1, 3.88015757815950070725e-03) (2, -1.88090792919635241276e+00) (3, -2.35023843918099251127e+00) (4, 4.28863968893128458260e-02) (5, -1.64618815572712007267e+00) (6, -1.33820064752229095362e+00) (7, -2.53591776414390368544e+00) (8, -9.61302244991543042296e-01) (9, 5.85271471303458801216e-01) (10, -5.26417559465994999712e-01) (11, -6.93427948002758975932e-01) (12, -6.24639188941764955665e-01) (13, -6.64861275834035758692e-01) (14, -1.02445812945537895189e+00) (15, -2.04945509465665409721e+00) (16, -1.76789567632160293797e+00) (17, -1.36381235070149153810e-01) (18, -3.04870716792291884811e-01) (19, -1.50160837534145052974e-01) (20, -3.21088856375863818116e+00) (21, -4.43897390602848318508e+00) (22, -2.86112472242998960859e-01) (23, 2.41343423359851527721e+00) (24, -1.40776600507166338438e+00) (25, -1.26604057737060138322e+00) (26, -1.82203756592179844098e+00) (27, -2.58280960192853870083e+00) (28, 1.10468772851613761254e+00) (29, -2.69035558470173530310e+00) (30, -2.59823184802417816996e+00) (31, -2.50415482713921910829e+00) (32, -4.35931573141070227706e-01) (33, -5.38228006053550964150e-02) (34, -5.15765245305475072968e-01) (35, -1.15086407863644524241e+00) (36, -1.33891854557179090790e+00) (37, -4.77826076148521849962e-01) (38, -1.88868582761468406517e+00) (39, -2.60869662946786506907e+00) (40, -2.16572280925297455667e+00) (41, 7.15592222855819026783e-01) (42, 2.40736339094463458466e-01) (43, -5.26054485962847873104e-01) (44, -1.12548068222446318032e+00) (45, -5.18427259916660165828e+00) (46, -4.95302859670637696254e-01) (47, 2.83067374293312790101e+00) (48, -6.54541927737125384112e-01) (49, -7.66043140280406986697e-01) (50, -1.84666921986997478733e+00) (51, -2.47102511005336245020e+00) (52, 6.89871148343037865480e-01) (53, -2.19635293767908024165e+00) (54, -2.07058345593770720683e+00) (55, -2.32513099623732300003e+00) (56, -3.42354756400712445519e-01) (57, -8.24422615920728518724e-01) (58, -6.77369377742582212676e-01) (59, -7.85161339576135763885e-01) (60, -5.78100441203987625016e-01) (61, -2.35420058840801499356e-01) (62, -1.87765337030038836907e-01) (63, -1.40255529389696764753e+00) (64, -2.31742643381949342540e+00) (65, 3.69055642061831890022e-01) (66, 5.51882710402042286901e-01) (67, -1.42700120351607706581e+00) (68, -3.69939764489952116477e+00) (69, -5.79668901515985979245e+00) (70, -5.06932783717230828202e-01) (71, 3.41725110953615018872e+00) (72, -1.99166284726986120290e+00) (73, -3.19318609058970470649e-01) (74, -3.36664268534208444006e-01) (75, -1.75013917310196021049e+00) (76, 1.33950035407343071014e-01) (77, -1.15241658591073337092e+00) (78, -1.11763617547195193147e+00) (79, -6.60308665064383903953e-01) (80, -2.99801489995566494695e-01) (81, -2.21137175378158179484e+00) (82, -1.44531600021353434649e+00) (83, -2.81324042883885572230e-01) (84, -1.61094200405131227072e+00) (85, -3.68007576701503968941e-01) (86, 1.88420067344103769891e+00) (87, -8.00732056124499269600e-01) (88, -2.01564890475992308794e+00) (89, -3.49342044566268439265e-01) (90, -7.83069537212723321140e-01) (91, -2.55420107280227570712e+00) (92, -5.17414798119024155199e+00) (93, -6.42121489174365311925e+00) (94, -4.02980127396323217770e-01) (95, 4.12236644504274707401e+00) (96, -3.43988014762534799473e+00) (97, -5.71135720512326028331e-02) (98, 2.58270374863187290870e+00) (99, 6.12847898904418375565e-01) (100, -4.79095764715843364101e-01) (101, -1.66406073060243508976e+00) (102, -1.25962270392967790045e+00) (103, 2.65238293277344094889e+00) (104, 4.09986998558855564312e-01) (105, -4.63648334207608048274e+00) (106, -3.87175386356877426763e+00) (107, 6.35824991300852793152e-01) (108, -3.51274551941628043750e+00) (109, -1.75978608342586917423e+00) (110, 4.81611700792952035499e+00) (111, 7.57054925185358107420e-01) (112, -1.14647968974509129048e+00) (113, -1.30772072171615483249e+00) (114, -1.37385901763499229666e+00) (115, -4.70157809304529106242e+00) (116, -3.60353765418804572462e+00) (117, -6.49440037835734784721e+00) (118, -5.59111947115452867507e-01) (119, 4.06535135486500642799e+00) (120, -4.97772795147186641884e+00) (121, -4.03411325178279334125e+00) (122, 6.27538648196313531002e+00) (123, 1.92623694653773935848e+00) (124, -7.51603939665239528800e-01) (125, -4.09635796342102764811e+00) (126, -4.82519330981054928031e+00) (127, 9.15973655521575302885e+00) (128, -1.52363746309309128213e-01) (129, -6.83740439481380946063e+00) (130, -4.95117766592967800676e+00) (131, -1.29339637276225616347e+00) (132, -4.35936331382433195358e+00) (133, -2.48400758658529019485e+00) (134, 9.50951518625610781044e+00) (135, 1.67018574132125788116e-03) (136, -2.17744102383364612763e+00) (137, -2.27420032519964543383e+00) (138, -1.72858933548100734967e+00) (139, -7.03260155168202949483e+00) (140, -7.89854297174604425003e-01) (141, -6.67639686326523573712e+00) (142, -5.55635794007881655965e-01) (143, 3.25277704739011186419e+00) (144, -7.78556119692789128095e+00) (145, -3.56712195983623114870e+00) (146, 9.80666959585398778643e+00) (147, 6.45850266036111886336e+00) (148, -1.79880439885485254869e+00) (149, -3.95889128572185278188e+00) (150, -5.52510948330717344135e+00) (151, 1.26868979305804057134e+01) (152, -2.04149002956963587785e-01) (153, -8.13651427352238698631e+00) (154, -5.73780150645350506267e+00) (155, -7.11798807048102943895e-01) (156, -3.98136588449627470965e+00) (157, -5.10184414905398408990e+00) (158, 1.44220703917257537796e+01) (159, 2.74302913552120175567e+00) (160, 1.75639530592322040681e-01) (161, -3.43201309520114117291e+00) (162, -4.26171746891826774828e+00) (163, -8.18211338163656876077e+00) (164, 1.03194980422012272392e+00) (165, -5.84075128458290393496e+00) (166, -6.19745776370406842304e-01) (167, 4.35590818524360656738e-02) (168, -8.41592815570593799634e+00) (169, -1.57134340557697793628e+00) (170, 4.72339988241937458469e+00) (171, 3.88540787886281657748e+00) (172, -3.41672684606327958790e+00) (173, -2.70720879197956065809e+00) (174, -2.80125187425701671629e+00) (175, 8.76366453273527845624e+00) (176, -1.23156944477279303718e-01) (177, -8.93843838043243188451e+00) (178, -1.06896152465091152095e+01) (179, 1.35588620208758392494e+00) (180, -7.23826621959564153741e+00) (181, -6.09262119353307518566e+00) (182, 1.99555914878777329591e+01) (183, 2.43562326121915218025e+00) (184, 2.14962110648672632962e+00) (185, -2.32195351583075648705e+00) (186, -3.96130995938730512407e+00) (187, -7.77672780546220288045e+00) (188, 4.83427866744708389923e-01) (189, -6.47230646720022217977e+00) (190, -3.75683770245020509648e+00) (191, 3.03361808439019009498e+00) (192, -6.33243318637679841743e+00) (193, -2.93934674130490547483e+00) (194, 1.31275273987319440749e+00) (195, 2.72650097689554105074e+00) (196, -2.15658249756866959856e+00) (197, -3.78322556751089633664e+00) (198, -4.99891073794879570169e-01) (199, 3.41056089753721147773e+00) (200, -2.05386292558260852292e-01) (201, -4.77167663023204546846e+00) (202, -7.94013716481261333513e+00) (203, -8.23198812534781332317e-01) (204, -5.77880322914144883839e+00) (205, -3.99561631931755911751e+00) (206, 1.36776429129471210899e+01) (207, 1.63148607080263818858e+00) (208, 1.89833887986852523078e+00) (209, -1.46603640040490934560e+00) (210, -2.15415726618082681298e+00) (211, -3.12087884852474362063e+00) (212, -2.41349220573776701571e+00) (213, -6.08992458889277088474e+00) (214, -4.49116196877055617875e+00) (215, 3.70513058797312933024e+00) (216, -5.40860402305681997603e+00) (217, -3.88481552401282526077e+00) (218, -2.77880924252184113854e+00) (219, 7.03912376392801242275e-01) (220, -1.76391201326310254061e+00) (221, -2.95199239892801168494e+00) (222, -9.22986680537233428190e-01) (223, 1.39727479411669752891e-03) (224, -1.45325460459427890925e+00) (225, -2.94553381828197080594e+00) (226, -6.00437238058230704496e+00) (227, -3.09388610477451564407e+00) (228, -4.38139605056269143546e+00) (229, -2.79138819889569855803e+00) (230, 9.08937312131149965921e+00) (231, -7.57131356399208810259e-02) (232, 1.42049145616112260093e+00) (233, -1.46190596329334310255e+00) (234, -1.66330635328726561539e+00) (235, -5.55418229211401492940e-01) (236, -1.17718609562469755936e+00) (237, -5.30595716780824933068e+00) (238, -4.39344227689166277884e+00) (239, 3.61635114974617799533e+00) (240, -5.07963047177017923417e+00) (241, -2.92462074797408710936e+00) (242, -4.16529865690873002393e+00) (243, 5.35460937663390160179e-02) (244, -1.40725379584180498860e+00) (245, -1.91047131908821166135e+00) (246, -3.41493443405060048690e-01) (247, -2.32943203842016011151e+00) (248, -2.12097101810736488048e+00) (249, -1.52293933759968219688e-01) (250, -3.47279260063927353031e+00) (251, -2.59187408566427102130e+00) (252, -2.51496054240733002416e+00) (253, -1.81140615929375270454e+00) (254, 4.58305879291483364568e+00) (255, -1.25227483239478543098e+00) (256, 2.01671004828651717622e-01) (257, -5.14602971624936400552e-01) (258, -1.07738692446619377385e+00) (259, 1.49852633758108710893e+00) (260, -1.85741899980920677216e+00) (261, -5.10720375941102755490e+00) (262, -3.91565495775265448586e+00) (263, 3.09030174137262481082e+00) (264, -2.89896212242953188465e+00) (265, -2.38745340965600538752e+00) (266, -3.65517183869765238668e+00) (267, 6.02867809700075793500e-02) (268, -6.46047039191843919248e-01) (269, -2.23890115028292235877e+00) (270, -1.02029851917115488291e+00) (271, -2.32947634358749544603e+00) (272, -8.11476221581597934041e-01) (273, -1.10154825428747382698e-01) (274, -2.31262798054153995153e+00) (275, -3.34229242526400449620e+00) (276, -1.82464280435729087060e+00) (277, -7.59048105998022859531e-01) (278, 1.43181222436634159045e+00) (279, -1.23736368446764588569e+00) (280, -4.54112242792531872748e-01) (281, 4.09656043178100448543e-02) (282, -1.87728823609640743664e-01) (283, 1.13200711787338037517e+00) (284, -2.09113689885181930350e+00) (285, -4.35734259035547921712e+00) (286, -3.34132719153404567081e+00) (287, 2.61866157949782030201e+00) (288, -2.12948520238237692936e+00) (289, -1.00852275524996848333e+00) (290, -2.81288587552226809763e+00) (291, -1.09628802128839311636e-01) (292, -5.69719767540708410536e-01) (293, -1.64549863402487628328e+00) (294, -7.91337762907273312152e-01) (295, -2.80049906166099482618e+00) (296, -1.34006889395420558664e+00) (297, -2.38918913132402904731e-01) (298, -2.45472165672969078187e+00) (299, -2.27895121383785959068e+00) (300, -1.57199130182616042539e+00) (301, -5.16791615608667154191e-01) (302, 4.17792914390115233125e-01) (303, -1.54047749144106238539e+00) (304, -6.96521974048942282831e-02) (305, 4.40821408829087449388e-02) (306, -7.27496452995850861889e-01) (307, 3.86718639748551834545e-02) (308, -1.52826587143857639539e+00) (309, -3.56232030540594690748e+00) (310, -2.98375692839151351876e+00) (311, 2.14381821491962698545e+00) (312, -4.28622454040659739416e-01) (0, -7.66211298802285512011e+00) (1, -4.94268432092790277466e+00) (2, -8.26292917163863194219e+00) (3, -1.24953147680747296278e+01) (4, -2.26791234672643421399e-01) (5, -1.14545492456788409186e+01) (6, -9.90660370157614522668e+00) (7, -7.99344051786815423810e+00) (8, -4.23324725818245628517e+00) (9, 2.40422492604493387436e-01) (10, -5.10259192617002277359e+00) (11, -6.36837891557472790538e+00) (12, -8.75972675566112002343e+00) (13, -3.35348161236157826792e+00) (14, -5.63956199063075480638e+00) (15, -1.09603451803305240730e+01) (16, -6.85884671261354039729e+00) (17, -7.13944341109851499105e-01) (18, -1.97218202334464343117e+00) (19, 3.83544306832759029913e-01) (20, -1.07431170352274723001e+01) (21, -2.42860135054731394177e+01) (22, -1.81009315407371618178e+00) (23, 1.43655012558583479176e+01) (24, -9.61032675697839167128e+00) (25, -5.96523044082410081046e+00) (26, -7.21420304797326661372e+00) (27, -1.48360921294074881160e+01) (28, 2.72880603552033473846e+00) (29, -1.36644278085283552571e+01) (30, -1.33495760148362432318e+01) (31, -9.50196038006250809360e+00) (32, -9.66002837308268524907e-01) (33, -7.06726156497176072335e-01) (34, -4.15622317991121281722e+00) (35, -6.00558074760953974902e+00) (36, -8.38770530178016926470e+00) (37, -1.33518500982515542219e+00) (38, -5.63328738671430340190e+00) (39, -1.24470888686655190014e+01) (40, -7.70286247613491870112e+00) (41, 1.87103117704168808721e+00) (42, 2.20364463141049543582e-01) (43, 1.11980074993916356441e+00) (44, -1.00162034016030698780e+01) (45, -2.67679148133584590141e+01) (46, -2.01614430129124455604e+00) (47, 1.59586005701742319474e+01) (48, -1.10160458428299623534e+01) (49, -6.97526592055086336330e+00) (50, -7.14338161738867682971e+00) (51, -1.23936928986061811742e+01) (52, 1.34585835015665478132e+00) (53, -1.45270201202616142666e+01) (54, -1.25114082415629450651e+01) (55, -5.68100380755809908351e+00) (56, -2.78485686630910089789e+00) (57, -4.09221618764249583933e+00) (58, -6.59791866516088454375e+00) (59, -6.45905927514368638498e+00) (60, -7.61208060689281573730e+00) (61, -2.84099305386588962818e+00) (62, 6.17995434379892238930e-01) (63, -9.03483541099869746915e+00) (64, -1.04644825683165798580e+01) (65, -6.35039076289818038568e-01) (66, -1.46059349117358427961e+00) (67, -2.43663168857835232828e+00) (68, -1.34946730601134969874e+01) (69, -2.87404298922877501354e+01) (70, -2.29111115550046484657e+00) (71, 1.91449848877190262897e+01) (72, -1.41460724625135529919e+01) (73, -2.17131656728660749067e+00) (74, -4.40404680875854648292e+00) (75, -1.11690951585597062490e+01) (76, 6.34846689319313095545e-01) (77, -9.64085254108566402920e+00) (78, -5.88335197832798595385e+00) (79, 3.87791333961982997991e+00) (80, -1.98372147314261404460e+00) (81, -1.04767894601400506360e+01) (82, -1.35073483013240469575e+01) (83, -2.77500592574025983783e-01) (84, -1.41152849503789301622e+01) (85, -3.60460099971368563843e+00) (86, 9.73628071663003247238e+00) (87, -8.00629073830121562594e+00) (88, -9.46814330084043298541e+00) (89, -2.59787663302583426983e+00) (90, -3.13504763561020283191e+00) (91, -6.01025610401303378438e+00) (92, -2.29610014770547010698e+01) (93, -3.00934778086685170706e+01) (94, -2.51077386862599016837e+00) (95, 2.22032652952480766828e+01) (96, -2.55129119377352502340e+01) (97, -4.73069954258814817649e+00) (98, 1.12716543541385938454e+01) (99, -1.51784659241137442898e+00) (100, -5.28483898427058562675e-01) (101, -1.16386457599329418144e+01) (102, -9.04803213571789299863e+00) (103, 2.02931237263705135376e+01) (104, 6.73706626393660190644e-01) (105, -1.86784639916535439852e+01) (106, -2.03234248118281932705e+01) (107, -2.28099581464134892883e-01) (108, -1.88497011022001679237e+01) (109, -6.44761373844935636868e+00) (110, 1.44108942711795133818e+01) (111, -3.34902739103522062436e+00) (112, -2.22827210291824417965e+00) (113, -8.11373938749825285299e+00) (114, -6.05539833689408091288e+00) (115, -1.22501328496321946204e+01) (116, -1.62019318451805887094e+01) (117, -3.01382354156397695988e+01) (118, -2.78755486080059933229e+00) (119, 2.16645149599813642283e+01) (120, -3.55486733057954893411e+01) (121, -1.80566678575547001628e+01) (122, 1.80265881581111173659e+01) (123, -1.65787441131402002448e+00) (124, 6.29137389467737784265e-01) (125, -2.01571320723331517399e+01) (126, -2.52112746327669654534e+01) (127, 4.09222954437728816401e+01) (128, -2.55322271338294326526e+00) (129, -2.03915372080416545941e+01) (130, -2.20193272006074458602e+01) (131, -8.70774615284761921430e+00) (132, -1.63437771257274491177e+01) (133, -7.58277835406741029800e+00) (134, 3.10409973316948075706e+01) (135, -9.39454303543721458425e+00) (136, -4.31206434422125894912e+00) (137, -1.08860335822060001476e+01) (138, -8.23090397022520647852e+00) (139, -1.11624082699556819165e+01) (140, -5.12272295515767073226e+00) (141, -3.29892748455726732004e+01) (142, -3.12407089194145326516e+00) (143, 1.66424156616162584044e+01) (144, -4.29292076007578202734e+01) (145, -1.22218774142634725166e+01) (146, 3.61116977027382048959e+01) (147, 2.18677294847968077818e+01) (148, -3.70804947537526841117e+00) (149, -1.88760243003340022483e+01) (150, -2.74268573892249314383e+01) (151, 5.58462664486028330657e+01) (152, -2.26184888021467633834e+00) (153, -3.12987778331591002257e+01) (154, -3.41891443324603017118e+01) (155, -3.73048556458808633352e+00) (156, -2.41437097603085639719e+01) (157, -2.50089509422806308692e+01) (158, 5.81183016601306334792e+01) (159, 1.25938347992046164592e+01) (160, 9.71448343320559537517e+00) (161, -1.67224996051530183649e+01) (162, -2.01064904411873861534e+01) (163, -2.32629711540850863116e+01) (164, 4.45373761306309923214e+00) (165, -2.86011792182267505780e+01) (166, -3.44486610734265585876e+00) (167, -3.33332493901252746582e-02) (168, -4.72478841541691849670e+01) (169, -1.03024288034088069566e+01) (170, 1.50241254867861666611e+01) (171, 1.38088008144811524858e+01) (172, -1.46306495722176670427e+01) (173, -1.91067193013683578329e+01) (174, -1.64135458119625390339e+01) (175, 3.25866279343232889687e+01) (176, -3.01642066423671773023e+00) (177, -3.09292468579305577236e+01) (178, -4.67581862467414381968e+01) (179, -5.18814987971620955598e-01) (180, -3.36919087318305585654e+01) (181, -2.42701239902938468163e+01) (182, 8.57844640098429778163e+01) (183, 6.55742833539912961527e+00) (184, 1.49854711306141759053e+01) (185, -1.06857457007758256395e+01) (186, -1.59203677010373514378e+01) (187, -1.95877153521298552619e+01) (188, -3.04895524562556818893e+00) (189, -3.08837796232598087443e+01) (190, -2.09837747836516896882e+01) (191, 1.74838098048821848352e+01) (192, -3.67092447288283381113e+01) (193, -1.99352461063457404578e+01) (194, -2.85681131253003028903e+00) (195, 7.19009251839144525320e+00) (196, -8.89060149291048773534e+00) (197, -2.53749701644628835595e+01) (198, -9.81520389081310717927e+00) (199, 1.28268537426776667587e+01) (200, -4.54467174457194023063e+00) (201, -1.57033023254342278818e+01) (202, -3.63672614098329987087e+01) (203, -1.33359983572661047191e+01) (204, -2.79016894158508712565e+01) (205, -1.43394731706443394614e+01) (206, 6.32704764085383715155e+01) (207, 3.63555911947881504886e+00) (208, 7.72235067610422110107e+00) (209, -5.76488157389811206599e+00) (210, -9.06076346991968506472e+00) (211, -3.21731620636439963334e+00) (212, -6.86739649340915825348e+00) (213, -2.85152738754091110707e+01) (214, -2.49142106595359784649e+01) (215, 2.11264452161246687467e+01) (216, -3.10013809069784613826e+01) (217, -2.16357659006419709158e+01) (218, -1.45648939213648329627e+01) (219, 4.68493307381370893694e+00) (220, -8.48103061750202336100e+00) (221, -1.83256002054816420355e+01) (222, -4.22597636610352722641e+00) (223, 2.06714715313493835325e+00) (224, -1.00174342026330283062e+01) (225, -1.05251861298665794209e+01) (226, -2.83978502589606165429e+01) (227, -1.90095153418125555334e+01) (228, -2.27399499141136161029e+01) (229, -1.17096093310547413324e+01) (230, 3.96730941000123777940e+01) (231, -6.94306477961461609993e-01) (232, 7.89852502900878494785e+00) (233, -5.52443442038605425637e+00) (234, -7.92139532398458801055e+00) (235, 4.57590174618851097676e+00) (236, -8.84867449858124111017e+00) (237, -2.76852453525471133844e+01) (238, -2.38703859675096694559e+01) (239, 1.97659367273346227023e+01) (240, -2.62805640626149212835e+01) (241, -1.42841605552201666995e+01) (242, -1.87858931105232507264e+01) (243, -4.59805149824318859508e-02) (244, -7.96341911105242861169e+00) (245, -1.14761260090174452841e+01) (246, -4.37521971602535231227e+00) (247, -8.24346724267196151459e+00) (248, -8.34080585295080467745e+00) (249, -2.03687944661187048112e+00) (250, -2.09057466885978620041e+01) (251, -1.59618691287009948354e+01) (252, -1.62551068027470471122e+01) (253, -9.31814490550464569196e+00) (254, 1.57314655945235344348e+01) (255, -2.11974452525015211179e+00) (256, 5.69031106132390096519e+00) (257, -4.77089919586795119244e+00) (258, -6.06421061863323185293e+00) (259, 1.11851179634870749879e+01) (260, -1.28090751632914070512e+01) (261, -2.70122645781117682873e+01) (262, -2.07711196795962855788e+01) (263, 1.64833966498605022366e+01) (264, -1.90439938272578324074e+01) (265, -1.18913483136276294516e+01) (266, -1.65258356291046908382e+01) (267, 1.48744328967368583116e-02) (268, -2.67823106140164934885e+00) (269, -1.26369402794706573445e+01) (270, -4.49540883144779535030e+00) (271, -6.32298400877269095588e+00) (272, -6.59479833868423526155e+00) (273, -1.99308536903133348694e+00) (274, -1.48958745968228853940e+01) (275, -1.83154630654221790564e+01) (276, -1.25454287052278701253e+01) (277, -5.06207827051673486807e+00) (278, 5.24705560163520345895e+00) (279, -4.96810946252432295012e+00) (280, -7.31349490796771695145e-01) (281, -1.18664702851750880619e+00) (282, -2.70508631418610301367e+00) (283, 8.49375331666807120712e+00) (284, -9.69751302741591025836e+00) (285, -2.50614065186674501717e+01) (286, -1.77156985333423087070e+01) (287, 1.31826102223808216962e+01) (288, -1.56552874697982602470e+01) (289, -7.15687361704551960884e+00) (290, -1.40393862146047858630e+01) (291, -3.43504096854498408575e+00) (292, -3.58279131216798107928e+00) (293, -1.00154583151062688273e+01) (294, -6.10565266440715337382e+00) (295, -7.72417151138351965045e+00) (296, -6.81036090571615826406e+00) (297, -1.71582860740276377243e+00) (298, -1.47855309102238123842e+01) (299, -1.45400684686519561239e+01) (300, -9.32706983052742089058e+00) (301, -1.83125266645692041934e+00) (302, 2.63749696813386025340e+00) (303, -6.01255253969566982875e+00) (304, 8.43900638800939240092e-01) (305, -3.25016873435977016182e-01) (306, -2.56522814339502414072e+00) (307, 3.56293973504441519040e+00) (308, -7.91773415153247217546e+00) (309, -2.15727651353718066218e+01) (310, -1.67539052607760936553e+01) (311, 1.20792842717337087777e+01) (312, 1.30969833899614002126e-01) (0, 3.37178147060198485363e+00) (1, -3.55133235347312314900e+00) (2, -1.19181023461402073593e+01) (3, -9.16500850363014407662e+00) (4, 1.00862928314811320374e-01) (5, -6.92555863923971948282e+00) (6, -6.83169649533387346452e+00) (7, -1.78126252229227581836e+01) (8, -6.59582972864684169423e+00) (9, 2.27557467661410628423e+00) (10, 1.05559118985041022754e+00) (11, -6.90973862166583696620e+00) (12, 1.17259676076949787005e-01) (13, -4.14427160480707978962e+00) (14, -9.67877196667161854293e+00) (15, -9.33800287453723676379e+00) (16, -1.26804054071068623699e+01) (17, -2.47989336560239648222e+00) (18, -3.78615124278958692372e+00) (19, -4.69910107345028560388e+00) (20, -9.18468378116579842185e+00) (21, -9.51367624415558665874e+00) (22, -1.47721558739868497057e+00) (23, 1.07226350330486610574e+01) (24, 5.58044900170987290267e+00) (25, -5.17096633483366741046e+00) (26, -1.26044935297846727451e+01) (27, -1.28256619609087749723e+01) (28, 3.57703615445659073302e+00) (29, -8.70596182347441782667e+00) (30, -8.65655224439627701827e+00) (31, -1.82353077557797398356e+01) (32, -5.77354397844295430531e+00) (33, 1.23812711230747973801e+00) (34, 1.82306472028096577809e+00) (35, -7.28514145587585826291e+00) (36, 1.94717073598949713675e-01) (37, -2.14229659409592976260e+00) (38, -1.03159157677407993248e+01) (39, -1.11954204573044933113e+01) (40, -1.35337275205005500567e+01) (41, 1.12122166169423986837e+00) (42, -5.99410556764463420265e-01) (43, -6.26385454701762967034e+00) (44, -1.02190174502752721963e+01) (45, -1.45740115256254956222e+01) (46, -1.66452227112212569615e+00) (47, 1.30297793099025458474e+01) (48, 3.70900358149748354819e+00) (49, -7.03396513448389626433e+00) (50, -1.07984244842480023863e+01) (51, -9.98964077271821793147e+00) (52, -1.73298315747546644028e-01) (53, -1.02676175391215735999e+01) (54, -1.01672932990284472510e+01) (55, -1.76586499056989225664e+01) (56, -7.81993424121234248503e+00) (57, -2.44043406934778639439e+00) (58, 1.40590589828786383109e+00) (59, -8.03334803486365167657e+00) (60, 7.89747901611326796889e-01) (61, -4.03636948465277978215e+00) (62, -3.94736183806548979192e+00) (63, -8.89993902791360014248e+00) (64, -1.63827480579633935065e+01) (65, -1.40831316067358502941e+00) (66, -2.88578171112669012999e+00) (67, -1.31197813971485768292e+01) (68, -9.46894065716242749886e+00) (69, -1.72407123123283767541e+01) (70, -1.71153259993068096456e+00) (71, 1.68642490117179271181e+01) (72, 3.92593430711366009334e+00) (73, -2.67155548322437974562e+00) (74, -6.38696156214555976760e+00) (75, -6.37654554117675509417e+00) (76, -1.34338878822996599105e+00) (77, -4.85051672308011561086e+00) (78, -4.97399687845820270837e+00) (79, -1.29782203175567598663e+01) (80, -6.87568729379372012289e+00) (81, -1.23735062852143151702e+01) (82, -3.49172432265244836458e+00) (83, -3.28147108449258828600e+00) (84, -3.35088122483888373182e+00) (85, -4.68948571372205069707e+00) (86, 8.04546964826208466093e+00) (87, -5.73908312928602359904e+00) (88, -1.83655222194796969859e+01) (89, -2.26938586246525364487e+00) (90, -5.21671671434543693380e+00) (91, -2.16640850783743772467e+01) (92, -2.00939803866131754262e+01) (93, -2.10606971327698495600e+01) (94, -2.05553385858277382070e+00) (95, 2.14078197344345682041e+01) (96, -1.74149510591403133830e+00) (97, -1.18206019127071915165e+00) (98, 8.53923613057036945406e+00) (99, 5.46572467884940760285e+00) (100, -4.37502594099129460403e+00) (101, -3.93360500273247604142e+00) (102, -3.34476958130799673086e+00) (103, -2.42318528140494748868e+00) (104, -4.05619892628672129575e+00) (105, -2.37860776113819589739e+01) (106, -7.61687453539331471575e+00) (107, 2.18398066280177260978e+00) (108, -9.10440923687602321479e+00) (109, -1.08388477979853199429e+01) (110, 1.96904030543557233557e+01) (111, 3.81316540989446606247e+00) (112, -1.04655078827181000634e+01) (113, -7.30544701548562702698e+00) (114, -9.18535853432017113107e+00) (115, -3.30685770551291113861e+01) (116, -2.25627185077236767086e+01) (117, -2.23921394122517476433e+01) (118, -2.17568424369674495722e+00) (119, 2.29739851530330021490e+01) (120, -7.40028040346033399999e+00) (121, -1.44321059938266529343e+01) (122, 2.92347894581503737754e+01) (123, 1.74430013849786966773e+01) (124, -6.81588360465632892016e+00) (125, -1.11271042294923461213e+01) (126, -1.50754583769578331953e+01) (127, 2.80046916365610840671e+01) (128, -4.66574363054067742240e+00) (129, -3.16130029635632610052e+01) (130, -1.09343386037492429352e+01) (131, -1.58513233551128585042e+00) (132, -1.12540998544140382620e+01) (133, -1.73075903669292934239e+01) (134, 4.21996568289838691612e+01) (135, 1.57594967427079968303e+00) (136, -1.94823174686100806241e+01) (137, -1.41406909912106026894e+01) (138, -1.43604116848043403820e+01) (139, -4.22747042129385377507e+01) (140, -1.48741941620025652782e+01) (141, -2.34161914487999318624e+01) (142, -2.41804904636684758756e+00) (143, 1.80830216154296898878e+01) (144, -1.28988361483110303141e+01) (145, -1.51556222127206208228e+01) (146, 4.66761509526132130077e+01) (147, 3.73420154602966292146e+01) (148, -1.14582259488127249369e+01) (149, -9.53660070406153792533e+00) (150, -1.62037702231119418173e+01) (151, 5.65328467621820180966e+01) (152, -4.93098560152567255699e+00) (153, -4.30956721548790753218e+01) (154, -1.97993676968067973121e+01) (155, 1.79234496483817062895e+00) (156, -1.40645165352160574912e+01) (157, -2.66068873902875431270e+01) (158, 6.26598541879239974151e+01) (159, 1.33299664996538265171e+01) (160, -8.74697466754227015429e+00) (161, -1.79424228469163082877e+01) (162, -2.50209924284239946246e+01) (163, -5.41699043799037838198e+01) (164, -2.78013263170945545966e-01) (165, -1.86946472210817660198e+01) (166, -2.74157937447225386052e+00) (167, 4.22750785946846008301e-02) (168, -2.22423689906712311881e+01) (169, -8.68015760014749560014e+00) (170, 2.36034166320412523987e+01) (171, 1.99972722452507944979e+01) (172, -1.59369187554128739492e+01) (173, -4.58755057966538348779e+00) (174, -5.73896009490335767822e+00) (175, 3.42048064259096449291e+01) (176, -2.20871743270666209824e+00) (177, -4.16427941372828769317e+01) (178, -3.64185485419497965154e+01) (179, 6.24428881288177173303e+00) (180, -2.25154397589678865188e+01) (181, -2.49822827193294259018e+01) (182, 7.30107442359886960048e+01) (183, 7.75253314347848210275e+00) (184, -2.20970131272375081011e+00) (185, -1.18880223144139005598e+01) (186, -2.00521382392473199729e+01) (187, -4.71701135877297872412e+01) (188, -1.20836480736199032293e+01) (189, -2.40066524747065344059e+01) (190, -2.24270689746417133392e+01) (191, 1.95809282130182751303e+01) (192, -1.75168462557529842627e+01) (193, -1.38728693786334744686e+01) (194, 8.75076936209510991560e-01) (195, 5.59355326355027582252e+00) (196, -9.18846164277942811793e+00) (197, -8.62120803753578179851e+00) (198, -2.79670622271016355853e+00) (199, 4.19816111750557485749e+00) (200, -4.21602891259159928694e+00) (201, -1.97971541929686978278e+01) (202, -2.24762558187274663624e+01) (203, -2.04365842866692970503e+00) (204, -1.52127388269637240370e+01) (205, -1.51079387660517046044e+01) (206, 4.71354067856630862821e+01) (207, -2.55905803125747022264e+00) (208, -4.06377566377269605624e+00) (209, -5.53468518878291781959e+00) (210, -1.11537920815013187337e+01) (211, -2.16639397118184184876e+01) (212, -1.79685242948255812223e+01) (213, -2.19945745878662997086e+01) (214, -2.54457440597732578169e+01) (215, 2.24433724302791226535e+01) (216, -1.32852480444050655706e+01) (217, -1.39023338603960535664e+01) (218, -1.57887045977497333382e+01) (219, -2.86628778072273782129e+00) (220, -4.91448507238478082826e+00) (221, -6.45701933028509600376e+00) (222, -3.05555586812064516877e+00) (223, -8.71161232075047031742e+00) (224, -6.02838169833470693959e+00) (225, -8.58779414989889033905e+00) (226, -1.29888709784122440283e+01) (227, -9.57840256099188458450e+00) (228, -1.03500572149956031609e+01) (229, -9.58305344791411961580e+00) (230, 2.80664446749896967503e+01) (231, -7.03416334133804621587e+00) (232, -4.79922431133978655282e+00) (233, -3.11932050929220272550e+00) (234, -4.84151505614277688494e+00) (235, -7.86768640565735211112e+00) (236, -1.62888283307043089110e+01) (237, -1.85384224138287869721e+01) (238, -2.32295089605845923586e+01) (239, 1.98348103358949998665e+01) (240, -9.31733618876451075153e+00) (241, -9.74281026336022470957e+00) (242, -1.69273966534668574013e+01) (243, -4.54951463752573204147e+00) (244, -4.66304618587929819995e+00) (245, -5.28459389791452061047e+00) (246, -3.60588248496247132380e+00) (247, -1.84758781783936356646e+01) (248, -6.37565064464776121156e+00) (249, 6.53923641666444122045e-01) (250, -6.47905426112969085040e+00) (251, -7.80210279302248199684e+00) (252, -4.87382922348690428294e+00) (253, -6.10704817838036806421e+00) (254, 1.06293886481728279136e+01) (255, -7.89344969140218655212e+00) (256, -6.03546576974102499946e+00) (257, -3.80149227901964348320e+00) (258, -4.40881293645310190499e+00) (259, -1.38526934270867041477e+00) (260, -1.58500533189149734881e+01) (261, -1.53409036963649541008e+01) (262, -1.86750564165966395080e+01) (263, 1.50772910088189799893e+01) (264, -3.56158678846598908407e+00) (265, -8.01255203967695628364e+00) (266, -1.66205130875401607682e+01) (267, -5.38317988532479052566e+00) (268, 1.24205153649364818946e+00) (269, -7.03534167982967861832e+00) (270, -2.59031399251694027797e+00) (271, -1.55934941616706517209e+01) (272, -7.28907875001931415682e+00) (273, 1.54945264158930862131e+00) (274, -2.03235202936778369676e+00) (275, -1.03708298956125997137e+01) (276, -2.35274299325351821111e+00) (277, -5.00313045944164525025e+00) (278, 1.86212688806350157300e+00) (279, -1.02902965752295667556e+01) (280, -1.15987922851879687869e+01) (281, -2.18175779447099049690e+00) (282, -4.83178318978615806145e+00) (283, 3.39807530940691993049e-01) (284, -1.16103677427976119674e+01) (285, -1.25074326792598906621e+01) (286, -1.54842474944976551399e+01) (287, 1.17085380515005557100e+01) (288, -1.96546210298393697613e+00) (289, -4.02401783360354947661e+00) (290, -1.32065861312913419567e+01) (291, -6.86298615640147691153e+00) (292, 1.15654340412834888419e+00) (293, -4.98840221810051342999e+00) (294, -3.82578046698727014530e+00) (295, -1.71331475486468818303e+01) (296, -6.43724041847416206252e+00) (297, 2.77564259176856298339e+00) (298, -4.62930816507833409190e+00) (299, -8.32934628254702147387e+00) (300, -7.54004715282584281333e-01) (301, -1.76250826886336287025e+00) (302, -4.16745666747602339086e+00) (303, -1.00230562666489610990e+01) (304, -8.50966405415782212174e+00) (305, -1.79753208724994673062e+00) (306, -4.49379864492513370067e+00) (307, -1.63832912330354019126e+00) (308, -8.74784524470795332718e+00) (309, -8.36911154584316641092e+00) (310, -1.35274334375548708209e+01) (311, 9.52307913135114247893e+00) (312, -8.85594946327110443818e-01) (0, 1.08857258350545182957e+00) (1, -1.22153386249600726110e+00) (2, -1.77235585616426738476e+00) (3, -6.62978831743364027673e-01) (4, 8.32042910207106634068e-01) (5, -1.03400727708659911919e+00) (6, -4.95058707865924096936e-01) (7, -1.53236812937704147686e+00) (8, -2.59950218119167963948e+00) (9, 1.29054505724408713485e-01) (10, 2.18426648393982542062e-01) (11, -8.92232103782516938750e-01) (12, -2.41335789591200777782e-01) (13, 3.32902906917942165155e-01) (14, -2.70506103008114662245e+00) (15, 7.79932141469663275934e-01) (16, -1.00246538995808998074e+00) (17, -1.47368832536427163404e+00) (18, 5.37924904675007198307e-01) (19, -1.92376001533500673446e+00) (20, -1.63084457038842245424e+00) (21, -2.16569260799110052673e+00) (22, -1.13553272666663862545e+00) (23, -7.80644678769690930631e-02) (24, 1.02071565577008960268e+00) (25, -2.13954485757904055987e+00) (26, -4.19789030265161455802e-01) (27, 4.59493929591663768930e-02) (28, 1.68310273560127932058e+00) (29, -1.88913362761857106520e+00) (30, -2.30484877708916391370e+00) (31, -1.53334120643552718199e+00) (32, 8.97880912069059095026e-02) (33, 8.21290760831966393241e-01) (34, 1.78974829927874634627e+00) (35, -2.22628204142210917027e+00) (36, 1.07784653943940966769e+00) (37, -1.19667905779298186508e-01) (38, -1.61519623858194982802e+00) (39, -1.04670028403497816782e+00) (40, -3.01239900351035094772e+00) (41, -2.22307043039528695605e-01) (42, -1.78284499519606065565e-01) (43, -4.20027670543414888282e-01) (44, -2.92595273480697359858e+00) (45, -3.22569818311795453170e+00) (46, -1.23254303439836987444e+00) (47, -6.73981334992280189944e-02) (48, 8.82296331671230671390e-01) (49, 1.01350120258813025664e+00) (50, -8.18636550181584210506e-01) (51, 2.92904584530790046415e-01) (52, 5.26208420229886120190e-01) (53, -2.88109929798617436791e-01) (54, -5.63034114166404586754e-01) (55, -2.74935733473100096802e+00) (56, -9.31878223004844463695e-01) (57, -1.09090622150047322769e+00) (58, 6.01863809932478233122e-01) (59, -7.59328258717492765584e-01) (60, -6.01508051248537817246e-02) (61, 2.14440888623675540714e+00) (62, -1.42986970390357548411e+00) (63, -9.83740098342503477280e-02) (64, -2.64325651698095498432e+00) (65, 1.41601950521851249754e+00) (66, 2.49943915913939429529e+00) (67, -3.43674766584167956651e+00) (68, -2.14361625080205220328e+00) (69, -3.99388214978627864582e+00) (70, -1.23025966820559684578e+00) (71, -8.89405285763832265111e-01) (72, 1.94423398805537672729e+00) (73, 1.20122361390725809760e-01) (74, -5.85098364146646954254e-01) (75, 1.96925468585685270462e-01) (76, 8.15604481204210141065e-01) (77, -2.79851150665602677048e-01) (78, -9.39108551269313251986e-01) (79, -3.60011713698665136718e+00) (80, 1.31235259887067162721e-01) (81, -2.23792934500486806471e+00) (82, 2.07175888786012396547e-01) (83, -1.19702286145673486573e+00) (84, -8.01458616045725213972e-01) (85, 3.54948805114694676544e-01) (86, 3.19734109925237630634e+00) (87, 1.84122410105463685248e+00) (88, -2.18785127958124681058e+00) (89, 2.29698547742605077571e-02) (90, 6.21583826978001408037e-01) (91, -4.93143191230782562684e+00) (92, -2.33734853561215860651e+00) (93, -4.74089575477282743066e+00) (94, -1.36224449549427939488e+00) (95, -9.84663229268746054146e-01) (96, 2.23217493044546921865e+00) (97, -6.44251088371103453056e-01) (98, 8.42327702472823874880e-02) (99, 1.59708734908176364087e+00) (100, -1.29981985382442988275e+00) (101, -1.22908950833238916900e+00) (102, -1.57302554704263769514e-01) (103, -1.30117228729329426073e+00) (104, -2.46404978329161750139e+00) (105, -3.50139350780318281409e+00) (106, 4.46847350953383071204e-01) (107, -1.01495793368365311293e-01) (108, -3.26589068028059370530e-01) (109, -1.18014879573123088186e+00) (110, 7.34485347602015981039e+00) (111, 9.17361305759552436712e-01) (112, -3.67648325250605267911e+00) (113, 5.28899447801966071658e-01) (114, -6.04374789004944679149e-01) (115, -6.55275056522625565236e+00) (116, -1.81837640970241087857e+00) (117, -4.78714108336556254386e+00) (118, -1.43457058543320115085e+00) (119, -7.18201338984934434251e-01) (120, 2.84361523429345774971e+00) (121, -1.21078756551639532546e+00) (122, 4.59493776794008201847e+00) (123, 6.47613475552077755282e+00) (124, -3.18084243468667304811e+00) (125, -9.65382326505712269615e-03) (126, 1.07559874514963382808e+00) (127, 2.92868074029040403872e+00) (128, -6.14394007088557181362e-01) (129, -8.78462364845961118931e+00) (130, -2.78549938631209714757e+00) (131, 7.74703366859271880251e-01) (132, -3.92776835719650341261e+00) (133, -2.55284185417809483809e+00) (134, 8.13817071771027400473e+00) (135, 2.97640371852970186950e+00) (136, -3.72759920131563360357e+00) (137, -4.92297381996378513591e-01) (138, -1.05740595081081933948e+00) (139, -1.31670994733513175845e+01) (140, -2.25991905929873126979e+00) (141, -5.09841981972327573658e+00) (142, -1.48206350544600562458e+00) (143, 7.46653195660911400688e-02) (144, 1.60350966828916963181e+00) (145, -1.04167056686758741080e+00) (146, 5.21843694956100279114e+00) (147, 5.77069146792180021066e+00) (148, -3.09883863753451160861e+00) (149, 1.25126093834255547321e+00) (150, 1.17491178453127331771e+00) (151, 4.39590733573588021699e+00) (152, 1.43091237643459878726e-01) (153, -7.89023643498003135477e+00) (154, 5.19156057751441801784e-01) (155, 1.25694533984328926657e+00) (156, -1.57580504646733371432e-01) (157, -3.11201750266826770996e+00) (158, 7.90552588015662305310e+00) (159, 1.01397098749532865725e+00) (160, -2.59618117904872969248e+00) (161, -3.53691448941806463324e+00) (162, -2.98925556086037369496e+00) (163, -1.17721613166412932827e+01) (164, -3.50262908894705216056e+00) (165, -4.94931988710619208405e+00) (166, -1.41229143639834608948e+00) (167, -8.82124528288841247559e-02) (168, 3.36011689742821584304e+00) (169, 5.31555539126254306126e-01) (170, 4.73467305640642610598e+00) (171, 4.34783635558740488847e+00) (172, -1.47585195299737859109e+00) (173, 1.25250865922586962498e+00) (174, 1.52950452124806779430e+00) (175, 5.25874983966896181187e+00) (176, 4.33878862807220266884e-01) (177, -5.80432474686457755553e+00) (178, -2.08030881259357025570e+00) (179, 2.35950795921734046701e+00) (180, -1.20063354948985723247e+00) (181, -3.16183424247412148134e+00) (182, 3.66910147923727691932e+00) (183, 2.65000165227850281724e+00) (184, -1.37071505189728548579e+00) (185, -1.27046372025775244907e+00) (186, -2.94722345550155528926e+00) (187, -7.74678343048896689282e+00) (188, -6.11093810223716560337e-01) (189, -3.57181228390793759075e+00) (190, 1.65235248979190041396e+00) (191, -3.03534385947822960006e+00) (192, -3.12396767583008161395e-01) (193, -1.51081626811940683552e+00) (194, 2.32131691529180095301e+00) (195, -8.60357672129441648778e-03) (196, -1.37380707823998915451e+00) (197, 2.43400691451224671091e-01) (198, -1.05326265585656009272e+00) (199, 1.25816380905483082842e+00) (200, -2.89870687886985778370e-01) (201, -8.54527991594151603572e-01) (202, 1.84089052772328942709e+00) (203, 5.26891446153530007557e-01) (204, 8.34134072972743001451e-01) (205, -3.62736160880540892126e-01) (206, 3.79228489646541344626e+00) (207, -1.72593132203432753080e-01) (208, -7.06288537340717503810e-01) (209, -2.20442943774620869757e-01) (210, 1.56065794158448012396e-01) (211, -3.36019925625667070790e+00) (212, -1.03911176939349272907e-01) (213, -4.00089199383900684381e+00) (214, 2.03411616300671571622e+00) (215, -3.38192615334135249228e+00) (216, 6.36974183095119994569e-01) (217, -1.23548263716838802040e+00) (218, -1.27754338850137449946e+00) (219, -3.47558094728759536807e-01) (220, -8.09065875788421706716e-01) (221, -1.02543794184068642883e-01) (222, 2.63599323043272715239e-01) (223, -1.67491214125481668873e+00) (224, -1.80422155591167587829e+00) (225, -1.33908691444058502995e+00) (226, 8.98006565516260985005e-02) (227, -7.17047973625552836907e-01) (228, 4.38888229532476137340e-01) (229, -8.11147341107869235266e-01) (230, 4.02463302988026327967e+00) (231, -1.65411931290548624984e-01) (232, -5.60494776071327582834e-01) (233, 1.29970403967168923742e+00) (234, -7.46426416854655605526e-01) (235, -3.27000191411385943141e+00) (236, -3.12975154199704036495e-02) (237, -3.73315656266423756549e+00) (238, 2.83137253719963177812e-01) (239, -1.81353490205987100126e+00) (240, 9.96963024235647421456e-01) (241, -8.89081977610889140351e-01) (242, -1.49947095380795736297e+00) (243, -6.99932630713537173861e-01) (244, -5.64476023662823678251e-01) (245, 6.24513228696255806582e-01) (246, 1.63966943712972978986e+00) (247, -3.80650975366739841022e+00) (248, -2.32590745693203704292e+00) (249, 6.17696491988152129871e-01) (250, 7.37521655737972126055e-01) (251, 4.99114172986557191880e-01) (252, 1.13600240143351016719e+00) (253, -3.15903055418280120925e-01) (254, 2.78690762018595972194e+00) (255, -6.62452374163195467638e-01) (256, -1.64827120164178841932e+00) (257, -1.42427883346325501179e+00) (258, -9.88004889522653195755e-01) (259, -1.21956138752862264241e+00) (260, -1.47605660266092320043e+00) (261, -3.13346075709830484968e+00) (262, -4.43275906640367700629e-01) (263, -1.00031609145113309367e+00) (264, 6.76650756094200112045e-01) (265, -8.32242337747681526494e-01) (266, -3.13021493609654921642e+00) (267, -9.92142675729691614350e-01) (268, 1.14415701342440612187e+00) (269, -1.82720090970842852229e+00) (270, -1.10340234040515827729e+00) (271, -2.84123030482015392906e+00) (272, -1.53159342476089732621e+00) (273, 2.18815317622521998686e+00) (274, 1.89800383257383864510e+00) (275, -4.94618162941568129121e-01) (276, 8.73579869201962788683e-02) (277, 4.40804741655429377367e-01) (278, 2.64812679129867500905e-01) (279, -1.08670000806627831125e+00) (280, -2.39670611776382047609e+00) (281, -2.79348189744621611119e-01) (282, -6.40502241962679574883e-01) (283, -6.73084520748108205979e-01) (284, -2.01030684290762540201e+00) (285, -2.95553161119715879224e+00) (286, -1.21243910334989135613e+00) (287, -3.12472602345082617337e-01) (288, 2.00159762675614916194e-01) (289, 2.08540549802892760667e+00) (290, -1.46918244076107229468e+00) (291, -1.74440657976444568611e+00) (292, 1.73425006865654235400e-01) (293, -9.11927002651448437298e-01) (294, -5.72870107063701783368e-01) (295, -2.84665166830264038111e+00) (296, -2.96238095048590666103e-01) (297, 1.00931110446065441799e+00) (298, 1.62618206133864307006e+00) (299, 3.14546523071952244255e-01) (300, 1.60027862564740974705e+00) (301, 2.45434462533886188496e+00) (302, -1.94863249783626657496e+00) (303, -1.93864868325709038821e+00) (304, -1.99647134014851190820e+00) (305, 6.61907669877361271027e-01) (306, 1.59259909580496783477e+00) (307, -1.20567609366155004125e+00) (308, -2.86209348825188003573e+00) (309, -2.05241503387379875534e+00) (310, -9.47743658904662611420e-01) (311, -5.92816714640810205061e-01) (312, -3.06981703499686142678e+00) (0, 3.80127570111077650594e+00) (1, -1.88864346167488261763e+00) (2, -7.27529116092079242151e+00) (3, -5.78525265064914417934e+00) (4, 1.41917356214303014283e-01) (5, -3.67218026570657407603e+00) (6, -3.59542060340248870176e+00) (7, -1.26658346034912092648e+01) (8, -5.10811716986313246736e+00) (9, 2.66036961199785881860e+00) (10, 1.90114827438817446392e+00) (11, -4.11661818896320053085e+00) (12, 2.17662191113513969754e+00) (13, -2.18084926515014299042e+00) (14, -6.71897435765246697770e+00) (15, -4.91484438051517624757e+00) (16, -7.41529637715418488142e+00) (17, -1.42279470839149757566e+00) (18, -1.85719440626052589849e+00) (19, -2.95845260208870497465e+00) (20, -6.53385864759846590744e+00) (21, -7.41416971113560752116e+00) (22, -2.17429780424803764660e-01) (23, 5.81475852161477924085e+00) (24, 4.78406318813593856021e+00) (25, -4.04092520702862323390e+00) (26, -8.24000083655994863818e+00) (27, -7.24300627826251730568e+00) (28, 1.43547541658131150299e+00) (29, -5.14525281847886439834e+00) (30, -4.86843142336644785217e+00) (31, -1.17883081333866446272e+01) (32, -3.83338572152786838387e+00) (33, 9.69064353070259398848e-01) (34, 2.43511344060891854468e+00) (35, -5.06311218019362030418e+00) (36, 1.17463124971083598957e+00) (37, -1.42506032284818773270e+00) (38, -6.56217110823863158942e+00) (39, -7.19648981281645561126e+00) (40, -9.60200064010755482968e+00) (41, 1.84825399104715265564e-01) (42, -8.56439645163652008009e-01) (43, -5.24704514949412814673e+00) (44, -4.89340136889255905572e+00) (45, -1.05987543736604123978e+01) (46, -2.78029646194162705086e-01) (47, 7.51541699460233036945e+00) (48, 3.40831734944978270718e+00) (49, -4.52630853416607425999e+00) (50, -6.70272312896627653345e+00) (51, -6.05130790037441457230e+00) (52, 2.61581530332440859166e-01) (53, -6.06800687384518244727e+00) (54, -6.16288182215570135014e+00) (55, -1.26225395626078960021e+01) (56, -4.89752034378366740697e+00) (57, -1.05751807960703048117e+00) (58, 1.72106994776482724596e+00) (59, -5.38884852968273531104e+00) (60, 1.08805942659580145992e+00) (61, -2.53096909390488722380e+00) (62, -2.56979105053782896917e+00) (63, -5.09399513236134282579e+00) (64, -9.90028785801067456873e+00) (65, -5.70713437877626184047e-01) (66, -1.32092731567867960329e+00) (67, -9.07464283537478166863e+00) (68, -4.46773035726745160190e+00) (69, -1.22736411408118133437e+01) (70, -4.06063709383232829264e-01) (71, 9.74834123015002873558e+00) (72, 3.56880737526383740033e+00) (73, -1.38250184610983772870e+00) (74, -3.80766324563365277101e+00) (75, -3.62466714902976461232e+00) (76, -1.13627579138865453245e+00) (77, -2.64135600151891214438e+00) (78, -3.66106846455914514138e+00) (79, -9.86512408353019587537e+00) (80, -4.63329999463090569378e+00) (81, -8.24951842448563787968e+00) (82, -2.05655188141983413797e-01) (83, -2.09080294377241937553e+00) (84, -7.62670766316747461566e-01) (85, -2.66698266246517468048e+00) (86, 4.79858794628203888522e+00) (87, -3.25619315827889366233e+00) (88, -1.23466358449782109830e+01) (89, -9.20163106136892228193e-01) (90, -3.63646197791057801396e+00) (91, -1.60573347429946089449e+01) (92, -1.00945222397773246570e+01) (93, -1.51303573437492691056e+01) (94, -6.65696228230016839866e-01) (95, 1.27103432526921302781e+01) (96, 1.96521518309219200837e+00) (97, 4.31328959129564926123e-01) (98, 5.19862347036295346925e+00) (99, 3.15242882637409405078e+00) (100, -3.44694358852032678442e+00) (101, -5.66139221131353620464e-01) (102, -1.48083946239961727898e+00) (103, -3.61392374388181902845e+00) (104, -3.02213593255809742644e+00) (105, -1.54019553252829055623e+01) (106, -3.71979563101962140692e+00) (107, 2.33387597974793559175e+00) (108, -3.90370490008495618639e+00) (109, -7.76989201164967280278e+00) (110, 1.31876698116583561671e+01) (111, 4.17762964079923015959e+00) (112, -6.97914096836360897669e+00) (113, -3.93032066030170490478e+00) (114, -5.71872374300399854974e+00) (115, -2.35887776708380805246e+01) (116, -1.42220357577741438604e+01) (117, -1.64307124408088185419e+01) (118, -7.06126346519775349719e-01) (119, 1.41635144778618933259e+01) (120, -1.59934758604347160293e+00) (121, -1.00110102600881134549e+01) (122, 1.93276709527057839466e+01) (123, 1.33639368713227160157e+01) (124, -4.90505396209049582268e+00) (125, -6.93916235145444471044e+00) (126, -9.38481282396538851742e+00) (127, 1.75989960362418145223e+01) (128, -3.29334098885543724577e+00) (129, -2.21079293494942845655e+01) (130, -6.05296341099974899436e+00) (131, -1.33676315682839841337e+00) (132, -7.03106145403034155095e+00) (133, -1.19311714514749436233e+01) (134, 2.81170080464106426632e+01) (135, 3.03073064637756450779e+00) (136, -1.39454188721849643429e+01) (137, -8.32603761858417712460e+00) (138, -9.65253658082444587762e+00) (139, -3.14603390792608088589e+01) (140, -9.04666480331264999393e+00) (141, -1.71125230823185781048e+01) (142, -8.66127471974333706939e-01) (143, 1.22283764670149910359e+01) (144, -5.98943260305515146058e+00) (145, -1.01502366815168389991e+01) (146, 2.99466194749878305004e+01) (147, 2.29108562296899513910e+01) (148, -7.56379136879355673528e+00) (149, -5.58331601469527250003e+00) (150, -1.13002754609708873090e+01) (151, 3.56285818808017680226e+01) (152, -2.58689745366742362975e+00) (153, -2.77883900258464642263e+01) (154, -1.01051294256508743530e+01) (155, 1.19689664509597637476e+00) (156, -6.84637566022573373914e+00) (157, -1.52368828911330727038e+01) (158, 3.91790498028681355436e+01) (159, 8.38350363264591358359e+00) (160, -8.05053876981040517080e+00) (161, -9.70871159945786743606e+00) (162, -1.46060126773829885849e+01) (163, -3.67691495004706965233e+01) (164, -2.38183901838748234014e-02) (165, -1.43840892697831588265e+01) (166, -9.96962042056929398370e-01) (167, 8.73479917645454406738e-02) (168, -1.08630651448391279956e+01) (169, -5.92829496164404012859e+00) (170, 1.45767499015726329503e+01) (171, 1.09948523610888031499e+01) (172, -9.66965617746459571435e+00) (173, -2.49557643995521027946e+00) (174, -5.53539762316182759605e+00) (175, 2.20783074392446003742e+01) (176, -2.63816230681945507186e+00) (177, -2.72583406515445751950e+01) (178, -2.14957640481865155380e+01) (179, 3.86957971504049202949e+00) (180, -1.19730292054365250465e+01) (181, -1.48745955158935920792e+01) (182, 4.62381846955580044778e+01) (183, 5.24329167009198116034e+00) (184, -2.22131666295654683907e+00) (185, -6.70413710315495681158e+00) (186, -1.20155133885741740585e+01) (187, -3.13019279706685544795e+01) (188, -7.43779051112067612905e+00) (189, -1.71705665763036776639e+01) (190, -1.38666151724141002433e+01) (191, 1.28847469371168621421e+01) (192, -8.44691685329175889763e+00) (193, -7.19435361747984991609e+00) (194, 1.58714303244612109367e+00) (195, 3.35916462856530673164e+00) (196, -6.20855297302159581108e+00) (197, -3.46375958670554995322e+00) (198, -9.98653640127766140111e-01) (199, 3.69197348168838956894e+00) (200, -2.67558698240044634531e+00) (201, -1.39826843478935920473e+01) (202, -1.30181042285830947947e+01) (203, 3.38995095895180509338e-01) (204, -8.31538653833855967434e+00) (205, -9.38833841342714592315e+00) (206, 2.77165710796480162514e+01) (207, -1.31506857700317603133e+00) (208, -2.51641330780339833595e+00) (209, -3.45992220833935393287e+00) (210, -7.35056476618452503402e+00) (211, -1.63850916657070300175e+01) (212, -1.26974362833833822606e+01) (213, -1.60269913538320203372e+01) (214, -1.50938700661871916253e+01) (215, 1.39050517562724031961e+01) (216, -5.97387138420638219571e+00) (217, -7.94170511381174026866e+00) (218, -7.54461472119319509488e+00) (219, -1.10171782534980722268e+00) (220, -3.68726383541397639831e+00) (221, -2.31472968017665703400e+00) (222, -7.26715105546524187119e-01) (223, -4.99852896617573438931e+00) (224, -3.19505109578083379418e+00) (225, -7.60128269718220206386e+00) (226, -8.44204156714092057712e+00) (227, -4.02997767970774756208e+00) (228, -5.91635446667171471802e+00) (229, -6.00483251829091724261e+00) (230, 1.71330394489377653144e+01) (231, -3.21783356678384135918e+00) (232, -2.95207073709078837709e+00) (233, -2.62518561758423452090e+00) (234, -3.14995747741648823848e+00) (235, -8.44545757176479483519e+00) (236, -9.46051690493409758176e+00) (237, -1.25558477544981883511e+01) (238, -1.30807604363102818468e+01) (239, 1.15593046333884501564e+01) (240, -4.64305348105815429705e+00) (241, -6.98342167522717627293e+00) (242, -1.06382331476273730431e+01) (243, -4.49613212632553693737e+00) (244, -1.94004683347472317578e+00) (245, -3.45533772683859607966e+00) (246, -3.56052804187128035807e+00) (247, -1.12098104402645919464e+01) (248, -4.41834568856807941017e+00) (249, 1.65401794549385439126e+00) (250, -1.84147569294412805085e+00) (251, -4.92906425743115583771e+00) (252, -1.00604328591246505731e+00) (253, -3.19454904018546015365e+00) (254, 7.41281085995975530523e+00) (255, -5.39159305972765334758e+00) (256, -4.94548679886648212545e+00) (257, -2.53151418455346943759e+00) (258, -2.33895310101220843535e+00) (259, -3.25023246870139559395e-01) (260, -8.62321473024336526692e+00) (261, -1.08585457614930742665e+01) (262, -9.96275706125211435449e+00) (263, 8.39334626874030398369e+00) (264, -1.09792996193756708934e+00) (265, -4.33655374356034251093e+00) (266, -9.60608564591709068736e+00) (267, -3.76069992672133990297e+00) (268, 5.33619904286554813666e-01) (269, -3.29392917480967684085e+00) (270, -1.52937190140936718485e+00) (271, -1.05838103072122180492e+01) (272, -4.04876307310232252945e+00) (273, 1.00342386273508843431e+00) (274, -3.93662276521839549215e-01) (275, -5.44689965774342876870e+00) (276, -1.92093485208643027784e-01) (277, -1.89252412253513235818e+00) (278, 1.59798744601134279364e+00) (279, -5.37200743612344577826e+00) (280, -6.89579239322750048302e+00) (281, -2.80706828419068354918e-01) (282, -2.20804130637899476142e+00) (283, -1.55267399398516170450e+00) (284, -6.23953811054435902861e+00) (285, -8.75761719685438322358e+00) (286, -8.34442493242444172097e+00) (287, 6.58758557824614054965e+00) (288, 1.37857780225885995229e+00) (289, -2.16144877042540217715e+00) (290, -8.24967301097488103778e+00) (291, -3.85725521394720916035e+00) (292, 1.93863143851229491332e+00) (293, -2.64069651322615950306e+00) (294, -1.88807118628593584297e+00) (295, -1.02332831746508379211e+01) (296, -4.73770615681577922373e+00) (297, 1.81350378428101355333e+00) (298, -2.02079112596873722296e+00) (299, -4.85975928217222374883e+00) (300, -3.68327482986046950142e-01) (301, -1.55156173878454661796e+00) (302, -2.36384094919060760986e+00) (303, -5.44453855338192660440e+00) (304, -5.52514452825139201764e+00) (305, -1.63371963195158032001e+00) (306, -2.90801406937737683123e+00) (307, -1.31639926967112441680e+00) (308, -6.98231123303671985525e+00) (309, -6.91904347336863523310e+00) (310, -7.20433464526995503974e+00) (311, 5.45600706571257365596e+00) (312, -5.01042949020692574003e-01) (0, 1.65458020431082495350e+01) (1, -9.83737076410797683934e+00) (2, -1.19385183474643419288e+01) (3, 5.85148281486592392042e+00) (4, 2.18233735439691267644e+00) (5, 4.54730399644130933723e+00) (6, -3.43556322601284902518e+00) (7, -2.06930340943395663089e+01) (8, -1.53156130165836898982e+01) (9, 3.82270087585028495170e+00) (10, 1.24869641690839667802e+01) (11, -8.40774822113774433774e+00) (12, 1.85645533466165346681e+01) (13, 2.17486824452792548712e+00) (14, -9.50640619101344874764e+00) (15, 3.89424447544314711322e+00) (16, -1.62083267154678551947e+01) (17, -2.23996231995523231717e+00) (18, -7.40006331009498996565e+00) (19, -2.29815693836061925026e+01) (20, 3.99421666484529502839e+00) (21, 1.60989461259433475071e+00) (22, -1.02890507340518233548e+01) (23, -3.27379225822313273397e+01) (24, 2.00112287873473988498e+01) (25, -8.64019736513780678422e+00) (26, -1.29823983424023463584e+01) (27, -3.87572519219974820359e+00) (28, 5.47547359098954178336e+00) (29, -2.79113205548245746357e+00) (30, -1.05978223926884140838e+01) (31, -1.93263834239357699119e+01) (32, -1.65800707076953912633e+01) (33, 7.73319087948529215737e+00) (34, 1.52034075356532998313e+01) (35, -1.10542537833685976523e+01) (36, 2.51938834607823203271e+01) (37, 4.55276547422961286316e+00) (38, -1.27225290486966482462e+01) (39, 5.13151222710380761072e+00) (40, -1.24829623882215052788e+01) (41, -3.58558658985987133150e+00) (42, 1.66884298297851030313e+00) (43, -1.99919379108258574718e+01) (44, 4.46482261705770044902e-01) (45, 3.00890797250127750573e+00) (46, -1.01840780574220826082e+01) (47, -3.22105147742667909938e+01) (48, 2.77142255181209726800e+01) (49, -2.93186228267851189955e+00) (50, 3.25497836116089667158e+00) (51, 1.18832534329381953597e+01) (52, -4.43596563288110701251e+00) (53, 1.58755912407972736844e+01) (54, 4.67974583856643100432e+00) (55, -1.62996558923158580967e+01) (56, -1.19983855645898120912e+01) (57, -2.19391260037245050540e+00) (58, 1.12890386529977693186e+01) (59, -6.37601056021433687526e-01) (60, 1.41288162767787000007e+01) (61, -6.19004014756942577691e+00) (62, -1.12986068580846321652e+01) (63, 2.55468909767351304296e+00) (64, -8.87417488554295808001e+00) (65, -5.74606420958127461773e+00) (66, -4.72024903467934198176e+00) (67, -3.56010439309171360378e+01) (68, -1.20142093407141326011e+00) (69, 1.30792827111392906403e+00) (70, -1.02396671191773762644e+01) (71, -3.50820313515637991486e+01) (72, 4.17695946747035193880e+01) (73, -3.45905078005966437615e+00) (74, -1.00990508131446397044e+01) (75, 2.14695912394476664531e+01) (76, -3.46082550351877005212e+00) (77, 8.02600557790180246798e+00) (78, 4.68955652377697554400e-02) (79, -4.63369971559749487255e+01) (80, -1.61761821869434925247e+01) (81, -4.73798449874683225147e+00) (82, 1.40076219753886235253e+01) (83, -7.42503075022121539206e+00) (84, 2.07110769895802633300e+01) (85, -1.88060957462193645284e+00) (86, -9.44983311299410821960e+00) (87, 1.54304947939779086852e+01) (88, -6.77640544060849325803e+00) (89, 4.31081901304037184985e+00) (90, -9.34378456006419999547e-01) (91, -4.54273777777693581470e+01) (92, 1.05042939031468112177e+01) (93, -1.89070265972817230793e-01) (94, -1.02121097812205494648e+01) (95, -3.73847719114156760156e+01) (96, 6.06219531866227683281e+01) (97, -2.43962957800300017652e+01) (98, -2.68879334682024264680e+01) (99, 5.56984588725922424857e+00) (100, -6.95482349950007261441e+00) (101, -8.60481101258417524491e+00) (102, -1.80444384617041890806e+01) (103, -6.77858756799517863101e+01) (104, -3.08086215223873658431e+01) (105, 1.06196522653939755543e+01) (106, 5.11432947219177549414e+01) (107, -2.80165116782198850842e+01) (108, 3.51595041824929950280e+01) (109, -6.39665848179800655693e-01) (110, -2.84430814119825603470e+00) (111, 1.91613975457507237365e+01) (112, -2.47334915053293471487e+01) (113, 5.13037205233595017262e+00) (114, -4.41869463183618194080e+00) (115, -4.96780512588341380820e+01) (116, 7.50610989560746411087e+00) (117, -4.18449799841400160716e+00) (118, -1.00507969229181810533e+01) (119, -3.45256863487298630844e+01) (120, 7.06942521286914882239e+01) (121, 6.10858234919282239161e+00) (122, -8.22879438459067458211e+00) (123, 9.90986996394392427590e+00) (124, -1.89998019043685637541e+01) (125, 9.72928266864849788931e+00) (126, 5.84928663229591716544e+00) (127, -7.32355432297184023582e+01) (128, -1.16245598972707746555e+01) (129, -2.95296052032837552659e+00) (130, 4.92946458795717390444e+01) (131, -4.64497679466332336062e+00) (132, 2.38286265234749201625e+01) (133, -5.60923246689529353404e+00) (134, 1.69749946586320743513e+00) (135, 2.56525905821337438795e+01) (136, -4.70375081365228666641e+01) (137, 1.30830123152527857400e+01) (138, 9.56686028220429807156e-02) (139, -6.94661346934971533074e+01) (140, -1.23590925478032769291e+01) (141, 1.28973482182250509531e+00) (142, -9.84535338476815624631e+00) (143, -2.43858110499800382343e+01) (144, 1.05830473233532828203e+02) (145, 4.38568157224176857767e+00) (146, -1.50252739284167868838e+00) (147, 2.43505804775311354149e+01) (148, -2.92435887475107136879e+01) (149, 4.68548854977531590293e+01) (150, 6.27058139888350183355e+01) (151, -5.58829101178890397250e+01) (152, -1.89879892162473602468e+01) (153, -2.44990017476175516720e+01) (154, 3.80163162662213736098e+01) (155, 2.24303673115704675922e+01) (156, 1.37241059989137585973e+01) (157, 7.09207098799199631145e-01) (158, -1.98594793089641044048e+01) (159, -1.39868360225236254557e+00) (160, -5.32131338319034838946e+01) (161, 6.71936783226972789151e+00) (162, 1.25041975370598135164e+00) (163, -8.17473959577065016902e+01) (164, -5.15110707692521501144e+01) (165, 3.75392895416533622921e+00) (166, -9.78225559370347852450e+00) (167, -3.62296700477600097656e-02) (168, 1.04884134009330296067e+02) (169, -9.52318649223128055326e+00) (170, -7.16077299552410462269e+00) (171, -4.87937180176131057863e+00) (172, 1.90423612132039821176e+00) (173, 4.35788745540929838285e+01) (174, 3.13708348135028280979e+01) (175, -5.16058915561727857835e+01) (176, -1.32326426127916785269e+00) (177, -7.15734016146856699692e+00) (178, 5.75255486146402148506e+01) (179, -3.29665881446787323306e-01) (180, 4.03689272066680473472e+01) (181, 1.74290948721727474435e+01) (182, -1.12615608242837637931e+02) (183, -5.11466548023947886747e+00) (184, -4.98347851216295723020e+01) (185, 4.97731476451610177492e+00) (186, 3.93144023758574112648e+00) (187, -6.33280849636802471991e+01) (188, -1.90839219349495756717e+01) (189, -5.15141550642123124959e+00) (190, 1.38529746717965309699e+01) (191, -2.37772868400414267853e+01) (192, 7.35538578653263925844e+01) (193, -1.29043104241370834018e+01) (194, -1.60517433599749530515e+01) (195, -4.93555475065401978441e+01) (196, 1.59016372358152224820e+01) (197, 1.40135953080492399181e+01) (198, -2.97159001706212890781e+01) (199, -3.24231458733894655211e+01) (200, -1.00967902268549849509e+01) (201, 4.86239280834062714831e+00) (202, 6.22195939650375677843e+01) (203, -1.98569344383455215208e+00) (204, 4.24823617795115708873e+01) (205, 1.20817801507650877113e+01) (206, -1.07356879169782303052e+02) (207, -3.47505327055622004195e+01) (208, -4.40005889284010862639e+01) (209, -3.30792307047498956862e+00) (210, -2.84882251958431043093e+00) (211, -4.92782871651375842248e+01) (212, 8.49144951414315052318e+00) (213, -1.75885036382196950910e+01) (214, 1.98538505741017736739e+01) (215, -2.99037873056302920816e+01) (216, 6.85813433059302326456e+01) (217, 1.55876161075991870320e+01) (218, 8.79434712599797663302e+00) (219, -2.70875006558018540659e+01) (220, 7.44294038988559947256e+00) (221, 2.70171755793740722140e+01) (222, -1.17151390281202871790e+01) (223, -1.20893570003217600828e+01) (224, -1.63616904171815207292e+01) (225, 2.54173910737587815944e+00) (226, 4.72721110179666439421e+01) (227, 2.49895593523004571068e+01) (228, 3.57786525783068256601e+01) (229, -5.03086727850234449733e-01) (230, -6.43942590149949012357e+01) (231, -1.58535205867085764453e+01) (232, -5.12977198316984441817e+01) (233, 4.62441537279635106472e+00) (234, -8.23306309428321547728e+00) (235, -5.13215706312345076867e+01) (236, -1.19556994647666989806e+01) (237, -4.68781108105671595609e+00) (238, 1.98303703776152779881e+01) (239, -2.97706969106967598293e+01) (240, 6.39415480567176857107e+01) (241, 1.89706774697146975939e+01) (242, 3.62668470806005132090e+01) (243, -2.22298718892138280623e+00) (244, 4.24682836028711552245e+00) (245, 2.23192466835706220252e+01) (246, 1.21751911316925962581e+01) (247, -1.96459667996471409879e+01) (248, 2.13203978767209756384e+00) (249, -1.00491317716477865929e+01) (250, 3.06018230929658550110e+01) (251, 3.48736915618333753741e+01) (252, 2.08956389202661796389e+01) (253, -8.28194810849475437919e-01) (254, -2.96421672206627810908e+01) (255, -9.19173279366372675270e+00) (256, -2.87970850818092536372e+01) (257, -2.21315005993369462445e+00) (258, -5.76463958719388713803e+00) (259, -5.99329084332230479504e+01) (260, -3.20270379131275788609e+01) (261, 1.49186125588180495960e+00) (262, 1.13572680455107999364e+01) (263, -2.10235171541012704211e+01) (264, 4.72963164851603679040e+01) (265, -3.71404133025402583002e+00) (266, 1.23573584241814704576e+00) (267, -1.83521958074876394562e+01) (268, 8.85856195982521121834e+00) (269, 6.38830437299519893202e+00) (270, -1.18114543743030910861e+01) (271, -2.54185642393394921612e+01) (272, -6.60810196631259483269e+00) (273, 8.16506594444066280403e+00) (274, 3.82520625777045424343e+01) (275, 1.55085369194555227068e+01) (276, 2.54664949728311533761e+01) (277, 6.02893528410781964766e+00) (278, -2.23742651340233074109e+01) (279, -1.67030728971122215398e+01) (280, -2.94096542426953639904e+01) (281, 1.49258549720892563784e+00) (282, 3.08217948804147079400e+00) (283, -4.52845077899043175762e+01) (284, -1.89681590155762869188e+01) (285, -2.92017131661385709318e-01) (286, 7.28166609743179726877e+00) (287, -1.70538456136191989287e+01) (288, 3.03157822674617101200e+01) (289, -7.12358240056356351033e+00) (290, -3.00772963619807098823e+00) (291, -2.77103835686437633967e+01) (292, 9.26013078365281039339e+00) (293, -5.63965249625593845195e+00) (294, -1.35759242479684658633e+01) (295, -2.19373373809527905109e+01) (296, -5.38914097629466937178e+00) (297, 1.89935923919207176880e+01) (298, 3.63948280007674469516e+01) (299, 8.92849552565794191139e+00) (300, 2.52566016944733000571e+01) (301, 3.43435484421455550219e+00) (302, -2.42182534171954984004e+01) (303, -1.76782027043656100318e+01) (304, -3.13296932043832754289e+01) (305, 1.26179889929429278617e+00) (306, 1.34989885728330083481e+00) (307, -2.34979016063622658805e+01) (308, -1.30324346271403612718e+01) (309, 1.46779059772429976150e+00) (310, 1.19191377246741012641e+01) (311, -2.18824235069535149023e+01) (312, -4.18596164601624849411e+01) (0, -3.22468256739886394158e+00) (1, -7.83769384366032717537e-01) (2, -2.83122877783855253497e-01) (3, -2.07734330056853488955e+00) (4, -8.10330186911443317577e-01) (5, -2.03245269541942352731e+00) (6, -1.65865919494455082983e+00) (7, 6.57562377755664728696e-01) (8, 3.00302634087129871610e-01) (9, -1.17071682531687049078e+00) (10, -2.56550270097960098070e+00) (11, -5.62294844201731036648e-01) (12, -3.46941394741695408044e+00) (13, -2.56364133670743787885e-01) (14, 3.06923472265010710558e-01) (15, -1.96128281903789525309e+00) (16, 5.33650283466730823712e-01) (17, -2.98411315853811975884e-01) (18, -2.13026288632610000251e-01) (19, 9.30775809603951120863e-01) (20, -2.93037046605670870036e+00) (21, -6.67553690856900150408e+00) (22, -7.77735669118478356587e-01) (23, 2.62707419215367377063e+00) (24, -4.52958642462764515813e+00) (25, -5.48633090371641762850e-01) (26, -4.65908070321000733482e-01) (27, -2.67990727209735135617e+00) (28, -2.33587744882497089227e-01) (29, -2.32355623275747547041e+00) (30, -2.47539046724638556185e+00) (31, 7.97835146180132737115e-01) (32, 4.84944922794621313678e-01) (33, -1.02366250646073186914e+00) (34, -2.18476548847582163759e+00) (35, -4.68651952532673221619e-01) (36, -3.36670204201130740529e+00) (37, -5.61186224472845052169e-01) (38, 1.81538927562888086076e-01) (39, -2.25756623868941019850e+00) (40, -2.74014714614240872947e-01) (41, -1.09625556055547732082e-01) (42, -4.05054419844443125420e-01) (43, 1.18730359375134342237e+00) (44, -1.96705901616125955478e+00) (45, -6.82493417480584430024e+00) (46, -8.69132199236835933931e-01) (47, 2.75454167330128729674e+00) (48, -4.53871881693406109548e+00) (49, -9.97177504685404891838e-01) (50, -1.11369698961486851552e+00) (51, -3.30141546762758375522e+00) (52, 6.05955152081088854743e-01) (53, -2.97669337205117301437e+00) (54, -2.38329577616469112655e+00) (55, 2.12356836514932822979e+00) (56, 2.10694552796274831019e-01) (57, -1.17849993266716279727e+00) (58, -2.50208323296806689484e+00) (59, -8.73118774261945063131e-01) (60, -2.79741815010818317688e+00) (61, -6.82582311726225077209e-01) (62, 9.48202491968677896317e-01) (63, -1.03644141586599292104e+00) (64, 2.75625560349114895331e-01) (65, -3.34532135216977555281e-01) (66, -3.80198518738163571129e-01) (67, 2.06211309183725344241e+00) (68, -3.23521790360182937007e+00) (69, -6.41899081159041173805e+00) (70, -9.71904955525096814206e-01) (71, 3.13571179273376765551e+00) (72, -6.19980967033878016537e+00) (73, -3.65204835579554187852e-01) (74, -4.57702872642280877979e-01) (75, -2.78948089861833015135e+00) (76, -2.38988166362714554714e-01) (77, -2.75322323782744593501e+00) (78, -1.60591207878341601933e+00) (79, 4.42169995397804083126e+00) (80, 1.85867572555308863125e-01) (81, -1.40415678157067946863e+00) (82, -4.26748229249448396416e+00) (83, 2.02981994964577083795e-01) (84, -4.20433267919671305179e+00) (85, -2.96061687712608323508e-01) (86, 1.03060487207092177364e+00) (87, -2.08240937115751467701e+00) (88, 5.01989344813946081203e-01) (89, -3.31409219317163661334e-01) (90, -5.69887989128396110772e-01) (91, 2.22877247963472635561e+00) (92, -4.40476357951421260140e+00) (93, -6.19730609938768672862e+00) (94, -9.29801706376481851279e-01) (95, 3.62628376957652909240e+00) (96, -8.75323191446837078900e+00) (97, -1.52271549317177523619e+00) (98, 1.10747259212214599344e+00) (99, -2.47313767532491013412e+00) (100, 4.12598525450058428721e-01) (101, -2.96915298261696092297e+00) (102, -2.57967297686831553705e+00) (103, 7.20463981248748286390e+00) (104, 8.13218046377586545326e-01) (105, -1.56495819084359100160e+00) (106, -5.44140114863812307533e+00) (107, -8.37848529422672849698e-01) (108, -4.45101602693620090889e+00) (109, -7.07452202294149290474e-02) (110, 4.76054254942097562764e-02) (111, -2.64665367802435236300e+00) (112, 1.25184627521128066796e+00) (113, -1.44447031564321615171e+00) (114, -4.45220014747027881263e-01) (115, 2.68255847626206156420e+00) (116, -2.15877338380504157911e+00) (117, -6.04997274821038732995e+00) (118, -1.07577195153127092020e+00) (119, 3.34816669587272341957e+00) (120, -1.11409634346472063982e+01) (121, -3.52219009008939565319e+00) (122, -4.57880566373728759011e-01) (123, -4.96841783082183230391e+00) (124, 2.23554363191695903978e+00) (125, -5.28978913831547448154e+00) (126, -6.55389418166071990868e+00) (127, 7.57353122450146809541e+00) (128, -2.42638515692117834321e-01) (129, -7.06274185132737680748e-02) (130, -5.66070716693368769512e+00) (131, -3.06850997097000899316e+00) (132, -3.63998255990294383722e+00) (133, 8.66061534809434707682e-01) (134, 8.15531026399542668948e-01) (135, -4.01143195551169551294e+00) (136, 2.42768732873223136437e+00) (137, -6.94922486960235508135e-01) (138, 1.06722557793194214315e-01) (139, 5.42007484769955016901e+00) (140, 9.77739837291268787389e-01) (141, -6.90551525910815922060e+00) (142, -1.17789501610349356397e+00) (143, 2.46255120427452167675e+00) (144, -1.39292247726116329432e+01) (145, -1.80387468401408668228e+00) (146, 1.95823157977777784211e+00) (147, -1.37589391242812064675e+00) (148, 1.09145951977150423851e+00) (149, -5.47647701875379233627e+00) (150, -7.44745936039737088663e+00) (151, 7.06209799853603570341e+00) (152, 6.97262735210194412039e-02) (153, -1.54510791348002851642e+00) (154, -8.11580769344174868252e+00) (155, -2.63802024101282794888e+00) (156, -5.52838686209786622783e+00) (157, -2.33295239963581702014e+00) (158, 6.11976625240271232542e+00) (159, 4.93440818027753413944e-01) (160, 4.85118022072789045751e+00) (161, -1.55969001295052245304e+00) (162, -1.29535760318735460039e+00) (163, 3.88929597108020708163e+00) (164, 2.39278884871407537815e+00) (165, -6.12888182221614652434e+00) (166, -1.18409566937964649824e+00) (167, -1.14647075533866882324e-02) (168, -1.30047831251765373395e+01) (169, -2.61519943637759633148e+00) (170, -6.13691959927512686868e-01) (171, -8.07790033898632908738e-01) (172, -1.06681010108829732452e+00) (173, -6.93091932520999076672e+00) (174, -5.97537583539225103380e+00) (175, 3.80510844472208864531e+00) (176, -1.06945363737308185570e+00) (177, -1.30301623688882406427e+00) (178, -8.89906088697917141417e+00) (179, -2.51696360744656910668e+00) (180, -6.68099384184174915902e+00) (181, -3.01400138834592823400e+00) (182, 1.44991643915170485002e+01) (183, -4.44102798564671275017e-01) (184, 4.71818731431520621555e+00) (185, -9.85807926385835253669e-01) (186, -1.32378963967961849058e+00) (187, 3.92510173714579702064e+00) (188, 7.38542074207016119303e-01) (189, -6.14300981500199405616e+00) (190, -3.92305892930951216613e+00) (191, 2.68010781954578725106e+00) (192, -8.96606469137548423021e+00) (193, -4.13282228762825365465e+00) (194, -1.96126347813516188623e+00) (195, 1.00941405843190290526e+00) (196, -1.25548279418312302980e+00) (197, -7.13886483645151237454e+00) (198, -2.74088066069446556483e+00) (199, 3.32577023065274923752e+00) (200, -1.14472014646525743764e+00) (201, -1.75237449039776782556e+00) (202, -8.59071128022388919021e+00) (203, -4.29460219754932470693e+00) (204, -7.22939030385484215913e+00) (205, -1.99444568444006109509e+00) (206, 1.20965012787649275339e+01) (207, 1.65505798662573111457e+00) (208, 3.64866503342335901650e+00) (209, -4.66380978641951049468e-01) (210, -1.06299901782532635330e+00) (211, 3.35635672333146750645e+00) (212, 3.53148311882513998849e-01) (213, -5.42166304063909976207e+00) (214, -4.20673546091095573729e+00) (215, 3.12227926316501092074e+00) (216, -8.53773623006140525149e+00) (217, -4.73640808187906525717e+00) (218, -2.28588490305043334772e+00) (219, 1.82264992151056315350e+00) (220, -1.60038135654602253766e+00) (221, -5.68175881695031126384e+00) (222, -1.35733333828292845880e+00) (223, 2.34650002158884429804e+00) (224, -1.36314034791083504849e+00) (225, -1.60053290267825376603e+00) (226, -7.02782207860406771260e+00) (227, -5.30539110800112378996e+00) (228, -6.12366065789966551591e+00) (229, -1.43276815229403653440e+00) (230, 7.06274916810129571587e+00) (231, 9.62105192844756262893e-01) (232, 3.06659091182264909037e+00) (233, -1.15447810918583004813e+00) (234, -1.20143693821740771277e+00) (235, 3.86085477147124622732e+00) (236, 3.41090789109282532809e-01) (237, -5.57728081598677238873e+00) (238, -3.94456453615421587244e+00) (239, 2.49187304868873837904e+00) (240, -7.60766892277126327571e+00) (241, -2.97970347655052192337e+00) (242, -2.78489492664149906886e+00) (243, 4.15765156726506768248e-01) (244, -1.68449826242194089509e+00) (245, -3.48075369836325165807e+00) (246, -1.74819229970961931286e+00) (247, 1.35014540172029740006e+00) (248, -1.12969195217857487634e+00) (249, -8.27777118690973368054e-01) (250, -5.99424800620332565160e+00) (251, -4.32958107953100856946e+00) (252, -4.67744518076655335648e+00) (253, -9.92566745317434717677e-01) (254, 2.66426967740813935848e+00) (255, 7.19863762428358366918e-01) (256, 3.38244652016294056196e+00) (257, -2.13942374053794126532e-01) (258, -3.96034660311530561927e-01) (259, 4.32819235701063576016e+00) (260, -1.34336261410938750949e+00) (261, -6.04172051456711844963e+00) (262, -3.38929533840613883555e+00) (263, 2.05242913320370279351e+00) (264, -6.26534928094071119631e+00) (265, -2.50622796474536224665e+00) (266, -1.96656341914985932640e+00) (267, 1.13654346813388662518e+00) (268, -1.65468125683564304396e+00) (269, -2.84270137598988092975e+00) (270, -1.05010001250349849222e+00) (271, 8.45287674137345512726e-01) (272, -5.90218665843804113358e-01) (273, -1.61903509521351018918e+00) (274, -5.22065681294690531189e+00) (275, -3.68725124061051756641e+00) (276, -4.21017103515029500471e+00) (277, -1.14996386192769661783e+00) (278, 1.82398320687764603498e+00) (279, 3.51816907873611306456e-01) (280, 2.25233566636040594133e+00) (281, 1.32716790505308074311e-01) (282, -2.07020189014951006001e-01) (283, 2.73808292899822180999e+00) (284, -4.22558839418046075509e-02) (285, -5.82640199549590498407e+00) (286, -2.81315285524652969329e+00) (287, 1.52179547080316823759e+00) (288, -4.87637328635244760022e+00) (289, -1.53906876418735327761e+00) (290, -2.04019793723571440935e+00) (291, 6.92889529148584815132e-01) (292, -1.21836587650467875754e+00) (293, -2.39039858958818118850e+00) (294, -1.35421659689975393270e+00) (295, 1.18141396210447302551e+00) (296, -1.03503131506781542726e+00) (297, -1.03223579019935551848e+00) (298, -4.26089791978937615369e+00) (299, -3.09827020450557411024e+00) (300, -3.49328183920694668174e+00) (301, -9.78997069951377030250e-01) (302, 2.24160145995828807841e+00) (303, 4.55827899941914194137e-01) (304, 2.80491424213289830547e+00) (305, -3.35574745595223988825e-01) (306, -4.48558006917681717507e-01) (307, 2.15464030829661501443e+00) (308, -1.96262194100552167519e+00) (309, -5.48258772165184282699e+00) (310, -2.93066750141844867272e+00) (311, 1.63507786772195196079e+00) (312, -3.17822366135603218140e-01) (0, -1.16781257762635135578e+01) (1, -1.19562282176380874077e+00) (2, -1.64039302516859475389e+00) (3, -7.39600605014834044937e+00) (4, -2.58775262516176107752e+00) (5, -6.27389537942517083735e+00) (6, -5.18668743265079257299e+00) (7, 2.06268768512810352078e+00) (8, 1.58578950258543360796e+00) (9, -2.66792453409959939847e+00) (10, -8.85750885790715436485e+00) (11, -1.06443685037300950214e+00) (12, -1.14646596648257386164e+01) (13, -2.37544710422300608954e+00) (14, 6.55079747882764018563e-01) (15, -6.20857525340417293336e+00) (16, 1.90424475062461495689e+00) (17, -5.94382750836637385738e-01) (18, -8.94309321414268887374e-01) (19, 3.29830411907602050192e+00) (20, -8.76303340752757975451e+00) (21, -1.46280389458353798915e+01) (22, -2.03708031197964656300e+00) (23, 8.82609283998383453707e+00) (24, -1.40801710583005945665e+01) (25, -1.44214152981083088001e+00) (26, -1.94056118163371893459e+00) (27, -9.06119366617843091660e+00) (28, 4.45958246698944904551e-01) (29, -8.26129169021991849320e+00) (30, -7.58577303927596879873e+00) (31, 6.05789629870698953518e-01) (32, 1.64124182061343826255e+00) (33, -2.98548401837745736032e+00) (34, -7.57853048994244993253e+00) (35, -1.03514951156653323139e+00) (36, -1.10286413219654750861e+01) (37, -1.61960942952324837840e+00) (38, -3.53075481025801191093e-02) (39, -7.49383703185560534621e+00) (40, 2.56823203413124145911e-01) (41, 4.19505623111374847944e-01) (42, -1.02385938802977172202e+00) (43, 5.26896912105500980772e+00) (44, -6.57987581253831166350e+00) (45, -1.45079589422045387437e+01) (46, -2.13620549421118877120e+00) (47, 9.51564668058547091789e+00) (48, -1.54729607163868454478e+01) (49, -2.79757227311162015582e+00) (50, -3.44259228170969544536e+00) (51, -9.24402176008007181451e+00) (52, 9.18074886249133803595e-01) (53, -9.73153237683570182526e+00) (54, -7.96525324959650493639e+00) (55, 5.69845994337466521529e+00) (56, 1.55695882790006367991e+00) (57, -2.61568522533629899129e+00) (58, -7.86378546623518559500e+00) (59, -1.51120875551891487021e+00) (60, -8.31773609856554152486e+00) (61, -1.70726127223745227646e+00) (62, 2.73799805117504924112e+00) (63, -5.15586569370685499081e+00) (64, 5.36592730677527440797e-01) (65, -1.15742647852502700268e+00) (66, -1.19388289894098287292e+00) (67, 7.92109149786692334771e+00) (68, -1.23230113755954917565e+01) (69, -1.41320992326253289662e+01) (70, -2.24058746215925719270e+00) (71, 1.09227826317938898626e+01) (72, -1.94821096375253937083e+01) (73, -1.32416353356371985228e+00) (74, -1.83582727615979157676e+00) (75, -9.79610998218345763178e+00) (76, 1.36983928377330310688e+00) (77, -8.94255822336200445477e+00) (78, -5.36993870511772808385e+00) (79, 1.34276893819417928455e+01) (80, 2.22018163629497911060e+00) (81, -2.98664775777124402723e+00) (82, -1.32363986281466115003e+01) (83, 6.24234651521415551123e-01) (84, -1.31831317944919277352e+01) (85, -4.91428810744722832649e-01) (86, 2.48817450157076525130e+00) (87, -7.98761331987103329055e+00) (88, 1.47143153380129776409e+00) (89, -7.50914753810954849200e-01) (90, -1.67392978495650401882e+00) (91, 1.00233099930486790896e+01) (92, -1.51931148786421204022e+01) (93, -1.30265379665861296132e+01) (94, -2.45137143289962677883e+00) (95, 1.18468861506966423036e+01) (96, -2.88188398250180632942e+01) (97, -5.09024660448558741166e+00) (98, 5.20991515421129935959e+00) (99, -7.63950600275512226034e+00) (100, 1.62944862408737956017e+00) (101, -9.90100009578586970349e+00) (102, -8.71154032157285307392e+00) (103, 2.42809006227861274851e+01) (104, 3.23789131855249667780e+00) (105, -5.22135059881252949765e+00) (106, -1.86313609131384048112e+01) (107, -2.50361072749497992618e+00) (108, -1.55378748358436507004e+01) (109, -8.53575930746107824909e-01) (110, -4.68060582951547662911e-02) (111, -8.67509504510996976023e+00) (112, 5.37091388354431487073e+00) (113, -5.62304175648487980510e+00) (114, -2.53707002633231981648e+00) (115, 9.69684432229708193063e+00) (116, -7.11232685217694271529e+00) (117, -1.28867587396874725414e+01) (118, -2.59627915314643953337e+00) (119, 1.08655655870202387803e+01) (120, -3.73788586860779830090e+01) (121, -1.06912385955290059059e+01) (122, -2.20316567934832230335e+00) (123, -1.72152782193728732807e+01) (124, 6.80911821077080325892e+00) (125, -1.64149316650723413602e+01) (126, -2.12645794736129083446e+01) (127, 2.51122114513563197136e+01) (128, -3.04069367361684723960e-02) (129, 1.96827050440875406245e+00) (130, -1.67949529470122449482e+01) (131, -1.03307175139390139407e+01) (132, -1.05397280170102050079e+01) (133, 3.00925688753310316415e+00) (134, 1.41363304841805192957e+00) (135, -1.51551477169435493408e+01) (136, 7.85451491535223489393e+00) (137, -3.29368566864751111112e+00) (138, 5.71792070077141167950e-01) (139, 2.01839103822039014347e+01) (140, 1.84659324724431495035e+00) (141, -1.55230644674093198887e+01) (142, -2.71344749591760026064e+00) (143, 7.83408129327474966885e+00) (144, -4.53219684152120692033e+01) (145, -3.40985715649536613725e+00) (146, 7.04327768515095709034e+00) (147, -3.69056416242000429051e+00) (148, 3.75516256618101573750e+00) (149, -1.73929494781592666186e+01) (150, -2.29242795267044314755e+01) (151, 2.34898842116644672728e+01) (152, 1.24873058519290669466e+00) (153, -4.33617833257339491126e+00) (154, -2.73005275018069930582e+01) (155, -6.12045477507948376683e+00) (156, -1.80636608160939999834e+01) (157, -9.26677621289554309669e+00) (158, 1.78801701236512187165e+01) (159, 2.19004359627467737326e+00) (160, 1.80327595424673781110e+01) (161, -5.88083154673270591672e+00) (162, -5.84386046972275785549e+00) (163, 1.33788443045890996785e+01) (164, 7.30347055576950143774e+00) (165, -1.28757429888588443845e+01) (166, -2.83381955000250185250e+00) (167, 4.27611172199249267578e-03) (168, -4.20522209966285700489e+01) (169, -7.65985701744708169514e+00) (170, -2.98006197525578997443e+00) (171, -1.92902576763736166576e+00) (172, -4.24616663245026604301e+00) (173, -2.26083537146261335238e+01) (174, -1.85941042923925934360e+01) (175, 1.15167209759459456819e+01) (176, -2.78365105666051970701e+00) (177, -4.44193409252342785720e+00) (178, -2.86785383368099431323e+01) (179, -7.98665984493932956667e+00) (180, -2.27436213857735296529e+01) (181, -1.04052590852138528987e+01) (182, 4.84425895535125405900e+01) (183, -6.97807110538426589308e-01) (184, 1.68459845765201379209e+01) (185, -3.62786085910384992204e+00) (186, -5.11304550170826654920e+00) (187, 1.27367765834657387103e+01) (188, 3.70125585421933855912e+00) (189, -1.32120793621803649387e+01) (190, -1.14004356125467722904e+01) (191, 8.38244312220000153957e+00) (192, -3.02464317067276056150e+01) (193, -1.32736773844681650303e+01) (194, -5.23128753324125739255e+00) (195, 4.19914802340898152266e+00) (196, -4.72431012069486211402e+00) (197, -2.27655223952771841311e+01) (198, -8.23616241874056242978e+00) (199, 1.00101942609081078217e+01) (200, -2.91153242054210137368e+00) (201, -4.67286197945849668400e+00) (202, -2.78317298873926759484e+01) (203, -1.33999034022500111973e+01) (204, -2.28985298227166360618e+01) (205, -7.68544573593572089010e+00) (206, 3.90399500816576576767e+01) (207, 5.30794488662278762803e+00) (208, 1.23171511949878755843e+01) (209, -2.12483691731750168330e+00) (210, -4.27292274135912020228e+00) (211, 1.14211656578010316565e+01) (212, 8.23662554611519492909e-01) (213, -1.11262541218400627940e+01) (214, -1.32733415944188504199e+01) (215, 1.00519288762139922255e+01) (216, -2.84546710419058719310e+01) (217, -1.52383043121042174306e+01) (218, -7.64275281687438567957e+00) (219, 7.28910258789096943133e+00) (220, -5.76794903669121872269e+00) (221, -1.74847840098364422090e+01) (222, -3.11801075954974837856e+00) (223, 7.32120045137447483796e+00) (224, -4.79904704648819979695e+00) (225, -6.64377476361580310282e+00) (226, -2.49661342887504176247e+01) (227, -1.69312261759367679304e+01) (228, -2.13203762752699290672e+01) (229, -6.48115496867187257379e+00) (230, 2.35297731242979466515e+01) (231, 2.76371141169354395117e+00) (232, 1.07800653425931525220e+01) (233, -3.68710521218568709756e+00) (234, -4.65604082752691361691e+00) (235, 1.15753187868457825260e+01) (236, 1.99328798448979527258e+00) (237, -1.22767162614846565560e+01) (238, -1.26901629848121544342e+01) (239, 9.36486118116820698276e+00) (240, -2.53146699997628346068e+01) (241, -9.50726167668249821929e+00) (242, -9.78972686498247668396e+00) (243, 3.19474075155293490980e+00) (244, -6.98303671459274521993e+00) (245, -1.08902076233225386659e+01) (246, -3.88631446608998221137e+00) (247, 3.82287332525615353163e+00) (248, -3.20162347795462398636e+00) (249, -4.24413235814208711361e+00) (250, -2.09660838170168055683e+01) (251, -1.36265958340562338691e+01) (252, -1.65156134392811466682e+01) (253, -6.23402347697525094361e+00) (254, 8.31547396373295732985e+00) (255, 2.33722837022415941277e+00) (256, 1.10531931311564388665e+01) (257, -1.40262443244316381552e+00) (258, -2.94689133110245427005e+00) (259, 1.26175558507574940847e+01) (260, -2.73451519812561061329e+00) (261, -1.35791447393550406275e+01) (262, -1.13004419402579721066e+01) (263, 7.69284097367431929371e+00) (264, -2.10703183546089825029e+01) (265, -7.80401003443879126564e+00) (266, -7.20035683061464570898e+00) (267, 4.04421767014903910109e+00) (268, -5.94453545938849448049e+00) (269, -8.92507998610343911139e+00) (270, -2.77769324861291266870e+00) (271, 2.57990484590354407501e+00) (272, -2.07619756704827151950e+00) (273, -5.16762206650419830822e+00) (274, -1.80714369419364118130e+01) (275, -1.25440066747085943177e+01) (276, -1.50372392838514947755e+01) (277, -4.40040931119379408187e+00) (278, 5.39577669863879094692e+00) (279, 6.10807917973401615086e-01) (280, 6.84012701595045413683e+00) (281, 2.85770083065952473778e-01) (282, -1.45282411911610287447e+00) (283, 8.61192794384450799328e+00) (284, -4.96765398026698893480e-03) (285, -1.36214603179584390347e+01) (286, -9.63943788599461548472e+00) (287, 5.99387095529980840070e+00) (288, -1.70802424271286596991e+01) (289, -5.28790954235344567991e+00) (290, -6.90867879287266895005e+00) (291, 1.94469759099720507223e+00) (292, -5.31096561534165978458e+00) (293, -8.12832202869815212409e+00) (294, -4.13636556207604488833e+00) (295, 2.27414520749012627476e+00) (296, -3.71951052125025372064e+00) (297, -4.85776912462802368253e+00) (298, -1.52368378200461140892e+01) (299, -1.06516663357165022319e+01) (300, -1.20595676617078293447e+01) (301, -3.82595261864295821397e+00) (302, 6.48476053155593223920e+00) (303, 2.20347254036941352096e-02) (304, 8.18502971658181621706e+00) (305, -5.40419599269530315233e-01) (306, -2.73700279459718265329e+00) (307, 6.09838118349194768797e+00) (308, -2.83109468428839239351e+00) (309, -1.28783523234632557575e+01) (310, -1.03055197507505091892e+01) (311, 6.53587537136368901258e+00) (312, -6.73803414230220387715e-01) (0, 1.12741276245372255005e+01) (1, -5.34166001997394612744e+00) (2, -1.78201642988177759719e+01) (3, -1.18892334024108414781e+01) (4, 