FANN_FLO_2.1
num_layers=3
learning_rate=0.700000
connection_rate=1.000000
network_type=0
learning_momentum=0.000000
training_algorithm=0
train_error_function=1
train_stop_function=0
cascade_output_change_fraction=0.010000
quickprop_decay=-0.000100
quickprop_mu=1.750000
rprop_increase_factor=1.200000
rprop_decrease_factor=0.500000
rprop_delta_min=0.000000
rprop_delta_max=50.000000
rprop_delta_zero=0.100000
cascade_output_stagnation_epochs=12
cascade_candidate_change_fraction=0.010000
cascade_candidate_stagnation_epochs=12
cascade_max_out_epochs=150
cascade_max_cand_epochs=150
cascade_num_candidate_groups=2
bit_fail_limit=3.49999999999999977796e-01
cascade_candidate_limit=1.00000000000000000000e+03
cascade_weight_multiplier=4.00000000000000022204e-01
cascade_activation_functions_count=10
cascade_activation_functions=3 5 7 8 10 11 14 15 16 17 
cascade_activation_steepnesses_count=4
cascade_activation_steepnesses=2.50000000000000000000e-01 5.00000000000000000000e-01 7.50000000000000000000e-01 1.00000000000000000000e+00 
layer_sizes=553 81 4 
scale_included=0
neurons (num_inputs, activation_function, activation_steepness)=(0, 0, 0.00000000000000000000e+00) (0, 0, 0.00000000000000000000e+00) (0, 0, 0.00000000000000000000e+00) (0, 0, 0.00000000000000000000e+00) (0, 0, 0.00000000000000000000e+00) (0, 0, 0.00000000000000000000e+00) (0, 0, 0.00000000000000000000e+00) (0, 0, 0.00000000000000000000e+00) (0, 0, 0.00000000000000000000e+00) (0, 0, 0.00000000000000000000e+00) (0, 0, 0.00000000000000000000e+00) (0, 0, 0.00000000000000000000e+00) (0, 0, 0.00000000000000000000e+00) (0, 0, 0.00000000000000000000e+00) (0, 0, 0.00000000000000000000e+00) (0, 0, 0.00000000000000000000e+00) (0, 0, 0.00000000000000000000e+00) (0, 0, 0.00000000000000000000e+00) (0, 0, 0.00000000000000000000e+00) (0, 0, 0.00000000000000000000e+00) (0, 0, 0.00000000000000000000e+00) (0, 0, 0.00000000000000000000e+00) (0, 0, 0.00000000000000000000e+00) (0, 0, 0.00000000000000000000e+00) (0, 0, 0.00000000000000000000e+00) (0, 0, 0.00000000000000000000e+00) (0, 0, 0.00000000000000000000e+00) (0, 0, 0.00000000000000000000e+00) (0, 0, 0.00000000000000000000e+00) (0, 0, 0.00000000000000000000e+00) (0, 0, 0.00000000000000000000e+00) (0, 0, 0.00000000000000000000e+00) (0, 0, 0.00000000000000000000e+00) (0, 0, 0.00000000000000000000e+00) (0, 0, 0.00000000000000000000e+00) (0, 0, 0.00000000000000000000e+00) (0, 0, 0.00000000000000000000e+00) (0, 0, 0.00000000000000000000e+00) (0, 0, 0.00000000000000000000e+00) (0, 0, 0.00000000000000000000e+00) (0, 0, 0.00000000000000000000e+00) (0, 0, 0.00000000000000000000e+00) (0, 0, 0.00000000000000000000e+00) (0, 0, 0.00000000000000000000e+00) (0, 0, 0.00000000000000000000e+00) (0, 0, 0.00000000000000000000e+00) (0, 0, 0.00000000000000000000e+00) (0, 0, 0.00000000000000000000e+00) (0, 0, 0.00000000000000000000e+00) (0, 0, 0.00000000000000000000e+00) (0, 0, 0.00000000000000000000e+00) (0, 0, 0.00000000000000000000e+00) (0, 0, 0.00000000000000000000e+00) (0, 0, 0.00000000000000000000e+00) (0, 0, 0.00000000000000000000e+00) (0, 0, 0.00000000000000000000e+00) (0, 0, 0.00000000000000000000e+00) (0, 0, 0.00000000000000000000e+00) (0, 0, 0.00000000000000000000e+00) (0, 0, 0.00000000000000000000e+00) (0, 0, 0.00000000000000000000e+00) (0, 0, 0.00000000000000000000e+00) (0, 0, 0.00000000000000000000e+00) (0, 0, 0.00000000000000000000e+00) (0, 0, 0.00000000000000000000e+00) (0, 0, 0.00000000000000000000e+00) (0, 0, 0.00000000000000000000e+00) (0, 0, 0.00000000000000000000e+00) (0, 0, 0.00000000000000000000e+00) (0, 0, 0.00000000000000000000e+00) (0, 0, 0.00000000000000000000e+00) (0, 0, 0.00000000000000000000e+00) (0, 0, 0.00000000000000000000e+00) (0, 0, 0.00000000000000000000e+00) (0, 0, 0.00000000000000000000e+00) (0, 0, 0.00000000000000000000e+00) (0, 0, 0.00000000000000000000e+00) (0, 0, 0.00000000000000000000e+00) (0, 0, 0.00000000000000000000e+00) (0, 0, 0.00000000000000000000e+00) (0, 0, 0.00000000000000000000e+00) (0, 0, 0.00000000000000000000e+00) (0, 0, 0.00000000000000000000e+00) (0, 0, 0.00000000000000000000e+00) (0, 0, 0.00000000000000000000e+00) (0, 0, 0.00000000000000000000e+00) (0, 0, 0.00000000000000000000e+00) (0, 0, 0.00000000000000000000e+00) (0, 0, 0.00000000000000000000e+00) (0, 0, 0.00000000000000000000e+00) (0, 0, 0.00000000000000000000e+00) (0, 0, 0.00000000000000000000e+00) (0, 0, 0.00000000000000000000e+00) (0, 0, 0.00000000000000000000e+00) (0, 0, 0.00000000000000000000e+00) (0, 0, 0.00000000000000000000e+00) (0, 0, 0.00000000000000000000e+00) (0, 0, 0.00000000000000000000e+00) (0, 0, 0.00000000000000000000e+00) (0, 0, 0.00000000000000000000e+00) (0, 0, 0.00000000000000000000e+00) (0, 0, 0.00000000000000000000e+00) (0, 0, 0.00000000000000000000e+00) (0, 0, 0.00000000000000000000e+00) (0, 0, 0.00000000000000000000e+00) (0, 0, 0.00000000000000000000e+00) (0, 0, 0.00000000000000000000e+00) (0, 0, 0.00000000000000000000e+00) (0, 0, 0.00000000000000000000e+00) (0, 0, 0.00000000000000000000e+00) (0, 0, 0.00000000000000000000e+00) (0, 0, 0.00000000000000000000e+00) (0, 0, 0.00000000000000000000e+00) (0, 0, 0.00000000000000000000e+00) (0, 0, 0.00000000000000000000e+00) (0, 0, 0.00000000000000000000e+00) (0, 0, 0.00000000000000000000e+00) (0, 0, 0.00000000000000000000e+00) (0, 0, 0.00000000000000000000e+00) (0, 0, 0.00000000000000000000e+00) (0, 0, 0.00000000000000000000e+00) (0, 0, 0.00000000000000000000e+00) (0, 0, 0.00000000000000000000e+00) (0, 0, 0.00000000000000000000e+00) (0, 0, 0.00000000000000000000e+00) (0, 0, 0.00000000000000000000e+00) (0, 0, 0.00000000000000000000e+00) (0, 0, 0.00000000000000000000e+00) (0, 0, 0.00000000000000000000e+00) (0, 0, 0.00000000000000000000e+00) (0, 0, 0.00000000000000000000e+00) (0, 0, 0.00000000000000000000e+00) (0, 0, 0.00000000000000000000e+00) (0, 0, 0.00000000000000000000e+00) (0, 0, 0.00000000000000000000e+00) (0, 0, 0.00000000000000000000e+00) (0, 0, 0.00000000000000000000e+00) (0, 0, 0.00000000000000000000e+00) (0, 0, 0.00000000000000000000e+00) (0, 0, 0.00000000000000000000e+00) (0, 0, 0.00000000000000000000e+00) (0, 0, 0.00000000000000000000e+00) (0, 0, 0.00000000000000000000e+00) (0, 0, 0.00000000000000000000e+00) (0, 0, 0.00000000000000000000e+00) (0, 0, 0.00000000000000000000e+00) (0, 0, 0.00000000000000000000e+00) (0, 0, 0.00000000000000000000e+00) (0, 0, 0.00000000000000000000e+00) (0, 0, 0.00000000000000000000e+00) (0, 0, 0.00000000000000000000e+00) (0, 0, 0.00000000000000000000e+00) (0, 0, 0.00000000000000000000e+00) (0, 0, 0.00000000000000000000e+00) (0, 0, 0.00000000000000000000e+00) (0, 0, 0.00000000000000000000e+00) (0, 0, 0.00000000000000000000e+00) (0, 0, 0.00000000000000000000e+00) (0, 0, 0.00000000000000000000e+00) (0, 0, 0.00000000000000000000e+00) (0, 0, 0.00000000000000000000e+00) (0, 0, 0.00000000000000000000e+00) (0, 0, 0.00000000000000000000e+00) (0, 0, 0.00000000000000000000e+00) (0, 0, 0.00000000000000000000e+00) (0, 0, 0.00000000000000000000e+00) (0, 0, 0.00000000000000000000e+00) (0, 0, 0.00000000000000000000e+00) (0, 0, 0.00000000000000000000e+00) (0, 0, 0.00000000000000000000e+00) (0, 0, 0.00000000000000000000e+00) (0, 0, 0.00000000000000000000e+00) (0, 0, 0.00000000000000000000e+00) (0, 0, 0.00000000000000000000e+00) (0, 0, 0.00000000000000000000e+00) (0, 0, 0.00000000000000000000e+00) (0, 0, 0.00000000000000000000e+00) (0, 0, 0.00000000000000000000e+00) (0, 0, 0.00000000000000000000e+00) (0, 0, 0.00000000000000000000e+00) (0, 0, 0.00000000000000000000e+00) (0, 0, 0.00000000000000000000e+00) (0, 0, 0.00000000000000000000e+00) (0, 0, 0.00000000000000000000e+00) (0, 0, 0.00000000000000000000e+00) (0, 0, 0.00000000000000000000e+00) (0, 0, 0.00000000000000000000e+00) (0, 0, 0.00000000000000000000e+00) (0, 0, 0.00000000000000000000e+00) (0, 0, 0.00000000000000000000e+00) (0, 0, 0.00000000000000000000e+00) (0, 0, 0.00000000000000000000e+00) (0, 0, 0.00000000000000000000e+00) (0, 0, 0.00000000000000000000e+00) (0, 0, 0.00000000000000000000e+00) (0, 0, 0.00000000000000000000e+00) (0, 0, 0.00000000000000000000e+00) (0, 0, 0.00000000000000000000e+00) (0, 0, 0.00000000000000000000e+00) (0, 0, 0.00000000000000000000e+00) (0, 0, 0.00000000000000000000e+00) (0, 0, 0.00000000000000000000e+00) (0, 0, 0.00000000000000000000e+00) (0, 0, 0.00000000000000000000e+00) (0, 0, 0.00000000000000000000e+00) (0, 0, 0.00000000000000000000e+00) (0, 0, 0.00000000000000000000e+00) (0, 0, 0.00000000000000000000e+00) (0, 0, 0.00000000000000000000e+00) (0, 0, 0.00000000000000000000e+00) (0, 0, 0.00000000000000000000e+00) (0, 0, 0.00000000000000000000e+00) (0, 0, 0.00000000000000000000e+00) (0, 0, 0.00000000000000000000e+00) (0, 0, 0.00000000000000000000e+00) (0, 0, 0.00000000000000000000e+00) (0, 0, 0.00000000000000000000e+00) (0, 0, 0.00000000000000000000e+00) (0, 0, 0.00000000000000000000e+00) (0, 0, 0.00000000000000000000e+00) (0, 0, 0.00000000000000000000e+00) (0, 0, 0.00000000000000000000e+00) (0, 0, 0.00000000000000000000e+00) (0, 0, 0.00000000000000000000e+00) (0, 0, 0.00000000000000000000e+00) (0, 0, 0.00000000000000000000e+00) (0, 0, 0.00000000000000000000e+00) (0, 0, 0.00000000000000000000e+00) (0, 0, 0.00000000000000000000e+00) (0, 0, 0.00000000000000000000e+00) (0, 0, 0.00000000000000000000e+00) (0, 0, 0.00000000000000000000e+00) (0, 0, 0.00000000000000000000e+00) (0, 0, 0.00000000000000000000e+00) (0, 0, 0.00000000000000000000e+00) (0, 0, 0.00000000000000000000e+00) (0, 0, 0.00000000000000000000e+00) (0, 0, 0.00000000000000000000e+00) (0, 0, 0.00000000000000000000e+00) (0, 0, 0.00000000000000000000e+00) (0, 0, 0.00000000000000000000e+00) (0, 0, 0.00000000000000000000e+00) (0, 0, 0.00000000000000000000e+00) (0, 0, 0.00000000000000000000e+00) (0, 0, 0.00000000000000000000e+00) (0, 0, 0.00000000000000000000e+00) (0, 0, 0.00000000000000000000e+00) (0, 0, 0.00000000000000000000e+00) (0, 0, 0.00000000000000000000e+00) (0, 0, 0.00000000000000000000e+00) (0, 0, 0.00000000000000000000e+00) (0, 0, 0.00000000000000000000e+00) (0, 0, 0.00000000000000000000e+00) (0, 0, 0.00000000000000000000e+00) (0, 0, 0.00000000000000000000e+00) (0, 0, 0.00000000000000000000e+00) (0, 0, 0.00000000000000000000e+00) (0, 0, 0.00000000000000000000e+00) (0, 0, 0.00000000000000000000e+00) (0, 0, 0.00000000000000000000e+00) (0, 0, 0.00000000000000000000e+00) (0, 0, 0.00000000000000000000e+00) (0, 0, 0.00000000000000000000e+00) (0, 0, 0.00000000000000000000e+00) (0, 0, 0.00000000000000000000e+00) (0, 0, 0.00000000000000000000e+00) (0, 0, 0.00000000000000000000e+00) (0, 0, 0.00000000000000000000e+00) (0, 0, 0.00000000000000000000e+00) (0, 0, 0.00000000000000000000e+00) (0, 0, 0.00000000000000000000e+00) (0, 0, 0.00000000000000000000e+00) (0, 0, 0.00000000000000000000e+00) (0, 0, 0.00000000000000000000e+00) (0, 0, 0.00000000000000000000e+00) (0, 0, 0.00000000000000000000e+00) (0, 0, 0.00000000000000000000e+00) (0, 0, 0.00000000000000000000e+00) (0, 0, 0.00000000000000000000e+00) (0, 0, 0.00000000000000000000e+00) (0, 0, 0.00000000000000000000e+00) (0, 0, 0.00000000000000000000e+00) (0, 0, 0.00000000000000000000e+00) (0, 0, 0.00000000000000000000e+00) (0, 0, 0.00000000000000000000e+00) (0, 0, 0.00000000000000000000e+00) (0, 0, 0.00000000000000000000e+00) (0, 0, 0.00000000000000000000e+00) (0, 0, 0.00000000000000000000e+00) (0, 0, 0.00000000000000000000e+00) (0, 0, 0.00000000000000000000e+00) (0, 0, 0.00000000000000000000e+00) (0, 0, 0.00000000000000000000e+00) (0, 0, 0.00000000000000000000e+00) (0, 0, 0.00000000000000000000e+00) (0, 0, 0.00000000000000000000e+00) (0, 0, 0.00000000000000000000e+00) (0, 0, 0.00000000000000000000e+00) (0, 0, 0.00000000000000000000e+00) (0, 0, 0.00000000000000000000e+00) (0, 0, 0.00000000000000000000e+00) (0, 0, 0.00000000000000000000e+00) (0, 0, 0.00000000000000000000e+00) (0, 0, 0.00000000000000000000e+00) (0, 0, 0.00000000000000000000e+00) (0, 0, 0.00000000000000000000e+00) (0, 0, 0.00000000000000000000e+00) (0, 0, 0.00000000000000000000e+00) (0, 0, 0.00000000000000000000e+00) (0, 0, 0.00000000000000000000e+00) (0, 0, 0.00000000000000000000e+00) (0, 0, 0.00000000000000000000e+00) (0, 0, 0.00000000000000000000e+00) (0, 0, 0.00000000000000000000e+00) (0, 0, 0.00000000000000000000e+00) (0, 0, 0.00000000000000000000e+00) (0, 0, 0.00000000000000000000e+00) (0, 0, 0.00000000000000000000e+00) (0, 0, 0.00000000000000000000e+00) (0, 0, 0.00000000000000000000e+00) (0, 0, 0.00000000000000000000e+00) (0, 0, 0.00000000000000000000e+00) (0, 0, 0.00000000000000000000e+00) (0, 0, 0.00000000000000000000e+00) (0, 0, 0.00000000000000000000e+00) (0, 0, 0.00000000000000000000e+00) (0, 0, 0.00000000000000000000e+00) (0, 0, 0.00000000000000000000e+00) (0, 0, 0.00000000000000000000e+00) (0, 0, 0.00000000000000000000e+00) (0, 0, 0.00000000000000000000e+00) (0, 0, 0.00000000000000000000e+00) (0, 0, 0.00000000000000000000e+00) (0, 0, 0.00000000000000000000e+00) (0, 0, 0.00000000000000000000e+00) (0, 0, 0.00000000000000000000e+00) (0, 0, 0.00000000000000000000e+00) (0, 0, 0.00000000000000000000e+00) (0, 0, 0.00000000000000000000e+00) (0, 0, 0.00000000000000000000e+00) (0, 0, 0.00000000000000000000e+00) (0, 0, 0.00000000000000000000e+00) (0, 0, 0.00000000000000000000e+00) (0, 0, 0.00000000000000000000e+00) (0, 0, 0.00000000000000000000e+00) (0, 0, 0.00000000000000000000e+00) (0, 0, 0.00000000000000000000e+00) (0, 0, 0.00000000000000000000e+00) (0, 0, 0.00000000000000000000e+00) (0, 0, 0.00000000000000000000e+00) (0, 0, 0.00000000000000000000e+00) (0, 0, 0.00000000000000000000e+00) (0, 0, 0.00000000000000000000e+00) (0, 0, 0.00000000000000000000e+00) (0, 0, 0.00000000000000000000e+00) (0, 0, 0.00000000000000000000e+00) (0, 0, 0.00000000000000000000e+00) (0, 0, 0.00000000000000000000e+00) (0, 0, 0.00000000000000000000e+00) (0, 0, 0.00000000000000000000e+00) (0, 0, 0.00000000000000000000e+00) (0, 0, 0.00000000000000000000e+00) (0, 0, 0.00000000000000000000e+00) (0, 0, 0.00000000000000000000e+00) (0, 0, 0.00000000000000000000e+00) (0, 0, 0.00000000000000000000e+00) (0, 0, 0.00000000000000000000e+00) (0, 0, 0.00000000000000000000e+00) (0, 0, 0.00000000000000000000e+00) (0, 0, 0.00000000000000000000e+00) (0, 0, 0.00000000000000000000e+00) (0, 0, 0.00000000000000000000e+00) (0, 0, 0.00000000000000000000e+00) (0, 0, 0.00000000000000000000e+00) (0, 0, 0.00000000000000000000e+00) (0, 0, 0.00000000000000000000e+00) (0, 0, 0.00000000000000000000e+00) (0, 0, 0.00000000000000000000e+00) (0, 0, 0.00000000000000000000e+00) (0, 0, 0.00000000000000000000e+00) (0, 0, 0.00000000000000000000e+00) (0, 0, 0.00000000000000000000e+00) (0, 0, 0.00000000000000000000e+00) (0, 0, 0.00000000000000000000e+00) (0, 0, 0.00000000000000000000e+00) (0, 0, 0.00000000000000000000e+00) (0, 0, 0.00000000000000000000e+00) (0, 0, 0.00000000000000000000e+00) (0, 0, 0.00000000000000000000e+00) (0, 0, 0.00000000000000000000e+00) (0, 0, 0.00000000000000000000e+00) (0, 0, 0.00000000000000000000e+00) (0, 0, 0.00000000000000000000e+00) (0, 0, 0.00000000000000000000e+00) (0, 0, 0.00000000000000000000e+00) (0, 0, 0.00000000000000000000e+00) (0, 0, 0.00000000000000000000e+00) (0, 0, 0.00000000000000000000e+00) (0, 0, 0.00000000000000000000e+00) (0, 0, 0.00000000000000000000e+00) (0, 0, 0.00000000000000000000e+00) (0, 0, 0.00000000000000000000e+00) (0, 0, 0.00000000000000000000e+00) (0, 0, 0.00000000000000000000e+00) (0, 0, 0.00000000000000000000e+00) (0, 0, 0.00000000000000000000e+00) (0, 0, 0.00000000000000000000e+00) (0, 0, 0.00000000000000000000e+00) (0, 0, 0.00000000000000000000e+00) (0, 0, 0.00000000000000000000e+00) (0, 0, 0.00000000000000000000e+00) (0, 0, 0.00000000000000000000e+00) (0, 0, 0.00000000000000000000e+00) (0, 0, 0.00000000000000000000e+00) (0, 0, 0.00000000000000000000e+00) (0, 0, 0.00000000000000000000e+00) (0, 0, 0.00000000000000000000e+00) (0, 0, 0.00000000000000000000e+00) (0, 0, 0.00000000000000000000e+00) (0, 0, 0.00000000000000000000e+00) (0, 0, 0.00000000000000000000e+00) (0, 0, 0.00000000000000000000e+00) (0, 0, 0.00000000000000000000e+00) (0, 0, 0.00000000000000000000e+00) (0, 0, 0.00000000000000000000e+00) (0, 0, 0.00000000000000000000e+00) (0, 0, 0.00000000000000000000e+00) (0, 0, 0.00000000000000000000e+00) (0, 0, 0.00000000000000000000e+00) (0, 0, 0.00000000000000000000e+00) (0, 0, 0.00000000000000000000e+00) (0, 0, 0.00000000000000000000e+00) (0, 0, 0.00000000000000000000e+00) (0, 0, 0.00000000000000000000e+00) (0, 0, 0.00000000000000000000e+00) (0, 0, 0.00000000000000000000e+00) (0, 0, 0.00000000000000000000e+00) (0, 0, 0.00000000000000000000e+00) (0, 0, 0.00000000000000000000e+00) (0, 0, 0.00000000000000000000e+00) (0, 0, 0.00000000000000000000e+00) (0, 0, 0.00000000000000000000e+00) (0, 0, 0.00000000000000000000e+00) (0, 0, 0.00000000000000000000e+00) (0, 0, 0.00000000000000000000e+00) (0, 0, 0.00000000000000000000e+00) (0, 0, 0.00000000000000000000e+00) (0, 0, 0.00000000000000000000e+00) (0, 0, 0.00000000000000000000e+00) (0, 0, 0.00000000000000000000e+00) (0, 0, 0.00000000000000000000e+00) (0, 0, 0.00000000000000000000e+00) (0, 0, 0.00000000000000000000e+00) (0, 0, 0.00000000000000000000e+00) (0, 0, 0.00000000000000000000e+00) (0, 0, 0.00000000000000000000e+00) (0, 0, 0.00000000000000000000e+00) (0, 0, 0.00000000000000000000e+00) (0, 0, 0.00000000000000000000e+00) (0, 0, 0.00000000000000000000e+00) (0, 0, 0.00000000000000000000e+00) (0, 0, 0.00000000000000000000e+00) (0, 0, 0.00000000000000000000e+00) (0, 0, 0.00000000000000000000e+00) (0, 0, 0.00000000000000000000e+00) (0, 0, 0.00000000000000000000e+00) (0, 0, 0.00000000000000000000e+00) (0, 0, 0.00000000000000000000e+00) (0, 0, 0.00000000000000000000e+00) (0, 0, 0.00000000000000000000e+00) (0, 0, 0.00000000000000000000e+00) (0, 0, 0.00000000000000000000e+00) (0, 0, 0.00000000000000000000e+00) (0, 0, 0.00000000000000000000e+00) (0, 0, 0.00000000000000000000e+00) (0, 0, 0.00000000000000000000e+00) (0, 0, 0.00000000000000000000e+00) (0, 0, 0.00000000000000000000e+00) (0, 0, 0.00000000000000000000e+00) (0, 0, 0.00000000000000000000e+00) (0, 0, 0.00000000000000000000e+00) (0, 0, 0.00000000000000000000e+00) (0, 0, 0.00000000000000000000e+00) (0, 0, 0.00000000000000000000e+00) (0, 0, 0.00000000000000000000e+00) (0, 0, 0.00000000000000000000e+00) (0, 0, 0.00000000000000000000e+00) (0, 0, 0.00000000000000000000e+00) (0, 0, 0.00000000000000000000e+00) (0, 0, 0.00000000000000000000e+00) (0, 0, 0.00000000000000000000e+00) (0, 0, 0.00000000000000000000e+00) (0, 0, 0.00000000000000000000e+00) (0, 0, 0.00000000000000000000e+00) (0, 0, 0.00000000000000000000e+00) (0, 0, 0.00000000000000000000e+00) (0, 0, 0.00000000000000000000e+00) (0, 0, 0.00000000000000000000e+00) (0, 0, 0.00000000000000000000e+00) (0, 0, 0.00000000000000000000e+00) (0, 0, 0.00000000000000000000e+00) (0, 0, 0.00000000000000000000e+00) (0, 0, 0.00000000000000000000e+00) (0, 0, 0.00000000000000000000e+00) (0, 0, 0.00000000000000000000e+00) (0, 0, 0.00000000000000000000e+00) (0, 0, 0.00000000000000000000e+00) (0, 0, 0.00000000000000000000e+00) (0, 0, 0.00000000000000000000e+00) (0, 0, 0.00000000000000000000e+00) (0, 0, 0.00000000000000000000e+00) (0, 0, 0.00000000000000000000e+00) (0, 0, 0.00000000000000000000e+00) (0, 0, 0.00000000000000000000e+00) (0, 0, 0.00000000000000000000e+00) (0, 0, 0.00000000000000000000e+00) (0, 0, 0.00000000000000000000e+00) (0, 0, 0.00000000000000000000e+00) (0, 0, 0.00000000000000000000e+00) (0, 0, 0.00000000000000000000e+00) (0, 0, 0.00000000000000000000e+00) (0, 0, 0.00000000000000000000e+00) (0, 0, 0.00000000000000000000e+00) (0, 0, 0.00000000000000000000e+00) (0, 0, 0.00000000000000000000e+00) (0, 0, 0.00000000000000000000e+00) (0, 0, 0.00000000000000000000e+00) (0, 0, 0.00000000000000000000e+00) (0, 0, 0.00000000000000000000e+00) (0, 0, 0.00000000000000000000e+00) (0, 0, 0.00000000000000000000e+00) (0, 0, 0.00000000000000000000e+00) (0, 0, 0.00000000000000000000e+00) (0, 0, 0.00000000000000000000e+00) (0, 0, 0.00000000000000000000e+00) (0, 0, 0.00000000000000000000e+00) (0, 0, 0.00000000000000000000e+00) (0, 0, 0.00000000000000000000e+00) (0, 0, 0.00000000000000000000e+00) (0, 0, 0.00000000000000000000e+00) (0, 0, 0.00000000000000000000e+00) (0, 0, 0.00000000000000000000e+00) (0, 0, 0.00000000000000000000e+00) (0, 0, 0.00000000000000000000e+00) (0, 0, 0.00000000000000000000e+00) (0, 0, 0.00000000000000000000e+00) (0, 0, 0.00000000000000000000e+00) (0, 0, 0.00000000000000000000e+00) (0, 0, 0.00000000000000000000e+00) (0, 0, 0.00000000000000000000e+00) (0, 0, 0.00000000000000000000e+00) (0, 0, 0.00000000000000000000e+00) (0, 0, 0.00000000000000000000e+00) (553, 3, 5.00000000000000000000e-01) (553, 3, 5.00000000000000000000e-01) (553, 3, 5.00000000000000000000e-01) (553, 3, 5.00000000000000000000e-01) (553, 3, 5.00000000000000000000e-01) (553, 3, 5.00000000000000000000e-01) (553, 3, 5.00000000000000000000e-01) (553, 3, 5.00000000000000000000e-01) (553, 3, 5.00000000000000000000e-01) (553, 3, 5.00000000000000000000e-01) (553, 3, 5.00000000000000000000e-01) (553, 3, 5.00000000000000000000e-01) (553, 3, 5.00000000000000000000e-01) (553, 3, 5.00000000000000000000e-01) (553, 3, 5.00000000000000000000e-01) (553, 3, 5.00000000000000000000e-01) (553, 3, 5.00000000000000000000e-01) (553, 3, 5.00000000000000000000e-01) (553, 3, 5.00000000000000000000e-01) (553, 3, 5.00000000000000000000e-01) (553, 3, 5.00000000000000000000e-01) (553, 3, 5.00000000000000000000e-01) (553, 3, 5.00000000000000000000e-01) (553, 3, 5.00000000000000000000e-01) (553, 3, 5.00000000000000000000e-01) (553, 3, 5.00000000000000000000e-01) (553, 3, 5.00000000000000000000e-01) (553, 3, 5.00000000000000000000e-01) (553, 3, 5.00000000000000000000e-01) (553, 3, 5.00000000000000000000e-01) (553, 3, 5.00000000000000000000e-01) (553, 3, 5.00000000000000000000e-01) (553, 3, 5.00000000000000000000e-01) (553, 3, 5.00000000000000000000e-01) (553, 3, 5.00000000000000000000e-01) (553, 3, 5.00000000000000000000e-01) (553, 3, 5.00000000000000000000e-01) (553, 3, 5.00000000000000000000e-01) (553, 3, 5.00000000000000000000e-01) (553, 3, 5.00000000000000000000e-01) (553, 3, 5.00000000000000000000e-01) (553, 3, 5.00000000000000000000e-01) (553, 3, 5.00000000000000000000e-01) (553, 3, 5.00000000000000000000e-01) (553, 3, 5.00000000000000000000e-01) (553, 3, 5.00000000000000000000e-01) (553, 3, 5.00000000000000000000e-01) (553, 3, 5.00000000000000000000e-01) (553, 3, 5.00000000000000000000e-01) (553, 3, 5.00000000000000000000e-01) (553, 3, 5.00000000000000000000e-01) (553, 3, 5.00000000000000000000e-01) (553, 3, 5.00000000000000000000e-01) (553, 3, 5.00000000000000000000e-01) (553, 3, 5.00000000000000000000e-01) (553, 3, 5.00000000000000000000e-01) (553, 3, 5.00000000000000000000e-01) (553, 3, 5.00000000000000000000e-01) (553, 3, 5.00000000000000000000e-01) (553, 3, 5.00000000000000000000e-01) (553, 3, 5.00000000000000000000e-01) (553, 3, 5.00000000000000000000e-01) (553, 3, 5.00000000000000000000e-01) (553, 3, 5.00000000000000000000e-01) (553, 3, 5.00000000000000000000e-01) (553, 3, 5.00000000000000000000e-01) (553, 3, 5.00000000000000000000e-01) (553, 3, 5.00000000000000000000e-01) (553, 3, 5.00000000000000000000e-01) (553, 3, 5.00000000000000000000e-01) (553, 3, 5.00000000000000000000e-01) (553, 3, 5.00000000000000000000e-01) (553, 3, 5.00000000000000000000e-01) (553, 3, 5.00000000000000000000e-01) (553, 3, 5.00000000000000000000e-01) (553, 3, 5.00000000000000000000e-01) (553, 3, 5.00000000000000000000e-01) (553, 3, 5.00000000000000000000e-01) (553, 3, 5.00000000000000000000e-01) (553, 3, 5.00000000000000000000e-01) (0, 3, 0.00000000000000000000e+00) (81, 3, 5.00000000000000000000e-01) (81, 3, 5.00000000000000000000e-01) (81, 3, 5.00000000000000000000e-01) (0, 3, 0.00000000000000000000e+00) 
connections (connected_to_neuron, weight)=(0, -5.64371378731228223735e-01) (1, -8.98051576114752489466e-03) (2, -4.01442776047710447873e-01) (3, -1.78709437907139423451e+00) (4, -2.56360625987373413892e-01) (5, -9.77954690567376272448e-01) (6, -1.07351705759351645497e+00) (7, -4.65599685248077876931e-01) (8, -7.74760013648242540363e-01) (9, -5.46048374838396244346e-02) (10, -1.41598821779263445153e-01) (11, -4.26825242506747415394e-01) (12, -6.30130348253057914754e-01) (13, -8.97236117381201458976e-01) (14, -4.92350726260347981711e-01) (15, -1.07837284961994961385e+00) (16, -1.08732898851709536281e+00) (17, 5.88575577924666415441e-01) (18, 1.76674102727080034603e-02) (19, -6.65900485204762748737e-01) (20, -1.42833115307435454255e+00) (21, -3.90797029989559563390e+00) (22, -3.92317075786499436241e-01) (23, 1.01371225429903755177e+00) (24, -4.40151421510473317422e-01) (25, 1.97401517888428051917e-01) (26, 5.35459038457521963039e-01) (27, -1.48523944853495448726e+00) (28, 2.74454176029326313291e-01) (29, -7.50263377976756573595e-01) (30, -6.76110913805480939764e-01) (31, -3.83155864422346004172e-01) (32, -1.81435139809159845514e-01) (33, -2.49817036984399831745e-01) (34, -5.09371933333731652382e-01) (35, 2.92770890384619619784e-01) (36, -4.87420003970886861477e-01) (37, -6.33544703705916534275e-01) (38, -8.92387109973793224427e-01) (39, -7.18409666963862103550e-01) (40, -1.07955992812516243795e+00) (41, 4.42489012867948117158e-01) (42, -2.00240037198996911894e-01) (43, -7.02293556012220099305e-01) (44, -1.50728102936795838040e+00) (45, -3.75314919416817049935e+00) (46, -3.46327311320553388185e-01) (47, 9.86087239882730171026e-01) (48, -6.61873259725957230337e-01) (49, 2.05812570934471750217e-01) (50, -5.70321445378605518250e-01) (51, -1.80395466770176327032e+00) (52, 3.02136480596504330975e-01) (53, -1.07701559645470101856e+00) (54, -9.88781343098408704861e-01) (55, -1.60352817324879021177e-01) (56, -3.66872256283428954671e-01) (57, -3.00114271102595420171e-01) (58, -2.50268747021581805523e-01) (59, 1.50887979329081489688e-01) (60, -6.14705137689668057455e-01) (61, -3.77686718639988205926e-01) (62, -5.94665200359675516495e-01) (63, -1.51173737772110672317e+00) (64, -7.42665592743859459546e-01) (65, 6.22447094345616319666e-02) (66, 4.46494430226179461751e-01) (67, 2.16557972139446996973e-01) (68, -2.03642475866986627508e+00) (69, -3.60308225007789761918e+00) (70, -2.85460807256105786323e-01) (71, 7.80303188853141871384e-01) (72, -5.22718763064174973820e-01) (73, -4.13007462205938979949e-01) (74, -9.25000558531895777925e-01) (75, -2.08085802092168936639e+00) (76, 2.91106691834850661582e-01) (77, -1.24495744348159198545e+00) (78, -1.80511822257962162297e+00) (79, -8.55835561516197329546e-01) (80, -3.73091286959334300644e-01) (81, 6.12097236605212868810e-01) (82, -1.87876828767382458851e-01) (83, -3.07021316767249641266e-01) (84, -2.59733233268797270021e-01) (85, 6.80785800389595990856e-02) (86, -1.02647434184013541802e+00) (87, -2.14408469451472250000e+00) (88, -1.21291497313048957096e+00) (89, 6.35326295668362739377e-01) (90, 9.85183936429039341931e-01) (91, 5.47243320901317775729e-01) (92, -8.23517384384100270545e-01) (93, -3.79735100026485561386e+00) (94, -3.37781505482388111350e-01) (95, 8.23933965209361574011e-01) (96, -6.54495306588814718118e-01) (97, -1.00851504443738071437e+00) (98, -1.65395825660964002068e+00) (99, -2.11560764851865190650e+00) (100, 7.67446043017554480059e-02) (101, -1.69073883401835689533e+00) (102, -2.05161636514676137821e+00) (103, -1.44825634900973798658e+00) (104, -8.30714399874266651302e-01) (105, 1.38830813831795052415e+00) (106, 8.00604919207006049398e-01) (107, -4.37549664641938174103e-01) (108, -4.48975055347513585247e-01) (109, -1.17804217430442587089e-01) (110, -5.72274938654719900200e-01) (111, -2.35498194750365508199e+00) (112, -1.53258224821108379743e+00) (113, 5.87622127974736785383e-01) (114, 4.20190496131464863439e-01) (115, 1.10955953447522071009e+00) (116, -9.99859593773089749824e-01) (117, -4.09052492801314571125e+00) (118, -3.87562150167851726668e-01) (119, 9.84679706234353524508e-01) (120, -4.65433270067905913159e-01) (121, -6.57939138920692778711e-01) (122, -2.21619390717189501672e+00) (123, -2.41604387850663959725e+00) (124, 3.26883071002007585815e-01) (125, -1.80162756733606221893e+00) (126, -1.89589508267605544312e+00) (127, -2.29117018570563413249e+00) (128, -7.97792359489833624586e-01) (129, 1.66102988388967953703e+00) (130, 5.58049718271056094387e-01) (131, -1.13788176403839313977e+00) (132, 1.12174855987638821819e-01) (133, 4.50209858286066189059e-01) (134, -9.38087092988141524330e-01) (135, -2.17392807753448158437e+00) (136, -2.13187085251181906997e+00) (137, 4.34226128516087162001e-01) (138, 8.56083323136205498471e-01) (139, 9.09996112551550329073e-01) (140, -1.55941774832464341571e+00) (141, -4.60017643654751307025e+00) (142, -4.22808353546305359938e-01) (143, 1.36241859321456559861e+00) (144, -4.34262638018276192486e-01) (145, -7.66983820319440123825e-01) (146, -1.86486830011420434694e+00) (147, -2.70011783146645534259e+00) (148, 7.73070388470351588239e-01) (149, -2.46335048292490821353e+00) (150, -2.16140915676917400035e+00) (151, -2.01614250977670517173e+00) (152, -1.11463616486226047009e+00) (153, 1.18930592323753780981e+00) (154, 7.43673338006332729222e-01) (155, -8.45171405162120525922e-01) (156, -5.76497254670918946040e-01) (157, 6.78224918768346118902e-01) (158, -8.83558210088569162544e-01) (159, -2.14311813920498073216e+00) (160, -1.93516798821582591827e+00) (161, 5.63695111748799160267e-01) (162, 4.32141583135071005728e-01) (163, 2.85561355195799337903e-01) (164, -1.93254299591634981503e+00) (165, -5.22117986943202971872e+00) (166, -4.84846249724652900159e-01) (167, 1.74255744412943824884e+00) (168, -6.40280213211869453360e-01) (169, -9.75157286898668318464e-01) (170, -1.20721263612286344724e+00) (171, -1.75589105088121066878e+00) (172, 7.25935229162284700877e-01) (173, -2.57879197541862126286e+00) (174, -2.23455335559403023282e+00) (175, -1.45268834843350824748e+00) (176, -6.55880264580960936627e-01) (177, -8.37196381098782305141e-02) (178, 2.09001859633842906883e-01) (179, -9.02712120685477015236e-01) (180, -8.89491903528765948117e-01) (181, 5.04902164185691004761e-01) (182, -2.14225315426901513627e-01) (183, -1.24745267532624337647e+00) (184, -2.04322859078208196593e+00) (185, 4.80752031233339871541e-01) (186, 6.80449288833272269983e-01) (187, -1.11000961366896144789e+00) (188, -2.34428185903772501320e+00) (189, -5.66757207606957180701e+00) (190, -3.91705495348256216293e-01) (191, 2.22560307368086052193e+00) (192, -7.55153457348976542285e-01) (193, 5.86233438401549067365e-01) (194, 3.44601956374834983432e-01) (195, -1.12445508386431858305e+00) (196, 9.54383632567232131905e-01) (197, -1.55027456258886808804e+00) (198, -1.53664630897810883248e+00) (199, 9.89749047509534823908e-02) (200, -1.01591392993948051449e-01) (201, -2.32861265854512522466e+00) (202, -1.10301785797907814235e+00) (203, 1.27092982468745785418e-01) (204, -1.63436253782537677104e+00) (205, -1.83445400881311226904e-01) (206, 2.65192935047686173533e+00) (207, 2.76998853937928724012e-01) (208, -1.95864345457504374082e+00) (209, -2.90668010155323286448e-01) (210, -1.63940349267515383946e-01) (211, -2.77722885017540344066e+00) (212, -3.98025233376199860658e+00) (213, -5.94000620081652375148e+00) (214, -4.42027807518143245336e-01) (215, 2.61029199891333796302e+00) (216, -2.58401744081832207556e+00) (217, 2.04842120341330348465e-02) (218, 3.61518758437033804753e+00) (219, 9.73193632263463226373e-01) (220, -1.42558688791935922469e-01) (221, -8.48510041375724943791e-01) (222, -3.00162973862716453421e-01) (223, 4.21909625524176501443e+00) (224, 9.35501134877364970421e-01) (225, -4.80126686334295271763e+00) (226, -3.49564867247277666351e+00) (227, 1.09698111887270211007e+00) (228, -3.56188577036208853244e+00) (229, -1.70759948480630496803e+00) (230, 5.17852126534138967884e+00) (231, 2.15882703026202671381e+00) (232, -3.77743140474429084374e-01) (233, -1.41140918908578094637e+00) (234, -7.64980013359554678054e-01) (235, -5.13802227727021776360e+00) (236, -3.21164475150514761026e+00) (237, -5.98794054219729421362e+00) (238, -6.49521796027039299837e-01) (239, 2.41633397812565897667e+00) (240, -4.98327852405214777320e+00) (241, -2.90172832964400884137e+00) (242, 7.74169121243235114349e+00) (243, 3.45988220977496530040e+00) (244, -2.06462557891352371797e-01) (245, -2.75048718100563416300e+00) (246, -3.83348001745761957082e+00) (247, 1.00250048144072234635e+01) (248, 1.68790846464710386776e+00) (249, -6.51462378349338067096e+00) (250, -4.44305188642377757446e+00) (251, -2.88487919675868009772e-01) (252, -3.72253410884288937766e+00) (253, -3.00768116566881094087e+00) (254, 9.98181830848718831817e+00) (255, 1.00197763839226317018e+00) (256, -8.91820943651944864072e-01) (257, -2.41920185655432140592e+00) (258, -1.65207551649097506008e+00) (259, -6.65740056227535514921e+00) (260, -1.53912146573016661577e+00) (261, -5.92599865782460888397e+00) (262, -6.84131683311273608439e-01) (263, 1.95102314889336203585e+00) (264, -6.78254394533548765622e+00) (265, -4.43065156585713637583e+00) (266, 1.06174058258820931400e+01) (267, 6.76134183463954041571e+00) (268, -5.37122031705599578544e-01) (269, -4.92028102880081785742e+00) (270, -6.90642698035827518055e+00) (271, 1.40229514767965319777e+01) (272, -1.91098064663374894723e-01) (273, -8.63400003130379367633e+00) (274, -6.36322732092961285133e+00) (275, -1.11144719251530466053e+00) (276, -4.96328419748457427829e+00) (277, -5.14293695295773112264e+00) (278, 1.48016146886506749780e+01) (279, 3.75212718593264904499e+00) (280, 1.10960366814779609612e+00) (281, -3.38628756774129602292e+00) (282, -4.39586884099475128096e+00) (283, -8.62554806820881303508e+00) (284, 2.55326290138415679110e+00) (285, -5.52695621052726870914e+00) (286, -5.42128483051016796246e-01) (287, 4.83803227543830871582e-02) (288, -8.70906557344761189654e+00) (289, -3.00509747837977592155e+00) (290, 4.40160203104448299882e+00) (291, 3.31278973819163846670e+00) (292, -2.56092501393563898304e+00) (293, -4.42414970996887646493e+00) (294, -4.42777439411179507545e+00) (295, 1.00991930950052086757e+01) (296, -4.36147021463661133112e-01) (297, -5.93235253118450334142e+00) (298, -7.79485872709308846851e+00) (299, 6.44030339142906138594e-02) (300, -5.14245409801420727547e+00) (301, -3.85717866920974472578e+00) (302, 1.97146862608670332406e+01) (303, 1.88439317981998444296e+00) (304, 3.22347537343677936761e+00) (305, -1.88888735510196825729e+00) (306, -2.87466177505152531424e+00) (307, -5.28691563851485124559e+00) (308, 3.88681686712216534207e-01) (309, -5.68687701906066056523e+00) (310, -2.45266365310707623593e+00) (311, 1.79360302567987761613e+00) (312, -6.20399118383425385304e+00) (313, -3.97138277191355859586e+00) (314, 1.37058802080690433911e+00) (315, 3.45228953677695304947e+00) (316, -2.03146497730651276470e+00) (317, -3.87857747595138624419e+00) (318, -4.35672999106297142990e-01) (319, 3.83957526590560194180e+00) (320, -6.70086380955770888335e-01) (321, -3.88361170563988311599e+00) (322, -7.25811644207342165913e+00) (323, -1.35970561067104545039e+00) (324, -5.34878188596654702280e+00) (325, -2.89110028732077850577e+00) (326, 1.47381167344038583877e+01) (327, 1.99687492174739511519e+00) (328, 2.11287315528785013541e+00) (329, -6.42628481968862352858e-01) (330, -1.41372427975927617005e+00) (331, -2.10066990313213786123e+00) (332, -8.73931445789299043980e-01) (333, -5.02244407293872985321e+00) (334, -3.17454782824182224488e+00) (335, 2.49120388834779360465e+00) (336, -5.50650555134286090464e+00) (337, -3.40888206686590100603e+00) (338, -1.88403607302285780456e+00) (339, 2.30659621194738928551e+00) (340, -1.45578185687661942893e+00) (341, -2.24403287250554450694e+00) (342, 1.52726148890822199800e-01) (343, 9.09472252994127261516e-01) (344, -6.60623469908806271178e-01) (345, -2.81947305964018823943e+00) (346, -5.51648699143112075660e+00) (347, -2.62162475033082031928e+00) (348, -4.26654676768535701115e+00) (349, -2.38196123935953840700e+00) (350, 1.03208105919881365509e+01) (351, 9.86118971218061024508e-01) (352, 2.51484240100704958820e+00) (353, -9.97913434993973336162e-01) (354, -1.06502102199485149114e+00) (355, -3.77144315177371569625e-01) (356, -1.36973016829270988204e+00) (357, -4.80944741816783949417e+00) (358, -3.21257302297545654923e+00) (359, 2.44152930945923030137e+00) (360, -4.51137160759899646933e+00) (361, -3.98015819540809312471e+00) (362, -4.13817198523679063982e+00) (363, 4.98744551139637063569e-03) (364, -1.02273533117676285187e+00) (365, -2.43594375744808777640e+00) (366, -1.05125416497751866807e+00) (367, -1.72566544858661785611e+00) (368, -1.87447130991395538580e+00) (369, 1.04664956302697076396e+00) (370, -2.25095784294702072614e+00) (371, -3.68298421497697159310e+00) (372, -1.78061679620743462671e+00) (373, -7.50227618743268820367e-01) (374, 5.27867663465604408657e+00) (375, -7.57936404039028066570e-01) (376, 6.90897070599137075320e-01) (377, -2.65374100539654211861e-01) (378, -7.38580786850682957656e-01) (379, 2.46575578306880016655e+00) (380, -4.87399723993028388680e-01) (381, -4.56777188019596103175e+00) (382, -2.61177924477514933344e+00) (383, 1.70535211100050632105e+00) (384, -2.67920884299001471618e+00) (385, -2.39836123860408267916e+00) (386, -3.21964202558914802665e+00) (387, -2.63647811124598618893e-01) (388, -9.52036103372517865384e-03) (389, -2.26903289134324870346e+00) (390, -9.08077929890952706415e-01) (391, -2.03219069359581716583e+00) (392, -1.08729111418289958735e+00) (393, 6.36328386212549057532e-01) (394, -1.81510080417002805930e+00) (395, -3.31764437414614610233e+00) (396, -1.19328550470585215137e+00) (397, -3.16778409713117103941e-02) (398, 2.45911627515227282359e+00) (399, -8.85154368729525131698e-01) (400, 6.93533416630886384580e-02) (401, 6.16466062828415317654e-01) (402, 2.13014875068742060016e-01) (403, 2.04535531594346187134e+00) (404, -4.63081710393449919039e-01) (405, -3.71847478060498870533e+00) (406, -2.18437795938867873602e+00) (407, 1.24370567198932335806e+00) (408, -1.61376413506060423231e+00) (409, -1.92759283893404198551e+00) (410, -3.06867736897997334111e+00) (411, -6.39140518678686930798e-01) (412, 2.13140833235984039629e-01) (413, -2.16008459273804831469e+00) (414, -1.03396016464776052679e+00) (415, -1.82141784306896736823e+00) (416, -1.22164658594931596625e+00) (417, 3.76654406110154049703e-01) (418, -2.52625279927083701281e+00) (419, -3.02464549963338358296e+00) (420, -1.42755807401472756268e+00) (421, 2.67756023332884618426e-01) (422, 1.70011114237753058198e+00) (423, -1.04479831432357328502e+00) (424, 4.50337468966592269215e-01) (425, 4.27015119602848158831e-01) (426, 5.84645980925523681138e-02) (427, 1.16007059032032566748e+00) (428, 1.61931266146996988287e-01) (429, -3.76381559142795918405e+00) (430, -1.81176691787537436085e+00) (431, 1.04710318554644099542e+00) (432, -1.51622827008735461263e+00) (433, -1.97996956057580919541e+00) (434, -1.41160638070637789454e+00) (435, -3.43283611798044951957e-01) (436, 1.39466292065109458143e-02) (437, -2.23062876086227523942e+00) (438, -8.99426378625137190603e-01) (439, -1.31860791190622861357e+00) (440, -1.28582294446546452349e+00) (441, 9.92765013957509073750e-02) (442, -1.18294097008126897208e+00) (443, -2.55222020287747408673e+00) (444, -4.58756273588348861825e-01) (445, 4.02444998172813740711e-03) (446, 6.63416939194372390354e-01) (447, -6.63427730062345011319e-01) (448, 1.00255298075502083388e-01) (449, 1.60949910439979970711e-01) (450, -1.05917936557568065359e-01) (451, 4.67906941247229202219e-02) (452, -1.46700457053038496591e-01) (453, -3.53958983210818534104e+00) (454, -1.50272298925192782093e+00) (455, 6.32453898990672391811e-01) (456, -1.29011297978537364806e+00) (457, -1.17740722560884902848e+00) (458, -1.46928541637580312162e+00) (459, -9.15118419725510112706e-01) (460, 1.55298152297231761843e-01) (461, -2.20201477593717998005e+00) (462, -1.87112628591143614898e+00) (463, -1.47193489618447292955e+00) (464, -1.56183051319433441328e+00) (465, -8.01290377014751281637e-02) (466, -5.18610718883764421072e-01) (467, -2.40113877998064317865e+00) (468, -2.75116955681723007743e-01) (469, -4.23898975293746593795e-01) (470, -1.66456964100644179416e-02) (471, -8.66131306365923170354e-01) (472, -4.52743911862399199542e-03) (473, 2.09592608936007895881e-01) (474, 1.89034163328375026669e-01) (475, -3.69975877049686929787e-01) (476, 6.41201380382396934898e-01) (477, -3.48009959950050884459e+00) (478, -1.58433957253228530071e+00) (479, 5.59841726620359025901e-01) (480, -1.27374793964174370942e+00) (481, -1.11565092938676357903e+00) (482, -9.17905222075658167036e-01) (483, -4.91459492119113716679e-01) (484, 6.26698947822541263530e-02) (485, -2.13376087137626502255e+00) (486, -1.52343007062107815841e+00) (487, 8.96530525217872735488e-03) (488, -6.67490312466642699007e-01) (489, -8.83991805530031649063e-02) (490, -3.35540215876905523196e-01) (491, -1.76383834743998457739e+00) (492, -5.81468046083911005439e-01) (493, 2.74743330076299419051e-01) (494, -1.49880473437012134985e-01) (495, -1.43378246736132330952e+00) (496, -7.31211065779880237114e-02) (497, 6.14216553626267480759e-01) (498, 3.94187367394208787452e-01) (499, -4.88527436730416486643e-01) (500, -2.17244680519925514872e-01) (501, -3.21344502395566333774e+00) (502, -1.28680251818748669912e+00) (503, 3.74961580205804834165e-01) (504, -1.66398972003193978964e-01) (505, -5.29806551179723750344e-01) (506, -5.12245927899346864542e-01) (507, 1.24577685295858164860e-01) (508, -2.48720666062451689626e-01) (509, -1.17136146490965531441e+00) (510, -6.50327125184358867394e-01) (511, -3.51109896911191210478e-01) (512, -1.03626734316052959706e+00) (513, -3.67360368260702285781e-01) (514, -8.41995760838506468460e-01) (515, -1.16353164367216455055e+00) (516, -6.35897613775170955641e-01) (517, -1.58504353845354828412e-02) (518, 1.76087805540799058335e-01) (519, -4.16572356521030084942e-01) (520, -1.94678162338101812256e-01) (521, 8.52719318482031307660e-01) (522, 5.68405163168235971760e-01) (523, -7.06158840122023678809e-01) (524, -3.79628709278820031248e-01) (525, -2.45275276760195382053e+00) (526, -1.29352954885509596750e+00) (527, 3.82299497009465860664e-01) (528, 1.29168296463364872667e-02) (529, -6.73672895045841935158e-01) (530, -1.59740782121955519901e-02) (531, -3.58418845514219042148e-01) (532, 2.22709089199681180282e-02) (533, -1.77737788187878265056e+00) (534, -1.56790619325553115537e+00) (535, -4.52459538733485433504e-01) (536, -7.22006086099335475659e-01) (537, -5.55089116037062790809e-01) (538, -1.05085926216165836955e+00) (539, -1.44465586069373275180e+00) (540, -6.62012512797672036946e-01) (541, -5.78209275613142947847e-01) (542, -6.41496218213113533757e-01) (543, -2.08559924259915013822e-01) (544, -4.96590720335821689257e-01) (545, 6.65552376130850720237e-01) (546, 5.66538558164397937356e-02) (547, -5.58321246716673269539e-01) (548, -3.13000787439200803264e-02) (549, -2.57614857274149233746e+00) (550, -1.27522392831426301107e+00) (551, 3.65561640303118606798e-01) (552, -3.10735659505582462181e-01) (0, -2.27992565528659829610e+00) (1, -8.99430221371145810494e-02) (2, -2.97546431710784820002e-01) (3, -4.58828045688610330899e+00) (4, -1.46729009310451119497e+00) (5, -2.21585918976170992423e+00) (6, -2.26935169049910845374e+00) (7, 7.43489447183490193005e-01) (8, -2.26210119970987305615e-01) (9, -1.78179190113289909192e+00) (10, -2.40608187912101145756e+00) (11, -6.34766868574763165611e-01) (12, -2.32538169149325613105e+00) (13, -2.83977746882054837840e+00) (14, -1.84486530495693346055e+00) (15, -2.32282781849592501189e+00) (16, -6.33105321037690904618e-01) (17, 1.60729929443607932882e+00) (18, -5.72968229511771176554e-01) (19, -1.15061876948115093811e+00) (20, -1.64158078731268486372e+00) (21, -2.30646766503664579773e+00) (22, 2.04838536397337650508e-01) (23, 2.89217177653002499582e+00) (24, -1.64388045449467856685e+00) (25, -7.97912136486727430196e-01) (26, -2.48943106095521782262e-01) (27, -5.41876770579436417563e+00) (28, -1.12777039662707717627e-01) (29, -2.52113665780283824347e+00) (30, -2.56501272604866237259e+00) (31, -4.37116374985968003664e-02) (32, -8.17468896562693281282e-01) (33, -3.96914448422565235841e-01) (34, -1.53931656863290777792e+00) (35, -8.55962958820631336643e-01) (36, -1.28660484036987021739e+00) (37, -1.67154505876293479893e+00) (38, -1.97794428669149868760e+00) (39, -2.38980451436755680916e+00) (40, -1.42482975582152771032e+00) (41, 7.74946221690785641556e-01) (42, -8.75299623800646409144e-01) (43, 8.19091027313984865188e-01) (44, -2.47701165059617878228e+00) (45, -1.46430876437103529852e+00) (46, 1.37571661918365506505e-01) (47, 2.83674665499248179756e+00) (48, -3.11165814001296725522e+00) (49, 3.03369300815014397710e-01) (50, 1.19233636073449100756e+00) (51, -3.80601164402106206808e+00) (52, -8.20364767104152736721e-01) (53, -2.65373339535983276960e+00) (54, -1.83629357385091163124e+00) (55, 9.63065568796886872782e-01) (56, 1.01043532788925985444e-01) (57, -2.37982835097144196368e+00) (58, -3.05747373889466844687e+00) (59, 3.94067924392015211943e-01) (60, -2.94420759262439712955e+00) (61, -1.67600198996654503603e+00) (62, -1.46102053777504514720e+00) (63, -2.14471714127397028449e+00) (64, -5.47563953858229646166e-01) (65, -6.75361053551911949544e-02) (66, -2.06299438574220561637e-01) (67, -1.75876107356038174911e-02) (68, -3.25479476841281201160e+00) (69, -1.66629294164372088183e+00) (70, 4.79960666264978193241e-03) (71, 2.92127069525338134426e+00) (72, -2.71964616798067915227e+00) (73, -5.25826148110965285731e-01) (74, 1.42035450389210754496e-01) (75, -4.06795813607896938890e+00) (76, -1.21001610206753706933e+00) (77, -2.11685409031805660263e+00) (78, -3.61636732082744893901e+00) (79, 1.12191990823610199257e+00) (80, -4.25586771907776953427e-02) (81, -1.13028795570264994907e+00) (82, -3.74951777656470275346e+00) (83, -1.16240130873405012046e-01) (84, -2.84246814740214359674e+00) (85, -2.15532066492739993180e+00) (86, -1.88434794417469309025e+00) (87, -3.64968370204108349952e+00) (88, -6.33917087801625145360e-01) (89, 1.26518493364461881434e+00) (90, 1.08533647494249929633e-01) (91, 1.45432965801231905978e+00) (92, -2.75045847790737774119e+00) (93, -1.55356590180415388147e+00) (94, -2.26182091530666463941e-02) (95, 3.16692780584016420065e+00) (96, -3.18313268156792172903e+00) (97, -6.04025740574488101409e-01) (98, -1.32639852684156500651e+00) (99, -4.68957167205586955561e+00) (100, -1.64521299281602617626e+00) (101, -4.10455227201585071128e+00) (102, -4.42457944630604060876e+00) (103, 5.18066054369835216065e-01) (104, 5.12946844978746319121e-01) (105, -5.58946216307538712442e-01) (106, -2.53863887266526333519e+00) (107, -2.83054685125287530667e-01) (108, -3.63236157816253912856e+00) (109, -1.54163390396432675722e+00) (110, -9.91656478644106331721e-01) (111, -3.13605038738585184532e+00) (112, -1.56465180417870408647e+00) (113, 1.25413031565230048692e+00) (114, 1.05921787023700225694e-01) (115, 1.61019732012840255386e+00) (116, -3.12608301161630741660e+00) (117, -2.30344940541543952151e+00) (118, 4.19599271798690859336e-02) (119, 3.53324406604213958616e+00) (120, -4.22329719065966102676e+00) (121, -1.11901909255540488175e+00) (122, -3.38114572648377098574e+00) (123, -6.30452630160739335707e+00) (124, 1.16767893337706069046e-01) (125, -4.23691147342951168753e+00) (126, -4.68770265329764601603e+00) (127, -1.49449498564128635536e+00) (128, -4.89639450063969250415e-01) (129, 6.11444041292706574886e-01) (130, -2.64461076524977833913e+00) (131, -1.88962919084758129706e+00) (132, -3.48285027033089855664e+00) (133, -9.08020159905119639276e-02) (134, -1.97794420939659620906e+00) (135, -4.54343548695436183493e+00) (136, -2.38410714970962045456e+00) (137, 3.62577780860937837204e-01) (138, 1.45859787812248425931e-01) (139, 2.70163645476324010275e+00) (140, -2.20485911335767381658e+00) (141, -2.89908464520840780665e+00) (142, -1.34142555692466663997e-01) (143, 4.09499218338558890196e+00) (144, -5.68290675407229706195e+00) (145, -1.24667393785934987882e+00) (146, -2.35459587772923129023e+00) (147, -5.58178729351562363803e+00) (148, 1.34196207389562105483e+00) (149, -5.47622366607150645734e+00) (150, -4.58861142502495944484e+00) (151, -2.60504170010881130892e+00) (152, -1.39105273657288475153e-01) (153, 2.61498081140706328807e-01) (154, -3.19167311804661490982e+00) (155, -1.46671396298979250794e+00) (156, -5.06958070726953291540e+00) (157, 1.00673868218145626252e-01) (158, -1.68978501377117473758e+00) (159, -5.08388018626087490048e+00) (160, -1.93094455202168102659e+00) (161, 8.40107998467009009502e-01) (162, 2.66175473850228678369e-03) (163, 2.48317197352449214875e+00) (164, -3.67991292515972423516e+00) (165, -4.43978634570884445054e+00) (166, -2.05308954813406524531e-01) (167, 5.59348928540516432406e+00) (168, -6.54960111168905267931e+00) (169, -2.39328438972234192050e+00) (170, -1.47416195221285328820e+00) (171, -4.45023305521257395156e+00) (172, 1.68673716587456601346e+00) (173, -5.36206567970207359508e+00) (174, -3.31036587304494300810e+00) (175, 1.47841479549596973436e-02) (176, 1.38755732622233485252e+00) (177, -1.69585477751821467329e+00) (178, -4.48965358397471892005e+00) (179, -6.23375351358799956181e-01) (180, -5.10733686607044479189e+00) (181, -8.50983609138172170105e-01) (182, 7.03899506122564799782e-01) (183, -3.08531070795843742616e+00) (184, -2.07592047311620220285e+00) (185, 5.86137109422625202093e-01) (186, 5.60752303678205499260e-01) (187, 5.20707897760133042731e-01) (188, -5.84264409101693171777e+00) (189, -4.34988107028607462468e+00) (190, -2.28065711392356929021e-01) (191, 6.76672122295424216532e+00) (192, -9.51832433884916717659e+00) (193, 4.27810060971551622822e-02) (194, -4.75809358268843074491e-01) (195, -5.26810903517746176306e+00) (196, 1.14621896848466708896e+00) (197, -4.39160818705713040799e+00) (198, -2.31433047068974317995e+00) (199, 4.42430030467792079207e+00) (200, 1.40346662331164218074e+00) (201, -2.74734453674347411933e+00) (202, -6.32502159077086201222e+00) (203, 1.32150878408873828640e+00) (204, -6.51594353965476980051e+00) (205, -4.45914277781668366707e-01) (206, 3.31086857869547301902e+00) (207, -4.05846367170871058505e+00) (208, -2.02405901965179602087e+00) (209, -8.52310202375246017681e-01) (210, -6.09948995491378931355e-01) (211, 1.55449937209984878628e+00) (212, -8.07178239562855459610e+00) (213, -4.48176089355407469839e+00) (214, -3.89491183446948996405e-01) (215, 7.36277094828507561175e+00) (216, -1.53088078811566550286e+01) (217, -5.80347412985554478304e-01) (218, 5.39721648115190077988e+00) (219, -2.59588356857052549032e+00) (220, 3.37231894269998389024e-01) (221, -3.60226844838941762106e+00) (222, -3.50817599795503731741e+00) (223, 1.32785856406266642438e+01) (224, 4.06673181399736094477e+00) (225, -6.90134030575407653174e+00) (226, -1.07686386523687946948e+01) (227, 1.18908996145871670436e+00) (228, -9.41930585477966708652e+00) (229, -2.21923614907516553174e+00) (230, 5.78265137337457613143e+00) (231, -2.02437977079792075230e+00) (232, 2.22486470215729692512e+00) (233, -1.94874452434158373926e+00) (234, -2.07050026101541467805e-01) (235, -1.26385620223181849298e+00) (236, -5.73199344767364760145e+00) (237, -3.88697036300625065053e+00) (238, -4.52357523948664019819e-01) (239, 6.85308267413915039867e+00) (240, -1.95897760635086157777e+01) (241, -6.20128784987131087547e+00) (242, 9.42856390700832314167e+00) (243, -1.90051152546387336351e+00) (244, 2.07450043238451131700e+00) (245, -7.65514350520247077725e+00) (246, -1.06588424767881360111e+01) (247, 2.26610013443806863620e+01) (248, 3.86813848649036140515e+00) (249, -8.15678777501359064672e+00) (250, -1.27984453537265761014e+01) (251, -1.78611665363953897590e+00) (252, -8.90426467599931470431e+00) (253, -3.42961624018674138270e+00) (254, 1.28739210531961507655e+01) (255, -5.66259308079524714685e+00) (256, 1.41761057851996374879e+00) (257, -4.71634133476314065803e+00) (258, -2.32797488216936709904e+00) (259, -1.26648557996960908767e+00) (260, -6.46146657698912441070e-01) (261, -5.64490710482242441515e+00) (262, -6.49178055373111684290e-01) (263, 5.10705668177036375965e+00) (264, -2.55235389679992650258e+01) (265, -7.36092232266410739783e+00) (266, 1.56594745596378768226e+01) (267, 7.73767317861504366761e+00) (268, 1.60139125115157598955e+00) (269, -1.29943575825341373076e+01) (270, -1.71595779860519250803e+01) (271, 2.67587701971801195100e+01) (272, 1.93453220494780142591e-01) (273, -1.15666138651256815706e+01) (274, -1.87667472273032451824e+01) (275, -4.10571012183451511390e+00) (276, -1.19431050809484240460e+01) (277, -9.28316648108479114399e+00) (278, 2.48752837727804845258e+01) (279, 5.31654369816112115643e+00) (280, 8.99732188972933144555e+00) (281, -6.55919417741544563683e+00) (282, -7.82704036034571881686e+00) (283, -5.12839674714242477194e+00) (284, 7.41107433636069945493e+00) (285, -4.25629853988383111130e+00) (286, -6.04978130209272380036e-01) (287, -1.10377371311187744141e-02) (288, -2.70058059846122908709e+01) (289, -6.04676721198200173291e+00) (290, 3.69455170899681117902e+00) (291, 3.15850773021761765946e+00) (292, -4.23735429429216026165e+00) (293, -1.36981037572457520213e+01) (294, -1.26305514665690630238e+01) (295, 1.53187333124424203135e+01) (296, -7.95869905836403490618e-01) (297, -8.58666517572088849874e+00) (298, -2.01526189910618924728e+01) (299, -2.84490461828764917840e+00) (300, -1.43809587853549274428e+01) (301, -1.06384094056943077078e+01) (302, 4.40336572112249413635e+01) (303, 4.77609914144005887060e-01) (304, 1.00275385280565352275e+01) (305, -4.56035767744973874471e+00) (306, -6.41156261632617585633e+00) (307, -1.55418296829110857971e+00) (308, 1.76045723983089330567e+00) (309, -5.21033070507191009568e+00) (310, -7.36136852220119752843e+00) (311, 6.60409878176422537877e+00) (312, -1.91383591626738009950e+01) (313, -7.04394238658668214725e+00) (314, 7.48565531457353827705e-01) (315, 6.31078007196259171963e+00) (316, -4.96070633638746727456e+00) (317, -1.14776375946748991907e+01) (318, -2.00315334048046045368e+00) (319, 7.11711801590478909674e+00) (320, -1.06057248916936663896e+00) (321, -5.54636775141426419111e+00) (322, -1.85472490379860701637e+01) (323, -4.58473547977578199664e+00) (324, -1.40816660276510070560e+01) (325, -6.87029428122837693138e+00) (326, 3.50597146649956954434e+01) (327, 4.05635699562948204289e+00) (328, 7.98718914694009640698e+00) (329, -1.52450910813220286144e+00) (330, -3.42701417150212073182e+00) (331, 2.11147981509404214506e+00) (332, -4.60513539211744227231e+00) (333, -3.29223773598637681204e+00) (334, -8.62498306714811491247e+00) (335, 7.80896090350101168553e+00) (336, -1.63711351012598491650e+01) (337, -8.43481930284703196321e+00) (338, -4.44519569235214628833e+00) (339, 6.49169271473154463337e+00) (340, -4.34305952068047584902e+00) (341, -7.14352324510719594031e+00) (342, 1.43512230934487483580e+00) (343, 2.19907082128706798940e+00) (344, -1.21881718999431520878e+00) (345, -5.02493825763559076591e+00) (346, -1.63034832759846821659e+01) (347, -7.18895187677604852183e+00) (348, -1.23796889194300749892e+01) (349, -5.98427303502328555851e+00) (350, 2.23966933707347877203e+01) (351, 2.68832344796786415486e+00) (352, 8.78432593735418443259e+00) (353, -1.69928359390775463034e+00) (354, -2.34236669875827363541e+00) (355, 4.43443117272641362803e+00) (356, -4.73879441230465037194e+00) (357, -3.56024693260518221294e+00) (358, -8.19440307394252975826e+00) (359, 7.14711599208271319839e+00) (360, -1.45003203464528844790e+01) (361, -6.61953903163830137402e+00) (362, -7.50385677553520391569e+00) (363, 2.65173339712856748207e+00) (364, -2.84377009464053642773e+00) (365, -4.99021632956429961325e+00) (366, -1.03856222579349699586e+00) (367, -2.02335215151629643771e+00) (368, -1.85772314807489125066e+00) (369, -9.83856112005785038779e-04) (370, -1.03667322779054291715e+01) (371, -7.87538730851683421719e+00) (372, -8.03709086832220442886e+00) (373, -3.35044728979946393466e+00) (374, 9.85854558049354956495e+00) (375, -6.12815867598136138072e-02) (376, 6.26750811934456919516e+00) (377, -1.34928030223802775112e+00) (378, -1.41784265156395328233e+00) (379, 7.29290685024503826384e+00) (380, -4.01097517382604351610e+00) (381, -3.40357221240529206341e+00) (382, -6.63176391133742448858e+00) (383, 5.64968964857575883798e+00) (384, -1.04541491647942592635e+01) (385, -4.93665845432386696245e+00) (386, -7.53796137851014602660e+00) (387, 7.70173294642372718855e-01) (388, -1.00340790659075285163e+00) (389, -5.27796966256020017028e+00) (390, -1.10948235400601191714e+00) (391, -1.79599647694654418473e+00) (392, -2.36691935785026341676e+00) (393, 5.17879313720244916636e-03) (394, -7.37110632627582074150e+00) (395, -7.78572079492146595925e+00) (396, -5.92618698155620737822e+00) (397, -1.79110462554484550779e+00) (398, 3.82853884265975574763e+00) (399, -1.59034349386765838652e+00) (400, 2.46223213020536979556e+00) (401, 1.08969358092357193613e+00) (402, -4.12082906597426024131e-01) (403, 6.37649839060668721658e+00) (404, -1.95066669721239382973e+00) (405, -2.63137730321771146080e+00) (406, -5.44681210308195762337e+00) (407, 4.13424536959783317513e+00) (408, -7.42438652120445041760e+00) (409, -2.41470180204174633687e+00) (410, -5.55148891777971442707e+00) (411, -1.03900400693798355967e-01) (412, -1.69380887441760630274e+00) (413, -3.60471805387873933668e+00) (414, -1.36824946999560426164e+00) (415, -3.48362906721235665586e+00) (416, -1.56550830052186418229e+00) (417, 3.35424150586990099665e-01) (418, -6.88727140709953200570e+00) (419, -6.09798616116739822246e+00) (420, -4.39886351318305290903e+00) (421, -1.05988193372299566164e+00) (422, 2.86140537629434899003e+00) (423, -1.77287817107932443861e+00) (424, 3.32701984815645390725e+00) (425, 1.22009350865240095985e+00) (426, -9.43227921781816580626e-01) (427, 4.48213913389021900713e+00) (428, -1.89205001267249905972e+00) (429, -1.74099624807275343841e+00) (430, -4.59557066470241259992e+00) (431, 3.33300621280687314751e+00) (432, -6.02942477436232948662e+00) (433, -2.35434477632530736457e+00) (434, -3.38305294295791059156e+00) (435, 3.09695808803040428803e-01) (436, -2.90319315751640605328e+00) (437, -4.29613103474402002746e+00) (438, -1.91608938139951412438e+00) (439, -2.05576034155804032721e+00) (440, -1.71063780953475874647e+00) (441, -1.31288816969651711553e+00) (442, -5.72937275049030247942e+00) (443, -5.75697022055681095765e+00) (444, -2.59732661050106194978e+00) (445, -1.42304043983115385830e-01) (446, 9.04211757997608778226e-01) (447, -1.54369967661029972028e+00) (448, 2.46638365870469877805e+00) (449, 1.58690892479456957531e+00) (450, -1.41446010735575639083e-01) (451, 1.82245016265525205945e+00) (452, -1.46764471219473846553e+00) (453, -1.70800759141768687677e+00) (454, -3.63361728395049832230e+00) (455, 2.35855165437556468788e+00) (456, -5.50837884084854501054e+00) (457, -1.51893918798331539755e+00) (458, -3.39120944230034204736e+00) (459, -2.70068585548353334858e-01) (460, -1.37462379877108542559e+00) (461, -4.35397628528106306334e+00) (462, -3.39830744746259716393e+00) (463, -2.02147713503984682859e+00) (464, -2.15898845891509250094e+00) (465, -2.25525273832577166644e+00) (466, -5.27210814800981708572e+00) (467, -5.24482129842179656265e+00) (468, -3.46893317981503201963e+00) (469, -1.27417656551474034465e+00) (470, 2.76394933685510379995e-01) (471, -1.47233009157580174708e+00) (472, 2.51947689925777318365e+00) (473, 1.27272667805628536541e+00) (474, -7.00116451382026383499e-01) (475, 3.54901572994953784512e-01) (476, 9.77272528479986690719e-01) (477, -1.50494539106390345928e+00) (478, -3.48771684234624856913e+00) (479, 2.25643498109855134004e+00) (480, -4.79861824580890772296e+00) (481, -4.93202672508335049351e-01) (482, -2.35391221604057943040e+00) (483, 5.31690199613869818318e-02) (484, -1.75271529025376149313e+00) (485, -2.87013133317186452942e+00) (486, -2.22234620663873183588e+00) (487, -4.76986130522156603906e-01) (488, -9.64233453910986249014e-01) (489, -2.49963397974543921620e+00) (490, -4.05755219977521353059e+00) (491, -3.17792044563067133112e+00) (492, -3.11205745549017365192e+00) (493, -1.09413835884890220385e+00) (494, -4.81845883094013993642e-01) (495, -1.95376422944685468330e+00) (496, 2.06629294963223664183e+00) (497, 1.59431209461355360979e+00) (498, -4.49564946854766223083e-01) (499, 2.86647888828944416573e-03) (500, -5.87399929990777835975e-01) (501, -1.12417011648444664651e+00) (502, -3.32022907415257018116e+00) (503, 2.05356862001618400981e+00) (504, -2.78632494648707584872e+00) (505, 6.95494887328956590267e-01) (506, -5.33405955090979322364e-01) (507, 8.17056443928048992120e-01) (508, -1.96115386559727400417e+00) (509, -2.20102804752840786051e+00) (510, -1.49283576829359576621e+00) (511, 6.48398404979240394752e-01) (512, -2.28756040796164539231e+00) (513, -2.08008850826940072665e+00) (514, -4.77675331615629605864e+00) (515, -1.95319220030731255378e+00) (516, -2.86012997240640309826e+00) (517, -1.84358179142583544774e+00) (518, -5.88951817212102546328e-01) (519, -1.05678386356993092576e+00) (520, 1.82885814635928189986e+00) (521, 2.22639116059193842290e+00) (522, -1.03493573336559885334e+00) (523, -8.56663888887429836316e-01) (524, -1.93421800216708539288e+00) (525, -6.00788238494165821590e-02) (526, -3.19915680545305081139e+00) (527, 1.79176835638894837999e+00) (528, -2.55542279829489960008e+00) (529, -2.37051807578756962291e-01) (530, -5.76342229407156292353e-01) (531, 1.10415953615950218625e-01) (532, -1.55195971302902502309e+00) (533, -3.01117095321646122130e+00) (534, -2.05915404356948306130e+00) (535, -2.10959780851075417996e-01) (536, 1.34711571058557383340e-01) (537, -3.10340417730855833156e+00) (538, -4.37685448994116921284e+00) (539, -1.65827189288409515555e+00) (540, -2.39394081189962859568e+00) (541, -2.52642794194770381466e+00) (542, -1.51544993845932451926e+00) (543, -1.34351726452426878389e+00) (544, 1.09091208743452372509e+00) (545, 1.18392411055100277295e+00) (546, -5.35447920125340481867e-01) (547, -7.23458369187173655490e-01) (548, -1.30797705323636215269e+00) (549, 7.58888608307441564493e-02) (550, -3.06814098431973647507e+00) (551, 1.51912690663719152084e+00) (552, -2.85843056773343706656e-01) (0, -1.04008872362280180290e-01) (1, 1.62513164704658485959e-01) (2, -6.55612329653613989944e-02) (3, -4.06282765360088726769e-01) (4, -3.19683132176566575655e-01) (5, -4.16773130603773772629e-02) (6, 1.02075310156137851608e-02) (7, 2.24723107474689043350e-01) (8, 2.82490064250212093155e-02) (9, -2.64274925767394863740e-01) (10, -2.69670022324368541256e-01) (11, 2.09239933473491894478e-02) (12, -3.08056675566790727494e-01) (13, -5.40475841795414677082e-02) (14, -8.82138438848337619325e-02) (15, 1.22541681566258314068e-02) (16, -7.34132786550217991683e-02) (17, 4.77274232392559727423e-01) (18, 1.35224279753112963665e-01) (19, -1.15529752759046783206e-01) (20, -7.33055496003139239747e-01) (21, -1.35509109892803847330e+00) (22, 1.25346661066221914949e-01) (23, -1.83854518245681539113e-02) (24, -1.37994384430486644044e-01) (25, 3.45575915661793298117e-01) (26, 3.53962047798055234882e-01) (27, -2.37153780279146797483e-01) (28, -3.79313243813693065642e-02) (29, 3.85801331401637267234e-04) (30, 8.38627378924476224453e-02) (31, 2.31627167710041576010e-01) (32, 2.24613504016795889617e-01) (33, -6.35893358025392957389e-02) (34, -3.29227913297583607566e-01) (35, 5.41627948449747376181e-01) (36, -6.31105250872242895532e-01) (37, -2.41653856470493838549e-01) (38, -2.65590824561114990932e-01) (39, -9.56453133860071663674e-02) (40, 3.08529613690637083412e-02) (41, 2.48546993159782687866e-02) (42, 1.10371445376118487366e-03) (43, 1.60408955437672737232e-02) (44, -1.13768024671750711541e+00) (45, -1.38345688703459757107e+00) (46, 4.58421508899683541327e-02) (47, 1.48417011564125650436e-01) (48, -4.47988053333099156550e-01) (49, -6.48255740115769030218e-02) (50, -1.30669405715191172535e-01) (51, -6.90635764889386605248e-01) (52, 8.30626008083966693718e-02) (53, -4.14696870641995174456e-01) (54, -4.77435355183169318760e-01) (55, 1.27528280918626474305e-01) (56, -4.37477470925491732090e-02) (57, 9.01304047999424984283e-02) (58, 2.60233619430871365719e-01) (59, -1.00365411663962442179e-01) (60, -3.94315274889674383108e-01) (61, 3.80980289940611227539e-01) (62, -2.70609281041922666855e-01) (63, -4.35268660716064792471e-01) (64, -2.48971499848497257457e-01) (65, 1.23615128951983468952e-01) (66, 4.04591662698830123457e-01) (67, 2.44655502647792816306e-01) (68, -5.37119449876740540084e-01) (69, -1.36477635520237883249e+00) (70, 2.84849305424238804368e-03) (71, 2.82845827196877425136e-02) (72, -5.27890662732572457649e-01) (73, 6.21068177945679252699e-03) (74, -3.60374992206848668297e-02) (75, -3.24766378250639142777e-01) (76, -7.48553069446680624521e-02) (77, -5.05823952268961637979e-02) (78, -2.46645720051695327424e-01) (79, 2.12648912656418803691e-01) (80, -1.82037420085047335627e-02) (81, 9.39052210184888880296e-02) (82, -4.69522304585157479462e-01) (83, 1.94391940727021872437e-01) (84, -5.01247676573265854572e-01) (85, -2.08774946336930458668e-03) (86, -2.45840424157404369154e-01) (87, -5.04150404262730389426e-01) (88, 4.15184169890621609933e-02) (89, 1.81747904942093363445e-01) (90, 2.08893927643793192450e-01) (91, 1.83197105265917176142e-01) (92, -5.15524934569590698175e-01) (93, -1.45893301856456569787e+00) (94, 7.48094835628703852537e-02) (95, 8.12688348399853988102e-02) (96, -4.37606636128547443754e-01) (97, -3.98900087552940318947e-01) (98, -1.23907134887905820420e-01) (99, -6.91193019248210416272e-01) (100, -1.15259139593553980307e-01) (101, -5.55440785957772797943e-01) (102, -7.12209330067821166921e-01) (103, 4.98163175626742837920e-01) (104, 1.16780447017949484678e-01) (105, 2.83709643983987014337e-01) (106, -2.74368095494113362412e-03) (107, -6.03012166331581139778e-02) (108, -5.77387222625203366810e-01) (109, 1.07673021999931423087e-01) (110, -5.35989414924545187757e-02) (111, -4.58014385405063173540e-01) (112, -2.11705053012821775571e-01) (113, 2.41003531865159464909e-01) (114, 2.72405780010966436233e-01) (115, 4.60230759245219611664e-01) (116, -4.47721578052295010597e-01) (117, -1.55381444430279613833e+00) (118, 1.14132311343894746192e-01) (119, -2.31321226394514065094e-02) (120, -5.58664780022043561125e-01) (121, 1.71567357188971217341e-02) (122, -1.52828019336614273627e-01) (123, -3.91646432361160257152e-01) (124, 3.09219481626765123339e-02) (125, -3.35345556813087253278e-01) (126, -3.27647579853776849124e-01) (127, 2.82986343832927034203e-01) (128, -4.88136177066742227293e-02) (129, 9.11349104462197689980e-02) (130, -4.33611902887085509661e-01) (131, -3.79528850076494214671e-02) (132, -4.86833100114529127023e-01) (133, 2.13057590959218862148e-01) (134, 6.77712572042100391823e-02) (135, -2.08601546933377707260e-01) (136, 1.42499832140656756962e-01) (137, 1.94932932041634615628e-01) (138, 2.62198531759204545022e-01) (139, 5.35677640901108920168e-01) (140, -7.18635849451802699583e-01) (141, -1.49728933062407931764e+00) (142, 6.68146923378690749118e-02) (143, 8.24206577902165601901e-03) (144, -7.20796581597957675136e-01) (145, -9.88262493915396528221e-02) (146, 6.53672804993575828902e-02) (147, -4.50149259254572720046e-01) (148, 3.61603332829872392562e-01) (149, -9.11859817182712917294e-01) (150, -6.69852035046086702330e-01) (151, 6.41511312616088513749e-01) (152, 4.58817259039854680180e-02) (153, 2.30096520710845492408e-01) (154, -3.20175729550393972644e-01) (155, 1.72926516045977030078e-01) (156, -6.55895196192163631999e-01) (157, 4.67020339693247840684e-02) (158, 1.55063354650242624100e-01) (159, -9.17398212694064962847e-02) (160, 1.51571025834014855294e-01) (161, 1.54951980283356521850e-01) (162, 3.05928591896494961322e-01) (163, 3.93947374360271607152e-01) (164, -8.44111531166087281086e-01) (165, -1.52749157971470683748e+00) (166, -7.79804215416695090113e-02) (167, 9.04470197215501425791e-02) (168, -1.21163038758279406615e+00) (169, -2.80719847806265132562e-01) (170, -3.66469467739861248790e-02) (171, -5.49232319473408003851e-01) (172, 2.52177774603592752545e-01) (173, -8.74362044171789420943e-01) (174, -7.45948162736524422733e-01) (175, 5.82245683779073708308e-01) (176, 1.07220314547151585050e-01) (177, 1.29682257906286624305e-01) (178, -4.25365373170205562925e-01) (179, -2.12185302332444786222e-01) (180, -6.92404242270842740226e-01) (181, 4.21041712602451267955e-01) (182, 6.80395871189978351801e-01) (183, -2.41784935304191900274e-01) (184, -1.49106506667379984377e-01) (185, 1.59710866914774818337e-01) (186, 4.34362008246122088817e-01) (187, 2.66394584172859882898e-01) (188, -3.60871375889726286879e-01) (189, -1.52208348516407321327e+00) (190, 4.71078338969951396220e-02) (191, 2.32181143535864720207e-01) (192, -1.35484981538838789028e+00) (193, -1.57587052854085446496e-01) (194, 5.65841661545642859998e-01) (195, -1.90457253515832702906e-01) (196, 1.83948187916730371283e-01) (197, -9.79258802001040984386e-01) (198, -3.50899043623990603002e-01) (199, 1.50241996521057030733e+00) (200, 3.57408616966646053292e-01) (201, -6.59333735449368241177e-01) (202, -7.28807516431744906171e-01) (203, -8.23698469443863434680e-02) (204, -8.23694094318509151265e-01) (205, 1.99512910511890240173e-01) (206, 1.05862216327867386667e+00) (207, -1.78532648882167799265e-01) (208, -1.10579151938471287320e-01) (209, 7.55836769099401811767e-02) (210, 2.30716360019526528502e-01) (211, 2.41062620102531904864e-02) (212, -9.79322149033636901727e-01) (213, -1.85267094318270153508e+00) (214, -1.18230954744685909374e-01) (215, 3.42346039975461258198e-01) (216, -2.00072818489832560118e+00) (217, -1.12569919351592981349e-01) (218, 1.19361415667258352613e+00) (219, -1.22305234508498117396e-01) (220, 3.43577552849598066853e-01) (221, -5.32314771064894665109e-01) (222, -4.76487479734033547718e-01) (223, 2.91027678264681588516e+00) (224, 4.43788432442973168612e-01) (225, -1.07149132136200919696e+00) (226, -1.88631261921458670550e+00) (227, 1.48937620088193056755e-01) (228, -1.52629770438871914529e+00) (229, -2.78636673608114782130e-01) (230, 1.19011565550662590240e+00) (231, 5.62509442802314740817e-01) (232, 4.76849285562370217573e-01) (233, -4.73835167768198672889e-01) (234, -1.66677010376618306431e-01) (235, -3.39200214570335167874e-01) (236, -9.11962391932843563502e-01) (237, -1.75856884742742147765e+00) (238, 3.44762210625796858277e-02) (239, 3.98216503689170386870e-01) (240, -2.73136784815480471167e+00) (241, -7.90071466130307764608e-01) (242, 1.30442641396134173526e+00) (243, -2.25242034515428762864e-01) (244, 4.42668626701970935322e-01) (245, -1.25022469959260962291e+00) (246, -1.44784237298905615887e+00) (247, 3.29971901145623069951e+00) (248, 5.15458238633300647180e-01) (249, -8.53971578265089403814e-01) (250, -1.85627550644349570419e+00) (251, -3.54483077039782934481e-01) (252, -1.38994392210281358935e+00) (253, -2.53992596726093755599e-01) (254, 1.94347959422308225186e+00) (255, -3.52534113023170558865e-01) (256, 4.23141056989355113238e-01) (257, -1.64109999163005670919e-01) (258, 8.37079146971768245367e-02) (259, 1.20997684501353758302e-01) (260, -6.74800568022619756681e-02) (261, -1.81006875061612015898e+00) (262, 2.94984532250655191732e-02) (263, 2.81200150544135663022e-01) (264, -3.44505097062505116767e+00) (265, -8.28666470605944449623e-01) (266, 1.76517880381099545595e+00) (267, 2.30219648220730044308e-01) (268, 4.61401587422456072041e-01) (269, -2.18439818218937364946e+00) (270, -2.67543238973256114477e+00) (271, 3.22646836048200080782e+00) (272, 4.58272906862330020594e-01) (273, -1.28941035274137738575e+00) (274, -2.50340939965630226993e+00) (275, -7.36985818810634296661e-01) (276, -1.82399713900835092062e+00) (277, -1.06923986721950781131e+00) (278, 3.33420545214980679205e+00) (279, 9.57998794748908921726e-01) (280, 1.43837773073499675114e+00) (281, -6.84935237470131963455e-01) (282, -4.59779787103147874472e-01) (283, -1.33470112751066599666e-01) (284, 6.58419831094363749990e-01) (285, -1.87200528515365971494e+00) (286, 1.46306048424120847123e-02) (287, 9.66574922204017639160e-02) (288, -3.34936312339958153217e+00) (289, -1.33812553169195935787e+00) (290, 5.43284544670685320966e-01) (291, -2.25528377967711066154e-02) (292, 7.89578392347932769835e-03) (293, -2.66211194163848263727e+00) (294, -2.45148054098562351300e+00) (295, 2.45844463084617181892e+00) (296, -1.86995395320585455767e-01) (297, -5.85777311475482842518e-01) (298, -2.22557932677454450854e+00) (299, -1.07014892503346281671e+00) (300, -1.80355167628774992750e+00) (301, -3.62155169378753416520e-01) (302, 5.73180995587734187779e+00) (303, 3.57488349057144272347e-01) (304, 1.51820356555258406672e+00) (305, -1.93811121222555143850e-01) (306, -6.41524787091386512056e-03) (307, 5.14378645369582998548e-01) (308, 9.80609516115568347061e-01) (309, -1.76073826851804815519e+00) (310, -1.79188491298281016295e-01) (311, -1.43049224837814015210e-02) (312, -2.78241677589549940564e+00) (313, -1.16117391672633307742e+00) (314, 3.56109158941624037720e-01) (315, 1.02341358660921444290e+00) (316, -4.86451909518602121363e-01) (317, -2.06207894171555761176e+00) (318, -6.74406086832385120999e-01) (319, 1.49939135673077994504e+00) (320, 1.65990480969761128316e-02) (321, -6.21566335901370337069e-01) (322, -2.58068702083461998242e+00) (323, -1.07577016772738009998e+00) (324, -1.92904557622615713264e+00) (325, -5.10550273537051735318e-01) (326, 4.77261900804069760795e+00) (327, 1.04847330746908107280e+00) (328, 1.44400083930369271812e+00) (329, 5.79463659064601149806e-02) (330, -6.91931915306224359918e-02) (331, 4.56624478884128937040e-01) (332, 2.20759637659870278092e-01) (333, -1.52598771545762712520e+00) (334, -2.81492077572393972762e-01) (335, 2.58850442040827022350e-01) (336, -2.51164119475260783076e+00) (337, -1.06971865103508312345e+00) (338, -2.61142208296217814834e-01) (339, 1.38332295273976990657e+00) (340, -7.65545853240991003297e-01) (341, -1.26475841172328307138e+00) (342, -2.00886293996227066616e-02) (343, 8.20490101056565501736e-01) (344, -5.09600528530603502642e-02) (345, -7.09308472531776867953e-01) (346, -2.16962253641384128500e+00) (347, -1.06623147629041725715e+00) (348, -1.78090892041056370054e+00) (349, -4.74792375790322962459e-01) (350, 3.69933204179646413223e+00) (351, 5.87851268517789349310e-01) (352, 1.56239876522644394186e+00) (353, -3.16623465522894720348e-01) (354, -2.04040650491285918688e-01) (355, 4.16407356525375138556e-01) (356, -1.82634285670176289840e-02) (357, -1.38962162554948931437e+00) (358, -3.11612013465416726188e-01) (359, 1.58490075041073069650e-01) (360, -1.64500775091443740550e+00) (361, -1.18182217083092244714e+00) (362, -1.01071372782060997508e+00) (363, 2.33989688561129061117e-01) (364, -1.75361090044188483450e-01) (365, -1.37442461285699102369e+00) (366, -5.21732545993933594097e-01) (367, 4.55138409534437737847e-01) (368, -5.06569149047112143869e-01) (369, 1.02341464664808479146e-01) (370, -1.32308001469867519972e+00) (371, -1.29267886629762007722e+00) (372, -1.09801845022609123603e+00) (373, -8.98883708781692131184e-02) (374, 2.03137333521255447621e+00) (375, 4.42307193362280304250e-01) (376, 1.10213017773037225133e+00) (377, 6.83616006229710027053e-02) (378, 8.17043371883402758105e-02) (379, 1.17734325646727233661e+00) (380, -4.58843587031508640117e-02) (381, -1.50305907906036084754e+00) (382, -2.37785819137086545938e-01) (383, -4.24754219796250921670e-03) (384, -1.77029911547428397967e+00) (385, -1.24302409340510555680e+00) (386, -9.96424419302577635271e-01) (387, 1.08334756895203908333e-02) (388, -1.33462499791241945291e-01) (389, -1.25218852324296481271e+00) (390, -7.19199245348737248307e-01) (391, 1.16835944219196991023e-01) (392, -4.53880069806634700580e-01) (393, 3.33388990726453060542e-01) (394, -7.73946931701537055304e-01) (395, -1.49306510607306575089e+00) (396, -5.63754838020219084527e-01) (397, 5.24975417915348879783e-02) (398, 9.75831986755829716707e-01) (399, 2.09175920282812302653e-02) (400, 5.25628661567762778262e-01) (401, 4.23296572034892515379e-01) (402, 3.78588329691437630586e-01) (403, 1.19733239265933755213e+00) (404, 2.07565946493276753948e-01) (405, -1.44122118774131746655e+00) (406, -2.85814377929124452393e-01) (407, 1.30097366247333812161e-01) (408, -1.07011514763090542779e+00) (409, -5.67807948099954939991e-01) (410, -5.02571561729171500943e-01) (411, 4.95009887118252722704e-01) (412, -4.67290794288703903447e-01) (413, -7.04682037220180412795e-01) (414, -1.06764888898804560791e-01) (415, 2.23384140819525983668e-01) (416, -1.84053940000140719979e-01) (417, -3.89545733470070654203e-01) (418, -1.43173180933758792399e+00) (419, -7.04616440119254949792e-01) (420, -1.05311683954566737142e+00) (421, -1.29427443885905851806e-01) (422, 1.17532148525446089593e+00) (423, 2.06508297497285747690e-01) (424, 7.56285906890384773682e-01) (425, -8.30693608951098005910e-02) (426, -3.61608865059685896659e-02) (427, 3.72845859360641906921e-01) (428, -5.47153951099218979759e-02) (429, -1.28767921775783600324e+00) (430, -2.49320735303482476919e-01) (431, 6.78998171861398130966e-02) (432, -8.13946908010014458235e-01) (433, -6.31107310154159995008e-01) (434, -1.98333115962711720170e-01) (435, 3.27858641648451965001e-01) (436, -2.26544804604905225531e-01) (437, -5.93039388273945755614e-01) (438, -4.02574060110610199015e-01) (439, 1.84093482464690649802e-01) (440, -3.21851107869046249021e-01) (441, -1.73123121549263542240e-01) (442, -8.77719615375314399230e-01) (443, -1.12700429677681213114e+00) (444, -6.08972157875710573549e-01) (445, 1.30373830261159506794e-01) (446, 8.12687774664985873585e-01) (447, 1.16445757964504098547e-02) (448, 7.86670183319670424105e-01) (449, 1.26088038042442895925e-01) (450, 2.33647541049113921519e-01) (451, -5.42542260386648517168e-02) (452, -1.14663098792581866214e-01) (453, -1.32350987655108842667e+00) (454, -2.73226069000613414062e-01) (455, 8.20196260317094388848e-02) (456, -5.86188259229229347014e-01) (457, -6.03795192686950477068e-01) (458, -3.66002233827214862316e-01) (459, 5.86212805366702824350e-02) (460, -2.81782193956138959923e-01) (461, -1.00198111441018311574e+00) (462, -5.28291027703716165043e-01) (463, 4.40124516219706218845e-01) (464, -4.05964994253330324625e-01) (465, -2.81860612423549428129e-01) (466, -8.08753457925268093298e-01) (467, -9.69120360124897328724e-01) (468, -4.16757481657371919859e-01) (469, -1.32963173470388214964e-02) (470, 5.33807572927841311738e-01) (471, 3.37840986842493917752e-02) (472, 5.63705699581523167474e-01) (473, 2.62791706490725862633e-01) (474, 2.00172428291165473146e-02) (475, -3.99699910677629374756e-02) (476, -1.62743383701989235979e-01) (477, -1.35736580627356895334e+00) (478, -2.81948245259652952033e-01) (479, 1.62513605178221803849e-01) (480, -6.68217023145932120798e-01) (481, -2.57641271989803299913e-01) (482, 5.70258527427156131084e-02) (483, 3.25696938054135076701e-01) (484, -1.47862086184519292420e-01) (485, -6.50246049938196457596e-01) (486, -3.14735494353102440712e-01) (487, 4.02400269857211334568e-01) (488, -6.20099380960750182906e-03) (489, -1.91878633742640025694e-01) (490, -7.46495818439296576763e-01) (491, -5.08882134127547347546e-01) (492, -6.37262871356581439564e-01) (493, -1.15551350992186524502e-01) (494, 4.41147193887303112891e-01) (495, -2.72703192739755621854e-02) (496, 5.24180311956351285829e-01) (497, 2.89655417064534459470e-01) (498, 1.22719393812083396589e-01) (499, -5.89201312158655551854e-02) (500, -4.07640080050244768550e-01) (501, -1.26329372403879203191e+00) (502, -1.48947026831841328187e-01) (503, 1.96710344419284439282e-03) (504, -2.23659663805446107254e-01) (505, 1.90952931998568699312e-02) (506, 2.03606754520937155428e-01) (507, 5.34298065055489601605e-01) (508, -2.17452222260272526322e-01) (509, -3.51434072199906244460e-01) (510, -1.08882576628117108686e-01) (511, 9.54133196742336098239e-02) (512, -3.59956279261522738011e-01) (513, -2.65394889998584015967e-01) (514, -9.15151701444743337355e-01) (515, -3.20870178925503179990e-01) (516, -8.12565395867541173658e-01) (517, -1.20414160721648427765e-01) (518, 5.98528987463735062668e-01) (519, 1.64768902832581082274e-01) (520, 5.75324777235590500979e-01) (521, 2.48810926701481499590e-01) (522, -4.61662590679642447639e-03) (523, -6.37011799133744144319e-02) (524, -7.86144992318853041979e-01) (525, -1.22363831397340283580e+00) (526, -7.09761055204199409197e-02) (527, -6.77577178180162192911e-02) (528, -3.04649523415449596797e-01) (529, -4.08879955706389131009e-01) (530, -8.88643055482662425071e-02) (531, 7.27289859116603959466e-02) (532, -3.38290031413321701237e-01) (533, -6.82177376423250603210e-01) (534, -2.05331046024615021528e-01) (535, 2.70806438478921884805e-01) (536, -4.31875240075943855889e-01) (537, 3.66200749972359282380e-02) (538, -2.81109691591039490000e-01) (539, -7.14867870353357637292e-01) (540, -2.83724601903949547044e-01) (541, -7.10366371646570793352e-02) (542, 1.53562319563209648265e-01) (543, -1.15748671422683122034e-01) (544, 1.33808468722282331020e-01) (545, 4.39771720827497325512e-01) (546, -9.51620584101041111502e-02) (547, 2.24136176254518787454e-01) (548, -2.30430789054964585416e-01) (549, -9.74742515232366990574e-01) (550, -1.35723791436716395564e-01) (551, -1.16450841151998538137e-01) (552, -2.60635734951444208995e-01) (0, -3.88389826718024466778e-01) (1, 5.30323782111190369926e-02) (2, -1.17894230107497222093e-01) (3, -8.42502038755496118760e-01) (4, -2.81936902573548309192e-01) (5, -2.39984424057608752845e-01) (6, -2.79298760077121621670e-01) (7, 5.34777253394348173199e-02) (8, -1.01960798329270602158e-01) (9, 1.32669979385704600583e-01) (10, 2.54689125246110592560e-01) (11, 4.21325712337797600449e-02) (12, -1.25797809104722241313e-02) (13, -6.40108656737093717481e-01) (14, -6.32907575067906125188e-02) (15, -3.23644733374157167471e-01) (16, -3.20868919025007748314e-01) (17, 1.65649216329880555332e-01) (18, -2.16981127880785384932e-01) (19, 1.10758707903489406199e-01) (20, -7.05859927525735120213e-01) (21, -2.34410596555085726234e-01) (22, 1.27702449746063123603e-01) (23, -2.54464803171579267982e-01) (24, -1.38563620237381279754e-01) (25, 2.45405049431060617859e-01) (26, 5.62108440766857619941e-01) (27, -4.30431971559866510812e-01) (28, 2.05287729119440653935e-01) (29, -1.36694567749696349601e-01) (30, -2.20778220764795030107e-01) (31, -1.62375276669984525135e-01) (32, 1.69889568651292233170e-01) (33, -8.77230464905771611939e-02) (34, -7.16551983332706643459e-02) (35, 1.17644338162054898356e-01) (36, -1.61262392591445535839e-01) (37, -2.11125751297244396154e-01) (38, -2.97956702383185834115e-01) (39, -1.64557305177240986716e-01) (40, -8.48485905134947759887e-02) (41, 1.71611584436853967239e-02) (42, 1.65932394782451558823e-01) (43, -1.71152968694154056228e-01) (44, -9.93665486459436420041e-01) (45, -4.44193395700020143835e-01) (46, -3.19975677620090853681e-02) (47, -2.80458968771892469540e-01) (48, -3.95053276655902174674e-01) (49, 2.34203504513463417469e-01) (50, -5.31207329959786922480e-02) (51, -8.30264744530404996681e-01) (52, 6.16969740405588773502e-02) (53, -4.05813137931220091481e-01) (54, -6.52425980295182506019e-01) (55, -3.58248678366109796212e-01) (56, -1.24745529255636394828e-01) (57, 6.83712739158116034055e-02) (58, 2.79249846267532020327e-01) (59, 8.81668036786566883256e-02) (60, -1.47997509926904469157e-01) (61, 4.19150142892045052267e-01) (62, -4.54370660199266640511e-01) (63, -7.07264406412100088417e-01) (64, -8.01536881785360644237e-01) (65, 1.13712212131220041789e-01) (66, 4.60908715362699561435e-01) (67, 5.94282732639935060842e-03) (68, -3.16270699757756124093e-01) (69, -4.02806906145538157205e-01) (70, -1.65216994884838830511e-03) (71, -2.79804027998514281972e-01) (72, -5.30514551506792650382e-02) (73, 1.46925896764734498223e-01) (74, -5.81731445396122870406e-01) (75, -8.41938919165221677510e-01) (76, 2.06932040041220205451e-01) (77, -2.65891768429497854509e-01) (78, -2.14657428907879921365e-01) (79, -4.69658139512313388408e-01) (80, 7.22830453686436769783e-03) (81, 2.41308844963525864769e-01) (82, -2.52404748898898245724e-01) (83, 1.97230031896540210223e-02) (84, -3.86545878440884504990e-01) (85, -2.00555264509002517670e-01) (86, -2.45220962649640022990e-01) (87, -7.50194915736058676181e-01) (88, -4.23230638246938350999e-01) (89, 2.03800755343532008501e-01) (90, 2.35122004691154629086e-01) (91, 3.48935017101479838519e-01) (92, -3.39292063351310568819e-01) (93, -5.66534128909266798679e-01) (94, 2.93981539135198047252e-02) (95, -2.20233959826860004050e-01) (96, -1.74653355318753783498e-01) (97, -5.81112212032171115972e-01) (98, -1.07667880678530369920e+00) (99, -9.99117761002263127246e-01) (100, -3.05900661240025184551e-01) (101, -7.34655842787018009687e-01) (102, -8.05417441561333324884e-01) (103, -6.47777199136839731963e-01) (104, -4.56345627033875156364e-01) (105, 8.63750062374900817730e-01) (106, 7.01649194975351164771e-01) (107, -4.61125002705086550758e-01) (108, 1.67347455932606581364e-01) (109, -4.67003064029946068914e-02) (110, -4.83228326912803041182e-01) (111, -1.25225348833760641298e+00) (112, -9.96013575544156815056e-01) (113, 3.80310071964414908585e-01) (114, 4.52733625813289408679e-02) (115, 7.18047645173510828975e-01) (116, 2.08953107033807122805e-01) (117, -5.14875749632739299066e-01) (118, 3.43464379124613361505e-02) (119, -2.11767852472204559655e-01) (120, 8.33669706559241191490e-02) (121, -6.74913571122123844351e-04) (122, -8.30196717302777886793e-01) (123, -9.77597615168550260201e-01) (124, 2.28381696023585573085e-01) (125, -2.86078530393085117556e-01) (126, -4.34650093972604012471e-01) (127, -1.00550394434027334789e+00) (128, -2.10224607234821586621e-01) (129, 7.46688792323282335417e-01) (130, 4.04162212344609805825e-01) (131, -5.42057086444596492036e-01) (132, 2.10176873306733430491e-01) (133, 3.41871616850222548312e-01) (134, -3.01861802513286814342e-01) (135, -7.18245440487669806195e-01) (136, -5.18157199318275085709e-01) (137, 4.50477832246279519257e-01) (138, 1.47630895256607191923e-01) (139, 2.09767848706115894730e-01) (140, -4.57828408997433433658e-01) (141, -8.56707991363069631952e-01) (142, -4.54077673495341116450e-02) (143, -1.97999587658194503570e-01) (144, 1.88823140544822520859e-01) (145, 1.12403560075403224916e-01) (146, -7.69179183343273620288e-01) (147, -6.87475748754295956644e-01) (148, 4.28241196518832856199e-01) (149, -6.17842566530575676431e-01) (150, -6.77328465870102980340e-01) (151, -8.41332526916849676724e-01) (152, -4.34179808344742568238e-01) (153, -8.69898024716933143674e-02) (154, 1.62575766626810863658e-01) (155, 9.50274459677022398374e-02) (156, -2.44670126518894692769e-01) (157, -4.27898468905654055794e-02) (158, -8.40256021922591300743e-02) (159, -7.90998695338755997142e-01) (160, -6.48988239244444931053e-01) (161, 2.91470296458112454463e-01) (162, 1.28203697596612181675e-01) (163, -1.58604648033850215150e-01) (164, -1.20350273753086392525e-01) (165, -8.24495581662068266482e-01) (166, -1.52855167649352304687e-02) (167, -2.53787329537236497345e-02) (168, -1.87566455488991229439e-02) (169, 2.01132626048806939512e-01) (170, -3.56647208377067093110e-01) (171, -3.82136610253053676800e-01) (172, 7.63228374059672087792e-02) (173, -6.66920096774770154724e-01) (174, -3.13283923898451999168e-01) (175, -6.90352123804752193514e-01) (176, 1.04222467198444398995e-01) (177, -2.08291561810460754134e-02) (178, 1.84011599577078077683e-01) (179, 5.30124887738704503315e-02) (180, -1.78958471475802821660e-01) (181, 4.39261491932453118636e-01) (182, 3.04994489303473115260e-01) (183, -3.52903885673947592672e-01) (184, -8.54815542757085822245e-01) (185, 2.75772189350234953054e-01) (186, 4.39630169973234452563e-01) (187, -5.28760517402254492936e-01) (188, -1.11219652711359118236e+00) (189, -9.95670420145125856237e-01) (190, -8.99273039426515263806e-02) (191, 1.18209464673424330394e-01) (192, -3.67776467906078430303e-01) (193, 1.79158783636813201401e-01) (194, 7.80746482704860605972e-02) (195, -1.45037643942289296017e-01) (196, 2.93349615295313004282e-01) (197, -3.18360536209711553202e-01) (198, 5.74457061089027262724e-02) (199, 9.78422132101729319364e-02) (200, 4.43827309472043629590e-01) (201, -1.17231062885324299749e+00) (202, -2.32949901138107179355e-01) (203, 2.86052161267305871117e-01) (204, -4.25637529299079220291e-01) (205, 1.22842818725302602156e-01) (206, 1.69411888208598759853e+00) (207, -1.54062773055014005583e-03) (208, -9.97941315194068367944e-01) (209, 1.04223514066312153425e-01) (210, 2.24541434224966418576e-01) (211, -1.45580064785175089526e+00) (212, -1.60948856301087017684e+00) (213, -1.36901808736791386067e+00) (214, -1.14856697984134933921e-01) (215, 3.52740548227128303260e-01) (216, -9.17622084004735216745e-01) (217, 5.59233604160620401125e-01) (218, 1.87013056582233150316e+00) (219, 6.92596421936464423652e-01) (220, 6.22087461244311690223e-02) (221, 7.16995530778775785885e-02) (222, 2.44600820089520103184e-02) (223, 2.05636399924191382027e+00) (224, 5.10107313795430172831e-01) (225, -2.29594424962298493398e+00) (226, -1.61622871806685930451e+00) (227, 6.46274692455750421338e-01) (228, -1.39725936801709615942e+00) (229, -8.22186378753261726260e-01) (230, 2.74465964302395137864e+00) (231, 1.11565352047257526635e+00) (232, -3.65854854444765564825e-01) (233, -9.47174801611214589592e-01) (234, -6.91239427667113215392e-01) (235, -2.26199220238363052360e+00) (236, -2.17254956807285770637e+00) (237, -1.54730455709463288194e+00) (238, -7.47270263387680017120e-02) (239, 5.17334499899104294229e-01) (240, -1.77902442804608673654e+00) (241, -1.17420384843918967910e+00) (242, 3.64361245431248725879e+00) (243, 1.64317932993685822396e+00) (244, -1.65293466333311489525e-01) (245, -9.36332599216851191315e-01) (246, -1.44473197836046129972e+00) (247, 5.29052351004431908876e+00) (248, 9.23074131562727773215e-01) (249, -3.98313718597084509554e+00) (250, -2.68694170180623226329e+00) (251, 2.92824977712537515284e-01) (252, -2.00236928782665035698e+00) (253, -1.81741336638387762648e+00) (254, 4.82786132644206844589e+00) (255, 6.75452438292780121820e-01) (256, -1.16221927525192181285e+00) (257, -1.21845938883958782029e+00) (258, -1.12904424154235205613e+00) (259, -3.89264275367907153225e+00) (260, -8.12366211202589227902e-01) (261, -1.79593326246440132543e+00) (262, -9.69138275734576226661e-02) (263, 6.40958911084725246887e-01) (264, -3.11194440246316084142e+00) (265, -1.47819806383640783842e+00) (266, 5.79862067438765294014e+00) (267, 3.38188169830957363615e+00) (268, -6.41980166422019493666e-01) (269, -1.85124589363174729684e+00) (270, -2.98083785298706116507e+00) (271, 6.99131459745353378565e+00) (272, 7.19589208618655884475e-02) (273, -4.92006177271569189458e+00) (274, -3.88112034456944243743e+00) (275, -2.14019674807989668253e-01) (276, -2.85065853248627787409e+00) (277, -3.06476101670869072180e+00) (278, 7.25243509036332678619e+00) (279, 2.20816068718528502046e+00) (280, 1.21418176778332595478e-01) (281, -2.01305569038388032510e+00) (282, -2.60158243064579908221e+00) (283, -4.92053471167559841604e+00) (284, 5.90855961441617782981e-01) (285, -1.55387685087570637243e+00) (286, -1.11223565415503409387e-02) (287, -4.25229221582412719727e-03) (288, -3.91800993932261887309e+00) (289, -1.36144626193087892041e+00) (290, 1.92899733786193161578e+00) (291, 1.23703186587484070813e+00) (292, -1.19845856528178140721e+00) (293, -2.08045290384128511718e+00) (294, -2.24501145743624785922e+00) (295, 4.31301578507741911750e+00) (296, 6.52228680060697035836e-02) (297, -2.93057200657138761102e+00) (298, -3.29055933897010310929e+00) (299, -2.63825258581183275108e-01) (300, -2.27538994702310315432e+00) (301, -1.52070525152229407695e+00) (302, 9.65153880155294352505e+00) (303, 6.70754466602086263372e-01) (304, 1.00100660054906742680e+00) (305, -6.98502638211722870487e-01) (306, -1.11475315130849250700e+00) (307, -2.89631367941706185931e+00) (308, -4.22801206797594475439e-01) (309, -1.84224020110057251642e+00) (310, -5.98341054232199187624e-01) (311, 5.76433146975463439610e-01) (312, -2.53568745052144395302e+00) (313, -1.58029289541931761143e+00) (314, 3.86942986320983728366e-01) (315, 1.34106267024548841960e+00) (316, -8.13163326768049476989e-01) (317, -1.47059820370878524542e+00) (318, -4.03365307994269284286e-01) (319, 1.36150417726964989562e+00) (320, -6.48950525076100404043e-01) (321, -1.38959745359138531207e+00) (322, -2.66828139683400777926e+00) (323, -6.34846028132105444364e-01) (324, -2.10055841714167268464e+00) (325, -1.05078679328457691433e+00) (326, 6.76200596080746052507e+00) (327, 1.06916186206023211547e+00) (328, 7.50053147281825927095e-01) (329, 2.03055023776748139186e-01) (330, -7.39672187863885333137e-01) (331, -9.82500070752756471393e-01) (332, -1.03139991169348865796e+00) (333, -1.41060153773027829871e+00) (334, -8.14613717491433075857e-01) (335, 6.79395793556613170061e-01) (336, -2.41286604499691925696e+00) (337, -1.06824988078229199395e+00) (338, -7.77968537273013294175e-01) (339, 1.00290262083152237338e+00) (340, -8.87590449345839749284e-01) (341, -7.04897444048579679965e-01) (342, 4.54647933605760556919e-01) (343, -2.48023380923541619802e-01) (344, 4.24510091415431813078e-03) (345, -7.76087483833919455911e-01) (346, -2.12918494327078011707e+00) (347, -9.84820568733327572630e-01) (348, -1.65333986840452418221e+00) (349, -9.40316505381575296063e-01) (350, 5.03473925987647952240e+00) (351, 3.16915668711444664662e-01) (352, 1.12945047950447796659e+00) (353, -2.86735012832584457154e-01) (354, -4.06334759480812157673e-01) (355, 1.90491362443208217536e-01) (356, -1.08323260344316452120e+00) (357, -1.17827041252803788041e+00) (358, -7.74221696982875351445e-01) (359, 6.30376191467235558186e-01) (360, -1.51402394933572259639e+00) (361, -1.36998100216260465523e+00) (362, -2.03237264136138628956e+00) (363, -1.27350769804951774455e-01) (364, -1.94027113915613697026e-01) (365, -8.22679477950866266944e-01) (366, -2.47558288991831021431e-01) (367, -1.15379995546054936462e+00) (368, -2.37121926782627223673e-01) (369, 4.97660617723710729798e-01) (370, -6.95330677066550939536e-01) (371, -1.71056102692183942260e+00) (372, -2.30256630609353862837e-01) (373, 4.00246183768321051044e-02) (374, 2.24170735321122682748e+00) (375, -4.57893857082902755451e-01) (376, 2.92491970244727027273e-02) (377, -9.36383061090009446992e-03) (378, -2.47237337592590450397e-01) (379, 1.17136745173837275580e+00) (380, -7.15987080599017389204e-01) (381, -9.03074619678713830240e-01) (382, -5.61912314929692291443e-01) (383, 3.25233804948260207812e-01) (384, -1.30639524984414512332e+00) (385, -1.09811735593669101974e+00) (386, -1.85370998921774177148e+00) (387, -3.57201154736108084098e-01) (388, -1.49484334168956036620e-02) (389, -1.03669996531581798394e+00) (390, -6.42545835589696245904e-01) (391, -1.12603836532365164658e+00) (392, -4.46522919280782804030e-01) (393, 5.64969835892242144837e-01) (394, -4.37045149032238178233e-01) (395, -1.36828895052123766796e+00) (396, -7.67547644921765664927e-02) (397, 4.20080845385798137825e-02) (398, 7.91064578062578460660e-01) (399, -9.55353505327832586147e-01) (400, -4.14841056061040325265e-01) (401, 2.32569128203178404624e-01) (402, -1.57142318443262485328e-01) (403, 8.92040658345319092959e-01) (404, -1.20847824922353491717e-01) (405, -7.02223173888878893223e-01) (406, -3.75186084845296252688e-01) (407, 2.28560267096461960934e-01) (408, -7.55438813421798749381e-01) (409, -2.37814636167748866269e-01) (410, -1.06515665995615327333e+00) (411, -9.03406873933255832876e-02) (412, -7.74832824934874788564e-03) (413, -3.70704025787153113036e-01) (414, -3.53364957301766646758e-01) (415, -9.62246113645231160305e-01) (416, -5.27836602428793710828e-01) (417, 2.84838379282182987962e-02) (418, -1.09290568958396105970e+00) (419, -8.78617741877267488526e-01) (420, -3.98360569587156987392e-01) (421, -2.11720055939184748084e-01) (422, 5.24602500617101785707e-01) (423, -6.26272037615616783413e-01) (424, 2.54947135037260283474e-02) (425, 1.14650929969780698836e-01) (426, -1.29630884745990437867e-01) (427, 4.24634031349834628610e-01) (428, 9.29112447268639896070e-02) (429, -6.99960447749051528632e-01) (430, -1.59707013623973687055e-01) (431, -3.99742224777862933949e-02) (432, -7.99248985738995165740e-01) (433, -9.24522693847054322092e-01) (434, -6.61585776619249776864e-01) (435, -2.90761905183972380051e-01) (436, -2.10679226231891801591e-02) (437, -5.27946684597001114625e-01) (438, -3.17295923884079345001e-01) (439, -8.53888324182452307376e-01) (440, -1.70258569693848699211e-01) (441, -1.37254782447049222815e-01) (442, -4.42105637564015663266e-01) (443, -1.29792823322652783880e+00) (444, -5.24470890079888410473e-02) (445, 3.96485992051825053561e-01) (446, 9.92161033563872113428e-02) (447, -6.50389631501112730483e-01) (448, -1.92581817830486640153e-01) (449, 2.38570937903767515964e-01) (450, 3.27184124334152559577e-01) (451, -2.10922949347061489123e-01) (452, -3.19912497062534606496e-01) (453, -7.55708785251683501372e-01) (454, -3.10412041398507421164e-01) (455, 8.93012867311437745499e-03) (456, -2.91064215475316467874e-01) (457, -2.94992168957086464687e-01) (458, -8.92451452044349280435e-01) (459, -5.64193903164348142809e-01) (460, 3.83721453911196941355e-01) (461, -9.52563113141589590249e-01) (462, -9.46888830630218225615e-01) (463, -5.28748075771949488377e-01) (464, -4.76145774485317474500e-01) (465, -1.02420902306738170751e-01) (466, -1.21802746377674450673e-01) (467, -1.06260825871734754244e+00) (468, -6.67251899817965232753e-02) (469, 1.12630694637648132161e-01) (470, 3.61077723963235050486e-02) (471, -7.02183820891961296695e-01) (472, -1.97349676114746047650e-01) (473, 5.00662116330825024413e-01) (474, 4.72387077482564088360e-01) (475, 6.32128464493129493124e-03) (476, -3.47393635388000165953e-01) (477, -6.24630825417305191039e-01) (478, -2.05555095175816937569e-01) (479, 1.58893226654969910161e-01) (480, -7.15023054934427415574e-01) (481, -1.73502211243629356208e-01) (482, -6.08024134186900266918e-01) (483, -7.34610189395955986980e-02) (484, -1.98620398756301358434e-02) (485, -7.44983216715112139816e-01) (486, -7.16821197255073538912e-01) (487, -7.33156384823221762836e-01) (488, -3.68406571882101130377e-01) (489, -9.35851319366492184759e-02) (490, -9.25549053271846056123e-02) (491, -3.90151709423586956493e-01) (492, -5.10045603948250172999e-02) (493, 2.09938183931609234634e-01) (494, -1.72862744691306885469e-01) (495, -7.40396314371893016215e-01) (496, -3.86575531754259571482e-01) (497, 1.08427717602721712664e-01) (498, 1.68399423113071128322e-01) (499, -3.46262908627001542161e-01) (500, -1.20435695011553253742e-01) (501, -5.14254402431942092555e-01) (502, -1.93052069940426812567e-01) (503, 7.20350941731048438621e-02) (504, 2.20301096994701683940e-01) (505, -1.39538411557031699628e-01) (506, -2.37792173088392122526e-01) (507, -7.13702020436569883888e-02) (508, 4.10140654623315989435e-02) (509, -3.35593278549254248055e-01) (510, -4.25547999826585254812e-01) (511, -2.32104995748316139670e-01) (512, -4.23272041265240650532e-01) (513, -3.95125487465935287812e-01) (514, -7.10615075297663767451e-01) (515, -2.87331378859988606500e-01) (516, -5.77130596452990363154e-01) (517, -3.61324116115467552923e-01) (518, 9.09303220614620516526e-02) (519, -2.06088700258105772534e-01) (520, 1.05864347719584708796e-01) (521, 3.03893627017920275879e-01) (522, -8.56554850927333799593e-02) (523, -5.50395782751011974909e-01) (524, -9.01566377628529869170e-01) (525, -3.31419078136012068558e-01) (526, -1.93862099705853691001e-01) (527, -6.34647365496232313681e-03) (528, -1.12919674736932124093e-01) (529, -4.70366612416352414261e-01) (530, -3.99803121362690749852e-01) (531, -1.08623903950636244153e-01) (532, 2.95424626402123226276e-02) (533, -7.83817977014268585378e-01) (534, -6.47378312341072459368e-01) (535, -9.47231749527505662023e-01) (536, -3.52463325301842433923e-01) (537, 1.28198973206944372150e-01) (538, 1.52287042873017086642e-01) (539, -8.75137267829812492970e-01) (540, 1.11024518213506867559e-01) (541, 8.96998538609019568923e-02) (542, -2.06924533944295746535e-01) (543, -3.45267992846624849346e-01) (544, -2.15381100321415747123e-01) (545, 3.21342723807512942180e-01) (546, 2.18121999815434619574e-01) (547, -7.09499830776283563205e-02) (548, -5.64589462219896587314e-01) (549, -3.52871525227368698641e-01) (550, -1.61516374824413083688e-01) (551, -1.52141412991395108545e-01) (552, -6.81861613578170322469e-01) (0, -2.35624862805226542584e-01) (1, 