FANN_FLO_2.1
num_layers=3
learning_rate=0.010000
connection_rate=1.000000
network_type=0
learning_momentum=0.100000
training_algorithm=0
train_error_function=1
train_stop_function=0
cascade_output_change_fraction=0.010000
quickprop_decay=-0.000100
quickprop_mu=1.750000
rprop_increase_factor=1.200000
rprop_decrease_factor=0.500000
rprop_delta_min=0.000000
rprop_delta_max=50.000000
rprop_delta_zero=0.100000
cascade_output_stagnation_epochs=12
cascade_candidate_change_fraction=0.010000
cascade_candidate_stagnation_epochs=12
cascade_max_out_epochs=150
cascade_max_cand_epochs=150
cascade_num_candidate_groups=2
bit_fail_limit=3.49999999999999977796e-01
cascade_candidate_limit=1.00000000000000000000e+03
cascade_weight_multiplier=4.00000000000000022204e-01
cascade_activation_functions_count=10
cascade_activation_functions=3 5 7 8 10 11 14 15 16 17 
cascade_activation_steepnesses_count=4
cascade_activation_steepnesses=2.50000000000000000000e-01 5.00000000000000000000e-01 7.50000000000000000000e-01 1.00000000000000000000e+00 
layer_sizes=69 71 4 
scale_included=0
neurons (num_inputs, activation_function, activation_steepness)=(0, 0, 0.00000000000000000000e+00) (0, 0, 0.00000000000000000000e+00) (0, 0, 0.00000000000000000000e+00) (0, 0, 0.00000000000000000000e+00) (0, 0, 0.00000000000000000000e+00) (0, 0, 0.00000000000000000000e+00) (0, 0, 0.00000000000000000000e+00) (0, 0, 0.00000000000000000000e+00) (0, 0, 0.00000000000000000000e+00) (0, 0, 0.00000000000000000000e+00) (0, 0, 0.00000000000000000000e+00) (0, 0, 0.00000000000000000000e+00) (0, 0, 0.00000000000000000000e+00) (0, 0, 0.00000000000000000000e+00) (0, 0, 0.00000000000000000000e+00) (0, 0, 0.00000000000000000000e+00) (0, 0, 0.00000000000000000000e+00) (0, 0, 0.00000000000000000000e+00) (0, 0, 0.00000000000000000000e+00) (0, 0, 0.00000000000000000000e+00) (0, 0, 0.00000000000000000000e+00) (0, 0, 0.00000000000000000000e+00) (0, 0, 0.00000000000000000000e+00) (0, 0, 0.00000000000000000000e+00) (0, 0, 0.00000000000000000000e+00) (0, 0, 0.00000000000000000000e+00) (0, 0, 0.00000000000000000000e+00) (0, 0, 0.00000000000000000000e+00) (0, 0, 0.00000000000000000000e+00) (0, 0, 0.00000000000000000000e+00) (0, 0, 0.00000000000000000000e+00) (0, 0, 0.00000000000000000000e+00) (0, 0, 0.00000000000000000000e+00) (0, 0, 0.00000000000000000000e+00) (0, 0, 0.00000000000000000000e+00) (0, 0, 0.00000000000000000000e+00) (0, 0, 0.00000000000000000000e+00) (0, 0, 0.00000000000000000000e+00) (0, 0, 0.00000000000000000000e+00) (0, 0, 0.00000000000000000000e+00) (0, 0, 0.00000000000000000000e+00) (0, 0, 0.00000000000000000000e+00) (0, 0, 0.00000000000000000000e+00) (0, 0, 0.00000000000000000000e+00) (0, 0, 0.00000000000000000000e+00) (0, 0, 0.00000000000000000000e+00) (0, 0, 0.00000000000000000000e+00) (0, 0, 0.00000000000000000000e+00) (0, 0, 0.00000000000000000000e+00) (0, 0, 0.00000000000000000000e+00) (0, 0, 0.00000000000000000000e+00) (0, 0, 0.00000000000000000000e+00) (0, 0, 0.00000000000000000000e+00) (0, 0, 0.00000000000000000000e+00) (0, 0, 0.00000000000000000000e+00) (0, 0, 0.00000000000000000000e+00) (0, 0, 0.00000000000000000000e+00) (0, 0, 0.00000000000000000000e+00) (0, 0, 0.00000000000000000000e+00) (0, 0, 0.00000000000000000000e+00) (0, 0, 0.00000000000000000000e+00) (0, 0, 0.00000000000000000000e+00) (0, 0, 0.00000000000000000000e+00) (0, 0, 0.00000000000000000000e+00) (0, 0, 0.00000000000000000000e+00) (0, 0, 0.00000000000000000000e+00) (0, 0, 0.00000000000000000000e+00) (0, 0, 0.00000000000000000000e+00) (0, 0, 0.00000000000000000000e+00) (69, 3, 5.00000000000000000000e-01) (69, 3, 5.00000000000000000000e-01) (69, 3, 5.00000000000000000000e-01) (69, 3, 5.00000000000000000000e-01) (69, 3, 5.00000000000000000000e-01) (69, 3, 5.00000000000000000000e-01) (69, 3, 5.00000000000000000000e-01) (69, 3, 5.00000000000000000000e-01) (69, 3, 5.00000000000000000000e-01) (69, 3, 5.00000000000000000000e-01) (69, 3, 5.00000000000000000000e-01) (69, 3, 5.00000000000000000000e-01) (69, 3, 5.00000000000000000000e-01) (69, 3, 5.00000000000000000000e-01) (69, 3, 5.00000000000000000000e-01) (69, 3, 5.00000000000000000000e-01) (69, 3, 5.00000000000000000000e-01) (69, 3, 5.00000000000000000000e-01) (69, 3, 5.00000000000000000000e-01) (69, 3, 5.00000000000000000000e-01) (69, 3, 5.00000000000000000000e-01) (69, 3, 5.00000000000000000000e-01) (69, 3, 5.00000000000000000000e-01) (69, 3, 5.00000000000000000000e-01) (69, 3, 5.00000000000000000000e-01) (69, 3, 5.00000000000000000000e-01) (69, 3, 5.00000000000000000000e-01) (69, 3, 5.00000000000000000000e-01) (69, 3, 5.00000000000000000000e-01) (69, 3, 5.00000000000000000000e-01) (69, 3, 5.00000000000000000000e-01) (69, 3, 5.00000000000000000000e-01) (69, 3, 5.00000000000000000000e-01) (69, 3, 5.00000000000000000000e-01) (69, 3, 5.00000000000000000000e-01) (69, 3, 5.00000000000000000000e-01) (69, 3, 5.00000000000000000000e-01) (69, 3, 5.00000000000000000000e-01) (69, 3, 5.00000000000000000000e-01) (69, 3, 5.00000000000000000000e-01) (69, 3, 5.00000000000000000000e-01) (69, 3, 5.00000000000000000000e-01) (69, 3, 5.00000000000000000000e-01) (69, 3, 5.00000000000000000000e-01) (69, 3, 5.00000000000000000000e-01) (69, 3, 5.00000000000000000000e-01) (69, 3, 5.00000000000000000000e-01) (69, 3, 5.00000000000000000000e-01) (69, 3, 5.00000000000000000000e-01) (69, 3, 5.00000000000000000000e-01) (69, 3, 5.00000000000000000000e-01) (69, 3, 5.00000000000000000000e-01) (69, 3, 5.00000000000000000000e-01) (69, 3, 5.00000000000000000000e-01) (69, 3, 5.00000000000000000000e-01) (69, 3, 5.00000000000000000000e-01) (69, 3, 5.00000000000000000000e-01) (69, 3, 5.00000000000000000000e-01) (69, 3, 5.00000000000000000000e-01) (69, 3, 5.00000000000000000000e-01) (69, 3, 5.00000000000000000000e-01) (69, 3, 5.00000000000000000000e-01) (69, 3, 5.00000000000000000000e-01) (69, 3, 5.00000000000000000000e-01) (69, 3, 5.00000000000000000000e-01) (69, 3, 5.00000000000000000000e-01) (69, 3, 5.00000000000000000000e-01) (69, 3, 5.00000000000000000000e-01) (69, 3, 5.00000000000000000000e-01) (69, 3, 5.00000000000000000000e-01) (0, 3, 0.00000000000000000000e+00) (71, 3, 5.00000000000000000000e-01) (71, 3, 5.00000000000000000000e-01) (71, 3, 5.00000000000000000000e-01) (0, 3, 0.00000000000000000000e+00) 
connections (connected_to_neuron, weight)=(0, -5.28780522864943036687e-01) (1, -8.90426929091299834695e-01) (2, -3.66932824835304871591e-01) (3, -1.42044381486663817693e-01) (4, -9.53411449174329850287e-01) (5, -3.61583230372508057648e-01) (6, -3.18955777935338247175e-01) (7, 1.16785814392019918206e-01) (8, -3.11053573418653139804e-01) (9, -3.78738868049213694977e-01) (10, -1.25319594952101071028e-01) (11, -2.71319695892617562816e-01) (12, 2.76172176921841372454e-01) (13, -3.09114557430441194708e-01) (14, -1.24173435944385693319e-01) (15, -4.38773176029892242322e-01) (16, -6.73526737231285310692e-02) (17, -1.03895771682452078832e-01) (18, -5.24071726874173582367e-01) (19, -2.15979961589826352508e-01) (20, 2.67536854137537111198e-02) (21, -3.64244562653480430381e-01) (22, -6.37969617387516452212e-01) (23, 7.65751274108077226860e-03) (24, -2.91744936113829733682e-01) (25, 1.98657182550001670807e-01) (26, -1.24911219831583131246e+00) (27, 2.61275356207147854692e-03) (28, -3.14125122853043170501e-01) (29, 1.14727599498923771293e+00) (30, -8.40396209912734004632e-01) (31, 2.76223620387011259414e-01) (32, -1.40428484636710915190e+00) (33, 2.71711319496256775707e+00) (34, 2.73638115857001928966e-01) (35, -1.45878493785858154297e-02) (36, 4.11651865100985059343e-01) (37, 3.99343580516680785042e-01) (38, -4.42739091701158438141e-01) (39, 5.97078849614422896286e-02) (40, -3.19696343728218590474e-01) (41, 1.00548326929790343698e+00) (42, -5.72368426059518875526e-01) (43, 3.62094460922052829854e-01) (44, 3.79846697119097187478e-01) (45, -5.14117634340754747768e-01) (46, 7.41114556302641946939e-02) (47, 1.15076625542583049766e-01) (48, 7.48681312464530734907e-01) (49, -2.21031788885969471270e-02) (50, -3.21285641263333199280e-01) (51, -4.22794636942918411471e-01) (52, -1.74945054358612364642e-02) (53, 5.00134439755283266571e-01) (54, -8.63167512830470329277e-01) (55, -8.19853076673229957949e-02) (56, -6.71312072996707365213e-01) (57, 4.62189419556616853946e-01) (58, -8.53142641883391061874e-01) (59, 3.42101972621799976793e-01) (60, -6.71796804570289562974e-01) (61, -2.64772575250472042008e-01) (62, 2.18905478221766078284e-02) (63, 7.15165970684778357080e-02) (64, -4.45516860556648575109e-01) (65, -1.76301912143074834827e-01) (66, 1.30052103311291827881e-01) (67, -1.32642964019023978928e-01) (68, -8.72406227922239096984e-01) (0, -5.37198339249970513443e-01) (1, -1.71789799616583443997e-01) (2, 6.21282327280820223514e-01) (3, -4.15712999082067324874e-01) (4, -1.02321711828948469503e+00) (5, 4.82070948011810218592e-01) (6, 3.01345914080674681657e-01) (7, -2.59068112956128249191e-01) (8, -6.90458769764616842046e-01) (9, 2.61651721663213654434e-01) (10, 1.73369705658821732230e-01) (11, -1.43401747533157153391e-01) (12, 2.09551244242507567206e-01) (13, 3.41803607402649478608e-01) (14, -1.02755858390147825077e+00) (15, 2.74377552096837402928e-02) (16, 4.87436930968993487046e-01) (17, -1.59977562700670816742e-02) (18, -1.00114883359160367071e+00) (19, 1.96523504116562525157e-01) (20, 7.45655015385871089428e-01) (21, -1.89652205743455759546e-01) (22, -1.32521234715194857756e+00) (23, -3.41215366105266024177e-02) (24, 8.11565992893968579658e-01) (25, -3.91916107427627946613e-01) (26, -1.38610869133507286222e+00) (27, -4.92841725868318342174e-02) (28, -1.77465706111232052189e-01) (29, -7.20690239119371245380e-01) (30, 3.07219532837411157811e-01) (31, -2.93423374327635932968e-01) (32, -2.36510570222798666151e+00) (33, -3.16940595578298678348e-01) (34, 1.18317441289279257077e+00) (35, -1.59404724836349487305e-02) (36, -2.48217775385885547346e-01) (37, -3.77096878436234128618e-01) (38, -3.12633413334485465995e-01) (39, -1.88033958812497847823e-01) (40, -3.83208910274494329862e-01) (41, 3.37780804317185101571e-01) (42, -8.08201788146445498917e-01) (43, -1.14054890675171799463e-01) (44, 1.60077894468449999366e-01) (45, -4.97997247095409656392e-01) (46, -7.06454225551297110286e-01) (47, -1.96840997727496497260e-01) (48, -1.28343924709499124237e-01) (49, 8.73637321467352206961e-02) (50, -1.62870312271566702877e-01) (51, -8.04381309436233149501e-02) (52, -5.67013348748637846519e-01) (53, 4.66222129028912024573e-01) (54, -2.67600777736952788466e-01) (55, 1.21591639680663388123e-01) (56, -3.87420321348903418102e-01) (57, -1.46186836466048880601e-01) (58, -2.50337295388462888202e-01) (59, -1.40012352501944936645e-01) (60, -4.31674024857990390469e-01) (61, -1.09895611075665908252e-01) (62, 9.38497065582100942205e-02) (63, -2.47149999502784795125e-01) (64, 4.52043019589610961528e-01) (65, -6.48055476793847229366e-01) (66, 2.42130593139390587476e-01) (67, -5.46030836421426912786e-01) (68, -5.59781563687785310712e-01) (0, 3.93441482790121699331e-01) (1, -1.06144855245431135593e+00) (2, -4.87339309893870586965e-01) (3, 8.74337771584753897791e-02) (4, -1.12161519517584989947e-01) (5, -1.98520690121938903072e-01) (6, 6.81828450486368295436e-03) (7, -4.92391355511061667993e-01) (8, -6.80180999356619797602e-01) (9, -3.64020259034531683609e-03) (10, 5.44510680487641646197e-02) (11, -4.36720593948836000031e-01) (12, -3.45625345477144185757e-01) (13, -1.58917262417883120573e-01) (14, -3.76778784367569286040e-01) (15, -1.22257943895721143956e-01) (16, -1.04541004467867049144e+00) (17, 6.32607099209291812159e-01) (18, -1.34603688443703761735e+00) (19, -1.23652814501365476696e-01) (20, -9.38964221660119391366e-01) (21, 3.51882981561628949141e-01) (22, -7.34985615623842680755e-01) (23, -3.71247308833409672690e-01) (24, -3.67648004247051851667e-01) (25, -5.52776771346215722858e-01) (26, 1.87554979560389217808e-01) (27, -5.36851881392394925108e-01) (28, -1.62523679684411392898e+00) (29, -2.23385613767392909867e-01) (30, 4.28484138766934807840e-01) (31, -4.39257017347649103556e-01) (32, -2.78354940073437973069e+00) (33, -5.18707427564501846740e-02) (34, 1.40695200635397288380e+00) (35, 3.41209694743156433105e-02) (36, -1.61127660092580371476e+00) (37, 1.51274855095485299961e-01) (38, 1.46338217852197760571e+00) (39, -3.60662913536034690498e-01) (40, -1.20314057135814800326e+00) (41, 1.07926193627926103602e+00) (42, 7.28817307840181949352e-01) (43, 9.84693846150632851044e-02) (44, -1.10290711177419065159e+00) (45, 1.51680061870386384548e+00) (46, 4.58003015580222827552e-02) (47, -2.15653108116617392431e-01) (48, -3.24937150985031841799e-01) (49, 8.36189553386491923881e-01) (50, -1.22934183781115119460e-01) (51, -1.52269480570503795702e-01) (52, -5.69924408934235834923e-02) (53, 5.63571844049971737434e-01) (54, -3.39535246813606139682e-01) (55, -4.27041222144563137331e-01) (56, 1.13900716633349892437e-02) (57, 7.04853007224644362294e-02) (58, -1.25307081348878607274e-01) (59, -4.91359629419278964857e-01) (60, 4.73047946076542227822e-02) (61, -8.83103919420103883331e-02) (62, -3.41779053875078397962e-02) (63, -7.06642850055194893244e-01) (64, 7.39004660879186009437e-02) (65, -5.35378542113635336186e-01) (66, -2.50982406142469915977e-01) (67, -9.95542272240145464934e-01) (68, -1.23885456968520202281e+00) (0, 1.31633234441765639700e-01) (1, -1.49707743243534863176e-01) (2, -9.03595678551842085291e-01) (3, -3.94391878820768926328e-01) (4, -4.61417981104456781383e-02) (5, -1.81706999588031714588e-01) (6, -5.78435068343749470010e-01) (7, -1.75631846297392785194e-01) (8, 6.25838068547513448614e-02) (9, -2.34155347542784358916e-01) (10, -4.72486361678577493350e-01) (11, -3.06746087735650860284e-02) (12, 1.55626998099255703378e-01) (13, -3.27086337159536610919e-01) (14, -4.90978246894574366088e-01) (15, -3.44083087453583236215e-01) (16, 3.85097244358137968945e-01) (17, -9.04429065918044727823e-01) (18, -1.70447858427015513927e-01) (19, -3.67028257172215433002e-01) (20, 1.72411737099646383831e-01) (21, -8.28961555527286009237e-01) (22, -3.53806481260831307001e-01) (23, -9.21692332600712732615e-02) (24, -2.44373325608404717846e-01) (25, -2.26271199250452775820e-01) (26, -6.46358162291964299939e-01) (27, 1.88163435762087355441e-01) (28, 2.05693503867821259057e-01) (29, -2.66852718404667170471e-02) (30, -1.21549836700615698781e+00) (31, -2.02268329495155607667e-01) (32, -6.97034630813858968601e-01) (33, 9.18050238022103504143e-01) (34, -9.58596615162425891299e-01) (35, -6.27585053443908691406e-02) (36, -6.36166940607747699588e-01) (37, 1.06510090992748662764e+00) (38, -3.98597274417303026883e-01) (39, -1.14166179229588285460e-01) (40, -4.20037607268882118294e-01) (41, 2.60804163223266216587e-01) (42, -1.29138820404195497904e-01) (43, 4.62678073219662117088e-02) (44, -5.59882216615517736003e-01) (45, 1.04375363165670961840e-02) (46, 4.18933969096076108674e-02) (47, -5.87654825709450490123e-02) (48, -8.24353156819751187179e-01) (49, 9.89561409535235497748e-02) (50, 3.71494714477349829984e-01) (51, 2.93692842274786758416e-01) (52, -1.00711674485247071331e+00) (53, 1.59811047969081743148e-01) (54, 4.54616192351178227682e-01) (55, 2.50027814076958732059e-01) (56, -9.07175943937461259914e-01) (57, 5.49757354701508216266e-01) (58, 3.34020184207027115431e-01) (59, 3.22918109187053048448e-01) (60, -1.00063818786298419639e+00) (61, 1.19654725076975565479e+00) (62, -7.22494241912555734686e-02) (63, 1.37163401758784386786e-01) (64, -6.73182720514131638367e-01) (65, 1.50410636663506136479e+00) (66, -5.07935247406399170700e-01) (67, 1.57258680976580578204e-01) (68, -1.11442187607258991200e+00) (0, -8.08920158735073835388e-01) (1, 4.55600454716641900532e-01) (2, -2.34092303043954896857e-01) (3, -1.71507901202073181901e-01) (4, -5.03498052906952708874e-02) (5, 2.94817342586206232458e-01) (6, -6.17057416892027532640e-01) (7, -2.97433494635083228719e-01) (8, 9.66700179561110067850e-02) (9, 2.51180627096287308053e-02) (10, -5.67882629372260305800e-01) (11, -3.97294530030579060020e-02) (12, 2.33790055335369451051e-01) (13, -1.60311316971099154793e-01) (14, -2.08297722264002310721e-01) (15, 5.89454464386494902950e-02) (16, 2.39051890080979684283e-01) (17, -4.66961564953901120401e-01) (18, 1.12743169875587426199e-01) (19, 1.55304447907878267338e-02) (20, -1.57937856002098808705e-01) (21, -2.76478588807467617894e-01) (22, 3.51554481101744142890e-01) (23, -1.65656285229134253578e-01) (24, 3.89094758034391974277e-01) (25, -2.01961027401627218891e-01) (26, -2.93782710563435578432e-01) (27, -1.79444152794583366983e-01) (28, -2.12590738549465307905e-01) (29, -1.39653025146427883785e-01) (30, -3.96347971307657920281e-01) (31, -2.21590800427675232998e-01) (32, -1.71123708751692960028e+00) (33, 6.43849844948103933184e-02) (34, 9.04579555401415102978e-01) (35, 5.06731942296028137207e-02) (36, -6.11242580225613396649e-01) (37, -6.95643295227839908446e-02) (38, 3.83984140628257974992e-01) (39, -1.41179781029993595132e-01) (40, 2.63454447973796059002e-02) (41, -2.75189596999821983747e-01) (42, -1.13219066125313114202e-01) (43, -1.48175815531026544569e-01) (44, 2.75429635594366950535e-01) (45, -3.12683347164588315570e-02) (46, -6.54594679910691978897e-01) (47, -2.17554273926252761395e-01) (48, 3.21114692051680417073e-01) (49, -1.21876625456659268276e-01) (50, -5.86211142142872843053e-01) (51, -1.41505122898246099572e-01) (52, 2.80023565790616379978e-01) (53, -2.86207388056134270915e-01) (54, -4.16535274828662593904e-01) (55, -6.10359608581370009089e-03) (56, -3.16109109522658249247e-01) (57, -2.39301323379202762753e-01) (58, -2.66941341967613376962e-01) (59, -3.19785614950654217825e-01) (60, -5.78572790979388740240e-01) (61, -6.63003429715351838558e-02) (62, 1.20717472213828780347e-02) (63, -2.66963637050470048440e-01) (64, -5.37634318713251069255e-01) (65, -2.95779869796091443579e-01) (66, 2.38517269958892719206e-01) (67, -4.59440057993060313457e-01) (68, -5.87157320700834484128e-01) (0, -3.22168685356862161129e-01) (1, -3.44237905563484658522e-01) (2, 6.62449186897662301021e-01) (3, -1.92644793075441647656e-02) (4, 2.41588241466321046458e-01) (5, 2.74889573100269124506e-01) (6, -2.01081350358522953359e-01) (7, 1.73653933136679122784e-01) (8, 3.68072664349943123874e-01) (9, 4.79284050928602878283e-01) (10, -4.76615496058368837140e-01) (11, -1.50063400210560748960e-01) (12, 4.60294518373260241884e-01) (13, 2.39433951354786761501e-01) (14, -4.38144609461830425445e-01) (15, 1.45075732471556140268e-01) (16, 6.09084688458086595531e-02) (17, -5.24249722119300848311e-02) (18, 2.10842840573376211211e-01) (19, 4.48572875137453822014e-02) (20, -4.06275925698975859390e-01) (21, 6.31708840364569534920e-01) (22, -2.78076661371707500869e-01) (23, -1.62443324128007410279e-01) (24, -2.88668726292665822619e-01) (25, 6.30888377923948695525e-01) (26, -2.23988625803369395539e-01) (27, -1.16553258613743646044e-01) (28, -8.19521269831959942032e-01) (29, 4.06210433381795077423e-01) (30, 8.69648684486025502771e-01) (31, -4.71957011065563536434e-02) (32, -4.88095110332931514385e-01) (33, 9.77460306390195987625e-01) (34, 6.05917590252686322216e-01) (35, 2.11839824914932250977e-02) (36, -1.62015451872628823971e+00) (37, 1.68765287036548383703e+00) (38, -2.96731382204871385611e-01) (39, -2.69376099571471405714e-01) (40, -1.83223854901657534633e+00) (41, 7.00025056032804959827e-01) (42, -1.06447235305143061979e+00) (43, -1.51916839166249401094e-01) (44, -5.38931446872526032088e-01) (45, -3.65298551784811020848e-01) (46, -1.29907383795705455576e+00) (47, -5.40271408258663488056e-01) (48, 4.79647138449682819417e-01) (49, -7.22434043334530873182e-01) (50, -9.52718540508446398718e-01) (51, 2.24893406220198155410e-01) (52, 1.00588405182444895480e+00) (53, -1.28151425696636067642e+00) (54, -3.91565302462550168805e-01) (55, 4.13672127675587586459e-01) (56, 5.46111071700896788528e-01) (57, -1.43400180114067055115e+00) (58, -2.54068888791081859413e-01) (59, 2.14640603246469247045e-01) (60, -8.23723546517332871897e-02) (61, -1.35145461822409429509e+00) (62, 1.62295272967800136010e-01) (63, -3.49225348051096784463e-01) (64, 2.82195498425357849115e-01) (65, -2.01178427786336300187e+00) (66, -2.72848942952203632473e-01) (67, -5.93474286083615409915e-01) (68, -2.08169198235545627185e+00) (0, -1.58032427136895220476e-01) (1, 4.54501726163683700266e-02) (2, -6.68799149748185717268e-02) (3, 2.67765961798975105079e-01) (4, 4.81998118682932297219e-01) (5, 3.93238726411799729976e-03) (6, -5.74633594521221091611e-01) (7, -3.76152223133989549453e-01) (8, 2.32678468798956844532e-01) (9, -9.11259827901892305313e-01) (10, 7.10841280560730605885e-04) (11, -6.61491136968873627566e-02) (12, -1.62900602915660469572e-01) (13, -5.38883636995287962357e-01) (14, -1.50287125892786838088e-01) (15, 4.89027908941773781226e-01) (16, 6.15701907878171070254e-02) (17, -3.27725473584966509044e-01) (18, -5.79979051686739466298e-01) (19, 3.30317507733934312419e-01) (20, -7.29760002530444318314e-02) (21, -2.47778276309145978340e-01) (22, 4.94531319485286779969e-01) (23, -3.33343983239143548669e-01) (24, -7.82513720953056601815e-01) (25, -4.41100078108162263479e-01) (26, 7.46789113042239272033e-01) (27, -1.42562325602835743288e-01) (28, -2.06717318819890483184e+00) (29, 4.69035179526903767133e-01) (30, 5.09024426222648096463e-01) (31, -1.57704174073081071494e-01) (32, -3.11368304177975430136e+00) (33, 1.14114079990857542057e+00) (34, 7.72096135544125150574e-01) (35, 2.71936729550361633301e-02) (36, -1.47666799292964334711e+00) (37, 1.81299842729912979999e-01) (38, 5.11089846572377104472e-01) (39, -1.57857952638969817327e-01) (40, -8.82744119903849489006e-01) (41, -9.37036543820250616976e-02) (42, 4.78956101762764652197e-01) (43, -1.57346002067658308210e-01) (44, -7.35855395160663339205e-01) (45, -1.67050972673029318738e-01) (46, 1.56213380186941114269e-01) (47, -3.26598100041893102397e-01) (48, -8.40979211940273974069e-02) (49, -7.26828948128358076630e-01) (50, -1.84327847544291489879e-01) (51, -6.24068486398440369634e-01) (52, -1.92510926161061329820e-01) (53, -5.99888877420265087537e-01) (54, -6.72202193330570102470e-02) (55, -5.70579452632609673834e-01) (56, -4.40519103987691063029e-01) (57, -9.27152173270451185338e-01) (58, 1.47738956482458216879e-01) (59, -6.07433773609554306105e-01) (60, -8.52577614220811019763e-01) (61, -2.90460165493855615448e-01) (62, 1.18140431086922487181e-01) (63, 1.92945030491849657366e-03) (64, -5.44653619226717955470e-01) (65, -1.23233924779540385264e-01) (66, 9.04714033186981569923e-02) (67, 3.12505724666161943670e-01) (68, -2.56686771400909752652e-03) (0, -3.61471925526509030302e-01) (1, -4.65965010491972642104e-01) (2, -1.52326493940158791407e-01) (3, -1.27157082349521138864e-01) (4, -3.37730620387569013818e-01) (5, -5.41911240227724966267e-01) (6, 2.09966783860837356845e-02) (7, -3.38752078344749379957e-02) (8, -2.29772281295284930280e-01) (9, -6.87152665366701498328e-01) (10, 7.02765179853702681712e-02) (11, 2.90858218870448312354e-02) (12, -2.77066547782971010772e-02) (13, -7.23907981546509482484e-01) (14, 3.77134028999503989610e-02) (15, -1.23831518561830250524e-01) (16, 6.35455168262734182427e-01) (17, -1.00275006673916533551e+00) (18, -4.26002386876335528698e-02) (19, -2.78513770858165532474e-01) (20, 4.72940327683533834335e-01) (21, -9.21580561606630044302e-01) (22, -6.44761957326428231801e-03) (23, -1.68460364690816599698e-01) (24, 8.51265847098735400911e-02) (25, -1.88834670358745855545e-02) (26, -3.05313420645326349945e-01) (27, -3.04818466445670246956e-02) (28, 8.66586078545436427900e-02) (29, 4.48922060751111795529e-01) (30, -8.04693310148955620598e-01) (31, 7.59779047587861417444e-04) (32, -4.62659371478696679336e-01) (33, 1.17189893793973687330e+00) (34, -8.71617720159493347687e-01) (35, 9.38963517546653747559e-02) (36, -4.75885110754263818134e-01) (37, 6.71933827160324681493e-01) (38, -3.17797946711069756454e-01) (39, -1.31175775993646992479e-01) (40, -4.11866166870230920871e-01) (41, 1.19739747357214265655e-01) (42, -2.99526458399716810632e-01) (43, -9.22539260085331741523e-02) (44, -1.59580444463075177275e-01) (45, 5.09533196096485785365e-04) (46, -4.36818135633403548113e-01) (47, -1.78483419158215417255e-01) (48, -2.97986277544910416193e-01) (49, 6.26229539338211127486e-02) (50, -4.00118767175781486767e-01) (51, -2.49880026063690960370e-02) (52, -1.02541214479530073955e-01) (53, 3.80000534972114029086e-02) (54, -2.40109514605296003875e-01) (55, -1.98899574181661709105e-01) (56, 2.26198416270096208658e-01) (57, -1.85542256024290141969e-01) (58, -1.26432263077294215758e-01) (59, -3.25162433950009654993e-01) (60, 2.05172980925057285573e-01) (61, -1.17550579770534041613e-01) (62, -2.17812684089401353837e-01) (63, -4.65153018894367331626e-01) (64, 1.78630304928512007034e-01) (65, -4.63563871413782205289e-02) (66, -3.48723486681197014647e-01) (67, -4.32069110698833747097e-01) (68, -1.18865029627319396255e+00) (0, -3.66331367180659617233e-01) (1, 2.81773834991846883202e-01) (2, 4.37681322269403538794e-01) (3, -1.66860628319776105322e-01) (4, 2.21483606696676271763e-01) (5, 1.08875990394622992885e-01) (6, -4.81961469120571889269e-02) (7, -3.94431804013231079864e-01) (8, 1.58184897389167494763e-01) (9, 3.61361062308417288480e-02) (10, -4.44456300438997142788e-01) (11, -1.52286747773469621769e-01) (12, 1.23527065820699583076e-01) (13, -5.89228807733556125825e-01) (14, 1.12151117827993057618e-01) (15, -1.88186201572048128483e-01) (16, -2.19162343638648025868e-02) (17, -4.34902751415852217853e-01) (18, 3.19200109980882551497e-01) (19, -1.74775791109574502036e-01) (20, -6.07451018797857789089e-01) (21, -4.47816826180005789215e-01) (22, 4.35736592083365514849e-01) (23, -1.07129955110274094343e-01) (24, -1.40817015146733526265e+00) (25, 5.88763397364565864434e-03) (26, 4.25779523450357522130e-01) (27, -2.61046050537788953960e-01) (28, -1.05415235442455768045e+00) (29, 3.48985263692161762350e-01) (30, -4.58818437273249446484e-01) (31, 6.08138028093454963141e-01) (32, 2.24216696453649300125e+00) (33, -2.11135096277820499822e+00) (34, -1.27740587685443074406e+00) (35, -2.14221850037574768066e-02) (36, -5.40697110448282058925e-01) (37, 4.51910461720292755405e-01) (38, -9.14000536840074429001e-01) (39, 7.76501934905168611500e-01) (40, -7.60249232769774629936e-02) (41, 2.49325868933592126320e-02) (42, -5.89612474856250678990e-01) (43, -9.82790598926908814947e-02) (44, 3.20580077956536882433e-02) (45, 4.83527218035156580722e-02) (46, 1.97158004191293562135e-01) (47, -3.12657960830904801952e-01) (48, -1.02242526627927699662e-02) (49, -4.47172530993883154959e-01) (50, 2.90318006511695141103e-02) (51, -3.82058276341638580753e-01) (52, 1.65799080318701809456e-02) (53, -2.63584681896899208908e-01) (54, 5.23987518981515965066e-01) (55, -2.80813308301422981383e-01) (56, 2.47723761264201786103e-01) (57, -3.72250735508099950266e-01) (58, 1.13293814478337390161e-01) (59, -3.54844140237229599411e-01) (60, 1.07722112435737656100e-02) (61, -3.52773966507731948083e-02) (62, -4.78521578968713195978e-02) (63, -2.19169186467792320716e-01) (64, 1.77687330820068489778e-01) (65, 1.13883122870986480679e-01) (66, -3.24530929549340485529e-01) (67, -5.37344684765482250022e-02) (68, -5.48642057995787801872e-01) (0, 1.03938828184556741885e-01) (1, -1.91939573199533863868e-01) (2, -1.67111882400084676981e-01) (3, -1.32486418307500047886e-01) (4, -1.50175637759528635140e-01) (5, -1.31450051607305856693e-01) (6, -2.97194912652596517078e-02) (7, -1.48844524985478621204e-01) (8, -2.15463370661880065926e-01) (9, -3.58627753762773393564e-01) (10, 6.18442650596985332712e-02) (11, -5.97138594333595507102e-02) (12, -1.92085682764856907623e-01) (13, -4.61130637464568060579e-01) (14, 1.15878320893537306580e-01) (15, -1.25021784485168985235e-01) (16, -3.55011163354475078879e-01) (17, -3.00474041862160423655e-01) (18, 2.82906064630198614274e-02) (19, -1.05422631594182969472e-01) (20, -1.51354750024942280584e-01) (21, -1.98264310009405669843e-01) (22, -9.98630216002967391331e-02) (23, -8.19897333818673246242e-02) (24, -4.03459319678432459799e-01) (25, -1.20263079636562048025e-01) (26, -2.46903152774128081814e-01) (27, -3.26697779755931796974e-02) (28, -2.58357318016367687452e-01) (29, -4.75356926148452069159e-02) (30, -1.59112931719946393283e-01) (31, 1.89116907579080811841e-01) (32, 5.75956288263650861836e-01) (33, -7.10428752359891113599e-01) (34, -1.72846721200802189156e-01) (35, 9.67823192477226257324e-02) (36, -2.69977235303321905224e-01) (37, 1.27489551883800400489e-01) (38, -5.46874458894432868838e-01) (39, 2.25026589210616662085e-01) (40, -1.31355340244345308864e-01) (41, 1.43980411884539083456e-01) (42, -4.20182729019993317365e-01) (43, -5.99166967441412817719e-02) (44, -3.53515689512775344028e-01) (45, -7.73645373144227072038e-02) (46, -5.43006627227753738141e-02) (47, -1.85546984037284284907e-01) (48, -1.44317233847974790706e-01) (49, -1.25768361290592878277e-01) (50, -1.77885150999209207257e-01) (51, -1.33781446894352368249e-01) (52, 1.14710624963310539592e-01) (53, -3.04138770248026435450e-01) (54, -1.88648104770171576305e-02) (55, -1.19343580367654730767e-01) (56, -2.07725922968596876661e-01) (57, -7.52724112866535455257e-02) (58, 9.79877203397036197763e-03) (59, -9.20212370958292391609e-02) (60, -1.13271674086790771763e-01) (61, -2.03857498657978530865e-01) (62, -3.04522352520634857764e-02) (63, -2.41080805886901117230e-01) (64, -9.69920968317450199470e-02) (65, -2.38477476837479857030e-01) (66, -1.54071674299061638774e-02) (67, -1.46923618931850241687e-01) (68, -3.96500609581910690160e-01) (0, 6.20432821182460413761e-03) (1, -5.48241198395298529045e-02) (2, -3.13038293798476363605e-01) (3, -1.63705508019661383212e-01) (4, 8.08208371437612177468e-02) (5, -1.61452019329251156288e-01) (6, -3.34924171283785987452e-01) (7, -8.92782602989095896984e-02) (8, -2.02782779089245801529e-01) (9, -1.34668825448441165094e-01) (10, -2.95006472800559693681e-01) (11, 9.97746309674944070744e-02) (12, -6.62222928490254492129e-02) (13, -6.86041336290608566584e-02) (14, -9.42301067333827235828e-02) (15, -2.39275893414513350643e-02) (16, -5.51354919580214208885e-02) (17, -1.70057979006127402144e-01) (18, -4.48777809213536920535e-03) (19, -8.30074121203069024977e-03) (20, -1.83677832454475671586e-02) (21, -2.94104352814870351196e-01) (22, 1.84645340073838010175e-01) (23, -1.45763498330220536703e-01) (24, 3.97128336461084266440e-02) (25, -1.12057516117978900327e-02) (26, -1.14746946124426985048e-01) (27, -1.37651531642014796075e-01) (28, -6.06709098856009348966e-02) (29, 4.20136456778104371880e-04) (30, -1.61502418490195726042e-01) (31, -2.34302774429301086112e-01) (32, -1.26438312880695535867e+00) (33, 6.54020005788249370049e-01) (34, 3.55638559592242053942e-01) (35, 4.97574880719184875488e-02) (36, -6.17277850801213001652e-01) (37, 3.97330622276235889689e-01) (38, -4.02590027033379663224e-02) (39, -2.20538333109737333393e-01) (40, -2.00321437452139261559e-01) (41, -7.19960835458560155509e-02) (42, -1.02659038858796167193e-01) (43, 5.79914308164962769010e-02) (44, 4.97758997156205265644e-02) (45, -6.87505452161927821386e-02) (46, -4.00549178232673441791e-01) (47, -9.51647472818278050699e-02) (48, 1.26745982293536979535e-01) (49, 1.79396956616558640729e-02) (50, -1.47436483334124956990e-01) (51, -1.51718291444015190850e-01) (52, 1.51415993676766252873e-01) (53, -6.05329786877314493521e-02) (54, -1.25512364346412524929e-01) (55, -2.78673621722106933107e-02) (56, 2.74057001069697436790e-02) (57, -3.11028020495987156391e-01) (58, -1.70567111416155881010e-01) (59, -3.04158341196321402311e-01) (60, -1.10135935232653761617e-01) (61, -4.93278201333565424758e-02) (62, -1.95023579327032098307e-01) (63, -2.66770758129004914583e-01) (64, -3.83070633238369206985e-01) (65, -8.16150710403654722214e-02) (66, 7.61930082734446484372e-02) (67, -2.41306800155575679190e-01) (68, -6.84382742855427217421e-01) (0, 1.43902633563249560122e-01) (1, -4.03791962869273102221e-01) (2, -5.21787086986259196486e-01) (3, -2.22087465410190365578e-01) (4, 4.12831889367802698509e-02) (5, 1.84655615253555560606e-01) (6, -4.94757527533282448484e-01) (7, -2.59507931525147894636e-01) (8, -3.91619032878570028089e-01) (9, 4.72848184539236993107e-01) (10, -5.84834663904849838545e-01) (11, -1.90019162495441013006e-01) (12, -2.08161266369716796421e-01) (13, 5.48284839530546519448e-01) (14, -9.30052265480211137749e-01) (15, -6.38391699748974972284e-02) (16, -1.08753822023920934670e-01) (17, 6.37185662386553497427e-01) (18, -9.79458580403981815543e-01) (19, -2.72953970892508557267e-01) (20, -1.92565010372207245926e-01) (21, 6.59084625831316328615e-01) (22, -1.04371438314469644482e+00) (23, -3.46951155725830351351e-01) (24, -5.33540416081003998627e-01) (25, 2.74483293984669973753e-01) (26, -6.73443563657087684859e-01) (27, -2.65374741026557059431e-01) (28, -3.88534628481523258703e-01) (29, 4.66749628128325377840e-01) (30, -6.17818501496553568186e-02) (31, 3.78472729289234588457e-01) (32, 9.97777914416771660733e-01) (33, -1.83152816266208984253e+00) (34, 9.58420484181105869492e-02) (35, -5.22003509104251861572e-02) (36, -1.34872240798564746456e+00) (37, 7.46177292670269221020e-02) (38, -4.74628832424299623716e-02) (39, 6.42833516278389693888e-01) (40, 3.77352961936504261928e-03) (41, -2.00864863560717282764e-01) (42, -7.54860825529527379452e-01) (43, -4.46151001036364514007e-01) (44, -1.64239681259976788574e-01) (45, 3.59645538007935250402e-01) (46, -7.49936398933436443315e-01) (47, -5.91861308607947944616e-01) (48, -9.89420500487423887348e-02) (49, -6.21872984525080108043e-01) (50, -3.82068800769464922418e-01) (51, -3.67533212178228707590e-01) (52, -8.42186633352471347713e-01) (53, 4.52058938540990939980e-02) (54, 2.78065584066804927232e-01) (55, -1.04832351589665459524e-01) (56, -4.15552224530315705842e-01) (57, -6.63265958824933443694e-01) (58, 1.49164988367189804697e-01) (59, -1.41732206656907583353e-01) (60, -3.96363946806544617529e-02) (61, -7.75813663428767896768e-01) (62, -3.09814994926211173532e-01) (63, -7.81500094128760869339e-02) (64, 3.65341221935752802352e-01) (65, -6.36283884441558478251e-01) (66, -4.74169761548612900270e-01) (67, -2.75851909548260110228e-01) (68, -8.46957063118294772863e-01) (0, -6.30261468139706515501e-01) (1, -1.69099432459215687219e-01) (2, 2.49554193542659064065e-01) (3, 2.15266112563801785551e-02) (4, -5.02434031616574516832e-01) (5, -5.99733112665587052986e-03) (6, -2.02597765372955485041e-01) (7, 2.30378253571052238335e-01) (8, -5.46109877164952961515e-01) (9, 1.39045522212494741809e-02) (10, -1.88339425099455337609e-01) (11, 3.35702417758569848782e-01) (12, 1.56689484312275806310e-01) (13, -4.24243325515250735425e-01) (14, -1.11356787932670731056e-01) (15, 1.97133001448945022194e-01) (16, 2.09013305216757067084e-01) (17, -7.95020408618529406120e-01) (18, 5.51073824509338283661e-02) (19, 4.93260781212604346169e-02) (20, -1.53078795533573026183e-02) (21, -1.62681139804823626793e-01) (22, -7.87794752271857856574e-02) (23, -2.74607789838842042407e-01) (24, -6.94790014710743752957e-01) (25, 8.37244434480252319730e-01) (26, -3.74581134237186641478e-01) (27, -6.86028691617190516938e-02) (28, -7.19173093402117769024e-01) (29, 4.67510345749649169900e-01) (30, -1.33523439809565935832e-01) (31, -3.19300855895411239693e-01) (32, -1.42927492298236402668e+00) (33, 3.89162874341080544660e-01) (34, 2.17853918587619183045e-01) (35, -1.10813081264495849609e-02) (36, -2.78342286032471852852e-01) (37, -2.57392586394107392156e-01) (38, -1.29350357573391527843e-01) (39, -3.73341393007704080986e-01) (40, 5.51653898422160171577e-01) (41, -8.80638740799591479558e-01) (42, -5.34746076045055154791e-03) (43, -1.75833368780692125832e-02) (44, -1.63590608085670496941e-01) (45, 1.08708198775127343194e-01) (46, 4.81707831799531218525e-03) (47, -1.38447451451820281731e-02) (48, -1.46732954686834393687e-01) (49, 1.66290804029679273324e-01) (50, 1.20342113942188994047e-01) (51, 2.06592803205594907623e-02) (52, -6.74339181727043102121e-01) (53, 2.21276201343892031659e-01) (54, 1.81769390600332765573e-02) (55, 9.27625470274610203214e-02) (56, -5.63442773570732580168e-01) (57, 2.10989778690494816926e-01) (58, -1.74189687201801758631e-02) (59, -1.48142291807375564572e-01) (60, 7.78637889826407220140e-02) (61, -7.08457378613009669532e-02) (62, -5.07901784906446107648e-01) (63, -8.86351884450881227773e-02) (64, 4.79889740274832998779e-01) (65, 1.96705703698075246022e-01) (66, -8.43043384127386108418e-01) (67, -2.81424114599103825096e-01) (68, -4.61579007278327846375e-01) (0, 2.67084883459001894146e-02) (1, -4.00181006000485450791e-01) (2, -6.59734441115148034784e-02) (3, -6.05973021720953349684e-03) (4, -2.63487446897174015792e-01) (5, -2.60731342522014075680e-01) (6, -8.94467108873088501131e-02) (7, -4.12462291956069981858e-02) (8, -3.03562675058035358333e-01) (9, -2.62141639395931880241e-01) (10, 4.50607269275039995504e-02) (11, -2.31456122600861013971e-02) (12, -1.33646118883078757200e-01) (13, -2.17498605031522795894e-01) (14, -2.88861405819680616691e-02) (15, -1.90137496013551482443e-01) (16, -3.10866414583222117063e-01) (17, -2.08720376050346656527e-01) (18, -7.86872779342368544597e-02) (19, -3.11836185069790106095e-02) (20, -2.58089349221894137631e-01) (21, 1.49071941646133909742e-03) (22, -4.97902388085468619594e-02) (23, -3.40498420545519292491e-02) (24, -1.24429984017372499694e-01) (25, -4.79022743938433293726e-03) (26, -2.24095961321343933870e-01) (27, -6.61713903910356726623e-02) (28, -1.42269089778799345813e-01) (29, -8.37404471249474958994e-03) (30, -3.29117661848347897724e-01) (31, 6.43832130363281573970e-02) (32, 6.65360654673383261626e-02) (33, -4.61550243684681005263e-01) (34, -4.45973038130638266274e-01) (35, -8.14374089241027832031e-02) (36, -2.28536640403431245971e-01) (37, -2.21354820613199297641e-02) (38, -3.37317896060242594647e-01) (39, 1.01657841413185900947e-01) (40, -1.98554783574623250342e-01) (41, 9.33013910927390360817e-02) (42, -3.24264100112227560135e-01) (43, -1.02957249060878969216e-01) (44, -3.69899074043890552232e-01) (45, 5.28123296709725950637e-02) (46, -8.86613124276079966890e-02) (47, -1.70078449083180927026e-01) (48, -1.47400456451182576556e-01) (49, -9.64508337770633439323e-02) (50, -1.94768614400774336959e-01) (51, -2.16645089033267485013e-01) (52, -1.22153784507331039655e-01) (53, -1.19836112396635607880e-01) (54, -1.40336197950466905898e-02) (55, -1.68080551904066649582e-01) (56, -1.31259509870295998368e-01) (57, -3.13246785163725782741e-01) (58, -3.78011440883029847804e-02) (59, -1.27050277262910016329e-01) (60, -1.59070911866865533080e-01) (61, -3.49085923619491145242e-01) (62, -1.92041249536728034220e-02) (63, -1.76319893109709247003e-01) (64, -3.20555749929034156098e-02) (65, -2.59228221119553459140e-01) (66, -8.24251561067481097744e-02) (67, -1.11979452463991296929e-01) (68, -3.73236370731325040051e-01) (0, -1.06126200135930909285e-01) (1, -1.28507759563134094094e-01) (2, -6.65929514383123977161e-02) (3, -1.40767308100259291165e-02) (4, -2.13331775982098181821e-01) (5, -2.73584218059954975555e-01) (6, -1.70823310746671647165e-01) (7, -1.75869037207183442906e-01) (8, -1.98072854456212310570e-01) (9, -2.79612600142119249735e-01) (10, 2.33164996599824585199e-02) (11, -1.90886852413805790940e-01) (12, -2.17855746891177370905e-01) (13, -3.59986318239516323025e-01) (14, -8.69880825577036137508e-02) (15, -1.59938403180547028537e-01) (16, -1.50066342091480897647e-01) (17, -2.13176090154531844290e-01) (18, -6.52541100507065541247e-02) (19, 1.85567883118560386646e-02) (20, -2.66935714969881721093e-01) (21, -5.20294205524532704654e-02) (22, -2.05366434770082262329e-01) (23, -5.62530731156454452679e-02) (24, -1.34460833511351490754e-01) (25, -1.90019146565864271992e-01) (26, -1.53200327272607517148e-01) (27, -5.49665592572577826891e-02) (28, -1.26436561251593387878e-01) (29, -7.78335948694801743608e-02) (30, -2.44157502341784599098e-01) (31, 5.79836581325206198989e-02) (32, -3.36648536513014240423e-01) (33, -2.29820286383924404783e-01) (34, -9.60586720703530821952e-02) (35, 4.32687476277351379395e-02) (36, -1.02541106188446126679e-01) (37, -5.40840278593426315723e-02) (38, -2.09083321295695817588e-01) (39, -9.46943582433353581163e-02) (40, -2.55459875416221005029e-01) (41, 2.71521201409772889451e-03) (42, -3.28081240981741240059e-01) (43, -2.85136649577000626798e-02) (44, -1.14186858880333211297e-01) (45, -7.90130149677296944599e-02) (46, -1.20343603962813461283e-01) (47, -2.34590046461436614600e-02) (48, -2.22878865606421144863e-01) (49, -2.54777536104353941049e-01) (50, -6.62884187736276220271e-02) (51, -1.27611623794540329779e-01) (52, 6.41424406198554033359e-03) (53, -9.37825396395466498456e-02) (54, -3.37239229540568022370e-02) (55, -6.78005034935848238664e-02) (56, -1.75189579085550301008e-01) (57, -1.16132556359817659675e-01) (58, -2.01378228820145360745e-01) (59, -4.69520426534404608510e-02) (60, -1.54373632917733372150e-01) (61, -1.69197699761278602670e-01) (62, -5.82076401785469182970e-02) (63, -1.64215133492026321704e-01) (64, -3.98432114332996425987e-02) (65, -2.50390770493345626857e-01) (66, -1.57308066640849064655e-01) (67, -7.09128906538993991626e-02) (68, -3.50570644992260316286e-01) (0, 4.24011673052793608418e-02) (1, 2.60851084171282832092e-01) (2, -1.74145211545753214599e-01) (3, -2.14543952252666703107e-01) (4, -2.61668531979103446972e-01) (5, -1.98843889934586237622e-02) (6, -7.31500762102572504864e-02) (7, -1.75363953226368829430e-01) (8, 3.95087598337833176276e-02) (9, -3.43799223717387969490e-01) (10, 7.93819218231619633253e-02) (11, -4.18705655293628131730e-01) (12, 4.13748062159149318506e-02) (13, -5.32169334602360710740e-01) (14, 4.77363864204222720922e-02) (15, -4.00590687606524997744e-01) (16, -2.42712618040431926669e-01) (17, -3.47311493160141593339e-01) (18, -2.33601825907338772614e-01) (19, -3.97223413670965530553e-01) (20, -4.82898580250287090543e-01) (21, -1.38162712065154291707e-01) (22, -3.38340603517999993777e-01) (23, -1.31391306461675821948e-01) (24, -7.71635281595181243830e-01) (25, -4.33805877449458809902e-01) (26, -2.36358515146482262015e-02) (27, -2.40652171032848978538e-02) (28, -6.38910329674770682828e-01) (29, -4.77706688629559061976e-01) (30, 6.36710401810837600678e-01) (31, 5.38923199170519354184e-02) (32, 1.66180341959266120178e-01) (33, -1.39510991171660836407e+00) (34, 1.00931302559387980899e+00) (35, -1.70458108186721801758e-02) (36, 3.14857478897132281315e-01) (37, -4.81674186290887373918e-01) (38, -8.59063801747757649352e-01) (39, 9.86307157927970024058e-02) (40, 1.70020008676723233254e-01) (41, 1.05344939069717119517e-01) (42, -1.34760784088014107240e+00) (43, -1.52965498403534599925e-01) (44, -5.57000291899294341924e-01) (45, 8.91055942941003237268e-02) (46, -2.94251951714822712614e-01) (47, -1.88208909296852161530e-01) (48, -4.88006488468824550786e-01) (49, 1.06845249480864684655e-01) (50, -5.73776677564220571881e-02) (51, -1.46046153485235558067e-01) (52, -1.01667683507616953692e-02) (53, -1.89303144447489551938e-01) (54, 1.36995361461618697652e-01) (55, -1.20731261125773745024e-01) (56, -3.66076482627754995480e-01) (57, 1.52691860155793779352e-01) (58, 2.43893184119225142625e-01) (59, -3.14289288477266726129e-01) (60, 1.09609805224270995261e-01) (61, -3.23020148162488973664e-01) (62, 1.07356498276905257261e-01) (63, -3.87370133637894686895e-01) (64, 4.26562497710456737382e-03) (65, -2.91925207438397726900e-01) (66, 1.34701629838935549310e-01) (67, -3.45635553338750511898e-01) (68, -1.39469592252078278261e-01) (0, 3.15679136279357286377e-01) (1, -5.58633974882811412677e-01) (2, -2.71919392798827486146e-01) (3, 1.50446720826835217411e-01) (4, 4.00287195813493867913e-01) (5, -5.68722413203403692750e-02) (6, -9.39302919508237799118e-02) (7, -1.12223253877936329781e-01) (8, 1.78145992721194218467e-01) (9, -5.36606205041152556356e-02) (10, -1.16541252654804670247e-02) (11, -2.30895314796155964876e-01) (12, -6.82342345106865116877e-02) (13, -5.49102435845612024679e-02) (14, 6.10031163085008043545e-02) (15, 1.45846903358447632648e-01) (16, 3.04332211251436779431e-01) (17, -2.27669856306519757805e-01) (18, -2.61505511009169910874e-01) (19, -3.88909120009299780207e-02) (20, 1.89870861760753406600e-01) (21, 5.20419399776879565422e-01) (22, -8.15022091460168351951e-01) (23, -1.00930913747336106767e-01) (24, 2.58539160885829732983e-01) (25, 1.44659101071604845323e-01) (26, -5.10163116920594683634e-01) (27, -2.68940312167797845877e-01) (28, 2.04507266325542752528e-01) (29, -6.26349627884369541952e-01) (30, -2.70078685564228815341e-01) (31, 6.49275377046976576167e-01) (32, 1.55998556359390638804e+00) (33, -1.45866815623457690698e+00) (34, -1.48867428896083620060e+00) (35, -9.98198464512825012207e-02) (36, -2.20156771260795247613e+00) (37, -5.61135036690391664216e-01) (38, 1.06017396793900120500e+00) (39, 9.37689357842315773794e-01) (40, -2.28727885129547425791e+00) (41, -1.18541288410504735973e-01) (42, 7.69243635003802106453e-01) (43, -1.96079442239360857148e-01) (44, -7.32867771353154506819e-01) (45, 8.34580455729436870849e-02) (46, 4.84516172315688359307e-02) (47, -1.11144220426168935378e-01) (48, 1.05097854167574736306e-01) (49, -9.52622133826235145682e-02) (50, -1.28892329258882498699e+00) (51, 6.56039565360557186402e-02) (52, 2.21184838445281140018e-01) (53, -2.40665216767596140679e-01) (54, -9.86552223958787721791e-01) (55, -1.14404050223405093223e-01) (56, -1.54582288438490679516e-02) (57, 3.67689215420778092724e-01) (58, -3.44715371535444847773e-01) (59, -1.89449162456122949250e-01) (60, 1.97090941843736516814e-02) (61, -1.24813758224919194723e-02) (62, 6.32632418566883153455e-02) (63, 1.72357593806199138609e-01) (64, 6.04014326362299791562e-01) (65, -9.26987012114609876257e-01) (66, -9.80297658229258433993e-02) (67, 2.64634669326265226097e-01) (68, -5.16593628132124171870e-01) (0, -1.23093912799879953712e-01) (1, -1.46972394211288881483e-01) (2, -1.85908431344917829398e-01) (3, -1.02130699388533946470e-01) (4, -1.80310568047952257675e-01) (5, -9.56115832101821772060e-02) (6, -6.31457202266368089472e-02) (7, -9.55439893167217696446e-02) (8, -1.78927224806000678692e-01) (9, -8.83604861723794876571e-02) (10, -2.21200826476733031223e-01) (11, -1.72252324673932838417e-01) (12, -9.12935975282844203171e-02) (13, -5.32726135885616958188e-02) (14, -1.49168839819329906993e-01) (15, -1.43598075289325721737e-01) (16, -2.40689150017437097917e-01) (17, -7.75612862768812888481e-02) (18, -5.24567691295339602608e-02) (19, -1.02200880158418813681e-01) (20, -1.97387508300477965140e-01) (21, -2.14054922512116246880e-01) (22, -2.04372701980081949991e-01) (23, 6.22640053389950515195e-02) (24, -1.90498583719496572542e-01) (25, -2.05080966301571299137e-01) (26, -1.26779045322120864636e-01) (27, -8.53979120687105575094e-02) (28, -2.32581240303886188636e-01) (29, -7.67946941819432331994e-03) (30, -2.77135063140550252925e-01) (31, 6.65179716128997539082e-02) (32, -2.41759907740898907780e-02) (33, 4.46341192688148868939e-02) (34, -4.46141331525872264496e-01) (35, 4.93513420224189758301e-02) (36, -2.53168671666788136498e-01) (37, -2.30780001982342532207e-02) (38, -2.61389388796310906393e-01) (39, 1.34791195528004725812e-01) (40, -2.02784683866488041337e-01) (41, -1.64729870515414267285e-01) (42, -6.24371453207456586498e-02) (43, 2.83032614371119609076e-02) (44, -2.46855827302344871255e-01) (45, -2.32069652727987185692e-01) (46, -8.92276091092699397134e-02) (47, 7.55134199371539430179e-03) (48, -1.25206401088065050198e-01) (49, -1.17309759676494332337e-01) (50, -7.18156095320308940355e-02) (51, -5.56332025035064028917e-02) (52, -3.03983103447119262785e-01) (53, -4.69258585143903714232e-02) (54, -1.90818809464739697068e-01) (55, -1.60896280111989635475e-02) (56, -2.69018990008349168086e-01) (57, -2.46409222522733957483e-02) (58, -1.19260817370177435448e-01) (59, -2.59691828500829592630e-02) (60, -1.39379513394487675182e-01) (61, -1.54384961763199018980e-01) (62, -2.52334619143991800705e-01) (63, -1.49898724700656682529e-01) (64, -3.21429154259568861107e-01) (65, -1.88750140663695387122e-01) (66, -1.12621483480027012591e-01) (67, -9.51252836842157306618e-02) (68, -5.34566066304674736287e-01) (0, 1.10379146376048606348e-02) (1, -4.06632474785345754409e-01) (2, -1.65257291845387399576e-01) (3, -9.58726145689857423005e-02) (4, -9.80343895826895350698e-02) (5, -2.35601607203120289036e-01) (6, 1.45097810293186874758e-02) (7, -2.90381370381160575089e-01) (8, -4.72461154034265862212e-01) (9, -3.59368141931406093192e-01) (10, 2.25321442281579048528e-01) (11, -9.66094284933475822008e-02) (12, -1.97706015332714923893e-01) (13, -5.11650525366104114156e-01) (14, 2.89646100885850188433e-01) (15, -2.57152158859203616714e-01) (16, -3.36856415958637633867e-01) (17, -1.25411780655530612910e-02) (18, 1.40684498125958512560e-01) (19, -1.97982499506149156598e-01) (20, -5.91557778960013158631e-01) (21, 1.98566456068445612582e-01) (22, -2.46777622589241865669e-02) (23, -8.22987489421445617133e-02) (24, -4.15206064771064364827e-01) (25, 1.66244507554954096262e-01) (26, -2.57919908915980267139e-01) (27, -2.14905000864502870872e-01) (28, -3.22661784056641365304e-01) (29, 3.64760962504659225214e-01) (30, -9.58209118076711274803e-01) (31, 5.83981852851213553701e-02) (32, -3.63143010044589431562e-01) (33, -4.76481193956139637002e-01) (34, -6.71264354408390273576e-01) (35, -5.22795282304286956787e-02) (36, 2.96342619634363049763e-02) (37, -3.39076453996175586347e-01) (38, -5.12273205438298684378e-01) (39, 2.36132499600862771905e-03) (40, 6.03932200527646859123e-02) (41, 1.96125298515215269746e-02) (42, -5.44586227657014365633e-01) (43, -1.55770517349071407898e-01) (44, -7.61365317384448264670e-02) (45, -2.29254297678192942023e-01) (46, 4.92907800375519261626e-02) (47, -2.17575158077852354177e-01) (48, -2.46474744243855847792e-01) (49, -1.86425925143419144760e-03) (50, 1.49903902064303151676e-01) (51, -3.37984042988218158499e-01) (52, -7.70152594788453721819e-03) (53, -4.84409497367286265290e-02) (54, -2.44361133702771342324e-02) (55, -2.06128808546728548023e-01) (56, -1.58928560020211634418e-01) (57, 3.58320841295071343402e-02) (58, -1.41700525027970772318e-02) (59, -1.89817662809355802711e-01) (60, -4.52998018294580445664e-02) (61, -2.55754760667630587356e-01) (62, 1.57851161751926816201e-01) (63, -2.27356394700544611753e-01) (64, 2.38691121501788255932e-01) (65, -4.60315955184962599667e-01) (66, 1.08154498343168037344e-01) (67, -1.95593035585495678141e-01) (68, -2.28188177848497403266e-01) (0, -3.73345978580764015220e-01) (1, -7.61084920512172663498e-02) (2, -1.33652850388533916970e-01) (3, -3.70156390721941355726e-02) (4, -6.71601786743229040022e-02) (5, -2.08228167247669626594e-01) (6, -2.53473051147644845571e-01) (7, 7.15717498078503600034e-02) (8, -1.09491492825350741902e-01) (9, 1.50187923357070055898e-03) (10, -2.05784501909581751811e-01) (11, -1.13650321491826383768e-01) (12, -1.03200164547224873535e-01) (13, 1.06142784216161439881e-01) (14, -2.22617832236237572774e-01) (15, -1.25523429651329343493e-01) (16, -1.22016113097370954010e-01) (17, -4.30537369924034185598e-02) (18, 3.48258030834936024508e-03) (19, -6.31282139980845202754e-02) (20, -3.07219018908318097782e-01) (21, -7.09287076455631659844e-02) (22, -1.56846867729581347650e-02) (23, -2.34474968185896456840e-02) (24, -2.80634302904829102676e-01) (25, 1.00936209895929426827e-01) (26, -2.23289668479256686595e-01) (27, -9.71737970761487324101e-02) (28, -4.54080434716300440634e-01) (29, 4.97765885843795552468e-02) (30, -1.47319632170057529530e-01) (31, -1.69077658286900051055e-01) (32, -5.51898575807889923972e-01) (33, 1.30595480160613425236e-01) (34, -2.14952854567860868196e-01) (35, -9.66274738311767578125e-03) (36, -2.78449483582390078240e-01) (37, -1.44606489154590595048e-01) (38, -7.18880220135125619363e-02) (39, -5.99192802161919030324e-02) (40, -7.76021374509933969943e-02) (41, -3.71441873338966777052e-01) (42, -1.14770505978010906728e-02) (43, 7.85832481914715136329e-02) (44, -2.83223255560855480262e-01) (45, -1.74959020551559207846e-01) (46, -2.95686647385525851195e-02) (47, 5.39136668095370752418e-02) (48, -3.79470052706321947511e-01) (49, -7.19547713452818871183e-02) (50, 1.40001180376048167675e-01) (51, 3.70768204201220585858e-02) (52, -4.77751992580917328457e-01) (53, 9.49352831280601411335e-02) (54, -3.30808808384562558214e-03) (55, -1.08147921786986234149e-01) (56, -4.95718182575138888168e-01) (57, 1.31806858478550031899e-01) (58, -5.36152244825154195018e-02) (59, -1.56256048072461101173e-01) (60, -3.98586997213258187323e-01) (61, 9.21763458907326749259e-02) (62, -1.92190026394364915641e-01) (63, -2.89344506387475899900e-02) (64, -3.86352225023264994608e-01) (65, 1.72863865419124712597e-01) (66, -2.58978780063191249550e-01) (67, -1.05979163319397037823e-01) (68, -3.97321714107546131167e-01) (0, -1.58128295804309898509e-01) (1, -2.96491247434544413775e-01) (2, 2.26378534064646669277e-02) (3, 3.26952745470194261479e-02) (4, -3.39752139204368031056e-01) (5, -1.71341143941013934748e-01) (6, 6.80303882741240418391e-03) (7, 4.88358270327423835133e-02) (8, -1.98467264366442658341e-01) (9, -8.46759155353871417748e-02) (10, -1.76168949803329394355e-01) (11, 2.94945823506807015824e-02) (12, -2.33420835509522001106e-01) (13, -4.77212010707789360819e-02) (14, -1.20302628430979829943e-01) (15, -1.02558414078171594719e-01) (16, -2.97357996443525396391e-01) (17, -1.22185185195279627512e-01) (18, -5.62788627717317468946e-02) (19, -8.28768698865505332174e-02) (20, -1.43024344408812731366e-01) (21, -1.13942553632583626344e-01) (22, -5.21321591987566612669e-02) (23, -1.21679672002887748206e-01) (24, -5.70309671199338563685e-02) (25, -2.04353027128393094358e-01) (26, -2.25895044460133587183e-01) (27, -1.00740572351905227633e-01) (28, -1.33619503013443219341e-01) (29, -5.83748230995818212508e-02) (30, -3.34447770376079200894e-01) (31, -2.05662050334180168676e-01) (32, -7.49530583124181748467e-01) (33, -3.71137119264011092201e-02) (34, -4.00442604729051229717e-02) (35, 5.55701553821563720703e-03) (36, -1.83332059764640453725e-01) (37, -9.31123838423323080260e-02) (38, -2.54630984545199445801e-01) (39, -2.00444886668159683030e-01) (40, -2.69811145342495783961e-01) (41, -6.86716635430478922197e-02) (42, -2.93698988628081247843e-01) (43, 1.39446896948647702796e-01) (44, -1.91727890941569140137e-01) (45, -1.52030324104535652374e-01) (46, -2.30603535696052991399e-01) (47, -1.33871762172397823498e-01) (48, -7.94380644760266790838e-02) (49, -1.37720490824340624503e-01) (50, -1.55465307259840507248e-01) (51, -4.13151553397254484024e-02) (52, -1.36678713730822798400e-01) (53, -1.40997993840679194943e-02) (54, -5.62086627827764750975e-02) (55, -8.79762974613431530946e-02) (56, -1.22793212380685690110e-01) (57, 3.33236266040698187602e-03) (58, -6.18362416215402152520e-02) (59, -1.54717826953174042437e-01) (60, -1.19684105506416532672e-01) (61, -1.02278741415108120894e-01) (62, -1.39600552781300013550e-01) (63, -7.61925502417769157093e-02) (64, 1.95629580905726657702e-02) (65, -3.27899891439987933861e-01) (66, -1.25501856342298601099e-01) (67, -1.02819852423438606870e-01) (68, -3.31217053661793714436e-01) (0, 2.41029136988073870718e-02) (1, -3.10192540246594761211e-01) (2, 1.43672136204447634805e-02) (3, -1.65640133319262999878e-01) (4, -1.36562055984852437351e-01) (5, -1.20461545903001607249e-01) (6, -3.30885108963098334423e-02) (7, -5.35314068227345438156e-02) (8, -1.09570633172039064163e-01) (9, -1.91633901882804935646e-01) (10, -1.01135105624000076752e-02) (11, -1.62168656476191080928e-01) (12, -5.11874758682585029312e-02) (13, -3.09336591224409152012e-01) (14, 5.85873801475245495340e-02) (15, -8.75857137956838477377e-02) (16, -3.93757794444889452912e-02) (17, -2.53051297658470675245e-01) (18, -9.60686313352918652697e-02) (19, 1.25334653685927003425e-02) (20, -1.90735932042521011409e-01) (21, -1.35297218012151804212e-01) (22, -4.76589415273919597693e-02) (23, -1.16350274440215742389e-01) (24, -1.28834085001699766293e-01) (25, -1.95907292759253282011e-01) (26, -6.70718124596289544392e-02) (27, 8.62552413678747335705e-04) (28, -1.92462379446779296988e-01) (29, -1.22629518591947664352e-01) (30, -2.67099943049106058890e-01) (31, 4.99980863050424606531e-02) (32, 8.82084818147964161428e-02) (33, -2.96873033694810828376e-01) (34, -5.47588416042057102295e-01) (35, 8.68767574429512023926e-02) (36, -3.09419679322910867736e-01) (37, -1.74310577371466976504e-02) (38, -2.48803855501445625453e-01) (39, 6.39429821238614304324e-02) (40, -2.30254271836191515277e-01) (41, -1.46795774114579363756e-01) (42, -2.09322841545314802802e-01) (43, -6.53258666808310545226e-02) (44, -2.84861945748149880675e-01) (45, 1.01723158899086341123e-02) (46, 1.60258890038808242406e-02) (47, -1.07328963320898446154e-01) (48, -2.56000880809994058041e-01) (49, -2.72892805677906857831e-01) (50, -1.39167140546784390276e-01) (51, -8.69903953384652678382e-02) (52, -7.65448001704463615313e-02) (53, -1.60510900649921378625e-01) (54, -7.56770542025368558869e-02) (55, -1.16566832155368116375e-01) (56, -1.54396251901933789785e-01) (57, -2.55716966989990857062e-01) (58, -2.62091246480965600618e-01) (59, -3.99714018406601076516e-02) (60, -6.72192323827071197551e-02) (61, -1.96145426727468402683e-01) (62, -5.00693160802705844459e-02) (63, -1.70224910639840326665e-01) (64, -1.80786743229972290958e-01) (65, -2.83089633954583197450e-01) (66, -1.60234313152486623766e-01) (67, -1.18812511576632140464e-01) (68, -4.61696776077616555245e-01) (0, 7.34914940125439453134e-01) (1, 1.91144113365779827474e-01) (2, -8.05062425967328576526e-01) (3, -9.82149058497484461761e-01) (4, -3.25646601517063039033e-01) (5, 9.39269330327683671378e-01) (6, -4.24746526665740697926e-01) (7, -5.96083998182412977407e-01) (8, 4.10192918993856348031e-01) (9, 8.44969185140822809377e-02) (10, -9.11900749573611113519e-01) (11, -2.96716711628805029921e-01) (12, -2.15603968480858665391e-01) (13, -5.30140359854273518492e-02) (14, -5.78907044412608318140e-01) (15, -5.89030512433237674053e-01) (16, -3.75669206088358687001e-01) (17, 1.15551483278404379385e-01) (18, -6.97522292097987217652e-01) (19, -4.01571126302811554076e-01) (20, 2.35774773882972799033e-01) (21, 8.67663546043969668986e-02) (22, -4.99989789346072632803e-01) (23, -3.42171895704907969016e-01) (24, 8.05305888051067952915e-01) (25, 2.90981164155404647964e-01) (26, -1.11303183418779694236e+00) (27, -2.90279423931002367176e-01) (28, 8.62594977103347537728e-01) (29, 5.08582381839192132489e-01) (30, -6.62988827782220457863e-01) (31, 3.74621279337796653230e-01) (32, 2.62604516769064622039e+00) (33, -1.71595164153515700178e+00) (34, -1.09425038850490907727e+00) (35, -6.27429261803627014160e-02) (36, 8.71252393701379079793e-01) (37, -6.92479753303996248270e-01) (38, -6.25068333608548187819e-01) (39, 7.65035438457841165949e-01) (40, 6.90821474401639101792e-01) (41, -1.30501556456751544033e-01) (42, -1.14287844212740608008e+00) (43, -6.88101344086894800567e-02) (44, 7.09149013253940890822e-02) (45, -3.37658901843484293703e-01) (46, -8.83782193679112038076e-01) (47, 3.38672941946681793635e-01) (48, 7.14232643744103223860e-02) (49, -3.93107870104288548152e-01) (50, -1.00532145435161290870e+00) (51, -2.59630274266515581605e-01) (52, -3.71087367074998453198e-01) (53, -2.61199096833966193376e-01) (54, -3.47666662787479208152e-01) (55, -2.91741731860688413569e-01) (56, -2.48916453712374946550e-01) (57, -2.06778900874528936971e-01) (58, -2.51238781018243484411e-01) (59, -1.00783740196214069429e-01) (60, -1.34692248643146023079e-01) (61, -3.14801134996813447575e-01) (62, -5.09757126695354112478e-01) (63, 3.07408786820040011434e-02) (64, -2.32747888782914476302e-02) (65, 6.08439434707084614296e-01) (66, -7.47171280104559687452e-01) (67, -6.64031594112342360425e-01) (68, -1.10176578576550521227e+00) (0, 2.77799744138741533384e-01) (1, -9.50578930079366446471e-01) (2, -2.23675549176240717753e-01) (3, 8.96411887043209509862e-01) (4, 1.55156178880753059524e-01) (5, -5.91688522841936626051e-01) (6, -3.42102024170228002919e-01) (7, 3.82814554181444777203e-01) (8, 5.68170239459755074818e-02) (9, 9.15316844498144897846e-03) (10, 2.00224451613049102272e-02) (11, -2.60371734794026754578e-01) (12, -1.00735742524197067344e-02) (13, 2.47002760360186118804e-01) (14, -1.10607093636657605185e-01) (15, -6.55595758447222957260e-03) (16, -5.67666563015733899311e-02) (17, 1.64715647406747073278e-01) (18, 6.24282671531857721869e-02) (19, -3.40759637142399526843e-02) (20, 3.68251263771830039673e-01) (21, 1.79075586987598872613e-01) (22, -4.69799815645899176975e-01) (23, 1.16784959808513236212e-01) (24, 4.22630361717910962849e-01) (25, 6.20925398671769157577e-02) (26, -6.37524259888460731460e-01) (27, -1.96131454046808623159e-01) (28, 1.30331734823095041209e-01) (29, -2.79342967388500729164e-01) (30, -2.01591765957054191993e-01) (31, 2.63880123856730042231e-01) (32, 3.81900924933888663571e-01) (33, -4.69337434202612258094e-01) (34, -6.16409664257195455406e-01) (35, -8.01943466067314147949e-02) (36, -1.35709211066060442263e+00) (37, 1.31324921038389441641e+00) (38, -8.88970032186799707929e-01) (39, 4.70894472247707140955e-01) (40, -1.28692190840355213943e+00) (41, 7.62236775338095307042e-01) (42, -4.00722976799968488848e-01) (43, -1.41383188874446424910e-01) (44, -1.42414018098733663464e+00) (45, 5.09386356986077704079e-01) (46, 7.66167157877588600456e-02) (47, -1.87353492120061526638e-01) (48, -9.54338676357066595379e-01) (49, -2.44655584313621304871e-01) (50, 4.30331803101235560449e-02) (51, -2.65785486920624369755e-01) (52, -5.54287028317176466707e-01) (53, -5.41978697943127363246e-01) (54, 4.12466568926123433592e-01) (55, -3.05130934591025360092e-01) (56, -7.77782118005686529116e-01) (57, -9.04381573029329643987e-01) (58, 2.13755004043965968208e-01) (59, -3.78021099441481545078e-01) (60, -7.30658091847319446366e-01) (61, -9.92576168403780045857e-01) (62, 3.29001108820254017928e-01) (63, -4.81318636998331272903e-01) (64, -1.13767051641672847784e-01) (65, -6.77213526762752482391e-01) (66, -2.95863941837123667344e-01) (67, -4.50140013612723488556e-01) (68, -2.79428659458555161965e-01) (0, -3.14051021779716554860e-01) (1, -1.97146161836469463458e-01) (2, 4.52290473175020912855e-01) (3, -3.13992996067053942166e-01) (4, -3.00860081058933304110e-01) (5, 4.67317934768404358303e-02) (6, 8.52738304747240050130e-02) (7, -2.76881624217230004614e-01) (8, 1.02717524250113503848e-01) (9, -1.68594069606969848563e-01) (10, -1.93271222868740183420e-01) (11, -2.33050307991627708715e-01) (12, 2.78295960846680678902e-01) (13, -1.96219545161187364224e-01) (14, -4.84565029961993798402e-01) (15, -9.71765273193506279314e-02) (16, 4.06983960344887873983e-01) (17, -3.41578495513115809601e-01) (18, -6.56659508830101712462e-01) (19, -4.79760898390551582260e-02) (20, 1.51086451737465293776e-01) (21, -4.50613119842611098420e-02) (22, -6.48694611952043143077e-01) (23, -1.64014749838033657703e-01) (24, 7.28275747040903337348e-02) (25, -3.73310506068704028859e-01) (26, -4.02242031746330885866e-01) (27, -3.37388002841374108620e-03) (28, -7.03866540777389970707e-01) (29, -1.89960835132218425203e-01) (30, 2.76967005683552258688e-01) (31, -1.05377074171029525007e-01) (32, -1.15494941151609986640e+00) (33, -1.04397604780411254466e-01) (34, 9.56424813124755801574e-01) (35, -4.17132452130317687988e-02) (36, -2.72394387896583156650e-01) (37, -3.03229809399418626104e-01) (38, 3.48680265765527741539e-02) (39, -1.50862173677617644740e-01) (40, -1.87851081696094546203e-01) (41, -1.69080296126503104581e-01) (42, -1.09786367196222617304e-01) (43, -8.85184524151220813136e-04) (44, -3.20038954102576878036e-01) (45, -2.83768240955797113045e-01) (46, -7.81477998650858957097e-02) (47, -6.06859671948201881420e-02) (48, -2.29300577198602528739e-01) (49, -1.75062498528582660695e-01) (50, -3.95066376873718858032e-02) (51, -1.75240445983564085974e-01) (52, -3.81283606194014745849e-01) (53, 6.08788884233208149599e-02) (54, 5.97112620984282908843e-03) (55, 3.82047004845256950312e-03) (56, -2.76932977123409640452e-01) (57, -4.11184139591974306960e-01) (58, -1.87638033813637694625e-02) (59, -2.40888004023077695326e-01) (60, -8.67345482228808611902e-02) (61, -5.18396253294632791686e-01) (62, -2.03443799012745889232e-02) (63, -1.52611596605369215229e-01) (64, 1.95888429429768279322e-01) (65, -3.00902612220025067469e-01) (66, -3.73835163161401584642e-01) (67, -3.29334954922066824867e-01) (68, -8.04834236996629370786e-02) (0, 6.59602870614044850539e-02) (1, -1.30321966319160154057e-01) (2, 2.17982220289596045903e-01) (3, -4.97485243522120146320e-01) (4, 2.07218737688745713310e-01) (5, -2.47053734946509923054e-01) (6, 2.22816444577375004366e-02) (7, -3.14477507442650128233e-01) (8, -9.60033064085928783404e-02) (9, -3.28975409745119740101e-02) (10, -3.55708295334543414534e-02) (11, -1.50525077062153733731e-01) (12, 3.43576408089091289710e-02) (13, -2.01771656422047793167e-02) (14, 3.34070760715234754690e-02) (15, -2.65362068194102851404e-01) (16, -1.65570148884130713407e-01) (17, 4.79725486134359654922e-02) (18, 1.14021822989473445992e-03) (19, -2.47368044349617177691e-01) (20, 2.44877882126265794538e-02) (21, -2.21574244328757108402e-01) (22, -1.71361688318570098977e-01) (23, -3.74496458696830097912e-02) (24, 1.49567631633692244009e-01) (25, -1.59351016872306516792e-01) (26, -2.07609846262327257804e-01) (27, -2.27767370384334838507e-01) (28, -1.61086741862328484964e-02) (29, -1.21739369561034191380e-01) (30, -5.14463697096194438885e-01) (31, 2.22513570544910110893e-01) (32, 4.27754478349387443070e-02) (33, 2.33290398896461942391e-01) (34, -1.42739077238483469401e+00) (35, 1.41866505146026611328e-03) (36, -1.19325425253562086847e-01) (37, -3.69330232352210463542e-01) (38, -1.85978196202684437077e-01) (39, 2.79823337307726682788e-01) (40, 2.48729210979977299889e-01) (41, -4.84511340189201888951e-01) (42, 1.29169575016384319266e-01) (43, -2.47396894991173295353e-02) (44, 2.61771743408698243094e-01) (45, -3.44521391722525882617e-01) (46, -2.71553828740284219911e-01) (47, -6.00609848635691306873e-02) (48, 7.73245567357913193840e-02) (49, -3.51884560459815920463e-01) (50, 1.12348878052735759447e-02) (51, -1.79907294866048839133e-01) (52, -4.78633655029765625599e-01) (53, -2.28492925049165102047e-01) (54, 9.18728858756644450878e-02) (55, -1.38742593217625859170e-01) (56, -5.11014672094415089987e-01) (57, -2.41721528192744145036e-01) (58, 3.39224272426926098944e-01) (59, -2.25960213038543855646e-01) (60, -4.73670457538947486942e-01) (61, -2.92365614650035687827e-01) (62, 4.41840895799713639924e-01) (63, -3.04600120275206220910e-01) (64, -2.14908338795410602806e-01) (65, -3.99964911292600810988e-01) (66, 3.49717852726455558088e-01) (67, -2.50720319779927591775e-01) (68, -9.18628418505619270817e-01) (0, 2.25376803621291477153e-01) (1, -3.15493906190637440901e-01) (2, -3.20372860248790192195e-01) (3, -2.40942515138203139369e-01) (4, -2.80257466382908437819e-01) (5, 1.73805944301462372836e-02) (6, -8.07058695282369259472e-02) (7, -1.41165474858150230553e-01) (8, -3.10701449098888971001e-01) (9, -6.59246994029282634697e-02) (10, 3.09576843191916341314e-02) (11, -1.40318210322283060121e-01) (12, -1.17187978148319923988e-01) (13, -3.15663548160947826648e-01) (14, -7.88969532954653385293e-02) (15, -2.07910562002771082124e-01) (16, -3.73521667730542586416e-02) (17, 1.15780704548520876201e-02) (18, -3.14834553518584192577e-01) (19, -2.67326914724779540755e-01) (20, 3.34041957730349184374e-02) (21, 1.16021751765950156821e-01) (22, -5.13493593512261758960e-01) (23, -2.14985553823916181182e-01) (24, 7.10936025712620434103e-02) (25, -9.65985484640026620395e-02) (26, -4.84776722231351653303e-01) (27, -1.86740201415233314508e-01) (28, 1.65471289228762807877e-01) (29, -1.08144904796226293264e-01) (30, -1.68970782983339867789e-01) (31, 2.58714921748360138221e-01) (32, 7.30786983047722826790e-01) (33, -1.21465912745265303130e+00) (34, 4.85911386524052399394e-02) (35, 6.16279467940330505371e-02) (36, -6.40990316706534946078e-01) (37, -4.20883349486394151007e-02) (38, -5.02809505887429272764e-02) (39, 4.12088773597473256860e-01) (40, -2.24208880933977033889e-01) (41, -1.95961217691543454489e-01) (42, -2.99277625473785724441e-01) (43, -1.84750475654154228122e-01) (44, -1.25509969971914797648e-01) (45, 7.38870982956011668197e-02) (46, -1.72493618401607040624e-01) (47, -2.34283305418346743387e-01) (48, -2.78232924654286395416e-01) (49, -2.02312030062649306217e-01) (50, -3.06777648585617901400e-01) (51, -1.83472325704668481894e-01) (52, -1.87322197278538021825e-01) (53, -1.21859757786354244713e-01) (54, -2.11804529250593981393e-01) (55, -1.67019183362561662864e-01) (56, -1.52268103897154033488e-01) (57, -1.29142939539183210229e-01) (58, -2.92540752217371746724e-01) (59, -1.61263743106248691461e-01) (60, -1.81597817261138466671e-01) (61, -3.29399931714498050983e-01) (62, -2.30245095734847027291e-01) (63, -1.55169603343023043696e-01) (64, -4.27718537525390296583e-02) (65, -4.54404877204089174825e-01) (66, -6.90785441868830979439e-02) (67, -1.76959469457304313655e-01) (68, -3.98810991802793168848e-01) (0, -1.04792634561487976730e-01) (1, -2.16675170740932288016e-01) (2, -6.61396205387254545321e-03) (3, 1.85881347220608443560e-02) (4, -1.27701991416799803813e-01) (5, -1.34177320617100359623e-01) (6, 4.41258569732454544732e-03) (7, -4.83067547718203857410e-02) (8, -2.00491831425421596080e-01) (9, -2.36960415929600848317e-01) (10, -1.47568238178115485049e-01) (11, -5.66319952710069782209e-02) (12, -1.22467001395960395360e-01) (13, -2.10751315641449415983e-01) (14, -1.26519972287490123364e-01) (15, -1.08901353366291211988e-01) (16, -9.69513419637082762836e-02) (17, -2.00192330381232463932e-01) (18, -1.84364437784510781793e-01) (19, -3.70129207717607711103e-02) (20, -1.22135793378041992985e-01) (21, -4.08747158248718781004e-02) (22, -1.20384287272896170484e-01) (23, -1.04474466688803793724e-01) (24, -1.39173377889904886784e-01) (25, -1.83489387465781833564e-01) (26, -2.11367799063732458853e-01) (27, 5.54387143940528945296e-02) (28, -1.49521942168069299495e-01) (29, -9.35485048312198058662e-02) (30, -1.33886835890071692612e-01) (31, -6.12565532981984642302e-02) (32, -3.43015205004849943471e-01) (33, -1.28604472723571366943e-01) (34, -1.44398027103867204746e-01) (35, 7.08360448479652404785e-02) (36, -2.82046722143382833092e-01) (37, -1.69583775535272984758e-01) (38, -2.61660283362052603628e-01) (39, 2.29055359364410231204e-02) (40, -2.54226380933251783212e-01) (41, -2.48450119651093389792e-04) (42, -2.95454674054381916104e-01) (43, -1.16019346068463355404e-01) (44, -3.20067565071575299562e-01) (45, -3.77259837659234542606e-02) (46, -1.55930919396868594706e-01) (47, -1.37122749285531253527e-01) (48, -2.68941042985441858271e-01) (49, -1.52321170829093632815e-01) (50, -8.08638887336451117616e-02) (51, -2.07642007581520238180e-01) (52, -1.62512931989971243230e-01) (53, -2.12670077648615424293e-01) (54, -1.73204370968890297711e-01) (55, 6.51892500046605261055e-03) (56, -1.50900809648860240175e-01) (57, -2.01812550361149312117e-01) (58, -5.65089431209322111405e-03) (59, -1.09446433523248190522e-01) (60, -1.09515632738166196480e-01) (61, -1.94359333593468935897e-01) (62, -1.98124309456139749419e-02) (63, -1.08174198310861099936e-01) (64, -1.05991108837070274751e-01) (65, -3.44693134230537101548e-01) (66, -8.38960951591041503850e-02) (67, -1.59673615013270819851e-01) (68, -4.19094763478786158650e-01) (0, -8.73753960781009225700e-02) (1, -1.32507606304378233730e+00) (2, 1.12446481030734124484e-01) (3, 4.78357128395267450216e-01) (4, 2.39395315802271441141e-01) (5, -5.15297697833262624556e-01) (6, 2.20974168591449249277e-01) (7, -2.24104238320728232914e-01) (8, -9.73835025623132413686e-03) (9, -4.43296236501702300981e-01) (10, -6.91483111798190996922e-01) (11, 2.10473838887080683113e-01) (12, 2.53700214361458342704e-01) (13, -6.74227904304964154036e-01) (14, -4.07535540762986536745e-01) (15, 1.01017498620365533957e-01) (16, 3.72413958260579755488e-02) (17, -7.14064434900205546874e-01) (18, 4.54554168345005726870e-01) (19, 2.04077727671755526639e-01) (20, -8.34168134332170629897e-01) (21, -7.97503181065432942276e-01) (22, 1.13136399758124484016e+00) (23, 1.39829583820201885924e-01) (24, -1.09171244453801685736e+00) (25, -6.37492521267996603562e-01) (26, 1.34694878659768590978e+00) (27, -7.01548910289313387006e-03) (28, -2.05056376537961781992e+00) (29, -6.93316182254861357315e-01) (30, 5.59035508495099753290e-01) (31, 1.08435458202964718488e+00) (32, 1.71397491743573748835e+00) (33, -5.22982889921111193665e-01) (34, -2.00857301338546756497e+00) (35, -5.92245236039161682129e-02) (36, 4.73224569385142512790e-01) (37, -1.09841893122411615735e+00) (38, -6.33518097905250043844e-01) (39, 1.18946280468654430607e+00) (40, -3.57938189900789960340e-01) (41, -2.45542392996547953476e-01) (42, 7.31212359836792336054e-01) (43, -4.72115150879565348419e-01) (44, 4.29394129709015526242e-01) (45, 2.72100384289612362565e-01) (46, -7.58399131562449563271e-02) (47, -4.07876237426641086170e-01) (48, -4.71449937092892679136e-01) (49, 4.36657748740971629609e-01) (50, 2.23582027835786567582e-01) (51, -3.39048645354547373287e-01) (52, -3.62413452617791453925e-01) (53, -1.58366141829413692443e-01) (54, -3.86967029684260888089e-01) (55, -3.74703540888475017390e-01) (56, -2.12666753659630419770e-01) (57, -6.16106171411676561966e-01) (58, -5.90523197528041277060e-01) (59, 1.75880889145643946880e-02) (60, -8.33361620716245532492e-01) (61, -2.07031839711678045113e-01) (62, 2.64923001520104214879e-02) (63, -2.96085120526599632207e-01) (64, -4.24506035020421959580e-02) (65, -3.61854679807242063383e-01) (66, -4.34524609077108603383e-01) (67, -1.36906856713572389062e-01) (68, -1.30418857651129749264e+00) (0, -1.36476956785147734985e-01) (1, -1.95937599644568388735e-01) (2, 1.25424653582194844947e-01) (3, -1.90756800901955736460e-01) (4, -8.45605893516387513431e-02) (5, -2.32419169866302094407e-01) (6, -9.21361004342137052125e-02) (7, -9.28936002266219917889e-02) (8, -1.48258588081397829628e-01) (9, -2.97041782179962188248e-01) (10, -1.79947192193846666752e-01) (11, -1.90297480654227219032e-01) (12, -1.42585103645923472193e-01) (13, -4.20517765549775268674e-01) (14, -2.43566880191705553704e-01) (15, -1.61688654778007728785e-01) (16, -1.69760018356879927026e-01) (17, -2.66485970872520405717e-01) (18, -1.29817386575661358750e-01) (19, -8.07593053663129695208e-02) (20, -2.95466496710999337871e-01) (21, -2.13877412451236564861e-01) (22, -1.71196420384774478096e-02) (23, -4.43345063305678188659e-02) (24, -2.62349886829871481453e-01) (25, -2.74568390261547501385e-01) (26, -6.66672761026529808737e-02) (27, 3.48021358287561519140e-02) (28, -2.71105048164499817798e-01) (29, -1.07932179176096432194e-01) (30, -3.60453340880964173687e-02) (31, 2.41569896358030389294e-02) (32, -4.48580332266619252746e-01) (33, 2.70220697734123438405e-02) (34, -1.28583682238613133952e-01) (35, 3.77817824482917785645e-02) (36, -2.41223344375738335543e-01) (37, -1.03856741486440570799e-01) (38, -2.22463272249278393167e-01) (39, -3.63776445281264945719e-02) (40, -1.50755766252505363223e-01) (41, -8.60215607431542989003e-02) (42, -1.48465928665376778461e-01) (43, 2.51317461900694844035e-02) (44, -2.43649433488993399921e-01) (45, -9.18367338106686331711e-02) (46, 4.69881474474194635316e-02) (47, -9.58139768437442501670e-02) (48, -1.99109215882573215017e-01) (49, -2.09663637627193616408e-01) (50, 5.45923218619739497592e-02) (51, -1.51590387010465010853e-01) (52, 1.96566695571400718023e-02) (53, -1.59318992319945118563e-01) (54, -1.41521317058256445448e-02) (55, -4.03879066239585873821e-02) (56, 6.22758759999754440972e-02) (57, -1.75092358856881236129e-01) (58, -1.39422803206092404960e-01) (59, -1.74492708180230993165e-01) (60, 2.25889091851336426889e-03) (61, -1.10998844435226687311e-01) (62, -2.76177064155528839695e-01) (63, -1.76943917366546799030e-01) (64, -7.36502213157736868032e-02) (65, -1.65103271102238574608e-01) (66, -2.37012306926995458545e-01) (67, -1.02436596440998506363e-01) (68, -3.38309892919005483769e-01) (0, -3.91001543457529410208e-01) (1, 4.67295284569709201694e-01) (2, -4.36953203821913327420e-01) (3, -2.45345917323938345067e-01) (4, -2.73941668397103987864e-01) (5, 3.88683260779429662346e-01) (6, -4.66275823073894368775e-01) (7, -5.95018152837438821234e-02) (8, -1.33464223636036549703e-01) (9, 3.91662993145699356301e-01) (10, -8.84835861139842028145e-01) (11, 1.30838129687934345835e-01) (12, 3.05701460069926600482e-01) (13, -1.75531950563007937971e-01) (14, -4.47634236421918130233e-01) (15, -1.04260869736166078559e-01) (16, 5.00122894827957464869e-01) (17, -3.81810076038631152073e-01) (18, -1.72346220897362317759e-01) (19, -1.47675611779456122941e-01) (20, 9.61424519736948923754e-02) (21, -1.07260697775825253331e+00) (22, 2.06848720754654741283e-01) (23, 1.36019658908106383377e-01) (24, -7.01740819346625799291e-01) (25, -6.58234472127105396666e-01) (26, 5.74267989759779773351e-01) (27, -1.91807079640581995550e-01) (28, -1.50423446366675106489e+00) (29, -5.19144463661773802876e-01) (30, 7.72666982329810569929e-01) (31, 6.03329529506007378181e-01) (32, 8.89532113823805481445e-01) (33, -1.36276473606054060461e+00) (34, -8.25520671546264184215e-01) (35, 5.86142316460609436035e-02) (36, -8.52311235840810366149e-01) (37, 9.14449770758734348242e-01) (38, -7.17539410600013027874e-01) (39, 3.49374287082640955227e-01) (40, 2.41717491939196921225e-01) (41, 6.87688609351031154837e-01) (42, -1.28382538406577517698e+00) (43, -8.34459419247241401818e-02) (44, 2.39443827329465785958e-01) (45, 6.22654478075657880076e-01) (46, -9.25232257335884100691e-01) (47, -1.45955668000570859544e-01) (48, 1.06697158371778094699e-01) (49, -9.91125943427147576559e-02) (50, -5.30465545717076714105e-01) (51, -1.45991125604435278973e-01) (52, -1.10484175674925952371e-01) (53, -1.72886561183606624059e-01) (54, -4.20438943220202560047e-02) (55, -1.93786161602855888653e-01) (56, 3.37726696494186295894e-01) (57, -6.94482918187638964547e-01) (58, -1.08179025375827575495e-01) (59, -2.92474257881431221051e-01) (60, 7.82027556566179150865e-03) (61, -3.70653404158079735620e-01) (62, -2.69077027361941445438e-01) (63, -2.00040202352540247288e-01) (64, 1.39538950337930959394e-02) (65, -4.06943393212739756848e-01) (66, -1.47002791599970678016e-01) (67, -3.38851485880060920852e-01) (68, -4.25615602490624966858e-01) (0, 4.50227636271760600639e-01) (1, -5.04149727478137577030e-01) (2, -6.13874502640514435603e-02) (3, 1.43026168243180706874e-01) (4, 4.17532517642857703422e-01) (5, -1.90043535823002901486e-01) (6, 3.56117652802696804670e-01) (7, -3.39391514426741702781e-01) (8, -4.68961838490015825442e-01) (9, -2.87556405369690959439e-01) (10, 4.22858475356240492982e-01) (11, 2.96161766724944930385e-01) (12, -1.33295738203829394752e-01) (13, -7.24465321979642640216e-01) (14, 5.56739348723183202772e-01) (15, -3.22286951151461331655e-01) (16, 6.16781307525260835689e-01) (17, -4.42273862650533478025e-01) (18, 6.42826273883003951326e-01) (19, -3.90641256421747490313e-02) (20, -1.39366442228052361818e-01) (21, 1.24336615240128622872e-01) (22, 3.52685697398940289915e-01) (23, 9.98137641769241412693e-02) (24, -1.32836810581480380122e+00) (25, 1.88250565858467944214e-01) (26, 1.58726830297672116821e+00) (27, -2.50890005229458201708e-01) (28, -1.74984150552636941178e+00) (29, -2.99346304337774482551e-01) (30, 2.58830241133814364929e-01) (31, 1.22379016521668271267e+00) (32, 3.33785156172883024084e+00) (33, -1.80100141235363730985e+00) (34, -3.59609807231161893171e+00) (35, -6.72950893640518188477e-02) (36, 5.08379078582687160548e-01) (37, -1.92090881184771522516e-01) (38, -1.12671898839484874166e+00) (39, 1.17939422360099332998e+00) (40, 7.59841348225759743995e-02) (41, 1.26679811815084364390e-01) (42, 1.86529271929841755640e-01) (43, -4.93041756742653602963e-01) (44, -6.24831313951832098552e-02) (45, 4.54677190299710543009e-01) (46, -8.20794759180496769080e-02) (47, 5.11124731496626141802e-02) (48, -1.36501326454901400487e-01) (49, 7.38255197190674228302e-02) (50, 5.36375309896632290751e-01) (51, -2.61495284541775951936e-01) (52, -4.17454053466484231727e-01) (53, -7.25678733354322702542e-02) (54, 4.00903267138230101629e-01) (55, -7.70341917602909487250e-01) (56, 1.71207027188451821331e-01) (57, -9.05511568067484007294e-01) (58, -6.32459906308016295284e-01) (59, 3.99992628238307959543e-02) (60, -6.10981435350843371523e-01) (61, 5.19830978369651530713e-01) (62, -7.02483581927889288998e-01) (63, -1.65749942046948595120e-01) (64, -1.45120788132508921064e-01) (65, -2.20334770770783616722e-01) (66, -6.27111193810491407419e-01) (67, 2.42857261512219729793e-01) (68, -8.84569123196713547053e-01) (0, -6.53245844217037685553e-01) (1, -8.07147955924654603166e-01) (2, 1.97200591954167364639e-01) (3, -4.70672028881695056479e-02) (4, -5.53996452195489652581e-01) (5, -4.92001062428860658216e-01) (6, -1.74177039065494310144e-01) (7, 2.70855776254981972517e-01) (8, -7.76524182075383762047e-01) (9, -8.31347647325437089094e-01) (10, 1.32303329120922408269e-01) (11, 3.39058260483452722500e-01) (12, -1.49730771428960796054e-01) (13, -6.83923421042771373379e-01) (14, 7.93421220767441537358e-02) (15, 1.67246014333338438584e-01) (16, -4.95594590833284998066e-01) (17, -6.92921145859096837549e-02) (18, -8.26778350248981719339e-02) (19, 1.41368250379264620564e-01) (20, -1.77176066804535348176e-01) (21, 2.73836950506571030761e-01) (22, -5.15766693070552229017e-01) (23, 1.62918583907114999931e-01) (24, -4.17128432889156894325e-02) (25, 4.44641113935095921850e-01) (26, -8.94603623841214834478e-01) (27, -4.27985898041363596600e-02) (28, 1.81258765704687518916e-01) (29, 6.46503803103890994919e-01) (30, -1.22031600416241969853e+00) (31, 5.28411768534052916912e-01) (32, 2.04763275301321856503e+00) (33, -9.32541568898820227851e-01) (34, -1.10192109936977122864e+00) (35, -9.17007401585578918457e-02) (36, 3.26964229474472789505e-01) (37, 3.60522797894112623229e-01) (38, -8.05725965000865462784e-01) (39, 4.90139044477528262878e-01) (40, 5.49951762602968408089e-01) (41, 6.35487285685416236625e-01) (42, -6.06169168219594434177e-01) (43, -4.19048116742237353183e-01) (44, -1.00129105402285187298e-01) (45, 5.18926106460907754503e-01) (46, 1.40009158793364535400e-01) (47, -4.28155086085609815072e-01) (48, -2.08214434260483305383e-01) (49, 6.15056501229411245468e-01) (50, -7.06792560436014516423e-02) (51, -4.50453109951046981596e-01) (52, -1.08948943910393784146e-02) (53, 2.58605481762447853011e-01) (54, -4.15268522136789334370e-03) (55, -1.29809715628625865769e-01) (56, -3.15013269402260043250e-01) (57, 1.31215390436200229907e-01) (58, -8.18256987265784885288e-01) (59, -1.54633185862889183104e-01) (60, -6.93720315859231884126e-01) (61, 1.30182600759420397107e-01) (62, -5.91708632267007317296e-01) (63, -2.65663162855115764227e-01) (64, -1.13327313044510957774e+00) (65, 2.44594633756943541369e-01) (66, -3.12633723946277253258e-01) (67, -4.42012975012521680540e-01) (68, -1.04157695846191522548e+00) (0, -6.09194141727476545789e-01) (1, 5.21175094561305174423e-01) (2, 6.54214935971146049898e-02) (3, 1.08998708660293062989e-02) (4, -8.02910440425690791200e-02) (5, 1.69187223720440940711e-02) (6, -2.70392192493975780376e-01) (7, 1.08871990081991290578e-01) (8, -4.09592248345674092569e-01) (9, 4.40524779869111593467e-01) (10, -3.17052415112034358113e-01) (11, -2.81116222803095665295e-02) (12, -9.44308275096988003483e-01) (13, 7.21611609251536889609e-01) (14, -2.48067253075787752525e-01) (15, -1.41875231425092063198e-01) (16, -1.00785852519768526214e+00) (17, 6.94552533546034744916e-01) (18, -1.47559122050787666636e-01) (19, 9.75864600845114948946e-02) (20, -1.26875539982673979367e+00) (21, 6.34511121784172793525e-01) (22, -9.41589931685638259484e-02) (23, 5.55117538575105942678e-02) (24, -8.86771190224751482134e-01) (25, 2.84161478610840623205e-01) (26, 1.00112306176128249002e-01) (27, 9.87248519991921619221e-02) (28, -2.45897043270648874014e-01) (29, -2.38650499807593757806e-01) (30, -1.61425442278562036869e-01) (31, 2.59663761181741954698e-02) (32, -1.51899152797389275227e-01) (33, 1.45218939058093332584e+00) (34, -1.43449581916742707755e+00) (35, 8.39899703860282897949e-02) (36, 3.51405191835806778380e-03) (37, 1.10433003216422825910e-01) (38, -8.63760563178529561235e-01) (39, -1.38604863318833142205e-02) (40, 4.35728939705315940212e-02) (41, -7.13403910824208842278e-01) (42, -5.95987041117232774212e-01) (43, 1.82220862197710387065e-01) (44, 7.10356918409801640912e-01) (45, -6.04042472342592007273e-01) (46, -9.36591718728033595376e-01) (47, -2.18701206332547609668e-01) (48, 1.16733047902513056848e-01) (49, -3.52670415871211895276e-01) (50, -6.28660355511674318052e-01) (51, 5.42198699317915921991e-02) (52, -2.49685819413211967932e-01) (53, -2.16130821146751028738e-01) (54, -6.28977672270219612116e-01) (55, -1.85940482186767258588e-01) (56, -3.84201393036067762043e-01) (57, 3.22472533717025472422e-02) (58, -3.74032377567481311154e-01) (59, -4.77798012737381705417e-01) (60, -1.73557209759905239910e-01) (61, -1.25285097768453285161e-01) (62, -2.07664160247623352795e-01) (63, -6.03203559960411195284e-01) (64, -5.27920542718442464825e-02) (65, -4.96085447912377533464e-02) (66, -7.66601878889358601121e-01) (67, -3.59189677526008388497e-01) (68, -1.13110332456930429146e+00) (0, 6.41863868272612853039e-02) (1, -9.71484270095984842053e-02) (2, -1.14045211076834185349e-01) (3, -1.57296277444006551982e-02) (4, -2.57998538832446167035e-01) (5, -6.07743395591806637168e-02) (6, 4.26298071460827054241e-03) (7, -2.89967367831241960852e-02) (8, -1.81432456403903263897e-01) (9, -3.68789798149447345388e-01) (10, -1.65404782175563702662e-01) (11, -5.71848283160368564548e-02) (12, -1.26632315708272269461e-01) (13, -3.33638399332115032081e-01) (14, -1.56697410943155229779e-01) (15, -7.79450097328629187832e-02) (16, -1.38084672180089962357e-01) (17, -3.47126065204427736166e-01) (18, -5.05729077810243357605e-02) (19, -4.73038707118373508154e-02) (20, -1.54006012952240672886e-01) (21, -2.45175964046621369663e-01) (22, -2.16143046580108577626e-01) (23, -8.60595019972118929763e-02) (24, -1.84539571521945860999e-01) (25, -2.90724029642908665672e-01) (26, -3.09519496582953967945e-01) (27, 1.28348130184843950419e-01) (28, -2.14645243996560874944e-01) (29, -1.38566384071409670620e-01) (30, 5.97660475429792354546e-03) (31, -1.03374377090086552733e-01) (32, -5.00697821795066388972e-01) (33, -4.01037360925050878624e-01) (34, 3.18024510999218357199e-01) (35, 3.62105146050453186035e-02) (36, -1.66543913449763714141e-01) (37, -3.18201267646591789973e-01) (38, -2.49295728093663515601e-01) (39, -4.68232273149471883711e-02) (40, -2.85723877151548455444e-01) (41, -6.81413445114633781197e-02) (42, -4.74932592077216886306e-01) (43, -6.48351246101282613354e-02) (44, -2.30412271093762027752e-01) (45, -1.41430638265492591467e-03) (46, -2.08822550560707698164e-01) (47, -1.19960722996814983521e-01) (48, -1.98351611483547157766e-01) (49, -9.35777091384118880901e-02) (50, -3.26722211963684228131e-01) (51, -1.60263673752910784653e-01) (52, -1.69582598213265794973e-01) (53, -1.19918279320438803115e-01) (54, -8.14596007283340112215e-02) (55, -2.57550544940857552637e-03) (56, -3.26924487533930219207e-01) (57, -7.71246335981766364259e-03) (58, 1.65684045803961621512e-01) (59, -2.32682147648244963545e-01) (60, -2.33581850469697510642e-01) (61, -2.10386017957025051039e-01) (62, 5.44280751573309393154e-02) (63, -2.04062479968287247001e-01) (64, 3.50312566411491790874e-02) (65, -3.30716964345719954821e-01) (66, 1.72710328677255081642e-01) (67, -2.05449714899980762084e-01) (68, -2.25152438758176393074e-01) (0, -8.59097147711945785531e-01) (1, 2.31141435370686543216e-01) (2, 4.01716089534950512863e-02) (3, 1.00882174849224515167e-01) (4, -4.89080479038664306390e-01) (5, 1.56602233953701763802e-01) (6, 1.12331581369397980746e-02) (7, 6.68405676790584796221e-02) (8, -1.79826743151381890362e-01) (9, 2.78723320451519408769e-02) (10, 2.00884364155022587806e-01) (11, -2.06808932306484366537e-01) (12, 1.02832362804389690347e-01) (13, -1.66440248331863355213e-01) (14, 1.11263245381516689969e-01) (15, -9.09175859367374050723e-02) (16, 5.70780296455876690054e-02) (17, -1.40467814040904692696e-01) (18, -1.28195161438615007343e-01) (19, -1.88519472454099001890e-01) (20, 4.60202842972035841562e-01) (21, -7.60660104765835010099e-01) (22, -4.49519576844567447793e-01) (23, 5.85292875141490767654e-02) (24, 8.49578477860443159742e-01) (25, -8.97531999041021544272e-01) (26, -1.04638733858093357920e-01) (27, -2.79958766800000258268e-01) (28, 6.16273158743508436830e-02) (29, -4.99187968998757780614e-01) (30, -4.38000420291488723468e-01) (31, 4.74308233895164688132e-01) (32, 8.84355697172975685483e-01) (33, -2.51185931224464475964e-01) (34, -1.71087652974704607090e+00) (35, 5.38782253861427307129e-02) (36, -1.01909188700525385474e-01) (37, -5.34255420147088821992e-01) (38, -2.90699986814286437387e-01) (39, 6.54362681068885732039e-01) (40, 1.14549098047760658514e-01) (41, -3.00654465598701736706e-01) (42, 1.34675769114882021293e-01) (43, -3.36548616954921511746e-02) (44, -1.33850519805623124903e-01) (45, 1.94081999199507360121e-01) (46, -1.41640446779207146433e-01) (47, -7.68856248518635931877e-02) (48, -1.39473910251514177094e-01) (49, 8.10478534548636081469e-02) (50, 4.50501922718118744116e-02) (51, -1.86580983966375707483e-01) (52, -1.05300224071901121770e-01) (53, -1.98057374998229146490e-01) (54, -4.02791510838034882980e-01) (55, -6.06765795285646170054e-02) (56, -1.08784118345067723488e-01) (57, 1.94294537035637621125e-02) (58, -1.93278407734678442376e-01) (59, -4.80875301193820423040e-02) (60, -1.42521171352089137674e-01) (61, -1.78376340555730816817e-01) (62, 2.19284759615404490490e-03) (63, -3.82766408932499815898e-02) (64, -9.02621956600860086972e-01) (65, -3.07102834918852485302e-01) (66, 5.22930715693721515080e-01) (67, 1.05192801591768927971e-01) (68, -1.02681036927198809927e+00) (0, 2.16286636658151176782e-01) (1, -1.35133615023066244731e+00) (2, 5.55346562387301179164e-01) (3, -1.31645629601177954759e-01) (4, -1.77349369997112843444e-01) (5, -1.04641874106691834534e+00) (6, 1.31842261645455493396e-02) (7, -1.92831326831871430194e-01) (8, -4.14460834911302089534e-01) (9, -9.62224424869077221700e-01) (10, 1.03181209421053438069e-01) (11, -3.05653491638485652615e-01) (12, -6.38059569650032742949e-01) (13, -7.01625362097581528609e-01) (14, -4.04559088061825611327e-01) (15, 6.91597033650090120549e-02) (16, -1.08270294882934203784e+00) (17, -3.48685513071102903826e-01) (18, 2.17625416909412172650e-01) (19, -7.00816176344075808524e-02) (20, -1.04018363691236026547e+00) (21, -2.02989991525369152525e-02) (22, -4.11382818382589263151e-02) (23, -3.01786986318884731251e-01) (24, -6.65344799229702466015e-01) (25, -1.42844327488773847890e-01) (26, -1.67170638148958827784e-01) (27, -2.12503365904597368852e-01) (28, -1.39002919207788933065e+00) (29, -2.10461170802823310799e-01) (30, 8.35141393216646932274e-01) (31, -3.03370065983355752248e-01) (32, -2.10230714874008484117e+00) (33, 2.87299593652303342228e-01) (34, 8.99590514683775932525e-01) (35, 2.21496000885963439941e-02) (36, -7.55079173655417879019e-01) (37, -6.16138222838514715285e-01) (38, 9.76399385031822442116e-01) (39, -2.92681669078799222561e-01) (40, -2.87975360809074154567e-01) (41, -7.73814601851244843189e-01) (42, 1.94811835154236695500e-01) (43, 3.92156681557098082958e-02) (44, -1.98412534736833567894e-01) (45, -8.75561856801402527140e-01) (46, 7.82176854995665915560e-02) (47, -2.80536641901323567649e-02) (48, -5.52602715276446776471e-01) (49, -4.09918716369732816229e-01) (50, -1.30017022926750158707e-01) (51, -2.07168650682790445039e-01) (52, -1.03714550053355988868e-01) (53, 7.32365738990709558287e-02) (54, -4.38869229875938848817e-01) (55, 1.18158355636651737908e-01) (56, 3.52567679318011917289e-01) (57, 2.25650826558636302677e-01) (58, -1.20573123948130400684e+00) (59, 3.96815975400360981817e-02) (60, 1.00775521357611141937e+00) (61, 4.85663003508859991708e-01) (62, -1.88878503791387553079e+00) (63, -1.86016869840009396730e-01) (64, 4.90402031948063255040e-01) (65, 1.04947726101161187273e+00) (66, -1.44523880897155998504e+00) (67, -1.88886884743618505000e-01) (68, -2.83397920255382851362e-01) (0, -1.74550831183567373150e-02) (1, -1.24549455968930453120e-01) (2, -2.15804118114996668076e-01) (3, -7.88390850760826017440e-02) (4, -3.12329411352388008893e-01) (5, -1.58158213662451391235e-01) (6, -8.72652984835940170871e-02) (7, -2.34893909059676712914e-02) (8, -2.85600071523567700105e-01) (9, -1.57129464689370668129e-01) (10, -1.54527947630064221851e-01) (11, -1.86988173395651074982e-01) (12, -1.60713173745946000248e-02) (13, -3.13249934117934447642e-01) (14, -5.58140629577206989764e-02) (15, -1.08055022357446711689e-01) (16, -1.50570295091248501640e-01) (17, -2.57058294251315988532e-01) (18, -5.13867746954153742367e-02) (19, -1.81912021901488113462e-01) (20, -1.73589032494404993390e-01) (21, -2.18134475901340219028e-01) (22, -4.26525063892480918448e-02) (23, -1.13657312707409835495e-01) (24, -5.37047018440983611742e-02) (25, -2.87221536347459838190e-01) (26, -1.63026692642522952337e-01) (27, 3.29219973607689994632e-02) (28, -2.47563958600778594166e-01) (29, -8.02703361218403688149e-02) (30, -1.73950682323366606630e-01) (31, -2.00682080576714584608e-02) (32, -6.49135288743254101895e-01) (33, -1.26215354725216999388e-01) (34, 1.45578795172206815201e-01) (35, 3.60577628016471862793e-02) (36, -1.35380133300615906888e-01) (37, -1.24391721501245125503e-01) (38, -1.96552599149304507709e-01) (39, -1.14007773291109823499e-01) (40, -7.03380119413662685535e-02) (41, -7.48155138350828086136e-02) (42, -3.32595385679020083547e-01) (43, 7.64833037860895709192e-02) (44, -3.10991477589006692916e-01) (45, -1.25833071882114844176e-01) (46, -2.34137475660882249384e-01) (47, -7.68664434796571816033e-02) (48, -1.48651179126335464264e-01) (49, -4.41474231489673088480e-02) (50, -1.24385790395083142834e-01) (51, -1.44090557312912481702e-01) (52, 3.50770459304605578335e-03) (53, -1.85468698502249146332e-01) (54, -7.03200014369413095583e-02) (55, -3.89102815529942776610e-03) (56, -1.89530913115927984736e-01) (57, -1.58881998816913422301e-01) (58, 1.36991840730352303079e-02) (59, -1.39028680044217950451e-01) (60, -2.39934029031019069311e-01) (61, -2.50421207005250168187e-01) (62, -4.56601132789835745251e-02) (63, -1.30297473871917257604e-01) (64, -5.29736827969086720991e-02) (65, -2.96582842857455453167e-01) (66, -1.04781538020146131746e-02) (67, -8.16111390543034775913e-02) (68, -2.96838940043545218561e-01) (0, 2.94294550540141530703e-01) (1, -4.25859563307184663117e-01) (2, -2.16213379452177556495e-02) (3, -2.20289528768013331828e-01) (4, 2.65928312779596942583e-01) (5, -2.97012993980297179686e-01) (6, -9.25149901571560157043e-02) (7, -3.07799731263253661950e-01) (8, -2.49472461490144709062e-01) (9, -3.77134983421614222721e-01) (10, 3.18844772591505953852e-01) (11, -2.02554523157693844304e-01) (12, 1.04869948126207146455e-01) (13, -6.88403879647626171234e-01) (14, 2.08307243059208446745e-01) (15, -9.06470123629576768343e-02) (16, 3.68450498437977169708e-01) (17, -3.82270748415068639670e-01) (18, -7.06801495817801356258e-02) (19, -7.62808827186661209119e-02) (20, -1.72628368619786781712e-01) (21, -2.19656583841211262842e-02) (22, -7.52919314570880682247e-02) (23, -8.48999723719358889706e-02) (24, -1.05846345595743282497e-01) (25, -3.06974989419163568627e-01) (26, 8.56042487069982038772e-02) (27, -4.96582282031078625639e-02) (28, -2.40819720997574870935e-01) (29, -1.65162303850872854705e-01) (30, -5.79007187551992430485e-01) (31, 3.67063393721991759744e-01) (32, 4.75593399780699199741e-01) (33, -3.77923234712607247765e-01) (34, -1.27187404847431051458e+00) (35, -2.60773748159408569336e-02) (36, -2.79472626615018648888e-01) (37, -3.14706153891299467151e-01) (38, -4.13633673860972939096e-01) (39, 4.34526453273697488289e-01) (40, -5.11404539324300411174e-01) (41, -2.34610482790293839450e-01) (42, 2.02119094911741986609e-01) (43, -5.78515208342396530794e-02) (44, -2.30943961602231795371e-01) (45, -3.32448241169088942737e-01) (46, 4.20844254536822892643e-01) (47, -1.19031716355125438689e-01) (48, 1.63941781440415206006e-02) (49, -4.20054046193482188976e-01) (50, 2.45879082623080030823e-01) (51, -2.25182751738645992035e-01) (52, 1.46277647725269688284e-01) (53, -3.53549531666589478274e-01) (54, -2.38266935118826100881e-01) (55, 4.71003411189611642662e-02) (56, -1.76651735809961712986e-01) (57, 7.10514115234026077950e-02) (58, -4.31613402109461141709e-01) (59, 6.37016229336596073729e-02) (60, -1.86852216205543597560e-01) (61, 5.77086506280292815818e-02) (62, -1.85839659571084697687e-01) (63, -4.78880067382254290265e-02) (64, -1.53190752334174562499e-01) (65, -1.42895921215980409302e-01) (66, -5.34430768994010110817e-02) (67, 3.57933411699571726872e-02) (68, -4.34949426802369754075e-01) (0, -6.42458388557907933425e-01) (1, -4.74252370022837654862e-01) (2, -4.46690946290087265158e-01) (3, -2.64299197445355182889e-01) (4, -1.28509123981190354069e-01) (5, -4.55529934847665851638e-01) (6, -3.29854589138194931319e-01) (7, -4.86607434022144624830e-01) (8, -2.90388265200741790828e-01) (9, 1.96315961672589661680e-01) (10, -2.25933408719748179960e-01) (11, -3.97066866530205675456e-01) (12, -6.29524113151581299341e-01) (13, 4.71669682980382143356e-01) (14, -1.74237220360075800718e-01) (15, -3.02322316521342449036e-01) (16, -3.13207287577981441373e-01) (17, -9.08162283725493929554e-02) (18, 1.20092861268006903530e-01) (19, -2.30779057845636681456e-01) (20, 5.88868471621835309904e-01) (21, -1.41828194083812952897e+00) (22, 8.75703809124542820186e-01) (23, -3.30928538932092841662e-01) (24, 1.91352083974434306057e+00) (25, -2.81330457465681949003e+00) (26, 1.50173843776532245364e+00) (27, -2.50021167549610567882e-01) (28, 1.26909245009092597201e+00) (29, -9.53136702644184152788e-01) (30, -8.22846022921800757111e-01) (31, 1.16299447320137833151e-01) (32, -7.11722581768051837381e-02) (33, 2.68702834852085459261e+00) (34, -2.99681972428957132948e+00) (35, 9.51076373457908630371e-02) (36, -3.71680938051505926900e-01) (37, 1.45375704579658782123e+00) (38, -1.19531810604527155562e+00) (39, 2.97251581393334851633e-01) (40, -3.94565539318946167935e-01) (41, 4.14587669574050798893e-01) (42, -3.06064130839562076325e-01) (43, -4.27293782072472594358e-01) (44, 7.37097917047544237690e-01) (45, -9.64426934507964461751e-01) (46, -6.51295121479693261968e-01) (47, -4.58143898772917945728e-01) (48, -1.60237440868046060460e-01) (49, -5.35954092456599973104e-01) (50, -1.05783295024084275648e-01) (51, 1.23130276180393072316e-01) (52, -5.61085257565095418819e-01) (53, -1.81821246673632003210e-02) (54, -3.19127431682454054673e-01) (55, 2.00001137241840376557e-01) (56, -1.10345789315754505555e-01) (57, -2.35137950314542903962e-01) (58, -1.34167134739182181136e-01) (59, -1.16305218729031253910e-01) (60, -1.34531029630164528088e-01) (61, -1.64158935332944011520e-01) (62, 9.29603904440314959823e-02) (63, -4.37817118595267951164e-01) (64, 1.61984895728332051190e-01) (65, -1.85650149564134614444e-01) (66, -4.66311256477802693610e-01) (67, -6.14275953623849013674e-01) (68, -2.10234140784869572016e+00) (0, 6.99493926392827508609e-02) (1, -2.29809052365756411040e-01) (2, -6.38411822468216566540e-02) (3, -2.32134136777164303000e-02) (4, -1.89338647763484385633e-01) (5, -2.92400249974642589823e-01) (6, -1.33721583261183413205e-01) (7, -1.27628058236963159988e-01) (8, -2.54838250652383857542e-01) (9, -2.96683634185745226386e-01) (10, 7.11046803054597303939e-02) (11, -1.76276076550771598761e-01) (12, -2.29483078325727979374e-01) (13, -2.53005879009974399274e-01) (14, 3.42542423550214678030e-02) (15, -6.97926564287049966406e-02) (16, -2.48384321305930799717e-01) (17, -1.47163269527238044221e-01) (18, 2.53801128328546739266e-02) (19, -3.98028204210162592225e-02) (20, -2.84959334612043813095e-01) (21, -1.97522162424540598247e-01) (22, -9.44111436742268855804e-02) (23, 9.56648588343917728738e-03) (24, -2.69977862511042998594e-01) (25, -1.73205942884035291041e-01) (26, -2.94648326628538126393e-01) (27, -2.04480156407262553264e-01) (28, -1.59496641470832783982e-01) (29, 5.97742381381256154826e-02) (30, -3.74625259321058334816e-01) (31, 