FANN_FLO_2.1
num_layers=3
learning_rate=0.010000
connection_rate=1.000000
network_type=0
learning_momentum=0.100000
training_algorithm=0
train_error_function=1
train_stop_function=0
cascade_output_change_fraction=0.010000
quickprop_decay=-0.000100
quickprop_mu=1.750000
rprop_increase_factor=1.200000
rprop_decrease_factor=0.500000
rprop_delta_min=0.000000
rprop_delta_max=50.000000
rprop_delta_zero=0.100000
cascade_output_stagnation_epochs=12
cascade_candidate_change_fraction=0.010000
cascade_candidate_stagnation_epochs=12
cascade_max_out_epochs=150
cascade_max_cand_epochs=150
cascade_num_candidate_groups=2
bit_fail_limit=3.49999999999999977796e-01
cascade_candidate_limit=1.00000000000000000000e+03
cascade_weight_multiplier=4.00000000000000022204e-01
cascade_activation_functions_count=10
cascade_activation_functions=3 5 7 8 10 11 14 15 16 17 
cascade_activation_steepnesses_count=4
cascade_activation_steepnesses=2.50000000000000000000e-01 5.00000000000000000000e-01 7.50000000000000000000e-01 1.00000000000000000000e+00 
layer_sizes=61 76 4 
scale_included=0
neurons (num_inputs, activation_function, activation_steepness)=(0, 0, 0.00000000000000000000e+00) (0, 0, 0.00000000000000000000e+00) (0, 0, 0.00000000000000000000e+00) (0, 0, 0.00000000000000000000e+00) (0, 0, 0.00000000000000000000e+00) (0, 0, 0.00000000000000000000e+00) (0, 0, 0.00000000000000000000e+00) (0, 0, 0.00000000000000000000e+00) (0, 0, 0.00000000000000000000e+00) (0, 0, 0.00000000000000000000e+00) (0, 0, 0.00000000000000000000e+00) (0, 0, 0.00000000000000000000e+00) (0, 0, 0.00000000000000000000e+00) (0, 0, 0.00000000000000000000e+00) (0, 0, 0.00000000000000000000e+00) (0, 0, 0.00000000000000000000e+00) (0, 0, 0.00000000000000000000e+00) (0, 0, 0.00000000000000000000e+00) (0, 0, 0.00000000000000000000e+00) (0, 0, 0.00000000000000000000e+00) (0, 0, 0.00000000000000000000e+00) (0, 0, 0.00000000000000000000e+00) (0, 0, 0.00000000000000000000e+00) (0, 0, 0.00000000000000000000e+00) (0, 0, 0.00000000000000000000e+00) (0, 0, 0.00000000000000000000e+00) (0, 0, 0.00000000000000000000e+00) (0, 0, 0.00000000000000000000e+00) (0, 0, 0.00000000000000000000e+00) (0, 0, 0.00000000000000000000e+00) (0, 0, 0.00000000000000000000e+00) (0, 0, 0.00000000000000000000e+00) (0, 0, 0.00000000000000000000e+00) (0, 0, 0.00000000000000000000e+00) (0, 0, 0.00000000000000000000e+00) (0, 0, 0.00000000000000000000e+00) (0, 0, 0.00000000000000000000e+00) (0, 0, 0.00000000000000000000e+00) (0, 0, 0.00000000000000000000e+00) (0, 0, 0.00000000000000000000e+00) (0, 0, 0.00000000000000000000e+00) (0, 0, 0.00000000000000000000e+00) (0, 0, 0.00000000000000000000e+00) (0, 0, 0.00000000000000000000e+00) (0, 0, 0.00000000000000000000e+00) (0, 0, 0.00000000000000000000e+00) (0, 0, 0.00000000000000000000e+00) (0, 0, 0.00000000000000000000e+00) (0, 0, 0.00000000000000000000e+00) (0, 0, 0.00000000000000000000e+00) (0, 0, 0.00000000000000000000e+00) (0, 0, 0.00000000000000000000e+00) (0, 0, 0.00000000000000000000e+00) (0, 0, 0.00000000000000000000e+00) (0, 0, 0.00000000000000000000e+00) (0, 0, 0.00000000000000000000e+00) (0, 0, 0.00000000000000000000e+00) (0, 0, 0.00000000000000000000e+00) (0, 0, 0.00000000000000000000e+00) (0, 0, 0.00000000000000000000e+00) (0, 0, 0.00000000000000000000e+00) (61, 3, 5.00000000000000000000e-01) (61, 3, 5.00000000000000000000e-01) (61, 3, 5.00000000000000000000e-01) (61, 3, 5.00000000000000000000e-01) (61, 3, 5.00000000000000000000e-01) (61, 3, 5.00000000000000000000e-01) (61, 3, 5.00000000000000000000e-01) (61, 3, 5.00000000000000000000e-01) (61, 3, 5.00000000000000000000e-01) (61, 3, 5.00000000000000000000e-01) (61, 3, 5.00000000000000000000e-01) (61, 3, 5.00000000000000000000e-01) (61, 3, 5.00000000000000000000e-01) (61, 3, 5.00000000000000000000e-01) (61, 3, 5.00000000000000000000e-01) (61, 3, 5.00000000000000000000e-01) (61, 3, 5.00000000000000000000e-01) (61, 3, 5.00000000000000000000e-01) (61, 3, 5.00000000000000000000e-01) (61, 3, 5.00000000000000000000e-01) (61, 3, 5.00000000000000000000e-01) (61, 3, 5.00000000000000000000e-01) (61, 3, 5.00000000000000000000e-01) (61, 3, 5.00000000000000000000e-01) (61, 3, 5.00000000000000000000e-01) (61, 3, 5.00000000000000000000e-01) (61, 3, 5.00000000000000000000e-01) (61, 3, 5.00000000000000000000e-01) (61, 3, 5.00000000000000000000e-01) (61, 3, 5.00000000000000000000e-01) (61, 3, 5.00000000000000000000e-01) (61, 3, 5.00000000000000000000e-01) (61, 3, 5.00000000000000000000e-01) (61, 3, 5.00000000000000000000e-01) (61, 3, 5.00000000000000000000e-01) (61, 3, 5.00000000000000000000e-01) (61, 3, 5.00000000000000000000e-01) (61, 3, 5.00000000000000000000e-01) (61, 3, 5.00000000000000000000e-01) (61, 3, 5.00000000000000000000e-01) (61, 3, 5.00000000000000000000e-01) (61, 3, 5.00000000000000000000e-01) (61, 3, 5.00000000000000000000e-01) (61, 3, 5.00000000000000000000e-01) (61, 3, 5.00000000000000000000e-01) (61, 3, 5.00000000000000000000e-01) (61, 3, 5.00000000000000000000e-01) (61, 3, 5.00000000000000000000e-01) (61, 3, 5.00000000000000000000e-01) (61, 3, 5.00000000000000000000e-01) (61, 3, 5.00000000000000000000e-01) (61, 3, 5.00000000000000000000e-01) (61, 3, 5.00000000000000000000e-01) (61, 3, 5.00000000000000000000e-01) (61, 3, 5.00000000000000000000e-01) (61, 3, 5.00000000000000000000e-01) (61, 3, 5.00000000000000000000e-01) (61, 3, 5.00000000000000000000e-01) (61, 3, 5.00000000000000000000e-01) (61, 3, 5.00000000000000000000e-01) (61, 3, 5.00000000000000000000e-01) (61, 3, 5.00000000000000000000e-01) (61, 3, 5.00000000000000000000e-01) (61, 3, 5.00000000000000000000e-01) (61, 3, 5.00000000000000000000e-01) (61, 3, 5.00000000000000000000e-01) (61, 3, 5.00000000000000000000e-01) (61, 3, 5.00000000000000000000e-01) (61, 3, 5.00000000000000000000e-01) (61, 3, 5.00000000000000000000e-01) (61, 3, 5.00000000000000000000e-01) (61, 3, 5.00000000000000000000e-01) (61, 3, 5.00000000000000000000e-01) (61, 3, 5.00000000000000000000e-01) (61, 3, 5.00000000000000000000e-01) (0, 3, 0.00000000000000000000e+00) (76, 3, 5.00000000000000000000e-01) (76, 3, 5.00000000000000000000e-01) (76, 3, 5.00000000000000000000e-01) (0, 3, 0.00000000000000000000e+00) 
connections (connected_to_neuron, weight)=(0, 2.17611754266116841361e-01) (1, 1.73592687727141259391e-01) (2, 1.65177481799470615709e-01) (3, 9.81576956491292743068e-03) (4, -4.88352803838545068693e-01) (5, -1.86604798117427389537e-01) (6, 2.27398510011517812623e-01) (7, 1.29729194298027317167e-01) (8, -4.15182976743997678160e-01) (9, 1.83208181982580584068e-02) (10, 7.39376753296231287171e-02) (11, -1.70963387326780708042e-01) (12, 3.58219697377560736262e-02) (13, 1.81619946611280752569e-01) (14, -2.96613043797492925702e-01) (15, -9.01832191333215744955e-04) (16, 2.56631571524580937016e-01) (17, 7.18232405430855092021e-01) (18, -2.65150807554204837047e-01) (19, 2.13441648862943533782e-01) (20, 7.91601021625139289473e-02) (21, 4.64396375385194237762e-01) (22, -4.03043104335855106868e-01) (23, 1.83546326978309554123e-01) (24, -7.69541577025614209617e-01) (25, 8.06530963523275690186e-01) (26, -6.72006230743482313450e-01) (27, 1.59140452905152135488e-01) (28, -5.73282466786859568053e-01) (29, 1.62329248834603756535e+00) (30, -1.78362239706469027922e+00) (31, -8.22579711675643920898e-02) (32, -6.95914859747871150653e-01) (33, 5.79523742763628613162e-01) (34, -2.45734666828757886137e-01) (35, 6.06314295220869506342e-02) (36, 1.34016616707919378193e+00) (37, -1.99133251241308961710e+00) (38, 6.94770957175541575834e-02) (39, 1.48350054726540864225e-01) (40, 1.75510712364397414298e+00) (41, -2.76856906639461719521e+00) (42, 6.41951235713800083538e-01) (43, 4.01278342769292917236e-01) (44, 1.08157883169745705487e+00) (45, -2.04617417412418367562e+00) (46, 1.08833231391454496317e-01) (47, -2.71625603502685664115e-01) (48, -2.79550372284590342709e-01) (49, -1.14601580001434877332e+00) (50, -3.85072483226000572554e-01) (51, -5.48565472761355144016e-01) (52, -5.18913265378119770155e-01) (53, -5.42579125733690381672e-01) (54, 1.84507749593320641290e-01) (55, -6.36403492230772638294e-01) (56, -7.05183664030588852611e-01) (57, 3.44296477980636062011e-01) (58, -9.85419424913143576772e-02) (59, -2.15916277673139478388e-01) (60, -2.36241220472482371662e+00) (0, 5.47597832405113726928e-01) (1, -4.67543046829090092054e-01) (2, -8.10224754526671420152e-01) (3, 1.18267166873382671699e-02) (4, -1.90243668237056517967e-01) (5, -3.07093698672077142220e-01) (6, -4.97912623511368834794e-01) (7, 4.19996692572162863555e-02) (8, 7.19391522232843694251e-02) (9, -5.42720285272204616689e-01) (10, -4.07990298726301825472e-01) (11, -1.49477017182587379462e-01) (12, 2.20756502277702659764e-01) (13, 1.00651643534110948885e-01) (14, -6.11731365175767205500e-01) (15, -4.55390111443732925611e-01) (16, -2.30748255673778983332e-02) (17, 2.00663128927060452344e-01) (18, -2.74132017467432653746e-01) (19, -2.87384692287710685754e-01) (20, 3.71042747402818728908e-01) (21, -7.04261094732550163577e-01) (22, -4.81768248781725486052e-02) (23, -3.32229460961754041737e-02) (24, 4.58596275495236960218e-01) (25, -6.79899943277344598336e-01) (26, -1.87877835796467385077e-01) (27, -1.96617974936085543325e-01) (28, -1.24042332820297307450e+00) (29, 7.19723258918254282790e-01) (30, -2.72324494164001118524e-01) (31, 3.39925289154052734375e-04) (32, -1.07830891555300389939e+00) (33, 1.50869981111933415541e+00) (34, -1.00148605164085213737e+00) (35, -1.06319431145295059671e-01) (36, -3.20377340579253266917e-01) (37, 4.75866545576203170409e-01) (38, -6.23885795986075852859e-01) (39, -2.18327625793380553088e-01) (40, 8.75673219581170503290e-01) (41, -1.43653369648737050390e+00) (42, 1.05282902182430943006e-01) (43, 1.07387469095097790039e-01) (44, 6.44616565283555043031e-01) (45, -1.83247241464965981983e+00) (46, 4.18535508841496248222e-02) (47, 3.52466887565631437074e-01) (48, 2.73487081476688598247e-01) (49, -1.52932945757831317835e+00) (50, 3.33562157234550016316e-01) (51, 3.73308860129618960699e-02) (52, -2.57111208030318949547e-01) (53, -9.44205763311061985199e-01) (54, 5.25824505925116314486e-01) (55, -1.16195271411462117128e-01) (56, 5.69205417355669984758e-01) (57, -6.35631006363419737148e-01) (58, 2.13051404879672279247e-01) (59, -3.25850279195982805991e-01) (60, -1.22957301488497994235e+00) (0, -3.63712446198386551988e-01) (1, -5.78112066645395605846e-01) (2, 6.52415251419624503404e-02) (3, -6.44163029672700504502e-02) (4, -4.04134180736801740252e-01) (5, -2.74431322645885655831e-01) (6, 5.16795963244922329505e-02) (7, -1.73152810563300091351e-01) (8, -2.16134066278433178976e-01) (9, -1.19157644117184421950e-01) (10, -5.90529696342094630179e-03) (11, -2.33463721098450177616e-01) (12, -3.03160768417353565507e-01) (13, -1.49651625572779278794e-01) (14, -1.87102383591452842149e-01) (15, -5.41803445094049332398e-02) (16, -1.48186482047437728671e-01) (17, -2.04044236105622556199e-01) (18, -1.24901349086093557683e-01) (19, -1.96462921257581774048e-01) (20, -9.54045474634441226236e-02) (21, -1.20003854524760880662e-01) (22, -4.23515134304468798820e-01) (23, -1.07730991856779756422e-01) (24, -4.30577330627235702054e-02) (25, -7.75723612446207414634e-03) (26, -4.47185234920737972875e-01) (27, -5.21776920587776471550e-02) (28, -4.91452108678197996383e-01) (29, -3.89351846114332600379e-01) (30, 2.32807036249092352831e-01) (31, -9.84207019209861755371e-02) (32, -3.95077539115758769039e-02) (33, 1.40234553069131295810e-01) (34, -4.47890734832954717781e-01) (35, -1.40224343798165757002e-01) (36, -3.31126726828761486221e-01) (37, 1.22370835470316283167e-01) (38, -5.23780917699485426553e-01) (39, -1.87189257253641307133e-02) (40, 1.48332503459485010033e-01) (41, 1.26104677878885323983e-01) (42, -6.27914413242508850921e-01) (43, -1.40475294633068625849e-01) (44, 7.56498596457344102406e-02) (45, -1.41328377441943597859e-01) (46, -6.26235757979843654653e-01) (47, -4.08254940783844555430e-02) (48, -1.99458932357264667745e-01) (49, -2.77413288605722452296e-01) (50, -1.52051438000626731872e-01) (51, -1.54994988474435962944e-01) (52, -3.98123425841391209712e-01) (53, -2.16498834251787203309e-01) (54, 1.16161276095250412532e-01) (55, -5.48855268253375105925e-02) (56, -1.22072225264079875506e-01) (57, -4.21000943044646414037e-01) (58, -1.00402977305305493583e-01) (59, -2.61880586062025189076e-01) (60, -3.93870350751626852048e-01) (0, -2.70336605243432170909e-01) (1, -4.50704993260385322618e-01) (2, -3.33570867376679791594e-01) (3, 3.72602671050076749912e-03) (4, -3.43672855103987207048e-02) (5, -3.78617978079770600708e-01) (6, -3.08517684176040640764e-01) (7, -1.11963337151608374742e-01) (8, -2.90660949717676919679e-01) (9, -2.59200233533540436159e-01) (10, -3.42029063594574203599e-02) (11, -2.32446679256393867741e-01) (12, -2.93359392299937349335e-01) (13, -2.05036252238509852930e-01) (14, 9.08683365843896556635e-02) (15, -2.67918083028486131436e-01) (16, -3.03302984235980011007e-01) (17, -3.01072694026428611114e-01) (18, 2.06386603349103026073e-01) (19, -9.85499950046017925143e-02) (20, -2.74493135712338964805e-01) (21, 1.98755147375003155333e-03) (22, -1.44976019030735980841e-01) (23, -4.61426371677806437810e-02) (24, -2.18645336678611162951e-01) (25, 1.78966421700726130428e-01) (26, -2.54444927439855805851e-01) (27, -5.44852887963194199017e-02) (28, -7.40093270486339660508e-01) (29, -4.53217361349810554660e-02) (30, -1.93579131982153263003e-01) (31, -3.15809398889541625977e-02) (32, -1.80041932549170752287e-01) (33, -1.34478621624714005794e-02) (34, -3.55280174688579863940e-01) (35, -1.40054195263531189308e-01) (36, -2.05619677511030440886e-01) (37, 2.57580671699615092185e-02) (38, -1.36850142928015588994e-01) (39, 8.37116798718858245998e-02) (40, 4.14217601745747524000e-02) (41, -9.58993316538071932653e-02) (42, -2.89460898161749025093e-01) (43, -1.04336515596541792861e-01) (44, 4.56572948471406434012e-02) (45, -6.10261679910895776802e-02) (46, -1.93911309904174739005e-01) (47, -9.99888704632516250870e-02) (48, -3.09614926710465754311e-01) (49, -5.92702382578533526480e-02) (50, -2.01772975793863551530e-01) (51, -1.69942724372554671008e-01) (52, -2.47247541828791383978e-01) (53, -2.56837150718638496105e-01) (54, -9.60008738546758583210e-02) (55, -1.89501764752945875414e-02) (56, -1.64852486519230484463e-01) (57, -3.84320607770786193402e-01) (58, -1.38271537448797793984e-02) (59, -2.26648260819925340126e-01) (60, -3.82218086087446340393e-01) (0, -2.35400880768648276820e-02) (1, -6.09634171895956478160e-01) (2, 3.69386140295279885581e-01) (3, -2.86814110402565880520e-01) (4, 1.33053361594977825888e-01) (5, -9.56161221710197462009e-01) (6, 6.54713148055313332030e-01) (7, -4.35871225512838467164e-01) (8, 2.23909738056619150859e-01) (9, -1.52971176930945729211e+00) (10, 8.38836569859149561168e-01) (11, -2.99337387658242026767e-01) (12, 5.16921219336319293092e-01) (13, -1.63548810478347306230e+00) (14, 7.55541628981320267933e-01) (15, 2.13012490315185681888e-01) (16, 5.96275312191676176710e-01) (17, -1.18648552938755380559e+00) (18, 6.99080684129208984601e-01) (19, 2.54511678143828912191e-01) (20, -3.95203242788841224709e-01) (21, -2.42167511686565167794e-01) (22, 3.54222528440964634644e-01) (23, -5.46519693356103536397e-02) (24, -5.27523123483476297224e-01) (25, -5.20764587953445157176e-01) (26, -3.42485350829493329083e-01) (27, 3.59918878533611930060e-01) (28, -6.38973337723227396978e-01) (29, 3.37819566620280564706e-01) (30, -9.83550356176666307206e-01) (31, -6.20984174311161041260e-02) (32, -1.41591153316453999267e+00) (33, -1.76487335239129544684e-01) (34, -7.01936646968321503737e-02) (35, 2.66203622653479299309e-01) (36, -4.32031166345772599247e-01) (37, -1.68744905408935524926e-01) (38, 9.30852084507365062915e-02) (39, -4.67042028816489096510e-01) (40, 1.92696510544725696512e-01) (41, -6.51865504439903320488e-01) (42, 1.19189191182285346426e-02) (43, -4.01085719290607767284e-01) (44, -1.10368803449793217997e-01) (45, -4.60320934666814174374e-01) (46, -2.87722490214263770802e-01) (47, -1.38836979274373856219e-01) (48, -2.54179142450463475822e-02) (49, -5.00649840007533986075e-01) (50, -2.49034516072075662318e-01) (51, 4.23789379948506586548e-02) (52, 1.05074303450760728196e-01) (53, -6.23034203077394321824e-01) (54, -7.36661838644632749329e-02) (55, -2.68923463573599585974e-01) (56, 9.61299283046483932225e-02) (57, -9.62600383404662585107e-01) (58, 3.76432985316678014875e-01) (59, -1.35815525909562723195e-01) (60, -9.31712193322737247669e-01) (0, -3.20589831726821816726e-01) (1, -1.21357113085351950299e-01) (2, -7.87409871782776410454e-02) (3, -1.73533536154475948043e-01) (4, -1.66969992339108558310e-01) (5, -3.22953821574591570798e-01) (6, -2.73165084971033256256e-01) (7, -1.07271382334883633169e-01) (8, -1.00397848330985528520e-01) (9, -1.28507698180824719847e-01) (10, -3.11387450389985220855e-01) (11, -1.55639014223312360796e-01) (12, -7.62976890171938454399e-02) (13, -1.75834808458822128285e-01) (14, -2.06446450418346527655e-01) (15, -2.26506028366736944513e-01) (16, -1.82302261150841415915e-01) (17, -2.31067446705045781430e-01) (18, -1.04698823633784493525e-01) (19, -7.23824807597535507808e-02) (20, -3.08941464403229726354e-01) (21, -7.05057161242689661718e-02) (22, -1.49105599781630349110e-01) (23, 2.23663836955407882567e-02) (24, -2.82501915323092045451e-01) (25, -3.09766770398111519758e-02) (26, -2.51117966522956648223e-01) (27, 1.46357995640355297712e-02) (28, -5.38271553466442509439e-01) (29, -1.32849747976019894047e-01) (30, -1.95021574270581754540e-01) (31, -1.26105993986129760742e-02) (32, -4.45237606046004708027e-01) (33, -2.05894634508255389149e-02) (34, -2.18965634880416037955e-01) (35, -5.15023900670934717261e-02) (36, -4.21302220780724490101e-01) (37, 1.80769450927674955876e-02) (38, -4.61357091983968653492e-02) (39, 5.98257624142524702116e-02) (40, -2.08667066728626449112e-01) (41, -2.35674381750696299020e-01) (42, -1.76878856617965762865e-01) (43, -7.97922192321256357195e-02) (44, -1.98781638867597115761e-01) (45, -1.39375561298890088269e-01) (46, -1.06243982490157706788e-01) (47, -1.37388336982497416550e-01) (48, -1.47297351909956159011e-01) (49, -1.94348855208612308898e-01) (50, -5.75265718652992127935e-02) (51, -3.83117169998704945599e-02) (52, -1.10392081071780140400e-01) (53, -2.08211602229435521760e-01) (54, -2.20524395830726804846e-01) (55, -3.38406484994877507222e-02) (56, -1.28011339175506583254e-01) (57, -2.30077901868789763684e-01) (58, -1.21527510015135939425e-01) (59, -7.78787942890087764303e-02) (60, -3.92455507228750943849e-01) (0, -4.18256925216973551862e-01) (1, -1.32476171224762961920e-01) (2, -5.98128328569460299136e-01) (3, 2.73461778815260181386e-01) (4, 7.50599137502096364072e-02) (5, -8.76549913258920093684e-02) (6, -1.43140730350053924091e-01) (7, -1.38726210116032533382e-01) (8, -2.64384618946656768657e-01) (9, -2.49855752575327105802e-01) (10, -3.72817666130626945709e-01) (11, -1.51540326071924580376e-01) (12, 1.68983276687300794372e-02) (13, 1.09165877953442597148e-01) (14, -1.49523430207501428768e+00) (15, -2.55266047771133784694e-02) (16, -1.29535695530324690417e+00) (17, 8.08421577865275242658e-01) (18, -1.09587646889382428483e+00) (19, -1.62667108071577401485e-02) (20, -1.02665258218558075320e+00) (21, 1.16995296626002720508e-01) (22, -3.42798906474470033157e-01) (23, -9.96256862556472999604e-02) (24, -1.99233112726106442736e+00) (25, 1.32836988709085957079e-03) (26, 1.08509488742784188098e+00) (27, -1.92823602655461862065e-01) (28, -4.06610687269526760446e+00) (29, 9.39386155248190801714e-01) (30, 2.43175105897833221391e+00) (31, -9.27707701921463012695e-02) (32, -2.38806319728170057815e+00) (33, 1.02397035072371034303e+00) (34, 8.12391335733739783365e-01) (35, -2.38058528022926041423e-01) (36, -1.51573574617146622501e+00) (37, 1.25538003134450071308e+00) (38, 2.58014262559567442157e-01) (39, 2.02192334232838867580e-02) (40, -1.05967386479953962208e+00) (41, 1.21787448232135320225e+00) (42, -4.92959072156533839593e-01) (43, -1.46239475475548635908e-01) (44, -3.75582214459786345451e-01) (45, -9.52232361819555089832e-02) (46, -6.31243291633457381806e-01) (47, -3.37946503412474008599e-02) (48, -5.24537881411424461442e-02) (49, -4.57151964879728811564e-01) (50, -7.81865068725247081005e-01) (51, -5.91337002084879465036e-02) (52, -1.73672342258448214602e-01) (53, -6.16104128653713223329e-01) (54, -2.91664727174533955356e-01) (55, 1.47210087490000779420e-01) (56, -3.88171877823813793462e-01) (57, -4.02448987014747960878e-01) (58, -6.76807493864655218552e-01) (59, 4.46512686814669379487e-01) (60, -2.39586720407168440872e+00) (0, 2.32845888428389075075e-01) (1, -1.15580685893056944735e+00) (2, -2.32149940616972971785e-01) (3, 1.31745062598950885002e-01) (4, -5.29801124966153835771e-01) (5, -1.68545251090182479636e+00) (6, 6.18824555012496335671e-01) (7, 4.21317041118884016981e-01) (8, -5.64739431037009409486e-01) (9, -1.55759386186861825685e+00) (10, 2.20042567094162783148e-01) (11, 4.45242120860233236979e-01) (12, -3.82426897505077578732e-01) (13, -6.38013722514522818585e-01) (14, -2.12160432794837150450e-01) (15, -6.56381667455148837265e-02) (16, -3.98833848816350144961e-01) (17, -5.61531638531348020749e-01) (18, -1.60795130737054509096e-01) (19, 4.70993963729385345385e-01) (20, -1.13844230027421056128e+00) (21, -1.24544070897137273968e-01) (22, 5.69958026990467270245e-01) (23, -1.71495820821313565974e-01) (24, -2.32455728481107914973e+00) (25, 4.73685849854400542469e-01) (26, 1.06954118619448634853e+00) (27, -5.54109973459155580322e-01) (28, -2.74598363291864222546e+00) (29, 7.82583302015292470166e-01) (30, 6.53878991727795177979e-01) (31, 3.95627394318580627441e-02) (32, -1.83783308133600620238e+00) (33, 5.87375030369151729381e-01) (34, 8.09349350295678782174e-01) (35, -2.63268797602880300079e-01) (36, -5.88374146980049639311e-01) (37, -2.27178748565852350882e-01) (38, 4.33918293218781336851e-01) (39, -2.82650274964971574831e-02) (40, -9.39272584944669031159e-01) (41, -6.70745880217940460000e-01) (42, 7.61634721067885656076e-01) (43, -1.21636191431734097534e-01) (44, -8.32821075000129251720e-01) (45, -5.62640948621640712979e-01) (46, 7.47497845667522531343e-01) (47, 1.69711663340233603892e-01) (48, -3.93958554432080443330e-01) (49, -4.76821699530841913717e-01) (50, 2.72932609502785750166e-01) (51, 5.45949830635854893579e-01) (52, -2.83735979353119505131e-01) (53, -8.37936525091627526507e-01) (54, 1.67768979040885557463e-01) (55, 5.45972780585323280711e-01) (56, 1.34749784135244132788e-01) (57, -3.93443031465750769904e-01) (58, -1.29903317838112819516e-01) (59, -2.26102391774907623967e-01) (60, -3.81522546915005145163e-01) (0, -2.49830142263055693386e-01) (1, -9.53233319065027173700e-01) (2, -2.08155365063011250915e-02) (3, -1.63002581865914139558e-02) (4, -3.45564240989472637455e-01) (5, -5.60121743101780755758e-01) (6, 8.53215524587328799644e-02) (7, -7.65898437060470171911e-02) (8, -6.85111450737198923733e-01) (9, -8.27591124501782238188e-02) (10, 2.15940038551684060364e-01) (11, -2.11175898515758742047e-01) (12, -5.42590693346162278310e-01) (13, -8.60468753066532671125e-02) (14, 1.39586848695863657843e-01) (15, -1.67942747707965994719e-01) (16, -4.71005563172257890603e-01) (17, -4.17848309509084858693e-01) (18, 1.78089135142495635922e-01) (19, -2.13428963884841699228e-01) (20, -3.34204728763334679709e-01) (21, 2.08087880425248880623e-02) (22, -1.87294212192918696491e-01) (23, -1.39936422847708824557e-01) (24, -1.72847593567958313088e-01) (25, 5.58970106055056370487e-01) (26, -5.77598495549251911285e-01) (27, 3.56836777124907994496e-02) (28, -3.57594614091111540066e-01) (29, -2.40209584949438698098e-01) (30, -2.81344723438040900110e-01) (31, 9.37672629952430725098e-02) (32, 1.04330313947890666176e-02) (33, 1.86465505968537170745e-01) (34, -6.38810627569640021584e-01) (35, -8.81013598595971336724e-02) (36, -5.57090906208544262013e-02) (37, 2.08370008930341299447e-01) (38, -7.26011338070646550236e-01) (39, 2.87994067740916202813e-02) (40, 4.34300744794199000687e-01) (41, -9.36590414694678241592e-02) (42, -7.09910573829141244850e-01) (43, -6.03991297911385741082e-03) (44, 6.03356585992533389629e-01) (45, -4.51179289808313455090e-01) (46, -6.37110083210853384017e-01) (47, -9.78040515357005840746e-02) (48, -1.04118979107759135339e-01) (49, -1.48496518737065819060e-01) (50, -2.66122046746365858993e-01) (51, -7.17746213643105368529e-02) (52, -5.10871716061155889399e-01) (53, -1.50450337422026236833e-01) (54, 3.00089177445030941271e-01) (55, -9.27391106743861021178e-02) (56, -5.77158003480234896299e-02) (57, -2.98055286551682840912e-01) (58, 1.45500184201873161705e-01) (59, -2.79343063476968356262e-01) (60, -3.74111874635043362147e-01) (0, 4.95300107899352526353e-01) (1, -5.87848405538428320227e-01) (2, -3.15626098346844449760e-02) (3, 7.29977708724119156436e-01) (4, -2.03350264918275597248e-01) (5, 1.27871670965187922420e-01) (6, -1.65393677401594774157e-01) (7, 2.57424763219984753526e-01) (8, 6.70923375083012807352e-01) (9, 1.76690309159142744377e-01) (10, 3.43617386833512172828e-01) (11, 1.29968092082506370133e-01) (12, 4.13703783269311786697e-01) (13, 7.14919041330022264624e-01) (14, 3.23997400231508303481e-01) (15, 6.01245140642266306941e-01) (16, 7.38355563063227249287e-01) (17, 5.11313681585506940586e-01) (18, -3.02976430566600285488e-01) (19, 4.98105038866193783331e-01) (20, -7.12550034903612017345e-01) (21, 3.16850984967480364674e+00) (22, -1.71277646498555191634e+00) (23, -8.38814872545008305416e-01) (24, -2.57852528545805226301e+00) (25, 3.98667568730386179254e+00) (26, -1.21262608612614730674e+00) (27, -2.76429461659653923078e-02) (28, 1.23545886008517546983e+00) (29, -1.37513571792375244307e+00) (30, -6.46986943350264076535e-01) (31, -9.52833145856857299805e-02) (32, -1.46271555682619791572e-01) (33, -8.87868263261788470686e-01) (34, 1.74951885498480008696e-01) (35, -2.50193696489442451991e-03) (36, 3.13946065402793794696e-01) (37, -1.21140996685501534103e+00) (38, 5.10235686324689297066e-01) (39, -5.14104908531351934009e-01) (40, -4.97909816790341464010e-01) (41, 2.66731611358934805889e-01) (42, -5.14128588942993625110e-01) (43, -3.27078639048374586462e-01) (44, -2.38480449363111746131e-01) (45, 2.29182462307076811880e-01) (46, -1.02335592955804327575e-01) (47, 3.39682728032999148304e-01) (48, -2.32220735398951716455e-01) (49, 2.59244655919636246555e-01) (50, -2.50426091386038884856e-01) (51, 4.49390183193142320195e-02) (52, 5.03792137588121094471e-02) (53, -1.35938113569341018083e-01) (54, 5.93303759571910324655e-02) (55, -4.21866636142234907592e-01) (56, 2.15482808606110048943e-01) (57, 1.24550187554302999038e-01) (58, -1.08449873047691582040e-02) (59, 1.28200005546094064623e-01) (60, -1.84727638928699766652e+00) (0, 1.33885691354395125474e-01) (1, 1.67298048278504740694e+00) (2, -1.13124454423790399282e+00) (3, -2.72035289821161152535e-01) (4, 4.85721591839776423161e-01) (5, 3.15964683540197355249e-01) (6, -1.32124132484429279710e-01) (7, -2.35106788351216650090e-01) (8, 6.12159037922339610560e-01) (9, 4.32142688742183436745e-02) (10, -4.37610783057813312880e-01) (11, 1.00665463434677027177e-01) (12, 2.13998357306132730438e-01) (13, -2.00232767503788627872e-01) (14, -8.01655735804541053069e-02) (15, -2.26491158129509401187e-01) (16, 2.23514351809160599638e-01) (17, -7.20887369870281125017e-01) (18, -4.24916354468946377843e-01) (19, 1.59866674117270179956e-01) (20, 1.84286750174531610558e-01) (21, -1.12803204146922775308e+00) (22, 3.29546866245741532087e-01) (23, -3.18787013829263318754e-02) (24, -1.02960281192205349576e+00) (25, -1.71847024730409514426e+00) (26, 1.15448963079097488560e+00) (27, 1.05826848387461436296e+00) (28, 2.72776949799658829932e+00) (29, -2.19797628395207489405e+00) (30, -1.25706524695158389227e-01) (31, -2.21481695771217346191e-02) (32, 3.84265473518534350639e-01) (33, -1.00695758864019380141e+00) (34, -8.61832728683532972580e-02) (35, 6.39752716475625371473e-01) (36, -4.18553315687879345930e-01) (37, -7.82699038015405648694e-03) (38, -4.00488315784644111073e-01) (39, -4.25792423374397766000e-01) (40, -2.49357298376347263913e-01) (41, 3.38063607540011801245e-01) (42, -1.05555025007038927320e+00) (43, -2.44276897254892239042e-01) (44, -8.78934503579434478482e-01) (45, 1.06787281810490286560e+00) (46, -6.54763623110154568963e-01) (47, -2.56104833593619130028e-01) (48, -3.60258566792707513038e-01) (49, 4.11597964555353523775e-01) (50, -6.44045876920203319571e-01) (51, -3.79262010062944299182e-02) (52, -8.81597244138784819079e-02) (53, 1.28846219254468402626e-01) (54, -1.00634960272950158000e-01) (55, 7.34776817043427676879e-02) (56, 1.85042446147783840038e-01) (57, -4.02855667590509836096e-01) (58, -8.78076086400736643967e-01) (59, 4.31358934493712209424e-01) (60, -1.39361669419604838893e+00) (0, -3.77880697332597326188e-01) (1, -1.13517992594825489761e+00) (2, 6.30516445493033012015e-02) (3, -4.40286098167417955240e-02) (4, -6.59067755196751314806e-01) (5, -7.79219303161631349219e-01) (6, 4.37132685127240017131e-01) (7, -2.90086732108021216892e-01) (8, -1.00441160097414949881e+00) (9, -2.44430378461349878672e-01) (10, 4.39665027898321403299e-01) (11, -4.19285025381730513949e-01) (12, -8.67162481874373058943e-01) (13, -1.45758726558651241501e-01) (14, 3.63742988545235401698e-01) (15, -4.45090452246183876372e-01) (16, -7.33254591365549379667e-01) (17, -3.50628394183972569298e-01) (18, 1.94688077833983563814e-01) (19, -4.54604861028807594181e-01) (20, -4.99268112640215366849e-01) (21, -1.67327999266683680180e-01) (22, 3.08045408853761110146e-02) (23, -1.57466199692924524456e-01) (24, -4.74842239748347549888e-01) (25, 1.38375331730821421461e-01) (26, 2.65489343683470158108e-01) (27, -1.26043634471648430262e-01) (28, -1.21808568192280519682e+00) (29, -2.70571803909425145918e-01) (30, 1.22733499622005370888e+00) (31, 6.50337710976600646973e-02) (32, 6.33488604814774480811e-02) (33, -1.27621900760048090362e-01) (34, 2.32388698362206748416e-02) (35, -1.10316643274346481984e-01) (36, 1.34087333422540255778e-01) (37, -3.02025037330400702995e-01) (38, -5.79953953926618304138e-01) (39, 1.43379820201812474556e-01) (40, 5.64520224356521049813e-01) (41, -5.82440941293742922569e-02) (42, -8.55770750832619331305e-01) (43, -1.84886765611320696978e-01) (44, 3.36440103126355416485e-01) (45, -3.17919116231512810522e-01) (46, -8.92162152157813581610e-01) (47, 2.21064593700026901235e-01) (48, -1.75399322342926905494e-01) (49, -1.12251369606927664524e-01) (50, -7.69050856702751861604e-01) (51, 1.83261746656785323717e-01) (52, -2.84229782900818184199e-01) (53, -4.74978849692785809466e-01) (54, -8.18296645885668860743e-03) (55, 7.91929238585052513999e-02) (56, -1.91800565686210955363e-01) (57, -6.78367063087589872161e-01) (58, 5.61240830411276411804e-02) (59, -2.02677274094584941588e-01) (60, -5.10674931936777709574e-01) (0, -2.12817413669511318330e-01) (1, -2.35725712639975465423e-01) (2, -1.98149033496354043393e-01) (3, -4.91623983619482174401e-02) (4, -5.80159053117167630709e-02) (5, -3.28850663744897131480e-01) (6, -2.59519281448535032997e-01) (7, -4.97935582889898406544e-02) (8, -1.90850559746225417745e-01) (9, -1.37533470959487313934e-01) (10, -2.04923349090303658082e-01) (11, -1.51842650466203793469e-01) (12, -2.11363697547037765467e-01) (13, -1.53128279588302107506e-01) (14, -1.30510319544399233660e-01) (15, -1.47558736928186967630e-01) (16, -3.13126823599335579740e-01) (17, -1.10524043163464869011e-01) (18, -2.26736173192782219932e-01) (19, 7.99791316106076149994e-02) (20, -1.81467074597249422574e-01) (21, 8.63530663732083869633e-02) (22, -2.02231559641418562334e-01) (23, -2.31781852986687082752e-02) (24, -2.56492349852648349184e-01) (25, 8.73410101772686825461e-02) (26, -3.28915421718662948081e-01) (27, 1.25662883678756026606e-01) (28, -2.44000240243953142594e-01) (29, -4.91212489494470758156e-02) (30, -5.81026283137724863792e-01) (31, 3.60061153769493103027e-02) (32, -3.22079401973354495503e-01) (33, -8.31441091525976089249e-02) (34, -2.17706981566017782059e-01) (35, 3.21740484167833337703e-02) (36, -2.69563007419172051549e-01) (37, -7.75516231738858502487e-02) (38, -2.38479582414175078631e-01) (39, 6.70383687169556069518e-02) (40, -1.88529230311836437650e-01) (41, -1.83183047882335692247e-01) (42, -5.74813256204604466904e-02) (43, 2.24027768253049208713e-02) (44, -4.63181901729609254992e-02) (45, -1.93479555015782928029e-01) (46, -6.35464822156245057183e-02) (47, -1.38546417261624366102e-01) (48, -2.85084368359806938908e-01) (49, -1.03448676377310685992e-01) (50, -2.71530986226457549115e-01) (51, 3.63147216318386503037e-03) (52, -9.28702377882742458048e-02) (53, -1.99803913959614332096e-01) (54, -2.77409337302128411462e-01) (55, -5.25559399102482963095e-02) (56, -1.75655828559517224186e-01) (57, -3.31838326089478663494e-01) (58, -2.54287995751354689578e-01) (59, -1.25358233427924486980e-01) (60, -5.51236134428571555866e-01) (0, 1.06232898719549592736e-01) (1, -4.33152268388301175950e-01) (2, -3.35094048891194040696e-01) (3, 2.57238469212133918917e-02) (4, 8.60350342265790539453e-03) (5, -2.20228796103866142353e-01) (6, -1.22282904783260856774e-01) (7, -2.93072340842354561730e-01) (8, 7.98019894677557267704e-02) (9, -3.36146200989465349096e-01) (10, 3.35072666158462845187e-02) (11, -3.19003011616504683623e-01) (12, -2.83358468416514235055e-02) (13, -1.69405249189149981204e-01) (14, -1.01498142735842344919e-01) (15, -1.71709016324738755754e-01) (16, -3.50327575052395978616e-01) (17, 1.68230632981876820908e-01) (18, -5.58770343105472883094e-02) (19, -1.69846847952890817046e-01) (20, -1.97186898463604431964e-01) (21, 3.27775710771884346006e-02) (22, -2.87862972450675047575e-01) (23, -9.00427632455876925978e-04) (24, -1.35374555939832441620e-01) (25, 5.16157497714064550376e-02) (26, -1.13169983671553814331e-01) (27, -7.15327593102497161226e-02) (28, -9.61886545440809759278e-01) (29, 5.20635101692097701509e-01) (30, -1.20180527643228313162e-01) (31, -3.50328534841537475586e-02) (32, -6.92485059560803417611e-01) (33, 4.19511990959593017436e-01) (34, -2.69012952710642017085e-01) (35, -1.04252480083901005736e-01) (36, -3.46901795022323711226e-01) (37, 4.06376711169555482339e-01) (38, -1.60457673111415205502e-01) (39, -2.26549672614763143719e-02) (40, -2.48239881374421544891e-01) (41, 1.49480185755061695252e-01) (42, -3.38421924567450960186e-01) (43, 4.79082307874365009859e-02) (44, -3.25724969232715211298e-02) (45, -3.16334040941490535204e-02) (46, -2.00015508915419665259e-01) (47, -1.09088941619168225405e-01) (48, -1.38833748850752419779e-01) (49, -4.28073805538621843247e-02) (50, -2.24350171560958239203e-01) (51, -1.12864135320159930664e-01) (52, -1.22651251107153483333e-01) (53, -2.37069868408490203038e-01) (54, -5.43648596416267185227e-02) (55, -4.80578792822231037896e-02) (56, 8.60008592132582849743e-02) (57, -4.60177687521903466816e-01) (58, -2.40548468970041090520e-01) (59, 3.92899452081619943167e-02) (60, -1.13388902805833491350e+00) (0, -2.35795557755744400463e-01) (1, -1.09213413777193651955e-01) (2, -1.46961895181827284507e-01) (3, -8.28864172591213810293e-02) (4, -8.48045896593838666178e-02) (5, -2.72649238585792208500e-01) (6, -1.62978036050158703318e-01) (7, -4.41745405621824099862e-02) (8, -1.09155739864258014005e-01) (9, -1.78821554393942649952e-01) (10, -2.58378378463395952380e-01) (11, -2.79954127724896043028e-02) (12, -1.59469133399603196777e-01) (13, -1.92467270451279259813e-01) (14, -1.73367921224654830681e-01) (15, -1.50960773231973710562e-01) (16, -2.46711222414346814658e-01) (17, -1.66966009141587240494e-01) (18, -2.25650334284661413520e-01) (19, -2.56309021578900037008e-02) (20, -4.39006253921576217181e-01) (21, -9.58166670023581773519e-02) (22, -1.23900483497189128901e-01) (23, 2.82465841281732861490e-02) (24, -3.10202338279942035904e-01) (25, 1.26349921803154768840e-01) (26, -1.96860106371751775178e-01) (27, -1.04353283453874956521e-01) (28, -4.13889450471819686506e-01) (29, 7.50116516364274094064e-02) (30, -6.67653576078736932242e-02) (31, 3.67248132824897766113e-02) (32, -4.53712479863819018178e-01) (33, 1.98134350386067470406e-02) (34, -2.60914396698627593096e-01) (35, 4.12001034043626285230e-02) (36, -4.49069624552364432546e-01) (37, 4.23267829350997271121e-02) (38, -4.00102645288344868635e-02) (39, 9.20238877156641377209e-02) (40, -2.94672005668338454765e-01) (41, -3.29555930820832010397e-01) (42, 9.61669666242217363594e-02) (43, -1.58410832292195880022e-01) (44, -2.88276900346400799524e-01) (45, -2.72718777490557506837e-01) (46, 2.64417108737766519411e-02) (47, -1.16487295780728597472e-01) (48, -2.56450758506375720014e-01) (49, -2.32673880544311845187e-01) (50, -6.32546201543389696731e-02) (51, -1.27513567030289265425e-01) (52, -6.33305888116038884217e-02) (53, -1.90146758727589793025e-01) (54, -2.03811346268740312127e-01) (55, -6.29740695184491938718e-02) (56, -1.79420916394989277132e-01) (57, -2.56033471224792086307e-01) (58, -1.42517515268911099113e-01) (59, -1.94532882906830850711e-01) (60, -3.89734355227152939882e-01) (0, 2.95495199065461122689e-01) (1, -3.67130460181389626020e-03) (2, 1.45594535904979317797e-02) (3, -3.10540800068898115160e-01) (4, 2.15104090875629677670e-01) (5, 8.89052819128955534866e-02) (6, -5.68662669350959326664e-01) (7, -3.53209789063297807665e-01) (8, -1.28410923508179009023e-01) (9, -7.54997117213299873129e-01) (10, 2.26731761155044786449e-01) (11, 1.34175215781101690726e-02) (12, 4.59878311075076651182e-01) (13, -5.24952571001338699763e-02) (14, 8.35606864632871954024e-02) (15, -6.49728756771694310190e-02) (16, -2.51150970388028665914e-02) (17, -5.13297168456594343766e-01) (18, 1.36499256463837592701e-01) (19, 1.38283654660312171902e-01) (20, 1.09388476743888032883e-01) (21, -5.19015949847234869807e-01) (22, -1.23150194599477721957e-01) (23, 4.80711002480781399160e-02) (24, -3.83679569407792575575e-01) (25, -3.62914474439572476427e-01) (26, -2.58338965302696899062e-01) (27, 8.75390518809171291892e-01) (28, 1.10177523125774023960e+00) (29, -9.51069776185533011237e-01) (30, -1.14109957674870177158e+00) (31, 4.68859151005744934082e-02) (32, -3.79678615152064447003e+00) (33, 1.71551859009810980794e+00) (34, 3.97674269501138433203e-01) (35, 8.19693505589425330804e-01) (36, -2.52688253920860272927e+00) (37, 1.09960828454629311324e+00) (38, -3.09252864771542790301e-01) (39, -1.05269131425696975228e-03) (40, -1.71954240139156255829e+00) (41, 5.06465631750196432215e-01) (42, -4.47666141503761549902e-01) (43, 3.91678039044169978844e-01) (44, -9.00944297358270085319e-01) (45, -3.17041989765077858454e-01) (46, 1.20101305538637820325e-01) (47, 2.44040804568096458826e-01) (48, -5.10019105878015799327e-01) (49, -2.83784802197480034991e-01) (50, 5.22273200309418261789e-01) (51, 5.43859184641758350298e-02) (52, 2.75761950402621136558e-01) (53, -1.55230823910381499076e+00) (54, 3.63407979646464873724e-01) (55, 1.49825008768632805811e-01) (56, -3.43056148232880608884e-01) (57, -1.10860495013136395315e+00) (58, 9.48094893354340162439e-01) (59, 1.98508060026592769720e-01) (60, -3.88583998935980945433e-01) (0, -2.61574277396830034981e-01) (1, 3.48082007496402666066e-03) (2, -1.19353603161490226525e-01) (3, 2.18407065334995986738e-01) (4, 5.08405369509689619711e-01) (5, 4.88869721158251169246e-01) (6, -3.78259577216973952307e-01) (7, -6.77303289301785405030e-01) (8, 2.13461336499199572092e-01) (9, 5.13188311558505971810e-01) (10, -4.67862966582758055267e-01) (11, -3.43882573589489703991e-01) (12, 4.97417553359211117581e-01) (13, 6.91396224683920368470e-01) (14, -1.85761816253472367144e+00) (15, -7.10779308565512128737e-03) (16, 1.11434886229115015510e+00) (17, 9.99676284737323284091e-01) (18, -2.94026267259435503121e+00) (19, -1.56843874059393068032e-01) (20, 1.09062574637290343738e+00) (21, 3.82637841912396747812e-01) (22, -2.53465197282333187800e+00) (23, -1.54791870131897768559e-01) (24, -1.08570106819987244329e-01) (25, -2.16547608029024979404e-01) (26, -1.03041585282645709043e+00) (27, -6.64158340810123148934e-02) (28, -1.20661907808285606691e+00) (29, -7.33461264902633858220e-01) (30, 6.16967436500225452356e-01) (31, -8.09406638145446777344e-02) (32, -1.98132010537400565786e-01) (33, -6.25402333171393154387e-01) (34, -7.31904636401065733509e-01) (35, -2.49565007677345594705e-02) (36, -4.37525189550723003773e-01) (37, 6.96414805161652772370e-01) (38, -7.89896538185672292265e-01) (39, -5.68687431281373223513e-01) (40, -6.48178733858659761324e-02) (41, -1.50366826410567588912e-01) (42, -1.39800732743066213892e+00) (43, 1.72235282553080348844e-01) (44, 1.74949660135708923159e-01) (45, -3.86369943959599171368e-01) (46, -7.72500475299177091770e-01) (47, 1.07979742639350437261e-01) (48, -5.22640347143299321964e-01) (49, -6.60357344063929319056e-02) (50, -8.87202879523380644189e-02) (51, 2.01996239442239183814e-01) (52, -5.07860428935157259822e-01) (53, -6.55486462986786144747e-01) (54, 3.71052519048620244035e-01) (55, -2.64872522972073753955e-01) (56, -1.61454978484174255238e-01) (57, -8.42648716390728691472e-02) (58, -1.09842077295777751367e+00) (59, -5.03860369652091799608e-01) (60, -7.42419446912948144401e-01) (0, -7.28170963322200992529e-01) (1, -8.80782907599128250808e-01) (2, -6.32536590151724698039e-01) (3, -2.38691106533357594310e-01) (4, 1.30462462530542590289e-02) (5, -3.15131699748891380697e-01) (6, -9.16041925961138536749e-01) (7, -2.35445038881344936854e-01) (8, -2.19156604371219060345e-01) (9, -2.11335041998658990092e-01) (10, -3.43504478594914286482e-02) (11, -5.85046509657387470149e-01) (12, -2.79955292264221333731e-01) (13, -1.08137750571441348946e+00) (14, -7.37414382851056260382e-02) (15, -2.89867273576282329095e-02) (16, -1.53531588425922960184e-01) (17, -3.31977076856607156152e-01) (18, -1.12132334126060717594e+00) (19, -3.89450338674584062293e-01) (20, 8.62810766276371488015e-02) (21, -1.63608210618409533055e+00) (22, 2.52169497489179605942e-01) (23, -4.99307452261876061339e-01) (24, 4.77801954610292511916e-01) (25, -1.04396704220559399801e+00) (26, 7.70119637114622057616e-01) (27, 3.86565297250760914194e-02) (28, -1.60308930691229339915e-01) (29, -2.35293543310322483819e+00) (30, 2.84955990683631821270e+00) (31, -1.97798609733581542969e-02) (32, 2.22975067227276557702e+00) (33, -1.65366628950168004231e+00) (34, -1.73654678206725954226e+00) (35, -3.76019342725108784986e-02) (36, 1.25765938189861903318e+00) (37, 7.18324663986299016827e-01) (38, -2.68821435665862606967e+00) (39, 5.37569508753941716073e-02) (40, -3.22494329796287892975e-01) (41, 5.93402830487660293279e-01) (42, -9.04143590655337447970e-01) (43, 7.56861956397529844764e-02) (44, 3.75889167135190160884e-01) (45, -5.12219847196132227474e-01) (46, -2.25931951953439569269e-01) (47, -4.95015279454538603687e-01) (48, -2.17925033838530735064e-01) (49, 3.52611991998760324063e-02) (50, 5.76858557562932722229e-02) (51, -2.29326458551572770483e-01) (52, -1.07343730763338496281e+00) (53, -1.81727565161017623474e-01) (54, 3.77971889029409147120e-01) (55, -4.33776422717911780413e-01) (56, 8.74686809101454521009e-02) (57, -5.98858084442392524238e-01) (58, -7.10109831504650457212e-01) (59, -6.30843689138459673416e-01) (60, -1.32514642260559756259e+00) (0, 3.10568770009120413700e-02) (1, 4.38587925291785696302e-01) (2, -6.72649797920953917973e-01) (3, -2.65215897778883491487e-01) (4, 1.79964935119820840237e-01) (5, -8.22468173214965792006e-02) (6, -5.17373465564346157741e-01) (7, -1.70189732432928675365e-01) (8, -1.85734963522944995784e-01) (9, 2.91458341505017426432e-01) (10, -7.03809044795120186677e-01) (11, 9.28515009532080298760e-02) (12, -2.59262914779086861561e-01) (13, 1.64891008543617045845e-01) (14, -4.71830626156836574481e-01) (15, -1.25354438374613418733e-02) (16, -6.37784644680460255373e-01) (17, 1.50820010951720206993e-01) (18, -2.26786929544096155231e-01) (19, 1.17640806920586791368e-02) (20, -3.76371568687240809492e-01) (21, 6.29915356622365030237e-02) (22, -3.74739901586757850893e-01) (23, -9.08793909306925273839e-02) (24, -6.05948116120055169098e-01) (25, 6.36018968995421207779e-01) (26, -6.02600417654280628987e-01) (27, 1.67825892257914000005e-01) (28, -4.06514643749228521408e-01) (29, 3.56090099083565259086e-01) (30, -5.95555552592824444247e-01) (31, -3.93254645168781280518e-02) (32, -9.27774259761640074373e-01) (33, 3.12567736224139969270e-01) (34, -1.52466076008797246644e-01) (35, 3.55265988447434732933e-01) (36, -1.45983398735463204554e-01) (37, 3.27642263724019500160e-01) (38, -8.90544899409733248241e-01) (39, 1.44642729555346155612e-01) (40, 7.62843734495212248692e-03) (41, 3.83732801564632075575e-01) (42, -9.23523521376559686225e-01) (43, 1.99342229719765756668e-01) (44, 1.63890000717501344019e-01) (45, 1.56648693695239982215e-01) (46, -7.00204449794943117880e-01) (47, -6.53357787467920420044e-02) (48, 4.25214155965651860458e-02) (49, -1.56328497191547816092e-01) (50, -5.57259870586237715528e-01) (51, 2.98766791906823814262e-01) (52, -2.25898434796063585228e-01) (53, -1.25751838622445960558e-01) (54, -4.99406795504607148306e-01) (55, 5.07056742559674256121e-01) (56, -3.39733087376340114893e-01) (57, 2.12713461621857682915e-02) (58, -5.17069738589842731180e-01) (59, 2.11444022053002084194e-01) (60, -1.00373641457511975084e+00) (0, -3.84852103343067686314e-01) (1, 9.31120782959914822241e-02) (2, -2.72340263777020363811e-01) (3, -7.41577949052548007769e-02) (4, 6.50652228266851428984e-02) (5, -2.93210477533694224839e-01) (6, -1.85945249610504820259e-01) (7, -5.15243775841445622587e-02) (8, 7.97997986303576184453e-02) (9, -2.87000961682974398137e-01) (10, -3.25204501854529592908e-01) (11, 4.80114132843918739457e-02) (12, -1.63191220957232652200e-01) (13, -1.24642105125641347585e-01) (14, -1.51511641055887796847e-01) (15, 3.80979260869237085219e-02) (16, -1.47315324207502790221e-01) (17, -1.09659392919227466345e-01) (18, -2.02598246475717475024e-01) (19, -3.22328777612978928380e-02) (20, -2.28731891570809531267e-01) (21, 1.47016181151426478246e-01) (22, -2.86361848459475931694e-01) (23, -4.52670780656426186006e-02) (24, -4.02109385894819260088e-01) (25, 8.30096600982253018941e-02) (26, -4.72436253117637483534e-01) (27, 2.26030931806480178681e-01) (28, 2.71601429677961248021e-01) (29, -5.60801560508940699634e-01) (30, -4.52873116146473964072e-01) (31, 2.95220315456390380859e-03) (32, -5.33710237687277433416e-01) (33, -3.04966085637393552465e-02) (34, -2.22917335200447513932e-01) (35, 3.04105687473721519876e-01) (36, -2.92558737214909492241e-01) (37, -1.13184975903740964176e-01) (38, -2.87544640165040887858e-01) (39, -1.37151449531199814968e-01) (40, -2.56981951299457833660e-01) (41, -8.98708999785529372151e-02) (42, -3.57136260595379506633e-01) (43, -2.74717997513820970379e-02) (44, -2.00445210332269141418e-01) (45, -2.16470779749622477262e-01) (46, -1.30249778797206700043e-01) (47, -2.20634833871948717043e-02) (48, -4.36137920044245064322e-01) (49, -4.00037803873171782243e-01) (50, 1.07557269662887002720e-02) (51, 2.15093360642755387913e-01) (52, -3.25233428952741210338e-01) (53, -4.82894386546768417112e-01) (54, -1.83922303887059351846e-01) (55, 2.27145162637107822512e-01) (56, -2.56959531121144113541e-01) (57, -4.12626863035943203251e-01) (58, -2.26188173666131336903e-01) (59, 6.04161486632390845597e-02) (60, -3.50463691495050855274e-01) (0, 1.56239369311053453299e-02) (1, -3.64840243084407100937e-01) (2, -2.18520637320413740889e-01) (3, -2.90056124327214455427e-02) (4, 1.40180123657136276177e-02) (5, -2.75406764976905915621e-01) (6, -1.72138165535293041764e-01) (7, -1.28185644223347855464e-01) (8, -2.03179215602762482107e-02) (9, -1.66164737208848500849e-01) (10, -6.02906274262981628498e-02) (11, -2.52539320307938852661e-01) (12, -9.37205717076354527517e-03) (13, -2.08460247840989076548e-03) (14, -1.84165997769943357021e-01) (15, -3.10328807286218810724e-01) (16, -4.52087886452130632842e-02) (17, -1.92250305703817070402e-01) (18, -2.16493486751062502726e-01) (19, -2.13742224343472814185e-01) (20, -2.35727940375207667412e-01) (21, -1.77282860971651606841e-01) (22, -1.82149436286081323200e-01) (23, -5.32388858383506038963e-02) (24, -2.15256780085367971367e-01) (25, -1.24868747185700360025e-01) (26, 5.46692587492618869982e-02) (27, -2.50951103233543582061e-01) (28, -1.28683075608487329511e+00) (29, 1.99745327173901643381e-01) (30, 3.61131202391556938025e-01) (31, 4.74308803677558898926e-02) (32, -4.07380664310920681537e-01) (33, 3.79064976955283849946e-01) (34, -1.24326811305255691131e-01) (35, -1.05175698962763075617e-01) (36, -1.18022891130410811922e-01) (37, 1.48694488916859740568e-01) (38, 5.64311639247134112091e-03) (39, -1.42083528080401394478e-01) (40, -9.18842401888304155522e-03) (41, -1.39673904162572193322e-02) (42, -4.16398973997973015360e-03) (43, -1.05287813621002340758e-01) (44, -2.22843786424707340776e-01) (45, -1.03527819050537581158e-01) (46, -1.35745963622667581427e-01) (47, -7.11114975387516501382e-02) (48, -1.48829575485492415776e-01) (49, -1.91347799785445055187e-01) (50, -1.18386154455901154020e-02) (51, 1.13900333992775887847e-03) (52, -2.08778811669254604766e-01) (53, -2.75284522460031377822e-01) (54, -6.23347756746771425318e-02) (55, -4.32140392956146118797e-02) (56, 1.12186451250707544536e-01) (57, -1.72437112174936124642e-01) (58, -2.15965528888870994528e-01) (59, -2.24637659661631322594e-02) (60, -7.39583674455501882683e-01) (0, -2.13821552370740103344e-01) (1, -3.68226065595596951940e-01) (2, -1.66313541720417679137e-01) (3, -5.72629690382142897409e-02) (4, -2.48687925958492900280e-01) (5, -3.51054241706539149614e-01) (6, -8.41400754347081947238e-02) (7, 4.45166155596276313933e-02) (8, -3.04560904474193872016e-01) (9, -1.81842204432621723509e-01) (10, -9.42279355755747116685e-02) (11, -1.10669509300185570089e-01) (12, -1.52823778075673599730e-01) (13, -1.99117458205440467367e-01) (14, -1.31421154968538872465e-01) (15, -2.54376371160277670036e-01) (16, -7.92101050182465876714e-02) (17, -2.65262382782170402784e-01) (18, -6.42329922292460830935e-02) (19, -1.10728279360864725889e-01) (20, -3.63012058449967811580e-01) (21, -1.05877900167726773928e-01) (22, -2.03117704381168828753e-02) (23, -9.94283341130548226072e-02) (24, -3.71021559159706026954e-01) (25, 4.49054770446136453099e-02) (26, -4.05029333329033972011e-02) (27, -1.85587906305891905956e-02) (28, -4.67095876096843387604e-01) (29, -5.84970348600628645142e-02) (30, 1.56578399543558177687e-01) (31, -1.12090930342674255371e-02) (32, -3.33470701251034118417e-01) (33, 1.98804558611847433103e-02) (34, -1.57591353335818085135e-01) (35, -1.11169593491283108522e-01) (36, -1.80570061272392640150e-01) (37, 1.69840315981553101332e-02) (38, -2.79960530539562491015e-01) (39, 1.20884342657251273034e-01) (40, -1.77721066168481434122e-01) (41, -6.52431223401327836653e-03) (42, -1.68563286321027849812e-01) (43, -1.32857351560445174909e-01) (44, -1.41758324537047286640e-01) (45, -3.08169265448897278237e-01) (46, -1.79458979825709574740e-01) (47, -7.04493193093170821939e-02) (48, -1.70392183340918101919e-01) (49, -2.43219591876235902150e-01) (50, -1.59756990883842403539e-01) (51, -1.54455932818637065029e-01) (52, -3.44930837342456497741e-01) (53, -3.19070728749517140699e-01) (54, -3.02403130329575581259e-02) (55, -1.79042799483980774600e-01) (56, -1.38170741738204122528e-01) (57, -3.50619000310895101435e-01) (58, -4.61282818901090074792e-02) (59, -1.78272525385749502913e-01) (60, -4.32699650547212377738e-01) (0, 1.94039328744791794712e-01) (1, -1.01821401148984524987e+00) (2, 1.87114907667719765350e-01) (3, -3.90818274265698428760e-01) (4, -6.47876478760436524951e-01) (5, -1.01605696851804708919e-02) (6, -1.64675390166236557121e-01) (7, -1.42988720753877585068e-01) (8, -6.13263342364215036095e-02) (9, -5.32582300842658673545e-01) (10, 2.23618115405320200262e-01) (11, -1.41435105014024592451e-01) (12, 4.60578909337000380608e-02) (13, 1.32130736761915806854e-01) (14, 2.95947586142725656277e-02) (15, -5.12104525456620551793e-01) (16, -1.71055933592675429855e-01) (17, -1.82881592678002947560e-04) (18, 1.50346546809334402628e-01) (19, -3.70159056342389269911e-01) (20, -1.67909883868163190002e-01) (21, 1.25488795606073316735e-01) (22, -1.83502353853681410278e-01) (23, -1.26984380561728088521e-01) (24, -1.97066443447810935030e-01) (25, -3.18327805250606610254e-01) (26, -5.81529940200364525715e-01) (27, 7.13147393899286274888e-01) (28, 2.46493422548997953569e+00) (29, -1.87654586070784423768e+00) (30, -6.77515933498374023358e-01) (31, -6.77537024021148681641e-02) (32, -9.83099900973391088721e-02) (33, 5.80726126747926119087e-01) (34, -8.58469714991034527074e-01) (35, 5.13218034697047853498e-01) (36, -2.39813680197566658769e-01) (37, 2.04444263846247115124e-01) (38, -1.52047714888359469798e-01) (39, -3.77443325394432815933e-01) (40, -3.78623596555173691502e-01) (41, 1.71537793822539932909e-02) (42, 1.75634975180712249454e-01) (43, 5.46192128011411658778e-03) (44, 3.13928905268606173173e-01) (45, -1.25032236204525526446e+00) (46, 1.16581615614984368534e-01) (47, 1.07842395069991991985e-01) (48, 1.66486101672397857065e-01) (49, -8.18857852147706011259e-01) (50, 1.26363547326503844470e-01) (51, -2.05274989488736403498e-01) (52, -2.32388819672944210715e-02) (53, -2.03399735769402290053e-01) (54, -2.61198664486577247779e-01) (55, -2.16479446990534118989e-01) (56, 1.88549131621277427096e-02) (57, 7.00684005121548048045e-01) (58, -6.10189033333181973795e-01) (59, -7.89665486708873820554e-01) (60, -1.42389974598912205650e+00) (0, -2.39937342192165808941e-01) (1, -4.23851830982953536875e-01) (2, 1.95335829930489784934e-01) (3, -4.05591044331448033478e-02) (4, 4.93304741549169603609e-02) (5, -6.52960077740676547720e-01) (6, 1.96857630664866195547e-01) (7, -3.08807771646080586603e-01) (8, -2.62639163127991570601e-01) (9, -5.94766000700813202151e-01) (10, 7.61777247086219966299e-02) (11, -5.27466782840580600267e-02) (12, -2.39915293446184910153e-02) (13, -7.83112482162129364127e-01) (14, 4.33522069903017670534e-01) (15, 2.24966809051790374296e-02) (16, -4.55227483131197471766e-02) (17, -2.57021457336706893315e-01) (18, -6.77912596144420898092e-01) (19, 2.16510458008417921993e-01) (20, 6.88663210021585259213e-01) (21, 2.20812162852919491307e-01) (22, -1.45858156804323457756e+00) (23, 2.96769209116091786313e-03) (24, 3.99382677451956658032e-01) (25, -3.62613225322828275354e-02) (26, -1.41898710360582525070e+00) (27, 5.88008033396832052730e-01) (28, 1.93551506661851213664e+00) (29, -5.46044352972875901564e-01) (30, -9.77144647050872006133e-01) (31, -4.91570718586444854736e-02) (32, 2.99534376853659300988e-01) (33, -7.99043491507411551833e-02) (34, -2.90284914209110511685e-01) (35, 4.91457749576308833284e-01) (36, -1.37162173034911849534e-01) (37, 3.15736540558107958709e-01) (38, -2.87206637947478915507e-01) (39, -3.20814390553157968711e-01) (40, -5.72035613688958943790e-01) (41, -2.49562321510203466435e-01) (42, -4.75028713131604329867e-01) (43, 4.24447998862173114104e-03) (44, -4.34468116004034843325e-01) (45, -4.14262183008198003886e-01) (46, -1.64186137780116758744e-01) (47, 1.24352009853617925805e-01) (48, -5.81381724424167800613e-01) (49, -4.82997230131854415891e-01) (50, -7.66504623545724017575e-02) (51, 1.85297238685283860438e-01) (52, -1.17114160274155287844e+00) (53, -5.41429440172504494733e-01) (54, 4.40946305629193235909e-01) (55, 2.82479861203910539991e-02) (56, -9.66845116588040953687e-01) (57, -5.22803376952633347408e-01) (58, 4.98588058420209589983e-01) (59, -4.94982712970783861328e-02) (60, -7.82846812972269989750e-01) (0, -3.95032184520785312198e-01) (1, -8.65991829636761467626e-01) (2, 8.91312453455141706637e-02) (3, -8.26425019514676895138e-02) (4, -1.25529153398192983015e-01) (5, -6.04973143588570128060e-01) (6, -2.13938119551265459872e-01) (7, -2.48444473986855651759e-01) (8, -2.94365532813490593522e-01) (9, -2.65068892363085117925e-01) (10, -3.27421416641440310435e-01) (11, -4.38018330811124734225e-01) (12, -1.84058712720726047607e-02) (13, -2.07050406635395173316e-01) (14, -3.97627421614037857012e-01) (15, -5.68324202718575866022e-01) (16, -1.72423884400158877739e-01) (17, -3.19396646770452818931e-01) (18, -5.28662612456976613307e-02) (19, -5.53603651355430659287e-01) (20, -5.53161732931337413177e-01) (21, -4.17028739625351141385e-01) (22, 2.75237263856384417604e-01) (23, -2.08012864941383296413e-01) (24, -5.84348727543592239009e-01) (25, -5.31323586937708786104e-02) (26, 3.84669460365404669577e-01) (27, -8.85450012789403134716e-02) (28, -1.32833043764945091247e+00) (29, -5.75772607420625068264e-02) (30, 5.72468095976102264721e-01) (31, -3.19237783551216125488e-02) (32, -5.62757003588291948581e-01) (33, -2.10566747497929307453e-01) (34, 5.10307276588016778263e-01) (35, -1.99856844325527055473e-01) (36, -3.72011704052946257093e-01) (37, -4.23144037065302847100e-01) (38, 5.58429143019407048243e-01) (39, -7.83778296530699136735e-02) (40, 3.27343538840953574010e-01) (41, -1.94866828405959202630e-01) (42, -2.03755617620410937885e-02) (43, -3.02075489317006395940e-01) (44, 1.45479087040331050984e-01) (45, 1.04850425819555434503e-01) (46, -5.78389848102483616898e-01) (47, -2.55450353009921860004e-01) (48, -1.05582980688195118835e-01) (49, 3.83687904586918482330e-01) (50, -8.37524201069876683690e-01) (51, -1.80006698619680355344e-01) (52, 2.22620407144275667122e-01) (53, -1.37851901446981228716e-01) (54, -7.06712658541621463471e-01) (55, -7.92585572345668454286e-02) (56, 2.32755683954963571436e-01) (57, -4.46110888858284981850e-01) (58, -4.33489181062223338792e-01) (59, -2.38574229581749452933e-01) (60, -5.23397752839499408317e-01) (0, 4.35434344768686129590e-02) (1, 4.01943423723588339619e-03) (2, -3.27139178544715303332e-01) (3, -1.56729456861791155431e-01) (4, -1.55763376402909478613e-02) (5, -2.09005024856592780402e-01) (6, -1.31934886796012118548e-01) (7, -1.15949985763024662755e-01) (8, -1.18546581901537245729e-01) (9, -5.05209938165037120150e-01) (10, 8.11731543829194296391e-02) (11, -4.20615320175674212155e-01) (12, 1.66779699614229892646e-01) (13, -1.95419747748859312653e-01) (14, -1.11669963283078613192e-01) (15, -5.40697463518502008384e-01) (16, 2.58561378571315558794e-01) (17, -2.07031577822820833656e-01) (18, -2.14702218984076265151e-01) (19, -2.39974323384486459831e-01) (20, 5.64017162623522624876e-02) (21, -1.11038783719669423289e-01) (22, -3.52264147368917368564e-01) (23, 1.10104305667519858369e-01) (24, 3.09314198463233713809e-01) (25, -3.98056912548050145784e-01) (26, -1.21644508576164961378e-01) (27, -3.45738891258021097119e-01) (28, -2.13550118118429255176e+00) (29, 2.08934093398336906411e-02) (30, 9.74385871265375236305e-01) (31, -6.99184834957122802734e-03) (32, -4.21011735827917232822e-01) (33, 4.74981820497125173386e-01) (34, -3.54788621721509711548e-01) (35, -1.33298192518958386055e-01) (36, -1.25134213601631405499e-01) (37, 5.38749482371165933081e-01) (38, -2.83918524298178320819e-01) (39, 2.62488218542644945186e-02) (40, 3.41846763286162980133e-01) (41, 5.73178411613682881054e-01) (42, -7.98435267166257678362e-01) (43, -2.81246127146404026331e-02) (44, 3.05969809265011549737e-01) (45, -1.09574132935368398489e-01) (46, -7.36461406022890563428e-01) (47, 1.51094534129550539525e-01) (48, -6.78416851427428024834e-02) (49, -2.85154562931652699742e-01) (50, 1.16065209754007706011e-01) (51, -5.91152065554006456161e-02) (52, -2.93327622435586188310e-01) (53, -2.62222404201464864837e-01) (54, 3.31550197307181437889e-01) (55, -2.06123357117933003746e-01) (56, 4.44841241916524077205e-01) (57, -5.84140199910170521136e-01) (58, 1.60070618407622822232e-01) (59, -2.82379733974489621762e-01) (60, -9.39691637666406509588e-01) (0, -3.62517797843815658965e-01) (1, -3.02224109903974857971e-01) (2, 8.84593632319355394067e-02) (3, -1.44747492411005734825e-01) (4, -1.65672840672046947641e-02) (5, -2.69689731209504512943e-01) (6, -3.70362076212698357325e-02) (7, -6.37083888925854407992e-02) (8, -1.48433096720463481022e-01) (9, -2.57550119445556835451e-01) (10, -1.21962223796723445712e-01) (11, -1.03598762952800765857e-01) (12, -7.24880769775043121150e-02) (13, -2.23123091446850857489e-01) (14, -1.53496900649356476931e-01) (15, -9.99613970621071740164e-02) (16, -1.80120608138276849797e-01) (17, -1.18604602917241910842e-01) (18, -6.75626489619012976506e-02) (19, -7.23411258225409303790e-02) (20, -2.54449558336319547891e-01) (21, -5.65834584840424759111e-02) (22, -1.26166350583266556606e-01) (23, -6.75786995837313834296e-03) (24, -2.48299738965038624405e-01) (25, -3.41274524212124216738e-02) (26, -5.27317174677604749711e-01) (27, 2.49200938660563448002e-01) (28, 2.55856385598371038892e-01) (29, -7.44588285286796325302e-02) (30, -5.56770468371236115779e-01) (31, -6.07118830084800720215e-02) (32, -2.18486797563035656244e-01) (33, -1.76039529945169304082e-01) (34, -3.25732592128827880273e-01) (35, 2.29740846287947581006e-01) (36, -3.55448956398671023216e-01) (37, -8.40478265939957891462e-02) (38, -2.32172177823144809672e-01) (39, 9.39210373184079863607e-03) (40, -2.31892196246629878065e-01) (41, -2.12260459941665757810e-01) (42, -1.94778083683356917355e-01) (43, -1.08711341675516992566e-01) (44, -2.03066420576208245263e-01) (45, -2.07807700060851308077e-01) (46, -2.59327653359296639302e-01) (47, 3.22351257555306830449e-02) (48, -2.06324179249979200446e-01) (49, -3.52268718260846880330e-01) (50, -9.24120132871311950051e-02) (51, 9.52558541948762826923e-02) (52, -2.42875724357724587232e-01) (53, -2.52554955327124686093e-01) (54, -1.28571235994661969837e-01) (55, -3.89702476132278569088e-02) (56, -3.73100439698798025390e-01) (57, -1.99320713533682469798e-01) (58, -1.49030303431859027091e-02) (59, 1.95436308557377681761e-02) (60, -5.74699701081358704791e-01) (0, 2.37259246188701200531e-01) (1, -5.10393929954312319808e-01) (2, -6.87548920441842792428e-01) (3, -1.30388338151454369340e-01) (4, -2.68595847908436047291e-02) (5, -3.27300305745141628666e-01) (6, -4.48236884016724346225e-01) (7, -6.16220751001712377382e-02) (8, -5.50022819328565670816e-01) (9, -2.73844301317782312655e-01) (10, -1.27982288349113380171e-02) (11, -9.54754131806858225007e-02) (12, -6.20196166836763262964e-01) (13, -1.30187487338079884575e-02) (14, 1.84527162935061925242e-03) (15, -2.26758147370834384215e-01) (16, -2.18746884560282905952e-01) (17, -6.14741085293475514328e-02) (18, -1.82134583381881459685e-01) (19, -2.34666248875461697088e-01) (20, -3.41318480529551937508e-01) (21, -1.51410533883891140761e-01) (22, -2.46145038714745606478e-01) (23, -1.77424648886947172732e-01) (24, -3.52838155657293872647e-01) (25, -8.76847477805337977008e-02) (26, 3.28974214589679014864e-02) (27, -1.55611104636757341391e-01) (28, -8.43429291259963798133e-01) (29, -3.13568657942077444467e-01) (30, 9.75039809748243224696e-01) (31, -7.68612623214721679688e-02) (32, -7.90263218752164542380e-01) (33, 3.04728812301908624782e-01) (34, 2.13792233598575048825e-01) (35, -2.11295115140824954492e-02) (36, -4.14154348748144718328e-01) (37, 1.96381853869761258125e-01) (38, -7.04174726363071372404e-03) (39, -4.85803208948559356317e-02) (40, -3.20385916170850659768e-01) (41, 3.07321119156792228744e-03) (42, 3.42852164021921965165e-02) (43, -3.28464658076418225541e-01) (44, -7.05160337597427744338e-02) (45, -2.51594004057352382819e-01) (46, -1.74865104559717571275e-01) (47, -2.27758449748566044191e-01) (48, -5.94812672463561481484e-02) (49, -2.73547357736748431023e-01) (50, -1.03819916901735781467e-01) (51, -2.91779149498835654875e-01) (52, -3.38062723923871988330e-01) (53, -3.85134653519772107710e-01) (54, 2.27084697543045443968e-01) (55, -3.31845927780050620193e-01) (56, -2.81021799772350699964e-01) (57, -6.74033481116251942389e-01) (58, 7.21790592078507486917e-01) (59, -5.20097971381081713993e-01) (60, -1.53298303756217668692e-01) (0, -8.00989681832048994181e-01) (1, -3.33004647444817003521e-02) (2, 1.85018768316330878276e-01) (3, -9.67287085465539653306e-02) (4, -5.70148914911092652424e-01) (5, -4.36367180096471241058e-01) (6, 2.78465374290545186753e-02) (7, 2.47009260412504760840e-01) (8, -3.35257326356043383608e-01) (9, -5.86688254551370302892e-01) (10, -1.35117718330307640118e-01) (11, 2.71417572603175671908e-01) (12, -2.67426087898020858891e-01) (13, -8.47425714063724938585e-02) (14, -7.01918271557937623051e-01) (15, 1.20836852152000198690e-01) (16, -2.62145431415689245114e-01) (17, -2.31926591325494452223e-01) (18, -7.60462763226451232690e-01) (19, 3.30962168068891726680e-01) (20, -5.00734699706525732132e-01) (21, -2.80535124202819619033e-01) (22, 1.67058353297789702330e-01) (23, 6.12614144654949083907e-03) (24, -4.84970706518888960979e-01) (25, -3.67274126253454846758e-01) (26, 1.08504912932476049736e-01) (27, 2.80004686645366374087e-01) (28, -9.47753510312293490081e-01) (29, -1.16038712967960355726e+00) (30, 7.37530292143013133099e-01) (31, -5.08923232555389404297e-02) (32, -1.10444001755466425507e+00) (33, 8.30578311004542824136e-01) (34, -6.60650180021786659346e-01) (35, 8.21254398351246445165e-02) (36, -3.60061207950123862709e-01) (37, 5.45551863346298460122e-01) (38, -1.43130234205215578491e+00) (39, -1.78411741793949557566e-01) (40, -1.60521291411486188849e-02) (41, 8.54107106615120681425e-01) (42, -1.49379594463223663858e+00) (43, -2.75619984183586574922e-01) (44, -5.75723992444497234544e-01) (45, 7.60054022306606791304e-01) (46, -1.40525089760431765029e+00) (47, -2.04711779254431375241e-01) (48, -3.71630372008254383775e-01) (49, 1.61223861180480515509e-01) (50, -9.34492182557538964005e-01) (51, -2.42824795685649186261e-01) (52, -9.47704470865740389307e-01) (53, 2.76052727476585102462e-01) (54, -4.88183890916548068883e-01) (55, -1.75797186244735753613e-01) (56, -4.16062884734169635692e-01) (57, 1.06639689258729367105e-01) (58, -4.71455777601625769524e-01) (59, -3.74868550970833824820e-01) (60, -4.27968379261306430816e-01) (0, 4.27343589987197514102e-01) (1, -3.42630842210077890542e-01) (2, 1.00192845162695401418e-01) (3, 7.18169875605988439204e-01) (4, 1.42922014184546614102e-01) (5, -2.91477647714709797722e-01) (6, 1.72422593790585304552e-01) (7, -4.02564355871662615804e-01) (8, -2.72276901124295089840e-01) (9, -5.61117222729020315164e-01) (10, -9.76717410241888100986e-02) (11, -1.97514905184341227340e-01) (12, -5.68361412647162972389e-02) (13, -1.81205560843729407416e-01) (14, -5.06684577954915948972e-01) (15, -4.10439124675305855305e-01) (16, -5.93386379724549106740e-01) (17, 5.67941139382341697583e-01) (18, -3.29709043460145345694e-01) (19, 2.35399423871730434366e-01) (20, 2.45287682194487183240e-01) (21, -3.81730416627834967525e-01) (22, 6.72773968846127168320e-01) (23, 2.38662167820689052888e-01) (24, 1.50711131943069309713e+00) (25, -8.78115018797467783429e-01) (26, 5.12153693822477329434e-01) (27, -1.25552702358239232083e-01) (28, 1.60048601287460479092e+00) (29, 4.62136551357147790098e-02) (30, 2.10405541047702149271e-01) (31, 3.28497961163520812988e-02) (32, -1.81616899117585739454e+00) (33, 2.63457808917767621892e+00) (34, -7.43811391128098797765e-01) (35, 5.17734459189549828251e-02) (36, -2.93994253081624812296e+00) (37, 3.35925941713273434885e+00) (38, -1.44158906143060172589e+00) (39, -4.99640369234111092478e-01) (40, 3.56129003094501850324e-01) (41, 2.84513500868290303281e-02) (42, -9.57587668426396754207e-01) (43, -5.49837614599119062220e-01) (44, 8.41420556111476258820e-01) (45, -1.04913668136966273248e-01) (46, -4.72046299578178285561e-01) (47, 3.13210179336797511773e-01) (48, 2.40653395279334159085e-01) (49, 2.97670353486951699828e-01) (50, 1.01177310167399669982e-01) (51, 2.27046951244222167121e-01) (52, 3.87760496703653145811e-01) (53, 2.44932941174751950264e-01) (54, 3.80341367252877760041e-01) (55, 4.05671317958491095546e-01) (56, 3.67083437033083381795e-01) (57, 1.12116476330195746769e+00) (58, 1.17562896658494148161e-01) (59, -4.09268114650392020315e-02) (60, -2.70937340777424040539e+00) (0, -1.70779026955320628600e-01) (1, -3.68945902032543238125e-01) (2, -4.07816718322423832355e-01) (3, -5.39421121854977772547e-02) (4, -1.70351408510214241687e-02) (5, -1.71887872513023259868e-01) (6, -2.93697472089338718071e-01) (7, -2.37438930793315398915e-02) (8, -1.92993599223097556106e-01) (9, -3.03775453479388279909e-01) (10, 3.98473476460121170395e-02) (11, 7.48836455971007286525e-02) (12, -3.90680319497990480304e-01) (13, -3.86524125090113357395e-01) (14, 1.90954362447373349188e-01) (15, -3.45998495237521477841e-02) (16, 9.39416088870044518888e-02) (17, -3.37154017412526540998e-01) (18, -1.80355940877760273500e-01) (19, -1.16986150298202792874e-01) (20, 3.96665105997985392716e-02) (21, -1.69984785173342867193e-01) (22, -1.44897994576975691627e-01) (23, -2.16351639732826644957e-01) (24, -3.51119308440273544814e-02) (25, 1.19943372169080852974e-01) (26, -3.47857204251738938439e-01) (27, 3.54720389771666505530e-02) (28, -2.24172594423180410184e-01) (29, -9.55648384243444670716e-01) (30, 5.54858665132048969881e-02) (31, 3.76920178532600402832e-02) (32, 3.05643772622552004070e-02) (33, 3.48054044741533563645e-01) (34, -1.03217103385103547986e+00) (35, -9.78019999693188479828e-02) (36, 1.49133711697921778061e-01) (37, 6.40930120434799022178e-01) (38, -1.18148226187739124882e+00) (39, 5.08920203086915060031e-02) (40, 1.10866945394168678329e-01) (41, 3.68410363874332957845e-01) (42, -6.67296436499339895576e-01) (43, -1.47113624199931458669e-01) (44, 2.03456183561835535212e-01) (45, -3.10030625290598937926e-01) (46, -1.79735412078680156789e-01) (47, -2.11327171777567601740e-01) (48, -2.21211795107570968755e-01) (49, -3.99005177960622570144e-01) (50, 2.09528053930255475645e-01) (51, -1.49638805161511428965e-01) (52, -4.51283627676226095637e-01) (53, -5.19573738221591585607e-01) (54, 3.85514894788702655593e-01) (55, -2.92280324188153139975e-01) (56, -5.09000835109801944012e-02) (57, -3.58827602474825257950e-01) (58, 6.51408189824694006109e-02) (59, -4.83857504149225736700e-01) (60, -2.02791369299966578454e-01) (0, -4.09553110834581124422e-01) (1, 6.32467914715370671530e-01) (2, -3.66108321695284510966e-01) (3, -1.01958762880342801438e+00) (4, -3.00544392082266687005e-01) (5, -3.69647704844782765132e-01) (6, -2.73048574347673156382e-01) (7, -4.95026807781603073177e-01) (8, 1.28541002723247144157e-01) (9, -1.60021590026407123375e+00) (10, 3.91048105179857219404e-01) (11, -2.18272383364549821261e-01) (12, 1.13238290802562402426e+00) (13, -2.70016141835881473554e+00) (14, 1.06898541818362513567e+00) (15, 2.21230884121417170629e-01) (16, 2.89854571118836767951e+00) (17, -4.37179300946592697130e+00) (18, 1.95779252841359219239e+00) (19, 5.79911227971992682129e-01) (20, 1.35888340718886054675e-02) (21, -2.75970914003788203583e-01) (22, -6.22528055284565368099e-02) (23, 2.18400152477908365833e-01) (24, -1.89391801589830044428e+00) (25, 2.15817303334404275716e+00) (26, -1.33232506862957755800e+00) (27, 6.63323625022098212201e-02) (28, -6.33877680110883745535e-01) (29, 6.53704672447695700477e-01) (30, -1.26269523154621476912e+00) (31, -1.89759284257888793945e-02) (32, -4.66283003762790138058e-01) (33, 2.39462884770681241897e-02) (34, -5.12374017621240129827e-01) (35, 1.07769554402459402653e-01) (36, 2.73974592189508148188e-01) (37, -4.68951713201579523105e-01) (38, -1.33089914718678231642e-01) (39, -3.87878141991450597903e-01) (40, 1.02997691159484747181e-01) (41, -1.11648379017037155392e-01) (42, 1.94068251399399260837e-01) (43, -3.88422316346102747264e-01) (44, -2.67880492093960420608e-01) (45, 3.82233248693992291867e-02) (46, 1.21688133348241522835e-01) (47, -4.96719806796750207312e-01) (48, 1.39381404861509905491e-01) (49, -4.17894043419841931808e-01) (50, 3.80049966364711333533e-01) (51, -2.81996538526620099674e-01) (52, -3.97570453411450308590e-01) (53, -3.16258675813833711743e-01) (54, -2.91845628168803217228e-01) (55, 3.66335142569484684127e-01) (56, 2.98595600968355190385e-02) (57, -1.15730546579851628630e-01) (58, -3.64366896963416869726e-02) (59, -5.15267896043923090410e-01) (60, -2.40309893719039413540e+00) (0, -1.89179587236798368854e-01) (1, -4.45805889296483348616e-01) (2, 1.93401397447845319055e-01) (3, -8.01359653233006175022e-01) (4, -5.28836519751849754023e-01) (5, -5.04600418889037394266e-01) (6, 6.36240256798044634401e-02) (7, -1.04028204697339088369e-01) (8, -2.61569750460615702004e-02) (9, -2.53272363493422858483e-01) (10, -3.52072170528873129580e-01) (11, -2.87953882673096961398e-01) (12, -1.93266039072627321405e-01) (13, 5.18769408319034175392e-01) (14, -1.24975194875776485226e+00) (15, -4.23070993583582799502e-01) (16, -8.35600680286685028320e-03) (17, 8.40956750782031359215e-01) (18, -1.04202728389910181939e+00) (19, -2.05503606355200207911e-01) (20, 2.77997935402888640688e-01) (21, 3.34209676201291772113e-01) (22, -4.07283352763592343404e-01) (23, -2.90246314287125883880e-01) (24, 3.53088150307372172776e-01) (25, 4.20802230710160651839e-01) (26, -5.40514381518302777785e-01) (27, 3.23990517259388211002e-01) (28, 7.89612229519905728381e-01) (29, -5.21798629075532538479e-01) (30, -4.96084453025103011559e-01) (31, -3.68039458990097045898e-02) (32, -7.72837604785976517441e-01) (33, -2.69975705865022175267e-01) (34, 6.12495279589335486770e-02) (35, 2.81050992134693922164e-01) (36, -1.11591930713076492587e+00) (37, -5.01148506244504354790e-01) (38, 7.60223449461156941531e-01) (39, -4.19316905246602145141e-01) (40, 8.86137388414639098899e-02) (41, -9.55965420830776291261e-01) (42, 3.86396293749434460718e-01) (43, -1.77470314506263188159e-01) (44, -1.94976172858397245324e-01) (45, -5.42359210289453552711e-01) (46, -1.72790390486679878990e-01) (47, -4.85028537139969642689e-02) (48, 3.47293461903188105389e-01) (49, -2.64621517493965840995e-01) (50, -4.11033542235176962976e-01) (51, -4.01818552196318734548e-01) (52, 6.08784372250711802721e-01) (53, 4.00323661863893398571e-01) (54, -1.89503315852430676003e+00) (55, -5.67392488036824071962e-01) (56, 5.20011023528067162225e-01) (57, 1.40222195101339063006e-02) (58, -2.08040762246356258913e+00) (59, -6.90533381563938730707e-01) (60, -7.95053548108743401990e-01) (0, -5.15758748733218461147e-02) (1, 4.89008204703912985334e-01) (2, -1.76840930213802219328e-02) (3, -2.75902024055073080699e-01) (4, -1.13870621155273618608e-01) (5, 3.19067698103133873255e-02) (6, 1.71344991249365391495e-01) (7, -3.39302512250889809486e-01) (8, 6.20289213140244877209e-02) (9, 1.07916734879138692671e-01) (10, -1.38129064032588705357e-01) (11, -2.78716044439730747939e-01) (12, -1.38362151030011343300e-01) (13, 3.15746650671743733785e-01) (14, -4.32465619343376184158e-01) (15, 1.04394903884955751738e-02) (16, -2.15436051037271536490e-01) (17, 2.96482514396670560064e-01) (18, -6.31703737070602677761e-01) (19, 2.23802471027692989614e-01) (20, 1.57081420870937571443e-01) (21, -5.12267039325641881931e-01) (22, -2.20199174628881444438e-02) (23, -9.97640555990320955504e-03) (24, 7.32774898977731181660e-01) (25, -1.03494894125580216837e+00) (26, -2.76919472772729546861e-01) (27, 9.25947016647988285776e-01) (28, 1.97291953565930677783e+00) (29, -1.07950930047859539052e+00) (30, -7.61589541393742797126e-01) (31, 5.13157621026039123535e-02) (32, -8.40798017777580786181e-01) (33, -1.29872928117047492513e+00) (34, 6.51255666461455051675e-01) (35, 7.13732691908413263704e-01) (36, -9.25197637337860867568e-01) (37, -9.72373210577414326394e-01) (38, 4.45477966650802414961e-01) (39, -3.21930140596467573300e-01) (40, -3.47463692129139134490e-01) (41, -6.69503394483971558948e-01) (42, -3.18449571599729031046e-01) (43, -1.96587702786730794680e-01) (44, -3.62884796255005803722e-01) (45, -3.24089747392895810574e-01) (46, -5.96886184160372312846e-01) (47, -8.08501630529911800849e-03) (48, -2.49706547850948368250e-01) (49, -7.73321170201829444224e-01) (50, -1.32271592925791353634e-01) (51, 6.26430357333648685225e-02) (52, 1.50529319207600154051e-01) (53, -6.64155297114127463054e-01) (54, -1.39252324223789414326e-01) (55, -5.92757055128112289588e-02) (56, -1.78070174204004727514e-01) (57, -4.75970570747511367848e-01) (58, -4.73298830164871786597e-01) (59, -6.40539043799501495169e-02) (60, -7.31130050513464802009e-01) (0, 5.51324297121073447769e-01) (1, -1.46883577455469471751e+00) (2, 1.50540925924684317744e-02) (3, -8.27637564439086870216e-01) (4, -4.92953182088296915087e-01) (5, 1.21219986988220548851e-01) (6, 2.39049465493600288291e-01) (7, -5.87775964045939347535e-01) (8, -7.04462029527962219078e-01) (9, 3.36881687977407751067e-01) (10, -3.07606578869644486929e-01) (11, -4.04586889432867413685e-01) (12, -4.87333561934294515194e-02) (13, -2.02112230681532445420e-01) (14, -2.97998100622355821532e-01) (15, -3.68748722141181428658e-01) (16, -2.69947855672445849451e-02) (17, 1.08826740970487473303e-01) (18, -8.06386236432951042374e-01) (19, -1.34309973778442365289e-01) (20, 4.92211789154358869691e-01) (21, -1.68287715058013598313e-01) (22, -6.22453142969513373295e-01) (23, 9.99537288418012453972e-02) (24, 1.41314485051422189521e+00) (25, -5.78227800888607146312e-01) (26, 3.63374761368613560797e-02) (27, -1.14112489471046418127e-02) (28, 1.72167904668006443991e+00) (29, -1.76211736273958941013e+00) (30, 1.95050924727448093954e+00) (31, -9.16367471218109130859e-02) (32, -1.25605908325394377556e+00) (33, -6.20860055418043121911e-01) (34, 3.05806283043177717929e+00) (35, -6.88517362136610994172e-02) (36, -8.65096930811572573106e-01) (37, -3.28975002170469987828e-01) (38, 1.73317757549992057520e+00) (39, -1.77878775786360465716e-01) (40, 7.28332279678449712179e-01) (41, -2.88543085473034421895e-01) (42, -1.98991848045945635137e-01) (43, -3.57819521849142563319e-01) (44, 1.93241853897940879525e-01) (45, 2.98674134528802981414e-01) (46, -1.03475116128181654496e+00) (47, -4.99337363010094514859e-01) (48, -4.09428179771013200927e-01) (49, 5.70033747251717237692e-02) (50, -1.91488573224440405962e-01) (51, -5.01273558552227660456e-01) (52, -1.11046414887633934643e-01) (53, -3.26367569988468886333e-01) (54, -3.00423586163520384140e-01) (55, -6.95594946399097135981e-01) (56, -2.93374089961363770929e-01) (57, -8.31447545411780564173e-01) (58, -2.40069128482365529154e-01) (59, -7.28181235139391369593e-01) (60, -1.74123985014464466303e+00) (0, -5.83480361025490515403e-02) (1, -6.96798691128085123658e-01) (2, -7.10827004148718577525e-01) (3, 7.53534402329196217885e-02) (4, -1.30540625321761971644e-01) (5, -5.23805870790660987879e-01) (6, -3.18997339441384364367e-01) (7, 3.44350627674075634999e-02) (8, -3.68854702844695347963e-01) (9, -3.69653074408963167041e-01) (10, 6.32138515961804953180e-02) (11, -2.73123039735623795998e-01) (12, -3.17314049475499626585e-01) (13, -1.70349779226939085364e-01) (14, 1.11741363000596310995e-01) (15, -5.13163316275857761539e-01) (16, -2.18901342043508334578e-01) (17, -3.41584094496046153377e-01) (18, 1.41667517585469054930e-01) (19, -4.55710484275720806302e-01) (20, -2.53233298918312366155e-01) (21, -3.00339537306469006595e-01) (22, -2.41479204835474761670e-02) (23, -2.02228972631928294312e-01) (24, -2.36605504961403839692e-01) (25, 3.77324419389773804689e-02) (26, 3.57743556604505838492e-02) (27, -2.77609853765013403493e-01) (28, -1.47674052689814039319e+00) (29, 4.86326448050801440903e-02) (30, 1.07844514075870212544e+00) (31, 3.21881473064422607422e-03) (32, -6.32683035227957324409e-01) (33, 6.79688414891859438161e-02) (34, 4.13937579876191008577e-01) (35, -2.25320013202086166793e-01) (36, -2.06904344763532727081e-01) (37, -7.81640679418854344984e-02) (38, -6.63013094347618819890e-02) (39, 2.88667960756965481101e-03) (40, 2.54281090275874588347e-01) (41, -6.41435800987435050802e-02) (42, -5.11510268403295165207e-01) (43, -1.38824776389443127478e-01) (44, 1.78990335951412560256e-01) (45, -1.39775621807529198959e-01) (46, -9.13462173196732840630e-01) (47, -3.36380907922004535049e-02) (48, -1.68508403937776100878e-02) (49, -5.05041622035701520677e-02) (50, -4.30576580316188728403e-01) (51, -3.36715737322274208387e-02) (52, -5.14062220391539037578e-01) (53, -2.14904736475599350554e-01) (54, 8.56465345987670462202e-02) (55, -2.19493444847452201518e-01) (56, -2.24851878963834239666e-01) (57, -6.29665200715661343978e-01) (58, 2.54933948509898034018e-01) (59, -2.47415841460947194541e-01) (60, -5.40365227466762743092e-01) (0, 5.68146649102707734791e-01) (1, -7.93611040908337894706e-01) (2, -7.07111480152495669449e-02) (3, 1.34030623598903775306e-01) (4, 3.08018659433078711984e-01) (5, 2.21688035971084745901e-02) (6, -6.46705978173958279109e-02) (7, -1.35059035785673714480e-01) (8, 8.51687720209289067519e-01) (9, 2.29418605734850927780e-01) (10, 1.06312421709751275811e-01) (11, -3.14077731751910949054e-01) (12, -2.11701205217135701719e-01) (13, 2.36753335907162326679e-01) (14, 3.71193328054863991294e-01) (15, 2.99620891683874124301e-01) (16, 3.80479452872725887325e-01) (17, -1.01718271163063381235e-01) (18, -1.23579734458287682219e-01) (19, -9.66692161912686281910e-02) (20, 9.62877301564375343013e-01) (21, -1.19484144585867380073e+00) (22, 2.39405217520665958286e-01) (23, -2.79984787103812915454e-01) (24, 8.30244775805907275767e-01) (25, -2.30414285232166715645e+00) (26, -3.68250944417748138360e-01) (27, 8.37795726264668250138e-01) (28, 2.35102943231040484307e+00) (29, -1.84002033212226123737e+00) (30, -1.31954093004749828388e+00) (31, 7.61720612645149230957e-02) (32, 2.43428355665444406952e-01) (33, -2.24421747960139850164e+00) (34, 6.94064905041267277142e-01) (35, 6.64388843742191093078e-01) (36, -6.72080060602714968176e-01) (37, -1.58538627094501705095e+00) (38, 1.11602789630827414769e+00) (39, -3.84422977323209902334e-01) (40, -7.83040608566461737716e-01) (41, -8.21161056788784704530e-01) (42, -2.84182276254407673033e-01) (43, -1.03436583760730338444e-01) (44, -6.97440002204379516648e-01) (45, 4.93893043632746137073e-02) (46, -5.90854930791346655283e-01) (47, -2.74488207753010790557e-03) (48, -6.00004432344125260279e-01) (49, -3.04301162341304831660e-01) (50, -6.53806523992246993449e-03) (51, -1.55379600400381512326e-01) (52, 5.17539849045990818510e-01) (53, -1.91718797109014432722e-01) (54, 3.82734357982146722321e-01) (55, -8.93278783700553580260e-01) (56, -1.55492959793271268154e-01) (57, -2.94506360593833782513e-01) (58, 8.99622357599136224238e-01) (59, -8.64726935387205242201e-01) (60, -8.00593593248060897416e-01) (0, -9.63846373554561930419e-01) (1, 5.81738022073768679121e-01) (2, 1.27820808793229434563e-01) (3, -3.47559033036576203735e-01) (4, -1.48273627929598793632e-03) (5, -5.37668903485483018478e-01) (6, -5.66169107730104981258e-01) (7, 3.21089020957546600332e-01) (8, 3.19707031863596391474e-01) (9, -2.32505923980321965727e-01) (10, -3.70004789418506174759e-01) (11, -1.77420984672617715328e-01) (12, -3.30394737830223939046e-01) (13, -1.97018209370152908022e-01) (14, -2.25863656297656700822e-01) (15, -4.99802545762891237136e-01) (16, -6.33241904467701007680e-03) (17, -5.00093662679501282931e-01) (18, -2.82249487567694579138e-01) (19, 3.48234483478091286224e-02) (20, -6.54438839893016766069e-01) (21, -3.54256800077551892159e-01) (22, -2.47961838099979486882e-01) (23, 9.73997417390027458994e-02) (24, -1.49020082652964758196e+00) (25, -1.25541597367735402457e-01) (26, 4.93246300557608818860e-01) (27, -4.27194362199802724067e-01) (28, -1.31953685831333289435e+00) (29, -1.56791203433837539327e-01) (30, -8.90944220993390295638e-02) (31, 1.84562057256698608398e-02) (32, -5.12064849402361077502e-01) (33, 7.78431338773135972353e-01) (34, -1.06026312865125538210e+00) (35, -1.07704150005993593009e-01) (36, 9.54255865051602203408e-01) (37, 4.80975539897600667949e-01) (38, -1.36794596813182067763e+00) (39, -5.87778678479266777912e-02) (40, -8.94437639720454868986e-01) (41, 3.10110545692805827933e-01) (42, 1.13139122038653749946e+00) (43, -2.89412179675547942548e-01) (44, -8.85458853743973928196e-01) (45, -4.64180949012423071931e-01) (46, 1.32521921516722951395e+00) (47, -9.97654549149666336483e-02) (48, -4.21467982722716211219e-02) (49, -5.57599050366119342037e-01) (50, 9.42540852457922073704e-01) (51, -2.84207510574879473886e-01) (52, -4.50103509515720687229e-02) (53, -4.13854545354027381077e-02) (54, -2.23732169322547920498e-02) (55, -4.36345809268188111751e-01) (56, 2.22014919529580356805e-01) (57, 1.33422803402711509513e-01) (58, -5.82207755560880224621e-01) (59, -6.73821325372134016796e-01) (60, -3.97893387366556050555e-01) (0, -1.74126004217375479621e-01) (1, -2.14894302352786163712e-02) (2, -1.15149408133318531533e-01) (3, -3.26040161599048805563e-02) (4, -3.90184645954329764606e-02) (5, -1.99976454090790706219e-01) (6, -2.42481739086631870039e-01) (7, -4.91940419725795663464e-02) (8, -1.13392247038252319546e-01) (9, -1.02123904337025367406e-01) (10, -3.43271265593819263628e-01) (11, -6.88120403234293437356e-02) (12, -2.69800851496688365305e-01) (13, -1.99042348498959326131e-01) (14, -2.19217602661490373883e-01) (15, -5.39216058550417640105e-02) (16, -2.55210152385978883416e-01) (17, -9.90299523199830722398e-02) (18, -3.24260696683417226627e-01) (19, 8.54781946277642229459e-02) (20, -1.98583149988866697333e-01) (21, 1.50728752053644748932e-01) (22, -2.36924551920253828596e-01) (23, -8.09388402157701705719e-03) (24, -2.86373130785879892457e-01) (25, 2.20921150430415436094e-01) (26, -3.67474825991393860836e-01) (27, 9.55532293716246892978e-03) (28, -7.87813887242772153963e-02) (29, -3.64510927700206061302e-04) (30, -4.35096728916421371380e-01) (31, 2.99402698874473571777e-02) (32, -4.85810403086014974683e-01) (33, -1.06550391483386228120e-01) (34, -2.05955057360876686579e-01) (35, 1.37874701759957252190e-01) (36, -3.85981680847657881994e-01) (37, -6.85559006220293615241e-02) (38, -2.76799258068906983699e-01) (39, -1.81800594012376040554e-02) (40, -1.65150224136110551632e-01) (41, -2.10436042519931060246e-01) (42, -1.43945972804519678467e-01) (43, -7.14648449916579792812e-03) (44, -2.61169534199331032642e-01) (45, -1.89760854798348033157e-01) (46, -2.28086944188477358519e-01) (47, -8.32344949668182426672e-02) (48, -2.47268592605626780223e-01) (49, -2.79055023842596006123e-01) (50, -8.90808303745407453755e-02) (51, 6.34869661939497231806e-02) (52, -2.82049714850089450202e-01) (53, -2.50315257629547649465e-01) (54, -3.17288609644330144022e-01) (55, 1.22058024799919687120e-01) (56, -2.39533203602781324948e-01) (57, -2.37540189259751316486e-01) (58, -1.72000737978474482759e-01) (59, -8.61928306956227102686e-02) (60, -5.99093621729591907510e-01) (0, -7.43271983148552584098e-01) (1, 4.93286548592391904666e-01) (2, 3.07656283681422171306e-01) (3, -6.68039753702560745729e-01) (4, -3.14957487754870257834e-01) (5, -7.60639451814332928636e-02) (6, -2.61939955529687407143e-01) (7, -3.03449104334064412303e-01) (8, -8.28636321183219837216e-01) (9, -3.56205329383623481299e-01) (10, -1.96515886057369082440e-01) (11, 3.53747528279520939698e-01) (12, -4.79701924625126174817e-01) (13, 1.59624103823222146525e-01) (14, 1.99569482357160488117e-01) (15, -1.57075592326489377193e-01) (16, 4.86508297832407704542e-02) (17, -4.91134531212672365008e-01) (18, 2.55262604000454085273e-01) (19, -1.48889855009632476879e-01) (20, 6.50805249948583020014e-01) (21, -7.02072891112242025713e-01) (22, -2.59874154211235997014e-01) (23, -3.30588041849070868317e-01) (24, 1.12455071842424980666e+00) (25, -2.00896453422211268558e-01) (26, -1.37536766078148708914e+00) (27, 3.82679310380261428204e-01) (28, 9.28348052421953506830e-01) (29, 1.55541196406171633448e+00) (30, -1.41138038425143363952e+00) (31, 7.08266347646713256836e-03) (32, 1.23810953318541683288e+00) (33, 8.58731909464180653835e-01) (34, -1.06737216667152212679e+00) (35, 3.29069961296715673971e-01) (36, 2.39690423696442889145e-01) (37, 2.98350863849903114033e-01) (38, -6.01483329702226510172e-01) (39, 4.89875497057347258911e-02) (40, -1.22015942556004855502e-01) (41, 4.74414068240518960184e-01) (42, 1.89096757646399979413e-02) (43, -2.01779886109284406492e-01) (44, -8.65814076775089924709e-01) (45, -3.03375465214342499021e-01) (46, 5.70701110697171887232e-01) (47, -3.21425948646869186209e-01) (48, -4.29260158728584029220e-01) (49, -5.08139136200234445284e-02) (50, 4.87621070242143673373e-03) (51, -5.80707589410033642174e-01) (52, -4.85621697194410562037e-01) (53, 2.57509775551459207943e-01) (54, 1.78302548124138898755e-02) (55, -1.68383738107214520063e-01) (56, -4.23828842034044278586e-02) (57, 3.77382508243157277494e-02) (58, -4.43058986001782562081e-01) (59, -2.04951175967054449734e-01) (60, -1.67151696003114680344e+00) (0, -3.13573462865403107536e-01) (1, 1.91940187187000843583e-01) (2, -1.76740739053616365689e-03) (3, -4.05515307827560622655e-01) (4, -3.09936440827372150508e-01) (5, 9.79087084774314317381e-03) (6, 8.74912211365081876613e-02) (7, -5.18577790113605274769e-01) (8, 4.35548520023398388901e-01) (9, -1.31638278068324043879e+00) (10, -2.96793493567993171833e-01) (11, -2.15472867533108125571e-01) (12, -6.83938255231405833889e-01) (13, 3.79334022219905309115e-01) (14, 2.91436871291599897127e-01) (15, -7.43826467226127108212e-01) (16, -8.71717937893531358284e-01) (17, -4.00417667052330727984e-02) (18, 1.99896833185484457118e-02) (19, -5.61745110679183201619e-01) (20, 1.71928727548669568748e+00) (21, -4.92093059328213400239e-01) (22, -3.20506815696541202954e+00) (23, 4.73362388673840339681e-01) (24, 2.77613888064412339673e+00) (25, -1.33391330437560018396e+00) (26, -3.86057042815218842691e+00) (27, -3.13695102064070752146e-01) (28, -1.67113640849603273253e+00) (29, -1.27142999704001247174e+00) (30, 1.87190434007551798068e+00) (31, 6.84382542967796325684e-02) (32, -4.13510225903677974824e-01) (33, 5.76180482797865600730e-01) (34, -3.15559048394184138431e-01) (35, -2.98534568929024135553e-01) (36, -3.22943034618714264194e-01) (37, -1.39079588531941661378e-01) (38, -1.21832706112762284567e-01) (39, -1.74957373344800520831e-01) (40, -1.48216268645433690843e-01) (41, -4.96214162282852255803e-01) (42, -1.33821277886583600569e-01) (43, -2.33811469397979865281e-01) (44, -3.19645122883956189774e-01) (45, -3.64513022469703684703e-01) (46, 1.01800124199588365448e-01) (47, 4.47313607016047234954e-02) (48, -3.41434387202897815516e-01) (49, -6.00249266654895863304e-01) (50, -7.30739948144855544498e-01) (51, -2.01140221035750382805e-01) (52, 1.56337089285581071207e-01) (53, 7.57183687107123026827e-02) (54, -5.14331340990990648621e-01) (55, -3.80651844797924410191e-01) (56, 4.13554601571892943568e-01) (57, -9.52024958835956253145e-02) (58, 1.55496391736795247507e-01) (59, -3.19479812677122110287e-01) (60, -1.30859053840114758493e+00) (0, -3.63260735928299494102e-01) (1, 1.43169245115121107625e-01) (2, -3.79972610132898513946e-01) (3, -5.43948133850355008967e-01) (4, -3.30432849410822515601e-01) (5, 5.63161044428702600717e-03) (6, -4.86365096475766367501e-01) (7, -2.63182708389952280115e-01) (8, -2.55958681496502304942e-01) (9, -5.44102171941687196011e-01) (10, -5.40802019664393535114e-02) (11, -4.68397202692833969362e-01) (12, -4.23891221292042263968e-01) (13, -6.76023649658442415955e-01) (14, 2.00249224788187019097e-01) (15, -2.60648616026893709119e-01) (16, 4.63570275673616416512e-01) (17, -1.37307264655533955988e+00) (18, 7.10205943176702270137e-01) (19, -4.79922653585516389985e-01) (20, 8.30586114228369809531e-01) (21, -1.63669143290436780447e+00) (22, 6.28987677932600797170e-01) (23, 4.07471979946517973148e-02) (24, 1.53270177378158845016e+00) (25, -2.41078325862092635035e+00) (26, -8.44989980786515076927e-02) (27, -2.97033066358484365566e-01) (28, -1.18137293710196233931e+00) (29, 7.35440321132584950981e-01) (30, -1.14245515183747015087e+00) (31, -9.30838435888290405273e-02) (32, -7.90093949362324243779e-01) (33, 6.82402122839572800039e-01) (34, -1.39721834101976338793e+00) (35, -2.24046510245480057222e-01) (36, -4.51774693868945698139e-01) (37, 4.89693423615446543629e-01) (38, -2.57904482311640870229e-01) (39, -1.29652188301058013398e-01) (40, -6.66186501409257614270e-01) (41, 3.76652183167848375600e-01) (42, 2.58135044260870138988e-01) (43, 2.62398022271804753913e-02) (44, -4.72085877039373713604e-01) (45, 9.23954079980124076688e-02) (46, 5.64457890031282091825e-02) (47, -2.25527810841530035324e-01) (48, -8.30468267749443711523e-01) (49, 1.90870380027534675138e-01) (50, 4.80324163324167774380e-01) (51, -3.91143333935003056911e-01) (52, -4.04428460105912213063e-01) (53, -5.47994283039289695192e-02) (54, 2.19229041525566104021e-01) (55, -3.02273148114796497143e-01) (56, -2.36484410232920449677e-05) (57, 3.67001162061126526281e-02) (58, 2.51100180224944069529e-02) (59, -5.32610080214083181360e-01) (60, -1.39865817104731693377e+00) (0, -1.94080819230507350959e-01) (1, -1.60486630895996712498e-01) (2, -3.43654532547945867904e-01) (3, -3.01664303094874367006e-02) (4, -5.95431527065441168478e-02) (5, -4.12480084104424937763e-01) (6, -3.75157357678329084205e-01) (7, 2.43573735122022986752e-03) (8, -2.27033793719309207049e-01) (9, -2.86915988031147040083e-01) (10, -2.91217721609450946874e-02) (11, -1.34038530824745427683e-01) (12, -4.66561065158149879117e-01) (13, -2.83859096882338235446e-01) (14, 1.64998488523907388403e-02) (15, -1.99017164173250604708e-01) (16, -9.21253506868003890773e-02) (17, -2.20963089743278384702e-01) (18, -1.77424474834460173256e-02) (19, -9.98724942882664307175e-02) (20, -4.36485309382895203534e-01) (21, -1.06204634158121577481e-01) (22, -3.87063970942741475412e-02) (23, -9.35025723526305002631e-02) (24, -3.12886943110367687915e-01) (25, 1.51311759438043175185e-01) (26, -1.01107576430078685559e-01) (27, -3.11592331147425460891e-01) (28, -9.42929231028191594532e-01) (29, -2.76215599793136923346e-01) (30, 2.83150167284892728681e-01) (31, 3.87716516852378845215e-02) (32, -2.71491926075751954794e-01) (33, 1.49770814488183717783e-01) (34, -5.20163468469065137789e-01) (35, -2.37008739702716436648e-01) (36, -2.26808681437628695265e-02) (37, 2.77954243615859963867e-01) (38, -7.11697837437338831634e-01) (39, 5.15663513736534517840e-02) (40, -2.84376943934390613578e-01) (41, 7.35938932050844013544e-02) (42, -8.74414961633516452100e-02) (43, -9.93165062004241344651e-02) (44, -2.82041006590572351787e-01) (45, -1.40476851530327517814e-01) (46, 4.88410988830899756019e-02) (47, -1.36767837368848899082e-01) (48, -3.33567099973597791518e-01) (49, -2.78424893420057106841e-01) (50, 1.23976622755636534112e-01) (51, -8.88758602903630123837e-02) (52, -3.94857298383462729241e-01) (53, -4.25718158246850941762e-01) (54, 1.79706237623290243643e-01) (55, -1.74822068470445957100e-01) (56, -1.36986307494429915277e-01) (57, -3.82005827634989580943e-01) (58, 2.25910615266566888737e-01) (59, -3.06653559589787683137e-01) (60, -2.32172051424811898279e-01) (0, 4.99921250309154092256e-03) (1, -2.18491072134275626793e-01) (2, -1.88290179026747078739e-01) (3, 5.68650450660103806699e-02) (4, -1.86202281288629617473e-01) (5, -2.40669158110839581655e-01) (6, -1.74753117674840807716e-01) (7, -2.64613456947289882315e-01) (8, -1.47378838873491818662e-01) (9, -2.71836615737345466126e-01) (10, -3.78927162166614733829e-02) (11, -2.54329372096704697803e-01) (12, -2.65900954647227856509e-02) (13, -1.31955980665969224708e-01) (14, -1.02191518900711708628e-01) (15, -1.55353367503406447625e-01) (16, -3.30679161914214148066e-01) (17, -1.65533519799041621556e-02) (18, -2.19668119007240703056e-01) (19, -1.39991576208583518026e-01) (20, -2.45946076604795588194e-01) (21, -4.77735551860256138501e-02) (22, -1.84249238165844680948e-01) (23, -4.82906292353735798473e-04) (24, -2.51752174268656314648e-01) (25, 1.17315939583454195705e-01) (26, -5.50639118890987808164e-02) (27, -6.15860933291833556602e-02) (28, -9.19180113672293352955e-01) (29, 5.63667557019665754758e-01) (30, 2.57173029929330700105e-02) (31, -6.03461265563964843750e-03) (32, -5.53746078712273437361e-01) (33, 3.25932617659969781077e-01) (34, -1.52239991580741806931e-01) (35, -1.59267320526225060473e-02) (36, -3.87959618294211328049e-01) (37, 2.83932341149041034267e-01) (38, -5.71141284245810440523e-02) (39, 5.12071341929095022460e-02) (40, -1.46570902999204749628e-01) (41, 1.03644743470062625224e-01) (42, -2.85456889355645115902e-01) (43, 3.55863065258174050831e-03) (44, 4.75842741202472802042e-02) (45, -1.69206659807664333561e-01) (46, -3.18842551614554825523e-01) (47, -1.39301349090188847368e-01) (48, -4.04051828807458907056e-02) (49, -1.64095441840895223118e-01) (50, -2.40192116303338309979e-01) (51, -6.87650061614046570480e-02) (52, 3.23533952062842605768e-02) (53, -3.66155305320807145097e-01) (54, -1.27439629973703116850e-01) (55, -1.40175491319847689287e-01) (56, 5.70593785628460761772e-02) (57, -2.58430542687158759652e-01) (58, -2.28127289278191341948e-01) (59, -1.05051440219753447480e-01) (60, -1.04222893930086901726e+00) (0, 2.47563026843381661646e-01) (1, -2.16208213977384960947e-01) (2, 1.85186897237952202699e-01) (3, 1.93727974451845669224e-01) (4, -2.86881799948246418719e-01) (5, 1.76737273156359724069e-02) (6, 1.48847459465779818899e-01) (7, -2.84177192100995623658e-01) (8, -5.61780155895811872391e-01) (9, 7.29844411686539212836e-02) (10, -1.55989915820296171090e-01) (11, -3.20764874599905158714e-01) (12, -1.08104220933753492062e-01) (13, 5.59231408841482147132e-01) (14, -8.86003335411570502878e-01) (15, -2.37490145169997113328e-01) (16, -5.88029055654927357288e-01) (17, 3.53831502719111012922e-01) (18, -4.14177474516910448799e-01) (19, -3.28587930729178523404e-01) (20, -5.30828322066928759426e-01) (21, 4.75294035336138523395e-02) (22, -7.49347155176353640904e-02) (23, -5.75533780963287888710e-01) (24, -1.83764189990324999791e+00) (25, 1.18542058622637905274e-01) (26, 1.12079198863151408005e+00) (27, -3.11156059397854400927e-01) (28, -2.53271316334676077631e+00) (29, 1.45834174247970493887e+00) (30, 1.84938093004114545437e+00) (31, -5.86244426667690277100e-02) (32, -1.10998569145553549475e+00) (33, 8.59981612509421733392e-01) (34, 9.65341319716817913843e-01) (35, -1.58958617465496804266e-01) (36, 2.78799918272948588083e-01) (37, 2.40995264577530843297e-01) (38, 1.18433918802062687625e+00) (39, -2.06198257057840089734e-01) (40, -2.18763417317806102558e-01) (41, 5.72664365636146199812e-01) (42, 5.34107422955248600793e-01) (43, -5.47633161031107259381e-03) (44, -4.61004558322193447317e-01) (45, 5.52199131964540623763e-01) (46, 2.55342812787468058378e-02) (47, -7.61078882762614983282e-02) (48, -2.27099150648746306302e-01) (49, 3.58998978319749265098e-02) (50, -4.35946986547989037697e-02) (51, -2.07186206888257812286e-02) (52, 1.37655473239971765098e-01) (53, -7.19003214750970759406e-02) (54, -5.31545052718798358149e-02) (55, 1.00422250003593241385e-01) (56, 5.84851281148870749682e-01) (57, 1.47351155020930019157e-01) (58, -7.34935843406251732013e-01) (59, 4.41957711251666385266e-01) (60, -1.96019025849758699032e+00) (0, -7.02353862507968829121e-01) (1, -5.57172663695450376409e-01) (2, 1.72223904770852809243e-01) (3, -1.89687538394758242744e-01) (4, -4.98250453886932620495e-01) (5, -3.91586867814150474398e-01) (6, 2.74033091649033833104e-01) (7, -3.21729251654151782169e-01) (8, -3.11446764268976383772e-01) (9, -8.89043137059003230060e-02) (10, -9.06340859504775192557e-02) (11, -1.09984945800389616322e-01) (12, -4.60621672867089160253e-01) (13, -1.02278504148771320903e-01) (14, -6.73304808942700415419e-03) (15, -2.06398026199561379634e-01) (16, -3.14946147644222573803e-01) (17, 7.64522701301184517270e-03) (18, -1.95525319324513724428e-01) (19, -1.49830165367750428596e-01) (20, 2.07007115369733707411e-01) (21, 1.72888517746581205081e-01) (22, -8.28249911255556248157e-01) (23, -1.33227787993424717783e-01) (24, 1.04343112191079584461e-01) (25, 1.74602502935624404046e-01) (26, -8.67978074973763891187e-01) (27, -1.39893172854103423064e-02) (28, -3.81875714883798011989e-01) (29, -2.54636589763583442991e-01) (30, -2.10131990527826426063e-02) (31, 9.96905565261840820312e-03) (32, -1.50276024584944462026e-01) (33, 1.38981715309843656403e-01) (34, -2.96129153469068984172e-01) (35, -9.79152698167822486963e-03) (36, -5.24078447641310396499e-01) (37, 3.50896180351909781070e-01) (38, -2.83440140610444091251e-01) (39, -4.15343298507808642017e-02) (40, -2.42597896841092348919e-02) (41, -2.29512705837795205621e-01) (42, -4.62855140430834255394e-01) (43, -8.98263523673265007474e-02) (44, -2.17171611651180596070e-01) (45, -2.41079676898904360360e-01) (46, -2.30663274760585235157e-01) (47, 2.54553139484209800178e-03) (48, -5.43011327066061699753e-01) (49, -2.23150652714885627814e-02) (50, 3.72162197357959537158e-02) (51, 1.06948030652760414649e-01) (52, 