FANN_FLO_2.1
num_layers=3
learning_rate=0.010000
connection_rate=1.000000
network_type=0
learning_momentum=0.100000
training_algorithm=0
train_error_function=1
train_stop_function=0
cascade_output_change_fraction=0.010000
quickprop_decay=-0.000100
quickprop_mu=1.750000
rprop_increase_factor=1.200000
rprop_decrease_factor=0.500000
rprop_delta_min=0.000000
rprop_delta_max=50.000000
rprop_delta_zero=0.100000
cascade_output_stagnation_epochs=12
cascade_candidate_change_fraction=0.010000
cascade_candidate_stagnation_epochs=12
cascade_max_out_epochs=150
cascade_max_cand_epochs=150
cascade_num_candidate_groups=2
bit_fail_limit=3.49999999999999977796e-01
cascade_candidate_limit=1.00000000000000000000e+03
cascade_weight_multiplier=4.00000000000000022204e-01
cascade_activation_functions_count=10
cascade_activation_functions=3 5 7 8 10 11 14 15 16 17 
cascade_activation_steepnesses_count=4
cascade_activation_steepnesses=2.50000000000000000000e-01 5.00000000000000000000e-01 7.50000000000000000000e-01 1.00000000000000000000e+00 
layer_sizes=553 141 4 
scale_included=0
neurons (num_inputs, activation_function, activation_steepness)=(0, 0, 0.00000000000000000000e+00) (0, 0, 0.00000000000000000000e+00) (0, 0, 0.00000000000000000000e+00) (0, 0, 0.00000000000000000000e+00) (0, 0, 0.00000000000000000000e+00) (0, 0, 0.00000000000000000000e+00) (0, 0, 0.00000000000000000000e+00) (0, 0, 0.00000000000000000000e+00) (0, 0, 0.00000000000000000000e+00) (0, 0, 0.00000000000000000000e+00) (0, 0, 0.00000000000000000000e+00) (0, 0, 0.00000000000000000000e+00) (0, 0, 0.00000000000000000000e+00) (0, 0, 0.00000000000000000000e+00) (0, 0, 0.00000000000000000000e+00) (0, 0, 0.00000000000000000000e+00) (0, 0, 0.00000000000000000000e+00) (0, 0, 0.00000000000000000000e+00) (0, 0, 0.00000000000000000000e+00) (0, 0, 0.00000000000000000000e+00) (0, 0, 0.00000000000000000000e+00) (0, 0, 0.00000000000000000000e+00) (0, 0, 0.00000000000000000000e+00) (0, 0, 0.00000000000000000000e+00) (0, 0, 0.00000000000000000000e+00) (0, 0, 0.00000000000000000000e+00) (0, 0, 0.00000000000000000000e+00) (0, 0, 0.00000000000000000000e+00) (0, 0, 0.00000000000000000000e+00) (0, 0, 0.00000000000000000000e+00) (0, 0, 0.00000000000000000000e+00) (0, 0, 0.00000000000000000000e+00) (0, 0, 0.00000000000000000000e+00) (0, 0, 0.00000000000000000000e+00) (0, 0, 0.00000000000000000000e+00) (0, 0, 0.00000000000000000000e+00) (0, 0, 0.00000000000000000000e+00) (0, 0, 0.00000000000000000000e+00) (0, 0, 0.00000000000000000000e+00) (0, 0, 0.00000000000000000000e+00) (0, 0, 0.00000000000000000000e+00) (0, 0, 0.00000000000000000000e+00) (0, 0, 0.00000000000000000000e+00) (0, 0, 0.00000000000000000000e+00) (0, 0, 0.00000000000000000000e+00) (0, 0, 0.00000000000000000000e+00) (0, 0, 0.00000000000000000000e+00) (0, 0, 0.00000000000000000000e+00) (0, 0, 0.00000000000000000000e+00) (0, 0, 0.00000000000000000000e+00) (0, 0, 0.00000000000000000000e+00) (0, 0, 0.00000000000000000000e+00) (0, 0, 0.00000000000000000000e+00) (0, 0, 0.00000000000000000000e+00) (0, 0, 0.00000000000000000000e+00) (0, 0, 0.00000000000000000000e+00) (0, 0, 0.00000000000000000000e+00) (0, 0, 0.00000000000000000000e+00) (0, 0, 0.00000000000000000000e+00) (0, 0, 0.00000000000000000000e+00) (0, 0, 0.00000000000000000000e+00) (0, 0, 0.00000000000000000000e+00) (0, 0, 0.00000000000000000000e+00) (0, 0, 0.00000000000000000000e+00) (0, 0, 0.00000000000000000000e+00) (0, 0, 0.00000000000000000000e+00) (0, 0, 0.00000000000000000000e+00) (0, 0, 0.00000000000000000000e+00) (0, 0, 0.00000000000000000000e+00) (0, 0, 0.00000000000000000000e+00) (0, 0, 0.00000000000000000000e+00) (0, 0, 0.00000000000000000000e+00) (0, 0, 0.00000000000000000000e+00) (0, 0, 0.00000000000000000000e+00) (0, 0, 0.00000000000000000000e+00) (0, 0, 0.00000000000000000000e+00) (0, 0, 0.00000000000000000000e+00) (0, 0, 0.00000000000000000000e+00) (0, 0, 0.00000000000000000000e+00) (0, 0, 0.00000000000000000000e+00) (0, 0, 0.00000000000000000000e+00) (0, 0, 0.00000000000000000000e+00) (0, 0, 0.00000000000000000000e+00) (0, 0, 0.00000000000000000000e+00) (0, 0, 0.00000000000000000000e+00) (0, 0, 0.00000000000000000000e+00) (0, 0, 0.00000000000000000000e+00) (0, 0, 0.00000000000000000000e+00) (0, 0, 0.00000000000000000000e+00) (0, 0, 0.00000000000000000000e+00) (0, 0, 0.00000000000000000000e+00) (0, 0, 0.00000000000000000000e+00) (0, 0, 0.00000000000000000000e+00) (0, 0, 0.00000000000000000000e+00) (0, 0, 0.00000000000000000000e+00) (0, 0, 0.00000000000000000000e+00) (0, 0, 0.00000000000000000000e+00) (0, 0, 0.00000000000000000000e+00) (0, 0, 0.00000000000000000000e+00) (0, 0, 0.00000000000000000000e+00) (0, 0, 0.00000000000000000000e+00) (0, 0, 0.00000000000000000000e+00) (0, 0, 0.00000000000000000000e+00) (0, 0, 0.00000000000000000000e+00) (0, 0, 0.00000000000000000000e+00) (0, 0, 0.00000000000000000000e+00) (0, 0, 0.00000000000000000000e+00) (0, 0, 0.00000000000000000000e+00) (0, 0, 0.00000000000000000000e+00) (0, 0, 0.00000000000000000000e+00) (0, 0, 0.00000000000000000000e+00) (0, 0, 0.00000000000000000000e+00) (0, 0, 0.00000000000000000000e+00) (0, 0, 0.00000000000000000000e+00) (0, 0, 0.00000000000000000000e+00) (0, 0, 0.00000000000000000000e+00) (0, 0, 0.00000000000000000000e+00) (0, 0, 0.00000000000000000000e+00) (0, 0, 0.00000000000000000000e+00) (0, 0, 0.00000000000000000000e+00) (0, 0, 0.00000000000000000000e+00) (0, 0, 0.00000000000000000000e+00) (0, 0, 0.00000000000000000000e+00) (0, 0, 0.00000000000000000000e+00) (0, 0, 0.00000000000000000000e+00) (0, 0, 0.00000000000000000000e+00) (0, 0, 0.00000000000000000000e+00) (0, 0, 0.00000000000000000000e+00) (0, 0, 0.00000000000000000000e+00) (0, 0, 0.00000000000000000000e+00) (0, 0, 0.00000000000000000000e+00) (0, 0, 0.00000000000000000000e+00) (0, 0, 0.00000000000000000000e+00) (0, 0, 0.00000000000000000000e+00) (0, 0, 0.00000000000000000000e+00) (0, 0, 0.00000000000000000000e+00) (0, 0, 0.00000000000000000000e+00) (0, 0, 0.00000000000000000000e+00) (0, 0, 0.00000000000000000000e+00) (0, 0, 0.00000000000000000000e+00) (0, 0, 0.00000000000000000000e+00) (0, 0, 0.00000000000000000000e+00) (0, 0, 0.00000000000000000000e+00) (0, 0, 0.00000000000000000000e+00) (0, 0, 0.00000000000000000000e+00) (0, 0, 0.00000000000000000000e+00) (0, 0, 0.00000000000000000000e+00) (0, 0, 0.00000000000000000000e+00) (0, 0, 0.00000000000000000000e+00) (0, 0, 0.00000000000000000000e+00) (0, 0, 0.00000000000000000000e+00) (0, 0, 0.00000000000000000000e+00) (0, 0, 0.00000000000000000000e+00) (0, 0, 0.00000000000000000000e+00) (0, 0, 0.00000000000000000000e+00) (0, 0, 0.00000000000000000000e+00) (0, 0, 0.00000000000000000000e+00) (0, 0, 0.00000000000000000000e+00) (0, 0, 0.00000000000000000000e+00) (0, 0, 0.00000000000000000000e+00) (0, 0, 0.00000000000000000000e+00) (0, 0, 0.00000000000000000000e+00) (0, 0, 0.00000000000000000000e+00) (0, 0, 0.00000000000000000000e+00) (0, 0, 0.00000000000000000000e+00) (0, 0, 0.00000000000000000000e+00) (0, 0, 0.00000000000000000000e+00) (0, 0, 0.00000000000000000000e+00) (0, 0, 0.00000000000000000000e+00) (0, 0, 0.00000000000000000000e+00) (0, 0, 0.00000000000000000000e+00) (0, 0, 0.00000000000000000000e+00) (0, 0, 0.00000000000000000000e+00) (0, 0, 0.00000000000000000000e+00) (0, 0, 0.00000000000000000000e+00) (0, 0, 0.00000000000000000000e+00) (0, 0, 0.00000000000000000000e+00) (0, 0, 0.00000000000000000000e+00) (0, 0, 0.00000000000000000000e+00) (0, 0, 0.00000000000000000000e+00) (0, 0, 0.00000000000000000000e+00) (0, 0, 0.00000000000000000000e+00) (0, 0, 0.00000000000000000000e+00) (0, 0, 0.00000000000000000000e+00) (0, 0, 0.00000000000000000000e+00) (0, 0, 0.00000000000000000000e+00) (0, 0, 0.00000000000000000000e+00) (0, 0, 0.00000000000000000000e+00) (0, 0, 0.00000000000000000000e+00) (0, 0, 0.00000000000000000000e+00) (0, 0, 0.00000000000000000000e+00) (0, 0, 0.00000000000000000000e+00) (0, 0, 0.00000000000000000000e+00) (0, 0, 0.00000000000000000000e+00) (0, 0, 0.00000000000000000000e+00) (0, 0, 0.00000000000000000000e+00) (0, 0, 0.00000000000000000000e+00) (0, 0, 0.00000000000000000000e+00) (0, 0, 0.00000000000000000000e+00) (0, 0, 0.00000000000000000000e+00) (0, 0, 0.00000000000000000000e+00) (0, 0, 0.00000000000000000000e+00) (0, 0, 0.00000000000000000000e+00) (0, 0, 0.00000000000000000000e+00) (0, 0, 0.00000000000000000000e+00) (0, 0, 0.00000000000000000000e+00) (0, 0, 0.00000000000000000000e+00) (0, 0, 0.00000000000000000000e+00) (0, 0, 0.00000000000000000000e+00) (0, 0, 0.00000000000000000000e+00) (0, 0, 0.00000000000000000000e+00) (0, 0, 0.00000000000000000000e+00) (0, 0, 0.00000000000000000000e+00) (0, 0, 0.00000000000000000000e+00) (0, 0, 0.00000000000000000000e+00) (0, 0, 0.00000000000000000000e+00) (0, 0, 0.00000000000000000000e+00) (0, 0, 0.00000000000000000000e+00) (0, 0, 0.00000000000000000000e+00) (0, 0, 0.00000000000000000000e+00) (0, 0, 0.00000000000000000000e+00) (0, 0, 0.00000000000000000000e+00) (0, 0, 0.00000000000000000000e+00) (0, 0, 0.00000000000000000000e+00) (0, 0, 0.00000000000000000000e+00) (0, 0, 0.00000000000000000000e+00) (0, 0, 0.00000000000000000000e+00) (0, 0, 0.00000000000000000000e+00) (0, 0, 0.00000000000000000000e+00) (0, 0, 0.00000000000000000000e+00) (0, 0, 0.00000000000000000000e+00) (0, 0, 0.00000000000000000000e+00) (0, 0, 0.00000000000000000000e+00) (0, 0, 0.00000000000000000000e+00) (0, 0, 0.00000000000000000000e+00) (0, 0, 0.00000000000000000000e+00) (0, 0, 0.00000000000000000000e+00) (0, 0, 0.00000000000000000000e+00) (0, 0, 0.00000000000000000000e+00) (0, 0, 0.00000000000000000000e+00) (0, 0, 0.00000000000000000000e+00) (0, 0, 0.00000000000000000000e+00) (0, 0, 0.00000000000000000000e+00) (0, 0, 0.00000000000000000000e+00) (0, 0, 0.00000000000000000000e+00) (0, 0, 0.00000000000000000000e+00) (0, 0, 0.00000000000000000000e+00) (0, 0, 0.00000000000000000000e+00) (0, 0, 0.00000000000000000000e+00) (0, 0, 0.00000000000000000000e+00) (0, 0, 0.00000000000000000000e+00) (0, 0, 0.00000000000000000000e+00) (0, 0, 0.00000000000000000000e+00) (0, 0, 0.00000000000000000000e+00) (0, 0, 0.00000000000000000000e+00) (0, 0, 0.00000000000000000000e+00) (0, 0, 0.00000000000000000000e+00) (0, 0, 0.00000000000000000000e+00) (0, 0, 0.00000000000000000000e+00) (0, 0, 0.00000000000000000000e+00) (0, 0, 0.00000000000000000000e+00) (0, 0, 0.00000000000000000000e+00) (0, 0, 0.00000000000000000000e+00) (0, 0, 0.00000000000000000000e+00) (0, 0, 0.00000000000000000000e+00) (0, 0, 0.00000000000000000000e+00) (0, 0, 0.00000000000000000000e+00) (0, 0, 0.00000000000000000000e+00) (0, 0, 0.00000000000000000000e+00) (0, 0, 0.00000000000000000000e+00) (0, 0, 0.00000000000000000000e+00) (0, 0, 0.00000000000000000000e+00) (0, 0, 0.00000000000000000000e+00) (0, 0, 0.00000000000000000000e+00) (0, 0, 0.00000000000000000000e+00) (0, 0, 0.00000000000000000000e+00) (0, 0, 0.00000000000000000000e+00) (0, 0, 0.00000000000000000000e+00) (0, 0, 0.00000000000000000000e+00) (0, 0, 0.00000000000000000000e+00) (0, 0, 0.00000000000000000000e+00) (0, 0, 0.00000000000000000000e+00) (0, 0, 0.00000000000000000000e+00) (0, 0, 0.00000000000000000000e+00) (0, 0, 0.00000000000000000000e+00) (0, 0, 0.00000000000000000000e+00) (0, 0, 0.00000000000000000000e+00) (0, 0, 0.00000000000000000000e+00) (0, 0, 0.00000000000000000000e+00) (0, 0, 0.00000000000000000000e+00) (0, 0, 0.00000000000000000000e+00) (0, 0, 0.00000000000000000000e+00) (0, 0, 0.00000000000000000000e+00) (0, 0, 0.00000000000000000000e+00) (0, 0, 0.00000000000000000000e+00) (0, 0, 0.00000000000000000000e+00) (0, 0, 0.00000000000000000000e+00) (0, 0, 0.00000000000000000000e+00) (0, 0, 0.00000000000000000000e+00) (0, 0, 0.00000000000000000000e+00) (0, 0, 0.00000000000000000000e+00) (0, 0, 0.00000000000000000000e+00) (0, 0, 0.00000000000000000000e+00) (0, 0, 0.00000000000000000000e+00) (0, 0, 0.00000000000000000000e+00) (0, 0, 0.00000000000000000000e+00) (0, 0, 0.00000000000000000000e+00) (0, 0, 0.00000000000000000000e+00) (0, 0, 0.00000000000000000000e+00) (0, 0, 0.00000000000000000000e+00) (0, 0, 0.00000000000000000000e+00) (0, 0, 0.00000000000000000000e+00) (0, 0, 0.00000000000000000000e+00) (0, 0, 0.00000000000000000000e+00) (0, 0, 0.00000000000000000000e+00) (0, 0, 0.00000000000000000000e+00) (0, 0, 0.00000000000000000000e+00) (0, 0, 0.00000000000000000000e+00) (0, 0, 0.00000000000000000000e+00) (0, 0, 0.00000000000000000000e+00) (0, 0, 0.00000000000000000000e+00) (0, 0, 0.00000000000000000000e+00) (0, 0, 0.00000000000000000000e+00) (0, 0, 0.00000000000000000000e+00) (0, 0, 0.00000000000000000000e+00) (0, 0, 0.00000000000000000000e+00) (0, 0, 0.00000000000000000000e+00) (0, 0, 0.00000000000000000000e+00) (0, 0, 0.00000000000000000000e+00) (0, 0, 0.00000000000000000000e+00) (0, 0, 0.00000000000000000000e+00) (0, 0, 0.00000000000000000000e+00) (0, 0, 0.00000000000000000000e+00) (0, 0, 0.00000000000000000000e+00) (0, 0, 0.00000000000000000000e+00) (0, 0, 0.00000000000000000000e+00) (0, 0, 0.00000000000000000000e+00) (0, 0, 0.00000000000000000000e+00) (0, 0, 0.00000000000000000000e+00) (0, 0, 0.00000000000000000000e+00) (0, 0, 0.00000000000000000000e+00) (0, 0, 0.00000000000000000000e+00) (0, 0, 0.00000000000000000000e+00) (0, 0, 0.00000000000000000000e+00) (0, 0, 0.00000000000000000000e+00) (0, 0, 0.00000000000000000000e+00) (0, 0, 0.00000000000000000000e+00) (0, 0, 0.00000000000000000000e+00) (0, 0, 0.00000000000000000000e+00) (0, 0, 0.00000000000000000000e+00) (0, 0, 0.00000000000000000000e+00) (0, 0, 0.00000000000000000000e+00) (0, 0, 0.00000000000000000000e+00) (0, 0, 0.00000000000000000000e+00) (0, 0, 0.00000000000000000000e+00) (0, 0, 0.00000000000000000000e+00) (0, 0, 0.00000000000000000000e+00) (0, 0, 0.00000000000000000000e+00) (0, 0, 0.00000000000000000000e+00) (0, 0, 0.00000000000000000000e+00) (0, 0, 0.00000000000000000000e+00) (0, 0, 0.00000000000000000000e+00) (0, 0, 0.00000000000000000000e+00) (0, 0, 0.00000000000000000000e+00) (0, 0, 0.00000000000000000000e+00) (0, 0, 0.00000000000000000000e+00) (0, 0, 0.00000000000000000000e+00) (0, 0, 0.00000000000000000000e+00) (0, 0, 0.00000000000000000000e+00) (0, 0, 0.00000000000000000000e+00) (0, 0, 0.00000000000000000000e+00) (0, 0, 0.00000000000000000000e+00) (0, 0, 0.00000000000000000000e+00) (0, 0, 0.00000000000000000000e+00) (0, 0, 0.00000000000000000000e+00) (0, 0, 0.00000000000000000000e+00) (0, 0, 0.00000000000000000000e+00) (0, 0, 0.00000000000000000000e+00) (0, 0, 0.00000000000000000000e+00) (0, 0, 0.00000000000000000000e+00) (0, 0, 0.00000000000000000000e+00) (0, 0, 0.00000000000000000000e+00) (0, 0, 0.00000000000000000000e+00) (0, 0, 0.00000000000000000000e+00) (0, 0, 0.00000000000000000000e+00) (0, 0, 0.00000000000000000000e+00) (0, 0, 0.00000000000000000000e+00) (0, 0, 0.00000000000000000000e+00) (0, 0, 0.00000000000000000000e+00) (0, 0, 0.00000000000000000000e+00) (0, 0, 0.00000000000000000000e+00) (0, 0, 0.00000000000000000000e+00) (0, 0, 0.00000000000000000000e+00) (0, 0, 0.00000000000000000000e+00) (0, 0, 0.00000000000000000000e+00) (0, 0, 0.00000000000000000000e+00) (0, 0, 0.00000000000000000000e+00) (0, 0, 0.00000000000000000000e+00) (0, 0, 0.00000000000000000000e+00) (0, 0, 0.00000000000000000000e+00) (0, 0, 0.00000000000000000000e+00) (0, 0, 0.00000000000000000000e+00) (0, 0, 0.00000000000000000000e+00) (0, 0, 0.00000000000000000000e+00) (0, 0, 0.00000000000000000000e+00) (0, 0, 0.00000000000000000000e+00) (0, 0, 0.00000000000000000000e+00) (0, 0, 0.00000000000000000000e+00) (0, 0, 0.00000000000000000000e+00) (0, 0, 0.00000000000000000000e+00) (0, 0, 0.00000000000000000000e+00) (0, 0, 0.00000000000000000000e+00) (0, 0, 0.00000000000000000000e+00) (0, 0, 0.00000000000000000000e+00) (0, 0, 0.00000000000000000000e+00) (0, 0, 0.00000000000000000000e+00) (0, 0, 0.00000000000000000000e+00) (0, 0, 0.00000000000000000000e+00) (0, 0, 0.00000000000000000000e+00) (0, 0, 0.00000000000000000000e+00) (0, 0, 0.00000000000000000000e+00) (0, 0, 0.00000000000000000000e+00) (0, 0, 0.00000000000000000000e+00) (0, 0, 0.00000000000000000000e+00) (0, 0, 0.00000000000000000000e+00) (0, 0, 0.00000000000000000000e+00) (0, 0, 0.00000000000000000000e+00) (0, 0, 0.00000000000000000000e+00) (0, 0, 0.00000000000000000000e+00) (0, 0, 0.00000000000000000000e+00) (0, 0, 0.00000000000000000000e+00) (0, 0, 0.00000000000000000000e+00) (0, 0, 0.00000000000000000000e+00) (0, 0, 0.00000000000000000000e+00) (0, 0, 0.00000000000000000000e+00) (0, 0, 0.00000000000000000000e+00) (0, 0, 0.00000000000000000000e+00) (0, 0, 0.00000000000000000000e+00) (0, 0, 0.00000000000000000000e+00) (0, 0, 0.00000000000000000000e+00) (0, 0, 0.00000000000000000000e+00) (0, 0, 0.00000000000000000000e+00) (0, 0, 0.00000000000000000000e+00) (0, 0, 0.00000000000000000000e+00) (0, 0, 0.00000000000000000000e+00) (0, 0, 0.00000000000000000000e+00) (0, 0, 0.00000000000000000000e+00) (0, 0, 0.00000000000000000000e+00) (0, 0, 0.00000000000000000000e+00) (0, 0, 0.00000000000000000000e+00) (0, 0, 0.00000000000000000000e+00) (0, 0, 0.00000000000000000000e+00) (0, 0, 0.00000000000000000000e+00) (0, 0, 0.00000000000000000000e+00) (0, 0, 0.00000000000000000000e+00) (0, 0, 0.00000000000000000000e+00) (0, 0, 0.00000000000000000000e+00) (0, 0, 0.00000000000000000000e+00) (0, 0, 0.00000000000000000000e+00) (0, 0, 0.00000000000000000000e+00) (0, 0, 0.00000000000000000000e+00) (0, 0, 0.00000000000000000000e+00) (0, 0, 0.00000000000000000000e+00) (0, 0, 0.00000000000000000000e+00) (0, 0, 0.00000000000000000000e+00) (0, 0, 0.00000000000000000000e+00) (0, 0, 0.00000000000000000000e+00) (0, 0, 0.00000000000000000000e+00) (0, 0, 0.00000000000000000000e+00) (0, 0, 0.00000000000000000000e+00) (0, 0, 0.00000000000000000000e+00) (0, 0, 0.00000000000000000000e+00) (0, 0, 0.00000000000000000000e+00) (0, 0, 0.00000000000000000000e+00) (0, 0, 0.00000000000000000000e+00) (0, 0, 0.00000000000000000000e+00) (0, 0, 0.00000000000000000000e+00) (0, 0, 0.00000000000000000000e+00) (0, 0, 0.00000000000000000000e+00) (0, 0, 0.00000000000000000000e+00) (0, 0, 0.00000000000000000000e+00) (0, 0, 0.00000000000000000000e+00) (0, 0, 0.00000000000000000000e+00) (0, 0, 0.00000000000000000000e+00) (0, 0, 0.00000000000000000000e+00) (0, 0, 0.00000000000000000000e+00) (0, 0, 0.00000000000000000000e+00) (0, 0, 0.00000000000000000000e+00) (0, 0, 0.00000000000000000000e+00) (0, 0, 0.00000000000000000000e+00) (0, 0, 0.00000000000000000000e+00) (0, 0, 0.00000000000000000000e+00) (0, 0, 0.00000000000000000000e+00) (0, 0, 0.00000000000000000000e+00) (0, 0, 0.00000000000000000000e+00) (0, 0, 0.00000000000000000000e+00) (0, 0, 0.00000000000000000000e+00) (0, 0, 0.00000000000000000000e+00) (0, 0, 0.00000000000000000000e+00) (0, 0, 0.00000000000000000000e+00) (0, 0, 0.00000000000000000000e+00) (0, 0, 0.00000000000000000000e+00) (0, 0, 0.00000000000000000000e+00) (0, 0, 0.00000000000000000000e+00) (0, 0, 0.00000000000000000000e+00) (0, 0, 0.00000000000000000000e+00) (0, 0, 0.00000000000000000000e+00) (0, 0, 0.00000000000000000000e+00) (0, 0, 0.00000000000000000000e+00) (0, 0, 0.00000000000000000000e+00) (0, 0, 0.00000000000000000000e+00) (0, 0, 0.00000000000000000000e+00) (0, 0, 0.00000000000000000000e+00) (0, 0, 0.00000000000000000000e+00) (0, 0, 0.00000000000000000000e+00) (0, 0, 0.00000000000000000000e+00) (0, 0, 0.00000000000000000000e+00) (0, 0, 0.00000000000000000000e+00) (0, 0, 0.00000000000000000000e+00) (0, 0, 0.00000000000000000000e+00) (0, 0, 0.00000000000000000000e+00) (0, 0, 0.00000000000000000000e+00) (0, 0, 0.00000000000000000000e+00) (0, 0, 0.00000000000000000000e+00) (0, 0, 0.00000000000000000000e+00) (0, 0, 0.00000000000000000000e+00) (0, 0, 0.00000000000000000000e+00) (0, 0, 0.00000000000000000000e+00) (0, 0, 0.00000000000000000000e+00) (0, 0, 0.00000000000000000000e+00) (0, 0, 0.00000000000000000000e+00) (0, 0, 0.00000000000000000000e+00) (0, 0, 0.00000000000000000000e+00) (0, 0, 0.00000000000000000000e+00) (0, 0, 0.00000000000000000000e+00) (0, 0, 0.00000000000000000000e+00) (0, 0, 0.00000000000000000000e+00) (0, 0, 0.00000000000000000000e+00) (0, 0, 0.00000000000000000000e+00) (0, 0, 0.00000000000000000000e+00) (0, 0, 0.00000000000000000000e+00) (0, 0, 0.00000000000000000000e+00) (0, 0, 0.00000000000000000000e+00) (0, 0, 0.00000000000000000000e+00) (0, 0, 0.00000000000000000000e+00) (0, 0, 0.00000000000000000000e+00) (0, 0, 0.00000000000000000000e+00) (0, 0, 0.00000000000000000000e+00) (0, 0, 0.00000000000000000000e+00) (0, 0, 0.00000000000000000000e+00) (0, 0, 0.00000000000000000000e+00) (0, 0, 0.00000000000000000000e+00) (0, 0, 0.00000000000000000000e+00) (553, 3, 5.00000000000000000000e-01) (553, 3, 5.00000000000000000000e-01) (553, 3, 5.00000000000000000000e-01) (553, 3, 5.00000000000000000000e-01) (553, 3, 5.00000000000000000000e-01) (553, 3, 5.00000000000000000000e-01) (553, 3, 5.00000000000000000000e-01) (553, 3, 5.00000000000000000000e-01) (553, 3, 5.00000000000000000000e-01) (553, 3, 5.00000000000000000000e-01) (553, 3, 5.00000000000000000000e-01) (553, 3, 5.00000000000000000000e-01) (553, 3, 5.00000000000000000000e-01) (553, 3, 5.00000000000000000000e-01) (553, 3, 5.00000000000000000000e-01) (553, 3, 5.00000000000000000000e-01) (553, 3, 5.00000000000000000000e-01) (553, 3, 5.00000000000000000000e-01) (553, 3, 5.00000000000000000000e-01) (553, 3, 5.00000000000000000000e-01) (553, 3, 5.00000000000000000000e-01) (553, 3, 5.00000000000000000000e-01) (553, 3, 5.00000000000000000000e-01) (553, 3, 5.00000000000000000000e-01) (553, 3, 5.00000000000000000000e-01) (553, 3, 5.00000000000000000000e-01) (553, 3, 5.00000000000000000000e-01) (553, 3, 5.00000000000000000000e-01) (553, 3, 5.00000000000000000000e-01) (553, 3, 5.00000000000000000000e-01) (553, 3, 5.00000000000000000000e-01) (553, 3, 5.00000000000000000000e-01) (553, 3, 5.00000000000000000000e-01) (553, 3, 5.00000000000000000000e-01) (553, 3, 5.00000000000000000000e-01) (553, 3, 5.00000000000000000000e-01) (553, 3, 5.00000000000000000000e-01) (553, 3, 5.00000000000000000000e-01) (553, 3, 5.00000000000000000000e-01) (553, 3, 5.00000000000000000000e-01) (553, 3, 5.00000000000000000000e-01) (553, 3, 5.00000000000000000000e-01) (553, 3, 5.00000000000000000000e-01) (553, 3, 5.00000000000000000000e-01) (553, 3, 5.00000000000000000000e-01) (553, 3, 5.00000000000000000000e-01) (553, 3, 5.00000000000000000000e-01) (553, 3, 5.00000000000000000000e-01) (553, 3, 5.00000000000000000000e-01) (553, 3, 5.00000000000000000000e-01) (553, 3, 5.00000000000000000000e-01) (553, 3, 5.00000000000000000000e-01) (553, 3, 5.00000000000000000000e-01) (553, 3, 5.00000000000000000000e-01) (553, 3, 5.00000000000000000000e-01) (553, 3, 5.00000000000000000000e-01) (553, 3, 5.00000000000000000000e-01) (553, 3, 5.00000000000000000000e-01) (553, 3, 5.00000000000000000000e-01) (553, 3, 5.00000000000000000000e-01) (553, 3, 5.00000000000000000000e-01) (553, 3, 5.00000000000000000000e-01) (553, 3, 5.00000000000000000000e-01) (553, 3, 5.00000000000000000000e-01) (553, 3, 5.00000000000000000000e-01) (553, 3, 5.00000000000000000000e-01) (553, 3, 5.00000000000000000000e-01) (553, 3, 5.00000000000000000000e-01) (553, 3, 5.00000000000000000000e-01) (553, 3, 5.00000000000000000000e-01) (553, 3, 5.00000000000000000000e-01) (553, 3, 5.00000000000000000000e-01) (553, 3, 5.00000000000000000000e-01) (553, 3, 5.00000000000000000000e-01) (553, 3, 5.00000000000000000000e-01) (553, 3, 5.00000000000000000000e-01) (553, 3, 5.00000000000000000000e-01) (553, 3, 5.00000000000000000000e-01) (553, 3, 5.00000000000000000000e-01) (553, 3, 5.00000000000000000000e-01) (553, 3, 5.00000000000000000000e-01) (553, 3, 5.00000000000000000000e-01) (553, 3, 5.00000000000000000000e-01) (553, 3, 5.00000000000000000000e-01) (553, 3, 5.00000000000000000000e-01) (553, 3, 5.00000000000000000000e-01) (553, 3, 5.00000000000000000000e-01) (553, 3, 5.00000000000000000000e-01) (553, 3, 5.00000000000000000000e-01) (553, 3, 5.00000000000000000000e-01) (553, 3, 5.00000000000000000000e-01) (553, 3, 5.00000000000000000000e-01) (553, 3, 5.00000000000000000000e-01) (553, 3, 5.00000000000000000000e-01) (553, 3, 5.00000000000000000000e-01) (553, 3, 5.00000000000000000000e-01) (553, 3, 5.00000000000000000000e-01) (553, 3, 5.00000000000000000000e-01) (553, 3, 5.00000000000000000000e-01) (553, 3, 5.00000000000000000000e-01) (553, 3, 5.00000000000000000000e-01) (553, 3, 5.00000000000000000000e-01) (553, 3, 5.00000000000000000000e-01) (553, 3, 5.00000000000000000000e-01) (553, 3, 5.00000000000000000000e-01) (553, 3, 5.00000000000000000000e-01) (553, 3, 5.00000000000000000000e-01) (553, 3, 5.00000000000000000000e-01) (553, 3, 5.00000000000000000000e-01) (553, 3, 5.00000000000000000000e-01) (553, 3, 5.00000000000000000000e-01) (553, 3, 5.00000000000000000000e-01) (553, 3, 5.00000000000000000000e-01) (553, 3, 5.00000000000000000000e-01) (553, 3, 5.00000000000000000000e-01) (553, 3, 5.00000000000000000000e-01) (553, 3, 5.00000000000000000000e-01) (553, 3, 5.00000000000000000000e-01) (553, 3, 5.00000000000000000000e-01) (553, 3, 5.00000000000000000000e-01) (553, 3, 5.00000000000000000000e-01) (553, 3, 5.00000000000000000000e-01) (553, 3, 5.00000000000000000000e-01) (553, 3, 5.00000000000000000000e-01) (553, 3, 5.00000000000000000000e-01) (553, 3, 5.00000000000000000000e-01) (553, 3, 5.00000000000000000000e-01) (553, 3, 5.00000000000000000000e-01) (553, 3, 5.00000000000000000000e-01) (553, 3, 5.00000000000000000000e-01) (553, 3, 5.00000000000000000000e-01) (553, 3, 5.00000000000000000000e-01) (553, 3, 5.00000000000000000000e-01) (553, 3, 5.00000000000000000000e-01) (553, 3, 5.00000000000000000000e-01) (553, 3, 5.00000000000000000000e-01) (553, 3, 5.00000000000000000000e-01) (553, 3, 5.00000000000000000000e-01) (553, 3, 5.00000000000000000000e-01) (553, 3, 5.00000000000000000000e-01) (0, 3, 0.00000000000000000000e+00) (141, 3, 5.00000000000000000000e-01) (141, 3, 5.00000000000000000000e-01) (141, 3, 5.00000000000000000000e-01) (0, 3, 0.00000000000000000000e+00) 
connections (connected_to_neuron, weight)=(0, -1.98473744109509894762e-02) (1, -4.04744539595815328026e-02) (2, 6.50993282120379546107e-02) (3, 1.07271356574445336785e-01) (4, 6.33320574890330750817e-02) (5, 1.19296544930585973754e-01) (6, 1.04653686813838381342e-01) (7, 7.94757735337101034467e-02) (8, 8.99777392530405617510e-02) (9, 2.10645261152747342859e-02) (10, -5.21167935599627374366e-02) (11, 8.64678602061495632514e-02) (12, -8.88780858174909593750e-02) (13, 3.02673537338567708033e-02) (14, -2.31412395776325408372e-03) (15, -1.46610191698977980479e-02) (16, -1.99439777592016788399e-02) (17, 4.17519890415389421934e-02) (18, -7.02833186936034776116e-02) (19, -1.19094166028973005855e-01) (20, -2.06074248393651099365e-01) (21, 4.83130499077166902788e-02) (22, -8.29066168270073405736e-05) (23, 1.01785152976066259334e-02) (24, -3.09417823044351933404e-02) (25, -1.93760719769469416662e-02) (26, 4.96740810938642168848e-02) (27, -2.08293228920838902063e-02) (28, 7.57805396977878492626e-02) (29, 1.76627365846114929571e-02) (30, -1.32828639629856137816e-02) (31, -8.77411699662804106525e-02) (32, 7.11565133977481723004e-02) (33, -9.31061935155031022981e-02) (34, 6.63449091386128925185e-02) (35, 1.71166613406265877284e-02) (36, -1.08319637584508632333e-01) (37, 3.81588201428206680310e-02) (38, -1.30954048353295968848e-02) (39, -4.31799473561894076035e-02) (40, 1.73544208804053169681e-02) (41, 6.06106738212545542721e-02) (42, 8.82998447616618747924e-02) (43, 5.52779180383614499733e-03) (44, -1.29501478334605540921e-01) (45, -8.39016726098033155390e-02) (46, 1.06396521054121007133e-01) (47, 2.87703750832035559659e-02) (48, 4.22363633402693325336e-02) (49, -9.73315097046650312684e-02) (50, 1.08787210890176830325e-01) (51, -7.03250863961896455212e-02) (52, -9.13650576532012703712e-02) (53, -5.70442986179655261991e-02) (54, 6.72396972618745231154e-02) (55, -6.66366892688060735717e-02) (56, 4.09905770471706565328e-02) (57, -1.12550139695704112808e-02) (58, 2.46772572068680515200e-02) (59, -9.03157170584722134021e-03) (60, 7.48462676806794374729e-02) (61, -8.97222201429425797459e-02) (62, -2.28884984514986337956e-02) (63, 2.62654355377771597801e-02) (64, -7.99989143028217719600e-02) (65, -1.58041912956222684039e-02) (66, -5.52767118273285243402e-02) (67, -5.12951252334629612117e-02) (68, -1.67658241944679320401e-01) (69, -3.66811197128943597412e-02) (70, -4.99433756710816398328e-03) (71, 4.75501391998952964435e-04) (72, -1.76748644368752635958e-02) (73, -5.81739248203508377277e-02) (74, -2.18693552787432264617e-02) (75, 9.70067910157784291103e-02) (76, 1.24968139623697141460e-02) (77, -6.86198141578709536192e-02) (78, 3.78073261172877511660e-02) (79, 1.40409033746055015440e-02) (80, -4.22730515398675385508e-02) (81, -1.29573148388921022094e-03) (82, -1.45905993860448949390e-02) (83, -9.00608855394292445729e-02) (84, 4.95646874427871572677e-02) (85, -2.63486592220162595124e-02) (86, -5.18294863895102375650e-03) (87, -4.46857166142128770653e-03) (88, 7.87019353968164553370e-02) (89, -9.09268478216799375113e-02) (90, 7.35539920188609114282e-02) (91, 5.94179861640290116198e-02) (92, -1.92066468643919102677e-01) (93, -1.26220235839873934358e-01) (94, 1.48048017082034934905e-02) (95, -7.61344823967009115551e-02) (96, 6.51730863796718459108e-03) (97, 2.60853492135922904183e-02) (98, -3.06085504701872519739e-03) (99, 4.49055688754980489308e-02) (100, -3.67161309393848056537e-02) (101, 6.45695514708769513490e-02) (102, -2.23632827784854826270e-02) (103, -3.50083023255983068200e-03) (104, -6.94850528975648890073e-02) (105, 4.58461077012853185364e-02) (106, 9.32670890434592926577e-03) (107, 3.22317407066724792575e-02) (108, 9.01200349902813308001e-02) (109, -4.52280085862418190779e-02) (110, -8.04515691181762193640e-02) (111, 7.32755645440416464309e-02) (112, 4.49892526967594699738e-02) (113, 7.62055331172673128259e-02) (114, -5.77959400380218396576e-02) (115, 2.34157025821321376768e-02) (116, -1.80214470403638915563e-01) (117, -9.85623521045781852967e-02) (118, 1.02671883404941738371e-01) (119, -1.17178913876359022672e-01) (120, -5.98708883103888853117e-03) (121, 2.34303192039744360986e-02) (122, 1.16619383381864529653e-02) (123, -4.74935845169127401899e-02) (124, 1.14611137186198613902e-01) (125, -8.58718335599876897435e-02) (126, 1.66708087114594769029e-02) (127, -1.79595122673630765153e-02) (128, 7.22735879274899184477e-02) (129, -6.63400219735984925107e-02) (130, -6.83515182830333328790e-02) (131, -1.02771641709679742438e-01) (132, -8.01406293370177658097e-02) (133, 3.75263910348069065770e-02) (134, 4.70863818483757273770e-02) (135, -6.26042886419225924621e-02) (136, -2.77575806666363264497e-02) (137, -2.98661699244935179010e-02) (138, 7.69485426652119636204e-02) (139, -8.44250106006774747591e-02) (140, -8.84689332407938844316e-02) (141, -2.31352009201688316176e-03) (142, -5.47173801787304500688e-02) (143, -8.92733068116910444267e-02) (144, -9.24016061002239791344e-03) (145, -9.01447379349774452484e-02) (146, 1.92169650666136927752e-02) (147, 7.19494215438093998038e-02) (148, 3.97079656388901539033e-02) (149, -2.27679154659190044474e-02) (150, 8.20192229911212988824e-02) (151, -1.14209951279532137547e-01) (152, -9.80108806214665950751e-02) (153, 4.80657487724333587487e-02) (154, -2.14702886384926273922e-02) (155, 8.92918330612562372028e-02) (156, 8.41069403259786102511e-02) (157, -7.04983624324795749017e-02) (158, 2.15663148370371648976e-02) (159, 1.88325455204959753275e-02) (160, -6.27502039001683661196e-04) (161, 4.70750436791034301831e-02) (162, 4.60863379892390567782e-02) (163, -5.11826672754083205480e-03) (164, -1.19516881347947800940e-01) (165, -1.36881066335293760661e-01) (166, 8.42073213305626344649e-02) (167, 4.22214381064726501647e-02) (168, -2.62373958290124491277e-02) (169, -7.27303312167490445539e-03) (170, 5.68076251026976286607e-02) (171, -1.33337315252581578573e-01) (172, 1.78818945645565774427e-02) (173, 8.26904781004719757753e-02) (174, -7.46363309473646041603e-02) (175, -5.66247520771747045454e-02) (176, -7.36760295624121624991e-02) (177, 7.04325401233412834445e-02) (178, -8.47352374835648181062e-02) (179, 5.45976116044103176872e-02) (180, -2.27700139349549905698e-02) (181, -9.87289251934222872320e-02) (182, 1.18795188481617589038e-01) (183, -2.11501012419811826315e-02) (184, 4.88973442051037973655e-02) (185, -4.12085000897223288630e-02) (186, -9.05839393520044972030e-03) (187, 2.04867243992201512881e-02) (188, -1.13217963617354089312e-01) (189, -3.89578061111734777477e-02) (190, 1.80572909826318540698e-03) (191, 1.01102433071093372741e-01) (192, -3.16861975707558030102e-02) (193, -9.06019645475257540124e-02) (194, 4.87908252132718059380e-02) (195, -9.44161573483019017639e-02) (196, 2.65362780553970306618e-02) (197, -4.35997086179940665507e-02) (198, 1.88036324846427710389e-02) (199, -5.37846925085260288424e-02) (200, 6.68778099640496004330e-02) (201, 4.39098856086881164651e-02) (202, -6.90145371705477989055e-02) (203, -2.20521357705871084987e-02) (204, 3.37933224421404707072e-02) (205, -5.25354328284869942500e-02) (206, 9.69656191072357231953e-02) (207, 7.36934274776735592782e-02) (208, 1.40970061581061067990e-02) (209, 5.19529780269986779517e-02) (210, -2.12986785896584658595e-02) (211, 1.49004127581821941423e-02) (212, -8.29678949631286050126e-02) (213, -1.59474133778448684540e-01) (214, -5.18795755140121495064e-02) (215, 7.65945117940089875708e-02) (216, -3.76902510660108366891e-02) (217, -3.68590635865281707195e-02) (218, -6.75097448289995460957e-02) (219, -1.34288864235774102474e-01) (220, 1.11585428740631296268e-02) (221, -7.21860977511087475306e-03) (222, -1.48503921933300087055e-01) (223, -6.76239447697904033641e-02) (224, 2.85866843287795116546e-02) (225, 3.22086180769761906695e-02) (226, -4.36315782055047146626e-02) (227, -7.45451707431609017496e-02) (228, 9.61662967791959838459e-02) (229, -7.31050129328051773170e-02) (230, 6.37628361718360764376e-02) (231, 2.48814125042151647327e-02) (232, 7.24504891729488148533e-02) (233, 5.57691618434180760855e-02) (234, -4.38555704702281723417e-02) (235, 7.61254688123602033661e-03) (236, -2.31120467183097977326e-01) (237, -2.42943883381706166036e-01) (238, -4.74310232567890475985e-03) (239, 6.38694723319956914054e-02) (240, 7.46471281509542786831e-03) (241, 1.03955038042856922481e-02) (242, -2.12286417137742017269e-01) (243, -1.37456157790023410226e-02) (244, -5.77153341143959094928e-02) (245, -1.46165354338701952708e-01) (246, -1.08074683933775894662e-01) (247, 6.79827878904096655210e-02) (248, -5.01217040363435145656e-03) (249, 3.73530393264715487867e-02) (250, -1.15395022180945175383e-01) (251, -1.01340747642229375702e-01) (252, -3.25802665481876863041e-02) (253, -8.72219644233522967136e-02) (254, 3.00679452793741336381e-02) (255, -1.50020067624191205669e-01) (256, -1.58615326465909242670e-02) (257, 1.98521916241076075427e-02) (258, 9.16220956845498267322e-04) (259, 2.23099505967154282046e-03) (260, -1.22392306212781312724e-01) (261, -2.88079180336605067403e-01) (262, -1.18820096902311229253e-02) (263, 1.91892798799710162516e-01) (264, 1.59690646643888961576e-02) (265, -3.10651701179070309500e-02) (266, -2.01000372273228949949e-01) (267, -1.43082241109623638925e-02) (268, 9.91799204118858123216e-04) (269, -8.45271433664460530855e-02) (270, -7.28027568901002397617e-02) (271, -1.02946098564243027074e-02) (272, -8.81723060053173357531e-02) (273, 6.95168532747356821000e-02) (274, 9.33283036402491987527e-03) (275, -3.99344957309540711174e-04) (276, 9.07919314284644368707e-02) (277, 6.80258533605775511655e-02) (278, 4.70679995155426356135e-02) (279, -1.02413575609492435436e-01) (280, -4.16025352052905306177e-02) (281, 4.86911991620102013734e-02) (282, 4.46970497208696859737e-02) (283, 1.36049531846704180316e-01) (284, -1.80032498685543072836e-02) (285, -2.31754296346953880814e-01) (286, -4.53305453472323607866e-02) (287, -1.05052441358566284180e-03) (288, -1.57451615899567055890e-02) (289, 2.31429345683458395633e-02) (290, -1.57352824007647662530e-01) (291, -1.71855662022269012335e-02) (292, 2.50488778071529041847e-02) (293, -4.96611288954519336514e-02) (294, -9.35792216631226164703e-02) (295, -4.01884160987580132951e-02) (296, -1.27598259940145730695e-01) (297, 4.74158030122232704295e-03) (298, 8.12062867986752395799e-02) (299, 7.95464166919211679296e-03) (300, 7.68101757370559246052e-02) (301, -5.90736964051044449731e-02) (302, -7.57226027739133084049e-02) (303, 7.18369584428301538592e-03) (304, -3.00633151328995361709e-03) (305, -4.93915603557133001122e-02) (306, 4.01204815738888595500e-02) (307, 1.50703748670064294202e-02) (308, -2.31163588843839723497e-01) (309, -1.81606732066468518072e-01) (310, -3.50227682910929649651e-02) (311, 1.31455180132187821052e-01) (312, -1.41750986601448969449e-01) (313, -5.75577405530857677540e-02) (314, -1.95567944385449448905e-03) (315, 5.41452231211890927520e-02) (316, 2.89257455907285243590e-02) (317, 2.02649895824861848992e-02) (318, -6.25844215414145810250e-02) (319, 6.74887743440382922855e-03) (320, -1.32691285587687828051e-02) (321, -2.89128097444093096202e-02) (322, -1.03735090670818624892e-01) (323, -3.61421740016868928147e-02) (324, 9.94385755347375055457e-02) (325, -6.57251503399506747938e-02) (326, -1.00319007012098330989e-02) (327, 3.54114481760732582871e-02) (328, -3.43362988069539354363e-02) (329, 6.08008039108875186773e-02) (330, -5.52741835890776297274e-03) (331, 6.80100321339437152712e-02) (332, 8.33872239706625814626e-03) (333, -1.04596369851992804234e-01) (334, 4.20043503195305506503e-02) (335, 6.27774619552769891362e-02) (336, 6.54973559453918881962e-03) (337, -5.31685446474704503927e-02) (338, 1.07588728089885121708e-01) (339, -3.26625807238735132998e-02) (340, 8.00556714698914539952e-02) (341, -1.53012046669046743869e-02) (342, 5.27514114071114328941e-02) (343, 7.67674337270172896242e-02) (344, -7.18684044164906304930e-02) (345, -3.31895354586294417595e-03) (346, 5.22491378452598700943e-02) (347, 2.89494853661304285541e-02) (348, -1.86176322325408340891e-03) (349, -6.11964068209463057935e-02) (350, -9.09553361551239739069e-03) (351, 7.41089572519700312547e-02) (352, 6.94282764555684828167e-02) (353, -1.38167348996871344746e-02) (354, 1.25174654445492136018e-02) (355, -2.37689233804020960683e-02) (356, -1.21004300750995177904e-01) (357, -6.48375815618082024239e-02) (358, -5.27576890458746963763e-02) (359, 1.04076476552398308750e-01) (360, -6.41182076079238466582e-02) (361, 2.11103223870320287625e-02) (362, 1.15998986767892678373e-01) (363, 5.68135641585575633383e-03) (364, -4.90197669010135339551e-03) (365, 7.92484469754888010140e-02) (366, -7.66970412330672673962e-02) (367, -6.44527745529800688562e-02) (368, 3.82651353924642334547e-02) (369, 8.56844175623000942066e-02) (370, -7.22344003061110573327e-02) (371, -2.27987468345793586888e-02) (372, 2.15544837091041739663e-02) (373, -5.26956199136661071480e-02) (374, 3.57683698074214156959e-02) (375, 3.98192331848204530975e-02) (376, 6.25822507711277370435e-02) (377, -7.97172975454146920393e-02) (378, 2.12159078474149056029e-03) (379, -9.96873013782375305691e-02) (380, -1.84474614536704412115e-01) (381, -4.78840886933554824023e-02) (382, 1.20068157637606739985e-01) (383, 6.12145612605987654575e-02) (384, -1.11078594844892769578e-01) (385, -9.15479941989688628112e-03) (386, 1.64091169463548812446e-02) (387, 5.18122500350532630420e-02) (388, -7.46515122664979519085e-02) (389, 4.37333936393116684549e-02) (390, 5.24809753667324283000e-02) (391, -3.38618473254993293531e-02) (392, 1.64114763243502388701e-02) (393, -3.83392743883268979910e-02) (394, -1.39327353168088086122e-01) (395, 6.07468462193252456416e-02) (396, -6.42370877172180054782e-02) (397, -6.14299062191821163004e-02) (398, 1.37649858362228455499e-01) (399, 5.76211750501670269542e-02) (400, -9.78785794149132498676e-02) (401, -2.08187341790685882803e-02) (402, 1.20164360942230805107e-01) (403, -1.40563098744622676922e-02) (404, -1.21149422794785577295e-01) (405, -1.27249969280825270257e-01) (406, -4.55600932451193582629e-02) (407, -2.91051743262038219162e-02) (408, -7.27785317594241143446e-02) (409, 3.69587184271311141107e-03) (410, -2.49441263732512845397e-02) (411, 9.01526937639669963265e-03) (412, -4.00519773904985040835e-02) (413, -5.86473762944253115825e-03) (414, 3.37752629675693513689e-02) (415, -6.81517971482704792985e-02) (416, 9.58504080443912664933e-02) (417, 4.30345958225332725355e-02) (418, 3.50347816238790119026e-02) (419, 9.27243613889402601425e-02) (420, -1.30190767685477055970e-02) (421, 1.29987673702524411667e-02) (422, 4.72841545150755326876e-02) (423, 6.00662713443310541939e-02) (424, 7.59965913573551060667e-02) (425, 8.75209045676493546662e-03) (426, 9.18009807947997059918e-03) (427, -1.06021544375407061889e-01) (428, -1.04138814516205976957e-01) (429, -6.41772823701207278946e-02) (430, 6.54332708772570742495e-02) (431, 2.67554130203295423285e-02) (432, 3.67934073788631077484e-02) (433, 2.72156986601688639926e-02) (434, -6.86709611463737212844e-02) (435, -1.09693566775487510306e-02) (436, 9.12050346206919049230e-02) (437, 2.16920784535400536577e-03) (438, 9.64992947176515347696e-02) (439, -9.49232058597545697021e-02) (440, -5.28183035094921607411e-02) (441, -3.77463534683578696982e-02) (442, 2.54132109153844716609e-02) (443, 1.89555293681514837323e-02) (444, 7.94596727598647495361e-02) (445, -3.16441931874596044105e-02) (446, 9.35682385547489947619e-02) (447, 2.55718195405273303333e-02) (448, 4.99301667146281602516e-02) (449, 3.82728640149420165639e-02) (450, 3.11064859131943462212e-02) (451, -4.03284400816029051096e-02) (452, -1.98333592042693407365e-01) (453, -1.41159706272716067854e-01) (454, -3.27924912434403997841e-02) (455, 5.90691640659403160996e-02) (456, 2.83765208517485541945e-03) (457, 2.39534607134730855027e-02) (458, -1.28090098418435827110e-01) (459, -4.89952717812297891542e-02) (460, -5.18136535552080682021e-02) (461, 1.12948203754328208026e-01) (462, 1.04200723984638782271e-01) (463, -1.54478920231832905774e-01) (464, 6.33928189737802544323e-02) (465, -5.08510736309924146759e-02) (466, 1.53127179230834239293e-02) (467, 3.22758898532786372981e-02) (468, 5.42632999805486015976e-02) (469, 4.89085662919684985295e-02) (470, 5.04624021517330878517e-02) (471, 1.89359471437083766443e-02) (472, 3.13507670289543335929e-02) (473, -2.59478027862052474523e-03) (474, -3.13873201166748189150e-02) (475, 5.39284328617102640124e-02) (476, -1.35407075835513951434e-01) (477, 5.33363017268507211277e-02) (478, -1.66076186032181292995e-02) (479, -5.03498769539757196068e-02) (480, 4.59648795319534744785e-02) (481, 3.93974838959624956702e-02) (482, 3.41134507183738985847e-02) (483, 2.76495191572337893626e-02) (484, 8.38132450636833864488e-02) (485, -9.49831998801127508347e-02) (486, 3.31909297524019611392e-02) (487, -4.49447857598960776038e-02) (488, 7.46284246772448700558e-02) (489, 5.99350135635540390289e-02) (490, 1.50578682195257867321e-02) (491, 1.10554709585232349700e-01) (492, 2.94564447873319271154e-02) (493, 7.44256898930063803821e-03) (494, 9.91046715829508456652e-02) (495, -4.49798051164944645564e-02) (496, -1.76377530028603811407e-02) (497, 8.17163503769076718375e-03) (498, 7.39854303003725094490e-02) (499, -2.92277614902977517231e-02) (500, -3.22882019780677889664e-02) (501, -2.60267339669162621474e-02) (502, 1.25887430811826878108e-01) (503, 6.86917910912790939670e-03) (504, 7.01873798480268373812e-02) (505, -6.77551376422033946323e-02) (506, -7.70285368441647605442e-02) (507, -5.41400650183737827681e-02) (508, -8.08449862093983812050e-02) (509, 5.59503604864454266721e-03) (510, 6.71889028858819598033e-02) (511, 3.30967677174979629795e-02) (512, 1.78087085933901004275e-02) (513, 5.27317477557215294470e-02) (514, -5.01836174245016211626e-02) (515, -2.89082554032045989378e-02) (516, 5.64795045041319582202e-02) (517, 9.78664832485991315059e-02) (518, 3.90472997308175737152e-02) (519, -3.55523062956070445839e-02) (520, -2.18171033822655742462e-02) (521, -1.71098670306540738550e-02) (522, 1.66677709408928481638e-02) (523, -5.44730943913380102894e-02) (524, -5.41256793645913530932e-02) (525, -6.09787080728094940674e-02) (526, 2.22070378943398823168e-02) (527, -1.29286806463265735445e-01) (528, 7.88278197041800132716e-02) (529, -4.12353973799828715796e-02) (530, -5.64884593387935188269e-02) (531, 4.43522062095979274776e-02) (532, 5.76187750666812756317e-02) (533, -3.61926230307961296906e-02) (534, 4.09305207808608600972e-02) (535, 5.27851978666993015832e-02) (536, -3.53344931538513177746e-03) (537, 7.68570304161887568606e-02) (538, -9.33604981498076247348e-02) (539, -1.76300208561502025351e-02) (540, 8.25504126573662136424e-03) (541, 8.33428143223817613494e-02) (542, 9.27162407583998621208e-02) (543, -8.98221187427612616228e-02) (544, -2.60321472478166615616e-02) (545, -7.28642400982697086009e-02) (546, -3.60203029580286535061e-02) (547, -3.11956640093512121981e-02) (548, -1.70075581336568554258e-01) (549, 6.06372451543324766932e-02) (550, 1.14260483215018429637e-01) (551, -4.14854115400742906594e-02) (552, -8.50672395040926038190e-02) (0, -2.92081698218854268756e-02) (1, 3.47121574740508823109e-02) (2, -2.68532734998256396308e-02) (3, 1.81075749892812033759e-02) (4, -7.04458500680066601607e-02) (5, 1.51437731442745415755e-01) (6, -1.07884031871988181339e-01) (7, -2.56611531952065548279e-02) (8, -1.49492116579023281986e-01) (9, -1.76286252704716123185e-01) (10, 1.10619945649773274154e-01) (11, -7.64584799390039815403e-02) (12, 2.83584686324086163167e-02) (13, 6.60306185707286857900e-02) (14, 4.33640596533875904983e-02) (15, 4.42973960067819944042e-02) (16, 1.31621725389677673990e-01) (17, 1.57987804152279948111e-01) (18, 1.12051688630241744193e-02) (19, -3.72669547309266921409e-02) (20, 8.46518732801211093442e-02) (21, -4.57076059054105365842e-02) (22, -1.28947730757098255605e-01) (23, -2.91520216977957491444e-01) (24, -1.07425306889008975730e-01) (25, -3.71582489691364096368e-03) (26, -2.29419929835595226564e-01) (27, -5.92952185442583712405e-02) (28, -9.07424223370311561210e-02) (29, 1.09216304937610142467e-01) (30, -1.63595816380463637829e-01) (31, 4.81731701764913852748e-02) (32, -7.24512766341244007773e-02) (33, -6.90343922920750308059e-02) (34, 2.07665614359027278502e-01) (35, 5.67074488030912260417e-03) (36, 1.60331743686435518326e-01) (37, -1.18242381042177227557e-01) (38, 6.11039498958459437183e-02) (39, 6.24522251986761450793e-02) (40, -3.13315332418837022566e-02) (41, 1.29340493215640339741e-01) (42, 1.44951942391513249192e-02) (43, -1.49756568856974026094e-01) (44, 4.95968603692175658004e-02) (45, 3.78741390840720906774e-02) (46, -9.64304488731625164544e-03) (47, -2.76325337658049063894e-01) (48, 1.01167104848539107786e-01) (49, 5.41202879781992537978e-02) (50, -1.66215698137657436062e-01) (51, -2.76611317537087987584e-02) (52, -1.21434141475016077472e-01) (53, -3.90104669711735518867e-02) (54, -1.15216876437744905615e-01) (55, 5.20601973613152649301e-02) (56, -1.22871948890155360812e-01) (57, 7.84153142711161571521e-02) (58, 9.89419173678484781265e-02) (59, -3.73805546015384126957e-02) (60, 5.13104326197882099070e-02) (61, 3.60791349139877523533e-02) (62, 5.85825578301439608975e-02) (63, -7.72615789059155344543e-02) (64, 1.12454186707208782237e-02) (65, 1.21446794629060245141e-01) (66, 7.44034584490153444447e-02) (67, 2.18167043631912367652e-02) (68, -5.80838569604252841216e-02) (69, -2.03425763470903436803e-02) (70, -4.88993893467696977284e-02) (71, -2.09855708969918342000e-01) (72, 1.09794687914621519331e-01) (73, 7.15590851437529484880e-02) (74, -1.10634843163726070969e-01) (75, -8.38219297677161995219e-02) (76, 6.29263689693284195004e-02) (77, -1.38475247138437757011e-01) (78, -8.01722976370808776414e-02) (79, -6.90807659267135831804e-02) (80, 1.34518579913763786093e-01) (81, 3.93772156539547307785e-02) (82, 1.00726861273210621661e-01) (83, -4.68174631403024052445e-02) (84, 7.78764354992988599991e-02) (85, 1.57042605009901914404e-01) (86, 6.81352590889858084067e-02) (87, 6.98847524235462758124e-02) (88, 8.31097881765494594930e-02) (89, 8.72918970008528111171e-02) (90, -6.23229307717858907467e-02) (91, -1.01849704695780710062e-01) (92, -1.49217892315198719100e-01) (93, 1.92308546278293426846e-02) (94, -5.87152246715634401619e-02) (95, -1.44956138659154604165e-01) (96, 3.60322109220913427974e-02) (97, -1.90391954754089071100e-01) (98, -3.51624214986199917776e-02) (99, 6.49820279021118690777e-02) (100, 7.71438626672024813091e-02) (101, 5.32586364996362818247e-02) (102, -9.19119226295346952726e-02) (103, 2.64724525197927579301e-02) (104, -4.44603324455779061464e-02) (105, -1.00457653776788211064e-01) (106, 1.56884340812569827994e-01) (107, 9.98858283829670012821e-02) (108, 9.76936180186864372432e-02) (109, -4.50211705771871445458e-02) (110, 6.92197171828140989797e-04) (111, 4.27857805444112823667e-02) (112, -2.76083362928915936052e-02) (113, -8.10322793690042703085e-02) (114, 2.47728278542638583049e-02) (115, 7.28485234953019089588e-02) (116, -7.69768131015325235422e-02) (117, -6.15541278246365536342e-02) (118, 7.64598713575947801745e-04) (119, -2.08983964178424935776e-01) (120, -9.27797372170299922134e-02) (121, -1.84634491785326149138e-01) (122, -4.75333796091696042518e-02) (123, -2.96761175050496532613e-02) (124, 1.80252971373859975646e-02) (125, -1.14410120154735620718e-02) (126, -3.93809021054956631680e-02) (127, -4.47121213439012066271e-02) (128, -1.49520014677065493647e-01) (129, -6.68529770993124550227e-02) (130, 3.30173061978836154817e-02) (131, -2.59119313802991968476e-01) (132, 2.61900327795901687045e-02) (133, 1.70321467112225927165e-02) (134, 2.57657953006964646203e-01) (135, -1.03155485554800419035e-01) (136, -1.21299911366759775172e-02) (137, 1.89476428384526191830e-03) (138, 3.97865994098832928549e-02) (139, 6.99639867506190449298e-02) (140, 3.75528856109179909328e-02) (141, -6.79168082617083029850e-02) (142, -2.62877025790393369087e-02) (143, -2.00958621747261728663e-01) (144, -8.24551608485805942461e-02) (145, -2.71026922434837780340e-01) (146, -1.44390749189863137891e-01) (147, -1.39819902639183035742e-01) (148, 7.05026884030227757316e-03) (149, 2.86946078660152079087e-02) (150, -1.58792651874838874893e-01) (151, 4.48606819317795210700e-02) (152, -1.34610834031144627199e-01) (153, 1.36063641981515881518e-01) (154, 1.71153740904782858401e-01) (155, -1.89571881050028367977e-01) (156, 1.24562739408713915590e-01) (157, 3.57919449925240620858e-02) (158, 2.84616962759538308370e-02) (159, -3.62747156690024497028e-02) (160, 1.39463331756205455303e-01) (161, -7.42320646138349415910e-02) (162, -2.26377048650354045778e-01) (163, 1.00737041674340860320e-01) (164, -4.56465946074337131089e-02) (165, -1.28562354543383466909e-01) (166, 2.89893372301663378166e-02) (167, -1.59454524343143361209e-01) (168, 2.22864767376004857535e-01) (169, 1.01387093017046320265e-01) (170, -1.04412871790288547258e-01) (171, 6.07248804292004600719e-03) (172, 6.05624875784616621688e-03) (173, 1.62786685593368340985e-01) (174, -1.68188889156678456072e-01) (175, -9.29768670198417163109e-02) (176, 2.02060508024043080678e-04) (177, -1.81190183149069275470e-02) (178, -6.01897972539464157227e-02) (179, 1.44700265345200501654e-01) (180, 4.47161891993420740343e-02) (181, -5.67081024178599027441e-02) (182, 4.43774187521604954187e-02) (183, -7.76413684997345754368e-03) (184, 8.40133599930044799864e-02) (185, -9.82088481012012987081e-02) (186, -2.96603505080787477333e-02) (187, -7.40788885026797457728e-03) (188, -3.12585689197688865182e-01) (189, -6.64871859549533011924e-02) (190, -3.44623381374344270323e-02) (191, -2.39856647997141125828e-01) (192, 1.41422479696046210496e-01) (193, 1.88605632518887046667e-02) (194, -2.87861477995622720705e-02) (195, 1.46100792508402244074e-01) (196, -9.30634354058163248968e-02) (197, 9.09145051324904140966e-02) (198, -4.09675686176811035266e-02) (199, -1.92751063359985097545e-01) (200, 5.82700848244736696602e-02) (201, 4.09514442859620492188e-02) (202, -8.03720066822641576731e-02) (203, -5.48719993034972736146e-02) (204, -2.11932525921494779864e-02) (205, 3.96405334098840836377e-02) (206, 1.54918571097264756720e-01) (207, -9.98919470269031897769e-03) (208, -4.89882125764841414028e-02) (209, 1.06901227204929227810e-01) (210, 3.85244820071517085625e-02) (211, 2.01086035396808616993e-02) (212, -2.38887993576989449140e-01) (213, -1.22658039188417458676e-01) (214, 7.14681111779950778429e-02) (215, -1.00057188077515804570e-01) (216, 3.91420333814018195362e-01) (217, -1.12774751312309864937e-01) (218, -4.10993995031448455801e-01) (219, -1.99172002089983424256e-02) (220, 4.92441685572003670646e-02) (221, -9.76444194090904035721e-03) (222, 1.99751301465528885437e-01) (223, -2.04858611956702713064e-01) (224, -9.08444749863751843666e-02) (225, -1.56097138922014679746e-02) (226, -1.30828105873870614850e-01) (227, -2.16759269108437152562e-01) (228, 7.68796726997357793287e-02) (229, -7.05789124701238224091e-02) (230, 4.05038309995521053630e-02) (231, -8.83051130332943023937e-02) (232, -3.57997161395047891475e-01) (233, 2.13168066299311037559e-01) (234, -6.91397225766040013362e-02) (235, -4.15480539826613634591e-02) (236, -8.67422934255104166601e-02) (237, -2.96497446452922523707e-02) (238, -7.88904622816895099990e-03) (239, -1.07604005887016490606e-01) (240, 1.71217325954508919894e-01) (241, -1.69629041005401853814e-01) (242, -2.05404804374320570926e-01) (243, 7.29709633757373438145e-02) (244, -1.96318403664876642289e-02) (245, 2.80537831414218521986e-02) (246, 2.11722537819998835040e-01) (247, -4.66253772263798937914e-01) (248, -1.11793447430811473953e-01) (249, 5.26671570061527649642e-02) (250, 4.32297537753401489580e-02) (251, 3.29358097449188591543e-02) (252, 7.63857852068282883184e-02) (253, -6.46779026046071930933e-02) (254, -3.57916356747438380026e-01) (255, -1.55440154799437096900e-01) (256, -1.34135213377454265427e-01) (257, 9.94672969314127769502e-02) (258, -1.28909072751272890667e-01) (259, 1.45971472911143901330e-01) (260, -1.22252188619549284621e-01) (261, -2.33027190432528383268e-02) (262, 3.56374563280838982382e-02) (263, -9.12042572592788175490e-02) (264, 1.25637549257899688859e-01) (265, 3.17912631660676126000e-01) (266, -2.11990573723534525552e-01) (267, -1.91217051005320659574e-01) (268, -7.73808917670668894306e-02) (269, 6.00707289723567336437e-03) (270, 3.61248006038825064667e-01) (271, -5.69242044220095944063e-01) (272, -1.08864759557461054928e-01) (273, 8.13488739626592599619e-02) (274, 1.83062538812812813926e-01) (275, 2.88208233312530592851e-01) (276, 7.24312885999968542050e-02) (277, -1.82179818155297157389e-01) (278, -3.92489339488311606008e-01) (279, -3.93565645432707333917e-01) (280, -1.98867063516549230640e-01) (281, -1.50706435406719949088e-02) (282, -1.10283291492546051127e-01) (283, -7.72878155295499136290e-02) (284, -2.13893976509299643674e-01) (285, -1.12224384212826613916e-01) (286, 7.41545961160123279221e-02) (287, -4.87496964633464813232e-02) (288, 3.99642007559042666820e-01) (289, 1.25724622076862302400e-01) (290, 8.24463814768399971822e-02) (291, -1.97997233615069101464e-01) (292, 7.80171685945513782023e-02) (293, -3.20771265686525253180e-02) (294, -7.66450176324599136146e-02) (295, -3.86234077362542449485e-01) (296, 1.12187562836467635830e-01) (297, -7.86979393122635983993e-02) (298, 1.74433376415669666448e-01) (299, 1.16668635970932563217e-02) (300, 9.07479976000837018635e-02) (301, -4.92321867237510268217e-03) (302, -2.74729067309226804294e-01) (303, 6.81096321045732838728e-02) (304, -2.26216598691489877149e-02) (305, -6.59116880717050112465e-03) (306, -6.19056012729004012662e-02) (307, -1.49331887108841543377e-01) (308, -5.12482528957318494989e-01) (309, -2.06303927145459975456e-01) (310, 2.11445689016620280709e-01) (311, -9.39832208877076774600e-02) (312, 2.11845625570966672457e-01) (313, -1.61999644163100392502e-02) (314, 2.38441965631731145336e-01) (315, -9.77070877983251956378e-02) (316, 6.05887114584933092476e-02) (317, 2.13048021144756238865e-01) (318, -6.93798768794155196193e-02) (319, 1.94838217519255313404e-01) (320, 1.12189612004532798806e-01) (321, -3.29074599518974664214e-01) (322, 8.66933842173548685484e-02) (323, 6.09588343020265113759e-02) (324, -1.20815419484661318306e-01) (325, -5.52751581742121009255e-02) (326, -3.12211574434372085562e-01) (327, -1.82220138759069810730e-01) (328, -3.12983277472718091072e-01) (329, -1.83851982082155369913e-02) (330, 2.76972004249389780473e-02) (331, -2.29398326783266243156e-01) (332, -3.26688301759468988084e-02) (333, 2.88115113141922188356e-02) (334, 7.24429860339526887625e-02) (335, -1.40627412498960269183e-01) (336, -1.18393372291497989135e-01) (337, -1.06258488773915540926e-01) (338, -8.82543624134990445113e-05) (339, 3.47203527448381940590e-02) (340, 5.67190148035839024343e-03) (341, -1.92581041547711356854e-01) (342, -1.09060920126119328954e-01) (343, 9.30097810834411148351e-02) (344, 1.15301790627813177670e-01) (345, 8.01846368968247603937e-03) (346, -9.73380436002807027107e-04) (347, 4.76695762648987261811e-02) (348, -1.09764289852323851382e-01) (349, 9.96305159620680391708e-02) (350, -2.91823848232349802867e-01) (351, -2.16635427790961593297e-01) (352, -2.97186605647482615655e-01) (353, -3.87754019034103059038e-02) (354, -4.73215221183495501900e-02) (355, -1.51127255988794534369e-01) (356, 7.75641192558191722162e-02) (357, -2.31877389787783251551e-03) (358, 1.02750168693510696150e-01) (359, -1.44070141246383981448e-01) (360, -8.91545630178073311711e-02) (361, -2.60265823527216222377e-01) (362, -5.43793839364089051647e-02) (363, -4.58515433194434107733e-02) (364, -8.75847563778817811420e-02) (365, -1.10886565324046504344e-01) (366, -3.93715345587815901407e-02) (367, 1.29415736469496445160e-01) (368, -5.37720182522868350716e-02) (369, 1.74200784212417997265e-01) (370, 2.47417999216201500712e-01) (371, -2.39046405017257074244e-02) (372, -1.01488934501329258753e-01) (373, 1.98255037525512656238e-02) (374, -3.97801116092749290631e-02) (375, -9.14533946355907123582e-02) (376, -1.59588507149044274425e-02) (377, -1.01406087787215618001e-02) (378, 4.11261660284856500613e-02) (379, -1.44289246073415644567e-01) (380, -6.68295659934946273406e-02) (381, 1.28836819084127585100e-01) (382, 7.98237443228932558315e-02) (383, -1.31909560189584884604e-01) (384, -1.84044700499708308028e-01) (385, -1.24572267161435282223e-01) (386, 4.67360798140679031820e-02) (387, 5.87528839582750692094e-02) (388, -8.63475631307885072019e-02) (389, -1.10628746478049905244e-01) (390, -1.74806115900956182685e-01) (391, -5.57189404515115588312e-02) (392, 9.25949361994075487159e-02) (393, 4.73540022762822462865e-02) (394, 1.64732666542838565582e-02) (395, 9.78868020854949290321e-03) (396, -7.95836113649736748288e-02) (397, 1.32361215576649704495e-01) (398, 1.30043037110990578054e-01) (399, -1.02404975197074206428e-02) (400, 1.71754823928407518441e-01) (401, -1.17548198787134766663e-01) (402, -2.25213567481267862291e-01) (403, 3.07387450755697427818e-02) (404, -1.35717908622234817440e-01) (405, 4.34798306451510199744e-02) (406, 1.20792328596388470752e-01) (407, -1.38241300639742520362e-01) (408, -6.23580852860122838988e-02) (409, -7.48077895997151243179e-02) (410, 4.84336035338236211428e-03) (411, 1.72373459438041304326e-01) (412, -9.74478575582758549389e-02) (413, 1.83139264161824334709e-02) (414, -2.85301296335813969751e-02) (415, -5.22329357096914109748e-02) (416, -2.98476595815377679366e-02) (417, 3.15842537396277198147e-02) (418, 2.05561484718415135586e-02) (419, 9.79413886785787494993e-03) (420, -3.26319414080527420152e-02) (421, 1.18440063466338341147e-01) (422, 1.20189219184851037170e-01) (423, 2.95707634681365294504e-02) (424, 2.21931387751557740451e-02) (425, 9.94207866841948922909e-02) (426, -1.10809673008993442300e-01) (427, -1.63432066844717005516e-02) (428, 1.83905055098938507996e-02) (429, 1.07914881935492298903e-01) (430, 2.09279053334878201165e-01) (431, -4.36044299226477916065e-02) (432, -1.57389759006810764363e-01) (433, -1.21708823000223675947e-01) (434, 2.97770808062472885913e-02) (435, 6.06283001459724524285e-02) (436, 4.36254988410350111327e-02) (437, -3.69911423082972812271e-02) (438, -2.84765677533694444579e-02) (439, -1.31762808404443071408e-01) (440, -2.29520303524436176945e-02) (441, -4.33118523298366905894e-02) (442, 2.80126139074819702213e-02) (443, 6.67356207755212954558e-02) (444, 7.84257055815267695165e-02) (445, -4.46840711340275517638e-02) (446, 1.77795912782455767243e-01) (447, -4.43727476332136938630e-03) (448, -1.29700471417737744906e-01) (449, 2.03255933803002247773e-02) (450, -1.27126361538903914772e-01) (451, 3.64731465856630914998e-04) (452, -4.48004578458731511637e-02) (453, 1.49086274416334790827e-01) (454, 8.32195671662599584240e-02) (455, -7.82567181852824172994e-02) (456, -3.78644152195849736930e-02) (457, -3.23555125002690929792e-02) (458, -1.08250800592222071184e-01) (459, 1.19930107488319351305e-01) (460, 5.34258846826525593543e-02) (461, -1.55029729679636685269e-01) (462, -4.02919650800600322865e-04) (463, -4.43898649711850223909e-02) (464, -1.23305502502426500566e-01) (465, -4.47115672120654075727e-02) (466, -6.92760604272272262349e-02) (467, -8.20579352888709673275e-02) (468, 4.96045897943343527814e-02) (469, 1.51683059532636915767e-01) (470, 1.47150173867603512035e-01) (471, -5.04837021096966181988e-02) (472, 7.66666924779878383722e-02) (473, 2.16674292065914854410e-02) (474, -7.88566522151692116116e-03) (475, -3.10614153200697426169e-03) (476, 6.48442725279540499450e-02) (477, 3.13536178812194379906e-02) (478, 6.32616761813076244891e-02) (479, -3.39191184945595511357e-02) (480, -5.65154823284799087690e-02) (481, -1.92496710294573179778e-02) (482, -1.88114169260255800764e-02) (483, -1.02313097791341345300e-01) (484, -1.13265437164945647480e-02) (485, -1.48214324784756129594e-01) (486, -6.01104271428510097963e-02) (487, -2.18867705893704654618e-02) (488, 4.20800435253207635866e-02) (489, 2.23257252485095855632e-02) (490, -1.05614950566981127822e-01) (491, -1.25547011682121623100e-01) (492, 9.99001908549580763808e-03) (493, 5.94139482291960036031e-02) (494, 3.90615050975339148098e-02) (495, 9.34115805423727241230e-02) (496, 7.63371423587776570807e-02) (497, 6.16830293537111856716e-02) (498, -1.12835659802915308503e-01) (499, 5.07911464942563742331e-02) (500, 3.40976591266165581645e-03) (501, 9.89525319758155913474e-02) (502, 5.55074689848267244230e-02) (503, -9.14441186317610232859e-02) (504, -1.28150739091463638369e-02) (505, -6.10697580565864039936e-02) (506, 5.04465869253077001111e-02) (507, -1.30138460809628042636e-01) (508, -1.77514653225245531976e-02) (509, -1.34389921167358927789e-01) (510, -1.17492123770494213963e-01) (511, -1.81963209103403987521e-02) (512, -2.14833501028148299294e-01) (513, -5.98722626834884003033e-02) (514, -3.92672322359959632271e-03) (515, -1.56712724185914920039e-01) (516, -6.88998266729526354091e-02) (517, 8.10740177950816931496e-02) (518, 6.64905303136179570700e-02) (519, -6.77245565668195131925e-02) (520, -8.39511831995802815243e-02) (521, -9.56719156455210911760e-02) (522, -2.28222569981581246967e-01) (523, 7.28105161466381239910e-02) (524, 6.06451810088522447195e-02) (525, 3.25881241263464849212e-03) (526, 8.58884779037142886970e-02) (527, -8.37040789670134843803e-03) (528, 6.24783679431735530785e-02) (529, -9.85594380450940943383e-02) (530, -5.81392134399320581473e-02) (531, -1.03343342126400727921e-01) (532, -2.42258494918896408188e-02) (533, -1.08017506803601323617e-01) (534, -1.24422976621979680667e-01) (535, 1.10827964880741508535e-01) (536, -8.23384712134384716409e-02) (537, 3.18805343821654540992e-02) (538, 3.98246149440244431861e-02) (539, -5.21818626149348693821e-02) (540, 1.16593966220525008248e-01) (541, -4.31565867889653898004e-02) (542, 8.39215644467464355616e-02) (543, -1.12521051119519766015e-01) (544, 1.10671939498842894500e-01) (545, -5.71546263549347274835e-02) (546, -7.46653806254229251982e-02) (547, -6.21606238965284260689e-02) (548, -3.48090720887763369062e-02) (549, 3.87295647267107065459e-02) (550, 7.19631548221998651460e-02) (551, -8.54650788557681923008e-02) (552, -1.97591829277267511111e-01) (0, 2.77375254342154646536e-02) (1, -3.92002270651675005508e-02) (2, -5.58669511791141035206e-02) (3, -8.64785267020236614322e-02) (4, -1.17868271914284464263e-01) (5, -7.13180020401689707121e-02) (6, -2.93765769219347036567e-02) (7, -1.33713503477065842606e-01) (8, 1.46555944987227463466e-02) (9, -5.24085900142844951510e-02) (10, -7.17863105704945325680e-02) (11, 6.76753380848222341193e-02) (12, -9.66652671884847686234e-02) (13, 8.95567689829902952026e-02) (14, 5.68898226714544125171e-02) (15, 5.31325627298223635009e-03) (16, 3.56971811656318707695e-02) (17, 4.33079204801979714134e-02) (18, 1.98973663655489033109e-02) (19, -6.85039983709212763063e-02) (20, -6.42242084055262563158e-03) (21, 6.69951164777311675147e-02) (22, 4.67960507877185436648e-03) (23, -1.11668671434370734424e-02) (24, 1.57474653336336402332e-02) (25, 4.01787235142746987360e-02) (26, -1.14910051335021228675e-02) (27, -1.04315161103418721500e-01) (28, -3.91247030835680867367e-02) (29, 8.15115380534003550195e-03) (30, 8.02370758478512663414e-02) (31, -5.35566796897280067435e-02) (32, 8.48227257894590275233e-02) (33, -1.06306651834413651292e-01) (34, -5.53773998048493268365e-02) (35, 7.32049545941264312443e-02) (36, -5.86762735560665479873e-02) (37, 7.69179576951966280374e-03) (38, -1.23291117705900746260e-01) (39, 6.61840033612984407485e-02) (40, 9.38405836697207146324e-02) (41, -2.07282476582276650734e-02) (42, -4.37305408980963733478e-02) (43, 6.72423229977680975145e-02) (44, -8.91148771726658767145e-02) (45, 3.83861133643676995589e-03) (46, 5.27810620820901646444e-02) (47, -9.49283705315009523895e-02) (48, 7.48036388917785732833e-02) (49, -1.04770532935953064602e-01) (50, -1.15624851265415176660e-02) (51, -7.75288521850021755677e-02) (52, 3.15872281109836894331e-02) (53, 1.62460144579455452278e-03) (54, 2.92426443880971671796e-02) (55, 8.03351646252102452594e-02) (56, -5.39533370413775720253e-02) (57, -6.64279838901329494627e-02) (58, 1.13381776200239578478e-01) (59, 2.33648289469648440253e-02) (60, 3.95002536452955105295e-02) (61, 1.96722353604505788283e-02) (62, 4.71562920877236224637e-02) (63, 6.90620852611986343894e-03) (64, 8.71459559953341456051e-02) (65, -6.90780952271255327402e-02) (66, -4.55678296742230842797e-02) (67, -4.85967788144226475744e-02) (68, 2.42258685953722768813e-02) (69, 1.73287791348192728169e-02) (70, 1.28949036425970331443e-01) (71, 2.46750287385618834179e-02) (72, 4.28911993956096401770e-02) (73, -6.43380164050351005534e-02) (74, 3.08039173925946235810e-02) (75, -1.06319893252385722082e-01) (76, 3.29436170833511676737e-02) (77, -7.13537230837087838031e-02) (78, -8.67068454246303493838e-02) (79, -7.75918859170229326117e-03) (80, -5.22452669673708208764e-02) (81, 2.31026337203738864334e-03) (82, 1.49996267880127889804e-02) (83, 3.45753827519680936864e-02) (84, -6.88833224220767870172e-02) (85, -1.85357161985687350636e-02) (86, 7.68621705211445099826e-02) (87, 6.84887408384416904172e-04) (88, -1.33852884146084018246e-02) (89, 6.03125075426203735574e-02) (90, -2.14064353342457956708e-02) (91, -9.99614406424400268880e-03) (92, -3.15313352604440488847e-02) (93, -3.09437733969164796566e-02) (94, 1.15241719493643202110e-01) (95, 1.28194448227083972192e-02) (96, 4.79756579087300266684e-02) (97, 1.43289141929885729260e-02) (98, 7.96076658530620318022e-02) (99, -2.69112574532499003455e-02) (100, 1.52603860674372961148e-02) (101, 8.13157156968231514815e-02) (102, 1.11734047733738933728e-01) (103, -4.82076931679575951262e-02) (104, -5.91474150607022783332e-02) (105, -5.61846537372178572722e-02) (106, -8.18947654439339256527e-02) (107, 1.04385758533453110175e-01) (108, 1.37052140057617212465e-02) (109, -3.13346122342434696417e-02) (110, -6.25200393661484166152e-02) (111, 1.12816990866053887266e-01) (112, -9.02698207837737409687e-02) (113, 5.42263053012902104810e-02) (114, 3.68129600504839213371e-02) (115, -5.49066431045386604826e-02) (116, -1.14904884078721944429e-01) (117, 3.14442758747674674935e-02) (118, 1.33005128049801940593e-01) (119, 7.28762761920722507147e-02) (120, -4.98858226585097014327e-02) (121, -8.20483337947082273789e-03) (122, -5.64716898478441267639e-02) (123, 9.12656070432488336630e-02) (124, 1.42119503298580949352e-02) (125, -7.00330886962384352445e-02) (126, 2.59374582696594892239e-02) (127, -1.03371395782446473532e-01) (128, 3.29548625178631210061e-03) (129, -6.56777486863545090223e-02) (130, -7.97404453748736807839e-02) (131, 1.20282283749806956363e-01) (132, -1.24260000210366261530e-01) (133, -9.98091242328775496429e-02) (134, -2.01709707338160296229e-04) (135, -7.63707722102908853623e-02) (136, 5.22245549222234220488e-02) (137, 6.63663081818775119070e-02) (138, 3.50877353454569079760e-02) (139, -7.00276347072032335356e-03) (140, -8.58811369531769924768e-02) (141, 6.70759366226099523756e-02) (142, 4.54949545352638581863e-02) (143, 1.93538691441827864770e-02) (144, 4.30542726015524720995e-02) (145, -6.91914033425390789800e-02) (146, 6.99035620852732769714e-02) (147, -1.05826399801546025548e-01) (148, 6.19465525751760892614e-02) (149, 1.70555558403973350767e-02) (150, -1.26447086470832137373e-01) (151, -7.91121268754683554247e-02) (152, -8.24051635923461200939e-02) (153, -4.70769358632531637054e-02) (154, -4.73123486983617475010e-02) (155, 3.36675384420055609502e-02) (156, -5.44190659608500895694e-02) (157, 4.36675203599368177976e-02) (158, 9.74587999934107135358e-02) (159, -1.71882927024251258574e-02) (160, -2.30286155464495753686e-02) (161, -4.27688972298065558930e-02) (162, 3.69690784611904346355e-03) (163, -4.38680201734840125027e-02) (164, -8.18896478190128812580e-02) (165, 3.02183185139711027456e-02) (166, 2.31865854794386962168e-02) (167, -2.25859186189939706302e-02) (168, -3.60841062365780534948e-02) (169, -3.50696897795791176500e-02) (170, 7.69737002316197849172e-02) (171, -1.12038908727752350991e-01) (172, -1.15599329169696007913e-01) (173, -1.47879453448058976323e-02) (174, 4.42506890140516029319e-02) (175, 4.99073064515392905705e-02) (176, 3.32453148910929474624e-02) (177, 2.41301191946037899005e-02) (178, 4.84403335658185607571e-02) (179, 6.14618541328145334690e-02) (180, -2.68742344558897195209e-03) (181, 6.97756151535986746115e-02) (182, -1.44544200728671922568e-02) (183, 6.67033690640399853228e-03) (184, -4.81586144714562375269e-02) (185, -3.54191738951467050001e-02) (186, -1.09558732226036886076e-02) (187, -2.16031932181723271280e-02) (188, -1.39318120833434228034e-01) (189, -6.67840970522061011527e-02) (190, 1.40020071959474134982e-01) (191, 4.96915043153173460744e-02) (192, -5.54146341936706254838e-02) (193, 5.51686173828302081623e-02) (194, 9.37572975350141613049e-02) (195, -7.22261641033744017371e-02) (196, -5.57210260629288842149e-02) (197, -3.48975158404664503875e-02) (198, -9.51087077757784352117e-03) (199, -5.51057280482021433210e-02) (200, -1.96823369130310066311e-02) (201, -6.57127834630073931477e-02) (202, -1.30826853973825291133e-01) (203, 3.95940407649570738635e-02) (204, -2.95639367675625507059e-02) (205, -5.92805700964077540542e-04) (206, 5.87847322499534530316e-02) (207, -7.38431249487505325657e-02) (208, 4.01929113118667385995e-02) (209, -3.41701941403654979590e-02) (210, 4.03332719660083466318e-02) (211, -9.57967139492488656272e-02) (212, -1.60238745818192945825e-01) (213, 2.83901134873670128733e-02) (214, 1.12106015471155673335e-01) (215, 1.03940636989040990912e-01) (216, -1.30962676792478027732e-01) (217, -5.46766726691675711280e-02) (218, -9.26992250469555190140e-02) (219, -4.25317063128427749752e-02) (220, 2.48108633337524413232e-02) (221, -1.46390418229464330802e-01) (222, -1.45944799475992814664e-01) (223, -1.28920073945038536622e-02) (224, 2.51172140252372460070e-03) (225, -1.15164619329239562018e-01) (226, -4.34578961453977521967e-02) (227, 4.80318709447483810360e-02) (228, -5.74172357818431011722e-02) (229, 5.89759013638526813361e-02) (230, 1.54614849457072350836e-01) (231, 2.59255778601693194496e-02) (232, -4.45082478541065362787e-02) (233, -7.78061829957430034499e-02) (234, -3.41414082712787475549e-02) (235, 1.29673919017288426236e-02) (236, -2.00401176255763924239e-01) (237, -2.69420642128330965759e-02) (238, 1.21407333917523174716e-01) (239, 1.74169898816557644494e-01) (240, -2.02773966659695686898e-01) (241, -3.05836659161064089441e-02) (242, -3.22859773998001933770e-02) (243, -8.17400832506107455355e-02) (244, -4.40151462806462334676e-03) (245, -7.07700335415863551747e-02) (246, -1.99402694677726977091e-01) (247, -6.01716523995733665320e-02) (248, -1.15824302988081467847e-01) (249, -1.01291661862080967227e-01) (250, -7.72918665924764158870e-03) (251, -2.20617469679799359239e-02) (252, -1.02926127248437429551e-01) (253, 5.42249279972743941647e-02) (254, 5.98640620919760543805e-02) (255, -8.39699952779436042949e-02) (256, -2.72933931558216142862e-03) (257, 2.22213304249270805768e-02) (258, 1.75479319098634477248e-02) (259, -1.04616357649021690657e-01) (260, -1.11220419339567389017e-01) (261, -1.33514611975664637677e-01) (262, 1.29887761589364880699e-01) (263, 2.48239009385148895470e-01) (264, -4.66431419912209099810e-02) (265, -1.09852576796645257096e-01) (266, -6.65027253872733786766e-02) (267, 5.22565122000604523334e-02) (268, -1.19108363038211123586e-01) (269, -1.47838237322595239531e-01) (270, -1.45767205933928140071e-01) (271, 5.55154085175760259041e-02) (272, 1.12984771080994559483e-02) (273, 8.70069007308565782466e-03) (274, 8.14007946661590708892e-02) (275, 8.01938839553558747986e-03) (276, -5.00377457543920156624e-02) (277, -8.44525894588793457629e-02) (278, 1.16908425466360113565e-01) (279, -1.61234766360017461873e-01) (280, -8.31570103329155457805e-02) (281, -1.95032196683759678768e-02) (282, 2.62373388914985475329e-02) (283, 2.83481699036859623175e-02) (284, 2.65358725242118682029e-04) (285, -2.28226209762774329137e-01) (286, -1.18067434811365470221e-02) (287, -6.97519406676292419434e-02) (288, -1.33512406867708405267e-01) (289, -3.85644103457958714598e-02) (290, -9.81753433379557033378e-02) (291, -9.47339258650126830874e-02) (292, -5.56894982447267775094e-02) (293, -1.43075498919893157046e-01) (294, -4.59390110904276879888e-02) (295, -2.89229492915855125601e-02) (296, -7.22422346293058320610e-02) (297, -1.56042492289563294872e-01) (298, -1.25572419718390643206e-01) (299, -3.50408042638553351988e-02) (300, -1.15356765648836484539e-01) (301, 4.36588732525983111432e-02) (302, 8.23779026449214663019e-02) (303, -2.06899625920087454345e-01) (304, -1.22535765516433067801e-01) (305, 2.57393343792706244533e-02) (306, 1.26459657044340756382e-02) (307, -9.49036101584157798516e-02) (308, 2.40059231727823771396e-02) (309, -1.79730874781126592765e-01) (310, -2.37415463464245690695e-01) (311, 2.14946535003090188898e-01) (312, -1.47643262542654279956e-01) (313, -8.12200584182793533516e-02) (314, 6.46362084402618136680e-02) (315, 2.77874679711475024158e-02) (316, -4.89096638690084267731e-02) (317, -1.10149869792233248700e-01) (318, 3.21630810112397413913e-02) (319, -2.25614239391294310599e-02) (320, -1.02649009340287603043e-01) (321, -1.79364945089049265814e-01) (322, -1.34447486625653978010e-01) (323, 2.76592215940432810395e-02) (324, -8.31593504777819736429e-02) (325, -9.12026393478219399302e-02) (326, -3.94346683955354299078e-02) (327, 9.87980019109567508817e-02) (328, -1.49211643710160483944e-02) (329, -3.97174753282411446831e-02) (330, 2.39198910203765498228e-02) (331, -6.48438484488346872370e-02) (332, -1.40970817456912062005e-01) (333, -4.42024257505314321914e-02) (334, -6.80951851948083941579e-02) (335, 1.17518661641572735865e-01) (336, -4.96670271763620385652e-02) (337, -7.71744425803600891944e-02) (338, 9.04605659036217674140e-02) (339, 3.39309573734173017256e-02) (340, -7.79270141199310539815e-02) (341, -3.33411171641157730305e-02) (342, 5.58799844966576531036e-02) (343, 1.73863710318342482020e-02) (344, 3.65331497664220794519e-02) (345, -1.28093229269116357094e-02) (346, -3.42291949993183677523e-03) (347, -8.57874684426019606942e-02) (348, 2.62585522033200770287e-02) (349, 1.48764295148989312591e-03) (350, 7.15839281969399832128e-02) (351, 7.43206058997564478208e-02) (352, 7.36474404586190400934e-02) (353, 1.02309421966171903984e-01) (354, 1.37084507606872550017e-02) (355, 6.42984879443359164108e-02) (356, -1.72209328327341620879e-01) (357, -7.13444485549047241468e-02) (358, 3.26315441173888678983e-02) (359, 7.74227594229891930011e-02) (360, -2.99261811742981692630e-02) (361, 1.37002403146087780791e-03) (362, 9.34555998303270296645e-02) (363, -7.83152075624239524254e-02) (364, -1.80956583204278063925e-02) (365, -1.94072320371989348597e-02) (366, 2.43459662726564253499e-02) (367, -1.05463638880355106697e-01) (368, 1.27788815035965674927e-01) (369, 1.23368870358509120227e-02) (370, -2.62705989283915954113e-02) (371, -6.25741850830184714871e-02) (372, -1.00614879941048521172e-01) (373, 1.43633471463304480259e-02) (374, 8.75160671933995909511e-02) (375, 4.91458241694503333852e-02) (376, 1.79646804635217385848e-02) (377, 2.07597024954731049218e-02) (378, -5.69490135024766502836e-02) (379, -8.04269629807189134763e-02) (380, -1.36228366462746219856e-01) (381, -5.08793195465906053498e-02) (382, -7.54890141836089545446e-02) (383, 8.33721421706384441253e-02) (384, -9.54113316970746083712e-02) (385, 2.67202881605199914217e-02) (386, 8.61085090883043774435e-02) (387, 7.10315502362997008845e-02) (388, -9.65565943232325196721e-02) (389, 7.57366005190384800061e-02) (390, -5.19568269978088193017e-02) (391, -1.04594035731155762803e-01) (392, 1.83565370080144771303e-02) (393, -9.91186104410903268125e-02) (394, -1.07252225336905593345e-01) (395, 8.69921401550678707881e-02) (396, 1.33301020225117267809e-02) (397, 7.08354261475171859130e-02) (398, 1.33271208702391369405e-01) (399, 3.84176990071845737146e-03) (400, 1.65908911128567967963e-02) (401, 4.90175965643388847348e-02) (402, 5.84055341973094277463e-02) (403, -1.99176923850177198250e-02) (404, -1.06231280629501309565e-01) (405, -6.72446972303844536789e-02) (406, -9.02177524901697294735e-03) (407, 5.34186931174477422357e-02) (408, 5.76942124433599753952e-02) (409, -4.59544952402479679396e-04) (410, 6.06872150191771903005e-02) (411, -1.15220804529945694550e-01) (412, 6.32721452985821469772e-02) (413, -9.16237835161255870231e-02) (414, 7.51909432363645352515e-02) (415, -7.19431226931063760865e-02) (416, 9.48908309961960481915e-03) (417, 5.84039019634202474784e-02) (418, -8.70113058951750700798e-02) (419, 6.12948448407970788998e-02) (420, 4.35068216795144457887e-02) (421, -9.98958278219123745056e-03) (422, 9.67666097849955719745e-02) (423, -9.60832418442303104467e-02) (424, 3.72404756833434533170e-02) (425, 8.78967343400868794667e-02) (426, 7.66702575755928844581e-02) (427, -4.23689404425169682811e-02) (428, -8.87573789826097067635e-03) (429, 2.04852342026273157027e-02) (430, 7.66983953998260775675e-02) (431, -4.40557051820862979885e-03) (432, -3.60253553112053898078e-02) (433, -7.52510040448500349547e-03) (434, -1.13016227657428983133e-01) (435, 5.75522795341054521634e-02) (436, 8.67113577439734828367e-02) (437, -9.63895957783837686872e-03) (438, 1.40409444300135521910e-02) (439, 1.50023158178506400839e-02) (440, 1.01768808302714119929e-01) (441, -2.70043435646925115978e-02) (442, 4.35518784526513838551e-02) (443, 7.03022752356967928211e-02) (444, -3.17962774649581305514e-03) (445, 7.17182478084232438720e-02) (446, 2.63675738946670401575e-02) (447, -6.52161221506518257174e-02) (448, 8.72076164086357449867e-03) (449, 4.31801711495060080992e-02) (450, 7.61727413907923728287e-02) (451, -8.15789646229883591566e-02) (452, -1.52832648802875947780e-01) (453, 6.78328859300386232539e-04) (454, -1.21999189877043216768e-02) (455, 1.90623578275825170981e-03) (456, 1.46558220194018106602e-02) (457, -4.96031578393175895392e-02) (458, 2.18683801758674627169e-02) (459, 3.39078810705701174169e-03) (460, 6.79912354464765888995e-02) (461, 5.81988987458783163520e-02) (462, -7.05394679427226861668e-02) (463, -8.52279320760489789155e-02) (464, -4.23495512412472088770e-02) (465, -8.45696536431734813277e-02) (466, -1.10356689441853977884e-01) (467, -5.99127533930674319174e-02) (468, 2.03817134013563744377e-02) (469, 2.80976945135148108504e-03) (470, 6.78104834559686842077e-02) (471, -3.66992221576775898284e-02) (472, -6.50464625202824830996e-02) (473, 4.53243806239397167834e-02) (474, -3.51472564913327886749e-02) (475, 1.99434505480933638166e-02) (476, -5.53621024370085368371e-02) (477, 2.68226152777156709450e-02) (478, 8.36001880525455848270e-02) (479, -7.88244082747976693160e-02) (480, -2.39047936914166814226e-02) (481, 2.77361118171681811373e-02) (482, -4.99278717262717705583e-02) (483, -5.89717596850521594276e-02) (484, -3.27031552630889926769e-02) (485, 1.70452466703916206969e-02) (486, -1.14021515423068223183e-01) (487, 6.48099598870203186252e-02) (488, 4.95738866107916856252e-02) (489, 5.58959943157085886734e-02) (490, -3.82473251825241403190e-03) (491, 2.89714068984561722020e-02) (492, 1.78934210909707032584e-03) (493, 4.75317531371071723412e-03) (494, -1.09425426950429421913e-01) (495, -1.14007561166593312380e-02) (496, 5.03469649601734833833e-02) (497, -6.10823901733788740542e-02) (498, 1.47859486228473693131e-02) (499, -5.86647626265752175634e-02) (500, 4.14400857001955766346e-02) (501, -3.62716901248977818817e-02) (502, 8.09848524366135746888e-02) (503, 5.98862019656831168213e-02) (504, -6.91916343903733604970e-02) (505, -4.32758549887585358684e-02) (506, -4.15328846833666193161e-02) (507, -6.93855713445609939387e-04) (508, 5.23047050292286541673e-02) (509, -6.20201789751228735326e-02) (510, 4.90188225145610015354e-02) (511, -8.08175952489507687382e-02) (512, 6.91487839202079429546e-02) (513, -4.70120091249089308572e-02) (514, -9.95799613833327559864e-03) (515, -5.90118626873831486623e-02) (516, 9.98833614985983053725e-02) (517, 1.35441714934669294595e-02) (518, -1.07662646796492275647e-01) (519, 4.85651898971530895932e-02) (520, -1.86058397962342199350e-02) (521, 6.85475684128248191618e-02) (522, 1.50810315689204246098e-02) (523, 5.88518714670918097198e-02) (524, -7.44745887656680094491e-02) (525, -1.62219361152065519316e-02) (526, 1.24972990624980864749e-02) (527, 8.87157865155222269404e-02) (528, 3.12563999118218791007e-02) (529, -5.26881262575074615917e-02) (530, -4.80926979809846999459e-02) (531, -2.90993597254944232067e-02) (532, -3.22284577564278945649e-02) (533, 8.40162474346937832026e-02) (534, -3.62741284325820145806e-02) (535, 3.57545896174094879338e-02) (536, -7.07746384044939669256e-02) (537, 4.40563430183244994498e-02) (538, -5.54736416021614012206e-02) (539, 6.15847347728588276339e-02) (540, -8.09664910693874556591e-02) (541, -9.00869222040196898638e-02) (542, -9.46428110559433821702e-02) (543, -8.46791733130037999056e-02) (544, -1.92659255101321827408e-02) (545, 3.93560825249910997692e-02) (546, -5.30595451591147210246e-02) (547, -2.42844138073453445770e-02) (548, -2.73729953626908606434e-02) (549, -4.64411156884215817198e-02) (550, -9.06861618820586218304e-03) (551, 7.49524514666870533830e-02) (552, -1.02862892505336853133e-01) (0, 3.58917107202930338317e-02) (1, 1.49167101096958493178e-01) (2, -5.70490525056448691266e-02) (3, 1.14308616806030216573e-01) (4, -2.26727432179652764466e-02) (5, 9.10533727158124028822e-02) (6, -4.46525163947750353133e-02) (7, -2.26723271853722596614e-01) (8, 1.13565924354481848774e-02) (9, -9.56895824453255113007e-03) (10, 1.36948654602671943126e-01) (11, -1.63568117916437133497e-01) (12, -2.85280213582985477105e-02) (13, 7.39096735595270656893e-03) (14, 1.69063376639588432149e-02) (15, -4.38726146882760167922e-02) (16, -1.87716697332419191202e-01) (17, -5.10626881687146136346e-02) (18, -1.70583910457742932154e-01) (19, -3.23174445468411064564e-01) (20, -8.26780803674124487035e-02) (21, -1.33572375540616031242e-02) (22, -5.90323606140240667028e-02) (23, -3.93556312419007028880e-02) (24, -1.29728597715618787500e-01) (25, -5.08949159558959030036e-02) (26, 6.98864991335381852133e-02) (27, 2.01299007950574843084e-02) (28, 1.72300354006853451150e-01) (29, 1.80149506113031737664e-01) (30, 2.01057067878314052467e-02) (31, -1.97860044010745389498e-01) (32, -5.51745272582879198175e-02) (33, -2.40725473532248185338e-01) (34, 6.01607620146792157478e-02) (35, -1.55733911330163066200e-01) (36, -9.07382272257480915201e-02) (37, -1.33617935866213056323e-02) (38, 1.61384808343574992495e-01) (39, 2.65071820945642910861e-01) (40, 3.08378572108673858210e-02) (41, -3.22348475705729531002e-03) (42, -1.71608864173825370614e-01) (43, -2.50483387916668576167e-01) (44, -1.46343652160955267627e-01) (45, 1.63611207170203581951e-01) (46, -1.12589702642509864594e-01) (47, 4.74448808187271937192e-03) (48, -3.06783188323897634472e-03) (49, -1.36573922152944064040e-02) (50, 1.17133308382878220666e-02) (51, -6.76940096697238868906e-02) (52, 1.15033673932125254935e-01) (53, 4.78422055247237076880e-02) (54, -3.84095581404457417363e-02) (55, 2.13354869957082561582e-02) (56, -3.30514994318348437341e-02) (57, -2.71403338073320961332e-02) (58, -1.31712278482251175099e-02) (59, 9.97153813901397040320e-02) (60, -1.76270303603443090346e-01) (61, -5.17163058560779279049e-02) (62, -3.92168756851887442827e-02) (63, 4.67934978587899938485e-02) (64, -1.25712680904006668392e-01) (65, 1.82643422738428089225e-02) (66, -2.93174394854546251088e-02) (67, -1.83602200689480132834e-01) (68, -6.19496301714820632456e-02) (69, 8.88576275081191281624e-03) (70, -1.31287184229201131513e-01) (71, 3.22857736617382373723e-02) (72, -9.43058348186628786491e-02) (73, 3.00589191627786744831e-01) (74, 1.24125769766998111238e-02) (75, -5.72374761667093640005e-02) (76, 9.04501281853683086753e-02) (77, 3.83381916764024485711e-02) (78, -1.15801905539291344338e-01) (79, -1.50956391074283408082e-01) (80, -1.20423131787083498301e-01) (81, 4.71614174494308091568e-02) (82, -5.58432355375803879394e-02) (83, 1.98152384190202375536e-02) (84, 4.63269967879922847653e-02) (85, -9.12674949277935271263e-02) (86, 1.26753691635176884978e-01) (87, -6.51012693846899220818e-02) (88, 4.11791550466692052312e-02) (89, 4.55920652859313976779e-02) (90, -9.44373522275383653346e-02) (91, 2.45729594356201494487e-02) (92, -1.92791313171904982182e-01) (93, 1.28974399740581724405e-01) (94, -5.22138867832852224260e-02) (95, -1.54778468060629947889e-01) (96, -2.06423307383374637913e-01) (97, -6.41256513436093827929e-02) (98, -1.27449718745616027288e-02) (99, 1.87111547889160317881e-01) (100, -1.35506885028494811207e-01) (101, 5.24758932726436533311e-02) (102, -8.87631320617023600317e-02) (103, -4.82391656387607184464e-02) (104, -1.19070620363890627980e-01) (105, -1.96642609254079697712e-01) (106, -4.63375665222047622427e-02) (107, 4.22436541887226679748e-02) (108, 6.83499330018195044856e-02) (109, -1.97270182417867784297e-01) (110, -2.95607974320935412704e-02) (111, 5.00777363856526602781e-02) (112, -6.90754298360585217154e-02) (113, -2.03706715205857785689e-01) (114, -3.68371638302202389359e-03) (115, -2.63643736609281476024e-01) (116, -1.51746878991106864953e-01) (117, -1.11553523812762886425e-01) (118, -1.37385016770991824631e-01) (119, -4.79618299274658307918e-02) (120, 4.61938865800142345330e-02) (121, 2.15981671513509082549e-01) (122, 6.67407462871770496005e-02) (123, -6.62488603470201276036e-02) (124, -6.84528115876630038894e-02) (125, 1.41864826291777629264e-01) (126, -1.53358231067037414919e-01) (127, 1.67814135853118273634e-01) (128, 1.43694703138384144436e-01) (129, -2.31558873685177413204e-01) (130, -1.33785870510904902897e-01) (131, 1.30036967320573376705e-01) (132, -3.85130068098988032066e-02) (133, -1.46973700180813404703e-01) (134, 2.87726704905620689345e-01) (135, 5.39263677732440618873e-02) (136, -1.47730986256607688123e-01) (137, 5.48186153443059945300e-02) (138, -6.73393375302148294859e-02) (139, -1.73804965425187030181e-01) (140, -3.58555948380811673193e-01) (141, 4.08827232628715397933e-02) (142, -7.82837711960345100648e-02) (143, 5.23510095225909743988e-02) (144, 5.99100402204940721274e-02) (145, 1.26142602446140339456e-01) (146, 1.25856467422736623130e-01) (147, 3.32058631116127489502e-01) (148, -1.13006437992586500352e-01) (149, 1.29226688942541301230e-01) (150, 2.26509270470597240399e-01) (151, 4.16684011940782403349e-02) (152, -1.00592963863773976474e-01) (153, -9.99867061280062530138e-02) (154, -3.23542104366851268615e-01) (155, 2.63459296984382529416e-01) (156, -1.79645224875584430535e-01) (157, -2.58283898104205100754e-01) (158, 2.02042518373743179572e-01) (159, 8.57667909236226044811e-02) (160, -2.56555535827538538918e-01) (161, 1.23033601638248224486e-01) (162, -1.21024127062945560662e-01) (163, -1.19867066978074865435e-01) (164, 9.33748868346115368233e-02) (165, 1.71136746451866106344e-01) (166, 7.51580753766554880181e-04) (167, -1.34661554958063922616e-01) (168, 1.28684751452028900420e-01) (169, 7.18682507720648788840e-02) (170, -8.29844887046156526322e-02) (171, 2.47804821641206540761e-01) (172, 4.65145850926817761017e-02) (173, -5.50559353905826984188e-02) (174, -8.57690038676573313081e-02) (175, -2.18899659656482614700e-01) (176, -5.12417323283102521536e-02) (177, 5.37576201399418140969e-02) (178, 2.65734024411781524777e-02) (179, -8.48013178734863953823e-02) (180, -3.35633839707987699508e-02) (181, -1.56625727894211363989e-01) (182, -1.80814358500653221684e-01) (183, -1.15112577284192857396e-01) (184, -1.29460711303327813404e-01) (185, -1.39048186544033031131e-01) (186, -4.63342544538314915492e-02) (187, 2.51333847844273337857e-02) (188, -8.51560909634988955075e-02) (189, 5.52721117054750105124e-02) (190, 2.93445841669891308023e-02) (191, -1.53605400297216670991e-01) (192, -3.13315265193298608803e-01) (193, -2.36724940229293551175e-02) (194, 5.17279724172382479597e-02) (195, 3.58331945418710384743e-01) (196, -7.70301424316696403682e-02) (197, -2.97639579490109260074e-02) (198, -3.12100645955716959890e-01) (199, -2.57774715839447776666e-01) (200, -1.51985406593606653392e-01) (201, -7.07473716010238590224e-02) (202, 3.42626358834779848328e-02) (203, -4.24783332398045498923e-01) (204, -7.25822839348511383850e-02) (205, -1.88514517045022145236e-01) (206, 2.73855550620002219375e-01) (207, 6.53017338132486219182e-02) (208, -1.50511014075668220213e-01) (209, -1.74561087384033225556e-01) (210, -6.26830220851990263520e-03) (211, -1.16536921673846063929e-01) (212, -1.51258821848361924012e-01) (213, 1.33872088641486994796e-03) (214, -1.57698542232956956388e-01) (215, -5.91085898309434698561e-02) (216, -1.83982773211982086892e-01) (217, 4.40029831502251611575e-01) (218, 1.99903343222031099069e-01) (219, 2.31351554712124568569e-01) (220, -2.25718021382692368704e-01) (221, 1.69427093314707261085e-01) (222, 2.78048513853366430215e-01) (223, -3.12269425183904714149e-01) (224, 2.36323782570141166515e-01) (225, 2.39125405052001416273e-02) (226, -1.84772748397141473031e-01) (227, 1.58622093749668985341e-01) (228, -3.34940615990474074848e-02) (229, -2.12366283063696037470e-01) (230, 6.01936161886181597680e-01) (231, 1.48623055152221020953e-02) (232, -3.25923626034354707581e-01) (233, -1.34544368701057515114e-03) (234, -9.69599553197079550015e-02) (235, -1.96686619112645871832e-01) (236, -4.61983388875434219933e-01) (237, -7.92741183127322890378e-02) (238, -1.22405034444990998277e-01) (239, 9.40738602602889106841e-02) (240, 4.42080909946886424500e-01) (241, -1.52627217946788018565e-01) (242, 3.19510224253491570412e-01) (243, 9.42940346905590809357e-01) (244, -3.14568317686765686059e-01) (245, 2.45571840198228030783e-01) (246, 5.87985800562677685122e-01) (247, -1.94691101166639596309e-01) (248, -1.34421859980390107081e-01) (249, -1.68186935164182399527e-01) (250, -2.40756813211173786859e-01) (251, 1.56764266766381360485e-01) (252, -3.82088490971053462708e-01) (253, -1.21149065998050642357e-01) (254, 1.47809512792653946489e-01) (255, 2.33593164088835514303e-01) (256, -2.45971897014465618048e-01) (257, -1.57839499593282667211e-01) (258, -1.50122119322434383060e-01) (259, -3.10327713260776627546e-01) (260, -4.00430460923409892171e-01) (261, 1.88975979704876756449e-01) (262, -9.73347934506670342536e-02) (263, -3.66090430329471250293e-02) (264, 5.66697882596811572387e-02) (265, -1.38193086711068086059e-01) (266, -2.57744674196977774372e-01) (267, 6.90450851094119993911e-02) (268, 4.25685758548864784379e-02) (269, 2.49912042414560831016e-01) (270, -2.18928785275055631798e-01) (271, -3.07865762668320386286e-01) (272, 5.67357390955458701365e-02) (273, 1.32961315363626153552e-01) (274, 1.62273571215257317313e-01) (275, -2.33336431667393151557e-01) (276, 1.51786062278831429539e-01) (277, 2.04241984010665761362e-01) (278, -3.37442967793235404361e-01) (279, -3.93444372207746417835e-01) (280, -3.49330541590629595206e-01) (281, -1.79608996960070849136e-01) (282, 6.59071480178416175405e-03) (283, -7.49232042297324207780e-02) (284, -9.79906049105635501562e-02) (285, -3.56371144613569723614e-01) (286, -1.43661860734664220685e-01) (287, 9.00793895125389099121e-02) (288, -2.00745200857035538400e-01) (289, -1.56973243675865153923e-02) (290, -5.81669424826414260821e-01) (291, -4.80908962571767295557e-01) (292, 1.35934944674091062744e-01) (293, -1.42762711696093613778e-01) (294, -4.54710462635266765563e-01) (295, -2.23746727699219882801e-01) (296, -4.05964387849193308888e-01) (297, 3.75512429681914283730e-02) (298, 4.31324841478469722666e-01) (299, -2.37583116755605727732e-01) (300, 3.80507154577103601234e-01) (301, 2.21581014183470564882e-01) (302, -2.77397111253764983019e-01) (303, -1.78649886098426607939e-01) (304, -3.54103885546353969183e-01) (305, -2.10409588368494666899e-02) (306, 1.13854699629020700291e-01) (307, 1.27109883155115427344e-01) (308, -1.05133050327367000287e-01) (309, -3.74208409748806092310e-01) (310, 8.89161439707844836189e-02) (311, -4.21934522649284465823e-02) (312, 1.13429029996236233058e-01) (313, 5.11928093651418669729e-01) (314, 5.39790834348744086313e-01) (315, 9.12609539354074517092e-02) (316, -1.32031630790283044385e-01) (317, 5.93816851370022935619e-01) (318, 3.87852410924249324520e-01) (319, 2.24295052833791766500e-02) (320, -2.54637521739210781480e-01) (321, -1.67121670363900520773e-01) (322, -2.80378637041621137094e-01) (323, 5.89449862252005907237e-01) (324, -4.73400294786081171639e-02) (325, -9.19423623034574116764e-02) (326, -2.15182069533765951697e-01) (327, 1.41041840855195416138e-01) (328, 4.56186425145521223107e-03) (329, 4.42277313022743159832e-02) (330, -3.35199971124883089324e-01) (331, -5.78275628271039537909e-02) (332, -5.10626786936563936692e-01) (333, 1.30574450403917963204e-01) (334, -1.00018052545852650925e-02) (335, -1.01102365194068982701e-01) (336, 8.68837276904270428002e-02) (337, 4.80024392701283109108e-01) (338, 2.54667642610697853023e-01) (339, 1.16870162865183438439e-01) (340, 3.26837976110944533614e-02) (341, 4.69162287949384637642e-01) (342, 4.69316007007594335199e-02) (343, -1.22282284402614668806e-01) (344, 5.06327613232988721359e-02) (345, -1.54037723628816097809e-01) (346, -1.86590449949661785212e-01) (347, 3.32735691271309141914e-01) (348, -3.15906710479502000899e-02) (349, -1.11674477140003974851e-01) (350, -2.36817018803979373320e-01) (351, 7.46582239277086556761e-02) (352, 1.06346929192270941988e-01) (353, 1.32607932259229208821e-02) (354, -2.97695176092112497035e-02) (355, -2.28580453124049121083e-01) (356, -3.79139438440065201785e-01) (357, 8.42144506326388542217e-02) (358, -1.37735453439741861725e-01) (359, 5.50736189193567760025e-02) (360, -3.38593191494026390931e-01) (361, -3.26894770548054238585e-03) (362, -2.92757497227244034566e-01) (363, -3.89985062734104381832e-01) (364, 1.69346683868532368877e-03) (365, -1.71600988807775550749e-01) (366, -3.08371378475668145303e-01) (367, -2.45918384746151907905e-01) (368, -2.01886955118609962012e-01) (369, -1.74454000270549053342e-01) (370, 1.73988959465355724765e-01) (371, 8.62215096440213657480e-03) (372, 2.37668717206009821874e-01) (373, 3.00376136157802398063e-01) (374, -7.80731584749367463205e-02) (375, -7.48686405904849111570e-02) (376, -1.46377887318473537404e-01) (377, -1.02682235220232925821e-01) (378, 1.98795532601874741507e-01) (379, -1.17966213474199055344e-01) (380, -4.29165567079056384237e-02) (381, -7.66889137996894926230e-02) (382, 8.53557106737990733958e-02) (383, -1.32156302385993768000e-01) (384, -2.26934663960994487120e-01) (385, -1.80439123382786833355e-03) (386, -1.42130886840024533990e-01) (387, -1.36124825144802175103e-01) (388, 1.92706975689989928879e-01) (389, -2.90674209838091834879e-02) (390, -2.16659663332860602525e-01) (391, 1.78041190671450022531e-01) (392, 2.06313004571879246574e-02) (393, 3.36103488058145166359e-03) (394, 7.80737573406860545927e-03) (395, 1.72802548634040133158e-02) (396, 2.33373936469407350369e-02) (397, -1.79511538484621487044e-02) (398, 1.93778376597639218071e-01) (399, -8.57887271970800557863e-02) (400, -9.60722674385254549190e-02) (401, -5.31838903195061482587e-02) (402, -1.17997651922029531124e-01) (403, 1.61422984324999546635e-01) (404, -3.94059800887183592222e-02) (405, 3.07510278296340075488e-02) (406, 1.25342392069389213516e-01) (407, 6.36788853342598083762e-03) (408, -1.17250988801738315059e-01) (409, 4.44559883100707001202e-02) (410, 3.95263441046419028435e-01) (411, 4.20102810305566065630e-01) (412, -1.09219392926630951002e-01) (413, 2.19327994608635917784e-01) (414, 3.60755388274096033818e-01) (415, -5.59532178463930662815e-02) (416, 6.40676739893782792867e-02) (417, -2.26094531065033049755e-01) (418, -2.13776768500634317682e-01) (419, 1.44566953458269309429e-01) (420, -1.47244583261630257454e-01) (421, 3.53174894610380069038e-02) (422, 2.23976576502056372309e-02) (423, 2.60225843037377113642e-01) (424, -9.06911263216809071172e-04) (425, 5.87796920933528130315e-02) (426, 6.19090891349228927831e-02) (427, -1.51710462233460380288e-01) (428, -7.41008706398805366833e-02) (429, 1.09046219630057450445e-01) (430, 4.87367065883218472666e-02) (431, -1.24311727305524222578e-03) (432, 6.33825739760308509707e-02) (433, 1.00773721939439217521e-01) (434, 3.22782786085487188865e-02) (435, 1.80298945916403996481e-01) (436, -8.69256155609452185740e-02) (437, 7.91361409719372604910e-02) (438, 2.53045263844484891180e-01) (439, 5.98948038690247513971e-02) (440, 4.87158639475980398403e-02) (441, -3.20933540200645517348e-01) (442, -3.27789111057199045174e-01) (443, 5.70871564943375500722e-02) (444, -6.47430184290462562569e-02) (445, -2.07934634749045776925e-01) (446, -1.97714352269026984177e-02) (447, 9.41309942902224805472e-02) (448, 1.32197849472005801719e-01) (449, -4.41016591772441721164e-02) (450, 1.88618478239138478991e-02) (451, -6.23467206389047429171e-02) (452, -3.27850940691096631729e-02) (453, -4.99762698935307253523e-02) (454, 8.53527472546204979409e-02) (455, 1.70822141876546739966e-03) (456, -1.52826043730517530106e-01) (457, -4.95979047920509230618e-02) (458, -1.06479217389187738596e-01) (459, -1.58239871879347460126e-01) (460, -3.21996051233238225753e-02) (461, -2.59583302659506853782e-01) (462, -1.88976128386845521057e-01) (463, 3.25268280436054810223e-02) (464, -1.27858625830713557026e-01) (465, -1.26290291898447266938e-02) (466, 9.57480725130241037100e-04) (467, -1.04037828200587351146e-01) (468, 3.05602755651566727890e-02) (469, 3.04582273471822977118e-02) (470, 1.00646935544554227970e-01) (471, -1.47128540956256263772e-02) (472, 2.85943327932659330584e-03) (473, -1.80846218897824623228e-01) (474, -1.59453998658458190318e-01) (475, -5.95465628413014633202e-02) (476, 1.67258898023972035762e-01) (477, 2.04407794718629194641e-02) (478, 1.82684370915262489499e-01) (479, -7.41370459022943489868e-02) (480, 2.60688357137954206111e-02) (481, 1.22884202805218417653e-01) (482, 9.95539953750317063719e-03) (483, -8.52468343448376936200e-02) (484, -6.19002311070652941338e-02) (485, -4.28941223710092231491e-02) (486, -7.17123737446025422138e-02) (487, -4.20761544764253203610e-03) (488, -5.20462804865986228275e-02) (489, -6.82926172736567499433e-02) (490, -1.22623350170645836754e-01) (491, -1.90203762886485439054e-01) (492, 1.35475970321036892630e-01) (493, 1.08045986795357845667e-01) (494, 2.61783476080991228674e-01) (495, -1.01832231746440071696e-01) (496, -1.28645523775381576126e-01) (497, 7.74911720034926476686e-02) (498, 