FANN_FLO_2.1
num_layers=3
learning_rate=0.010000
connection_rate=1.000000
network_type=0
learning_momentum=0.100000
training_algorithm=0
train_error_function=1
train_stop_function=0
cascade_output_change_fraction=0.010000
quickprop_decay=-0.000100
quickprop_mu=1.750000
rprop_increase_factor=1.200000
rprop_decrease_factor=0.500000
rprop_delta_min=0.000000
rprop_delta_max=50.000000
rprop_delta_zero=0.100000
cascade_output_stagnation_epochs=12
cascade_candidate_change_fraction=0.010000
cascade_candidate_stagnation_epochs=12
cascade_max_out_epochs=150
cascade_max_cand_epochs=150
cascade_num_candidate_groups=2
bit_fail_limit=3.49999999999999977796e-01
cascade_candidate_limit=1.00000000000000000000e+03
cascade_weight_multiplier=4.00000000000000022204e-01
cascade_activation_functions_count=10
cascade_activation_functions=3 5 7 8 10 11 14 15 16 17 
cascade_activation_steepnesses_count=4
cascade_activation_steepnesses=2.50000000000000000000e-01 5.00000000000000000000e-01 7.50000000000000000000e-01 1.00000000000000000000e+00 
layer_sizes=553 111 4 
scale_included=0
neurons (num_inputs, activation_function, activation_steepness)=(0, 0, 0.00000000000000000000e+00) (0, 0, 0.00000000000000000000e+00) (0, 0, 0.00000000000000000000e+00) (0, 0, 0.00000000000000000000e+00) (0, 0, 0.00000000000000000000e+00) (0, 0, 0.00000000000000000000e+00) (0, 0, 0.00000000000000000000e+00) (0, 0, 0.00000000000000000000e+00) (0, 0, 0.00000000000000000000e+00) (0, 0, 0.00000000000000000000e+00) (0, 0, 0.00000000000000000000e+00) (0, 0, 0.00000000000000000000e+00) (0, 0, 0.00000000000000000000e+00) (0, 0, 0.00000000000000000000e+00) (0, 0, 0.00000000000000000000e+00) (0, 0, 0.00000000000000000000e+00) (0, 0, 0.00000000000000000000e+00) (0, 0, 0.00000000000000000000e+00) (0, 0, 0.00000000000000000000e+00) (0, 0, 0.00000000000000000000e+00) (0, 0, 0.00000000000000000000e+00) (0, 0, 0.00000000000000000000e+00) (0, 0, 0.00000000000000000000e+00) (0, 0, 0.00000000000000000000e+00) (0, 0, 0.00000000000000000000e+00) (0, 0, 0.00000000000000000000e+00) (0, 0, 0.00000000000000000000e+00) (0, 0, 0.00000000000000000000e+00) (0, 0, 0.00000000000000000000e+00) (0, 0, 0.00000000000000000000e+00) (0, 0, 0.00000000000000000000e+00) (0, 0, 0.00000000000000000000e+00) (0, 0, 0.00000000000000000000e+00) (0, 0, 0.00000000000000000000e+00) (0, 0, 0.00000000000000000000e+00) (0, 0, 0.00000000000000000000e+00) (0, 0, 0.00000000000000000000e+00) (0, 0, 0.00000000000000000000e+00) (0, 0, 0.00000000000000000000e+00) (0, 0, 0.00000000000000000000e+00) (0, 0, 0.00000000000000000000e+00) (0, 0, 0.00000000000000000000e+00) (0, 0, 0.00000000000000000000e+00) (0, 0, 0.00000000000000000000e+00) (0, 0, 0.00000000000000000000e+00) (0, 0, 0.00000000000000000000e+00) (0, 0, 0.00000000000000000000e+00) (0, 0, 0.00000000000000000000e+00) (0, 0, 0.00000000000000000000e+00) (0, 0, 0.00000000000000000000e+00) (0, 0, 0.00000000000000000000e+00) (0, 0, 0.00000000000000000000e+00) (0, 0, 0.00000000000000000000e+00) (0, 0, 0.00000000000000000000e+00) (0, 0, 0.00000000000000000000e+00) (0, 0, 0.00000000000000000000e+00) (0, 0, 0.00000000000000000000e+00) (0, 0, 0.00000000000000000000e+00) (0, 0, 0.00000000000000000000e+00) (0, 0, 0.00000000000000000000e+00) (0, 0, 0.00000000000000000000e+00) (0, 0, 0.00000000000000000000e+00) (0, 0, 0.00000000000000000000e+00) (0, 0, 0.00000000000000000000e+00) (0, 0, 0.00000000000000000000e+00) (0, 0, 0.00000000000000000000e+00) (0, 0, 0.00000000000000000000e+00) (0, 0, 0.00000000000000000000e+00) (0, 0, 0.00000000000000000000e+00) (0, 0, 0.00000000000000000000e+00) (0, 0, 0.00000000000000000000e+00) (0, 0, 0.00000000000000000000e+00) (0, 0, 0.00000000000000000000e+00) (0, 0, 0.00000000000000000000e+00) (0, 0, 0.00000000000000000000e+00) (0, 0, 0.00000000000000000000e+00) (0, 0, 0.00000000000000000000e+00) (0, 0, 0.00000000000000000000e+00) (0, 0, 0.00000000000000000000e+00) (0, 0, 0.00000000000000000000e+00) (0, 0, 0.00000000000000000000e+00) (0, 0, 0.00000000000000000000e+00) (0, 0, 0.00000000000000000000e+00) (0, 0, 0.00000000000000000000e+00) (0, 0, 0.00000000000000000000e+00) (0, 0, 0.00000000000000000000e+00) (0, 0, 0.00000000000000000000e+00) (0, 0, 0.00000000000000000000e+00) (0, 0, 0.00000000000000000000e+00) (0, 0, 0.00000000000000000000e+00) (0, 0, 0.00000000000000000000e+00) (0, 0, 0.00000000000000000000e+00) (0, 0, 0.00000000000000000000e+00) (0, 0, 0.00000000000000000000e+00) (0, 0, 0.00000000000000000000e+00) (0, 0, 0.00000000000000000000e+00) (0, 0, 0.00000000000000000000e+00) (0, 0, 0.00000000000000000000e+00) (0, 0, 0.00000000000000000000e+00) (0, 0, 0.00000000000000000000e+00) (0, 0, 0.00000000000000000000e+00) (0, 0, 0.00000000000000000000e+00) (0, 0, 0.00000000000000000000e+00) (0, 0, 0.00000000000000000000e+00) (0, 0, 0.00000000000000000000e+00) (0, 0, 0.00000000000000000000e+00) (0, 0, 0.00000000000000000000e+00) (0, 0, 0.00000000000000000000e+00) (0, 0, 0.00000000000000000000e+00) (0, 0, 0.00000000000000000000e+00) (0, 0, 0.00000000000000000000e+00) (0, 0, 0.00000000000000000000e+00) (0, 0, 0.00000000000000000000e+00) (0, 0, 0.00000000000000000000e+00) (0, 0, 0.00000000000000000000e+00) (0, 0, 0.00000000000000000000e+00) (0, 0, 0.00000000000000000000e+00) (0, 0, 0.00000000000000000000e+00) (0, 0, 0.00000000000000000000e+00) (0, 0, 0.00000000000000000000e+00) (0, 0, 0.00000000000000000000e+00) (0, 0, 0.00000000000000000000e+00) (0, 0, 0.00000000000000000000e+00) (0, 0, 0.00000000000000000000e+00) (0, 0, 0.00000000000000000000e+00) (0, 0, 0.00000000000000000000e+00) (0, 0, 0.00000000000000000000e+00) (0, 0, 0.00000000000000000000e+00) (0, 0, 0.00000000000000000000e+00) (0, 0, 0.00000000000000000000e+00) (0, 0, 0.00000000000000000000e+00) (0, 0, 0.00000000000000000000e+00) (0, 0, 0.00000000000000000000e+00) (0, 0, 0.00000000000000000000e+00) (0, 0, 0.00000000000000000000e+00) (0, 0, 0.00000000000000000000e+00) (0, 0, 0.00000000000000000000e+00) (0, 0, 0.00000000000000000000e+00) (0, 0, 0.00000000000000000000e+00) (0, 0, 0.00000000000000000000e+00) (0, 0, 0.00000000000000000000e+00) (0, 0, 0.00000000000000000000e+00) (0, 0, 0.00000000000000000000e+00) (0, 0, 0.00000000000000000000e+00) (0, 0, 0.00000000000000000000e+00) (0, 0, 0.00000000000000000000e+00) (0, 0, 0.00000000000000000000e+00) (0, 0, 0.00000000000000000000e+00) (0, 0, 0.00000000000000000000e+00) (0, 0, 0.00000000000000000000e+00) (0, 0, 0.00000000000000000000e+00) (0, 0, 0.00000000000000000000e+00) (0, 0, 0.00000000000000000000e+00) (0, 0, 0.00000000000000000000e+00) (0, 0, 0.00000000000000000000e+00) (0, 0, 0.00000000000000000000e+00) (0, 0, 0.00000000000000000000e+00) (0, 0, 0.00000000000000000000e+00) (0, 0, 0.00000000000000000000e+00) (0, 0, 0.00000000000000000000e+00) (0, 0, 0.00000000000000000000e+00) (0, 0, 0.00000000000000000000e+00) (0, 0, 0.00000000000000000000e+00) (0, 0, 0.00000000000000000000e+00) (0, 0, 0.00000000000000000000e+00) (0, 0, 0.00000000000000000000e+00) (0, 0, 0.00000000000000000000e+00) (0, 0, 0.00000000000000000000e+00) (0, 0, 0.00000000000000000000e+00) (0, 0, 0.00000000000000000000e+00) (0, 0, 0.00000000000000000000e+00) (0, 0, 0.00000000000000000000e+00) (0, 0, 0.00000000000000000000e+00) (0, 0, 0.00000000000000000000e+00) (0, 0, 0.00000000000000000000e+00) (0, 0, 0.00000000000000000000e+00) (0, 0, 0.00000000000000000000e+00) (0, 0, 0.00000000000000000000e+00) (0, 0, 0.00000000000000000000e+00) (0, 0, 0.00000000000000000000e+00) (0, 0, 0.00000000000000000000e+00) (0, 0, 0.00000000000000000000e+00) (0, 0, 0.00000000000000000000e+00) (0, 0, 0.00000000000000000000e+00) (0, 0, 0.00000000000000000000e+00) (0, 0, 0.00000000000000000000e+00) (0, 0, 0.00000000000000000000e+00) (0, 0, 0.00000000000000000000e+00) (0, 0, 0.00000000000000000000e+00) (0, 0, 0.00000000000000000000e+00) (0, 0, 0.00000000000000000000e+00) (0, 0, 0.00000000000000000000e+00) (0, 0, 0.00000000000000000000e+00) (0, 0, 0.00000000000000000000e+00) (0, 0, 0.00000000000000000000e+00) (0, 0, 0.00000000000000000000e+00) (0, 0, 0.00000000000000000000e+00) (0, 0, 0.00000000000000000000e+00) (0, 0, 0.00000000000000000000e+00) (0, 0, 0.00000000000000000000e+00) (0, 0, 0.00000000000000000000e+00) (0, 0, 0.00000000000000000000e+00) (0, 0, 0.00000000000000000000e+00) (0, 0, 0.00000000000000000000e+00) (0, 0, 0.00000000000000000000e+00) (0, 0, 0.00000000000000000000e+00) (0, 0, 0.00000000000000000000e+00) (0, 0, 0.00000000000000000000e+00) (0, 0, 0.00000000000000000000e+00) (0, 0, 0.00000000000000000000e+00) (0, 0, 0.00000000000000000000e+00) (0, 0, 0.00000000000000000000e+00) (0, 0, 0.00000000000000000000e+00) (0, 0, 0.00000000000000000000e+00) (0, 0, 0.00000000000000000000e+00) (0, 0, 0.00000000000000000000e+00) (0, 0, 0.00000000000000000000e+00) (0, 0, 0.00000000000000000000e+00) (0, 0, 0.00000000000000000000e+00) (0, 0, 0.00000000000000000000e+00) (0, 0, 0.00000000000000000000e+00) (0, 0, 0.00000000000000000000e+00) (0, 0, 0.00000000000000000000e+00) (0, 0, 0.00000000000000000000e+00) (0, 0, 0.00000000000000000000e+00) (0, 0, 0.00000000000000000000e+00) (0, 0, 0.00000000000000000000e+00) (0, 0, 0.00000000000000000000e+00) (0, 0, 0.00000000000000000000e+00) (0, 0, 0.00000000000000000000e+00) (0, 0, 0.00000000000000000000e+00) (0, 0, 0.00000000000000000000e+00) (0, 0, 0.00000000000000000000e+00) (0, 0, 0.00000000000000000000e+00) (0, 0, 0.00000000000000000000e+00) (0, 0, 0.00000000000000000000e+00) (0, 0, 0.00000000000000000000e+00) (0, 0, 0.00000000000000000000e+00) (0, 0, 0.00000000000000000000e+00) (0, 0, 0.00000000000000000000e+00) (0, 0, 0.00000000000000000000e+00) (0, 0, 0.00000000000000000000e+00) (0, 0, 0.00000000000000000000e+00) (0, 0, 0.00000000000000000000e+00) (0, 0, 0.00000000000000000000e+00) (0, 0, 0.00000000000000000000e+00) (0, 0, 0.00000000000000000000e+00) (0, 0, 0.00000000000000000000e+00) (0, 0, 0.00000000000000000000e+00) (0, 0, 0.00000000000000000000e+00) (0, 0, 0.00000000000000000000e+00) (0, 0, 0.00000000000000000000e+00) (0, 0, 0.00000000000000000000e+00) (0, 0, 0.00000000000000000000e+00) (0, 0, 0.00000000000000000000e+00) (0, 0, 0.00000000000000000000e+00) (0, 0, 0.00000000000000000000e+00) (0, 0, 0.00000000000000000000e+00) (0, 0, 0.00000000000000000000e+00) (0, 0, 0.00000000000000000000e+00) (0, 0, 0.00000000000000000000e+00) (0, 0, 0.00000000000000000000e+00) (0, 0, 0.00000000000000000000e+00) (0, 0, 0.00000000000000000000e+00) (0, 0, 0.00000000000000000000e+00) (0, 0, 0.00000000000000000000e+00) (0, 0, 0.00000000000000000000e+00) (0, 0, 0.00000000000000000000e+00) (0, 0, 0.00000000000000000000e+00) (0, 0, 0.00000000000000000000e+00) (0, 0, 0.00000000000000000000e+00) (0, 0, 0.00000000000000000000e+00) (0, 0, 0.00000000000000000000e+00) (0, 0, 0.00000000000000000000e+00) (0, 0, 0.00000000000000000000e+00) (0, 0, 0.00000000000000000000e+00) (0, 0, 0.00000000000000000000e+00) (0, 0, 0.00000000000000000000e+00) (0, 0, 0.00000000000000000000e+00) (0, 0, 0.00000000000000000000e+00) (0, 0, 0.00000000000000000000e+00) (0, 0, 0.00000000000000000000e+00) (0, 0, 0.00000000000000000000e+00) (0, 0, 0.00000000000000000000e+00) (0, 0, 0.00000000000000000000e+00) (0, 0, 0.00000000000000000000e+00) (0, 0, 0.00000000000000000000e+00) (0, 0, 0.00000000000000000000e+00) (0, 0, 0.00000000000000000000e+00) (0, 0, 0.00000000000000000000e+00) (0, 0, 0.00000000000000000000e+00) (0, 0, 0.00000000000000000000e+00) (0, 0, 0.00000000000000000000e+00) (0, 0, 0.00000000000000000000e+00) (0, 0, 0.00000000000000000000e+00) (0, 0, 0.00000000000000000000e+00) (0, 0, 0.00000000000000000000e+00) (0, 0, 0.00000000000000000000e+00) (0, 0, 0.00000000000000000000e+00) (0, 0, 0.00000000000000000000e+00) (0, 0, 0.00000000000000000000e+00) (0, 0, 0.00000000000000000000e+00) (0, 0, 0.00000000000000000000e+00) (0, 0, 0.00000000000000000000e+00) (0, 0, 0.00000000000000000000e+00) (0, 0, 0.00000000000000000000e+00) (0, 0, 0.00000000000000000000e+00) (0, 0, 0.00000000000000000000e+00) (0, 0, 0.00000000000000000000e+00) (0, 0, 0.00000000000000000000e+00) (0, 0, 0.00000000000000000000e+00) (0, 0, 0.00000000000000000000e+00) (0, 0, 0.00000000000000000000e+00) (0, 0, 0.00000000000000000000e+00) (0, 0, 0.00000000000000000000e+00) (0, 0, 0.00000000000000000000e+00) (0, 0, 0.00000000000000000000e+00) (0, 0, 0.00000000000000000000e+00) (0, 0, 0.00000000000000000000e+00) (0, 0, 0.00000000000000000000e+00) (0, 0, 0.00000000000000000000e+00) (0, 0, 0.00000000000000000000e+00) (0, 0, 0.00000000000000000000e+00) (0, 0, 0.00000000000000000000e+00) (0, 0, 0.00000000000000000000e+00) (0, 0, 0.00000000000000000000e+00) (0, 0, 0.00000000000000000000e+00) (0, 0, 0.00000000000000000000e+00) (0, 0, 0.00000000000000000000e+00) (0, 0, 0.00000000000000000000e+00) (0, 0, 0.00000000000000000000e+00) (0, 0, 0.00000000000000000000e+00) (0, 0, 0.00000000000000000000e+00) (0, 0, 0.00000000000000000000e+00) (0, 0, 0.00000000000000000000e+00) (0, 0, 0.00000000000000000000e+00) (0, 0, 0.00000000000000000000e+00) (0, 0, 0.00000000000000000000e+00) (0, 0, 0.00000000000000000000e+00) (0, 0, 0.00000000000000000000e+00) (0, 0, 0.00000000000000000000e+00) (0, 0, 0.00000000000000000000e+00) (0, 0, 0.00000000000000000000e+00) (0, 0, 0.00000000000000000000e+00) (0, 0, 0.00000000000000000000e+00) (0, 0, 0.00000000000000000000e+00) (0, 0, 0.00000000000000000000e+00) (0, 0, 0.00000000000000000000e+00) (0, 0, 0.00000000000000000000e+00) (0, 0, 0.00000000000000000000e+00) (0, 0, 0.00000000000000000000e+00) (0, 0, 0.00000000000000000000e+00) (0, 0, 0.00000000000000000000e+00) (0, 0, 0.00000000000000000000e+00) (0, 0, 0.00000000000000000000e+00) (0, 0, 0.00000000000000000000e+00) (0, 0, 0.00000000000000000000e+00) (0, 0, 0.00000000000000000000e+00) (0, 0, 0.00000000000000000000e+00) (0, 0, 0.00000000000000000000e+00) (0, 0, 0.00000000000000000000e+00) (0, 0, 0.00000000000000000000e+00) (0, 0, 0.00000000000000000000e+00) (0, 0, 0.00000000000000000000e+00) (0, 0, 0.00000000000000000000e+00) (0, 0, 0.00000000000000000000e+00) (0, 0, 0.00000000000000000000e+00) (0, 0, 0.00000000000000000000e+00) (0, 0, 0.00000000000000000000e+00) (0, 0, 0.00000000000000000000e+00) (0, 0, 0.00000000000000000000e+00) (0, 0, 0.00000000000000000000e+00) (0, 0, 0.00000000000000000000e+00) (0, 0, 0.00000000000000000000e+00) (0, 0, 0.00000000000000000000e+00) (0, 0, 0.00000000000000000000e+00) (0, 0, 0.00000000000000000000e+00) (0, 0, 0.00000000000000000000e+00) (0, 0, 0.00000000000000000000e+00) (0, 0, 0.00000000000000000000e+00) (0, 0, 0.00000000000000000000e+00) (0, 0, 0.00000000000000000000e+00) (0, 0, 0.00000000000000000000e+00) (0, 0, 0.00000000000000000000e+00) (0, 0, 0.00000000000000000000e+00) (0, 0, 0.00000000000000000000e+00) (0, 0, 0.00000000000000000000e+00) (0, 0, 0.00000000000000000000e+00) (0, 0, 0.00000000000000000000e+00) (0, 0, 0.00000000000000000000e+00) (0, 0, 0.00000000000000000000e+00) (0, 0, 0.00000000000000000000e+00) (0, 0, 0.00000000000000000000e+00) (0, 0, 0.00000000000000000000e+00) (0, 0, 0.00000000000000000000e+00) (0, 0, 0.00000000000000000000e+00) (0, 0, 0.00000000000000000000e+00) (0, 0, 0.00000000000000000000e+00) (0, 0, 0.00000000000000000000e+00) (0, 0, 0.00000000000000000000e+00) (0, 0, 0.00000000000000000000e+00) (0, 0, 0.00000000000000000000e+00) (0, 0, 0.00000000000000000000e+00) (0, 0, 0.00000000000000000000e+00) (0, 0, 0.00000000000000000000e+00) (0, 0, 0.00000000000000000000e+00) (0, 0, 0.00000000000000000000e+00) (0, 0, 0.00000000000000000000e+00) (0, 0, 0.00000000000000000000e+00) (0, 0, 0.00000000000000000000e+00) (0, 0, 0.00000000000000000000e+00) (0, 0, 0.00000000000000000000e+00) (0, 0, 0.00000000000000000000e+00) (0, 0, 0.00000000000000000000e+00) (0, 0, 0.00000000000000000000e+00) (0, 0, 0.00000000000000000000e+00) (0, 0, 0.00000000000000000000e+00) (0, 0, 0.00000000000000000000e+00) (0, 0, 0.00000000000000000000e+00) (0, 0, 0.00000000000000000000e+00) (0, 0, 0.00000000000000000000e+00) (0, 0, 0.00000000000000000000e+00) (0, 0, 0.00000000000000000000e+00) (0, 0, 0.00000000000000000000e+00) (0, 0, 0.00000000000000000000e+00) (0, 0, 0.00000000000000000000e+00) (0, 0, 0.00000000000000000000e+00) (0, 0, 0.00000000000000000000e+00) (0, 0, 0.00000000000000000000e+00) (0, 0, 0.00000000000000000000e+00) (0, 0, 0.00000000000000000000e+00) (0, 0, 0.00000000000000000000e+00) (0, 0, 0.00000000000000000000e+00) (0, 0, 0.00000000000000000000e+00) (0, 0, 0.00000000000000000000e+00) (0, 0, 0.00000000000000000000e+00) (0, 0, 0.00000000000000000000e+00) (0, 0, 0.00000000000000000000e+00) (0, 0, 0.00000000000000000000e+00) (0, 0, 0.00000000000000000000e+00) (0, 0, 0.00000000000000000000e+00) (0, 0, 0.00000000000000000000e+00) (0, 0, 0.00000000000000000000e+00) (0, 0, 0.00000000000000000000e+00) (0, 0, 0.00000000000000000000e+00) (0, 0, 0.00000000000000000000e+00) (0, 0, 0.00000000000000000000e+00) (0, 0, 0.00000000000000000000e+00) (0, 0, 0.00000000000000000000e+00) (0, 0, 0.00000000000000000000e+00) (0, 0, 0.00000000000000000000e+00) (0, 0, 0.00000000000000000000e+00) (0, 0, 0.00000000000000000000e+00) (0, 0, 0.00000000000000000000e+00) (0, 0, 0.00000000000000000000e+00) (0, 0, 0.00000000000000000000e+00) (0, 0, 0.00000000000000000000e+00) (0, 0, 0.00000000000000000000e+00) (0, 0, 0.00000000000000000000e+00) (0, 0, 0.00000000000000000000e+00) (0, 0, 0.00000000000000000000e+00) (0, 0, 0.00000000000000000000e+00) (0, 0, 0.00000000000000000000e+00) (0, 0, 0.00000000000000000000e+00) (0, 0, 0.00000000000000000000e+00) (0, 0, 0.00000000000000000000e+00) (0, 0, 0.00000000000000000000e+00) (0, 0, 0.00000000000000000000e+00) (0, 0, 0.00000000000000000000e+00) (0, 0, 0.00000000000000000000e+00) (0, 0, 0.00000000000000000000e+00) (0, 0, 0.00000000000000000000e+00) (0, 0, 0.00000000000000000000e+00) (0, 0, 0.00000000000000000000e+00) (0, 0, 0.00000000000000000000e+00) (0, 0, 0.00000000000000000000e+00) (0, 0, 0.00000000000000000000e+00) (0, 0, 0.00000000000000000000e+00) (0, 0, 0.00000000000000000000e+00) (0, 0, 0.00000000000000000000e+00) (0, 0, 0.00000000000000000000e+00) (0, 0, 0.00000000000000000000e+00) (0, 0, 0.00000000000000000000e+00) (0, 0, 0.00000000000000000000e+00) (0, 0, 0.00000000000000000000e+00) (0, 0, 0.00000000000000000000e+00) (0, 0, 0.00000000000000000000e+00) (0, 0, 0.00000000000000000000e+00) (0, 0, 0.00000000000000000000e+00) (0, 0, 0.00000000000000000000e+00) (0, 0, 0.00000000000000000000e+00) (0, 0, 0.00000000000000000000e+00) (0, 0, 0.00000000000000000000e+00) (0, 0, 0.00000000000000000000e+00) (0, 0, 0.00000000000000000000e+00) (0, 0, 0.00000000000000000000e+00) (0, 0, 0.00000000000000000000e+00) (0, 0, 0.00000000000000000000e+00) (0, 0, 0.00000000000000000000e+00) (0, 0, 0.00000000000000000000e+00) (0, 0, 0.00000000000000000000e+00) (0, 0, 0.00000000000000000000e+00) (0, 0, 0.00000000000000000000e+00) (0, 0, 0.00000000000000000000e+00) (0, 0, 0.00000000000000000000e+00) (0, 0, 0.00000000000000000000e+00) (0, 0, 0.00000000000000000000e+00) (0, 0, 0.00000000000000000000e+00) (0, 0, 0.00000000000000000000e+00) (0, 0, 0.00000000000000000000e+00) (0, 0, 0.00000000000000000000e+00) (0, 0, 0.00000000000000000000e+00) (0, 0, 0.00000000000000000000e+00) (0, 0, 0.00000000000000000000e+00) (0, 0, 0.00000000000000000000e+00) (0, 0, 0.00000000000000000000e+00) (0, 0, 0.00000000000000000000e+00) (0, 0, 0.00000000000000000000e+00) (0, 0, 0.00000000000000000000e+00) (0, 0, 0.00000000000000000000e+00) (0, 0, 0.00000000000000000000e+00) (0, 0, 0.00000000000000000000e+00) (0, 0, 0.00000000000000000000e+00) (0, 0, 0.00000000000000000000e+00) (0, 0, 0.00000000000000000000e+00) (0, 0, 0.00000000000000000000e+00) (0, 0, 0.00000000000000000000e+00) (0, 0, 0.00000000000000000000e+00) (0, 0, 0.00000000000000000000e+00) (0, 0, 0.00000000000000000000e+00) (0, 0, 0.00000000000000000000e+00) (0, 0, 0.00000000000000000000e+00) (0, 0, 0.00000000000000000000e+00) (0, 0, 0.00000000000000000000e+00) (0, 0, 0.00000000000000000000e+00) (0, 0, 0.00000000000000000000e+00) (0, 0, 0.00000000000000000000e+00) (0, 0, 0.00000000000000000000e+00) (0, 0, 0.00000000000000000000e+00) (0, 0, 0.00000000000000000000e+00) (0, 0, 0.00000000000000000000e+00) (0, 0, 0.00000000000000000000e+00) (0, 0, 0.00000000000000000000e+00) (0, 0, 0.00000000000000000000e+00) (0, 0, 0.00000000000000000000e+00) (0, 0, 0.00000000000000000000e+00) (0, 0, 0.00000000000000000000e+00) (0, 0, 0.00000000000000000000e+00) (0, 0, 0.00000000000000000000e+00) (0, 0, 0.00000000000000000000e+00) (0, 0, 0.00000000000000000000e+00) (0, 0, 0.00000000000000000000e+00) (0, 0, 0.00000000000000000000e+00) (553, 3, 5.00000000000000000000e-01) (553, 3, 5.00000000000000000000e-01) (553, 3, 5.00000000000000000000e-01) (553, 3, 5.00000000000000000000e-01) (553, 3, 5.00000000000000000000e-01) (553, 3, 5.00000000000000000000e-01) (553, 3, 5.00000000000000000000e-01) (553, 3, 5.00000000000000000000e-01) (553, 3, 5.00000000000000000000e-01) (553, 3, 5.00000000000000000000e-01) (553, 3, 5.00000000000000000000e-01) (553, 3, 5.00000000000000000000e-01) (553, 3, 5.00000000000000000000e-01) (553, 3, 5.00000000000000000000e-01) (553, 3, 5.00000000000000000000e-01) (553, 3, 5.00000000000000000000e-01) (553, 3, 5.00000000000000000000e-01) (553, 3, 5.00000000000000000000e-01) (553, 3, 5.00000000000000000000e-01) (553, 3, 5.00000000000000000000e-01) (553, 3, 5.00000000000000000000e-01) (553, 3, 5.00000000000000000000e-01) (553, 3, 5.00000000000000000000e-01) (553, 3, 5.00000000000000000000e-01) (553, 3, 5.00000000000000000000e-01) (553, 3, 5.00000000000000000000e-01) (553, 3, 5.00000000000000000000e-01) (553, 3, 5.00000000000000000000e-01) (553, 3, 5.00000000000000000000e-01) (553, 3, 5.00000000000000000000e-01) (553, 3, 5.00000000000000000000e-01) (553, 3, 5.00000000000000000000e-01) (553, 3, 5.00000000000000000000e-01) (553, 3, 5.00000000000000000000e-01) (553, 3, 5.00000000000000000000e-01) (553, 3, 5.00000000000000000000e-01) (553, 3, 5.00000000000000000000e-01) (553, 3, 5.00000000000000000000e-01) (553, 3, 5.00000000000000000000e-01) (553, 3, 5.00000000000000000000e-01) (553, 3, 5.00000000000000000000e-01) (553, 3, 5.00000000000000000000e-01) (553, 3, 5.00000000000000000000e-01) (553, 3, 5.00000000000000000000e-01) (553, 3, 5.00000000000000000000e-01) (553, 3, 5.00000000000000000000e-01) (553, 3, 5.00000000000000000000e-01) (553, 3, 5.00000000000000000000e-01) (553, 3, 5.00000000000000000000e-01) (553, 3, 5.00000000000000000000e-01) (553, 3, 5.00000000000000000000e-01) (553, 3, 5.00000000000000000000e-01) (553, 3, 5.00000000000000000000e-01) (553, 3, 5.00000000000000000000e-01) (553, 3, 5.00000000000000000000e-01) (553, 3, 5.00000000000000000000e-01) (553, 3, 5.00000000000000000000e-01) (553, 3, 5.00000000000000000000e-01) (553, 3, 5.00000000000000000000e-01) (553, 3, 5.00000000000000000000e-01) (553, 3, 5.00000000000000000000e-01) (553, 3, 5.00000000000000000000e-01) (553, 3, 5.00000000000000000000e-01) (553, 3, 5.00000000000000000000e-01) (553, 3, 5.00000000000000000000e-01) (553, 3, 5.00000000000000000000e-01) (553, 3, 5.00000000000000000000e-01) (553, 3, 5.00000000000000000000e-01) (553, 3, 5.00000000000000000000e-01) (553, 3, 5.00000000000000000000e-01) (553, 3, 5.00000000000000000000e-01) (553, 3, 5.00000000000000000000e-01) (553, 3, 5.00000000000000000000e-01) (553, 3, 5.00000000000000000000e-01) (553, 3, 5.00000000000000000000e-01) (553, 3, 5.00000000000000000000e-01) (553, 3, 5.00000000000000000000e-01) (553, 3, 5.00000000000000000000e-01) (553, 3, 5.00000000000000000000e-01) (553, 3, 5.00000000000000000000e-01) (553, 3, 5.00000000000000000000e-01) (553, 3, 5.00000000000000000000e-01) (553, 3, 5.00000000000000000000e-01) (553, 3, 5.00000000000000000000e-01) (553, 3, 5.00000000000000000000e-01) (553, 3, 5.00000000000000000000e-01) (553, 3, 5.00000000000000000000e-01) (553, 3, 5.00000000000000000000e-01) (553, 3, 5.00000000000000000000e-01) (553, 3, 5.00000000000000000000e-01) (553, 3, 5.00000000000000000000e-01) (553, 3, 5.00000000000000000000e-01) (553, 3, 5.00000000000000000000e-01) (553, 3, 5.00000000000000000000e-01) (553, 3, 5.00000000000000000000e-01) (553, 3, 5.00000000000000000000e-01) (553, 3, 5.00000000000000000000e-01) (553, 3, 5.00000000000000000000e-01) (553, 3, 5.00000000000000000000e-01) (553, 3, 5.00000000000000000000e-01) (553, 3, 5.00000000000000000000e-01) (553, 3, 5.00000000000000000000e-01) (553, 3, 5.00000000000000000000e-01) (553, 3, 5.00000000000000000000e-01) (553, 3, 5.00000000000000000000e-01) (553, 3, 5.00000000000000000000e-01) (553, 3, 5.00000000000000000000e-01) (553, 3, 5.00000000000000000000e-01) (553, 3, 5.00000000000000000000e-01) (553, 3, 5.00000000000000000000e-01) (0, 3, 0.00000000000000000000e+00) (111, 3, 5.00000000000000000000e-01) (111, 3, 5.00000000000000000000e-01) (111, 3, 5.00000000000000000000e-01) (0, 3, 0.00000000000000000000e+00) 
connections (connected_to_neuron, weight)=(0, -2.14901270415023305793e-02) (1, -1.26442243258369391157e-01) (2, 2.91256672184982915580e-03) (3, -1.43604503957173640361e-01) (4, 5.03795949156390920898e-02) (5, -1.78951970596908732647e-01) (6, -9.12522623467571930567e-02) (7, -9.88473957362731026066e-02) (8, -2.16241639510892702525e-01) (9, 3.83139318954493143798e-02) (10, 1.11676067323319597180e-01) (11, -1.31035148630978121043e-01) (12, 1.32974643979514639547e-01) (13, 1.08918700217403546793e-01) (14, 4.99336821389893617540e-02) (15, 5.03586289971545558730e-02) (16, 5.53782649132083214238e-03) (17, -8.26808569299843920675e-02) (18, -3.61326575124391313754e-02) (19, -7.79390115069464057412e-03) (20, 2.42921242855472591105e-01) (21, 1.14608272057941718014e-01) (22, 2.61965843675306883642e-02) (23, -1.30006395115457112910e-01) (24, 2.85009775296883732798e-02) (25, -7.82688276633311946773e-02) (26, 1.21406881015663298262e-01) (27, 7.36352606311203305989e-02) (28, 3.17550700951003267436e-02) (29, -1.25447635563393472546e-01) (30, 4.94607048952897809801e-02) (31, 6.58181606452155898435e-02) (32, -1.43305164969046411327e-01) (33, -6.44775250371439900832e-02) (34, -9.86392165346730923070e-03) (35, -1.39005177522120049183e-01) (36, 2.61401667021319075723e-02) (37, 1.94670924755688569407e-02) (38, -7.37047777516711688506e-02) (39, 4.72386304843514237550e-02) (40, -1.06517858538590484696e-01) (41, -9.78656037890293234449e-02) (42, -1.77257136111385778243e-02) (43, -1.16895249423583397208e-01) (44, 1.61827534360142466507e-01) (45, 2.06344575784933592644e-02) (46, 3.97555419373015681006e-02) (47, 2.57739424307637660094e-02) (48, 4.27231645581817379154e-02) (49, -3.95777119813510297464e-02) (50, -1.36741751503362096720e-01) (51, -2.27222452536774005560e-01) (52, 8.97002386863168521547e-02) (53, -5.32248037883758101652e-02) (54, -1.46277398227396465691e-01) (55, -5.45507587591274011041e-03) (56, -2.28364125512912297111e-01) (57, 7.44069555045259317660e-02) (58, 1.31892664209588311719e-01) (59, -1.46320273199254197172e-01) (60, 1.23896669698521949554e-01) (61, 1.21619750186768196820e-01) (62, -1.57555957037038452118e-01) (63, 2.17766110763204442935e-02) (64, 3.27137434677463520560e-02) (65, 5.46595714945507099580e-02) (66, -4.88698578379669484884e-02) (67, 2.29580448814832825677e-02) (68, 1.54319923974840622627e-01) (69, 1.28826759898162834794e-01) (70, 9.95730072471482513530e-02) (71, -1.08679880103320025686e-01) (72, -7.09142184894882565693e-02) (73, -1.83388442296576720247e-01) (74, -1.69659885483008504581e-02) (75, -1.86911762495663991146e-01) (76, 3.09846140434056173743e-03) (77, 2.18195465344986593015e-02) (78, -2.20117529900132613552e-01) (79, 2.26565880592390245241e-01) (80, -1.46442914643523242058e-01) (81, 7.81578385594024066529e-02) (82, 2.53176211138243567600e-01) (83, -2.88493692575103100051e-01) (84, 2.29800060774822789700e-01) (85, -9.07657429977218738193e-02) (86, -6.48582799928226500646e-03) (87, -3.43826175380861492892e-02) (88, 8.91387643878298330247e-02) (89, -1.24785603103008922721e-02) (90, 2.87272916176490172857e-02) (91, 2.60451984365318300885e-01) (92, -1.08289050272225989557e-01) (93, 3.43979850536580908371e-02) (94, 4.97228366941848826110e-02) (95, -1.23066397160923018950e-01) (96, 4.66310173168713662517e-02) (97, 2.94147412311270093493e-03) (98, 2.03811863811835490556e-02) (99, -1.34359071298275900563e-01) (100, -9.78452893743194523912e-03) (101, 9.02906799684363714498e-02) (102, -1.18093174971075562385e-01) (103, 1.58354627094161454215e-01) (104, -2.09154112088407645453e-01) (105, 3.99114816213957598889e-02) (106, -1.90093871326473592281e-03) (107, -6.75655991353762835905e-02) (108, -8.10359749837814748868e-04) (109, -7.53819660654919815324e-02) (110, -1.19909209590965890047e-01) (111, 5.45414879965177082366e-02) (112, -2.33579902712968863476e-02) (113, 2.96053309354136380549e-02) (114, -1.59478663894017352876e-01) (115, 1.54087007452559571208e-01) (116, -6.27787097958915490947e-02) (117, 3.72367069273127279661e-02) (118, 1.72399980452914908247e-01) (119, -8.12506000835963304585e-02) (120, 4.66304581230312653606e-02) (121, 7.06269775333493721181e-02) (122, -2.67856373361531271970e-03) (123, -2.39014130948406428034e-01) (124, 5.92998666319445658091e-02) (125, -8.00016513666214207356e-02) (126, -1.59926748237256194374e-01) (127, 1.78055823887354774948e-01) (128, 7.29453031282458613793e-02) (129, 5.36393499819087030134e-02) (130, 8.32566497454482884466e-02) (131, -1.21133267623666371349e-01) (132, 8.70119834670665392995e-02) (133, 1.86131021392941520265e-02) (134, -3.69775167025349835170e-02) (135, 3.85761169392581232396e-02) (136, 5.00359653358204634066e-02) (137, 6.45008106490030236335e-02) (138, 9.82489976865281028351e-02) (139, -2.73140372629377473079e-02) (140, -4.91709349548245730488e-02) (141, -1.31100018792724010153e-01) (142, -3.51473075047049280523e-03) (143, 3.33307394967872830382e-02) (144, 8.50855889352885169652e-02) (145, -1.76347495991742431176e-01) (146, -2.14707511195371875123e-01) (147, -2.28010806678120375723e-01) (148, -1.55058032878965773582e-01) (149, -2.33043315051213562050e-01) (150, -2.00733719984776237677e-01) (151, 3.21981054959737278409e-01) (152, 4.48182313711538715673e-02) (153, 8.18362864602040218642e-02) (154, -1.64823936099057315186e-02) (155, -9.13770294020035678262e-02) (156, -1.64831363455481272329e-02) (157, 2.22774924834638343718e-02) (158, 2.63363703971348055155e-02) (159, -1.15623512313576315425e-01) (160, -7.52381535151491337432e-02) (161, -1.11583998743828655131e-01) (162, 8.74233500955203107763e-02) (163, -4.36702379176013080753e-02) (164, -1.97723556189620897072e-01) (165, -1.52307838807552553551e-01) (166, 1.63769231285353818184e-02) (167, 2.50960783504660875365e-02) (168, -1.13299474011570394660e-01) (169, -9.37015853104517931760e-02) (170, -2.74406988621624069180e-02) (171, -1.58358048714746318941e-01) (172, -2.88045279513675714367e-02) (173, -2.38549058682891446104e-01) (174, -2.59936189228740233137e-01) (175, 1.54563888432179913357e-01) (176, -1.19939471854852680588e-01) (177, 1.43977191010613375655e-01) (178, 5.43120639310843422720e-02) (179, -1.24275023971819165158e-01) (180, 1.36620252364051869565e-01) (181, 6.10008513141271739577e-03) (182, -6.14013639915371792211e-02) (183, -1.67564025482391312782e-02) (184, -2.25105884408511244810e-02) (185, 9.49032176012635925177e-02) (186, 2.24442218559872709582e-02) (187, -3.15167480140106648356e-02) (188, -1.42947005733650323034e-01) (189, -6.89466290757774213915e-02) (190, 1.14644598664217306494e-01) (191, -1.97743373289256197181e-03) (192, 1.41575041417519812553e-02) (193, -1.08662583056350181554e-01) (194, -4.71915792489947943933e-02) (195, -1.74773817367591781380e-02) (196, -2.84335865301499797486e-02) (197, -1.17964429507236776007e-01) (198, -2.27637419415194330874e-01) (199, 2.98173217494896447555e-01) (200, 3.35402337094646632587e-02) (201, -2.69514275313746283491e-02) (202, 1.74095075038114638355e-01) (203, -2.15263714804991790341e-01) (204, 3.23273721060725743870e-02) (205, -6.46104371310867418854e-03) (206, -1.79390849463301228772e-02) (207, 1.89987583702090553905e-02) (208, 1.65866924071787456840e-02) (209, 6.75607412423975400850e-02) (210, 1.73344475958074652200e-02) (211, -1.27347332501247328951e-01) (212, -1.42198171770691245142e-01) (213, -1.38780062102671020163e-01) (214, 5.23369574201088191834e-02) (215, -5.74377292662599583939e-02) (216, 3.49450300068958330524e-02) (217, 4.87203824903164606219e-02) (218, -6.05939928486758649928e-02) (219, -2.02755653999383611552e-01) (220, -5.93788851670588035958e-02) (221, -2.59110431946014352356e-01) (222, -9.88217720700400592548e-02) (223, 2.67605406382189714432e-01) (224, -6.28341629430323733718e-02) (225, -1.29063757914150534223e-01) (226, 1.80128577514989729469e-01) (227, -4.80058666645108780835e-02) (228, 7.02482084692911123991e-02) (229, -1.04027525927187586285e-01) (230, 2.07075080899811886370e-01) (231, 3.15831366691126935731e-01) (232, 2.48358914304278921570e-01) (233, 2.24184739749396011455e-01) (234, 1.48057059427079053954e-02) (235, -2.97982028620206784719e-01) (236, -2.94054937112460779147e-01) (237, -5.90605123832633957526e-02) (238, 1.13643950588208336727e-01) (239, 4.83044144328294358659e-02) (240, -3.66454189032350404961e-03) (241, 5.88395239925548346749e-02) (242, 1.75549667149152099910e-01) (243, 3.24383615746654752066e-01) (244, -1.85164148932884464749e-01) (245, -1.32297038385944781824e-01) (246, 1.29832044436626381501e-01) (247, 2.72602942139657022924e-01) (248, -5.76824436512481733552e-02) (249, -2.17178212724466301875e-01) (250, 1.42757829194167018549e-01) (251, -2.34796737933704244283e-02) (252, -3.51267562886436804370e-02) (253, 1.62521018940495531879e-01) (254, 1.48735151587095104642e-01) (255, 3.89123066528841599077e-01) (256, -1.13025832569533302152e-01) (257, 1.61115183858567462272e-01) (258, -4.14055897911049727855e-02) (259, -3.37641941229264552771e-01) (260, -2.96176028702899551970e-01) (261, -5.83484896135735564560e-02) (262, 6.40017353054680160351e-02) (263, 2.56219766580363328412e-01) (264, -3.72152577873107728509e-03) (265, -1.59416014198376976285e-01) (266, 9.87347074922038103750e-02) (267, 2.83357523802208362274e-02) (268, 4.95687765064108040725e-02) (269, -1.53637734284443550070e-01) (270, 5.95925119148882007081e-02) (271, 2.87730353232967285548e-02) (272, -1.58299671967477656453e-01) (273, 1.21357629403732444895e-01) (274, 5.59077755051379798878e-01) (275, -1.71034081234114510028e-01) (276, 1.94584738239776344759e-01) (277, 4.35785285356228402343e-01) (278, -2.47603416205692400398e-01) (279, -6.53463476875305177005e-02) (280, -7.60664412425212377311e-02) (281, 4.75481412646901399621e-02) (282, 2.64692039813881840882e-01) (283, -1.94955999499888260607e-01) (284, -2.18871304473097549881e-01) (285, -4.10429220473946740344e-02) (286, -2.44142310778132330673e-02) (287, -8.97610783576965332031e-02) (288, -1.74092727112946071832e-01) (289, -1.13017905028606979734e-01) (290, -2.36985822714678689982e-01) (291, -7.62606413112068282079e-02) (292, 8.81464579900017447534e-02) (293, -1.02743940386051460512e-01) (294, -1.66021038696035794224e-01) (295, -7.22582195691908457658e-02) (296, -1.23860991557842012312e-01) (297, -1.59031013205541166267e-01) (298, 2.41065762418097628839e-01) (299, -1.04785757932780596025e-01) (300, 1.81818988507631076890e-02) (301, 2.65786984504575940491e-01) (302, 2.19379460725338287785e-01) (303, 2.41729149550098734722e-02) (304, 1.42567291173309532160e-02) (305, 1.03271119688372270407e-01) (306, 7.21265234459616232099e-03) (307, 3.07196362663647026814e-02) (308, -9.19214040847345092988e-03) (309, -9.36706921986685536741e-02) (310, -1.97078158759636801189e-01) (311, 2.99436124477848342185e-01) (312, -1.02721430213603040493e-01) (313, -1.12035113431233013248e-01) (314, 1.23104192305951445907e-01) (315, 1.82007223240918919460e-01) (316, 8.86450420294258335796e-03) (317, 9.08223730805385043308e-02) (318, 9.42878148094047630057e-02) (319, 4.35584763476232275647e-02) (320, 3.01422810540910683652e-02) (321, -9.42320075156653641502e-02) (322, -8.42195827536993540940e-02) (323, 1.64647869114975947680e-02) (324, 1.35286486632111846440e-02) (325, 7.03914503034607647036e-02) (326, -3.04320401383186452116e-02) (327, -6.45032690149367621268e-02) (328, 5.68115110300123418718e-02) (329, -9.63759268655444839569e-02) (330, 5.80882198523946374769e-02) (331, -8.22134487854718487565e-02) (332, -1.63211338406709871585e-01) (333, 2.00434951099613192782e-02) (334, -7.03239359540423492057e-02) (335, -5.03320385246321388983e-02) (336, -2.54407828135221891763e-02) (337, -1.18319305143420552828e-01) (338, -3.28168954754354674774e-02) (339, 2.27016211945479690071e-01) (340, 1.33955604338073120535e-02) (341, -5.39352505988451094709e-02) (342, 1.19760749833930577046e-01) (343, -5.71107050868917623387e-02) (344, -4.85417591356290048510e-02) (345, -1.21543319604803010114e-01) (346, -7.30721291670433092946e-02) (347, -3.80942112739596286386e-02) (348, -2.03530544605324242857e-01) (349, 6.59466537126292690063e-02) (350, 8.46004819489443726788e-02) (351, 5.70884395287748949016e-04) (352, 6.23882283057557024408e-02) (353, 3.21702410099876682723e-04) (354, 1.47443589490603654824e-01) (355, -6.85009511513523378090e-02) (356, -9.74298647380070492741e-02) (357, 5.81533481992402498384e-02) (358, 1.08394245683942291869e-01) (359, -4.82757728894578214129e-02) (360, -2.57851272216757632094e-01) (361, -1.33670111542943448324e-01) (362, -1.45403348791840941745e-01) (363, 3.35824838120326041313e-02) (364, 1.30494825375829737180e-01) (365, -1.26178274748948604511e-01) (366, 3.05649721235117521889e-02) (367, 1.32795013354686797236e-01) (368, 2.58593353456306775107e-02) (369, 6.76030217390719695425e-02) (370, -7.94352267142998079430e-03) (371, 9.68497933783410945574e-03) (372, 5.07498306121902664767e-02) (373, 5.73985406119012636639e-02) (374, 1.80379345037702865095e-01) (375, -1.21173380292025206773e-01) (376, 2.92410935419788846346e-02) (377, 9.78379038895424157918e-02) (378, -4.91379970880156512897e-03) (379, 1.28827516583923912252e-01) (380, -1.64035679046109356127e-01) (381, -4.30567171903814896461e-02) (382, 6.34924376463375655932e-02) (383, 7.50896469066237165491e-02) (384, -2.28087484082431207755e-01) (385, -1.20160376941933669248e-01) (386, -1.17855093857164514026e-01) (387, 4.15121834274310014257e-02) (388, -1.28297670758336673780e-01) (389, -1.75027457263592728376e-01) (390, -1.66202560830119916435e-01) (391, 3.59119221415795247809e-02) (392, 5.47975067117610972756e-02) (393, 1.93606162466881059903e-01) (394, 9.54009460721153279561e-02) (395, -1.16486984303194096579e-01) (396, 1.95703524286326112358e-02) (397, 7.48915476967326326774e-02) (398, 6.53496090754513425658e-02) (399, -1.73473018190216460299e-01) (400, 5.90607692796579156896e-03) (401, 1.71790153113900029291e-01) (402, -2.70487460827235695615e-02) (403, 1.22816794583106250749e-01) (404, -4.59150021502047964161e-02) (405, 9.94308359421787052446e-02) (406, 3.38085855471234458802e-02) (407, 9.42429827199784964087e-02) (408, -2.21336804654774094159e-02) (409, -1.54617974378646272360e-01) (410, 4.64258151042158812016e-02) (411, -2.75809753134602549107e-02) (412, 2.55865008088814460674e-02) (413, -1.57695491154968087111e-01) (414, -8.70238766137029079450e-02) (415, -1.24513605128117835208e-01) (416, -1.11307281951227479699e-01) (417, 7.97974725638334742017e-02) (418, 8.88617258519290575958e-03) (419, -1.32206788908296013485e-01) (420, -2.61187764887558897253e-02) (421, 1.03275683317285579821e-01) (422, 2.74435793863795685077e-01) (423, -1.28122489234261144331e-01) (424, -5.82132996039724306958e-02) (425, 1.39865555171044542160e-01) (426, 3.78509243991252894435e-02) (427, -2.77889268850193653371e-02) (428, 7.96160050160722200518e-03) (429, 1.43339604334538073260e-01) (430, -4.06942372977351987662e-02) (431, 5.05895928510570296044e-03) (432, -8.32284095916198674026e-02) (433, -8.75790542989351994407e-02) (434, -3.59979010457157078129e-02) (435, 1.83053168205528082879e-02) (436, 4.36468318445530703564e-02) (437, 3.02111996936734773789e-02) (438, -2.94303973536313399906e-02) (439, -1.22898089085164224921e-01) (440, -5.46350799720648969138e-02) (441, -1.60502491061959962071e-01) (442, 9.96703270685136283324e-02) (443, -9.24212605356203587004e-02) (444, -5.16056770396589870042e-02) (445, 9.58024455709555015914e-03) (446, -3.49424372846748312535e-03) (447, 3.94421154876056223593e-02) (448, -2.11031261526746574675e-02) (449, -5.02815471200161942522e-02) (450, -9.26580629504164011989e-03) (451, 7.46754080032332873129e-02) (452, -7.78352935599863904326e-02) (453, 1.16088421075963288409e-01) (454, -1.75563465886268386951e-02) (455, -2.27506371354253278394e-02) (456, -2.83642750449207593777e-02) (457, -5.98849776792462831776e-02) (458, -1.91093041706856502093e-02) (459, 3.41278536737850829441e-02) (460, 4.84605953842081327299e-02) (461, 6.30954279170441723057e-02) (462, 8.77961584977383635575e-02) (463, 5.56252254317186264898e-02) (464, -2.32899769526262956365e-01) (465, 2.04614497930681871196e-01) (466, 1.23805717377841767446e-01) (467, -1.22959134944276043955e-01) (468, 1.17017651722149312876e-01) (469, 1.82391193809385981917e-02) (470, -4.51865149412844294141e-02) (471, -7.00156607445871215223e-02) (472, -4.93790553007011009945e-02) (473, -6.81010989439971292647e-02) (474, -7.64390391650782291544e-02) (475, 1.66612255254426022688e-01) (476, -1.41814396237560452763e-01) (477, 1.58268284848806284337e-01) (478, 1.27719344479951341098e-01) (479, -1.38201363822698947842e-02) (480, -4.51371337341076317440e-03) (481, 5.66446504835809994116e-02) (482, -1.00534068934322026734e-01) (483, -5.95577926082050193579e-02) (484, 5.92712209406034418180e-02) (485, -4.02743772417412590481e-02) (486, 8.73033689788056815884e-02) (487, -2.00936823920388994702e-02) (488, -1.47706415319371286987e-01) (489, 7.78663105829020679716e-02) (490, 2.07992703445126686512e-01) (491, -2.64926038050935250354e-04) (492, -2.81974601093113799721e-02) (493, -4.55035199288221416797e-03) (494, -1.46612914866986354667e-01) (495, -1.18389494931013528056e-01) (496, -6.31441312656214198684e-02) (497, -8.36628571648036362118e-02) (498, 6.87886753137996465046e-02) (499, -1.40814599262772729288e-02) (500, -9.60700070866426364402e-03) (501, -8.28779086359852576460e-03) (502, 9.38487375729347705899e-02) (503, 5.70375437127941253834e-02) (504, 9.51208151339642815625e-02) (505, -4.82195232423983100034e-02) (506, -6.12126228694975307865e-02) (507, 3.62291423453360711404e-02) (508, -1.41838925176091007474e-01) (509, -4.19452068083060389259e-02) (510, -3.80371724338571335494e-03) (511, 1.77630786814067347101e-02) (512, -1.05247173570302443579e-01) (513, 1.31629864387975165085e-01) (514, -4.16533898083950215787e-04) (515, -2.41207501862813443461e-02) (516, -4.04799537439010648221e-02) (517, -1.13566429555264594708e-01) (518, -1.70578730038697307103e-01) (519, 5.94289172467721022591e-03) (520, -1.61168925284232780748e-02) (521, -4.29213877086643338932e-02) (522, -2.76343157762771220176e-02) (523, -5.18073618020868827128e-03) (524, -1.58077255289647139458e-02) (525, -1.67508838482616564947e-02) (526, 6.66811210592987979595e-02) (527, 7.19883132054766894381e-02) (528, 7.66808475111094567378e-02) (529, -5.73033350558922113804e-02) (530, 6.79859399792888674519e-02) (531, -6.01102165994615161848e-02) (532, -9.28249967698522998605e-02) (533, -1.35884172708309658439e-01) (534, -1.74577746693350938090e-01) (535, -1.87507068831254036789e-01) (536, -3.38732317057114790115e-02) (537, -1.52640785354446584243e-01) (538, -1.26441420090767753237e-01) (539, -1.24333724795482505887e-01) (540, 4.69012644035602943582e-02) (541, 2.43400278442802405279e-03) (542, -4.91475658213886591741e-03) (543, -1.54798423429451208200e-02) (544, -2.22470819823316224434e-03) (545, -1.37768509078933260037e-01) (546, 6.50090914638032646433e-02) (547, -1.31388766833976156079e-01) (548, -1.85310378756081278739e-02) (549, -1.07017275939336159452e-01) (550, 9.13346025670261074669e-02) (551, -1.81269947699627016757e-02) (552, -1.47154993151111995742e-01) (0, -3.03992201512413087738e-02) (1, -4.67634029896386027580e-01) (2, 9.79002590607928324662e-02) (3, -3.02790645339936458080e-02) (4, -3.38022338660751639483e-02) (5, 2.43488631265079857879e-01) (6, -2.87957242130780985412e-02) (7, 1.55655767729733163218e-01) (8, 3.60025932650204841257e-02) (9, -5.20426326056699986577e-02) (10, -7.15414927628904295798e-02) (11, -2.71188689504021751553e-01) (12, -4.50748923631507578125e-02) (13, -2.00287316417955024717e-01) (14, 1.53764559304274767149e-01) (15, 1.12308089713767794704e-01) (16, 2.43719745211866428702e-01) (17, -2.40926436425126955232e-01) (18, 5.96607116334262749247e-02) (19, 1.00315157571196217345e-01) (20, 6.08442559124721116248e-02) (21, 4.42852087493200083368e-02) (22, -9.46123114430197087454e-02) (23, -1.30346546213466502051e-01) (24, -2.30180264798664380166e-01) (25, -3.28197782129239001847e-01) (26, -8.02863496444770619043e-02) (27, 8.86237069979927821750e-02) (28, -2.18289725725191646744e-01) (29, 1.78082704263240826359e-01) (30, -2.63273427692372608000e-01) (31, 3.61931275348800596259e-01) (32, 2.91280426997525432320e-01) (33, -5.65680784483791471162e-02) (34, 2.67049137989082696620e-01) (35, -2.69059078735200685184e-01) (36, 7.70284859883115791135e-02) (37, -4.04719880150746669223e-01) (38, -1.53765977419215271738e-01) (39, 1.69878977773901901349e-01) (40, 2.62931476021771581841e-01) (41, -5.62537219001532848295e-02) (42, -2.19986188771453178292e-01) (43, -1.74379371481002382049e-01) (44, 7.64892881419589748537e-02) (45, 4.61953440258798878060e-03) (46, -9.18518547966968995633e-02) (47, -2.72134789607421823110e-01) (48, -1.04457882321880649035e-01) (49, 1.14971610981060248791e-01) (50, -1.02424985929784797406e-02) (51, -2.86054120869408574912e-02) (52, -1.25571907149811951010e-01) (53, 1.52237935239504740270e-01) (54, -1.83847390195889054398e-01) (55, 2.43508996765034374521e-01) (56, 9.77299052667888329404e-02) (57, 2.31720950113721735342e-01) (58, -3.41757164300254129286e-02) (59, -1.45438723358053356716e-01) (60, -5.29125516082854137345e-03) (61, -8.64291768441827479297e-02) (62, -1.21537669539339612118e-02) (63, -7.27557546828966061891e-02) (64, 7.30282547511711122024e-02) (65, -1.89372822274867479153e-02) (66, 4.17010399641788709335e-02) (67, -1.56688005491041892903e-01) (68, -8.89199086508689479080e-02) (69, -2.61740565366026800564e-02) (70, -1.60976263492072474426e-01) (71, -2.70505477617534628720e-01) (72, -1.09794087746617863299e-01) (73, -2.00072762573531674757e-02) (74, -3.38852453203719428121e-01) (75, 2.98757454301821934184e-01) (76, 3.03181843039964260544e-01) (77, 4.84608692650765199295e-02) (78, -1.51517504943328995548e-01) (79, 1.06661007931105680790e-01) (80, 1.69687048749017188598e-01) (81, -3.03325487839034048376e-02) (82, -1.23805680886119998108e-01) (83, -9.20645052673177421987e-02) (84, 8.35995096337736470771e-02) (85, -2.21307364541860313034e-01) (86, -6.18179484123270062135e-01) (87, -1.28880669378549667092e-01) (88, -1.01662788849398635221e-02) (89, 1.07626006715789021562e-01) (90, -3.34737618078290666279e-01) (91, -4.38789428285551591502e-02) (92, -1.34245809915349012531e-01) (93, -2.34309269580654372378e-02) (94, -9.23048522925302705744e-02) (95, -3.01201152886734935255e-01) (96, -1.62114109614786366942e-01) (97, -6.41271185667794119123e-02) (98, -4.20979756195167087451e-01) (99, 1.05119766674103248816e-01) (100, 1.83513362156266679470e-01) (101, -1.28475079096053185213e-01) (102, -1.11580253158547956782e-01) (103, -1.66731734512164359030e-01) (104, 1.58898694853176675190e-01) (105, -1.97124779401604416362e-01) (106, -9.39498782726186643099e-02) (107, -1.27692199169541303894e-01) (108, -4.23987463498114725002e-02) (109, -1.48257848219296328729e-01) (110, -3.66902212074623979010e-01) (111, -2.16690734071375845637e-01) (112, 8.10798724860553182703e-02) (113, 2.08431487258192715828e-01) (114, 2.70125624776395623083e-01) (115, 6.57934016722425685231e-02) (116, -1.55936351703629072496e-01) (117, -1.17111149402688449750e-01) (118, -6.41306272434992719056e-02) (119, -3.00741832428432109836e-01) (120, 1.88440176637103579127e-01) (121, -5.98140692701722501146e-02) (122, -3.77011718258964678707e-01) (123, 5.19473141901572454948e-02) (124, -8.40343632908048115970e-02) (125, 1.40674948993569137734e-01) (126, -1.95929508313730460500e-01) (127, -9.39972527972560839560e-02) (128, 1.43204218072261052486e-01) (129, -8.21332805645167973729e-02) (130, -3.24122223985514323896e-01) (131, -1.77149758180791649931e-01) (132, -9.86665449237804914606e-02) (133, -7.41727241843473522609e-02) (134, 1.71741249191450541522e-02) (135, -9.08115827529783620209e-02) (136, -8.45071323044896821619e-02) (137, 1.59752644011723982098e-01) (138, 2.98115782176866898900e-02) (139, -1.58842115343684336937e-01) (140, -1.08764788946784124457e-01) (141, -1.68670886793110152979e-01) (142, 2.02249407546603275632e-02) (143, -3.68553312859250414846e-01) (144, 4.84788545122627811956e-01) (145, -6.73723793100582547116e-03) (146, -2.72017565046174913945e-01) (147, -1.32040486516364075076e-01) (148, -3.96097254766256470782e-02) (149, 2.77639045261368413997e-02) (150, -1.42778547255431126350e-01) (151, -1.59096661445226605913e-01) (152, 4.19334881143050910990e-03) (153, 1.79648994410865521509e-02) (154, -5.59427006782251615147e-02) (155, -6.56571978562962149661e-02) (156, 2.27890880203654860869e-01) (157, 5.63875141312132968641e-02) (158, -2.78255195502561114562e-01) (159, -8.63128235422661177489e-02) (160, -9.64661125874296254690e-02) (161, 3.80798003533975970569e-01) (162, -7.88633548738316980664e-02) (163, 9.23501086323252479149e-02) (164, -9.87989837401279658025e-02) (165, 1.85697745230911565040e-01) (166, -1.37383509203110709684e-01) (167, -3.63349483744921319950e-01) (168, 5.59285223473628634316e-01) (169, -3.03025450907189013161e-02) (170, -1.20403566391754410225e-01) (171, 4.37494807283745901216e-01) (172, -2.80406797494294410256e-02) (173, -1.83200817885311000033e-02) (174, -2.20729541227563164085e-01) (175, -7.74469719324601957311e-01) (176, 1.15537165453652210245e-01) (177, -2.31282404713476413827e-01) (178, 3.01975199558759010987e-01) (179, -4.11343639290531304376e-01) (180, 2.28221791663315742849e-01) (181, -1.24687531925322475646e-01) (182, -3.04908956635549566183e-01) (183, 2.53722815529864809125e-01) (184, -5.27762299724583772154e-01) (185, 1.64829144384797483727e-04) (186, -3.79147294930628209197e-01) (187, -3.69425843220854255300e-01) (188, 2.01031850795330535586e-01) (189, 9.77054985062719150157e-02) (190, -1.03486665548297634976e-01) (191, -6.87422773274435905400e-02) (192, 6.06203941273588453598e-01) (193, 4.71097595432356741618e-01) (194, -2.73294317549570064951e-01) (195, -1.09256847304576090729e-01) (196, -6.42924897586305554853e-02) (197, 3.83812055953636155348e-01) (198, 5.23523770106334107588e-01) (199, -4.38477087852092717313e-01) (200, -1.02287709330988990653e-01) (201, -6.07070943646681321360e-02) (202, 9.70988523101437295271e-02) (203, 1.97697522591121666036e-01) (204, 1.33343442269129974775e-01) (205, -1.09501740282886353417e-01) (206, 1.14674590627330763581e-01) (207, 6.69225740485023118387e-02) (208, -5.70704627442429113238e-01) (209, 6.68447609126291558690e-02) (210, 6.46482781728382194242e-02) (211, -6.42105827631229419961e-02) (212, -2.94094622619959333854e-01) (213, 1.26088249270082636277e-01) (214, 2.05287546200849692346e-02) (215, -8.29346280810961539176e-02) (216, 3.87073397253846873678e-01) (217, 4.77900596219943962772e-01) (218, 1.39704005994873398100e-01) (219, 5.26237154301048448701e-01) (220, -3.05629079967918548810e-01) (221, 3.01341825407737073927e-01) (222, 3.16704917766631621756e-01) (223, -4.84075572072261040013e-01) (224, 1.58717572385297961413e-01) (225, -1.82784289376801856175e-01) (226, 5.26858087512875050695e-02) (227, 3.02793748938377627056e-01) (228, -1.62077525591181430265e-02) (229, -5.32351285142578373177e-02) (230, -4.88873774690361584394e-01) (231, 6.43661408668379064757e-01) (232, -1.73512165434953208321e-01) (233, 2.84265727560249981121e-01) (234, 7.43614181139458235714e-02) (235, -1.14125890719947276075e-01) (236, -3.38679838511712127946e-01) (237, 1.13350785055444575056e-01) (238, -7.92209112511082225172e-02) (239, 2.49364386900404813585e-02) (240, -6.73812811825143104238e-02) (241, -2.44045163051251734476e-01) (242, 4.53964290161078642960e-01) (243, -2.19355386301390481441e-01) (244, 9.69856750293722896794e-02) (245, -7.03988866832148396657e-02) (246, 1.89936153362773973985e-01) (247, 8.12899608124006856080e-01) (248, -9.44129388762379034850e-02) (249, -1.74701607712008211148e-01) (250, -3.01336912329057904358e-01) (251, 9.05650727906267549727e-02) (252, 3.73690376928077772067e-02) (253, -5.05879777534018540419e-02) (254, 5.03066529123573635829e-02) (255, -7.54789941328142810484e-02) (256, -1.85398262839847227657e-01) (257, -1.93496285418551600133e-01) (258, -2.24407713953864475231e-02) (259, -2.04452571304582469969e-01) (260, 1.43105164670500301094e-01) (261, 2.37456801029161418404e-01) (262, -3.87051564534656236671e-02) (263, 2.16871188018365357308e-01) (264, -9.81375552954991015042e-01) (265, -2.09140441488089828814e-01) (266, 6.29945314570329983894e-01) (267, 8.13621779180504045570e-01) (268, -5.98505896443919604977e-01) (269, 9.61116968468359450517e-02) (270, -4.18470506641119011082e-01) (271, 2.07092732400954604444e+00) (272, -4.74478351643750073663e-01) (273, -5.91467242583293195679e-01) (274, -7.62734751151564305260e-01) (275, 3.91588939442882200126e-01) (276, -4.04369615392675518795e-01) (277, -6.06998477647431977644e-01) (278, 6.65709530820289718811e-01) (279, -7.19262565039608170459e-01) (280, -8.36031593021561936219e-01) (281, -4.56417202847069214400e-01) (282, -8.79013548662749166773e-01) (283, -4.38715330160026006912e-01) (284, 3.73693829983059444544e-01) (285, -1.39804964951020183062e-01) (286, -4.43744997255741610576e-02) (287, -6.51632249355316162109e-02) (288, -1.31266460436869542017e-01) (289, 5.50967568300838803075e-02) (290, -2.95008583600155194215e-01) (291, -4.80231488887246815711e-01) (292, 3.64292790286543988199e-01) (293, 2.01413200529409058825e-01) (294, -3.17201644826388753917e-02) (295, 2.70379335660813568953e-01) (296, 4.12576052400772608220e-01) (297, -1.58102331836379422780e-01) (298, -2.61042230966434141148e-01) (299, 4.94645513334666456218e-02) (300, 5.50645381770387354337e-01) (301, -1.72604459319871395007e-01) (302, -1.48973265740283666858e+00) (303, -3.98821721564447617681e-01) (304, 7.92107566085661213284e-02) (305, 5.83384634723155270919e-02) (306, 2.23876472812121196654e-01) (307, 4.28119423931635822989e-01) (308, -4.85243578610716985722e-01) (309, 2.32928816900246832278e-01) (310, -6.30066077637286392488e-01) (311, 4.78939513105566816442e-01) (312, -4.32843098955114524706e-01) (313, 2.40566688709306780725e-01) (314, -2.06823154937993608504e-01) (315, -5.20172599346646724605e-01) (316, 3.21759474244485144112e-01) (317, -1.86239438056375161690e-01) (318, -2.10492371397569627556e-01) (319, -5.09817900070342888696e-01) (320, 7.16795932463048721117e-03) (321, 5.17445584193757524005e-01) (322, -1.83160325786756117417e-01) (323, -7.12974004336502237278e-02) (324, -2.06895165100273795145e-02) (325, 2.34217284433374181574e-02) (326, 5.75934045622922760610e-02) (327, -3.24772326158384749828e-01) (328, 2.20276305230171443039e-01) (329, -2.03903659988914687240e-01) (330, -2.19953262827557616266e-01) (331, 8.49524377518710571700e-01) (332, -5.61731147936315039493e-02) (333, 8.31382387730214000854e-02) (334, -1.46377979900164406635e-01) (335, 3.41238000229221044579e-02) (336, -1.89649074317963572955e-01) (337, 4.91006873703821525301e-02) (338, -2.74235718286842233837e-01) (339, -4.69047938210073234178e-01) (340, 4.56004845053019969292e-01) (341, -2.69276136077421401893e-01) (342, -2.42804884511718721551e-01) (343, -2.92479871482179798470e-01) (344, -5.08021861593630705278e-02) (345, 3.76579238619026368529e-01) (346, 2.54398860348279409749e-01) (347, -3.12642784838380816126e-01) (348, -2.30632509914710931431e-01) (349, 1.53865607060889475477e-01) (350, -6.87190594066282689489e-01) (351, -1.25994082486675401666e-01) (352, -1.39567450988430485914e-01) (353, 1.33356772406749174431e-01) (354, -2.44807959496329101412e-02) (355, 7.34674259749103386596e-01) (356, -1.49411452576005160386e-01) (357, 4.53298689053498599089e-02) (358, -2.13234858000348956319e-02) (359, -1.22479871352329891532e-01) (360, -1.60738675149509346873e-01) (361, -3.03070055740340627004e-01) (362, 9.72770775555340527774e-02) (363, -5.63593456065803466437e-01) (364, 2.76736221826059891615e-01) (365, -4.95196428480368044944e-01) (366, -3.32735686368705707583e-01) (367, 4.19512487003362299909e-01) (368, 1.12807634454981542405e-01) (369, 6.63948763995591551001e-01) (370, 5.58570267974888429174e-02) (371, -5.24095694856238289439e-03) (372, -1.13721150178850427537e-01) (373, 5.14737592455252537804e-02) (374, -1.62263006875203487367e-02) (375, -3.39793735163929189191e-01) (376, -5.09477509165744524289e-01) (377, 7.12036862250875896008e-02) (378, 2.00701021584293939903e-02) (379, 5.63516723955096221488e-01) (380, -5.51627546402727320096e-02) (381, -7.24142465783096656029e-02) (382, -1.02159898103508289466e-03) (383, -1.45466978189295575996e-01) (384, -8.62402353697106494046e-02) (385, -1.30743231420317435054e-01) (386, -1.37363715856688578532e-01) (387, -1.46392310304683026523e-01) (388, 4.80787650767563745635e-02) (389, -3.04486316369639853363e-01) (390, -1.70574302816289491425e-01) (391, 2.95914383023001659190e-01) (392, 4.04610438932000854306e-02) (393, 1.85103726338259888529e-01) (394, -2.92053893004259046418e-01) (395, -3.25750380969278663379e-01) (396, -4.71474724053441637817e-02) (397, -6.89598292037099103169e-02) (398, 1.00688886238882568253e-02) (399, -1.45851711911323317361e-01) (400, -2.35174823311814717997e-01) (401, 2.26684157446487982712e-01) (402, -1.24919122795897286071e-01) (403, 3.21122893142674281641e-01) (404, -9.41782159043037525592e-02) (405, -2.72100664272801995303e-01) (406, 1.53988818397958027173e-01) (407, -3.03136225801008352132e-01) (408, -3.20348809950385227108e-01) (409, -2.53145048538489458867e-01) (410, 2.53018764603723522733e-01) (411, 2.68965901000639273644e-01) (412, 2.75594121189176533004e-01) (413, -2.83683181165025111170e-01) (414, -2.64840964869044681596e-01) (415, 2.98368090871564926869e-02) (416, 1.16198656734855312878e-02) (417, -6.34261906672053954459e-02) (418, -1.10998252082643994454e-01) (419, -9.86100801013079786284e-02) (420, -1.36258488330619792483e-01) (421, -9.77929092339913097476e-02) (422, -3.07150570345157358787e-01) (423, -3.92467468575855085722e-02) (424, 1.49572396697542020494e-01) (425, 1.68087152614072116164e-01) (426, 3.78346030615486165344e-03) (427, 2.05145472496995801004e-01) (428, 3.19121837370519439991e-02) (429, -1.63658392769511634723e-01) (430, 3.34019193203524911162e-01) (431, -2.61566156307774078105e-01) (432, -5.72892649614978433092e-01) (433, -1.61222664038581542378e-01) (434, 6.06308662940874265601e-02) (435, -8.25989123366235589163e-02) (436, 3.16739845622001359171e-01) (437, -2.31311060061108242358e-01) (438, -3.07653038411609347502e-01) (439, 4.18420678879892038449e-01) (440, 1.54381607853481872539e-01) (441, -1.32138157006978090857e-01) (442, -4.61153404701441504976e-01) (443, -5.09449885372191338395e-02) (444, -3.68084424871600979223e-01) (445, 6.37336326862763258294e-02) (446, -4.58800046358716628880e-02) (447, 8.81765802381580671154e-02) (448, 7.36321036282556184993e-02) (449, -3.23584740542564919252e-01) (450, 1.42453566895157146543e-01) (451, 1.81968332028617701956e-01) (452, 1.94498322374598220028e-03) (453, -2.53781824044257253714e-01) (454, 1.06484888679525713240e-01) (455, -1.88128634402826400152e-01) (456, -5.83450045852689336279e-01) (457, -8.30067055930156783017e-02) (458, -2.53456509547389963188e-01) (459, 1.87869203311505750253e-01) (460, -9.25024640745376186546e-02) (461, -3.39364584180913628209e-02) (462, -3.06491814203468271316e-01) (463, 4.22271028337838305600e-01) (464, 7.43150808964751080632e-02) (465, -5.73967378030872249495e-02) (466, 1.39101059564768359672e-02) (467, -5.84537695004839139012e-02) (468, -1.90844488928250843873e-01) (469, 1.67741868058935539310e-01) (470, -4.92013942956659594552e-02) (471, 8.61363909372802882825e-02) (472, 1.70452719410392000698e-01) (473, -2.08167439264464460003e-02) (474, -5.01724461921294120903e-02) (475, -1.62427401982437824568e-01) (476, 8.22478903798585098128e-02) (477, -2.24872235101512774058e-01) (478, 2.01989288761943025508e-01) (479, -1.47650896298899936276e-01) (480, -4.13903255367941425025e-01) (481, 1.66342437440514218094e-01) (482, 1.52576575870718884886e-02) (483, 2.12379692259275471011e-01) (484, -5.15705901194551841193e-01) (485, 1.19257459191693102052e-01) (486, -1.42373944485217132638e-02) (487, 3.41169628328485519120e-01) (488, 2.29240120052582208032e-01) (489, -3.14933259798699238807e-01) (490, -7.41230507341751609918e-02) (491, -2.07602945571961933213e-01) (492, -3.40321979104401574345e-03) (493, -5.59378559290501196910e-03) (494, 1.95943008544044866559e-01) (495, 8.09859880647067435083e-04) (496, 3.37175137193343799069e-01) (497, 5.57519057760823694148e-02) (498, -7.39307393659971584521e-02) (499, 1.15903881183056028936e-01) (500, -5.97104054390561259091e-02) (501, 7.83657355530265331556e-02) (502, 2.49008605356424272959e-01) (503, -2.28560465758176623030e-01) (504, -5.23474793585975706200e-01) (505, 8.02974330383036428993e-03) (506, -5.56909772720632773035e-02) (507, 4.68280968598881602860e-02) (508, -3.45897789983949599524e-01) (509, 1.17997894730705460420e-02) (510, 1.91959718124866174360e-01) (511, 3.36579999417168151954e-01) (512, -7.55677904979216163994e-02) (513, -6.48835610929571204863e-02) (514, -4.87856024848719649345e-01) (515, -4.16532076266501599671e-02) (516, -2.10055860602820276828e-01) (517, -8.81076604009349562130e-02) (518, 4.58213471319165288609e-01) (519, 7.92462787105275984212e-02) (520, 2.66392487101577202235e-01) (521, 1.25319164969403373799e-01) (522, -6.13308439540814695490e-02) (523, 2.63926964470815816899e-01) (524, 3.05582602055066154811e-01) (525, 1.56535292419246352402e-01) (526, 2.75703080789897851666e-02) (527, -1.46853194345692189549e-01) (528, -1.58874590584646147029e-01) (529, -1.68524621445907490935e-01) (530, -1.18136976784981848065e-01) (531, -1.74631716190760399865e-01) (532, -4.35125297550406908709e-01) (533, -6.10490175471839618959e-02) (534, 2.47321081173668910758e-01) (535, 6.94974875166058242426e-02) (536, 2.25661492770565186294e-01) (537, -4.46061833800092955027e-02) (538, -3.47811024891579723128e-01) (539, -2.27804118785934039959e-01) (540, 1.10713392957408660044e-01) (541, -4.76289101532423944652e-02) (542, 2.89263360650055534329e-01) (543, 7.16886811563550718773e-02) (544, 3.09908016476187930799e-01) (545, 1.98825183072368905091e-01) (546, 2.55871538998816150379e-02) (547, 1.11331366909700260615e-01) (548, -2.58067648016730599725e-01) (549, -8.20709105783181958049e-02) (550, 2.62532018382572340798e-01) (551, -3.49970482353289757960e-01) (552, -3.04456441792808341074e-01) (0, -4.77525291721637323850e-01) (1, 2.57522337569319192951e-02) (2, 2.68534489826219635589e-01) (3, 1.43283353597042223404e-01) (4, -1.22516002158214773465e-01) (5, 2.10623888355107286019e-01) (6, -1.53626388103261207752e-01) (7, 2.59615444768081682358e-01) (8, -1.99634530971714713177e-01) (9, -1.00643998674471851773e-01) (10, -2.82666768522590039492e-01) (11, -3.03847909927985326828e-01) (12, -6.01927898609421266340e-02) (13, 4.12321799671822517008e-02) (14, 1.91990268648247780492e-01) (15, 1.42143890108317405563e-01) (16, -1.19029650257239841271e-01) (17, -2.88848073546407319023e-02) (18, -9.89208212122576063807e-02) (19, -2.72968273279500031614e-02) (20, -5.24056389314587062200e-02) (21, -5.93806313638133159705e-02) (22, -5.20930426244837138650e-02) (23, -6.83822671354283873058e-02) (24, -3.92566913744051282364e-01) (25, -2.32329599460024849300e-01) (26, 2.99557819670652203392e-01) (27, 4.54595376242513504739e-01) (28, -3.00858499260626022220e-01) (29, 2.63715066886462179419e-01) (30, -1.37771103242702447345e-01) (31, 3.16314777872446883933e-01) (32, 1.66970166617235071804e-01) (33, -2.83603710038328904464e-01) (34, -2.32934983321015032232e-01) (35, -6.20271458260912011973e-02) (36, -1.80598457209972362847e-01) (37, -1.27599183719002053777e-02) (38, -1.02137220175739285022e-01) (39, -2.42545925760097765000e-02) (40, 4.53762546141322498094e-02) (41, -1.21896591319246350160e-01) (42, -3.20214148031530629335e-02) (43, -1.71824768098334329514e-01) (44, -1.58988245698246738469e-01) (45, 7.42065215539459976934e-02) (46, 6.89334115482233139582e-02) (47, -1.04887751120638181290e-01) (48, -2.85992844427332248980e-01) (49, -2.01279098882852475194e-01) (50, 1.76743275423933227097e-01) (51, 1.42726540210244529083e-01) (52, -1.29019037627498278642e-01) (53, 3.24048958801093855975e-01) (54, 3.69234996931845152468e-02) (55, 3.42897273313305439579e-01) (56, -1.37969375902768698339e-01) (57, 1.11773030263426026432e-01) (58, -3.52603773091727135114e-01) (59, 7.62355955905368032344e-03) (60, -9.68228419440892579262e-02) (61, -2.03129571073011383486e-01) (62, 1.19782655613859215227e-01) (63, 3.78158150098064804734e-01) (64, 9.55918434790558046998e-02) (65, -1.81938591079571526654e-01) (66, 7.32445936198873048806e-02) (67, -1.20370293602154274093e-01) (68, -1.30867339408583333027e-01) (69, 8.34363924060407685657e-02) (70, 6.20242265144217430617e-02) (71, -1.46887222477466938830e-01) (72, -4.20767893641008028371e-01) (73, -6.05130498174095352026e-02) (74, 1.67617561706453005455e-01) (75, 2.67925167449740930792e-01) (76, -1.61288378441060864521e-01) (77, 2.41801361030873435132e-01) (78, -1.19031299538424797935e-01) (79, 5.35036827698620265359e-01) (80, -1.68126182495096809788e-01) (81, -3.90827246638947634061e-01) (82, -2.80227897029085959435e-01) (83, -9.88855856959889867319e-02) (84, -2.55021437766879688347e-01) (85, 5.53854926476541192804e-02) (86, 1.06059204565050857472e-01) (87, -2.50397484919767765454e-01) (88, 2.97110637533604560190e-01) (89, -8.32369239875759281411e-02) (90, -8.72219358763794139211e-02) (91, -2.11847712875631977170e-01) (92, 2.36442860752652556089e-01) (93, -1.30089500647632916319e-01) (94, 1.99821778242876696430e-02) (95, -3.41648726305189623376e-02) (96, -3.42536964801591403695e-01) (97, -4.06321386934335615493e-01) (98, 2.33588723009372778439e-01) (99, -1.65458303421433611247e-01) (100, 5.35139312878822881459e-02) (101, -2.62058194161031501879e-02) (102, -1.62934747970570420472e-01) (103, 6.14592576268774504200e-01) (104, -5.97506599734858590001e-02) (105, -5.38929636115631147120e-02) (106, -1.28127727196232638063e-01) (107, 9.31591539140440814959e-03) (108, -6.89953572633495021416e-02) (109, -1.69802230544890631059e-01) (110, 2.71034032789039647238e-01) (111, 1.65303777237634813568e-01) (112, -1.33426136922534632756e-01) (113, -2.41148327619521360421e-02) (114, -2.23742411148383606168e-02) (115, -1.57552573243563226457e-01) (116, 1.32204272955855767213e-01) (117, 2.96430744947961989644e-02) (118, -6.09280185770759638575e-02) (119, -6.39959036091584804185e-02) (120, -4.84264483097435638470e-01) (121, -8.33828292224823158785e-02) (122, 5.23321718402657773406e-02) (123, -3.54345242581351249633e-01) (124, -2.97429460123725675214e-01) (125, 6.85417080174710174889e-02) (126, -2.88014032801590713628e-01) (127, 2.97805797128097737847e-01) (128, 1.22749334596027312450e-01) (129, -2.29192162101824498111e-01) (130, -2.38980529589065210372e-01) (131, 1.46078528942693769421e-01) (132, 3.55101891461378268294e-03) (133, 1.55812389473307388865e-01) (134, -2.52320348274253980492e-01) (135, 8.74429777256595236468e-02) (136, 1.99158452419853887472e-01) (137, 1.00976774158227630696e-01) (138, 3.20744637004402033398e-01) (139, -3.16957641468305281740e-02) (140, 4.04238726718570001717e-02) (141, -2.46378046932146585468e-02) (142, -1.06401123267445621434e-01) (143, 4.86568157953843269392e-02) (144, -2.98728184143039809939e-01) (145, -1.52241646111639650218e-01) (146, -1.43111696252654824191e-01) (147, -7.31060446230738403273e-01) (148, -2.68394305605402297421e-02) (149, -1.44027755410534641367e-01) (150, -3.32163931473412665785e-01) (151, -2.88572604954328904014e-01) (152, 6.71491376659084648892e-02) (153, -2.60912911938035833870e-02) (154, 5.99114518025863976303e-02) (155, -1.55228463911762343264e-01) (156, 1.87134649278339254552e-01) (157, 2.24755615296833272110e-01) (158, -1.32032775568839522151e-01) (159, -2.65114134608130269655e-01) (160, -1.40847742698699596176e-01) (161, 1.66914259011186533188e-01) (162, 3.60353506208137830402e-01) (163, 6.23499600379749940871e-01) (164, 9.20945889211675777775e-02) (165, -3.75666729475023775109e-02) (166, 1.72884618387099675552e-02) (167, -2.40523822104876348893e-02) (168, -3.89268544859324272522e-01) (169, -1.75491519942450047154e-02) (170, -2.93489753378958495578e-01) (171, -4.26151757116707330386e-01) (172, -1.61608901753921285760e-01) (173, 2.06811829409912967259e-01) (174, 1.76677017828101495800e-01) (175, -5.65481177979719085158e-01) (176, 2.28328155567439350371e-01) (177, 2.41788577386564951244e-01) (178, -3.33580645755464366697e-02) (179, 1.88965558153966900479e-01) (180, 4.66287566779010551055e-02) (181, 9.38802908321527962432e-02) (182, -2.35274036500998651178e-01) (183, 5.78568818436236642633e-01) (184, 3.41911404715099898066e-01) (185, 1.41099388459642843818e-01) (186, 1.83455722341165305966e-01) (187, 4.00786634363051119667e-01) (188, -3.27842911278733994962e-01) (189, 1.42891147949802149730e-01) (190, -1.37593452299279939144e-01) (191, -2.32326828791987627376e-01) (192, 4.15133099060466137509e-01) (193, -4.20948424434946621986e-01) (194, -3.98496180618830075915e-01) (195, -4.27922221470686536815e-01) (196, -7.66884742358766441361e-02) (197, -5.24985973679137574166e-01) (198, -4.40423427461863525867e-01) (199, -2.25360913153941605502e-01) (200, 2.21906811747467708207e-01) (201, 4.88868519401223888821e-01) (202, 9.96513918767071016358e-02) (203, -3.72892534165359279541e-01) (204, 2.34189000492389221009e-01) (205, -1.41515163819163260900e-02) (206, -3.43374979038107264184e-01) (207, -7.24799407630108971645e-02) (208, -3.94902896887852683516e-01) (209, 1.22310766430512696257e-01) (210, 1.59425025333069431133e-01) (211, 8.98887674674303638334e-01) (212, -2.57009714978795933416e-01) (213, -6.13630040003843371665e-02) (214, -6.02492852322548816391e-02) (215, -3.41486444973961966731e-01) (216, 4.69631697634652831019e-02) (217, -1.13643374477608194439e-01) (218, 2.54905081052701931732e-01) (219, -2.86995245890487471474e-01) (220, -1.50543805100148586629e-01) (221, 6.15368322228305522636e-02) (222, 1.79942933425782242152e-01) (223, 7.70214422919809071910e-02) (224, 1.81594882147946140583e-01) (225, -1.60013130118593693840e-01) (226, -2.38168854998754876695e-02) (227, -1.37717265598474358779e-01) (228, -3.99437519987284675449e-02) (229, 5.41347363939374617847e-02) (230, -6.46889024188162187201e-01) (231, 2.52231752107468676360e-01) (232, -1.12329066385520717763e-01) (233, -2.73834089315745876636e-01) (234, -8.25800299936104847953e-02) (235, -2.32595627887243472376e-01) (236, -3.67811854261630363783e-02) (237, 1.60246289229569544021e-01) (238, -5.55156349410540761458e-02) (239, -3.49112804252818820228e-01) (240, 3.60280477465859449993e-01) (241, -4.02028361792319155477e-01) (242, -5.54949093386403413675e-01) (243, -2.30825393753762014848e-01) (244, 3.69663385667324817518e-01) (245, -3.23804819865165405268e-01) (246, -2.95725980090639384290e-01) (247, 5.11117798706116399643e-01) (248, -8.90471912343526877942e-02) (249, 4.01926572000847304178e-01) (250, -3.44136274264740638085e-01) (251, -5.64944178392794760235e-01) (252, 2.42318208155911964108e-02) (253, 5.43876825797435237142e-01) (254, -4.53225134267649043540e-01) (255, -3.83913209938600397120e-01) (256, -8.40020791671316047200e-01) (257, -5.95430806917111726806e-02) (258, -1.91946492181208211436e-02) (259, 6.54949378570397033883e-01) (260, -2.73099606278300766071e-01) (261, 1.75578428945678856332e-02) (262, -3.85698349539445317635e-02) (263, -2.68288383128069241046e-01) (264, -2.83747315106238129356e-01) (265, 1.72428678497262066749e-01) (266, -2.34505424471506684903e-01) (267, -7.77457503577849373677e-01) (268, 2.44184976032999268014e-01) (269, 4.73976047739812389459e-01) (270, -1.38759967947510665098e-01) (271, -3.18742991622423366138e-01) (272, -1.57758955389574080652e-02) (273, -2.46433205397893484445e-01) (274, -5.66272421943820658541e-01) (275, -1.82350188473908630948e-01) (276, -1.26348246731820823552e-01) (277, 1.56743450043832083241e-01) (278, -1.08765921959238975880e+00) (279, -1.78874955370997457127e-01) (280, 6.41528620164558693872e-01) (281, 3.55261570851803265558e-01) (282, 1.98776473501512812581e-01) (283, 3.62544324453213939741e-01) (284, 1.12172979011167170404e-01) (285, 8.00035812592616267513e-03) (286, -1.10090337572027506877e-03) (287, 5.91031387448310852051e-02) (288, -6.28821924970358048235e-01) (289, 3.72611050615689554100e-01) (290, -3.35297961586009385382e-01) (291, -6.54383993100416061495e-01) (292, 1.75925537961883177163e-01) (293, 2.53286084135424138797e-01) (294, 2.50486073050285931729e-02) (295, -7.63436563229442977097e-01) (296, 6.84710434760076591676e-02) (297, 1.65592490210185294686e-01) (298, -4.03595423889036852838e-02) (299, 2.16644574693858338321e-01) (300, -8.35945188689567464380e-02) (301, 9.49568013442144143177e-02) (302, 4.82062433445009153044e-01) (303, -3.54141140582975799678e-01) (304, 4.82915538710598890582e-01) (305, 2.74813648348851746750e-01) (306, 1.65968001455754549101e-01) (307, 3.24917801150348461992e-01) (308, -2.21212047489053931226e-01) (309, 7.64068910912544564662e-03) (310, 2.73805674955125366576e-01) (311, -4.09640611532161469377e-01) (312, -3.05152512918359986038e-01) (313, 6.01383899327993798334e-02) (314, -1.48880859329012432690e-01) (315, 4.39308247357096254282e-02) (316, 3.05786542839101109503e-02) (317, -3.45425958814416345088e-01) (318, -4.65970853321335365393e-01) (319, -7.18638795303284783067e-01) (320, -1.61642928048174955302e-01) (321, 1.32032038530029871559e-01) (322, -1.89177845898766211485e-01) (323, -1.03361894912281121472e-01) (324, -2.97090791464915071618e-01) (325, -1.14994201400681936298e-01) (326, -3.85750602751333104834e-01) (327, -1.87905647812828285881e-01) (328, 2.64916039059187313764e-01) (329, -2.96004882129022317550e-03) (330, -5.46597473812614111782e-03) (331, 4.35875216672800602780e-01) (332, 1.30094699429602611573e-01) (333, 1.03958128573898300750e-01) (334, -5.10186344684133378374e-03) (335, -6.60125043519225462862e-02) (336, -3.44060810707829470290e-02) (337, 2.78790048189505423881e-01) (338, 1.18585942918100775700e-01) (339, 2.56872998300758659251e-01) (340, -2.82921277717576691302e-01) (341, -1.99659562567019832624e-01) (342, 2.29025759701172199057e-01) (343, -1.52999951753554713774e-01) (344, 8.75772955213780235351e-02) (345, -9.20175892768204523042e-02) (346, -1.80343472957793966860e-02) (347, 2.00672298341242977271e-01) (348, -8.59112947733515208704e-02) (349, -2.16989573234036732530e-02) (350, 4.57300850008336701169e-01) (351, 1.00514889464738327307e-01) (352, 3.63281977346163909015e-01) (353, 2.61077741036179866718e-01) (354, 2.40861307816487763001e-01) (355, 3.69641237993229010428e-02) (356, -1.69678739024061636664e-01) (357, -6.86321423585420503644e-02) (358, 9.80782434172347700185e-02) (359, -2.56322421741675465778e-01) (360, -2.06560889027122579487e-01) (361, -3.82193631464479224857e-02) (362, 8.24478836190434133391e-02) (363, 2.85295539055245406246e-01) (364, -2.78989521002357077073e-01) (365, -3.11691501970997944526e-02) (366, 5.50450161088385514496e-02) (367, -1.39464706789451609037e-01) (368, -2.07522449772580080962e-01) (369, -3.94128692389008675190e-02) (370, -4.75233966291180795483e-02) (371, 1.52675702520863459943e-01) (372, -3.84285582544810433436e-01) (373, 1.87104551154034709493e-01) (374, 1.15384835607023089610e-01) (375, 1.76282636517886143190e-01) (376, 1.66530359168581720830e-01) (377, 2.26968112428906854117e-01) (378, -2.87175756287090633290e-01) (379, -6.35325928551597474137e-02) (380, -1.13405085584167800161e-01) (381, 4.49977885077903899669e-02) (382, 3.22999021104013669947e-02) (383, -5.92552753524793265893e-02) (384, 2.56613194936898714182e-01) (385, -1.26914165942977219537e-01) (386, 3.89549105987537502838e-02) (387, 3.31428126448156723516e-01) (388, 7.05586474468964386375e-02) (389, -2.32360370708465831247e-02) (390, 1.07561334668926575353e-01) (391, 7.71191357302958152564e-02) (392, 1.45031698885823984169e-01) (393, -1.66711573625391878961e-01) (394, -2.47115146966245868843e-01) (395, 1.25801322768582524159e-01) (396, -5.18915513085123514259e-01) (397, -1.50657903673865056771e-01) (398, 1.97240400659546344375e-01) (399, 6.36648419347156380166e-02) (400, -3.00816299899092753911e-01) (401, 1.26578723060341680196e-01) (402, -2.71623457222617881168e-01) (403, -1.69106930151734016765e-02) (404, -7.10706334709463871668e-02) (405, -3.58050928271246293733e-02) (406, 5.48152890729496980460e-02) (407, -1.45125635687522874795e-01) (408, 2.26579016119087608971e-02) (409, -9.84799904909280376941e-02) (410, 2.25039312773503807907e-01) (411, 1.08952226003862923109e-01) (412, 2.62015368588805058758e-02) (413, -8.87795256626150164347e-02) (414, 4.40402793777188994451e-02) (415, 1.14474783037489577509e-01) (416, -7.17889515080057244445e-02) (417, -2.04316192413356773061e-01) (418, -3.69913136996444569249e-01) (419, 1.08008799447746703382e-01) (420, -3.95418002101268095672e-01) (421, -3.35384713446732263264e-01) (422, 3.14954999532164880982e-01) (423, 2.80704808190277363411e-02) (424, 9.85051423791685615283e-02) (425, 6.72312013799077623499e-02) (426, -3.79423477994864644103e-01) (427, -5.04714806846966110299e-02) (428, -8.20347934055453281710e-02) (429, -6.35496820424044095432e-02) (430, -2.09269018696268994939e-02) (431, 2.10023599247198995699e-02) (432, 2.21907878773077819889e-02) (433, -6.21023630164729417702e-02) (434, 1.57790129785913002536e-01) (435, 1.52647678286129045988e-01) (436, 4.63958790751837091976e-03) (437, -1.97010831325720253693e-01) (438, 1.56628880252361435410e-01) (439, 1.65734882640629244133e-01) (440, 7.42648689723638816274e-02) (441, -1.57929098843695991938e-01) (442, 2.61449228647859070740e-02) (443, -2.55896882046910634223e-01) (444, -9.71402763344339781337e-02) (445, -1.94923253563383303000e-01) (446, 4.22815959469901581080e-02) (447, 1.80173580860021831374e-01) (448, 2.72493688206961633125e-02) (449, -2.09443307473645354277e-02) (450, -1.95599149972807750952e-01) (451, -1.38672862255457995939e-01) (452, 1.50543280570411525110e-01) (453, -1.63679825898969816267e-01) (454, -3.99720306665644828370e-02) (455, -5.70829994114683061945e-02) (456, -2.22770047573773583016e-01) (457, -1.47208770432020352725e-01) (458, 1.12845431137261809074e-01) (459, 8.27806358455112911710e-02) (460, 6.77040499762890900237e-03) (461, -1.37792708556393837110e-02) (462, 7.61708398992277518902e-02) (463, 1.10264605936538764852e-01) (464, -2.13411545727100582237e-01) (465, -1.51597106762263095225e-01) (466, -9.35882059399773674757e-02) (467, 1.64044862110695521817e-01) (468, 3.79110162533104089189e-01) (469, -1.09300448715955123014e-01) (470, -6.44195490015890825930e-02) (471, -4.46603341266665482268e-02) (472, 2.22684004296598708761e-01) (473, 2.09913573189873053915e-01) (474, 1.50289962471810527311e-02) (475, -8.06717057724893188420e-02) (476, 6.31331133893275747715e-02) (477, 1.01537297865766859561e-01) (478, -8.60937278049363763355e-02) (479, -1.69099068878409836136e-02) (480, -7.31409497921211848581e-02) (481, -2.69280411382418656541e-02) (482, 4.10440711733723248567e-02) (483, -2.36321905390075720499e-01) (484, -4.68267357696407204859e-02) (485, 1.18350865851210018675e-01) (486, 1.73456598553087745773e-02) (487, -8.06148744967323527266e-02) (488, 3.81716127322698434501e-03) (489, -1.68251329295643375916e-01) (490, -2.94051319302683966672e-01) (491, 1.42214372397265809145e-01) (492, -3.70312805345798454204e-02) (493, 1.36793984485923558747e-01) (494, 4.05917854153428903086e-02) (495, 9.04735360237895469560e-02) (496, -1.21303217539743307847e-03) (497, -2.20453699239187173031e-01) (498, -3.56657829263074543924e-02) (499, 1.74560071636996411160e-01) (500, 5.04770255431269063151e-02) (501, -2.58380031065173931815e-01) (502, 3.32020113230661051418e-02) (503, -5.68880223218329039714e-02) (504, -1.98454053358029791632e-01) (505, -3.11534899165303545698e-02) (506, -2.45746314866218756867e-01) (507, -2.35239838356651909113e-01) (508, -1.50453435608032537463e-01) (509, 2.36191608077245956965e-01) (510, -1.77687531985379593147e-01) (511, 8.12572988970507864570e-02) (512, 3.23665787624739242911e-01) (513, -1.27303454105336194546e-01) (514, -7.80261732458159690262e-02) (515, 1.08192546713525863944e-01) (516, 3.98039937257436068907e-02) (517, 2.90599363123386966734e-01) (518, -2.87107660851878387920e-01) (519, -1.32632576880287650356e-01) (520, 2.94861556321388884605e-01) (521, -6.99669384334127841818e-02) (522, 3.20802721241852384360e-02) (523, 1.03814737939569717851e-01) (524, -5.03490392748275450430e-01) (525, -1.03058766729158840514e-01) (526, -1.05903557689163638211e-01) (527, -1.21477301421762634570e-01) (528, -1.50584939625070718394e-01) (529, 2.52247274948990296561e-01) (530, 1.90503207711820443659e-02) (531, -1.11180687167126771020e-01) (532, 1.74909638569880968029e-02) (533, -7.85734141498905386269e-03) (534, -5.70724370524228891144e-02) (535, -6.73154039877833232364e-02) (536, 1.66461570951532106255e-01) (537, 4.34629713098038522601e-02) (538, -1.90324731026432325542e-01) (539, 1.23601022572017889278e-02) (540, -9.56351576842514594645e-02) (541, -3.80727351727166221651e-02) (542, -4.19262200529706904883e-02) (543, -1.86177831210120714456e-01) (544, 1.55929541602824794921e-01) (545, -1.25189790460568300956e-01) (546, -9.97053859834310940435e-02) (547, 1.74736924849550390171e-01) (548, 1.27976186776459582850e-01) (549, -1.84870840400516746327e-02) (550, 1.48846932661662267883e-01) (551, -1.50999396250133893771e-01) (552, -5.23889611790436693362e-01) (0, 9.32558674844508328494e-02) (1, -2.04214112448990792181e-01) (2, -1.19652634849992028920e-01) (3, -4.79010844815903474858e-02) (4, 2.44246594694260375780e-02) (5, 1.73941156110211173069e-02) (6, -1.09036640181381261350e-01) (7, 4.26600983644871631362e-02) (8, -3.43722323501002707813e-02) (9, -2.09399289848156228144e-01) (10, -7.36915822004226839237e-02) (11, -1.14565435368551515882e-01) (12, -8.20811837078197908957e-02) (13, -1.81989496975628536890e-02) (14, 1.39799804448235004406e-01) (15, -7.18156942964092159798e-02) (16, -1.37662228457615231497e-02) (17, -2.90765504341635623586e-02) (18, 4.31909691736231948767e-02) (19, -1.40697786082537384944e-01) (20, 3.28118422339905152496e-02) (21, -1.80554901075492546525e-01) (22, -8.98899238560286889532e-02) (23, 1.06771196244592525559e-01) (24, 1.34423865853518037516e-01) (25, -9.53029975045557586899e-02) (26, -8.62735627067314908567e-02) (27, 1.00595392414693429392e-03) (28, -1.47360942428144653382e-01) (29, -5.08120899428382080676e-02) (30, 1.61305321747599816895e-01) (31, 7.32910602873469568808e-02) (32, -5.51367548494777828805e-02) (33, -2.61247072462903462409e-01) (34, -4.87692926572578649980e-02) (35, -5.88800134273801192841e-02) (36, -1.62708260537596516304e-01) (37, -1.09711578546568086501e-01) (38, 9.31240687457875748745e-02) (39, 4.48955754238998666628e-02) (40, -9.37490532000620491182e-02) (41, -9.90478946446486235855e-02) (42, -3.77710477655730878649e-03) (43, -1.25525197630757590073e-01) (44, 2.07461842335138174631e-01) (45, -6.67457319226163192649e-02) (46, -1.42202243085860546845e-01) (47, 1.14974936428989082775e-03) (48, -5.96164444401623208614e-03) (49, -3.28031466026213192055e-02) (50, -7.19555959986859644539e-02) (51, -4.86360448299661199401e-02) (52, -8.76196175998216336689e-02) (53, -1.62121538557983585482e-01) (54, -8.09204593052543635912e-02) (55, 6.72070670986730546448e-03) (56, -1.96883835379344479533e-01) (57, 2.30252291862301540493e-02) (58, -3.31361318080661687580e-02) (59, -1.70063804153629344329e-01) (60, -8.66794792571845829077e-02) (61, -9.32316655590427201261e-02) (62, -1.07131161359969487301e-01) (63, -6.33834859684848650474e-02) (64, 1.20854236542154852563e-01) (65, -8.83952423401669074021e-02) (66, 4.44984413044907448076e-02) (67, 1.08831208197984613539e-02) (68, 5.56899304429711097808e-02) (69, -4.02554758152186414888e-02) (70, -7.31773486149206592311e-02) (71, 8.62067087397282716399e-02) (72, -2.20920526793283063249e-02) (73, 1.32801318323150757683e-01) (74, 9.06325265741590030411e-02) (75, -1.64393636881075999590e-01) (76, -1.79806407351374625270e-01) (77, -2.61819750330992383203e-02) (78, -7.13696365760605189177e-02) (79, 1.85977621648538204990e-01) (80, -2.28027265479635934953e-02) (81, -4.27341627139781604638e-02) (82, -8.02224931266441176891e-02) (83, -8.93709102364832197463e-02) (84, -1.07422950711644676902e-01) (85, 1.02754692503265014636e-02) (86, -1.61915112951602144231e-02) (87, -3.60851511122709661672e-02) (88, 4.40634911290968490829e-04) (89, 2.37652494149698557957e-02) (90, 5.10148291134629311427e-02) (91, -4.05904690632275105822e-02) (92, -1.48564791982934646733e-03) (93, 5.76630050062698143454e-02) (94, -9.10357056713232554168e-02) (95, -1.06973009986005659910e-01) (96, -1.22638906988099025130e-01) (97, 2.26086956483543044527e-01) (98, 2.51116657498922646319e-01) (99, 1.62169394062131794199e-01) (100, -8.23551366768995873890e-02) (101, -9.72701309187341822682e-03) (102, 2.13932387085325123599e-02) (103, 1.19327677563589709675e-01) (104, -9.59135166845067749231e-02) (105, -1.58631929368676899417e-01) (106, -1.21927155250663929453e-01) (107, -5.51400901788690542271e-02) (108, -4.74416918266976767038e-02) (109, -3.40528301961049648106e-02) (110, -1.78902511146492096406e-02) (111, 2.76870158800832913328e-04) (112, -1.16383468697594819052e-01) (113, 5.19814967203700434295e-02) (114, -7.27032880540599141250e-02) (115, -7.81778043617269852161e-02) (116, -6.28993912483149092418e-02) (117, -5.70970091519457934037e-02) (118, 3.38579380891422740407e-02) (119, -7.96349062281879321867e-02) (120, 8.02601623778890077565e-02) (121, 1.20117015555315759245e-01) (122, -1.19714343553192090197e-01) (123, -1.34563075589788638808e-01) (124, -1.49124473207877972225e-01) (125, -4.91276212826654359866e-02) (126, -6.99127975400799517303e-02) (127, 1.58910148658742089722e-01) (128, -1.10513125298575390354e-01) (129, 9.98609887867441120557e-02) (130, -1.40378917922697327159e-01) (131, 1.53096035432844779223e-02) (132, -1.25357419506617356886e-01) (133, -2.25607055977481048281e-03) (134, 1.88438992120610937508e-01) (135, -7.89434150485053137691e-02) (136, 2.85247133781572556610e-02) (137, 1.80170159572445587326e-01) (138, 1.16540475041190749739e-01) (139, 5.32359874317206091532e-02) (140, -6.93865925864742827400e-02) (141, -1.51710299707841830136e-02) (142, -1.33130761110510559275e-01) (143, -1.55250573944851876645e-02) (144, 1.45627469101343914870e-01) (145, -2.99142140587663508955e-02) (146, -1.30498356993069442034e-01) (147, -2.72359505846835638077e-02) (148, 1.60332502199064271366e-04) (149, -1.49076407214977169069e-01) (150, -2.29239881800784722765e-01) (151, 2.00768731477884876391e-01) (152, 4.01718921479861448831e-02) (153, -8.65222991239283784060e-02) (154, 4.90300605224019275807e-02) (155, -1.87255904850692711516e-01) (156, 8.79847891148036465037e-02) (157, -7.54808958133013421787e-03) (158, 2.47021818353050925943e-01) (159, -6.98428061575967346064e-02) (160, 1.40698885234575975928e-02) (161, 1.11166475957189272994e-01) (162, 2.43348200264997226172e-02) (163, 4.03715724379029652913e-02) (164, -1.70525989571527536448e-01) (165, -2.72114848543375704992e-02) (166, -1.18901749226119776703e-01) (167, -1.10507447112356105290e-01) (168, 2.33953797943107777435e-02) (169, 9.18937241073422977911e-02) (170, 1.29799434180935369110e-01) (171, -8.84848439440951151091e-02) (172, -3.75509265008594017923e-03) (173, 1.30001736391943428783e-01) (174, -5.63321692038541016467e-02) (175, 4.21206083140535536558e-01) (176, 9.15092686734196025800e-02) (177, -8.07415847603710490343e-02) (178, -2.86152494194518679238e-02) (179, -8.90335344880508958165e-03) (180, -1.18820607103650069392e-01) (181, -4.73434518396018688691e-02) (182, -1.20240791326061635669e-01) (183, -2.33204271703889819134e-02) (184, 4.22032215104532273942e-02) (185, 1.52768916932632892181e-01) (186, 7.26292585644552346480e-02) (187, -2.59331545631774976202e-02) (188, -1.45735997331135180843e-01) (189, -1.05345131238179026689e-01) (190, 3.65440169064919773145e-02) (191, -1.10527349908959182656e-01) (192, -1.97965195754563894059e-01) (193, 1.34671273023671156377e-01) (194, 1.90858466751534311401e-01) (195, 1.44958442312539320662e-01) (196, -1.93601702503005471123e-02) (197, -6.06917064133333955013e-04) (198, 2.41782046310111270460e-02) (199, 3.14387247555117765874e-01) (200, 1.07032254583448158125e-01) (201, -1.01652737249095098671e-01) (202, -1.85081528861962968380e-02) (203, -4.02327368028360388141e-02) (204, -1.24489071137181120386e-01) (205, 3.54477568940451265300e-02) (206, -1.81008697401293099528e-04) (207, 2.21619593727780006542e-01) (208, -2.82351015295104063041e-02) (209, 1.23562647707424713706e-01) (210, 1.52513435613936709778e-01) (211, -3.78889688705809878078e-03) (212, -1.64645163046570064402e-01) (213, -5.95644544987133581215e-02) (214, -1.33288453618552654723e-01) (215, -1.28795356620290835786e-02) (216, -1.26983511987868280535e-01) (217, -1.25476530323824109203e-01) (218, 1.88387745697360609043e-01) (219, 1.16680600829264943807e-01) (220, -1.28261979176622686882e-01) (221, 4.49081436568151415312e-02) (222, -7.98741522232635781098e-02) (223, 1.20340742314831675164e-01) (224, 1.29652645512593700516e-01) (225, -3.48271539676981572997e-02) (226, 1.21679894766781419857e-02) (227, -8.75320121016680274817e-02) (228, 1.84929675444051554167e-02) (229, 2.37819997196584281829e-01) (230, -1.93963933339387273325e-01) (231, 4.57309804002614195620e-04) (232, -1.14781753732902877529e-01) (233, 5.26388957469144797008e-03) (234, 2.89412366631826345476e-01) (235, -8.09377089805900645780e-02) (236, -1.73740852508422166656e-01) (237, -1.64310162305093196422e-02) (238, -2.52793180727815224029e-02) (239, 1.30075844072019136677e-01) (240, -1.54695856361362904519e-01) (241, -3.76029218748102744829e-01) (242, -3.95797751107540146664e-02) (243, 8.49513837893652312694e-02) (244, -6.43071368164257473055e-02) (245, -1.08262502769206722664e-01) (246, -1.64266984959487577500e-01) (247, 3.86572351184914508870e-02) (248, -1.54130108992453773720e-01) (249, -2.35878788416193307942e-01) (250, 1.10367018381172646291e-01) (251, -1.92118966475342822786e-01) (252, -1.62709432927473113262e-01) (253, -1.46530053733824171952e-02) (254, 6.78528854957456684094e-02) (255, -1.57389591654784138930e-01) (256, -2.29620754263804266460e-01) (257, 4.78422590256329521852e-02) (258, -2.49437002981784880506e-02) (259, -2.68905228031986576198e-01) (260, 1.08780672397115751870e-02) (261, -1.52407789072294880262e-01) (262, 9.18421458713925237087e-04) (263, 4.03440065111748513704e-01) (264, -5.48245053962446646234e-03) (265, -2.14309040410440521107e-01) (266, 9.52505040725626778153e-02) (267, 3.26250674454108324785e-01) (268, -9.42162499084300414376e-02) (269, -1.27077349014958207452e-01) (270, 1.24613288867855536574e-02) (271, 9.83147870970113441080e-02) (272, -2.79404124674928089345e-01) (273, -1.93876500380016192349e-01) (274, 8.59257055067449426744e-02) (275, -1.20680915267393981671e-01) (276, -3.89060302831100227050e-02) (277, 8.61732745053215842823e-02) (278, 3.69598998628837410729e-02) (279, -5.53016491878499105717e-02) (280, -2.40469264381210967585e-01) (281, 6.45444061202264662835e-02) (282, -2.51786474554037617568e-02) (283, -2.84309592590446968963e-01) (284, 2.71876351206468240551e-02) (285, -1.08490965658945628936e-01) (286, -7.85252312198827795431e-02) (287, 8.70340093970298767090e-02) (288, -3.85633483918174854721e-02) (289, -2.43269320375472719586e-01) (290, 9.91934941323184965478e-02) (291, 1.38030984333432499289e-01) (292, -1.52472706449138274698e-02) (293, 1.22329048529598069517e-01) (294, 4.00748485481242644468e-02) (295, 1.73542356219097498871e-01) (296, -2.75210840817852490578e-03) (297, -7.38823764935330196124e-02) (298, 9.13159360967809655141e-03) (299, 3.82208608187138768053e-02) (300, 7.89433866060985367508e-02) (301, 1.45741506169311196839e-01) (302, -8.37548993453232359929e-02) (303, -7.85682952354514324567e-02) (304, -1.15181659248562041215e-02) (305, 1.14444857077238865140e-01) (306, 1.50131735671997279535e-01) (307, -2.24625324592180791727e-01) (308, -2.61182460316996656324e-01) (309, 6.23845080773902382898e-02) (310, -1.67776307991714279666e-01) (311, 8.34114033764417062145e-02) (312, 1.04804885252587146049e-01) (313, -1.28117402152902210011e-01) (314, 1.12041378968454775206e-02) (315, 2.42766971636896644604e-01) (316, 6.32277705520570415532e-02) (317, 2.06164257570778053363e-01) (318, 9.71512197929848692057e-02) (319, -4.29115499708503534554e-03) (320, 1.01935264552103735380e-01) (321, -1.29224464945584233133e-01) (322, -3.16959475843680144047e-02) (323, 1.40997341464469683192e-01) (324, 3.90114649764205069851e-03) (325, 4.59092364387386937807e-04) (326, 1.03574806055462736998e-01) (327, 5.19871212919071137848e-02) (328, 7.94657252296930571855e-02) (329, -2.15537425465989647411e-02) (330, 1.24479288517610297941e-03) (331, 4.28315100423218922399e-02) (332, -3.65870140085868045254e-01) (333, 7.94066636633098711651e-03) (334, -6.21252074417268443374e-02) (335, 5.93265024924713516019e-02) (336, -7.74717726702618542101e-02) (337, 4.13530306327794250354e-02) (338, -5.54931881524454093113e-02) (339, 4.34415298459764620542e-02) (340, -1.07969100269785955870e-01) (341, 1.45865386184179605250e-02) (342, 5.58436846921872148686e-02) (343, -1.33802180267588253365e-02) (344, -1.19855984097602619176e-01) (345, 1.39803884994437993550e-01) (346, 1.54237631817342947700e-03) (347, 2.51326155617503377293e-02) (348, 8.62861136009741291897e-02) (349, -1.02495062458268185179e-01) (350, 1.37308844817490199874e-01) (351, -2.17508820132071636899e-02) (352, 1.57164128065508737486e-02) (353, 1.90194335198155706212e-01) (354, -1.81041780102978694389e-01) (355, 1.10292331983162877895e-01) (356, -2.38475672687991718801e-01) (357, -1.13933236413442107171e-01) (358, -1.62406474052938509800e-01) (359, -2.78211552936322749352e-02) (360, -4.22115396451421681645e-03) (361, -8.51522235619613931945e-02) (362, -3.34375263749776274746e-01) (363, -1.24440462406117710592e-01) (364, 2.31090471488330524014e-03) (365, 7.20824499749294494988e-03) (366, -7.68077918951802635084e-02) (367, -2.12861120170882434088e-01) (368, -2.30304747805111786896e-01) (369, 2.60622660839638198293e-01) (370, 8.69299471442504384511e-02) (371, -1.11297323754977459109e-01) (372, 1.06272584537173198083e-01) (373, 1.54657417250362749783e-01) (374, 5.45792771984262986562e-02) (375, -1.84210652909999078597e-01) (376, 7.61149919787357798207e-02) (377, 1.30951451781654432116e-01) (378, 9.37119271449551177744e-02) (379, 1.66981985625886952818e-01) (380, 1.41489409889012981297e-02) (381, 4.78331082771377980034e-02) (382, -1.07442603472207590110e-01) (383, 3.60757681068862925966e-02) (384, 1.26515371514773850015e-01) (385, -7.27344157803803126328e-02) (386, -1.33167052104619293429e-01) (387, 7.61948389167143858014e-02) (388, -2.52763183312416199466e-02) (389, -3.07760630355145663184e-02) (390, 3.34178710770667158902e-02) (391, -3.00654326690419290702e-02) (392, -1.02723006697612043170e-01) (393, 6.24240739300532393452e-02) (394, 4.09098487156053305935e-02) (395, -6.50094642075999123998e-02) (396, 7.23536254596050722870e-03) (397, 4.66828969648600891618e-02) (398, 1.64313462934570414520e-01) (399, -7.63956884013670678435e-02) (400, 6.83552923317364002909e-02) (401, -2.35206536641809210719e-02) (402, 1.86233734841242982994e-02) (403, -1.28422238011378780920e-01) (404, 8.47983817412330670438e-02) (405, -7.85161347133448150881e-02) (406, -3.53864109253508238306e-02) (407, -4.43747684848202605251e-03) (408, 7.04208861574286970608e-02) (409, -3.63482062853060713947e-02) (410, -1.12757691456410749642e-01) (411, -1.12967628285288671647e-02) (412, 8.33527531582060887683e-02) (413, -5.20073484524751841751e-02) (414, -1.71450473933345876217e-04) (415, -6.32221224341404930414e-02) (416, 8.68678278112299841196e-03) (417, 6.18212144458292270355e-02) (418, -3.02459993119494167935e-02) (419, 9.38354588524650951031e-02) (420, -3.61112815766918004989e-02) (421, -4.08385259853867033097e-02) (422, 8.18501426253952918399e-02) (423, 2.77126712487774339022e-02) (424, 1.03604295140540828002e-01) (425, 1.65039794098679470924e-01) (426, -6.41616262706082851608e-02) (427, -4.80715694075226282478e-02) (428, -1.50713801245209888524e-01) (429, 1.01373692243449081696e-01) (430, -7.82711174275913107445e-02) (431, 5.69125040585118958936e-03) (432, 2.50460535182257970632e-01) (433, -2.19962045566744479608e-01) (434, 1.20851784451198700221e-02) (435, 1.40904911251383165027e-02) (436, 3.46780004403331038043e-02) (437, -1.02696081112302189942e-01) (438, -1.98655895575686816668e-02) (439, -8.26377767790730660691e-02) (440, -8.91783046847872129526e-02) (441, 1.29200851107031999820e-01) (442, 2.09669453501927505190e-01) (443, -5.08597905233973621164e-02) (444, 1.32331745931627952489e-02) (445, 1.29824010581184062785e-01) (446, -3.42667196996545367349e-02) (447, -3.48633905637020513613e-02) (448, -2.16754270015388182669e-02) (449, -2.96793271361100591266e-02) (450, -6.00707731971130698412e-02) (451, 2.10478075127773722741e-01) (452, -1.12700927179556681379e-01) (453, 1.07719857447306791021e-01) (454, 7.59766556007477472656e-02) (455, -5.94941461109450564493e-02) (456, 6.00013687672255741079e-02) (457, -2.61787163381369814008e-01) (458, -1.49962193933982357308e-01) (459, -1.34583679084930324388e-01) (460, -6.13090367182422685266e-02) (461, -1.68137888798829848724e-01) (462, 7.82057235211643386741e-02) (463, 3.37491728118800501934e-02) (464, -1.12415191845839507190e-01) (465, 2.14232141029824268985e-01) (466, 9.45207715437060697061e-02) (467, -1.70808403028876926166e-01) (468, 1.25527182806975199508e-02) (469, 9.47908886544300138821e-02) (470, -1.06226837164477477815e-01) (471, -2.16007365141123619523e-01) (472, 1.12370678316434016025e-03) (473, 3.54052864821601184775e-02) (474, -3.40691549194281004254e-02) (475, 1.27218054911634070869e-01) (476, 5.23144670885736517985e-02) (477, 1.12581861376879033276e-01) (478, -2.68432530850111969456e-02) (479, -1.17745164706084134987e-01) (480, 2.98225432301038005656e-02) (481, -9.30072840364578740102e-02) (482, -1.65929700520027305355e-02) (483, -1.37880042410755826454e-02) (484, 1.07646850700640742127e-01) (485, -9.24401359779635500846e-02) (486, -1.73720037639892049830e-01) (487, 7.24843088258726314654e-02) (488, -1.61317586585979305669e-01) (489, -2.44083762701294837427e-02) (490, 1.06967914115406372705e-02) (491, -1.92696972013461476081e-01) (492, -4.45531912581137445883e-02) (493, -6.95012428353662253810e-02) (494, -5.32031528816852006258e-02) (495, 1.61993102887222212294e-02) (496, 3.14745698206906274197e-02) (497, -1.19830596741510708031e-02) (498, -8.25049503429383518371e-02) (499, 3.72849748371072708952e-02) (500, -1.26904166573599090639e-02) (501, 1.35824271733278850727e-01) (502, -7.91065602490521463386e-02) (503, 3.95238354112599325763e-03) (504, 2.90604026653403652025e-02) (505, -9.46615190741508377714e-02) (506, -6.45104126102220426509e-02) (507, 8.71807888203150575801e-03) (508, 5.84257053450304014719e-02) (509, -1.92251709813948512551e-01) (510, -7.63418580871277202560e-02) (511, 5.43393314350136338864e-02) (512, -1.48825894333121599988e-01) (513, 1.47607291804419143988e-01) (514, 2.31564042328784691627e-01) (515, -1.11269401629866412917e-01) (516, 1.08095903204119991869e-01) (517, -1.32521297322492265236e-01) (518, -6.95598951280348987147e-02) (519, 8.40403715548431740068e-02) (520, -4.82672750495526450831e-02) (521, -9.48714191154592240141e-02) (522, 1.43082743616061186520e-01) (523, 6.37448228187490750773e-02) (524, -9.65905105024177784712e-02) (525, 3.60401493602123743076e-02) (526, -4.50746733410853223090e-02) (527, -9.81054624672801495189e-02) (528, 2.66316033500913429410e-01) (529, 