FANN_FLO_2.1
num_layers=3
learning_rate=0.700000
connection_rate=1.000000
network_type=0
learning_momentum=0.000000
training_algorithm=0
train_error_function=1
train_stop_function=0
cascade_output_change_fraction=0.010000
quickprop_decay=-0.000100
quickprop_mu=1.750000
rprop_increase_factor=1.200000
rprop_decrease_factor=0.500000
rprop_delta_min=0.000000
rprop_delta_max=50.000000
rprop_delta_zero=0.100000
cascade_output_stagnation_epochs=12
cascade_candidate_change_fraction=0.010000
cascade_candidate_stagnation_epochs=12
cascade_max_out_epochs=150
cascade_max_cand_epochs=150
cascade_num_candidate_groups=2
bit_fail_limit=3.49999999999999977796e-01
cascade_candidate_limit=1.00000000000000000000e+03
cascade_weight_multiplier=4.00000000000000022204e-01
cascade_activation_functions_count=10
cascade_activation_functions=3 5 7 8 10 11 14 15 16 17 
cascade_activation_steepnesses_count=4
cascade_activation_steepnesses=2.50000000000000000000e-01 5.00000000000000000000e-01 7.50000000000000000000e-01 1.00000000000000000000e+00 
layer_sizes=553 181 4 
scale_included=0
neurons (num_inputs, activation_function, activation_steepness)=(0, 0, 0.00000000000000000000e+00) (0, 0, 0.00000000000000000000e+00) (0, 0, 0.00000000000000000000e+00) (0, 0, 0.00000000000000000000e+00) (0, 0, 0.00000000000000000000e+00) (0, 0, 0.00000000000000000000e+00) (0, 0, 0.00000000000000000000e+00) (0, 0, 0.00000000000000000000e+00) (0, 0, 0.00000000000000000000e+00) (0, 0, 0.00000000000000000000e+00) (0, 0, 0.00000000000000000000e+00) (0, 0, 0.00000000000000000000e+00) (0, 0, 0.00000000000000000000e+00) (0, 0, 0.00000000000000000000e+00) (0, 0, 0.00000000000000000000e+00) (0, 0, 0.00000000000000000000e+00) (0, 0, 0.00000000000000000000e+00) (0, 0, 0.00000000000000000000e+00) (0, 0, 0.00000000000000000000e+00) (0, 0, 0.00000000000000000000e+00) (0, 0, 0.00000000000000000000e+00) (0, 0, 0.00000000000000000000e+00) (0, 0, 0.00000000000000000000e+00) (0, 0, 0.00000000000000000000e+00) (0, 0, 0.00000000000000000000e+00) (0, 0, 0.00000000000000000000e+00) (0, 0, 0.00000000000000000000e+00) (0, 0, 0.00000000000000000000e+00) (0, 0, 0.00000000000000000000e+00) (0, 0, 0.00000000000000000000e+00) (0, 0, 0.00000000000000000000e+00) (0, 0, 0.00000000000000000000e+00) (0, 0, 0.00000000000000000000e+00) (0, 0, 0.00000000000000000000e+00) (0, 0, 0.00000000000000000000e+00) (0, 0, 0.00000000000000000000e+00) (0, 0, 0.00000000000000000000e+00) (0, 0, 0.00000000000000000000e+00) (0, 0, 0.00000000000000000000e+00) (0, 0, 0.00000000000000000000e+00) (0, 0, 0.00000000000000000000e+00) (0, 0, 0.00000000000000000000e+00) (0, 0, 0.00000000000000000000e+00) (0, 0, 0.00000000000000000000e+00) (0, 0, 0.00000000000000000000e+00) (0, 0, 0.00000000000000000000e+00) (0, 0, 0.00000000000000000000e+00) (0, 0, 0.00000000000000000000e+00) (0, 0, 0.00000000000000000000e+00) (0, 0, 0.00000000000000000000e+00) (0, 0, 0.00000000000000000000e+00) (0, 0, 0.00000000000000000000e+00) (0, 0, 0.00000000000000000000e+00) (0, 0, 0.00000000000000000000e+00) (0, 0, 0.00000000000000000000e+00) (0, 0, 0.00000000000000000000e+00) (0, 0, 0.00000000000000000000e+00) (0, 0, 0.00000000000000000000e+00) (0, 0, 0.00000000000000000000e+00) (0, 0, 0.00000000000000000000e+00) (0, 0, 0.00000000000000000000e+00) (0, 0, 0.00000000000000000000e+00) (0, 0, 0.00000000000000000000e+00) (0, 0, 0.00000000000000000000e+00) (0, 0, 0.00000000000000000000e+00) (0, 0, 0.00000000000000000000e+00) (0, 0, 0.00000000000000000000e+00) (0, 0, 0.00000000000000000000e+00) (0, 0, 0.00000000000000000000e+00) (0, 0, 0.00000000000000000000e+00) (0, 0, 0.00000000000000000000e+00) (0, 0, 0.00000000000000000000e+00) (0, 0, 0.00000000000000000000e+00) (0, 0, 0.00000000000000000000e+00) (0, 0, 0.00000000000000000000e+00) (0, 0, 0.00000000000000000000e+00) (0, 0, 0.00000000000000000000e+00) (0, 0, 0.00000000000000000000e+00) (0, 0, 0.00000000000000000000e+00) (0, 0, 0.00000000000000000000e+00) (0, 0, 0.00000000000000000000e+00) (0, 0, 0.00000000000000000000e+00) (0, 0, 0.00000000000000000000e+00) (0, 0, 0.00000000000000000000e+00) (0, 0, 0.00000000000000000000e+00) (0, 0, 0.00000000000000000000e+00) (0, 0, 0.00000000000000000000e+00) (0, 0, 0.00000000000000000000e+00) (0, 0, 0.00000000000000000000e+00) (0, 0, 0.00000000000000000000e+00) (0, 0, 0.00000000000000000000e+00) (0, 0, 0.00000000000000000000e+00) (0, 0, 0.00000000000000000000e+00) (0, 0, 0.00000000000000000000e+00) (0, 0, 0.00000000000000000000e+00) (0, 0, 0.00000000000000000000e+00) (0, 0, 0.00000000000000000000e+00) (0, 0, 0.00000000000000000000e+00) (0, 0, 0.00000000000000000000e+00) (0, 0, 0.00000000000000000000e+00) (0, 0, 0.00000000000000000000e+00) (0, 0, 0.00000000000000000000e+00) (0, 0, 0.00000000000000000000e+00) (0, 0, 0.00000000000000000000e+00) (0, 0, 0.00000000000000000000e+00) (0, 0, 0.00000000000000000000e+00) (0, 0, 0.00000000000000000000e+00) (0, 0, 0.00000000000000000000e+00) (0, 0, 0.00000000000000000000e+00) (0, 0, 0.00000000000000000000e+00) (0, 0, 0.00000000000000000000e+00) (0, 0, 0.00000000000000000000e+00) (0, 0, 0.00000000000000000000e+00) (0, 0, 0.00000000000000000000e+00) (0, 0, 0.00000000000000000000e+00) (0, 0, 0.00000000000000000000e+00) (0, 0, 0.00000000000000000000e+00) (0, 0, 0.00000000000000000000e+00) (0, 0, 0.00000000000000000000e+00) (0, 0, 0.00000000000000000000e+00) (0, 0, 0.00000000000000000000e+00) (0, 0, 0.00000000000000000000e+00) (0, 0, 0.00000000000000000000e+00) (0, 0, 0.00000000000000000000e+00) (0, 0, 0.00000000000000000000e+00) (0, 0, 0.00000000000000000000e+00) (0, 0, 0.00000000000000000000e+00) (0, 0, 0.00000000000000000000e+00) (0, 0, 0.00000000000000000000e+00) (0, 0, 0.00000000000000000000e+00) (0, 0, 0.00000000000000000000e+00) (0, 0, 0.00000000000000000000e+00) (0, 0, 0.00000000000000000000e+00) (0, 0, 0.00000000000000000000e+00) (0, 0, 0.00000000000000000000e+00) (0, 0, 0.00000000000000000000e+00) (0, 0, 0.00000000000000000000e+00) (0, 0, 0.00000000000000000000e+00) (0, 0, 0.00000000000000000000e+00) (0, 0, 0.00000000000000000000e+00) (0, 0, 0.00000000000000000000e+00) (0, 0, 0.00000000000000000000e+00) (0, 0, 0.00000000000000000000e+00) (0, 0, 0.00000000000000000000e+00) (0, 0, 0.00000000000000000000e+00) (0, 0, 0.00000000000000000000e+00) (0, 0, 0.00000000000000000000e+00) (0, 0, 0.00000000000000000000e+00) (0, 0, 0.00000000000000000000e+00) (0, 0, 0.00000000000000000000e+00) (0, 0, 0.00000000000000000000e+00) (0, 0, 0.00000000000000000000e+00) (0, 0, 0.00000000000000000000e+00) (0, 0, 0.00000000000000000000e+00) (0, 0, 0.00000000000000000000e+00) (0, 0, 0.00000000000000000000e+00) (0, 0, 0.00000000000000000000e+00) (0, 0, 0.00000000000000000000e+00) (0, 0, 0.00000000000000000000e+00) (0, 0, 0.00000000000000000000e+00) (0, 0, 0.00000000000000000000e+00) (0, 0, 0.00000000000000000000e+00) (0, 0, 0.00000000000000000000e+00) (0, 0, 0.00000000000000000000e+00) (0, 0, 0.00000000000000000000e+00) (0, 0, 0.00000000000000000000e+00) (0, 0, 0.00000000000000000000e+00) (0, 0, 0.00000000000000000000e+00) (0, 0, 0.00000000000000000000e+00) (0, 0, 0.00000000000000000000e+00) (0, 0, 0.00000000000000000000e+00) (0, 0, 0.00000000000000000000e+00) (0, 0, 0.00000000000000000000e+00) (0, 0, 0.00000000000000000000e+00) (0, 0, 0.00000000000000000000e+00) (0, 0, 0.00000000000000000000e+00) (0, 0, 0.00000000000000000000e+00) (0, 0, 0.00000000000000000000e+00) (0, 0, 0.00000000000000000000e+00) (0, 0, 0.00000000000000000000e+00) (0, 0, 0.00000000000000000000e+00) (0, 0, 0.00000000000000000000e+00) (0, 0, 0.00000000000000000000e+00) (0, 0, 0.00000000000000000000e+00) (0, 0, 0.00000000000000000000e+00) (0, 0, 0.00000000000000000000e+00) (0, 0, 0.00000000000000000000e+00) (0, 0, 0.00000000000000000000e+00) (0, 0, 0.00000000000000000000e+00) (0, 0, 0.00000000000000000000e+00) (0, 0, 0.00000000000000000000e+00) (0, 0, 0.00000000000000000000e+00) (0, 0, 0.00000000000000000000e+00) (0, 0, 0.00000000000000000000e+00) (0, 0, 0.00000000000000000000e+00) (0, 0, 0.00000000000000000000e+00) (0, 0, 0.00000000000000000000e+00) (0, 0, 0.00000000000000000000e+00) (0, 0, 0.00000000000000000000e+00) (0, 0, 0.00000000000000000000e+00) (0, 0, 0.00000000000000000000e+00) (0, 0, 0.00000000000000000000e+00) (0, 0, 0.00000000000000000000e+00) (0, 0, 0.00000000000000000000e+00) (0, 0, 0.00000000000000000000e+00) (0, 0, 0.00000000000000000000e+00) (0, 0, 0.00000000000000000000e+00) (0, 0, 0.00000000000000000000e+00) (0, 0, 0.00000000000000000000e+00) (0, 0, 0.00000000000000000000e+00) (0, 0, 0.00000000000000000000e+00) (0, 0, 0.00000000000000000000e+00) (0, 0, 0.00000000000000000000e+00) (0, 0, 0.00000000000000000000e+00) (0, 0, 0.00000000000000000000e+00) (0, 0, 0.00000000000000000000e+00) (0, 0, 0.00000000000000000000e+00) (0, 0, 0.00000000000000000000e+00) (0, 0, 0.00000000000000000000e+00) (0, 0, 0.00000000000000000000e+00) (0, 0, 0.00000000000000000000e+00) (0, 0, 0.00000000000000000000e+00) (0, 0, 0.00000000000000000000e+00) (0, 0, 0.00000000000000000000e+00) (0, 0, 0.00000000000000000000e+00) (0, 0, 0.00000000000000000000e+00) (0, 0, 0.00000000000000000000e+00) (0, 0, 0.00000000000000000000e+00) (0, 0, 0.00000000000000000000e+00) (0, 0, 0.00000000000000000000e+00) (0, 0, 0.00000000000000000000e+00) (0, 0, 0.00000000000000000000e+00) (0, 0, 0.00000000000000000000e+00) (0, 0, 0.00000000000000000000e+00) (0, 0, 0.00000000000000000000e+00) (0, 0, 0.00000000000000000000e+00) (0, 0, 0.00000000000000000000e+00) (0, 0, 0.00000000000000000000e+00) (0, 0, 0.00000000000000000000e+00) (0, 0, 0.00000000000000000000e+00) (0, 0, 0.00000000000000000000e+00) (0, 0, 0.00000000000000000000e+00) (0, 0, 0.00000000000000000000e+00) (0, 0, 0.00000000000000000000e+00) (0, 0, 0.00000000000000000000e+00) (0, 0, 0.00000000000000000000e+00) (0, 0, 0.00000000000000000000e+00) (0, 0, 0.00000000000000000000e+00) (0, 0, 0.00000000000000000000e+00) (0, 0, 0.00000000000000000000e+00) (0, 0, 0.00000000000000000000e+00) (0, 0, 0.00000000000000000000e+00) (0, 0, 0.00000000000000000000e+00) (0, 0, 0.00000000000000000000e+00) (0, 0, 0.00000000000000000000e+00) (0, 0, 0.00000000000000000000e+00) (0, 0, 0.00000000000000000000e+00) (0, 0, 0.00000000000000000000e+00) (0, 0, 0.00000000000000000000e+00) (0, 0, 0.00000000000000000000e+00) (0, 0, 0.00000000000000000000e+00) (0, 0, 0.00000000000000000000e+00) (0, 0, 0.00000000000000000000e+00) (0, 0, 0.00000000000000000000e+00) (0, 0, 0.00000000000000000000e+00) (0, 0, 0.00000000000000000000e+00) (0, 0, 0.00000000000000000000e+00) (0, 0, 0.00000000000000000000e+00) (0, 0, 0.00000000000000000000e+00) (0, 0, 0.00000000000000000000e+00) (0, 0, 0.00000000000000000000e+00) (0, 0, 0.00000000000000000000e+00) (0, 0, 0.00000000000000000000e+00) (0, 0, 0.00000000000000000000e+00) (0, 0, 0.00000000000000000000e+00) (0, 0, 0.00000000000000000000e+00) (0, 0, 0.00000000000000000000e+00) (0, 0, 0.00000000000000000000e+00) (0, 0, 0.00000000000000000000e+00) (0, 0, 0.00000000000000000000e+00) (0, 0, 0.00000000000000000000e+00) (0, 0, 0.00000000000000000000e+00) (0, 0, 0.00000000000000000000e+00) (0, 0, 0.00000000000000000000e+00) (0, 0, 0.00000000000000000000e+00) (0, 0, 0.00000000000000000000e+00) (0, 0, 0.00000000000000000000e+00) (0, 0, 0.00000000000000000000e+00) (0, 0, 0.00000000000000000000e+00) (0, 0, 0.00000000000000000000e+00) (0, 0, 0.00000000000000000000e+00) (0, 0, 0.00000000000000000000e+00) (0, 0, 0.00000000000000000000e+00) (0, 0, 0.00000000000000000000e+00) (0, 0, 0.00000000000000000000e+00) (0, 0, 0.00000000000000000000e+00) (0, 0, 0.00000000000000000000e+00) (0, 0, 0.00000000000000000000e+00) (0, 0, 0.00000000000000000000e+00) (0, 0, 0.00000000000000000000e+00) (0, 0, 0.00000000000000000000e+00) (0, 0, 0.00000000000000000000e+00) (0, 0, 0.00000000000000000000e+00) (0, 0, 0.00000000000000000000e+00) (0, 0, 0.00000000000000000000e+00) (0, 0, 0.00000000000000000000e+00) (0, 0, 0.00000000000000000000e+00) (0, 0, 0.00000000000000000000e+00) (0, 0, 0.00000000000000000000e+00) (0, 0, 0.00000000000000000000e+00) (0, 0, 0.00000000000000000000e+00) (0, 0, 0.00000000000000000000e+00) (0, 0, 0.00000000000000000000e+00) (0, 0, 0.00000000000000000000e+00) (0, 0, 0.00000000000000000000e+00) (0, 0, 0.00000000000000000000e+00) (0, 0, 0.00000000000000000000e+00) (0, 0, 0.00000000000000000000e+00) (0, 0, 0.00000000000000000000e+00) (0, 0, 0.00000000000000000000e+00) (0, 0, 0.00000000000000000000e+00) (0, 0, 0.00000000000000000000e+00) (0, 0, 0.00000000000000000000e+00) (0, 0, 0.00000000000000000000e+00) (0, 0, 0.00000000000000000000e+00) (0, 0, 0.00000000000000000000e+00) (0, 0, 0.00000000000000000000e+00) (0, 0, 0.00000000000000000000e+00) (0, 0, 0.00000000000000000000e+00) (0, 0, 0.00000000000000000000e+00) (0, 0, 0.00000000000000000000e+00) (0, 0, 0.00000000000000000000e+00) (0, 0, 0.00000000000000000000e+00) (0, 0, 0.00000000000000000000e+00) (0, 0, 0.00000000000000000000e+00) (0, 0, 0.00000000000000000000e+00) (0, 0, 0.00000000000000000000e+00) (0, 0, 0.00000000000000000000e+00) (0, 0, 0.00000000000000000000e+00) (0, 0, 0.00000000000000000000e+00) (0, 0, 0.00000000000000000000e+00) (0, 0, 0.00000000000000000000e+00) (0, 0, 0.00000000000000000000e+00) (0, 0, 0.00000000000000000000e+00) (0, 0, 0.00000000000000000000e+00) (0, 0, 0.00000000000000000000e+00) (0, 0, 0.00000000000000000000e+00) (0, 0, 0.00000000000000000000e+00) (0, 0, 0.00000000000000000000e+00) (0, 0, 0.00000000000000000000e+00) (0, 0, 0.00000000000000000000e+00) (0, 0, 0.00000000000000000000e+00) (0, 0, 0.00000000000000000000e+00) (0, 0, 0.00000000000000000000e+00) (0, 0, 0.00000000000000000000e+00) (0, 0, 0.00000000000000000000e+00) (0, 0, 0.00000000000000000000e+00) (0, 0, 0.00000000000000000000e+00) (0, 0, 0.00000000000000000000e+00) (0, 0, 0.00000000000000000000e+00) (0, 0, 0.00000000000000000000e+00) (0, 0, 0.00000000000000000000e+00) (0, 0, 0.00000000000000000000e+00) (0, 0, 0.00000000000000000000e+00) (0, 0, 0.00000000000000000000e+00) (0, 0, 0.00000000000000000000e+00) (0, 0, 0.00000000000000000000e+00) (0, 0, 0.00000000000000000000e+00) (0, 0, 0.00000000000000000000e+00) (0, 0, 0.00000000000000000000e+00) (0, 0, 0.00000000000000000000e+00) (0, 0, 0.00000000000000000000e+00) (0, 0, 0.00000000000000000000e+00) (0, 0, 0.00000000000000000000e+00) (0, 0, 0.00000000000000000000e+00) (0, 0, 0.00000000000000000000e+00) (0, 0, 0.00000000000000000000e+00) (0, 0, 0.00000000000000000000e+00) (0, 0, 0.00000000000000000000e+00) (0, 0, 0.00000000000000000000e+00) (0, 0, 0.00000000000000000000e+00) (0, 0, 0.00000000000000000000e+00) (0, 0, 0.00000000000000000000e+00) (0, 0, 0.00000000000000000000e+00) (0, 0, 0.00000000000000000000e+00) (0, 0, 0.00000000000000000000e+00) (0, 0, 0.00000000000000000000e+00) (0, 0, 0.00000000000000000000e+00) (0, 0, 0.00000000000000000000e+00) (0, 0, 0.00000000000000000000e+00) (0, 0, 0.00000000000000000000e+00) (0, 0, 0.00000000000000000000e+00) (0, 0, 0.00000000000000000000e+00) (0, 0, 0.00000000000000000000e+00) (0, 0, 0.00000000000000000000e+00) (0, 0, 0.00000000000000000000e+00) (0, 0, 0.00000000000000000000e+00) (0, 0, 0.00000000000000000000e+00) (0, 0, 0.00000000000000000000e+00) (0, 0, 0.00000000000000000000e+00) (0, 0, 0.00000000000000000000e+00) (0, 0, 0.00000000000000000000e+00) (0, 0, 0.00000000000000000000e+00) (0, 0, 0.00000000000000000000e+00) (0, 0, 0.00000000000000000000e+00) (0, 0, 0.00000000000000000000e+00) (0, 0, 0.00000000000000000000e+00) (0, 0, 0.00000000000000000000e+00) (0, 0, 0.00000000000000000000e+00) (0, 0, 0.00000000000000000000e+00) (0, 0, 0.00000000000000000000e+00) (0, 0, 0.00000000000000000000e+00) (0, 0, 0.00000000000000000000e+00) (0, 0, 0.00000000000000000000e+00) (0, 0, 0.00000000000000000000e+00) (0, 0, 0.00000000000000000000e+00) (0, 0, 0.00000000000000000000e+00) (0, 0, 0.00000000000000000000e+00) (0, 0, 0.00000000000000000000e+00) (0, 0, 0.00000000000000000000e+00) (0, 0, 0.00000000000000000000e+00) (0, 0, 0.00000000000000000000e+00) (0, 0, 0.00000000000000000000e+00) (0, 0, 0.00000000000000000000e+00) (0, 0, 0.00000000000000000000e+00) (0, 0, 0.00000000000000000000e+00) (0, 0, 0.00000000000000000000e+00) (0, 0, 0.00000000000000000000e+00) (0, 0, 0.00000000000000000000e+00) (0, 0, 0.00000000000000000000e+00) (0, 0, 0.00000000000000000000e+00) (0, 0, 0.00000000000000000000e+00) (0, 0, 0.00000000000000000000e+00) (0, 0, 0.00000000000000000000e+00) (0, 0, 0.00000000000000000000e+00) (0, 0, 0.00000000000000000000e+00) (0, 0, 0.00000000000000000000e+00) (0, 0, 0.00000000000000000000e+00) (0, 0, 0.00000000000000000000e+00) (0, 0, 0.00000000000000000000e+00) (0, 0, 0.00000000000000000000e+00) (0, 0, 0.00000000000000000000e+00) (0, 0, 0.00000000000000000000e+00) (0, 0, 0.00000000000000000000e+00) (0, 0, 0.00000000000000000000e+00) (0, 0, 0.00000000000000000000e+00) (0, 0, 0.00000000000000000000e+00) (0, 0, 0.00000000000000000000e+00) (0, 0, 0.00000000000000000000e+00) (0, 0, 0.00000000000000000000e+00) (0, 0, 0.00000000000000000000e+00) (0, 0, 0.00000000000000000000e+00) (0, 0, 0.00000000000000000000e+00) (0, 0, 0.00000000000000000000e+00) (0, 0, 0.00000000000000000000e+00) (0, 0, 0.00000000000000000000e+00) (0, 0, 0.00000000000000000000e+00) (0, 0, 0.00000000000000000000e+00) (0, 0, 0.00000000000000000000e+00) (0, 0, 0.00000000000000000000e+00) (0, 0, 0.00000000000000000000e+00) (0, 0, 0.00000000000000000000e+00) (0, 0, 0.00000000000000000000e+00) (0, 0, 0.00000000000000000000e+00) (0, 0, 0.00000000000000000000e+00) (0, 0, 0.00000000000000000000e+00) (0, 0, 0.00000000000000000000e+00) (0, 0, 0.00000000000000000000e+00) (0, 0, 0.00000000000000000000e+00) (0, 0, 0.00000000000000000000e+00) (0, 0, 0.00000000000000000000e+00) (0, 0, 0.00000000000000000000e+00) (0, 0, 0.00000000000000000000e+00) (0, 0, 0.00000000000000000000e+00) (0, 0, 0.00000000000000000000e+00) (0, 0, 0.00000000000000000000e+00) (0, 0, 0.00000000000000000000e+00) (0, 0, 0.00000000000000000000e+00) (0, 0, 0.00000000000000000000e+00) (0, 0, 0.00000000000000000000e+00) (0, 0, 0.00000000000000000000e+00) (0, 0, 0.00000000000000000000e+00) (0, 0, 0.00000000000000000000e+00) (0, 0, 0.00000000000000000000e+00) (0, 0, 0.00000000000000000000e+00) (0, 0, 0.00000000000000000000e+00) (0, 0, 0.00000000000000000000e+00) (0, 0, 0.00000000000000000000e+00) (0, 0, 0.00000000000000000000e+00) (0, 0, 0.00000000000000000000e+00) (0, 0, 0.00000000000000000000e+00) (0, 0, 0.00000000000000000000e+00) (0, 0, 0.00000000000000000000e+00) (0, 0, 0.00000000000000000000e+00) (0, 0, 0.00000000000000000000e+00) (0, 0, 0.00000000000000000000e+00) (0, 0, 0.00000000000000000000e+00) (0, 0, 0.00000000000000000000e+00) (0, 0, 0.00000000000000000000e+00) (0, 0, 0.00000000000000000000e+00) (0, 0, 0.00000000000000000000e+00) (0, 0, 0.00000000000000000000e+00) (0, 0, 0.00000000000000000000e+00) (0, 0, 0.00000000000000000000e+00) (0, 0, 0.00000000000000000000e+00) (0, 0, 0.00000000000000000000e+00) (0, 0, 0.00000000000000000000e+00) (0, 0, 0.00000000000000000000e+00) (0, 0, 0.00000000000000000000e+00) (0, 0, 0.00000000000000000000e+00) (0, 0, 0.00000000000000000000e+00) (0, 0, 0.00000000000000000000e+00) (0, 0, 0.00000000000000000000e+00) (0, 0, 0.00000000000000000000e+00) (0, 0, 0.00000000000000000000e+00) (0, 0, 0.00000000000000000000e+00) (0, 0, 0.00000000000000000000e+00) (0, 0, 0.00000000000000000000e+00) (0, 0, 0.00000000000000000000e+00) (0, 0, 0.00000000000000000000e+00) (0, 0, 0.00000000000000000000e+00) (0, 0, 0.00000000000000000000e+00) (0, 0, 0.00000000000000000000e+00) (0, 0, 0.00000000000000000000e+00) (0, 0, 0.00000000000000000000e+00) (0, 0, 0.00000000000000000000e+00) (0, 0, 0.00000000000000000000e+00) (0, 0, 0.00000000000000000000e+00) (0, 0, 0.00000000000000000000e+00) (0, 0, 0.00000000000000000000e+00) (0, 0, 0.00000000000000000000e+00) (0, 0, 0.00000000000000000000e+00) (0, 0, 0.00000000000000000000e+00) (0, 0, 0.00000000000000000000e+00) (0, 0, 0.00000000000000000000e+00) (0, 0, 0.00000000000000000000e+00) (0, 0, 0.00000000000000000000e+00) (0, 0, 0.00000000000000000000e+00) (0, 0, 0.00000000000000000000e+00) (0, 0, 0.00000000000000000000e+00) (0, 0, 0.00000000000000000000e+00) (0, 0, 0.00000000000000000000e+00) (0, 0, 0.00000000000000000000e+00) (0, 0, 0.00000000000000000000e+00) (0, 0, 0.00000000000000000000e+00) (0, 0, 0.00000000000000000000e+00) (0, 0, 0.00000000000000000000e+00) (0, 0, 0.00000000000000000000e+00) (0, 0, 0.00000000000000000000e+00) (0, 0, 0.00000000000000000000e+00) (0, 0, 0.00000000000000000000e+00) (0, 0, 0.00000000000000000000e+00) (0, 0, 0.00000000000000000000e+00) (553, 3, 5.00000000000000000000e-01) (553, 3, 5.00000000000000000000e-01) (553, 3, 5.00000000000000000000e-01) (553, 3, 5.00000000000000000000e-01) (553, 3, 5.00000000000000000000e-01) (553, 3, 5.00000000000000000000e-01) (553, 3, 5.00000000000000000000e-01) (553, 3, 5.00000000000000000000e-01) (553, 3, 5.00000000000000000000e-01) (553, 3, 5.00000000000000000000e-01) (553, 3, 5.00000000000000000000e-01) (553, 3, 5.00000000000000000000e-01) (553, 3, 5.00000000000000000000e-01) (553, 3, 5.00000000000000000000e-01) (553, 3, 5.00000000000000000000e-01) (553, 3, 5.00000000000000000000e-01) (553, 3, 5.00000000000000000000e-01) (553, 3, 5.00000000000000000000e-01) (553, 3, 5.00000000000000000000e-01) (553, 3, 5.00000000000000000000e-01) (553, 3, 5.00000000000000000000e-01) (553, 3, 5.00000000000000000000e-01) (553, 3, 5.00000000000000000000e-01) (553, 3, 5.00000000000000000000e-01) (553, 3, 5.00000000000000000000e-01) (553, 3, 5.00000000000000000000e-01) (553, 3, 5.00000000000000000000e-01) (553, 3, 5.00000000000000000000e-01) (553, 3, 5.00000000000000000000e-01) (553, 3, 5.00000000000000000000e-01) (553, 3, 5.00000000000000000000e-01) (553, 3, 5.00000000000000000000e-01) (553, 3, 5.00000000000000000000e-01) (553, 3, 5.00000000000000000000e-01) (553, 3, 5.00000000000000000000e-01) (553, 3, 5.00000000000000000000e-01) (553, 3, 5.00000000000000000000e-01) (553, 3, 5.00000000000000000000e-01) (553, 3, 5.00000000000000000000e-01) (553, 3, 5.00000000000000000000e-01) (553, 3, 5.00000000000000000000e-01) (553, 3, 5.00000000000000000000e-01) (553, 3, 5.00000000000000000000e-01) (553, 3, 5.00000000000000000000e-01) (553, 3, 5.00000000000000000000e-01) (553, 3, 5.00000000000000000000e-01) (553, 3, 5.00000000000000000000e-01) (553, 3, 5.00000000000000000000e-01) (553, 3, 5.00000000000000000000e-01) (553, 3, 5.00000000000000000000e-01) (553, 3, 5.00000000000000000000e-01) (553, 3, 5.00000000000000000000e-01) (553, 3, 5.00000000000000000000e-01) (553, 3, 5.00000000000000000000e-01) (553, 3, 5.00000000000000000000e-01) (553, 3, 5.00000000000000000000e-01) (553, 3, 5.00000000000000000000e-01) (553, 3, 5.00000000000000000000e-01) (553, 3, 5.00000000000000000000e-01) (553, 3, 5.00000000000000000000e-01) (553, 3, 5.00000000000000000000e-01) (553, 3, 5.00000000000000000000e-01) (553, 3, 5.00000000000000000000e-01) (553, 3, 5.00000000000000000000e-01) (553, 3, 5.00000000000000000000e-01) (553, 3, 5.00000000000000000000e-01) (553, 3, 5.00000000000000000000e-01) (553, 3, 5.00000000000000000000e-01) (553, 3, 5.00000000000000000000e-01) (553, 3, 5.00000000000000000000e-01) (553, 3, 5.00000000000000000000e-01) (553, 3, 5.00000000000000000000e-01) (553, 3, 5.00000000000000000000e-01) (553, 3, 5.00000000000000000000e-01) (553, 3, 5.00000000000000000000e-01) (553, 3, 5.00000000000000000000e-01) (553, 3, 5.00000000000000000000e-01) (553, 3, 5.00000000000000000000e-01) (553, 3, 5.00000000000000000000e-01) (553, 3, 5.00000000000000000000e-01) (553, 3, 5.00000000000000000000e-01) (553, 3, 5.00000000000000000000e-01) (553, 3, 5.00000000000000000000e-01) (553, 3, 5.00000000000000000000e-01) (553, 3, 5.00000000000000000000e-01) (553, 3, 5.00000000000000000000e-01) (553, 3, 5.00000000000000000000e-01) (553, 3, 5.00000000000000000000e-01) (553, 3, 5.00000000000000000000e-01) (553, 3, 5.00000000000000000000e-01) (553, 3, 5.00000000000000000000e-01) (553, 3, 5.00000000000000000000e-01) (553, 3, 5.00000000000000000000e-01) (553, 3, 5.00000000000000000000e-01) (553, 3, 5.00000000000000000000e-01) (553, 3, 5.00000000000000000000e-01) (553, 3, 5.00000000000000000000e-01) (553, 3, 5.00000000000000000000e-01) (553, 3, 5.00000000000000000000e-01) (553, 3, 5.00000000000000000000e-01) (553, 3, 5.00000000000000000000e-01) (553, 3, 5.00000000000000000000e-01) (553, 3, 5.00000000000000000000e-01) (553, 3, 5.00000000000000000000e-01) (553, 3, 5.00000000000000000000e-01) (553, 3, 5.00000000000000000000e-01) (553, 3, 5.00000000000000000000e-01) (553, 3, 5.00000000000000000000e-01) (553, 3, 5.00000000000000000000e-01) (553, 3, 5.00000000000000000000e-01) (553, 3, 5.00000000000000000000e-01) (553, 3, 5.00000000000000000000e-01) (553, 3, 5.00000000000000000000e-01) (553, 3, 5.00000000000000000000e-01) (553, 3, 5.00000000000000000000e-01) (553, 3, 5.00000000000000000000e-01) (553, 3, 5.00000000000000000000e-01) (553, 3, 5.00000000000000000000e-01) (553, 3, 5.00000000000000000000e-01) (553, 3, 5.00000000000000000000e-01) (553, 3, 5.00000000000000000000e-01) (553, 3, 5.00000000000000000000e-01) (553, 3, 5.00000000000000000000e-01) (553, 3, 5.00000000000000000000e-01) (553, 3, 5.00000000000000000000e-01) (553, 3, 5.00000000000000000000e-01) (553, 3, 5.00000000000000000000e-01) (553, 3, 5.00000000000000000000e-01) (553, 3, 5.00000000000000000000e-01) (553, 3, 5.00000000000000000000e-01) (553, 3, 5.00000000000000000000e-01) (553, 3, 5.00000000000000000000e-01) (553, 3, 5.00000000000000000000e-01) (553, 3, 5.00000000000000000000e-01) (553, 3, 5.00000000000000000000e-01) (553, 3, 5.00000000000000000000e-01) (553, 3, 5.00000000000000000000e-01) (553, 3, 5.00000000000000000000e-01) (553, 3, 5.00000000000000000000e-01) (553, 3, 5.00000000000000000000e-01) (553, 3, 5.00000000000000000000e-01) (553, 3, 5.00000000000000000000e-01) (553, 3, 5.00000000000000000000e-01) (553, 3, 5.00000000000000000000e-01) (553, 3, 5.00000000000000000000e-01) (553, 3, 5.00000000000000000000e-01) (553, 3, 5.00000000000000000000e-01) (553, 3, 5.00000000000000000000e-01) (553, 3, 5.00000000000000000000e-01) (553, 3, 5.00000000000000000000e-01) (553, 3, 5.00000000000000000000e-01) (553, 3, 5.00000000000000000000e-01) (553, 3, 5.00000000000000000000e-01) (553, 3, 5.00000000000000000000e-01) (553, 3, 5.00000000000000000000e-01) (553, 3, 5.00000000000000000000e-01) (553, 3, 5.00000000000000000000e-01) (553, 3, 5.00000000000000000000e-01) (553, 3, 5.00000000000000000000e-01) (553, 3, 5.00000000000000000000e-01) (553, 3, 5.00000000000000000000e-01) (553, 3, 5.00000000000000000000e-01) (553, 3, 5.00000000000000000000e-01) (553, 3, 5.00000000000000000000e-01) (553, 3, 5.00000000000000000000e-01) (553, 3, 5.00000000000000000000e-01) (553, 3, 5.00000000000000000000e-01) (553, 3, 5.00000000000000000000e-01) (553, 3, 5.00000000000000000000e-01) (553, 3, 5.00000000000000000000e-01) (553, 3, 5.00000000000000000000e-01) (553, 3, 5.00000000000000000000e-01) (553, 3, 5.00000000000000000000e-01) (553, 3, 5.00000000000000000000e-01) (553, 3, 5.00000000000000000000e-01) (553, 3, 5.00000000000000000000e-01) (553, 3, 5.00000000000000000000e-01) (553, 3, 5.00000000000000000000e-01) (553, 3, 5.00000000000000000000e-01) (553, 3, 5.00000000000000000000e-01) (0, 3, 0.00000000000000000000e+00) (181, 3, 5.00000000000000000000e-01) (181, 3, 5.00000000000000000000e-01) (181, 3, 5.00000000000000000000e-01) (0, 3, 0.00000000000000000000e+00) 
connections (connected_to_neuron, weight)=(0, -1.34557396006958662760e+00) (1, -3.28367419469870358562e-01) (2, -1.08052677911439376501e+00) (3, -3.18358723182593239542e+00) (4, -8.75248836219326697972e-01) (5, -1.29033795600596645770e+00) (6, -1.30175211426250569957e+00) (7, -5.04924663745149215899e-01) (8, -6.49641225952874212801e-01) (9, -1.54121193834811154311e+00) (10, -2.36041168583909444223e+00) (11, -7.88706359263892764488e-01) (12, -1.91209847696280954565e+00) (13, -2.26877741620147643786e+00) (14, -1.58545043853655287514e+00) (15, -1.17797077527230142913e+00) (16, -5.20493699561936584708e-01) (17, 5.58223765751437173144e-01) (18, -7.66859405126190440960e-01) (19, -9.15119932965944737902e-01) (20, -1.68276163939246314882e+00) (21, -1.75012693103220495772e+00) (22, -7.70574795008811319619e-01) (23, 2.28754940189081246160e+00) (24, -1.71570236389874275496e+00) (25, -4.07369445686846909371e-01) (26, -2.07243821650716364413e-01) (27, -2.52739897668971646993e+00) (28, -7.05386893187683550188e-01) (29, -1.41697094718636873445e+00) (30, -1.12537523078740986371e+00) (31, -5.27031372871625825027e-01) (32, -6.95804689870312742528e-01) (33, -1.54509301281272870554e+00) (34, -1.64850212485488545333e+00) (35, -8.06050468157854416162e-01) (36, -1.47603191972166647439e+00) (37, -2.18715815065817942298e+00) (38, -1.15103727216336682027e+00) (39, -1.88379691061249543438e+00) (40, -1.28166062624464505149e+00) (41, 3.13445466599378108619e-01) (42, -1.38460276201177689970e+00) (43, -7.71880123844569054903e-01) (44, -1.52381656172132950999e+00) (45, -1.45090223804095841409e+00) (46, -8.14217836340524470096e-01) (47, 2.29303250512394951599e+00) (48, -1.60417265557235166895e+00) (49, -1.13808013198076807271e+00) (50, 5.70820319334435222203e-01) (51, -2.39001331523880011787e+00) (52, -7.17849676313682683038e-01) (53, -1.76123938859218487352e+00) (54, -1.70125928045508656439e+00) (55, -4.05487653587866189731e-02) (56, -2.81711952167233881106e-01) (57, -2.06031906085821781005e+00) (58, -2.12729057840649238287e+00) (59, -7.02454065456331933071e-01) (60, -1.77789024451370880620e+00) (61, -1.40163610749833900115e+00) (62, -1.62426875660309133487e+00) (63, -1.54187754124432108149e+00) (64, -7.81713067219160784305e-01) (65, -2.68148948484691063143e-01) (66, -4.65489420947872989398e-01) (67, -7.25849415401518593960e-01) (68, -1.35709954363284790446e+00) (69, -1.18729654605665846390e+00) (70, -7.50737591680727733845e-01) (71, 2.24450721625739912923e+00) (72, -1.70943453206382156573e+00) (73, -1.27840950892503413261e-01) (74, -1.26321475986618775300e-01) (75, -2.41756690270671903420e+00) (76, -8.66178265719841466996e-01) (77, -1.11645582225116446473e+00) (78, -2.21315474040514059695e+00) (79, 4.72594636258676092933e-03) (80, 1.08876006892941648574e-01) (81, -1.00070339097178107046e+00) (82, -2.37322163293116439320e+00) (83, 3.99612630907868748853e-01) (84, -1.76798949245827063947e+00) (85, -1.58485872581705411477e+00) (86, -9.69401892598126035949e-01) (87, -2.61487790103542261377e+00) (88, -1.14760448144844207086e+00) (89, 1.35441140725296865766e-01) (90, -4.06044070743233620480e-01) (91, 1.73867697391777487059e-01) (92, -2.08871966576243428548e+00) (93, -7.57892692638449494424e-01) (94, -8.07186153086394853062e-01) (95, 2.27493459223804928016e+00) (96, -1.79194055110431138544e+00) (97, -3.24606637991559143774e-01) (98, -4.50886627188882394002e-01) (99, -1.93283377798892019861e+00) (100, -1.34195870177260512257e+00) (101, -1.32902789939494936355e+00) (102, -1.57951693530701131607e+00) (103, -4.46419710248589673984e-01) (104, 1.12952389816681920270e-02) (105, -1.47464004615222621375e+00) (106, -2.64032732316616369772e+00) (107, 4.42164412184417543461e-01) (108, -3.21937116899720399132e+00) (109, -2.08616481485758153980e+00) (110, -6.03651679116204209485e-01) (111, -1.83973581676007524877e+00) (112, -7.04438762897587333889e-01) (113, -1.22036088831688482870e-01) (114, -1.32850768646406036666e+00) (115, -2.04216474307046480519e-01) (116, -2.06344287403236936740e+00) (117, -1.34639257271210022182e+00) (118, -8.12566585554838072269e-01) (119, 2.30426541791948213955e+00) (120, -2.24454779097723777781e+00) (121, -5.15889310856519900383e-01) (122, -1.50919676343946340680e+00) (123, -2.62755508046597174854e+00) (124, -8.58992338693394197335e-01) (125, -1.98795400574351055489e+00) (126, -2.01831729592089947900e+00) (127, -1.71308018965313291204e+00) (128, -1.37628479654788998809e-01) (129, -1.16552292200446189208e-01) (130, -2.04689405485655262495e+00) (131, -6.86787899520726496938e-01) (132, -2.43503737809241016521e+00) (133, -1.24715096594395724594e+00) (134, -1.42888401404116027749e+00) (135, -2.57569569729268588176e+00) (136, -1.36387858587602428528e+00) (137, -2.18556920369968571416e-01) (138, -6.57640552611541862049e-01) (139, 5.96645128749389797029e-01) (140, -2.14673192589423678101e+00) (141, -1.15666794110334381074e+00) (142, -9.66743760421006848027e-01) (143, 2.67399220645180424327e+00) (144, -2.25207735243179607565e+00) (145, -1.24196451896596360420e+00) (146, -1.26536741876120251149e+00) (147, -3.21144172614061274018e+00) (148, 4.28433499568637743415e-01) (149, -2.74929116353097491299e+00) (150, -2.48667410299299307397e+00) (151, -1.70033430941338781217e+00) (152, -1.49817079402795427789e-01) (153, -7.20879633728775059964e-01) (154, -2.17530628387488400577e+00) (155, -7.89915673721503841520e-01) (156, -2.86827293261286353498e+00) (157, -5.55184621993161764308e-01) (158, -1.25527703525492051462e+00) (159, -2.35593969085749810333e+00) (160, -1.12764089990011240339e+00) (161, 4.90479226013037561405e-01) (162, -5.88116732532438235559e-01) (163, 1.51084425310567371792e-01) (164, -2.09092484640950582175e+00) (165, -1.58698861398009904988e+00) (166, -8.93986141785714893970e-01) (167, 3.37447951676862700765e+00) (168, -2.61289701084886827331e+00) (169, -7.89932906133176460095e-01) (170, -1.65405169325117284984e-01) (171, -1.54818424117742181600e+00) (172, 3.97596739057322401401e-01) (173, -2.44709195175096683172e+00) (174, -1.56822693777038035812e+00) (175, -7.14983770554639352923e-01) (176, 3.11480424765583185920e-01) (177, -1.73499272422213191014e+00) (178, -3.01809550941273840863e+00) (179, 6.09136035582718629589e-02) (180, -3.20755459262509923235e+00) (181, -1.67694239836063307969e+00) (182, 1.09539563667436098959e-01) (183, -1.61722820579064774371e+00) (184, -2.06865159888480976136e+00) (185, -8.71716081149782717752e-01) (186, -1.44633509098565937734e+00) (187, -1.03009116629329744441e+00) (188, -3.46544408760438527040e+00) (189, -1.61920727497924388238e+00) (190, -9.45295960029738813191e-01) (191, 4.08646563492545844554e+00) (192, -3.98149356159790590581e+00) (193, 6.17407841682945601747e-01) (194, -1.02076166997738160269e+00) (195, -2.66840973223346145105e+00) (196, 6.23812652336490081062e-01) (197, -1.34972873643147406320e+00) (198, -4.42499062658413711002e-01) (199, 1.35144156529051007176e+00) (200, 4.50696714774427131811e-01) (201, -1.83770126159518754072e+00) (202, -3.53892676095409530745e+00) (203, 1.24692825348705826904e+00) (204, -3.26083196861050605975e+00) (205, -9.16716933179538950860e-01) (206, 6.60258976530391006321e-01) (207, -2.23573962286564587032e+00) (208, -1.52916796455855630299e+00) (209, -6.46210303474422653736e-01) (210, -1.08552075224225075267e+00) (211, 4.27221570283754792374e-02) (212, -5.23764658973754748672e+00) (213, -1.59101136308314061729e+00) (214, -1.04495762289442661874e+00) (215, 4.55320572720660710075e+00) (216, -7.18538086211702786699e+00) (217, -9.88501966251642549821e-01) (218, 1.95431773217203486048e+00) (219, -2.18240943195406744692e+00) (220, 1.01644125841691246315e+00) (221, -2.50221871957599883984e+00) (222, -2.53005317392703554802e+00) (223, 5.24427727008084598737e+00) (224, 9.05485912172033113876e-01) (225, -2.31229383155360990187e+00) (226, -4.65525817543969644419e+00) (227, 1.93413030880415670598e-01) (228, -4.32661362900165347156e+00) (229, -1.52208551160918537093e+00) (230, 9.98007149087447142932e-01) (231, -1.77294030373841171588e+00) (232, 1.25414360621441400845e+00) (233, -1.72702456364970391434e+00) (234, -1.36014807862202791178e+00) (235, 7.44884624234242065377e-01) (236, -3.41155713414849692811e+00) (237, -1.46550776664683501949e+00) (238, -1.13294672089638037704e+00) (239, 4.06751180311675764045e+00) (240, -1.02925938591981385173e+01) (241, -3.06722446305664409039e+00) (242, 3.57015844555103800673e+00) (243, -2.59297532215139536760e+00) (244, 1.48756577644023946227e+00) (245, -4.26496980681948478775e+00) (246, -6.58199619959235171507e+00) (247, 9.90269429361032926806e+00) (248, -2.93972214208175819383e-01) (249, -2.01874105077734355973e+00) (250, -4.91560058660997256652e+00) (251, -9.22713027846642774854e-01) (252, -3.31729794429306190651e+00) (253, -1.19986085511165874173e+00) (254, 4.68734145044046179862e+00) (255, -4.45848564040036432488e+00) (256, 1.42025275515386489866e-01) (257, -2.87985657472308931304e+00) (258, -1.88707002118337108243e+00) (259, 1.34706758956801664340e+00) (260, -4.84228854251475826498e-01) (261, -2.11248015094441576878e+00) (262, -1.08988278465078525237e+00) (263, 3.00484244306920444956e+00) (264, -1.38880513455566543257e+01) (265, -4.14566735380895412533e+00) (266, 6.92235685163258818164e+00) (267, 2.99501371248454173468e+00) (268, 2.85527315066252895814e-01) (269, -6.30351491033702959754e+00) (270, -9.27859859586550328459e+00) (271, 1.25220016894480838943e+01) (272, -2.35205061296872935950e-01) (273, -3.88627032617162582184e+00) (274, -7.91995840935501327351e+00) (275, -2.43410146527317072795e+00) (276, -4.98357233068571314760e+00) (277, -4.22059231604246232195e+00) (278, 1.14115399868909239700e+01) (279, 7.81650742063669468074e-01) (280, 3.60831527800050366750e+00) (281, -3.83924273798069659591e+00) (282, -3.94189047265854952684e+00) (283, -7.93800504685094665547e-01) (284, 3.23043081168110690626e+00) (285, -8.66733316849022661366e-01) (286, -1.22672303948954763975e+00) (287, -2.13127806782722473145e-02) (288, -1.44849771474994426512e+01) (289, -3.22322044744250879589e+00) (290, 5.35819482787351031305e-01) (291, 8.39972193704368486067e-01) (292, -2.76772976033750239822e+00) (293, -6.51953719948325360889e+00) (294, -6.13371588669100908930e+00) (295, 5.76802245419275116944e+00) (296, -1.34008293856523486021e+00) (297, -2.54975261836047639719e+00) (298, -9.86958411633110088701e+00) (299, -1.27435818087484342698e+00) (300, -6.43888173251756779081e+00) (301, -4.78798007414095483369e+00) (302, 2.15021385301512957255e+01) (303, -8.38431469805542173290e-01) (304, 4.84023607808087596993e+00) (305, -2.32015378700107666177e+00) (306, -3.78376860511794799180e+00) (307, 8.69983346880672803181e-01) (308, 1.20593737735752282170e+00) (309, -1.76792800227724411499e+00) (310, -4.78180657456130120408e+00) (311, 3.35974411655078197825e+00) (312, -1.06684274991858618620e+01) (313, -4.37169032664462964277e+00) (314, -1.80715080291660123990e+00) (315, 1.53287031290226694047e+00) (316, -2.64114486577497098452e+00) (317, -6.84320277877381766274e+00) (318, -1.86755308129202246548e+00) (319, 1.59348759398659778341e+00) (320, -1.14515822277504208948e+00) (321, -1.88351866060312445050e+00) (322, -8.60687663543722436543e+00) (323, -3.06361816769538419791e+00) (324, -6.38539722625358230346e+00) (325, -3.11142414515827692156e+00) (326, 1.54343680889609942142e+01) (327, 2.90021756880374903531e-01) (328, 2.51860369073773604498e+00) (329, -1.30858458650807518708e+00) (330, -1.99995121354792981805e+00) (331, 1.57453714669719779806e+00) (332, -5.00610164787244737994e-01) (333, -1.32514024279666697836e+00) (334, -5.89026288740444936565e+00) (335, 4.52218669554849483916e+00) (336, -8.32082454349708555696e+00) (337, -4.60006222071420811659e+00) (338, -3.43921242997822007581e+00) (339, 2.32889439203549608592e+00) (340, -2.11120759093150978103e+00) (341, -3.91985271763203080297e+00) (342, -8.61923954690690941050e-02) (343, 1.14473180532604856818e-01) (344, -6.76962652822902910543e-01) (345, -2.26777647112363567317e+00) (346, -8.16919052663351230592e+00) (347, -4.26156747536780944330e+00) (348, -6.09187648259451020039e+00) (349, -2.77145160781049693099e+00) (350, 9.23358001879012491031e+00) (351, 1.14384224496033318208e-01) (352, 2.84559857748732758509e+00) (353, -1.23671175260422039344e+00) (354, -1.61687829991319387268e+00) (355, 2.20619272187476189728e+00) (356, -1.93386255000759366141e+00) (357, -1.25501750958862401397e+00) (358, -5.68202360639953418797e+00) (359, 4.30278956784574528882e+00) (360, -7.21869852999709404884e+00) (361, -3.06027453806064464459e+00) (362, -3.74407119732182547267e+00) (363, 1.22981666931637345641e+00) (364, -1.97727313221657530207e+00) (365, -2.12712817204221193990e+00) (366, -5.75724798896116385372e-01) (367, -2.06703484836562045857e+00) (368, -1.15723932933721962435e+00) (369, -6.29527610128538195333e-01) (370, -5.86387862317154517910e+00) (371, -4.04382017419926942381e+00) (372, -4.11451536986184507327e+00) (373, -1.95006423037368303852e+00) (374, 2.76907339229945526071e+00) (375, -5.13979610053398539016e-01) (376, 1.76374355420229544933e+00) (377, -3.90553274753400958552e-01) (378, -9.42631558296706195677e-01) (379, 2.64704164191537927309e+00) (380, -2.09534709458404622140e+00) (381, -1.48585525018998820812e+00) (382, -4.70778515968874611275e+00) (383, 3.30310961017947368745e+00) (384, -5.52736593927070174459e+00) (385, -1.93760558492848700141e+00) (386, -3.13580306502464001284e+00) (387, 3.55112758067991363120e-01) (388, -7.80615409742156152184e-01) (389, -2.08753976129610130386e+00) (390, -4.71156958362653477401e-01) (391, -1.65803187368912574584e+00) (392, -8.21549319286768331416e-01) (393, -1.17593968404483328882e+00) (394, -4.72905642777932122556e+00) (395, -3.64571359514084347708e+00) (396, -3.20282466174007929283e+00) (397, -1.77525818112246924763e+00) (398, 4.87250294795973093454e-01) (399, -5.77620688441016549852e-01) (400, 1.04811414089219101520e+00) (401, -5.64480066891952736441e-01) (402, -1.24204962386187078849e+00) (403, 2.01075022877782538799e+00) (404, -1.01550124913025330287e+00) (405, -1.23160600949344534172e+00) (406, -3.81321378426738188949e+00) (407, 2.42232423033819044278e+00) (408, -3.65715635744008649155e+00) (409, -1.54264355228597227487e+00) (410, -2.74205911563652238172e+00) (411, -1.90783325377589935146e-01) (412, -1.15425564042643635787e+00) (413, -2.06788909624090422312e+00) (414, -1.08490711026854813603e+00) (415, -1.68511918503372304379e+00) (416, -1.41370021531152101346e+00) (417, -3.83792002732367854012e-01) (418, -4.05429254294335272846e+00) (419, -2.97508183939628745307e+00) (420, -2.29225484974184112730e+00) (421, -1.29831153281593580928e+00) (422, 2.23086775060396848291e-02) (423, -1.04401405436680527750e+00) (424, 7.04039960488443639086e-01) (425, -2.23525412080784219304e-01) (426, -1.51453211606391335842e+00) (427, 1.31268365763753047659e+00) (428, -4.60136227887046334040e-01) (429, -5.82072571624219103903e-01) (430, -3.46084523744886274343e+00) (431, 1.86317895682979361993e+00) (432, -2.45150206779768087273e+00) (433, -1.28426195133617881972e+00) (434, -1.12089397131713996991e+00) (435, 7.19292873966191015356e-01) (436, -1.46820745800919305601e+00) (437, -1.78553968993051626057e+00) (438, -4.99930114811111214745e-01) (439, -7.55603552734372074795e-01) (440, -1.38125426625003888681e+00) (441, -1.55664304595086089300e+00) (442, -4.33380506825819455941e+00) (443, -2.64468843337228687318e+00) (444, -2.35213984276409693308e+00) (445, -1.31988940001262178292e+00) (446, -7.84566138792023720638e-02) (447, -7.57366087845653845889e-01) (448, 1.00080618090600181880e+00) (449, 1.54367516290842259757e-02) (450, -1.20906329376695498290e+00) (451, -3.29080246720074798272e-01) (452, -7.16244392034926291579e-01) (453, -7.97511551457137701782e-01) (454, -2.79349248331416033508e+00) (455, 1.32171858075013259892e+00) (456, -3.33229494049611307815e+00) (457, -6.50242981553717069865e-01) (458, -1.42269029129663948652e+00) (459, 5.85383327198211456110e-02) (460, -9.56554979434632079993e-01) (461, -1.46295117797842566532e+00) (462, -1.04643620514802582200e+00) (463, -1.29251205557082404773e+00) (464, -1.10967150659398194890e+00) (465, -1.53003782623485462544e+00) (466, -2.59128301689075080105e+00) (467, -2.34736322378330886096e+00) (468, -1.49689864823926188642e+00) (469, -1.45946293629593770724e+00) (470, -3.35721026739847994147e-01) (471, -8.29799297836742777434e-01) (472, 1.00537353736857593134e+00) (473, 4.19237616641235377735e-01) (474, -6.09478131748175000482e-01) (475, -6.77372861980891860512e-01) (476, -2.55257557538822177357e-01) (477, -8.26247108434725818782e-01) (478, -2.63093846613391146860e+00) (479, 1.08912229815277705747e+00) (480, -2.64573515333989561782e+00) (481, -4.55623924367049903950e-01) (482, -1.29423871046910621274e+00) (483, -3.23719195403617725562e-03) (484, -9.00589260874215646879e-01) (485, -1.76431264717345626103e+00) (486, -1.71017230932498254248e+00) (487, -7.05327758708003238475e-01) (488, -5.04267782787764295982e-01) (489, -1.13995844958413505843e+00) (490, -2.25900118359121027112e+00) (491, -1.83610808658874580246e+00) (492, -1.75915142325730355921e+00) (493, -9.86075977483687915459e-01) (494, -6.49086356673102216064e-01) (495, -1.43324485292827907834e+00) (496, 7.12181246247995169973e-01) (497, 4.97394610371789891445e-01) (498, -4.96616770620036326878e-02) (499, -1.30736593067618034336e-01) (500, -3.55526788150266059851e-01) (501, -5.24407233730976085617e-01) (502, -2.62431184197410605208e+00) (503, 1.19164022285168424986e+00) (504, -2.09042256531988890345e+00) (505, -2.37474381941190110235e-01) (506, -9.27172394521287190905e-01) (507, -7.19557759800432128472e-02) (508, -7.45889006605104598613e-01) (509, -1.53231863241430121825e+00) (510, -1.26883441192956203381e+00) (511, -4.44515354768992232426e-01) (512, -9.33927196643232093720e-01) (513, -1.06723908292002467313e+00) (514, -2.68706676443415393152e+00) (515, -1.16648371732132027923e+00) (516, -1.46936919270959154282e+00) (517, -7.93188477900970023704e-01) (518, -4.82640753107391795584e-01) (519, -1.20458344427712082947e+00) (520, 8.05813998393103636531e-01) (521, 8.67740023118736547580e-01) (522, -5.07193460283699493196e-01) (523, -5.44727375215327769276e-01) (524, -6.73808117005376128184e-01) (525, -2.68701005720864749549e-01) (526, -2.54001882095490616464e+00) (527, 1.09976267229353319443e+00) (528, -1.58553988039410098665e+00) (529, -4.81998140290065935076e-01) (530, -4.14304885165903191702e-01) (531, 1.89162320970627018113e-01) (532, -1.07370261369934771878e+00) (533, -1.57165294139776512417e+00) (534, -1.43103509916603433005e+00) (535, -7.87200450877052926302e-01) (536, -5.43317114557098412853e-01) (537, -1.66771607672343669115e+00) (538, -2.35362678888107623720e+00) (539, -1.03883221328288088969e+00) (540, -1.32826866009951283232e+00) (541, -2.11716405080440717157e+00) (542, -7.81057883587836232486e-01) (543, -5.82318063980034827942e-01) (544, -8.70577542248339858455e-02) (545, -1.70967316892568887976e-01) (546, -1.14335344055823173726e+00) (547, -7.50682592886846244973e-01) (548, -7.64474685601401637847e-01) (549, -3.76172161930462434221e-01) (550, -2.64287267798873104496e+00) (551, 9.26257135393054542583e-01) (552, -4.31614598650392533585e-01) (0, -1.07783576261083235970e+00) (1, -5.80856270955352527174e-01) (2, -3.89954695743711166056e-01) (3, -3.09277055982020554481e+00) (4, 1.18404460305664413489e-01) (5, -1.42854665898735944118e+00) (6, -2.12996868735367250736e+00) (7, -2.97878948791223341352e-01) (8, -8.77312324426629763785e-01) (9, -1.30232934841112935054e+00) (10, -1.29229336207809564208e+00) (11, -1.55237644378319084026e+00) (12, -5.26764439867011158292e-01) (13, -1.08413864333595122424e+00) (14, -6.80717208051692668214e-01) (15, -7.32704346962946284627e-01) (16, -8.62693511206200192021e-01) (17, 4.54908976280651022872e-02) (18, 4.61405772387251444933e-01) (19, -2.18622400608128941712e+00) (20, -2.31850077485550931655e+00) (21, -1.59643468256145881767e+00) (22, -8.65846132503418908222e-01) (23, 2.15128588619950633642e+00) (24, -1.13603034162716443056e+00) (25, -8.25728134556403925437e-01) (26, -1.07707278659392776538e-02) (27, -2.02488671495250693866e+00) (28, 1.78723109311768463270e-01) (29, -2.29154722487931961084e+00) (30, -1.38420987228625702592e+00) (31, -1.17086693166328958959e+00) (32, -1.47642470413509752092e+00) (33, -1.47659182783945053252e+00) (34, -1.66628114764403356673e+00) (35, -4.57106587500061167795e-01) (36, -1.24747454082161013389e+00) (37, -1.37013548343269064844e+00) (38, -5.83485649831314678870e-01) (39, -1.65202443001398613376e+00) (40, -1.40160306153890812375e+00) (41, -1.74743872123131832597e-01) (42, -1.13537484561319601539e+00) (43, -1.24333900358151572263e+00) (44, -1.52341266832538613230e+00) (45, -1.27803909450732455788e+00) (46, -1.03365115250874595176e+00) (47, 1.85696752535201192735e+00) (48, -1.03571311483601480319e+00) (49, -5.10750278317802841599e-01) (50, 5.88998624165520845430e-01) (51, -1.99464221218277071301e+00) (52, 6.60670678747230954997e-01) (53, -1.54667629231416703384e+00) (54, -1.73835981046900789337e+00) (55, -1.81526942886187669934e+00) (56, -1.00114960883012349413e+00) (57, -1.13141350655463823749e+00) (58, -1.78393709076399198388e+00) (59, -8.76155207942346470062e-01) (60, -9.67933986064846929587e-01) (61, -1.40459455415970224657e+00) (62, -2.67224576433150984300e+00) (63, -2.59971073886714565404e+00) (64, -8.49714248016650408601e-01) (65, -1.69181590725846153767e-01) (66, -1.38115325973402536253e-01) (67, -7.53821928649018091484e-01) (68, -1.38848336345933520697e+00) (69, -1.19122327326128263358e+00) (70, -1.05631471627153561421e+00) (71, 1.98074347785119830867e+00) (72, -6.34379655285355781302e-01) (73, -6.98311851205867362147e-01) (74, -1.90002915121238835638e+00) (75, -3.97896825591613678696e+00) (76, 4.56584680280096577576e-02) (77, -1.87274877359818070488e+00) (78, -3.43512409914430749680e+00) (79, -2.15879673727469922895e+00) (80, -1.30776649399598410284e+00) (81, 5.84792384715529189876e-01) (82, -1.47396212476918586631e-01) (83, -3.61877375746713858540e-01) (84, 6.55214237453276421297e-02) (85, -1.52417417098712215662e+00) (86, -2.05345120281677528951e+00) (87, -3.11540903947583069922e+00) (88, -1.72623843693827172530e+00) (89, 3.03484162523631806341e-01) (90, -1.46815708289369933892e-01) (91, 6.31836547636105416714e-01) (92, -1.90800216179004733519e+00) (93, -6.79920118158825581567e-01) (94, -9.89427310069911247759e-01) (95, 2.08649885728990502898e+00) (96, -2.62248195091277502833e-01) (97, -6.49579710623399919633e-01) (98, -2.11764017588638697731e+00) (99, -1.69117285927072247276e+00) (100, -5.27038683551035225250e-01) (101, -2.37139189414615625395e+00) (102, -1.82131601601100689969e+00) (103, -3.35552499227243394841e+00) (104, -1.06630515445223683635e+00) (105, -3.29694041456913278232e-01) (106, -7.66595339240972784012e-01) (107, -8.43301047304054307574e-01) (108, -1.26037453938024723854e+00) (109, -1.49001111397103391809e+00) (110, -1.78613471298218251526e+00) (111, -2.39495212731568729581e+00) (112, -1.44658346915382596265e+00) (113, 5.99385074949489310425e-02) (114, -3.58301884499401479545e-01) (115, -8.47354289824507889151e-01) (116, -1.48438152948796164843e+00) (117, -1.12641771036237670067e+00) (118, -9.97065190707740467424e-01) (119, 2.10702524707076133126e+00) (120, 4.88582722606145214428e-01) (121, -5.94653107945668724099e-01) (122, -3.55964932457168004021e+00) (123, -3.18678221151778240383e+00) (124, -3.84263240775424785856e-01) (125, -2.37387797006782896858e+00) (126, -2.96990137253681307783e+00) (127, -4.40778318012067948928e+00) (128, -1.02229406907100117685e+00) (129, 1.08839768418734039734e+00) (130, -1.14975615492415764174e-01) (131, -1.99275508810388468639e+00) (132, -1.60917397615539303768e-01) (133, -5.64926036545301046843e-01) (134, -2.88135408899569656072e+00) (135, -2.76405983775402930291e+00) (136, -2.77135612348364102075e+00) (137, -3.76467619047878343519e-01) (138, 7.60842652289301035751e-01) (139, 2.54371185547241251967e-01) (140, -1.48003457373573521494e+00) (141, -1.19222434986842085181e+00) (142, -1.13648946518836124753e+00) (143, 2.19914049157991708938e+00) (144, 1.45384530622777408126e+00) (145, -1.10371240558737238047e+00) (146, -2.66217475678523829430e+00) (147, -2.42760514877911415255e+00) (148, 4.87395162841603168946e-01) (149, -1.59965799042006828756e+00) (150, -2.12022354847895133645e+00) (151, -4.34536369328481519858e+00) (152, -7.35747771044939380403e-01) (153, -9.43938322154840303568e-01) (154, -8.03187902933936603844e-01) (155, -1.67147922340418197962e+00) (156, -1.56805304875373741069e+00) (157, 1.29045678388929746516e-02) (158, -2.01896555945283218136e+00) (159, -2.37231394723791622070e+00) (160, -3.14734601054837259682e+00) (161, 1.56269003873072453992e+00) (162, 1.50354431133200883153e+00) (163, -2.22372722035440206767e+00) (164, -1.87507351515033171552e+00) (165, -2.46651204950980096342e+00) (166, -1.15021031117540428745e+00) (167, 2.48767557608920952816e+00) (168, -4.34232634459864486054e-01) (169, -2.28482200214760888812e+00) (170, -1.67163939077402323719e+00) (171, -1.53087715704643256842e+00) (172, -2.11065088808255169051e-01) (173, -3.08121625698580681174e+00) (174, -2.02240840739012428529e+00) (175, -4.60737919795737216333e+00) (176, -2.54509118608877316081e-01) (177, -1.31625777976689284365e+00) (178, -2.87813669975030772541e-01) (179, -1.83239212570122234069e+00) (180, -1.08423923071703098842e+00) (181, -1.91768354066845808648e-01) (182, -1.87259342001591022608e+00) (183, -2.64160013007239724558e+00) (184, -2.96407215751826402794e+00) (185, 4.14657338117090212837e-01) (186, 6.73253622596836964753e-01) (187, -3.48731467623287061386e+00) (188, -1.35396478460837577096e+00) (189, -2.91432406276644639931e+00) (190, -1.22382318280891788653e+00) (191, 3.64529737110457574545e+00) (192, -3.65714174501086453084e-01) (193, 3.27786966806869195512e-02) (194, -1.79709651553185412176e+00) (195, -1.75160819240489717963e+00) (196, 1.68384672390924250429e-01) (197, -9.19795381001551115574e-01) (198, -4.94149243311115649036e-01) (199, -3.72150046235102349712e+00) (200, -1.51276919766887218977e+00) (201, -2.78012130794479128681e+00) (202, -1.57010642398115130014e+00) (203, -1.26384118253101074281e+00) (204, -1.73747697733562977973e+00) (205, -1.60250473070692911470e+00) (206, 2.37647854756059961900e+00) (207, -1.40463075993076325076e+00) (208, -3.31625832866616221395e+00) (209, 8.00965183350567239140e-02) (210, -1.11521174966124902994e+00) (211, -4.08199134570508714859e+00) (212, -3.77884786846201281563e+00) (213, -3.25281574508232695919e+00) (214, -1.23094388741425198042e+00) (215, 4.57769032674950793194e+00) (216, -1.81860904842296777773e+00) (217, 7.11590802871454819467e-01) (218, 3.79036086495557045239e+00) (219, 1.50389978327805740044e+00) (220, -5.06335280892912381612e-02) (221, -3.85058036728530728166e-01) (222, -8.08491725052551846176e-01) (223, 7.35277935571104490631e-02) (224, 1.18075994684988327954e+00) (225, -7.16883613588544488238e+00) (226, -3.41452160433110263327e+00) (227, 1.45750390143718888680e+00) (228, -3.91398889186266130125e+00) (229, -3.17567498102388112713e+00) (230, 6.36095608284233637875e+00) (231, 2.38520602067316245254e+00) (232, -9.01633566518332929540e-01) (233, -1.74081356953847210534e+00) (234, -2.06801568067851260224e+00) (235, -8.11825956710456964061e+00) (236, -5.09840807742240365030e+00) (237, -3.55912653151790259187e+00) (238, -1.27970688006818189564e+00) (239, 4.68652783504892145316e+00) (240, -4.02848719162668977845e+00) (241, -4.01992962451485169595e+00) (242, 8.45284211193616208391e+00) (243, 3.96198315328222161469e+00) (244, -3.98318575806264896233e-01) (245, -2.52986150130175468931e+00) (246, -5.25928653111942878695e+00) (247, 9.55570900265995248901e+00) (248, -7.72193616371284918820e-01) (249, -8.14962829435652302834e+00) (250, -3.92720009502810984969e+00) (251, -1.81097758965258259778e-01) (252, -3.01650763153265222272e+00) (253, -4.21849841066708286519e+00) (254, 1.17516389830446090770e+01) (255, -8.23623286191230152831e-01) (256, -4.38430099021800057102e+00) (257, -3.63923629730578346297e+00) (258, -4.31700827450321611423e+00) (259, -9.65787746306858885248e+00) (260, -1.38327609338270529626e+00) (261, -3.65926565442904783154e+00) (262, -1.33910395628087752762e+00) (263, 3.48019313025683452167e+00) (264, -7.08628046971729919079e+00) (265, -6.23809344980378810419e+00) (266, 1.22568867674858967831e+01) (267, 8.67708441796441753979e+00) (268, -2.39296167736977061224e+00) (269, -5.28706217121960087013e+00) (270, -8.08266557716918754295e+00) (271, 1.70146266555228855566e+01) (272, -1.08604679398870018758e+00) (273, -1.16031373712298400136e+01) (274, -6.68486575564631735347e+00) (275, -1.91357515069048811363e+00) (276, -4.48014195257415703821e+00) (277, -7.14652409930409771022e+00) (278, 1.82854382250427178747e+01) (279, 3.07779068168791569704e+00) (280, -8.08104987906203997561e-01) (281, -5.27130450013263107678e+00) (282, -6.94969833653439117427e+00) (283, -1.25375767507551554303e+01) (284, 4.12935120854359549725e+00) (285, -2.93630082253910185131e+00) (286, -1.30185087933662679838e+00) (287, 6.24470412731170654297e-03) (288, -9.60346254868519366710e+00) (289, -3.53733389847424728458e+00) (290, 6.01251953299079477944e+00) (291, 2.80258207211975740591e+00) (292, -4.08988968555689336171e+00) (293, -4.20354601224010870908e+00) (294, -4.82304992934074405753e+00) (295, 9.11323221332261113048e+00) (296, -1.61791501378897950580e+00) (297, -8.82585524763592665920e+00) (298, -9.16225531475352283906e+00) (299, 3.11771350589950313470e-01) (300, -5.58480551487216914097e+00) (301, -5.88384890747642064213e+00) (302, 2.47082423872376644169e+01) (303, 4.97732055194438138823e-01) (304, 1.26844188121192247287e+00) (305, -3.06093955581952537059e+00) (306, -5.37200876244998948295e+00) (307, -8.93204919240277739334e+00) (308, -1.44322561060020615464e-01) (309, -3.99083078671588253883e+00) (310, -5.64631345997143707649e+00) (311, 4.14925716967168778382e+00) (312, -7.22594099356324193195e+00) (313, -3.76823763712063009024e+00) (314, 1.67212114390719146506e-01) (315, 1.86726397480750883062e+00) (316, -2.72826892821420718960e+00) (317, -3.60973843288595874768e+00) (318, -9.11221603227921894685e-01) (319, 7.49303572422973518385e-01) (320, -4.49091535684750298163e-01) (321, -5.26376151454914076311e+00) (322, -7.45374431224526379225e+00) (323, -9.15698311427901479043e-01) (324, -5.13479381075449570204e+00) (325, -2.97593557116485341041e+00) (326, 1.57774386060342735050e+01) (327, 9.19164657025923870215e-01) (328, 6.90312086991164419736e-01) (329, -1.39971956581082301874e+00) (330, -2.09564540154969947139e+00) (331, -4.84897792932139370947e+00) (332, -3.09677411195410545730e+00) (333, -3.30612484340337653421e+00) (334, -6.69720330283088927104e+00) (335, 5.27099272851850653154e+00) (336, -4.35985330823792605059e+00) (337, -4.00155947110332554928e+00) (338, -4.31212986839197132127e+00) (339, 1.00997069091581959110e-01) (340, -2.02143403393877285623e+00) (341, -2.24402245571117653355e+00) (342, -2.53994174004409767331e-01) (343, -1.81391220351681625722e+00) (344, -5.98351845269762261381e-01) (345, -3.50743381075694449223e+00) (346, -4.51757186214050232564e+00) (347, -2.55157621320609262483e+00) (348, -3.86587578768196582502e+00) (349, -2.99457054250571275134e+00) (350, 9.16860267913528659278e+00) (351, -1.17111579343923533081e+00) (352, 5.63225718412545539593e-01) (353, -1.62610474861624054732e+00) (354, -1.63917709435192504586e+00) (355, -1.98451057747777381834e+00) (356, -2.57403670631316527917e+00) (357, -2.37340365849909096241e+00) (358, -6.14371848547987831068e+00) (359, 4.50196007215583637873e+00) (360, -3.74623287737102250716e+00) (361, -2.78012818442018438958e+00) (362, -4.76673482973225137727e+00) (363, -1.72526575964764727900e+00) (364, -9.73777553739352819129e-01) (365, -2.04065303667866126958e+00) (366, -1.25827203407196663854e+00) (367, -4.59103656242207236460e+00) (368, -7.97322407977483105235e-01) (369, -6.84585283428717161769e-01) (370, -3.74463507448264332211e+00) (371, -2.94909435951701537348e+00) (372, -1.99444476956282623625e+00) (373, -1.36850584621253851259e-01) (374, 4.14516095440353637969e+00) (375, -2.12253947444049639870e+00) (376, -6.38894437292497618941e-01) (377, 3.36344359170593562580e-02) (378, 4.59245288439517118650e-01) (379, 2.14025717828273176480e-01) (380, -1.34545097810933933502e+00) (381, -2.17250737817532080243e+00) (382, -4.74878819987495592869e+00) (383, 3.11399170147755066651e+00) (384, -3.67304967548950811462e+00) (385, -1.19004558274443050792e+00) (386, -3.34932933950713795923e+00) (387, -5.17889984061997488141e-01) (388, 3.36481009428082733503e-01) (389, -2.27489927758209820041e+00) (390, -7.09750914930014853432e-01) (391, -4.82737836154737109950e+00) (392, -1.60763449747537801038e+00) (393, -2.01600120089402284895e-01) (394, -1.61689921998338537179e+00) (395, -2.30830433284403246930e+00) (396, -2.19997889419911585307e+00) (397, -8.37034882435732097150e-01) (398, 6.77595787622149309248e-02) (399, -2.14843324131041857328e+00) (400, -1.28670953340623039907e+00) (401, -2.90433280861338016798e-01) (402, -6.91910378896412492367e-01) (403, 7.24184731896084898928e-01) (404, -1.67153428247745483581e+00) (405, -1.93747815872469519860e+00) (406, -4.04810942744612134447e+00) (407, 2.34919292025367543175e+00) (408, -4.08699938159061137988e-01) (409, -2.49332405311717464347e-01) (410, -3.06127360152892213918e+00) (411, -2.62966465148427697152e-01) (412, -8.36117440614454254799e-01) (413, -6.94502804122471562032e-01) (414, 2.36053791773705418100e-01) (415, -4.85531851112318335595e+00) (416, -1.40094107280837709695e+00) (417, -1.73740264700487340166e-01) (418, -2.41877523565022256591e+00) (419, -1.31605885195124083786e+00) (420, -9.34270285945509648684e-01) (421, -1.25458345413821970027e+00) (422, 8.56186796221887896907e-02) (423, -1.21818892364612851864e+00) (424, -1.27262514188557651629e+00) (425, -6.40731515169331022896e-01) (426, -1.60628401145279076090e+00) (427, -8.58602873502965213692e-02) (428, -1.76060237864870350322e+00) (429, -6.96092637374455591726e-01) (430, -3.45739864293778209614e+00) (431, 1.82834730650049182010e+00) (432, -1.01891934392150518285e+00) (433, -1.57571136159595304171e+00) (434, -2.65993839028531331437e+00) (435, -1.19475266450598427426e+00) (436, -5.37574089561957957351e-01) (437, -1.72687336470201335814e+00) (438, -1.32296401176336186900e+00) (439, -3.44081636396711809667e+00) (440, -2.17922010797015630601e+00) (441, -8.18542948460849045800e-02) (442, -1.50324973845580767140e+00) (443, -2.66547706626649372197e+00) (444, 1.75764842446322726299e-02) (445, -1.12120587999626764031e+00) (446, -2.85045907171679324676e-01) (447, -1.84994250810769322868e+00) (448, -9.24083504242336539747e-01) (449, -3.58423695637821379534e-02) (450, -1.10911130951368974706e+00) (451, -5.90143301220540150709e-01) (452, -6.05690477754142864164e-01) (453, -1.47259301482531590466e+00) (454, -3.00219473695311256378e+00) (455, 1.26990188602278331054e+00) (456, -9.79015156159188992824e-01) (457, -4.47164594712368246299e-01) (458, -2.03776049538413994711e+00) (459, -1.58928986236670533039e+00) (460, 3.42785808806248759595e-01) (461, -8.71211875659354317847e-01) (462, -1.14508450382028414971e+00) (463, -2.90422275511788985369e+00) (464, -1.30949012681172027861e+00) (465, -6.08711606189461851280e-01) (466, -4.58658124129813327130e-01) (467, -2.69846901307519626556e+00) (468, 7.47966000046027673642e-02) (469, -8.33115426966338668002e-01) (470, -1.89043467937400255785e+00) (471, -1.01589444458929678561e+00) (472, -4.55312400318020671364e-01) (473, 2.30428711922451456839e-01) (474, -8.17953692640417950876e-01) (475, -1.01628905374619193935e+00) (476, -1.56827023563055378830e+00) (477, -1.18090996667462344583e+00) (478, -2.80169520242599601190e+00) (479, 1.10093326056991736017e+00) (480, -1.73924620668127394296e+00) (481, -1.67144828409627771437e-01) (482, -5.52536115342969869069e-01) (483, -8.39091381055236062991e-01) (484, -6.77574607890599200921e-01) (485, -1.86739911931017354974e+00) (486, -1.50554561456979274503e+00) (487, -2.10997292927042057187e+00) (488, -1.04637623912388422198e+00) (489, 2.85018068566319469903e-02) (490, 6.55750183138627869978e-03) (491, -8.21877204214013445949e-01) (492, 2.55947675203961555468e-01) (493, -2.58912092471519250658e-01) (494, -1.98763426070290050163e+00) (495, -2.06735402929766864943e+00) (496, -5.82038845359132528401e-01) (497, 2.16991760866040966915e-01) (498, 6.14649237185475816325e-01) (499, -1.28632293004953779381e+00) (500, -1.50343625400325708874e+00) (501, -5.59950819377417530198e-01) (502, -2.72303217552338461260e+00) (503, 9.24601442725273114931e-01) (504, -2.08519803415249727063e-01) (505, -1.26566844047242588189e+00) (506, -6.47502765383825451551e-01) (507, -7.08174612160365035685e-01) (508, 5.73291929686548074052e-01) (509, -1.36629517114186893600e+00) (510, -1.37055619350871515927e+00) (511, -1.91109353085343935952e+00) (512, -9.76915077407343290794e-01) (513, -1.18322517224712631112e+00) (514, -1.89455628155550614977e+00) (515, -1.35758019519645301010e+00) (516, -1.15321240370825450761e+00) (517, 3.57138201237186397874e-02) (518, -1.46223626420700347772e+00) (519, -1.06444886688793483032e+00) (520, -1.20019369799278208255e+00) (521, 1.01723381466220130775e+00) (522, 3.50843278335133734736e-01) (523, -1.80318248315931062287e+00) (524, 1.67430895217600600455e-01) (525, -2.71640339127794672169e-01) (526, -2.69944368981142490682e+00) (527, 8.85099554890668271945e-01) (528, -6.55604141489722569425e-01) (529, -9.54020416798680992443e-01) (530, -1.99384272734545286987e-01) (531, 2.34017674210058840290e-01) (532, -2.91622623708659489683e-01) (533, -2.29536807957407029690e+00) (534, -1.72897026233689965480e+00) (535, -1.40964334099215915508e+00) (536, -8.44502042116524020976e-01) (537, -1.98006533376399018742e+00) (538, -8.21134007765373818977e-01) (539, -9.88446909777816351550e-01) (540, -1.07360901722012735959e+00) (541, -2.26681111883836328147e+00) (542, -6.37441031776960098654e-01) (543, -1.27729659011409713010e+00) (544, -2.35914963703920310678e+00) (545, -8.98386615623539053210e-01) (546, -1.07363904511647056950e+00) (547, -2.33267283331565078441e+00) (548, -1.18846440315377915864e-01) (549, -7.80643940910556111135e-01) (550, -2.53994627126320260402e+00) (551, 7.57596704352810901284e-01) (552, -8.37310500409525260146e-01) (0, -7.99747728992895173805e-02) (1, -3.12612492812697650990e-01) (2, -2.44845455839291320510e-01) (3, 5.29579342768853600365e-02) (4, 2.48414177988478618309e-01) (5, -3.17866793314377116264e-01) (6, -1.59319750640895096971e-01) (7, -2.05350370323631126190e-01) (8, -4.16440002002202769305e-01) (9, -1.44795805118501486053e-01) (10, 2.45707020173851903300e-01) (11, -2.87467013715165531362e-01) (12, 1.46592464563919167020e-01) (13, -7.46180920260690744295e-02) (14, -2.30580446190549792629e-01) (15, -2.77993338045936733138e-01) (16, -5.37983845877353816789e-01) (17, -1.84497515512112908453e-01) (18, 1.89510208450579920036e-01) (19, -5.85655246375226590239e-01) (20, -5.75920632040708146970e-02) (21, -8.23801440712927934840e-01) (22, -2.35494667562274773154e-01) (23, -5.54224727540065034703e-02) (24, 5.19397199629659939157e-03) (25, -2.47622141048723737322e-01) (26, -4.08982337307550236627e-01) (27, -1.86679995001037879465e-01) (28, 7.07161491183824902906e-02) (29, -2.28306425721052835831e-01) (30, -2.22159398816464709325e-01) (31, -3.71996643739762988812e-01) (32, -4.44486464878036224846e-01) (33, 6.52079477311701682929e-02) (34, 3.46118071173451627431e-02) (35, -3.34087963709189195161e-01) (36, 9.02507393563413001791e-02) (37, 6.39603140409045808207e-03) (38, 2.05865889099690724251e-01) (39, -2.42113801768273156911e-01) (40, -4.06263739151369596136e-01) (41, -9.68087796152141966122e-02) (42, -1.10233346015394695350e-01) (43, -3.66126757434714344974e-01) (44, 6.40567212349671816218e-02) (45, -7.73700496373570412167e-01) (46, -2.95233847386964509685e-01) (47, -4.96966476522308978070e-02) (48, 1.91344944126597110712e-01) (49, -3.97777854985519707665e-01) (50, -3.95431723529718726073e-01) (51, -1.44376732810826188119e-02) (52, 2.07987336432924996288e-01) (53, -3.88965810030600545044e-01) (54, -2.84928505816189614475e-01) (55, -5.87088558293064943783e-01) (56, -3.98870042123603663065e-01) (57, 1.77235188344603528110e-01) (58, 3.66086667070340543439e-01) (59, -3.95585952479001023985e-01) (60, 2.90935818768018550351e-01) (61, 2.48603763669490371302e-02) (62, -4.53594051873906362049e-02) (63, -3.72635386119149425443e-01) (64, -5.47359308465685590050e-01) (65, -1.81159992753843340774e-02) (66, 1.26964902710197474756e-01) (67, -1.64777528040637527562e-01) (68, -5.42582396165693370271e-02) (69, -8.98193317191801399169e-01) (70, -2.02053406334669977129e-01) (71, -2.00518830436391654048e-01) (72, 4.67444023762266569477e-01) (73, -1.38739374799402209737e-01) (74, -3.09052513346500912217e-01) (75, -2.03628052463620839996e-01) (76, 3.78515083559760101561e-01) (77, -1.04276743156437590176e-01) (78, -1.35930301219689575465e-01) (79, -6.97120269321437668886e-01) (80, -4.06829735149952520512e-01) (81, 2.45369047402608675412e-01) (82, 3.01010942296543348995e-01) (83, -3.30280569194558115687e-01) (84, 2.21320827794139890488e-01) (85, -1.64203644943732685046e-01) (86, -5.05951072562564441171e-01) (87, -6.58386164581649252492e-02) (88, -5.16526988336525993972e-01) (89, -1.51543803455467890329e-01) (90, 4.09666762533586401029e-02) (91, -2.42525068035748164741e-01) (92, -1.23773362899702837892e-01) (93, -8.90434401878256842622e-01) (94, -1.62147101854563019385e-01) (95, -2.19942273535114252159e-01) (96, 3.90786148519988107974e-01) (97, -3.09217984829477154918e-01) (98, -6.47680885862742083958e-01) (99, -2.52574538505146939382e-01) (100, 2.04246594415212839868e-01) (101, -2.59660518404842832751e-01) (102, -3.77058062800870619213e-01) (103, -1.04404605678192141660e+00) (104, -4.45336719613648679417e-01) (105, 4.26321239140585950267e-01) (106, 6.51332642854298926594e-01) (107, -3.76960581861869425957e-01) (108, 4.32997019138317729148e-01) (109, -1.32350804493187118593e-01) (110, -5.24502789086055853929e-01) (111, -3.14405735756886350885e-01) (112, -5.70540096098795745938e-01) (113, 5.33810204574771199337e-02) (114, 1.29857574426610916651e-01) (115, -6.87932088231976990311e-02) (116, 8.06781156314273911745e-02) (117, -7.38610284340468381536e-01) (118, -2.64117800510761890909e-01) (119, -1.98384176889462138238e-01) (120, 7.82241144636784402344e-01) (121, -3.01867482787445351455e-01) (122, -7.20440874669963426946e-01) (123, -2.40396428142485296675e-01) (124, 2.43121409385574950568e-02) (125, -3.13813835444005650999e-01) (126, -5.37237435709038479992e-01) (127, -1.04150051241199692598e+00) (128, -5.14373138628896331426e-01) (129, 3.75540046939902061318e-01) (130, 7.87963100538889738012e-01) (131, -5.88906085307556503849e-01) (132, 5.32781690083380166101e-01) (133, 1.30983479321318846411e-01) (134, -3.74808536475980225156e-01) (135, -3.33274241749785538058e-01) (136, -5.82907352506855325203e-01) (137, 7.34391521837122335237e-02) (138, 2.28883239606260002752e-01) (139, -1.38823985963043267100e-01) (140, -2.36093351689768138346e-01) (141, -9.75014889002862594758e-01) (142, -3.03244833795666968168e-01) (143, -2.02133028967978911616e-01) (144, 9.15822784606422080067e-01) (145, -5.09219615952527848712e-01) (146, -7.14549601896858233019e-01) (147, 1.44985221470234487695e-02) (148, 2.83743549184848550815e-02) (149, -8.67067564205253743514e-02) (150, -2.61949664735417975248e-01) (151, -6.59916380331540430859e-01) (152, -6.25648765174985577175e-01) (153, 1.93057021044509197205e-01) (154, 7.08569774844291955240e-01) (155, -5.30914829922955910924e-01) (156, 4.80507567059144768962e-01) (157, 1.33986767347143959084e-01) (158, -7.73646509132245724372e-02) (159, -9.50187293632902274521e-02) (160, -5.62790701162084405773e-01) (161, 6.47794528413812159551e-02) (162, 1.98516699974540800078e-01) (163, -6.59396057298398230451e-01) (164, -4.19319664668204639124e-01) (165, -1.07289230433441296064e+00) (166, -3.39718759183532892365e-01) (167, -1.61966866347387467018e-01) (168, 9.38588485936446725866e-01) (169, -1.43377325746482042756e-01) (170, -3.72542232594957223313e-01) (171, -3.03917100855810307092e-02) (172, -1.63168512334026516442e-01) (173, -1.30748010516870155628e-01) (174, -1.64879321123506672464e-01) (175, -1.11190983820590227893e+00) (176, -6.87627493186576232986e-01) (177, 3.92266563547850333205e-02) (178, 8.24143659550836127359e-01) (179, -4.82271692182640154822e-01) (180, 5.88190664558728038003e-01) (181, -7.10973333195049211897e-02) (182, -2.94768538864792373211e-01) (183, -2.11442326735899197368e-03) (184, -7.26682041496694797189e-01) (185, 1.86145790027910040809e-01) (186, 1.22734704344703099421e-01) (187, -8.96929355024603691682e-01) (188, -1.42010043749010189673e-01) (189, -1.08950613981584099044e+00) (190, -2.15293321925415670481e-01) (191, -3.48674538948505863267e-01) (192, 1.07054496140258925685e+00) (193, -1.96576647609129184779e-01) (194, -2.93087304300885809205e-01) (195, 2.40429675710769202857e-01) (196, -2.21604143837351663660e-01) (197, 1.23166905843976104418e-01) (198, -1.66650128491746429837e-01) (199, -1.20271272846158239211e+00) (200, -4.65977172651862614483e-01) (201, -5.46715255468057437227e-01) (202, 6.95595224412188684049e-01) (203, -5.00044403027893546998e-01) (204, 4.77286311870523671796e-01) (205, -9.75709843526795100876e-02) (206, 7.10132449641350693703e-01) (207, 1.91311872406874472485e-01) (208, -8.11976005235430009499e-01) (209, 1.30798438757520202325e-01) (210, -1.36837012604998975451e-01) (211, -1.71216395996430481574e+00) (212, -1.87039520978582209099e-02) (213, -1.22251730132740821233e+00) (214, -3.32809070708930399007e-01) (215, -2.15429991967744371983e-01) (216, 1.54348116262326939818e+00) (217, 2.95105592809375427699e-02) (218, 3.38809724656201627369e-01) (219, 1.11623127721469228568e+00) (220, -3.63681978461674049186e-01) (221, 4.35213711616676990346e-01) (222, 4.45414211449128960574e-01) (223, -1.33699584506453517108e+00) (224, -3.60571650796285503304e-01) (225, -1.01581600871128352459e+00) (226, 5.76475424214537346401e-01) (227, 1.51898001783209501969e-01) (228, 3.30438166243675834899e-01) (229, -2.71832001451195293118e-01) (230, 1.32027570158682872048e+00) (231, 8.89395648367630964337e-01) (232, -6.81291843738988545098e-01) (233, 8.36597369513249200512e-02) (234, -2.01892489017562792863e-01) (235, -2.38901642634324629100e+00) (236, -9.82568483879844745132e-01) (237, -1.45853980644498770758e+00) (238, -3.05094502786856458521e-01) (239, -1.39259867764458034056e-01) (240, 1.71213625505232980295e+00) (241, -2.82476376576702881138e-01) (242, 1.50879576355261391107e+00) (243, 2.08911793919861388247e+00) (244, -7.41672711768638914798e-01) (245, 5.12440139484493184518e-01) (246, 5.97401295410809884956e-01) (247, 1.92762388438566913476e-03) (248, -2.08212437895659296938e-01) (249, -2.18484499055180680926e+00) (250, 1.13695453196498430515e-01) (251, 2.14794008986380291493e-01) (252, -2.07388473593866973221e-01) (253, -1.05562766200060487165e+00) (254, 2.31240944532690217983e+00) (255, 1.35914496690903741083e+00) (256, -1.45980549245801549674e+00) (257, -4.72681931667498111960e-01) (258, -7.99712071006519420457e-01) (259, -3.94897575016942337101e+00) (260, -4.80114769902340088326e-01) (261, -1.18527111668244011788e+00) (262, -3.04974885978833432087e-01) (263, 3.24353715026962294288e-02) (264, 2.15630965214896352933e+00) (265, -4.37388534162746422940e-01) (266, 1.61013257258917397152e+00) (267, 1.89190964407669603986e+00) (268, -1.13941280232790420612e+00) (269, 5.16519613258335952288e-01) (270, 4.74714624639191506983e-01) (271, 1.24797444105698684957e+00) (272, -2.07598982129543502273e-01) (273, -2.34770040777506361351e+00) (274, 2.37876206702728298925e-01) (275, 4.22369033349372979824e-01) (276, 1.02292265714698776130e-02) (277, -5.95536679397769219690e-01) (278, 2.02926413432862329245e+00) (279, 7.49852604300459191222e-01) (280, -1.50532593839552797377e+00) (281, -3.73511488868918939410e-01) (282, -5.91771718012454539526e-01) (283, -4.00026678711615790718e+00) (284, -9.31567488393371889721e-01) (285, -1.35316898240728944458e+00) (286, -2.17161191380068618884e-01) (287, -5.88436052203178405762e-02) (288, 1.46561099618441059711e+00) (289, -2.77742546070914642087e-01) (290, 1.26575129131348762535e+00) (291, 8.88691182514250943569e-01) (292, -4.97799406115541909212e-01) (293, 8.47505370359192489182e-01) (294, 4.17452855061909822165e-01) (295, 1.19388763402089859156e+00) (296, -1.68117962826488304140e-01) (297, -2.17105769603156151248e+00) (298, -6.37934144907553596360e-02) (299, 4.63678875816656788089e-01) (300, 2.37168584826184192238e-01) (301, -5.92568023577486169273e-01) (302, 4.42555800270142407626e-01) (303, 4.00869228522184484209e-01) (304, -1.37015960369281186715e+00) (305, -4.21053776775165922164e-01) (306, -5.21582847341246158557e-01) (307, -3.39504324928514167325e+00) (308, -9.97382027480279043097e-01) (309, -1.59682750864191547180e+00) (310, -5.36998175324913673556e-01) (311, 2.31811838643356388223e-01) (312, 9.27959699568127627245e-01) (313, -1.32417259717471175184e-01) (314, 4.08064642035227909123e-01) (315, 2.60561932623467329417e-01) (316, -2.20820688241648466210e-01) (317, 7.68708633580033606769e-01) (318, 1.41407189153900630929e-01) (319, 1.58085971614802672791e-01) (320, -2.30577074917568319856e-01) (321, -1.30214667624725954909e+00) (322, 3.05982972978101397388e-01) (323, 4.18274570190844130479e-01) (324, 8.84863550597234371775e-02) (325, -2.14309673376965242886e-01) (326, -1.44951651524548752459e-01) (327, -2.13912693424632344152e-01) (328, -1.08729648414045221294e+00) (329, -2.49664003651425825403e-01) (330, -2.48354304297700362314e-01) (331, -2.31519010852687356916e+00) (332, -8.38340762007957374102e-01) (333, -1.47617498181756179321e+00) (334, -4.95048784949198628080e-01) (335, 3.38126426215645536910e-01) (336, 8.58900881164185503458e-01) (337, 2.29433534026026147989e-01) (338, -2.72481644032833869584e-01) (339, -6.42737306499672422788e-01) (340, -8.13566184271152098573e-02) (341, 5.84005426488197310064e-01) (342, -4.04745423594101427778e-02) (343, -5.50661159245791398398e-01) (344, -2.15149952274464956181e-01) (345, -4.31913829033229612619e-01) (346, 8.19502374099524422135e-01) (347, 5.36860033600138897292e-01) (348, 5.56675258604691358677e-01) (349, -8.91563164687689813093e-02) (350, 3.11166009641657137497e-01) (351, -5.31251273712511684622e-01) (352, -1.03298277918707492873e+00) (353, -3.38750720044650524554e-02) (354, 1.71685284577931612793e-01) (355, -1.46101317750887038649e+00) (356, -7.80014548447347744187e-01) (357, -1.32486096887477389217e+00) (358, -2.71624819448594789772e-01) (359, 1.25313291109093061237e-01) (360, 8.89269166015357215294e-01) (361, -1.46489851724209807493e-01) (362, -6.07196383721831933755e-01) (363, -8.08329725534950749299e-01) (364, -5.69557608472563564606e-02) (365, -2.49534260873893274507e-03) (366, -1.45181816524076023889e-01) (367, -8.53155705972334810205e-01) (368, -3.98193857159247821542e-01) (369, 2.13399326585165582948e-01) (370, 8.21479010706040457812e-01) (371, 3.58163014213535746411e-01) (372, 4.73797309538403432772e-01) (373, 1.81162012220613788394e-01) (374, 2.45246167410946930287e-01) (375, -5.31044231804737698610e-01) (376, -1.13631223484907883936e+00) (377, -7.55568226752965643733e-02) (378, 1.26242756200772604513e-01) (379, -5.66615155408233928114e-01) (380, -6.42661870261093892687e-01) (381, -1.04639859857489958550e+00) (382, -4.08251860934165766714e-01) (383, -7.34890205883845931689e-03) (384, 9.04461043294861100073e-01) (385, 3.52850569487143661540e-02) (386, -4.05893370451891111195e-01) (387, -4.48695756596919237413e-01) (388, 2.32764853512841152217e-01) (389, -2.32526830086573141343e-02) (390, -2.81685155083387539499e-01) (391, -8.89990480114095428021e-01) (392, -1.49102005302709450518e-01) (393, 3.43504432560162831223e-01) (394, 7.31025254553806291824e-01) (395, 7.69283254836378438402e-02) (396, 5.80528508835404410959e-01) (397, 1.40816114250946672337e-01) (398, 2.26244085619013962640e-01) (399, -6.65705262695628907643e-01) (400, -9.63699663076049595212e-01) (401, -3.33329473197467654466e-02) (402, 5.21922337878509209896e-03) (403, -5.33351397494674639432e-01) (404, -3.45341327316803226033e-01) (405, -7.74886893627556805342e-01) (406, -2.51638160171972380397e-01) (407, 1.51949732153784846517e-02) (408, 7.78103186424880299832e-01) (409, -1.66032779868045626825e-01) (410, -3.93351011910976433583e-01) (411, -5.36557603730717147528e-01) (412, 3.96441683641369557733e-01) (413, 8.92954015417677937627e-02) (414, -8.28520846263900156980e-02) (415, -4.97214961703646651792e-01) (416, -2.58923194355077213036e-01) (417, 3.53504107719161908552e-01) (418, 5.47657445896836403421e-01) (419, 6.04982709077220501270e-02) (420, 5.15059912299803412949e-01) (421, 5.60167595253038969050e-02) (422, -3.53809065194904015517e-01) (423, -5.34697324856435507456e-01) (424, -8.15267265230614768257e-01) (425, -9.29689009393932785930e-02) (426, -1.11561443239241053771e-01) (427, -3.89058474303445034348e-01) (428, -5.42917790291608248765e-01) (429, -9.41127574385925536049e-01) (430, -1.78737171604535755032e-01) (431, -9.27445046109250798017e-02) (432, 4.91456648601120871245e-01) (433, -3.00647169613940945521e-01) (434, -5.42716638915126559084e-01) (435, -6.51770506747887390375e-01) (436, 4.24662138722644522115e-01) (437, -1.55525844718172989722e-01) (438, -4.08676702925276635892e-01) (439, -5.78056045982835442487e-01) (440, -4.55556902284982412343e-01) (441, 3.35292982211867762743e-01) (442, 8.86433327990336139557e-01) (443, -6.29604084783301209960e-02) (444, 6.13255817012282156142e-01) (445, 6.30320201529679935426e-03) (446, -3.83830794565185318135e-01) (447, -5.65411797181542885582e-01) (448, -8.07616054941072691875e-01) (449, -1.77592335720489657991e-01) (450, -1.17364386460583877692e-01) (451, -2.25781928920130436911e-01) (452, -3.72453301911163325855e-01) (453, -7.61614905729488644859e-01) (454, -2.54865573194183347994e-01) (455, -6.17844034786845658358e-02) (456, 5.18809255414472647594e-01) (457, -2.73570607188119485631e-01) (458, -4.74903966648910047521e-01) (459, -7.10967644838031209709e-01) (460, 3.55711822600574101294e-01) (461, -1.42232036770732622744e-01) (462, -4.17335226765680467054e-01) (463, -7.01258405178488586351e-01) (464, -5.09457241249330117228e-01) (465, 4.35520750214151708413e-01) (466, 8.71521313674582409625e-01) (467, -1.22025116939874375688e-01) (468, 5.26158730599255997085e-01) (469, 2.06623701363880807325e-02) (470, -3.55295269870934460332e-01) (471, -4.54619779726173178780e-01) (472, -7.72425529409439981521e-01) (473, -2.27570753279647680634e-01) (474, -9.56300938360050423181e-02) (475, -2.73636376616157195318e-01) (476, -1.50664243593766344897e-01) (477, -8.54305314046458152966e-01) (478, -3.33736069079656416658e-01) (479, -1.67511407619267797819e-02) (480, 3.34359442811965390518e-01) (481, -3.18269452317251233531e-01) (482, -1.89308113468237670940e-01) (483, -3.71123964470236267221e-01) (484, 2.27420168887245227607e-01) (485, -4.05505287808530845428e-01) (486, -2.20656704777117101957e-01) (487, -4.65571511670765991742e-01) (488, -5.62718365304686218842e-01) (489, 3.75404516267681898078e-01) (490, 5.80320328902529380954e-01) (491, -2.52891416374911692788e-01) (492, 4.15395441527713848995e-01) (493, 2.07644525041073918503e-01) (494, -3.12723487685702017380e-01) (495, -2.06427525953535667691e-01) (496, -7.50665192308595630166e-01) (497, -1.02658965062452881001e-01) (498, 1.05004967611965357999e-01) (499, -2.82259013868549735182e-01) (500, -2.20534852395266101066e-01) (501, -6.52002160411593867373e-01) (502, -1.95049302868367330221e-01) (503, -9.80557158768316505792e-02) (504, 2.19053220510693730239e-01) (505, -2.26537668183549950607e-01) (506, -1.42427543547891222175e-01) (507, -5.50422834619725742655e-01) (508, 3.16724015963909921734e-01) (509, -1.47711045812190050475e-01) (510, -3.02542501778034489401e-01) (511, -4.40060267033587193541e-01) (512, -3.16951969520708698447e-01) (513, 1.18605423070755472414e-01) (514, 5.56430120250531623505e-01) (515, -9.77448759574398584604e-02) (516, 1.66095253701499717680e-01) (517, -1.55033510723475737025e-01) (518, -3.59385997936990608803e-01) (519, -2.41305114024773059711e-01) (520, -7.11873017710795363833e-01) (521, -1.06072811543092795916e-01) (522, 4.28858870142433470929e-02) (523, -4.13004602722046587626e-01) (524, -9.73082657994009947444e-02) (525, -7.14928176916334257029e-01) (526, -1.43006416178705103581e-01) (527, -5.39307122055079288248e-02) (528, 6.97102023601971904077e-02) (529, -2.20323057983591336084e-01) (530, 2.24264372330744143902e-01) (531, -3.44631869003838076093e-01) (532, 1.78311422337347230682e-01) (533, -3.29131899718915210684e-01) (534, -4.05447121961913348187e-01) (535, -2.71724137536221488354e-01) (536, -9.82830849271864592787e-02) (537, 3.89210380627259336372e-02) (538, 4.91822275565873379133e-01) (539, -2.06634448867106884640e-01) (540, 3.36071984158735126424e-01) (541, -1.42473591592973646003e-03) (542, -4.92368469746520431851e-01) (543, -3.61174028694402460271e-01) (544, -7.17028221982113467270e-01) (545, -3.14645823500924043392e-02) (546, 1.63360189185933923905e-01) (547, -4.20727135260762052926e-01) (548, -2.61617201078141403681e-01) (549, -6.86148880565386920516e-01) (550, -2.28766274234960931278e-01) (551, -1.39943902624820454283e-01) (552, -5.38166637859675667244e-01) (0, -2.25401379246326138972e-01) (1, -4.90808256078664850719e-01) (2, 1.81740976027923883951e-01) (3, -9.03227708926372718778e-01) (4, 4.59373317857523388863e-01) (5, -1.07598046160044336084e+00) (6, -5.97154012058318972578e-01) (7, -4.38595064097101750011e-01) (8, -9.50885231762371163633e-01) (9, -2.69538288198774400595e-01) (10, -3.14676369140379219580e-01) (11, -3.52844075147298041895e-01) (12, -8.85804131244028014613e-01) (13, -4.13734155842606365905e-01) (14, 1.85527917834391237184e-01) (15, -7.81801539454457961043e-01) (16, -1.02071259786016077520e+00) (17, 2.75820128965337529880e-01) (18, 2.21028156949042570156e-01) (19, -6.81709584958358538742e-01) (20, 6.41974775066299074844e-02) (21, -7.44720389423620066083e-01) (22, -6.47231420599031714858e-01) (23, -1.61558391907229675910e-01) (24, 1.91063441430963064371e-02) (25, -1.18471851003548178660e+00) (26, -1.26354796077073588956e-01) (27, -1.00448224372614980382e+00) (28, 5.60194904707660090715e-01) (29, -4.18604541849817213262e-01) (30, -6.58016568983214256150e-01) (31, -2.35873965026994703020e-01) (32, -1.01863190463222408333e+00) (33, -3.15939945100409236289e-01) (34, -4.48084795687875736547e-01) (35, -5.55552400735795148812e-01) (36, -2.05904231590310321520e-01) (37, -5.04963275220441376590e-01) (38, 9.76464154949151369456e-02) (39, -6.47870194619335482145e-01) (40, -1.22799977702947016311e+00) (41, 3.00823664349954056352e-01) (42, 2.45753189386566373020e-01) (43, -8.11661498575863116223e-01) (44, -1.81684349945656020697e-01) (45, -6.79338272784997920795e-01) (46, -6.22259571893157059641e-01) (47, 7.31368284149558432056e-03) (48, 2.65717827779024584611e-01) (49, -5.25869482925936715390e-01) (50, 6.40484693525816307924e-03) (51, -1.43463292477602544217e+00) (52, 5.24229123963502852135e-01) (53, -1.03448733153917360461e+00) (54, -1.05008645180041004785e+00) (55, -6.80463301780425355858e-01) (56, -8.59719210505287656510e-01) (57, 6.84038665648745269898e-01) (58, 2.08483347768923771293e-01) (59, -5.60998275453921779743e-01) (60, 1.04584223295283718080e-01) (61, -4.76396729997606016571e-01) (62, -3.65637472474886926488e-01) (63, -9.67552339116018789156e-01) (64, -1.05637432677988951646e+00) (65, 3.79717796620876069102e-01) (66, 5.55473505627522179395e-01) (67, 3.58814600940820016550e-01) (68, -1.33364854976655977659e+00) (69, -8.89567632364079985408e-01) (70, -6.36740754753254978304e-01) (71, -1.10712231514919628994e-01) (72, -1.75421478473672759479e-01) (73, -7.39450166362259769803e-02) (74, -3.00682138982327984422e-01) (75, -9.08570482115232946896e-01) (76, 2.72018080647583759824e-01) (77, -1.00040380911748605364e+00) (78, -9.09940705853081621690e-01) (79, -1.41110410576786748926e+00) (80, -4.87487952816812619705e-01) (81, 6.09133891348438538671e-01) (82, -7.96174094856248459884e-02) (83, 7.26240667215834745374e-02) (84, -4.07495822707146848618e-01) (85, -7.45673936032245632255e-01) (86, -5.65476984073561395050e-01) (87, -1.40185154817709056729e+00) (88, -5.42390254447080888411e-01) (89, 1.11299502711473975031e-02) (90, -4.55493072389424116797e-02) (91, 2.71401340373180810506e-01) (92, -5.78867508040575406980e-01) (93, -8.75801999280600207420e-01) (94, -5.64784325819474908315e-01) (95, -1.72551323644189957829e-01) (96, -2.87777354748865697720e-02) (97, -5.68778357401268030991e-01) (98, -1.24271666382718048993e+00) (99, -1.09380289939985986258e+00) (100, -3.33089133041140975089e-02) (101, -1.07677645083584194730e+00) (102, -8.42622699827094479019e-01) (103, -1.44547933216888924157e+00) (104, -1.15146894841187097391e+00) (105, 1.05533412552526040251e+00) (106, 7.36459658900593061581e-01) (107, -5.03664622595971556152e-01) (108, 3.97965462149731719066e-01) (109, -7.79540952144325061113e-01) (110, -9.51320897454525082892e-01) (111, -1.14696966224782537225e+00) (112, -9.21046800532002940542e-01) (113, 4.52713972042057211098e-01) (114, -3.64467108230670799873e-01) (115, 8.84151345030635305022e-01) (116, -8.62284683581188371448e-01) (117, -1.01749777489945136821e+00) (118, -5.73707514293446796394e-01) (119, 5.36937694357037670345e-02) (120, 3.53223929891730292763e-01) (121, -7.30281840420610506293e-01) (122, -2.01076869911311773009e+00) (123, -1.76172654692470387339e+00) (124, 2.92579401516756987256e-01) (125, -8.74718771532106642574e-01) (126, -1.11955673449669368402e+00) (127, -2.01920371720447944242e+00) (128, -1.27913717719721087285e+00) (129, 1.44411536302812359978e+00) (130, 1.23658976441620094278e+00) (131, -7.48542044780257875836e-01) (132, 3.16824449995791457280e-01) (133, 8.07196968395726827117e-02) (134, -9.02940902929704081181e-01) (135, -1.82493778478688883915e+00) (136, -1.38907394765550340487e+00) (137, -1.44194259038385924621e-01) (138, 5.78919434857926087923e-02) (139, 2.55962240648837102697e-01) (140, -9.92586925288668875389e-01) (141, -1.40651579613174337879e+00) (142, -6.36371716495374162292e-01) (143, 3.62931837808165236314e-01) (144, 4.12949240813130002969e-01) (145, -3.80473849768178773445e-01) (146, -1.82078914872072417097e+00) (147, -7.24905202782920587978e-01) (148, 7.19108232070886366216e-01) (149, -1.25440944765319040144e+00) (150, -1.12803686847644968338e+00) (151, -2.13343381248151908736e+00) (152, -7.45118765140030503424e-01) (153, 8.23955961433829098262e-01) (154, 8.68163892510225632115e-01) (155, -8.03263438939821106111e-01) (156, 3.80145901811876574250e-01) (157, 1.32740278324762813605e-02) (158, -8.44210906829845897370e-01) (159, -1.38096493577900325533e+00) (160, -1.79947600599957580059e+00) (161, 3.61444292122208687967e-01) (162, 1.34933241979766388452e-01) (163, -7.28855810222817868116e-01) (164, -1.47800179321989055836e+00) (165, -1.92930883438053113466e+00) (166, -5.95248285072581428956e-01) (167, 6.72407601227069995353e-01) (168, -4.69857484586460524834e-02) (169, -1.40407355481413032017e-01) (170, -9.50569063286007875924e-01) (171, -6.57769834625411164986e-01) (172, 2.81696004151989809472e-01) (173, -9.73861730365387590069e-01) (174, -8.16176333458068614668e-01) (175, -2.20727875977605370039e+00) (176, -4.11056997580224070532e-01) (177, -3.33447117269035753218e-01) (178, 4.05996464463951212132e-01) (179, -6.91485634058146114711e-01) (180, -1.29392217723766300708e-01) (181, 9.86056873736156497268e-02) (182, -2.11352168257259470652e-01) (183, -1.06546624228999298190e+00) (184, -2.41021436522384968626e+00) (185, 3.74088115518776798130e-01) (186, 7.01487412421661127304e-01) (187, -1.92659860239818714334e+00) (188, -1.16476773234597863471e+00) (189, -2.23418869514051765535e+00) (190, -6.88256300584896729688e-01) (191, 9.83020264131331922286e-01) (192, -8.05251395568584438234e-02) (193, -3.05766442320621473216e-02) (194, -1.88031370840060690908e-01) (195, -6.22243141822656720130e-01) (196, 3.60964718778586546311e-01) (197, -8.06341954000838301297e-01) (198, -1.24053259219766043309e+00) (199, -1.19053780289727617614e+00) (200, -3.80944005589425593872e-01) (201, -1.36144323894583219037e+00) (202, 1.70682644449764109318e-01) (203, -8.50285880528122289812e-02) (204, -2.10861479299751186645e-01) (205, 4.23621461335416810146e-02) (206, 1.66355066677414686893e+00) (207, -4.25312883106437944480e-01) (208, -2.42023356860683724889e+00) (209, -3.71312422328073155064e-01) (210, 1.81285175032405848627e-01) (211, -2.31658922301557135270e+00) (212, -2.49538981570330875570e+00) (213, -2.82524814627466414052e+00) (214, -6.44423866546376511444e-01) (215, 1.29438448457391541702e+00) (216, -5.85070015521737873954e-01) (217, -1.44152189743807751521e-01) (218, 2.59012987762237401057e+00) (219, 1.12844967212814473179e+00) (220, -2.30108109983518438479e-01) (221, -2.64527675761148828304e-01) (222, -4.93915665493094124816e-01) (223, 5.17158352511171592880e-01) (224, 3.74170964951820519961e-02) (225, -3.13057278140320605075e+00) (226, -1.00152749070684454757e+00) (227, 6.67821599441464130997e-01) (228, -7.69323665336741568943e-01) (229, -5.81118907386880989563e-01) (230, 3.76852141998675405077e+00) (231, 1.56149684834539193012e+00) (232, -9.77892884064844758463e-01) (233, -3.97436497164526392201e-01) (234, -6.72768329098377915187e-01) (235, -4.46102874510329794333e+00) (236, -3.15196556392687465831e+00) (237, -2.72692552410624955428e+00) (238, -6.62501703361910720957e-01) (239, 1.21410166908039141020e+00) (240, -1.66272262273541993061e+00) (241, -1.51790663251376867215e+00) (242, 5.86569061881999509467e+00) (243, 4.23659517496159043759e+00) (244, -7.04117811243863855886e-01) (245, -1.23277922237078585432e+00) (246, -1.63084898500066532989e+00) (247, 6.54123468785928530167e+00) (248, 4.74992682998727315524e-03) (249, -6.24510726934522519826e+00) (250, -2.34913324905870357640e+00) (251, 4.86723492174322591719e-01) (252, -2.21526935574932215545e+00) (253, -2.99953212260891044494e+00) (254, 8.35430962463820669939e+00) (255, 1.63313735436944873491e+00) (256, -2.92941839635374723372e+00) (257, -2.25074118364705233475e+00) (258, -2.31464630655414538296e+00) (259, -7.90660665023274855656e+00) (260, -1.86251584194992325649e+00) (261, -3.04868179840497521838e+00) (262, -7.85572247127886980067e-01) (263, 1.05992426589858146357e+00) (264, -3.21930236258987578779e+00) (265, -3.06220191595728685741e+00) (266, 9.26653272677970996085e+00) (267, 7.16657083360849433973e+00) (268, -1.68841850828908102145e+00) (269, -2.48612970693169099690e+00) (270, -3.04452885740609779930e+00) (271, 1.05382667029171397388e+01) (272, -5.39323968304655343431e-01) (273, -8.39808436762067600512e+00) (274, -4.31043199083238537384e+00) (275, -1.22459623908106815526e-01) (276, -3.02706076960888692540e+00) (277, -4.41008078109277956713e+00) (278, 1.17849587218305931202e+01) (279, 2.45401274267408364693e+00) (280, -1.06555935678034718883e+00) (281, -2.93615276583594608795e+00) (282, -3.64624414914018624145e+00) (283, -9.74008489248158859652e+00) (284, 5.26458822887017285908e-01) (285, -2.67760580931192393450e+00) (286, -8.87903418420292744884e-01) (287, 5.31866177916526794434e-02) (288, -4.54437085269900009621e+00) (289, -2.03604175390630448561e+00) (290, 4.29183440313686404011e+00) (291, 3.31665377683191575642e+00) (292, -2.48175463249949102007e+00) (293, -1.72062765835891284816e+00) (294, -1.81936206310738035619e+00) (295, 7.10890893869907269931e+00) (296, -1.59150411183623143041e-02) (297, -6.43917656165594998185e+00) (298, -5.40908468501098038672e+00) (299, 3.40032646286241468925e-01) (300, -3.01884479229033741987e+00) (301, -3.13432478651759183208e+00) (302, 1.43290045113040296343e+01) (303, 1.49442475922100670438e+00) (304, 5.26061981237621156815e-01) (305, -1.15473522425291652560e+00) (306, -2.63070362189857753776e+00) (307, -7.10804144123101089292e+00) (308, -4.27129061411039956386e-01) (309, -3.10519617705055006596e+00) (310, -1.98944709590845048020e+00) (311, 1.11416273620915462494e+00) (312, -2.91066121482972350876e+00) (313, -2.31801712938563220234e+00) (314, 7.04629108224443578834e-01) (315, 2.10949314437408297351e+00) (316, -8.57959095346020439443e-01) (317, -1.61094332622408820122e+00) (318, -1.59615413251127907790e-01) (319, 1.30337154786894826586e+00) (320, -2.06636577502635976344e-01) (321, -3.06678758174997545538e+00) (322, -4.13270770593012404248e+00) (323, 2.71434809079399951004e-02) (324, -3.22174832492908613801e+00) (325, -1.54168319571615786145e+00) (326, 9.73413228498724514282e+00) (327, 9.50363160951771757112e-01) (328, 7.84748264125290972970e-01) (329, -6.49893046300120458270e-01) (330, -7.65804385400847609233e-01) (331, -2.94275781146298553992e+00) (332, -1.68827269202741048204e+00) (333, -2.20884146481160836828e+00) (334, -1.92449342786127242100e+00) (335, 1.26987775509321498824e+00) (336, -2.49085406864296654561e+00) (337, -2.00478667792844689188e+00) (338, -1.17110115182828300462e+00) (339, 1.48235546567446019317e+00) (340, -1.27452920587044959966e+00) (341, -3.73456979284726542367e-01) (342, 5.37961272894118436305e-01) (343, -8.82922827137755050764e-01) (344, -3.14637838771649025471e-01) (345, -2.42070214593712274009e+00) (346, -2.90233490160823803805e+00) (347, -1.19890589845517703260e+00) (348, -2.52274716166626689073e+00) (349, -1.05769311035584534508e+00) (350, 6.58541469551208002997e+00) (351, 3.24548432820653431907e-01) (352, 7.22040419694563673225e-01) (353, -1.87367949582861043067e-01) (354, -2.15086341882106596435e-01) (355, -1.75036475967367821660e+00) (356, -1.47404217555966776665e+00) (357, -2.35880163129808195777e+00) (358, -1.83132793157967777020e+00) (359, 1.01701035787164473234e+00) (360, -1.29411152621229708082e+00) (361, -1.20415082580674215329e+00) (362, -2.75225444134977870192e+00) (363, -1.43904782467995734363e-01) (364, -5.70207369363973315401e-01) (365, -2.45754919024445933617e-01) (366, 1.50533404290937589121e-01) (367, -2.55510346600355564561e+00) (368, -4.29831995732079585881e-01) (369, 7.32408280703262470901e-01) (370, -6.01031058405437912384e-01) (371, -1.15998620464590396217e+00) (372, -4.78486116911122749684e-01) (373, -2.51970003003532672103e-01) (374, 3.75928377157889404003e+00) (375, -6.45807919761596682662e-01) (376, -8.90762398696414159360e-02) (377, -1.23825445630600772251e-01) (378, -1.68907953796849225059e-01) (379, 9.88609579164064000700e-01) (380, -2.45743725101419974166e+00) (381, -1.48528324526810640016e+00) (382, -1.63211291647684864081e+00) (383, 7.00348541741207086808e-01) (384, -9.64468227910350583976e-01) (385, -1.08970373915026108591e+00) (386, -2.03182880108957952814e+00) (387, 1.89824953794455270062e-01) (388, 4.93218208498201082790e-01) (389, -7.45451936643205304023e-01) (390, -1.39914352162219146614e-01) (391, -2.39618455287969922551e+00) (392, -1.09101670072139045331e+00) (393, 9.53441201446947772524e-01) (394, 2.92384559390607035034e-01) (395, -1.17634354722820266836e+00) (396, -1.03115900448967137693e-02) (397, 4.13092489990487421458e-01) (398, 1.24518087016610956574e+00) (399, -9.60064316609604451180e-01) (400, -8.08349564445001944613e-01) (401, 1.59315487156848289985e-01) (402, -5.14944109105990754927e-01) (403, 1.06345938268411566163e+00) (404, -1.72682418296774797817e+00) (405, -1.33542937649195758709e+00) (406, -1.26886487075854903495e+00) (407, 4.77326845643289421339e-01) (408, -1.61517603650162794304e-01) (409, -4.44053586942354361344e-01) (410, -1.79392460777946149975e+00) (411, -8.63826446382979507010e-02) (412, -1.29368294844956405187e-01) (413, -7.87512854129126749214e-01) (414, -2.02071464291271402081e-01) (415, -1.79448476934895184698e+00) (416, -7.50980976766314256565e-01) (417, 9.46338783312700493333e-01) (418, -5.01294358641554915756e-01) (419, -7.50722918896947866152e-01) (420, 2.10055690860698168754e-01) (421, 1.35235469509416856432e-02) (422, 2.96657647764056453532e-01) (423, -1.22002641027576785859e+00) (424, -7.60519076574494801157e-01) (425, 2.38000633482958662279e-01) (426, -1.45304192156625738841e-01) (427, 4.59882424029891545558e-01) (428, -1.27756151593660716159e+00) (429, -9.53885211547683464772e-01) (430, -1.19791242707257206135e+00) (431, 2.42901431282812163559e-01) (432, -1.17151126661903776105e-01) (433, -4.27642814047117403309e-01) (434, -1.17758054333996220464e+00) (435, 1.74672979217108365058e-01) (436, 4.67317928589493170044e-01) (437, -3.92966151472644298348e-01) (438, 1.99756993093517139226e-02) (439, -1.54415426556568036176e+00) (440, -8.48097250904434774021e-01) (441, 6.19484981033567194686e-01) (442, -3.37557435070365507990e-01) (443, 