FANN_FLO_2.1
num_layers=3
learning_rate=0.700000
connection_rate=1.000000
network_type=0
learning_momentum=0.000000
training_algorithm=0
train_error_function=1
train_stop_function=0
cascade_output_change_fraction=0.010000
quickprop_decay=-0.000100
quickprop_mu=1.750000
rprop_increase_factor=1.200000
rprop_decrease_factor=0.500000
rprop_delta_min=0.000000
rprop_delta_max=50.000000
rprop_delta_zero=0.100000
cascade_output_stagnation_epochs=12
cascade_candidate_change_fraction=0.010000
cascade_candidate_stagnation_epochs=12
cascade_max_out_epochs=150
cascade_max_cand_epochs=150
cascade_num_candidate_groups=2
bit_fail_limit=3.49999999999999977796e-01
cascade_candidate_limit=1.00000000000000000000e+03
cascade_weight_multiplier=4.00000000000000022204e-01
cascade_activation_functions_count=10
cascade_activation_functions=3 5 7 8 10 11 14 15 16 17 
cascade_activation_steepnesses_count=4
cascade_activation_steepnesses=2.50000000000000000000e-01 5.00000000000000000000e-01 7.50000000000000000000e-01 1.00000000000000000000e+00 
layer_sizes=601 161 4 
scale_included=0
neurons (num_inputs, activation_function, activation_steepness)=(0, 0, 0.00000000000000000000e+00) (0, 0, 0.00000000000000000000e+00) (0, 0, 0.00000000000000000000e+00) (0, 0, 0.00000000000000000000e+00) (0, 0, 0.00000000000000000000e+00) (0, 0, 0.00000000000000000000e+00) (0, 0, 0.00000000000000000000e+00) (0, 0, 0.00000000000000000000e+00) (0, 0, 0.00000000000000000000e+00) (0, 0, 0.00000000000000000000e+00) (0, 0, 0.00000000000000000000e+00) (0, 0, 0.00000000000000000000e+00) (0, 0, 0.00000000000000000000e+00) (0, 0, 0.00000000000000000000e+00) (0, 0, 0.00000000000000000000e+00) (0, 0, 0.00000000000000000000e+00) (0, 0, 0.00000000000000000000e+00) (0, 0, 0.00000000000000000000e+00) (0, 0, 0.00000000000000000000e+00) (0, 0, 0.00000000000000000000e+00) (0, 0, 0.00000000000000000000e+00) (0, 0, 0.00000000000000000000e+00) (0, 0, 0.00000000000000000000e+00) (0, 0, 0.00000000000000000000e+00) (0, 0, 0.00000000000000000000e+00) (0, 0, 0.00000000000000000000e+00) (0, 0, 0.00000000000000000000e+00) (0, 0, 0.00000000000000000000e+00) (0, 0, 0.00000000000000000000e+00) (0, 0, 0.00000000000000000000e+00) (0, 0, 0.00000000000000000000e+00) (0, 0, 0.00000000000000000000e+00) (0, 0, 0.00000000000000000000e+00) (0, 0, 0.00000000000000000000e+00) (0, 0, 0.00000000000000000000e+00) (0, 0, 0.00000000000000000000e+00) (0, 0, 0.00000000000000000000e+00) (0, 0, 0.00000000000000000000e+00) (0, 0, 0.00000000000000000000e+00) (0, 0, 0.00000000000000000000e+00) (0, 0, 0.00000000000000000000e+00) (0, 0, 0.00000000000000000000e+00) (0, 0, 0.00000000000000000000e+00) (0, 0, 0.00000000000000000000e+00) (0, 0, 0.00000000000000000000e+00) (0, 0, 0.00000000000000000000e+00) (0, 0, 0.00000000000000000000e+00) (0, 0, 0.00000000000000000000e+00) (0, 0, 0.00000000000000000000e+00) (0, 0, 0.00000000000000000000e+00) (0, 0, 0.00000000000000000000e+00) (0, 0, 0.00000000000000000000e+00) (0, 0, 0.00000000000000000000e+00) (0, 0, 0.00000000000000000000e+00) (0, 0, 0.00000000000000000000e+00) (0, 0, 0.00000000000000000000e+00) (0, 0, 0.00000000000000000000e+00) (0, 0, 0.00000000000000000000e+00) (0, 0, 0.00000000000000000000e+00) (0, 0, 0.00000000000000000000e+00) (0, 0, 0.00000000000000000000e+00) (0, 0, 0.00000000000000000000e+00) (0, 0, 0.00000000000000000000e+00) (0, 0, 0.00000000000000000000e+00) (0, 0, 0.00000000000000000000e+00) (0, 0, 0.00000000000000000000e+00) (0, 0, 0.00000000000000000000e+00) (0, 0, 0.00000000000000000000e+00) (0, 0, 0.00000000000000000000e+00) (0, 0, 0.00000000000000000000e+00) (0, 0, 0.00000000000000000000e+00) (0, 0, 0.00000000000000000000e+00) (0, 0, 0.00000000000000000000e+00) (0, 0, 0.00000000000000000000e+00) (0, 0, 0.00000000000000000000e+00) (0, 0, 0.00000000000000000000e+00) (0, 0, 0.00000000000000000000e+00) (0, 0, 0.00000000000000000000e+00) (0, 0, 0.00000000000000000000e+00) (0, 0, 0.00000000000000000000e+00) (0, 0, 0.00000000000000000000e+00) (0, 0, 0.00000000000000000000e+00) (0, 0, 0.00000000000000000000e+00) (0, 0, 0.00000000000000000000e+00) (0, 0, 0.00000000000000000000e+00) (0, 0, 0.00000000000000000000e+00) (0, 0, 0.00000000000000000000e+00) (0, 0, 0.00000000000000000000e+00) (0, 0, 0.00000000000000000000e+00) (0, 0, 0.00000000000000000000e+00) (0, 0, 0.00000000000000000000e+00) (0, 0, 0.00000000000000000000e+00) (0, 0, 0.00000000000000000000e+00) (0, 0, 0.00000000000000000000e+00) (0, 0, 0.00000000000000000000e+00) (0, 0, 0.00000000000000000000e+00) (0, 0, 0.00000000000000000000e+00) (0, 0, 0.00000000000000000000e+00) (0, 0, 0.00000000000000000000e+00) (0, 0, 0.00000000000000000000e+00) (0, 0, 0.00000000000000000000e+00) (0, 0, 0.00000000000000000000e+00) (0, 0, 0.00000000000000000000e+00) (0, 0, 0.00000000000000000000e+00) (0, 0, 0.00000000000000000000e+00) (0, 0, 0.00000000000000000000e+00) (0, 0, 0.00000000000000000000e+00) (0, 0, 0.00000000000000000000e+00) (0, 0, 0.00000000000000000000e+00) (0, 0, 0.00000000000000000000e+00) (0, 0, 0.00000000000000000000e+00) (0, 0, 0.00000000000000000000e+00) (0, 0, 0.00000000000000000000e+00) (0, 0, 0.00000000000000000000e+00) (0, 0, 0.00000000000000000000e+00) (0, 0, 0.00000000000000000000e+00) (0, 0, 0.00000000000000000000e+00) (0, 0, 0.00000000000000000000e+00) (0, 0, 0.00000000000000000000e+00) (0, 0, 0.00000000000000000000e+00) (0, 0, 0.00000000000000000000e+00) (0, 0, 0.00000000000000000000e+00) (0, 0, 0.00000000000000000000e+00) (0, 0, 0.00000000000000000000e+00) (0, 0, 0.00000000000000000000e+00) (0, 0, 0.00000000000000000000e+00) (0, 0, 0.00000000000000000000e+00) (0, 0, 0.00000000000000000000e+00) (0, 0, 0.00000000000000000000e+00) (0, 0, 0.00000000000000000000e+00) (0, 0, 0.00000000000000000000e+00) (0, 0, 0.00000000000000000000e+00) (0, 0, 0.00000000000000000000e+00) (0, 0, 0.00000000000000000000e+00) (0, 0, 0.00000000000000000000e+00) (0, 0, 0.00000000000000000000e+00) (0, 0, 0.00000000000000000000e+00) (0, 0, 0.00000000000000000000e+00) (0, 0, 0.00000000000000000000e+00) (0, 0, 0.00000000000000000000e+00) (0, 0, 0.00000000000000000000e+00) (0, 0, 0.00000000000000000000e+00) (0, 0, 0.00000000000000000000e+00) (0, 0, 0.00000000000000000000e+00) (0, 0, 0.00000000000000000000e+00) (0, 0, 0.00000000000000000000e+00) (0, 0, 0.00000000000000000000e+00) (0, 0, 0.00000000000000000000e+00) (0, 0, 0.00000000000000000000e+00) (0, 0, 0.00000000000000000000e+00) (0, 0, 0.00000000000000000000e+00) (0, 0, 0.00000000000000000000e+00) (0, 0, 0.00000000000000000000e+00) (0, 0, 0.00000000000000000000e+00) (0, 0, 0.00000000000000000000e+00) (0, 0, 0.00000000000000000000e+00) (0, 0, 0.00000000000000000000e+00) (0, 0, 0.00000000000000000000e+00) (0, 0, 0.00000000000000000000e+00) (0, 0, 0.00000000000000000000e+00) (0, 0, 0.00000000000000000000e+00) (0, 0, 0.00000000000000000000e+00) (0, 0, 0.00000000000000000000e+00) (0, 0, 0.00000000000000000000e+00) (0, 0, 0.00000000000000000000e+00) (0, 0, 0.00000000000000000000e+00) (0, 0, 0.00000000000000000000e+00) (0, 0, 0.00000000000000000000e+00) (0, 0, 0.00000000000000000000e+00) (0, 0, 0.00000000000000000000e+00) (0, 0, 0.00000000000000000000e+00) (0, 0, 0.00000000000000000000e+00) (0, 0, 0.00000000000000000000e+00) (0, 0, 0.00000000000000000000e+00) (0, 0, 0.00000000000000000000e+00) (0, 0, 0.00000000000000000000e+00) (0, 0, 0.00000000000000000000e+00) (0, 0, 0.00000000000000000000e+00) (0, 0, 0.00000000000000000000e+00) (0, 0, 0.00000000000000000000e+00) (0, 0, 0.00000000000000000000e+00) (0, 0, 0.00000000000000000000e+00) (0, 0, 0.00000000000000000000e+00) (0, 0, 0.00000000000000000000e+00) (0, 0, 0.00000000000000000000e+00) (0, 0, 0.00000000000000000000e+00) (0, 0, 0.00000000000000000000e+00) (0, 0, 0.00000000000000000000e+00) (0, 0, 0.00000000000000000000e+00) (0, 0, 0.00000000000000000000e+00) (0, 0, 0.00000000000000000000e+00) (0, 0, 0.00000000000000000000e+00) (0, 0, 0.00000000000000000000e+00) (0, 0, 0.00000000000000000000e+00) (0, 0, 0.00000000000000000000e+00) (0, 0, 0.00000000000000000000e+00) (0, 0, 0.00000000000000000000e+00) (0, 0, 0.00000000000000000000e+00) (0, 0, 0.00000000000000000000e+00) (0, 0, 0.00000000000000000000e+00) (0, 0, 0.00000000000000000000e+00) (0, 0, 0.00000000000000000000e+00) (0, 0, 0.00000000000000000000e+00) (0, 0, 0.00000000000000000000e+00) (0, 0, 0.00000000000000000000e+00) (0, 0, 0.00000000000000000000e+00) (0, 0, 0.00000000000000000000e+00) (0, 0, 0.00000000000000000000e+00) (0, 0, 0.00000000000000000000e+00) (0, 0, 0.00000000000000000000e+00) (0, 0, 0.00000000000000000000e+00) (0, 0, 0.00000000000000000000e+00) (0, 0, 0.00000000000000000000e+00) (0, 0, 0.00000000000000000000e+00) (0, 0, 0.00000000000000000000e+00) (0, 0, 0.00000000000000000000e+00) (0, 0, 0.00000000000000000000e+00) (0, 0, 0.00000000000000000000e+00) (0, 0, 0.00000000000000000000e+00) (0, 0, 0.00000000000000000000e+00) (0, 0, 0.00000000000000000000e+00) (0, 0, 0.00000000000000000000e+00) (0, 0, 0.00000000000000000000e+00) (0, 0, 0.00000000000000000000e+00) (0, 0, 0.00000000000000000000e+00) (0, 0, 0.00000000000000000000e+00) (0, 0, 0.00000000000000000000e+00) (0, 0, 0.00000000000000000000e+00) (0, 0, 0.00000000000000000000e+00) (0, 0, 0.00000000000000000000e+00) (0, 0, 0.00000000000000000000e+00) (0, 0, 0.00000000000000000000e+00) (0, 0, 0.00000000000000000000e+00) (0, 0, 0.00000000000000000000e+00) (0, 0, 0.00000000000000000000e+00) (0, 0, 0.00000000000000000000e+00) (0, 0, 0.00000000000000000000e+00) (0, 0, 0.00000000000000000000e+00) (0, 0, 0.00000000000000000000e+00) (0, 0, 0.00000000000000000000e+00) (0, 0, 0.00000000000000000000e+00) (0, 0, 0.00000000000000000000e+00) (0, 0, 0.00000000000000000000e+00) (0, 0, 0.00000000000000000000e+00) (0, 0, 0.00000000000000000000e+00) (0, 0, 0.00000000000000000000e+00) (0, 0, 0.00000000000000000000e+00) (0, 0, 0.00000000000000000000e+00) (0, 0, 0.00000000000000000000e+00) (0, 0, 0.00000000000000000000e+00) (0, 0, 0.00000000000000000000e+00) (0, 0, 0.00000000000000000000e+00) (0, 0, 0.00000000000000000000e+00) (0, 0, 0.00000000000000000000e+00) (0, 0, 0.00000000000000000000e+00) (0, 0, 0.00000000000000000000e+00) (0, 0, 0.00000000000000000000e+00) (0, 0, 0.00000000000000000000e+00) (0, 0, 0.00000000000000000000e+00) (0, 0, 0.00000000000000000000e+00) (0, 0, 0.00000000000000000000e+00) (0, 0, 0.00000000000000000000e+00) (0, 0, 0.00000000000000000000e+00) (0, 0, 0.00000000000000000000e+00) (0, 0, 0.00000000000000000000e+00) (0, 0, 0.00000000000000000000e+00) (0, 0, 0.00000000000000000000e+00) (0, 0, 0.00000000000000000000e+00) (0, 0, 0.00000000000000000000e+00) (0, 0, 0.00000000000000000000e+00) (0, 0, 0.00000000000000000000e+00) (0, 0, 0.00000000000000000000e+00) (0, 0, 0.00000000000000000000e+00) (0, 0, 0.00000000000000000000e+00) (0, 0, 0.00000000000000000000e+00) (0, 0, 0.00000000000000000000e+00) (0, 0, 0.00000000000000000000e+00) (0, 0, 0.00000000000000000000e+00) (0, 0, 0.00000000000000000000e+00) (0, 0, 0.00000000000000000000e+00) (0, 0, 0.00000000000000000000e+00) (0, 0, 0.00000000000000000000e+00) (0, 0, 0.00000000000000000000e+00) (0, 0, 0.00000000000000000000e+00) (0, 0, 0.00000000000000000000e+00) (0, 0, 0.00000000000000000000e+00) (0, 0, 0.00000000000000000000e+00) (0, 0, 0.00000000000000000000e+00) (0, 0, 0.00000000000000000000e+00) (0, 0, 0.00000000000000000000e+00) (0, 0, 0.00000000000000000000e+00) (0, 0, 0.00000000000000000000e+00) (0, 0, 0.00000000000000000000e+00) (0, 0, 0.00000000000000000000e+00) (0, 0, 0.00000000000000000000e+00) (0, 0, 0.00000000000000000000e+00) (0, 0, 0.00000000000000000000e+00) (0, 0, 0.00000000000000000000e+00) (0, 0, 0.00000000000000000000e+00) (0, 0, 0.00000000000000000000e+00) (0, 0, 0.00000000000000000000e+00) (0, 0, 0.00000000000000000000e+00) (0, 0, 0.00000000000000000000e+00) (0, 0, 0.00000000000000000000e+00) (0, 0, 0.00000000000000000000e+00) (0, 0, 0.00000000000000000000e+00) (0, 0, 0.00000000000000000000e+00) (0, 0, 0.00000000000000000000e+00) (0, 0, 0.00000000000000000000e+00) (0, 0, 0.00000000000000000000e+00) (0, 0, 0.00000000000000000000e+00) (0, 0, 0.00000000000000000000e+00) (0, 0, 0.00000000000000000000e+00) (0, 0, 0.00000000000000000000e+00) (0, 0, 0.00000000000000000000e+00) (0, 0, 0.00000000000000000000e+00) (0, 0, 0.00000000000000000000e+00) (0, 0, 0.00000000000000000000e+00) (0, 0, 0.00000000000000000000e+00) (0, 0, 0.00000000000000000000e+00) (0, 0, 0.00000000000000000000e+00) (0, 0, 0.00000000000000000000e+00) (0, 0, 0.00000000000000000000e+00) (0, 0, 0.00000000000000000000e+00) (0, 0, 0.00000000000000000000e+00) (0, 0, 0.00000000000000000000e+00) (0, 0, 0.00000000000000000000e+00) (0, 0, 0.00000000000000000000e+00) (0, 0, 0.00000000000000000000e+00) (0, 0, 0.00000000000000000000e+00) (0, 0, 0.00000000000000000000e+00) (0, 0, 0.00000000000000000000e+00) (0, 0, 0.00000000000000000000e+00) (0, 0, 0.00000000000000000000e+00) (0, 0, 0.00000000000000000000e+00) (0, 0, 0.00000000000000000000e+00) (0, 0, 0.00000000000000000000e+00) (0, 0, 0.00000000000000000000e+00) (0, 0, 0.00000000000000000000e+00) (0, 0, 0.00000000000000000000e+00) (0, 0, 0.00000000000000000000e+00) (0, 0, 0.00000000000000000000e+00) (0, 0, 0.00000000000000000000e+00) (0, 0, 0.00000000000000000000e+00) (0, 0, 0.00000000000000000000e+00) (0, 0, 0.00000000000000000000e+00) (0, 0, 0.00000000000000000000e+00) (0, 0, 0.00000000000000000000e+00) (0, 0, 0.00000000000000000000e+00) (0, 0, 0.00000000000000000000e+00) (0, 0, 0.00000000000000000000e+00) (0, 0, 0.00000000000000000000e+00) (0, 0, 0.00000000000000000000e+00) (0, 0, 0.00000000000000000000e+00) (0, 0, 0.00000000000000000000e+00) (0, 0, 0.00000000000000000000e+00) (0, 0, 0.00000000000000000000e+00) (0, 0, 0.00000000000000000000e+00) (0, 0, 0.00000000000000000000e+00) (0, 0, 0.00000000000000000000e+00) (0, 0, 0.00000000000000000000e+00) (0, 0, 0.00000000000000000000e+00) (0, 0, 0.00000000000000000000e+00) (0, 0, 0.00000000000000000000e+00) (0, 0, 0.00000000000000000000e+00) (0, 0, 0.00000000000000000000e+00) (0, 0, 0.00000000000000000000e+00) (0, 0, 0.00000000000000000000e+00) (0, 0, 0.00000000000000000000e+00) (0, 0, 0.00000000000000000000e+00) (0, 0, 0.00000000000000000000e+00) (0, 0, 0.00000000000000000000e+00) (0, 0, 0.00000000000000000000e+00) (0, 0, 0.00000000000000000000e+00) (0, 0, 0.00000000000000000000e+00) (0, 0, 0.00000000000000000000e+00) (0, 0, 0.00000000000000000000e+00) (0, 0, 0.00000000000000000000e+00) (0, 0, 0.00000000000000000000e+00) (0, 0, 0.00000000000000000000e+00) (0, 0, 0.00000000000000000000e+00) (0, 0, 0.00000000000000000000e+00) (0, 0, 0.00000000000000000000e+00) (0, 0, 0.00000000000000000000e+00) (0, 0, 0.00000000000000000000e+00) (0, 0, 0.00000000000000000000e+00) (0, 0, 0.00000000000000000000e+00) (0, 0, 0.00000000000000000000e+00) (0, 0, 0.00000000000000000000e+00) (0, 0, 0.00000000000000000000e+00) (0, 0, 0.00000000000000000000e+00) (0, 0, 0.00000000000000000000e+00) (0, 0, 0.00000000000000000000e+00) (0, 0, 0.00000000000000000000e+00) (0, 0, 0.00000000000000000000e+00) (0, 0, 0.00000000000000000000e+00) (0, 0, 0.00000000000000000000e+00) (0, 0, 0.00000000000000000000e+00) (0, 0, 0.00000000000000000000e+00) (0, 0, 0.00000000000000000000e+00) (0, 0, 0.00000000000000000000e+00) (0, 0, 0.00000000000000000000e+00) (0, 0, 0.00000000000000000000e+00) (0, 0, 0.00000000000000000000e+00) (0, 0, 0.00000000000000000000e+00) (0, 0, 0.00000000000000000000e+00) (0, 0, 0.00000000000000000000e+00) (0, 0, 0.00000000000000000000e+00) (0, 0, 0.00000000000000000000e+00) (0, 0, 0.00000000000000000000e+00) (0, 0, 0.00000000000000000000e+00) (0, 0, 0.00000000000000000000e+00) (0, 0, 0.00000000000000000000e+00) (0, 0, 0.00000000000000000000e+00) (0, 0, 0.00000000000000000000e+00) (0, 0, 0.00000000000000000000e+00) (0, 0, 0.00000000000000000000e+00) (0, 0, 0.00000000000000000000e+00) (0, 0, 0.00000000000000000000e+00) (0, 0, 0.00000000000000000000e+00) (0, 0, 0.00000000000000000000e+00) (0, 0, 0.00000000000000000000e+00) (0, 0, 0.00000000000000000000e+00) (0, 0, 0.00000000000000000000e+00) (0, 0, 0.00000000000000000000e+00) (0, 0, 0.00000000000000000000e+00) (0, 0, 0.00000000000000000000e+00) (0, 0, 0.00000000000000000000e+00) (0, 0, 0.00000000000000000000e+00) (0, 0, 0.00000000000000000000e+00) (0, 0, 0.00000000000000000000e+00) (0, 0, 0.00000000000000000000e+00) (0, 0, 0.00000000000000000000e+00) (0, 0, 0.00000000000000000000e+00) (0, 0, 0.00000000000000000000e+00) (0, 0, 0.00000000000000000000e+00) (0, 0, 0.00000000000000000000e+00) (0, 0, 0.00000000000000000000e+00) (0, 0, 0.00000000000000000000e+00) (0, 0, 0.00000000000000000000e+00) (0, 0, 0.00000000000000000000e+00) (0, 0, 0.00000000000000000000e+00) (0, 0, 0.00000000000000000000e+00) (0, 0, 0.00000000000000000000e+00) (0, 0, 0.00000000000000000000e+00) (0, 0, 0.00000000000000000000e+00) (0, 0, 0.00000000000000000000e+00) (0, 0, 0.00000000000000000000e+00) (0, 0, 0.00000000000000000000e+00) (0, 0, 0.00000000000000000000e+00) (0, 0, 0.00000000000000000000e+00) (0, 0, 0.00000000000000000000e+00) (0, 0, 0.00000000000000000000e+00) (0, 0, 0.00000000000000000000e+00) (0, 0, 0.00000000000000000000e+00) (0, 0, 0.00000000000000000000e+00) (0, 0, 0.00000000000000000000e+00) (0, 0, 0.00000000000000000000e+00) (0, 0, 0.00000000000000000000e+00) (0, 0, 0.00000000000000000000e+00) (0, 0, 0.00000000000000000000e+00) (0, 0, 0.00000000000000000000e+00) (0, 0, 0.00000000000000000000e+00) (0, 0, 0.00000000000000000000e+00) (0, 0, 0.00000000000000000000e+00) (0, 0, 0.00000000000000000000e+00) (0, 0, 0.00000000000000000000e+00) (0, 0, 0.00000000000000000000e+00) (0, 0, 0.00000000000000000000e+00) (0, 0, 0.00000000000000000000e+00) (0, 0, 0.00000000000000000000e+00) (0, 0, 0.00000000000000000000e+00) (0, 0, 0.00000000000000000000e+00) (0, 0, 0.00000000000000000000e+00) (0, 0, 0.00000000000000000000e+00) (0, 0, 0.00000000000000000000e+00) (0, 0, 0.00000000000000000000e+00) (0, 0, 0.00000000000000000000e+00) (0, 0, 0.00000000000000000000e+00) (0, 0, 0.00000000000000000000e+00) (0, 0, 0.00000000000000000000e+00) (0, 0, 0.00000000000000000000e+00) (0, 0, 0.00000000000000000000e+00) (0, 0, 0.00000000000000000000e+00) (0, 0, 0.00000000000000000000e+00) (0, 0, 0.00000000000000000000e+00) (0, 0, 0.00000000000000000000e+00) (0, 0, 0.00000000000000000000e+00) (0, 0, 0.00000000000000000000e+00) (0, 0, 0.00000000000000000000e+00) (0, 0, 0.00000000000000000000e+00) (0, 0, 0.00000000000000000000e+00) (0, 0, 0.00000000000000000000e+00) (0, 0, 0.00000000000000000000e+00) (0, 0, 0.00000000000000000000e+00) (0, 0, 0.00000000000000000000e+00) (0, 0, 0.00000000000000000000e+00) (0, 0, 0.00000000000000000000e+00) (0, 0, 0.00000000000000000000e+00) (0, 0, 0.00000000000000000000e+00) (0, 0, 0.00000000000000000000e+00) (0, 0, 0.00000000000000000000e+00) (0, 0, 0.00000000000000000000e+00) (0, 0, 0.00000000000000000000e+00) (0, 0, 0.00000000000000000000e+00) (0, 0, 0.00000000000000000000e+00) (0, 0, 0.00000000000000000000e+00) (0, 0, 0.00000000000000000000e+00) (0, 0, 0.00000000000000000000e+00) (0, 0, 0.00000000000000000000e+00) (0, 0, 0.00000000000000000000e+00) (0, 0, 0.00000000000000000000e+00) (0, 0, 0.00000000000000000000e+00) (0, 0, 0.00000000000000000000e+00) (0, 0, 0.00000000000000000000e+00) (0, 0, 0.00000000000000000000e+00) (0, 0, 0.00000000000000000000e+00) (0, 0, 0.00000000000000000000e+00) (0, 0, 0.00000000000000000000e+00) (0, 0, 0.00000000000000000000e+00) (0, 0, 0.00000000000000000000e+00) (0, 0, 0.00000000000000000000e+00) (0, 0, 0.00000000000000000000e+00) (0, 0, 0.00000000000000000000e+00) (0, 0, 0.00000000000000000000e+00) (0, 0, 0.00000000000000000000e+00) (0, 0, 0.00000000000000000000e+00) (0, 0, 0.00000000000000000000e+00) (0, 0, 0.00000000000000000000e+00) (0, 0, 0.00000000000000000000e+00) (0, 0, 0.00000000000000000000e+00) (0, 0, 0.00000000000000000000e+00) (0, 0, 0.00000000000000000000e+00) (0, 0, 0.00000000000000000000e+00) (0, 0, 0.00000000000000000000e+00) (0, 0, 0.00000000000000000000e+00) (0, 0, 0.00000000000000000000e+00) (0, 0, 0.00000000000000000000e+00) (0, 0, 0.00000000000000000000e+00) (0, 0, 0.00000000000000000000e+00) (0, 0, 0.00000000000000000000e+00) (0, 0, 0.00000000000000000000e+00) (0, 0, 0.00000000000000000000e+00) (0, 0, 0.00000000000000000000e+00) (0, 0, 0.00000000000000000000e+00) (0, 0, 0.00000000000000000000e+00) (0, 0, 0.00000000000000000000e+00) (0, 0, 0.00000000000000000000e+00) (0, 0, 0.00000000000000000000e+00) (0, 0, 0.00000000000000000000e+00) (0, 0, 0.00000000000000000000e+00) (0, 0, 0.00000000000000000000e+00) (0, 0, 0.00000000000000000000e+00) (0, 0, 0.00000000000000000000e+00) (0, 0, 0.00000000000000000000e+00) (0, 0, 0.00000000000000000000e+00) (0, 0, 0.00000000000000000000e+00) (0, 0, 0.00000000000000000000e+00) (0, 0, 0.00000000000000000000e+00) (0, 0, 0.00000000000000000000e+00) (0, 0, 0.00000000000000000000e+00) (0, 0, 0.00000000000000000000e+00) (0, 0, 0.00000000000000000000e+00) (0, 0, 0.00000000000000000000e+00) (0, 0, 0.00000000000000000000e+00) (0, 0, 0.00000000000000000000e+00) (0, 0, 0.00000000000000000000e+00) (0, 0, 0.00000000000000000000e+00) (0, 0, 0.00000000000000000000e+00) (0, 0, 0.00000000000000000000e+00) (0, 0, 0.00000000000000000000e+00) (0, 0, 0.00000000000000000000e+00) (0, 0, 0.00000000000000000000e+00) (0, 0, 0.00000000000000000000e+00) (0, 0, 0.00000000000000000000e+00) (0, 0, 0.00000000000000000000e+00) (0, 0, 0.00000000000000000000e+00) (0, 0, 0.00000000000000000000e+00) (0, 0, 0.00000000000000000000e+00) (0, 0, 0.00000000000000000000e+00) (0, 0, 0.00000000000000000000e+00) (0, 0, 0.00000000000000000000e+00) (0, 0, 0.00000000000000000000e+00) (0, 0, 0.00000000000000000000e+00) (0, 0, 0.00000000000000000000e+00) (0, 0, 0.00000000000000000000e+00) (0, 0, 0.00000000000000000000e+00) (0, 0, 0.00000000000000000000e+00) (0, 0, 0.00000000000000000000e+00) (0, 0, 0.00000000000000000000e+00) (0, 0, 0.00000000000000000000e+00) (0, 0, 0.00000000000000000000e+00) (0, 0, 0.00000000000000000000e+00) (0, 0, 0.00000000000000000000e+00) (0, 0, 0.00000000000000000000e+00) (0, 0, 0.00000000000000000000e+00) (0, 0, 0.00000000000000000000e+00) (0, 0, 0.00000000000000000000e+00) (0, 0, 0.00000000000000000000e+00) (0, 0, 0.00000000000000000000e+00) (0, 0, 0.00000000000000000000e+00) (601, 3, 5.00000000000000000000e-01) (601, 3, 5.00000000000000000000e-01) (601, 3, 5.00000000000000000000e-01) (601, 3, 5.00000000000000000000e-01) (601, 3, 5.00000000000000000000e-01) (601, 3, 5.00000000000000000000e-01) (601, 3, 5.00000000000000000000e-01) (601, 3, 5.00000000000000000000e-01) (601, 3, 5.00000000000000000000e-01) (601, 3, 5.00000000000000000000e-01) (601, 3, 5.00000000000000000000e-01) (601, 3, 5.00000000000000000000e-01) (601, 3, 5.00000000000000000000e-01) (601, 3, 5.00000000000000000000e-01) (601, 3, 5.00000000000000000000e-01) (601, 3, 5.00000000000000000000e-01) (601, 3, 5.00000000000000000000e-01) (601, 3, 5.00000000000000000000e-01) (601, 3, 5.00000000000000000000e-01) (601, 3, 5.00000000000000000000e-01) (601, 3, 5.00000000000000000000e-01) (601, 3, 5.00000000000000000000e-01) (601, 3, 5.00000000000000000000e-01) (601, 3, 5.00000000000000000000e-01) (601, 3, 5.00000000000000000000e-01) (601, 3, 5.00000000000000000000e-01) (601, 3, 5.00000000000000000000e-01) (601, 3, 5.00000000000000000000e-01) (601, 3, 5.00000000000000000000e-01) (601, 3, 5.00000000000000000000e-01) (601, 3, 5.00000000000000000000e-01) (601, 3, 5.00000000000000000000e-01) (601, 3, 5.00000000000000000000e-01) (601, 3, 5.00000000000000000000e-01) (601, 3, 5.00000000000000000000e-01) (601, 3, 5.00000000000000000000e-01) (601, 3, 5.00000000000000000000e-01) (601, 3, 5.00000000000000000000e-01) (601, 3, 5.00000000000000000000e-01) (601, 3, 5.00000000000000000000e-01) (601, 3, 5.00000000000000000000e-01) (601, 3, 5.00000000000000000000e-01) (601, 3, 5.00000000000000000000e-01) (601, 3, 5.00000000000000000000e-01) (601, 3, 5.00000000000000000000e-01) (601, 3, 5.00000000000000000000e-01) (601, 3, 5.00000000000000000000e-01) (601, 3, 5.00000000000000000000e-01) (601, 3, 5.00000000000000000000e-01) (601, 3, 5.00000000000000000000e-01) (601, 3, 5.00000000000000000000e-01) (601, 3, 5.00000000000000000000e-01) (601, 3, 5.00000000000000000000e-01) (601, 3, 5.00000000000000000000e-01) (601, 3, 5.00000000000000000000e-01) (601, 3, 5.00000000000000000000e-01) (601, 3, 5.00000000000000000000e-01) (601, 3, 5.00000000000000000000e-01) (601, 3, 5.00000000000000000000e-01) (601, 3, 5.00000000000000000000e-01) (601, 3, 5.00000000000000000000e-01) (601, 3, 5.00000000000000000000e-01) (601, 3, 5.00000000000000000000e-01) (601, 3, 5.00000000000000000000e-01) (601, 3, 5.00000000000000000000e-01) (601, 3, 5.00000000000000000000e-01) (601, 3, 5.00000000000000000000e-01) (601, 3, 5.00000000000000000000e-01) (601, 3, 5.00000000000000000000e-01) (601, 3, 5.00000000000000000000e-01) (601, 3, 5.00000000000000000000e-01) (601, 3, 5.00000000000000000000e-01) (601, 3, 5.00000000000000000000e-01) (601, 3, 5.00000000000000000000e-01) (601, 3, 5.00000000000000000000e-01) (601, 3, 5.00000000000000000000e-01) (601, 3, 5.00000000000000000000e-01) (601, 3, 5.00000000000000000000e-01) (601, 3, 5.00000000000000000000e-01) (601, 3, 5.00000000000000000000e-01) (601, 3, 5.00000000000000000000e-01) (601, 3, 5.00000000000000000000e-01) (601, 3, 5.00000000000000000000e-01) (601, 3, 5.00000000000000000000e-01) (601, 3, 5.00000000000000000000e-01) (601, 3, 5.00000000000000000000e-01) (601, 3, 5.00000000000000000000e-01) (601, 3, 5.00000000000000000000e-01) (601, 3, 5.00000000000000000000e-01) (601, 3, 5.00000000000000000000e-01) (601, 3, 5.00000000000000000000e-01) (601, 3, 5.00000000000000000000e-01) (601, 3, 5.00000000000000000000e-01) (601, 3, 5.00000000000000000000e-01) (601, 3, 5.00000000000000000000e-01) (601, 3, 5.00000000000000000000e-01) (601, 3, 5.00000000000000000000e-01) (601, 3, 5.00000000000000000000e-01) (601, 3, 5.00000000000000000000e-01) (601, 3, 5.00000000000000000000e-01) (601, 3, 5.00000000000000000000e-01) (601, 3, 5.00000000000000000000e-01) (601, 3, 5.00000000000000000000e-01) (601, 3, 5.00000000000000000000e-01) (601, 3, 5.00000000000000000000e-01) (601, 3, 5.00000000000000000000e-01) (601, 3, 5.00000000000000000000e-01) (601, 3, 5.00000000000000000000e-01) (601, 3, 5.00000000000000000000e-01) (601, 3, 5.00000000000000000000e-01) (601, 3, 5.00000000000000000000e-01) (601, 3, 5.00000000000000000000e-01) (601, 3, 5.00000000000000000000e-01) (601, 3, 5.00000000000000000000e-01) (601, 3, 5.00000000000000000000e-01) (601, 3, 5.00000000000000000000e-01) (601, 3, 5.00000000000000000000e-01) (601, 3, 5.00000000000000000000e-01) (601, 3, 5.00000000000000000000e-01) (601, 3, 5.00000000000000000000e-01) (601, 3, 5.00000000000000000000e-01) (601, 3, 5.00000000000000000000e-01) (601, 3, 5.00000000000000000000e-01) (601, 3, 5.00000000000000000000e-01) (601, 3, 5.00000000000000000000e-01) (601, 3, 5.00000000000000000000e-01) (601, 3, 5.00000000000000000000e-01) (601, 3, 5.00000000000000000000e-01) (601, 3, 5.00000000000000000000e-01) (601, 3, 5.00000000000000000000e-01) (601, 3, 5.00000000000000000000e-01) (601, 3, 5.00000000000000000000e-01) (601, 3, 5.00000000000000000000e-01) (601, 3, 5.00000000000000000000e-01) (601, 3, 5.00000000000000000000e-01) (601, 3, 5.00000000000000000000e-01) (601, 3, 5.00000000000000000000e-01) (601, 3, 5.00000000000000000000e-01) (601, 3, 5.00000000000000000000e-01) (601, 3, 5.00000000000000000000e-01) (601, 3, 5.00000000000000000000e-01) (601, 3, 5.00000000000000000000e-01) (601, 3, 5.00000000000000000000e-01) (601, 3, 5.00000000000000000000e-01) (601, 3, 5.00000000000000000000e-01) (601, 3, 5.00000000000000000000e-01) (601, 3, 5.00000000000000000000e-01) (601, 3, 5.00000000000000000000e-01) (601, 3, 5.00000000000000000000e-01) (601, 3, 5.00000000000000000000e-01) (601, 3, 5.00000000000000000000e-01) (601, 3, 5.00000000000000000000e-01) (601, 3, 5.00000000000000000000e-01) (601, 3, 5.00000000000000000000e-01) (601, 3, 5.00000000000000000000e-01) (601, 3, 5.00000000000000000000e-01) (601, 3, 5.00000000000000000000e-01) (601, 3, 5.00000000000000000000e-01) (601, 3, 5.00000000000000000000e-01) (601, 3, 5.00000000000000000000e-01) (0, 3, 0.00000000000000000000e+00) (161, 3, 5.00000000000000000000e-01) (161, 3, 5.00000000000000000000e-01) (161, 3, 5.00000000000000000000e-01) (0, 3, 0.00000000000000000000e+00) 
connections (connected_to_neuron, weight)=(0, -2.71565015030846579336e+00) (1, -1.32513955045377973541e+00) (2, -1.90345254348466030869e+00) (3, -5.22296181371399725890e+00) (4, -2.33394623930142586232e+00) (5, -4.49976987815982898411e+00) (6, -3.73221085133543750700e+00) (7, -1.56350931388418601387e+00) (8, -1.30549656262069246893e+00) (9, -2.51747299557822801219e+00) (10, -2.53247242246849557645e+00) (11, -4.19063706946462044556e+00) (12, -2.50533060794503148472e+00) (13, -2.91434542414400521437e+00) (14, -3.22673347385966424739e+00) (15, -3.81423580785135341031e+00) (16, -2.10778556952441364913e+00) (17, 1.05552752591013354611e+00) (18, -1.19290563340108812795e+00) (19, -2.09261477451998745281e+00) (20, -3.82129257998446325573e+00) (21, -4.70093859421487181294e+00) (22, -1.64172806601370857571e+00) (23, 4.96189673313460932746e+00) (24, -2.43265197110103370548e+00) (25, -1.70652918512948259533e+00) (26, -2.20316006237238903864e+00) (27, -6.89843988861055645856e+00) (28, -5.95318778953880106686e-02) (29, -4.45916902976594986541e+00) (30, -2.91446016282455877544e+00) (31, -1.87031311978488878900e+00) (32, -2.80551891174004275342e+00) (33, -2.86002666243386594047e+00) (34, -4.46473672484880257372e+00) (35, -3.25035636458921084468e+00) (36, -4.24938940833909217787e+00) (37, -4.81249119195498398227e+00) (38, -2.56232949437306745111e+00) (39, -3.17291793569784053020e+00) (40, -1.81185403464397642992e+00) (41, 4.47225073179720100658e-01) (42, -5.64228997066350879130e-01) (43, -2.32100171034580737839e+00) (44, -2.14191781985184270809e+00) (45, -4.65337903944623754171e+00) (46, -1.73141093596383588427e+00) (47, 4.89803329061621894880e+00) (48, -2.21562829934350880023e+00) (49, -2.05981166242094371199e+00) (50, -1.41374589655453103409e-01) (51, -6.29131094859466255542e+00) (52, -4.12270610488708832975e-01) (53, -3.69336667048881839293e+00) (54, -3.85678536607632960198e+00) (55, -1.62289434610517169233e+00) (56, -2.15684174127386318887e+00) (57, -1.85419125603635892574e+00) (58, -2.27496146632550821920e+00) (59, -1.42720668249370374880e+00) (60, -2.27617862391018466184e+00) (61, -3.89984326877956632984e+00) (62, -1.82937465668680943054e+00) (63, -3.81448554488871538481e+00) (64, -2.69857129196598855003e+00) (65, 6.43082646262966184381e-01) (66, -6.64684198321262131870e-01) (67, -1.81163949863931539319e+00) (68, -4.51173356350244070256e+00) (69, -3.85955460241304937341e+00) (70, -1.70911284292357978920e+00) (71, 4.53681589237613014376e+00) (72, -2.51580945164184921481e+00) (73, -1.77206383629922004097e+00) (74, 5.61013433486982959764e-01) (75, -5.33123948959869053965e+00) (76, -4.05837741769153881322e-01) (77, -5.87750887895204598976e+00) (78, -4.48987508664975631945e+00) (79, -1.70429976356816559324e+00) (80, -3.09109202728544385508e+00) (81, -3.09224987328479583581e+00) (82, -3.01910110196270276006e+00) (83, -1.50450943570658290938e+00) (84, -4.24354288042593541519e+00) (85, -3.34316027410447436097e+00) (86, -2.50817338531625955156e+00) (87, -4.64004595095911742675e+00) (88, -2.76130947361116829697e+00) (89, -5.78608446268487619513e-01) (90, -5.80948300217263069456e-01) (91, -5.80992606538671241267e-01) (92, -3.15303660035324906374e+00) (93, -3.56565146612839090068e+00) (94, -1.85948734224034906148e+00) (95, 4.65034406624218199511e+00) (96, -2.75118464423521524864e+00) (97, -3.42152180928913862701e+00) (98, -7.44272991637608960502e-01) (99, -4.62858486511879885228e+00) (100, -1.05465237218645135897e+00) (101, -4.30435711078165006427e+00) (102, -4.82646024912053572820e+00) (103, -1.65777101965505302417e+00) (104, -1.45507718781960293519e+00) (105, -1.16500722404871259741e+00) (106, -4.11393914541722782729e+00) (107, -2.01185319990836619652e+00) (108, -3.99099169071170134515e+00) (109, -3.15992291490604237936e+00) (110, -3.75927497976694002801e+00) (111, -6.94759326610986427397e+00) (112, -4.96716094539822083931e+00) (113, 1.88710323509702460054e-01) (114, 4.59341935754666863545e-01) (115, 1.03363080188490985556e+00) (116, -1.70977158593401612485e+00) (117, -3.12713467064647776539e+00) (118, -1.97171796879287319904e+00) (119, 4.22609853806309665458e+00) (120, -2.72765038838089823869e+00) (121, -2.34645624573600031226e+00) (122, -3.21536827758457244286e+00) (123, -5.17737013432170556371e+00) (124, -2.39707342376087595426e+00) (125, -4.45346146941159570787e+00) (126, -4.47577838968395713692e+00) (127, -3.07520380892462830147e+00) (128, -2.16051277935191826662e-01) (129, -2.11058622801960749094e-01) (130, -2.72719736898812215031e+00) (131, -1.67355729034840416958e+00) (132, -4.84698252136240270715e+00) (133, -3.81710477727541031001e+00) (134, -2.16238680936327831716e+00) (135, -5.17575469753298111897e+00) (136, -3.89645479084701662487e+00) (137, 7.39996939249297769337e-01) (138, -9.24310595450909322501e-01) (139, 5.93551143613115894659e-01) (140, -3.22219328476856015087e+00) (141, -4.00465805400620045162e+00) (142, -1.96257977084548040914e+00) (143, 4.59314715954611507698e+00) (144, -1.94794277962573492147e+00) (145, -7.61126230979380369313e-01) (146, -5.30185433094118074848e+00) (147, -7.06787946752466123002e+00) (148, 2.42492445815516488583e-01) (149, -5.31416939507318009106e+00) (150, -6.13191874899220135120e+00) (151, -4.62305798037371928899e+00) (152, -1.51144950898984564702e+00) (153, 1.64128934876834331469e+00) (154, -1.74098623557666387640e+00) (155, -2.36714129616736768114e+00) (156, -3.44749992603213462061e+00) (157, -1.87711082361431125243e+00) (158, -4.18569778505451139949e+00) (159, -6.04938803818275427915e+00) (160, -4.75327407891987974153e+00) (161, 9.61832006389233828969e-01) (162, 1.21441540242595080734e+00) (163, 1.59615823267755518877e+00) (164, -6.41730680669820152673e+00) (165, -4.61447090752156974247e+00) (166, -2.08103524857887745014e+00) (167, 5.24320508739884694194e+00) (168, -1.57136763078825247852e+00) (169, -7.43979844381627120065e-01) (170, -3.38318182407261236477e+00) (171, -6.01254331511131567822e+00) (172, 1.87641744522111308946e+00) (173, -6.55782884652655440050e+00) (174, -4.60054035561745067184e+00) (175, -7.13091029330749304194e+00) (176, -1.60653794088754953151e+00) (177, 1.64251000586305068163e-01) (178, -3.03500403975839105897e+00) (179, -7.95586562133914432238e-01) (180, -4.95144782625102042317e+00) (181, -2.29231570311238597171e+00) (182, -2.49110925608175559631e+00) (183, -6.27583487819704100019e+00) (184, -3.56186709824487612863e+00) (185, 1.67116072232830026323e+00) (186, -8.49192051083252019694e-01) (187, 4.52213830167988301012e-02) (188, -7.81720449647566528739e+00) (189, -6.34950230445266505797e+00) (190, -2.11321294667189985006e+00) (191, 6.97722046424566055833e+00) (192, -3.87368024984496983620e+00) (193, -1.79700617968347775566e+00) (194, -1.96023633600473456973e+00) (195, -3.83475323930432621111e+00) (196, 4.97939579771898399585e-01) (197, -5.31411843718475651599e+00) (198, -3.04051457534202951294e+00) (199, -4.94238119668886088931e+00) (200, 1.31437026303519655102e+00) (201, -3.84596945778158039175e+00) (202, -4.56153515147783039652e+00) (203, 6.24811879610534526286e-03) (204, -5.49311251295286240293e+00) (205, -2.49119524920030421811e+00) (206, 1.22298530204719191339e+00) (207, -4.75068537606748719782e+00) (208, -5.25341775658444465336e+00) (209, -1.05957902302607287481e+00) (210, -7.60190124230922359416e-01) (211, -3.78102392996815206416e+00) (212, -9.95641936560258677957e+00) (213, -7.67263022813281470036e+00) (214, -2.35252337986750825749e+00) (215, 8.91634313485764096185e+00) (216, -7.87987846632978783390e+00) (217, 2.68366815438601302723e-01) (218, -1.54957198694459941102e+00) (219, -5.87050049510462024216e+00) (220, 5.94407105937254875982e-01) (221, -4.36882559232535339078e+00) (222, -3.19201963180947467791e+00) (223, 4.79692968605994973785e-01) (224, -5.19835251687259192188e-01) (225, -3.93294082259656807565e+00) (226, -4.83752119168797634075e+00) (227, 1.42132628847341635492e+00) (228, -6.87925866251511308747e+00) (229, -1.20461364986770891328e+00) (230, 4.58416481116114749028e+00) (231, -5.24676598430799057127e+00) (232, -5.41900398073507094665e+00) (233, -9.20888653014207081426e-01) (234, -1.01198342480752057071e+00) (235, -3.71875306842103547922e+00) (236, -1.29310074297240831243e+01) (237, -8.11711762017269577996e+00) (238, -2.47865058155115303151e+00) (239, 1.07413282113451025168e+01) (240, -1.42194910411658987925e+01) (241, 3.69169678340390827742e-01) (242, 7.91606261650154774401e+00) (243, -1.35000854493525501709e+00) (244, 1.21085779155553874276e+00) (245, -4.91436291776552280908e+00) (246, -4.66396735688835928357e+00) (247, 1.15778918665559835688e+01) (248, 3.70336820194772009529e+00) (249, -1.00171036458635267508e+01) (250, -1.04839915125783864625e+01) (251, 1.84417524743507543761e+00) (252, -1.04462703910894969539e+01) (253, -3.20248502806026724699e+00) (254, 9.89530749548361399093e+00) (255, -7.26786095216314764755e-01) (256, 4.79445833253887149228e-02) (257, -4.39797856203600101566e+00) (258, -2.22479121558492165533e+00) (259, -6.92647614597716643203e+00) (260, -9.66911928855633817648e+00) (261, -8.10872058028935605023e+00) (262, -2.60018516843134150918e+00) (263, 1.00031254144977221898e+01) (264, -2.15824898190535101605e+01) (265, -9.19644681318083456745e+00) (266, 1.72414617102086467071e+01) (267, 2.73529643119204779467e+00) (268, 2.10911607941523593368e+00) (269, -9.61252895127811868292e+00) (270, -1.57746359524497439253e+01) (271, 2.94137937115673473443e+01) (272, 1.36830825976172842928e+00) (273, -1.39850190138046812649e+01) (274, -1.38473163609043474764e+01) (275, -6.53443249207206644513e-01) (276, -1.13501800690554830453e+01) (277, -7.83726896430127073501e+00) (278, 2.39413060282344538621e+01) (279, -4.21899986843007379633e+00) (280, -1.32306154728747604743e+00) (281, -9.00772758487325475585e+00) (282, -5.48186553612134375157e+00) (283, -9.47790176556560837184e+00) (284, -2.72325585123765900875e+00) (285, -8.84210433935877837541e+00) (286, -2.70772334829100458364e+00) (287, 7.39631538832203982992e+00) (288, -3.02104206065325655572e+01) (289, -1.08425973584834682839e+01) (290, 2.59123285551359856527e+01) (291, 1.49908775057080152493e+01) (292, -8.99501723594599345013e-01) (293, -1.55817383781904599260e+01) (294, -2.40260929298601517701e+01) (295, 3.93072518218065383167e+01) (296, 1.33198328876112159769e-01) (297, -1.78364960339039875237e+01) (298, -1.98675317493449057338e+01) (299, -3.83404454203321298777e+00) (300, -1.33683157178714466795e+01) (301, -1.35062011067546610121e+01) (302, 4.13153792313883698739e+01) (303, 4.73877562772501370603e+00) (304, 5.21421673512445327248e+00) (305, -9.14441741724160017668e+00) (306, -1.16995471502292307520e+01) (307, -1.43977980195814758702e+01) (308, 6.54325704118879869498e+00) (309, -6.69247955200101873885e+00) (310, -2.93405075877381316118e+00) (311, 5.02518936991691589355e-02) (312, -3.41655134824590902554e+01) (313, -8.88322569370629366858e+00) (314, 8.97456162800208012698e+00) (315, 7.46418986257599037515e+00) (316, -8.49614894853830548982e+00) (317, -1.53050218905577981587e+01) (318, -1.59062507415252181175e+01) (319, 2.48185739593519265611e+01) (320, -2.20183861890853904697e+00) (321, -1.43792992936626724543e+01) (322, -2.74321939291118397364e+01) (323, -2.49257983265777216531e+00) (324, -1.76489118328611027664e+01) (325, -1.46420766885244990618e+01) (326, 6.28234789718164634564e+01) (327, 2.07096463498521465851e+00) (328, 1.05414631378645022863e+01) (329, -8.19725029808511251872e+00) (330, -1.06865989279998121475e+01) (331, -8.97004152911175900442e+00) (332, 1.99861471602376683521e+00) (333, -8.09318002983329698452e+00) (334, -1.17820890585280402263e+01) (335, 8.82233789745505170288e+00) (336, -2.25097883287670406105e+01) (337, -1.02976947824022033728e+01) (338, 2.94906199174500172067e-01) (339, 7.30950890066486191898e+00) (340, -6.25960886992344534008e+00) (341, -1.34812057563163225637e+01) (342, -2.72698531730907145487e+00) (343, 7.70396757678480614828e+00) (344, -1.40889879582069998953e+00) (345, -1.01708860419145068477e+01) (346, -2.46270778229946962767e+01) (347, -4.85775048374604256907e+00) (348, -1.80950944898774608305e+01) (349, -1.00896000550765840842e+01) (350, 4.56178558399223845754e+01) (351, 5.00552901826724472301e+00) (352, 7.87251725434642235513e+00) (353, -2.21869754941539865101e+00) (354, -5.65446434821687393679e+00) (355, -2.13926673995951022178e+00) (356, -3.45189835620307361452e+00) (357, -5.03542444678779332889e+00) (358, -1.37105170135089569072e+01) (359, 1.06590270663577850740e+01) (360, -2.09801461153646329194e+01) (361, -1.36021199683408671177e+01) (362, -9.21833214665125133536e+00) (363, 5.79926349160831655638e+00) (364, -6.35774758981789478440e+00) (365, -9.39839298710727355513e+00) (366, 7.32660514606784177283e-03) (367, -1.66697719727617044150e+00) (368, -1.67057467361226241742e+00) (369, -5.12951783736688327053e+00) (370, -1.69687035586220815730e+01) (371, -1.21212996208658356778e+01) (372, -1.45282017190960193176e+01) (373, -4.62171201009824095252e+00) (374, 2.80890040531390745571e+01) (375, -5.46762835781993139506e-01) (376, 6.80135731235612439605e+00) (377, -1.68529608602991776145e+00) (378, -6.74874331628378398840e-01) (379, 2.85181599223786053088e+00) (380, -2.85119006521752860195e+00) (381, -4.44017743908067341607e+00) (382, -1.31095421297770258207e+01) (383, 9.89313621673769283404e+00) (384, -1.65355716419895166780e+01) (385, -8.36091710525723108560e+00) (386, -1.40213579479833274632e+01) (387, 7.31487662313478392839e-01) (388, -2.88373040297554616984e+00) (389, -5.76145594097356550378e+00) (390, -1.92483733086445707450e+00) (391, -7.85052244496594386902e+00) (392, -3.66736895184392119873e+00) (393, 8.89852579012740729780e-01) (394, -1.06941794147070385890e+01) (395, -1.11222977095475599185e+01) (396, -7.91908102805777147637e+00) (397, -4.57256760967353681480e+00) (398, 1.03446632390902486520e+01) (399, -2.38715573288804749907e+00) (400, 4.34797584166552564255e+00) (401, -2.84408508750186239666e+00) (402, -1.83204914448309930108e+00) (403, 8.26803972884041371572e+00) (404, -3.51202659263027117120e+00) (405, -4.26283790066686130160e+00) (406, -1.08417013582634318425e+01) (407, 7.30484744007395292442e+00) (408, -1.24364878147793831431e+01) (409, -5.63606048926552993805e+00) (410, -1.05273221217992389853e+01) (411, -8.08886327558605122690e-01) (412, -1.95188190892323398806e+00) (413, -5.77921881072048293504e+00) (414, -1.32672186872001374169e+00) (415, -6.31470487354072496089e+00) (416, -4.47323970173062779310e+00) (417, 7.42142803182395338624e-01) (418, -8.27966846582965843027e+00) (419, -9.90217695650126827900e+00) (420, -6.65972697998674778574e+00) (421, -2.40560660676162685334e+00) (422, 4.18328900253132029974e+00) (423, -3.58867175169804752954e+00) (424, 8.18980019010571158589e-01) (425, 1.45589953160453533521e+00) (426, -1.92627258923393429590e+00) (427, 6.06383954984356954299e+00) (428, -6.74801275922642274097e-01) (429, -3.49637750826664372994e+00) (430, -8.70349633327931648807e+00) (431, 5.05084177584553550844e+00) (432, -8.66432649980103875009e+00) (433, -2.31144011787932868174e+00) (434, -6.33722439184676122892e+00) (435, 1.41142359825409413610e+00) (436, -2.52057878876583396632e+00) (437, -2.84500895412165144549e+00) (438, -5.63739004051769687642e-01) (439, -6.33698920434605383889e+00) (440, -1.83919635594112285126e+00) (441, -1.37246581200061834593e+00) (442, -1.07007795459144681161e+01) (443, -5.62880596078345973865e+00) (444, -6.73568486706032043543e+00) (445, -1.86065263907928812870e+00) (446, 9.40336467205919235290e-01) (447, -2.73883500380518585260e+00) (448, 1.16383750502437455232e+00) (449, 1.57634409412276133011e+00) (450, -1.33375627867060453369e+00) (451, 1.03591099317418322556e+00) (452, -3.47467958234169149723e-01) (453, -2.06689224191375098272e+00) (454, -7.46604984966013951464e+00) (455, 3.77618055365957916436e+00) (456, -6.75522486110198361331e+00) (457, -2.83610337867629302977e+00) (458, -5.76530840393334997884e+00) (459, -2.19533623538465239022e+00) (460, -1.42089940707339468240e+00) (461, -5.33775640514939819781e+00) (462, -2.80376925023455925157e+00) (463, -5.15582950451808486036e+00) (464, -2.29345859760868497901e+00) (465, -5.88424702497334473072e-01) (466, -6.35844569357300493095e+00) (467, -7.17082903091273671237e+00) (468, -2.42342362362943797294e+00) (469, -8.99222705231290664329e-01) (470, -5.24963195256454850934e-01) (471, -3.71550224444985710548e+00) (472, 1.39825704516691984303e+00) (473, 1.95341302190223342627e+00) (474, -7.06161045874472592665e-01) (475, 1.03161575863106302897e+00) (476, -7.85771997638190500268e-01) (477, -1.86504307425982540636e+00) (478, -6.14414780345628930291e+00) (479, 2.25234800412052615926e+00) (480, -5.62903304383306846148e+00) (481, -1.69962097302020409550e+00) (482, -3.98632609482616295793e+00) (483, -1.05774405324566100894e+00) (484, -1.40650777410970562187e+00) (485, -4.29235741295693351560e+00) (486, -2.56525006577810854580e+00) (487, -4.36180241821834435711e+00) (488, -3.51052313038860752670e+00) (489, -9.83937548416360940884e-01) (490, -3.86657026842677042922e+00) (491, -5.63535635500115628105e+00) (492, -2.84105148942069618556e+00) (493, -2.15652279645704769706e+00) (494, 3.94810819448635053064e-01) (495, -1.99546356763019949732e+00) (496, 1.95352733626093821862e+00) (497, 1.03158018198488043993e+00) (498, -3.78864032861539024033e-01) (499, -3.13281571469408381958e-01) (500, -9.06419963944883999574e-01) (501, -1.82210473803808747917e+00) (502, -5.54489465490818034255e+00) (503, 1.70371839593270313351e+00) (504, -5.67326805190190697203e+00) (505, 6.02912881916470411170e-01) (506, -1.65074251764246215934e+00) (507, 8.18506875846548132003e-01) (508, -2.78311534058779308509e+00) (509, -2.87091095084218972389e+00) (510, -1.59130657779551243358e+00) (511, -3.06937429265006267443e+00) (512, -2.41473360474929199526e+00) (513, -1.24227738012399324674e+00) (514, -2.48276007381233876359e+00) (515, -2.36283254348255633559e+00) (516, -2.72456551214262621130e+00) (517, -2.36633381606979975587e+00) (518, -8.63874882629700469039e-01) (519, -4.49104334950237049640e+00) (520, 1.17552945149379617362e+00) (521, 1.65621445911041931254e+00) (522, -7.28401570751932458947e-01) (523, -1.26109583175737749450e+00) (524, -1.22715605715614262117e+00) (525, -8.21717673914804991320e-01) (526, -4.96232269150175575589e+00) (527, 1.08121300213890392250e+00) (528, -1.50011075214146138990e+00) (529, 2.08319571762213762156e+00) (530, -8.07319887261074065066e-01) (531, 1.04708134161036370280e+00) (532, -1.75401996719600083985e+00) (533, -1.86866455843236711765e+00) (534, -1.05574373421163425490e+00) (535, -1.07344498355736917006e+00) (536, -1.23913681093861094418e+00) (537, -3.09011981155072978922e+00) (538, -6.17759206964150742181e+00) (539, -8.26212471633064549081e-01) (540, -3.83110670645195483530e+00) (541, -3.94830934911383879538e+00) (542, 1.54485262066157896799e-01) (543, -8.56813196605634597169e-01) (544, 1.93836436939036538263e+00) (545, 1.76983062962385351291e+00) (546, -7.72720371389706617293e-01) (547, -2.35872386482937690388e+00) (548, -2.09154829570745892653e+00) (549, 3.94239650732114477183e-01) (550, -4.99307149636615932309e+00) (551, 1.10001311155701730904e+00) (552, -5.04813414498504142713e-01) (553, -1.53171838456562653397e-01) (554, -2.57528061003491404168e-01) (555, 9.41546282469192585829e-01) (556, -2.26831579958398155128e+00) (557, -3.83769157616920653098e+00) (558, -2.37348636133676960114e+00) (559, -2.61916299298541821461e-01) (560, -8.98129083592216548304e-01) (561, -4.20208499915945488112e+00) (562, -4.91581820739365848993e+00) (563, -8.28055250372983331353e-01) (564, -2.56904632924599196642e+00) (565, -4.94285991018683024123e+00) (566, -1.07766114449481476001e+00) (567, -1.41313052407686146061e+00) (568, 2.42964834036316551513e-01) (569, 1.22053579120160149429e+00) (570, -1.81506109684813343730e-01) (571, -2.82584873855970819534e+00) (572, -2.48694666036276368359e+00) (573, -2.34429151659781065398e-01) (574, -4.64884529119896505733e+00) (575, 6.83548808032701349369e-01) (576, -9.01100779826571329778e-02) (577, -9.70524864356273719856e-01) (578, -3.64237942851243154396e-02) (579, 6.99507755433205202777e-01) (580, -1.30906224316179886635e+00) (581, -3.37526454908915463093e+00) (582, -2.12855462098297421036e+00) (583, 3.10238836951281127252e-01) (584, -3.37784049025824151258e-01) (585, -4.15507324711811598661e+00) (586, -3.73440582190399927853e+00) (587, -1.31781490899934072836e+00) (588, -1.85909052222356163675e+00) (589, -4.62175197372832613496e+00) (590, -8.57411494423468645287e-01) (591, -1.41821657341918117012e+00) (592, -2.00272093982461774075e+00) (593, 1.56517714956725439990e+00) (594, 4.09503317332227279035e-01) (595, -2.63026787479575663298e+00) (596, -1.86510959195723424742e+00) (597, 1.12469786368416246880e+00) (598, -4.47109169516659310517e+00) (599, 4.04793400897311306252e-01) (600, -1.11400781383619307263e+00) (0, 8.42114806180531250135e-01) (1, -1.23325478829093504451e+00) (2, -6.59684223635536581831e-02) (3, -2.63152332415230327811e+00) (4, 3.84991499561891048486e-01) (5, -2.85865435123702793518e+00) (6, -2.29948852739804321388e+00) (7, -2.11517606493878185248e+00) (8, -1.62212540243860692257e+00) (9, -1.13440671428520700736e+00) (10, -1.00492876666372576988e-01) (11, -3.37918129911387454811e+00) (12, 9.94487347294655599228e-01) (13, -3.18161083766403862683e+00) (14, 3.25464892545655082312e-01) (15, -3.00525237370855702324e+00) (16, -3.62648497289918214648e+00) (17, 8.46614215444776108122e-01) (18, -1.80084831225439234714e+00) (19, -2.41467512465003908417e+00) (20, 2.25623205876932075853e+00) (21, 1.88699683107672022686e+00) (22, 3.06745711025844469688e+00) (23, 5.47626823276493013282e+00) (24, -4.82489320154521394990e-01) (25, -2.09018691159384406575e+00) (26, 1.04159858320201625936e+00) (27, -2.98076295410798763896e+00) (28, 2.20000898956504009618e+00) (29, -3.73978699284917359691e+00) (30, -5.59748022678488332815e-01) (31, -3.08928770527514773292e-01) (32, -3.52271471382756651280e+00) (33, -2.55159991564401789077e+00) (34, -3.76902485048403335099e+00) (35, -1.72780871525612411688e+00) (36, -2.97036355837636589783e+00) (37, -5.70737533487034198743e+00) (38, 1.10792465438079301698e+00) (39, -2.14146644477096526060e+00) (40, -4.11669566158659083754e+00) (41, -7.80823230101952647786e-01) (42, -1.19747457820629521486e+00) (43, -3.46711532899066732227e+00) (44, 4.84980484750695417517e+00) (45, 3.48948619704017470866e+00) (46, 3.02832499948132216616e+00) (47, 5.18568056381041220249e+00) (48, -6.66106065316098699958e-02) (49, -3.41654868198325079032e-01) (50, 2.62442313837363361273e+00) (51, -5.68563176300834705046e+00) (52, 1.65660751463805322459e+00) (53, -2.27934476596230117806e+00) (54, -2.60882359861120338707e+00) (55, -4.24030181739225220383e+00) (56, -1.50392954199399841997e+00) (57, -7.51887609257936739837e-01) (58, 1.18331833890028503831e+00) (59, 1.30205228377405335394e-01) (60, 1.67948480754199835907e+00) (61, -2.29644444091535637753e+00) (62, -1.57081302961526059203e-01) (63, -3.58506612579199623880e+00) (64, -4.32188644687589285098e+00) (65, 2.37125213006534218962e+00) (66, 2.09571074273481511296e-01) (67, -1.89681857494722638791e+00) (68, 3.19348706512915958555e+00) (69, 3.82030902219193002622e+00) (70, 3.13154531721955908807e+00) (71, 4.43794504342940765440e+00) (72, 1.26243745344372682027e+00) (73, 8.82693878680268828596e-01) (74, 2.00886036425745428957e+00) (75, -4.53876521923053477536e+00) (76, 2.62432619697216473753e+00) (77, -2.32466785658553254379e+00) (78, -3.10557788772609599803e+00) (79, -4.84107826840117727585e+00) (80, -1.97459525031415905616e+00) (81, -1.38392063764142636551e+00) (82, 2.68115120252494676389e-01) (83, 4.00786485880632870060e-01) (84, -8.39123744947551930551e-02) (85, -1.78830219373347576450e+00) (86, -1.45867210362962951287e+00) (87, -3.26535670594932403432e+00) (88, -2.26666434232879998589e+00) (89, 5.97794226809372220011e-02) (90, 1.60695742070072511432e+00) (91, -7.12237590007548493354e-01) (92, 1.12471117726975058937e-01) (93, 3.15567433569475097599e+00) (94, 3.05922935146762853265e+00) (95, 4.31661887929037657585e+00) (96, 2.68534153686240495418e+00) (97, -2.70995648002318656467e+00) (98, -2.46456272124016884106e+00) (99, -3.54779909275672800106e+00) (100, 2.36215536726961217173e-01) (101, -8.55733419843557774342e-01) (102, -2.94082195068090479495e+00) (103, -6.24599017882597795648e+00) (104, -8.66372955309745229613e-01) (105, 1.78637118461184418727e+00) (106, -1.90884732538453318063e-02) (107, 1.03609084493874870070e+00) (108, 3.69783678877530608275e-01) (109, -2.83079816170423637089e+00) (110, -9.32612580916956757093e-01) (111, -7.48776356038345625166e+00) (112, -4.74774703455081592551e+00) (113, -1.66763975051610224831e-01) (114, 1.27757602185059382371e+00) (115, 2.44099894528697625162e+00) (116, 4.04490781740948079914e+00) (117, 5.15527373831653790148e+00) (118, 3.10788550343680247678e+00) (119, 3.73272338693185679048e+00) (120, 5.21516132397386478203e+00) (121, -3.74122502389396105471e+00) (122, -6.74620604879157159672e+00) (123, -4.99731861533793431107e+00) (124, -5.52110646776198497887e-03) (125, -5.73201906624707202553e+00) (126, -5.03160667084972601515e+00) (127, -8.80308374716343244870e+00) (128, -2.01833778266369945342e+00) (129, 3.45280815619489178658e+00) (130, 3.33469065744019399489e+00) (131, -2.60665696539689761835e+00) (132, -1.12535932723971865421e+00) (133, -2.25941967850117553240e+00) (134, -2.05658975713450331568e+00) (135, -2.85172892713513848051e+00) (136, -5.35943408251296471434e+00) (137, 3.09462630657036996684e-01) (138, -7.41454015698747692653e-01) (139, 2.47828946771542613092e+00) (140, 4.39798416922632640080e+00) (141, 3.93605930586673347094e+00) (142, 3.05844962509941886708e+00) (143, 4.46016990571423654899e+00) (144, 5.27064723649946476058e+00) (145, 6.07882225773109574618e-01) (146, -7.22344976823653706077e+00) (147, -5.46304923509061168829e+00) (148, 8.76670141632272637011e-01) (149, -2.05015074334588165428e+00) (150, -3.07191654094402721853e+00) (151, -1.24314675542336559033e+01) (152, -2.39588945574389056148e+00) (153, 5.57833274086146158055e+00) (154, 4.34263795092949234089e+00) (155, -2.62934383833672224995e+00) (156, 3.04668864183969345660e+00) (157, -1.40139838254078452628e+00) (158, -4.60208317168814406983e+00) (159, -4.71478582260271483761e+00) (160, -7.22201018620291179673e+00) (161, 1.80072568974904756445e+00) (162, 1.68624804122611826607e+00) (163, 1.08079960835984900669e+00) (164, -1.10608030271539359291e+00) (165, 2.17346927864018057974e+00) (166, 2.92921374139447099338e+00) (167, 4.98097447044265351224e+00) (168, 6.46744215393164978423e+00) (169, -4.83318505664151298884e-01) (170, -6.69741467997453998606e+00) (171, -7.44201471666737468524e+00) (172, 4.28342360061374627378e+00) (173, -3.94936555923534360346e+00) (174, -3.61012932290366439503e+00) (175, -1.51948769773481640044e+01) (176, -1.74812024798068854636e+00) (177, 2.05749985869643392533e+00) (178, 2.06457489466790633514e+00) (179, -6.80416672964889612807e-01) (180, 1.00545730172855329876e+00) (181, 1.01594401804818090795e+00) (182, -4.26364907043630125827e+00) (183, -6.40089820086144634104e+00) (184, -6.97317658837467035937e+00) (185, 4.72955248262978322771e+00) (186, 2.05775608823769395883e+00) (187, -2.11737326953990523393e+00) (188, 1.05436713354779088014e+00) (189, -2.16352263030760355589e-01) (190, 2.87369847792311183809e+00) (191, 6.98042014666568455539e+00) (192, 6.26158697478021775140e+00) (193, 1.26341963970596538047e+00) (194, -5.45278756825103450012e+00) (195, -3.03695538160546307793e+00) (196, 2.16025393189071568401e+00) (197, -2.05293482391844195334e+00) (198, -1.62738427275718122722e+00) (199, -1.27443020885765445627e+01) (200, -9.36756754944143787966e-01) (201, -1.20793968992266220752e+00) (202, 2.20404035679202126019e+00) (203, 1.42867881336450097685e+00) (204, 4.56274444980374338510e-01) (205, -2.05151426832605965345e+00) (206, 6.87763654655440981323e-01) (207, -3.75757593202440531854e+00) (208, -1.04543403164457995302e+01) (209, 9.09388952228912805786e-01) (210, 1.81364625647560506749e-01) (211, -7.30011846235028283303e+00) (212, -4.50561818695240035026e+00) (213, -2.30182080998729743371e+00) (214, 2.77965991918120503001e+00) (215, 9.53057849681566082722e+00) (216, 4.50718137653530170894e+00) (217, 5.63565468706613259542e+00) (218, -3.29725360942074630088e+00) (219, -3.34228478154141361856e+00) (220, 2.43842643981394946451e+00) (221, 1.64764024845397705210e-02) (222, -2.47249091990718400380e-01) (223, -9.93651778146740127795e+00) (224, -1.35141567278583424327e-01) (225, -6.56534629365485056240e+00) (226, 5.24871669074817082112e-01) (227, 4.52320864458101024042e+00) (228, -1.49739285610853056774e+00) (229, -2.51980242760468708951e-01) (230, 9.99035926502745752487e+00) (231, -3.04042304422521514340e+00) (232, -1.20170123311484644546e+01) (233, -1.52973153716762433341e+00) (234, -2.13412355622708160841e-01) (235, -1.15370012671207415877e+01) (236, -9.00271377583596255079e+00) (237, -4.14116159717685849984e+00) (238, 2.68033151588217188888e+00) (239, 1.20982177946119744405e+01) (240, -2.68410785485049663279e+00) (241, 5.90420864883634077813e+00) (242, 1.25699138138352886074e+01) (243, 5.44362867607725675612e+00) (244, -1.06265358838962598043e+00) (245, 9.94023144792644086642e-01) (246, 5.92096524447629168897e-01) (247, 1.88927563483858795834e+00) (248, 5.03666630124093206433e+00) (249, -1.74563182938882448525e+01) (250, -3.95843369565520308839e+00) (251, 7.86133789790188508562e+00) (252, -5.59332110087253031594e+00) (253, -5.55994841534706818464e+00) (254, 1.95617174768179289401e+01) (255, 5.35127435229818892992e+00) (256, -5.33505745712260104341e+00) (257, -4.03808138457021925660e+00) (258, -3.44859944986979405357e+00) (259, -2.20916181741544868089e+01) (260, -8.60578891088016639799e+00) (261, -5.45990175080757111914e+00) (262, 2.67644115612555832939e+00) (263, 1.19006002312884753280e+01) (264, -9.20200656145952322618e+00) (265, -1.03056167420125799339e+01) (266, 3.14918207854776248666e+01) (267, 1.67528318901804205154e+01) (268, -2.57369367017774486328e+00) (269, -7.81190174085340149901e+00) (270, -1.15786651117083376761e+01) (271, 3.74414886871831953385e+01) (272, -9.37468354732511222061e-01) (273, -2.62243066579374399794e+01) (274, -1.08152260284209411623e+01) (275, 3.51247063231934886218e+00) (276, -1.06664898239974537120e+01) (277, -1.44566692584731200100e+01) (278, 4.31981224832246084588e+01) (279, 2.66516791032898447966e+00) (280, -1.02795874514957308321e+01) (281, -1.33233135317496067529e+01) (282, -1.17852845974701416765e+01) (283, -3.11832215745427774323e+01) (284, 7.38311096659013954557e-01) (285, -5.57275984808851809760e+00) (286, 2.55871142055842870633e+00) (287, 9.08334025044227288959e+00) (288, -2.09682490156379337520e+01) (289, -1.45559459955695764677e+01) (290, 4.44316330019529601714e+01) (291, 3.32572748693457782565e+01) (292, -6.75639487740308197772e+00) (293, -1.35760213931597082393e+01) (294, -2.35142110405455753153e+01) (295, 5.80008979648425651021e+01) (296, -1.93679382791198295699e+00) (297, -3.25843418614547672973e+01) (298, -1.53537206132497470179e+01) (299, 3.72254733157089456874e-01) (300, -9.81121780535590914951e+00) (301, -1.97586057728800454925e+01) (302, 6.20924891480742857652e+01) (303, 8.59212312638977593338e+00) (304, -5.15727512641803720328e+00) (305, -1.36079597851321061341e+01) (306, -1.99686704340433252014e+01) (307, -3.98435500210997020076e+01) (308, 1.13812242255729110241e+01) (309, -6.11634177096639497506e+00) (310, 2.39249057675627474495e+00) (311, -3.03002968430519104004e-02) (312, -3.10616163262534676903e+01) (313, -1.03741907107863493565e+01) (314, 1.85020651898004011571e+01) (315, 1.37309480868881532700e+01) (316, -1.43166870045645122644e+01) (317, -1.07507095655099664810e+01) (318, -1.57269735312669620697e+01) (319, 3.26870215971108137865e+01) (320, -2.97509639991868590769e+00) (321, -2.97333003034053717784e+01) (322, -2.98724982232332791909e+01) (323, 2.36716323734351385966e+00) (324, -1.82354267486783498953e+01) (325, -2.07304093395253055121e+01) (326, 8.03300418789686716536e+01) (327, 2.85796634270171789893e+00) (328, 4.75895902659869296514e+00) (329, -1.02572397561901205165e+01) (330, -1.77475843640887589459e+01) (331, -3.16188006057819883665e+01) (332, -5.07268104768180272401e+00) (333, -1.37684432467355861718e+01) (334, -1.80878239511559257835e+01) (335, 2.02711733820537673978e+01) (336, -1.77721743245029166758e+01) (337, -1.00767226623769055038e+01) (338, 3.46910908694192832158e+00) (339, 9.47361385814049228316e+00) (340, -9.20887315207777490400e+00) (341, -7.92495065202818871342e+00) (342, 5.95903702806018231719e-01) (343, 7.99049233288270244202e+00) (344, -2.67731175622843764472e+00) (345, -1.83596120244789773324e+01) (346, -2.41179899866897429206e+01) (347, -5.88147601668841391032e-02) (348, -1.80745866572936506600e+01) (349, -1.53050539193845747121e+01) (350, 5.38510344748489870881e+01) (351, 4.80247969872540902969e+00) (352, 3.51997715680463452159e+00) (353, -5.37682973187055601727e+00) (354, -1.16716815768207364812e+01) (355, -1.57072933694907135305e+01) (356, -1.35422251241587972004e+01) (357, -8.43562416610234500070e+00) (358, -1.91877027115032632310e+01) (359, 2.13544935412878942316e+01) (360, -1.56100528398081266346e+01) (361, -1.35969378566841516687e+01) (362, -1.27717039844351916145e+01) (363, 2.21532733931086456280e+00) (364, -5.43039228286260033940e+00) (365, -6.51272299071668836490e+00) (366, 8.96591752698881805372e-01) (367, -8.71531203002638754640e+00) (368, -1.53629758791501824788e+00) (369, -7.30665539479075842877e+00) (370, -1.37167807697803869615e+01) (371, -1.02544847623174035789e+01) (372, -1.16423382764028851000e+01) (373, -5.32342023958693033592e+00) (374, 3.46809290784228636539e+01) (375, -3.01330088364218351416e+00) (376, 2.48407553248151335978e+00) (377, 2.38412840921589930243e-01) (378, -2.94057477433615876983e-01) (379, -2.32426302971554576970e+00) (380, -8.47705712719406179190e+00) (381, -6.40767006334344557672e+00) (382, -1.66404543338465025215e+01) (383, 1.84864753123713327909e+01) (384, -1.15811196506292102271e+01) (385, -7.12785441218427173737e+00) (386, -1.81001963184452385747e+01) (387, 5.29152451720318439676e-01) (388, -3.31081257018823826854e+00) (389, -9.83858513132396028666e-01) (390, 9.97238412211860381085e-01) (391, -1.54603781933536108539e+01) (392, -4.20722311075919375156e+00) (393, 2.21767323027506746413e+00) (394, -5.99488290872507079143e+00) (395, -7.04703002661276922680e+00) (396, -4.66932862760442457528e+00) (397, -5.56551838457663627935e+00) (398, 1.28303562845065481923e+01) (399, -5.01855692292439492519e+00) (400, 2.76272447819260635882e-01) (401, -3.49728279720827384125e+00) (402, -2.51047884167692281210e+00) (403, 5.09646963809134856405e+00) (404, -7.34997161774438811932e+00) (405, -4.20222142825896849416e+00) (406, -1.14524077047309162936e+01) (407, 1.30898790157359208308e+01) (408, -6.77666081112599627545e+00) (409, -3.40262100432367819991e+00) (410, -1.29611698573296774128e+01) (411, -1.00981621096203988408e+00) (412, -9.47223587811788364510e-02) (413, -1.68498499335585183445e+00) (414, 2.73011156969524770854e-01) (415, -1.47914307874967363432e+01) (416, -3.93202998411090298703e+00) (417, 2.53386984625140243566e+00) (418, -9.62219745144061722186e-01) (419, -7.92043690449180903812e+00) (420, -9.75157805224554530277e-01) (421, -1.38956406226345130506e+00) (422, 4.95681758473344835636e+00) (423, -5.58351884999896164175e+00) (424, -5.10450652460165166246e+00) (425, -1.95492352456164558694e-01) (426, -2.05889875764625251975e+00) (427, 3.55013206962736038719e+00) (428, -2.48617962439407502728e+00) (429, -1.96923227600570727169e+00) (430, -8.19458347175560319897e+00) (431, 9.52289316722398027082e+00) (432, -1.59996593059234282208e+00) (433, -1.44153351908309712570e+00) (434, -9.24686554996096887749e+00) (435, -2.45502809776350972015e+00) (436, 7.76223401964941106534e-01) (437, -1.40468105817494470777e+00) (438, -1.98910258632824299418e+00) (439, -1.24506264691044030712e+01) (440, -3.62394878122834285250e+00) (441, 1.34134708053453755028e+00) (442, -5.06740177705806082997e+00) (443, -5.70220559507515822872e+00) (444, -1.79398321019907047713e+00) (445, -5.35220337139078905508e-01) (446, 1.80155486710069784317e-01) (447, -4.65016909507439279992e+00) (448, -4.52842311448651368977e+00) (449, 1.54326350168886938796e+00) (450, -1.05578255217477789962e+00) (451, 7.56945227477368726143e-02) (452, 9.17650668231509869521e-01) (453, 2.94842218670432310024e-01) (454, -6.45409729441023927166e+00) (455, 7.77270357463649741447e+00) (456, -3.08804254477633532971e+00) (457, -3.81118431672611057692e+00) (458, -7.20068682548001692822e+00) (459, -5.55890212316584619856e+00) (460, 3.01741723320269006337e+00) (461, -4.81242348410616660459e+00) (462, -2.69670308043431417033e+00) (463, -9.42393577615820277060e+00) (464, -4.57346685774397787583e+00) (465, 2.53456625096361998217e+00) (466, -1.00145580484736895777e+00) (467, -7.42432054469280533482e+00) (468, 1.83458037022635234159e+00) (469, -3.98870030683206699962e-01) (470, -1.64671807907051048758e+00) (471, -6.24105882942226308785e+00) (472, -2.89059045633826494637e+00) (473, 2.34374918672154486377e-01) (474, -1.04365017026834538960e+00) (475, 4.14222055886252771284e-02) (476, 1.77582067975742408095e+00) (477, 1.29486947410331759700e-02) (478, -4.98541251522238670901e+00) (479, 6.23776412989998796377e+00) (480, -2.48417032731105802412e+00) (481, -2.43834171330760707264e+00) (482, -5.34774300557910020615e+00) (483, -4.16662208017560153905e+00) (484, 2.66101457419445575070e+00) (485, -4.37016616573996508066e+00) (486, -4.94806809310222561749e+00) (487, -1.03545317910281919893e+01) (488, -5.48722064841214152153e+00) (489, 3.45518208545856086999e+00) (490, 3.96091767698466901138e+00) (491, -6.67314389829042653446e+00) (492, 3.34524507449957919647e+00) (493, -4.32369288349103986224e-01) (494, -2.38984364487513056829e+00) (495, -3.97452073244484127557e+00) (496, -1.50890310561205698292e+00) (497, -8.16694281373413155656e-01) (498, 2.90466655788937155869e-01) (499, 6.72667271209952954969e-01) (500, 2.21204085864112942605e-01) (501, 9.05540426607205017895e-01) (502, -3.83706606823503726389e+00) (503, 5.08975057822930398999e+00) (504, -2.71824850546552987396e+00) (505, 1.71774719737936409913e+00) (506, -2.29495670551854802355e+00) (507, 1.35866484108209867321e-01) (508, 7.99936554083704343121e-01) (509, -2.02459070404091434625e+00) (510, -2.23836038967625938767e+00) (511, -7.41207341101561834051e+00) (512, -4.06407351285003226593e+00) (513, 8.60307228093841747096e-01) (514, 1.40594315188157170660e+00) (515, -2.05368830498868515377e+00) (516, 2.21152564661466655149e-01) (517, -1.17961714334007439220e+00) (518, -2.75996775143019945631e+00) (519, -4.53720074978053045101e+00) (520, -1.22347425840310020106e+00) (521, 2.89735321373358389874e-01) (522, -1.01834741211571744302e+00) (523, -2.47858226576983708966e+00) (524, 1.55813599011392134308e+00) (525, 3.58730941604502628905e+00) (526, -2.96623926283749650423e+00) (527, 4.27540851133649812965e+00) (528, 6.23236119944964639394e-01) (529, 1.78461159225491194924e+00) (530, -1.44623246992020471069e+00) (531, 1.28577076934344902703e+00) (532, 1.43230566118665181286e+00) (533, -1.82665624820754213253e+00) (534, 3.63283641060370698916e-02) (535, -4.08071948714036825123e+00) (536, -2.63413271733879827963e+00) (537, 4.03052316017440348528e-01) (538, -1.43745036429228156827e+00) (539, 2.99932210314387881489e-01) (540, -5.22698313436737227455e-01) (541, -3.58416730515540393753e+00) (542, -3.05239016554562114791e+00) (543, -1.81516174771037452906e+00) (544, -1.79289959260820519482e+00) (545, 2.37370499323840106198e-01) (546, -1.29723131738432223559e-01) (547, -3.74694811145892359150e+00) (548, -1.12080205497395035685e+00) (549, 3.17357540882511290903e+00) (550, -3.27683787108319046766e+00) (551, 4.41069606459880603211e+00) (552, 2.98293919048003530747e+00) (553, -1.21460824946142431635e+00) (554, 6.29648940212169244690e-02) (555, -4.25203016655406051960e-01) (556, 7.89256596256393549993e-01) (557, -5.12237979958133937686e+00) (558, -4.20502139143175845959e+00) (559, -2.98978689130130348417e+00) (560, -1.81681766686922929743e+00) (561, -2.52369360078218241128e+00) (562, -9.97959988379769624700e-01) (563, -2.12662851247437334479e+00) (564, 1.80164375598271753187e-01) (565, -4.44213451424432115289e+00) (566, -1.51442085260865555441e+00) (567, -2.64516332941463438999e+00) (568, -3.28945773153115927911e+00) (569, 5.41363586567277121908e-01) (570, -1.57306361803028343926e-01) (571, -3.94363640004041693388e+00) (572, 1.28083345497071232622e+00) (573, 2.94892130594202717120e+00) (574, -3.18975877764912096879e+00) (575, 4.32042929925378871303e+00) (576, 1.11792918141329389314e+00) (577, -1.24919392509173809991e+00) (578, -1.07272875691990976499e+00) (579, -9.04591434743358235870e-01) (580, 2.04607941399848902719e+00) (581, -2.38925670936036116387e+00) (582, -4.27506610884807436435e+00) (583, -1.28430746190577282917e+00) (584, -1.57054965307935334717e-01) (585, -2.53949326485309967438e+00) (586, 1.46905771416916830496e+00) (587, -6.79663782611045541593e-01) (588, 2.60727708705437244419e+00) (589, -3.57083117846905029324e+00) (590, -3.85987256234929532184e+00) (591, -3.02127400491337683164e+00) (592, -6.72942207814593551518e+00) (593, 4.77039468653055109826e+00) (594, 8.90846924268296591620e-01) (595, -2.91504887916767652101e+00) (596, 4.01241458889112778685e-01) (597, 4.64930932710837563349e+00) (598, -3.25458851936294735196e+00) (599, 4.43460508100333417048e+00) (600, 3.72337784899825452456e+00) (0, -5.99928211243018760790e-01) (1, -6.64842354764345944140e-01) (2, -5.09496608212556489903e-01) (3, -9.58738411413800450944e-01) (4, -1.03381019211178171169e+00) (5, -7.91662404108060324681e-01) (6, -7.48420311803631554959e-01) (7, 1.30865005035552073309e+00) (8, -1.75865193911163980589e-01) (9, 4.00431038445887121924e-01) (10, -5.34742387284231956990e-01) (11, -1.06861704072537033738e+00) (12, -1.27661213784766403023e+00) (13, 6.81062382910956998217e-01) (14, -9.88651654035717752933e-01) (15, -5.02220698697620426820e-01) (16, 7.94486340273020008595e-01) (17, 1.20061120999108084106e+00) (18, -3.09278808573477170807e-01) (19, 1.05771028507156539256e+00) (20, -3.98031700406812072313e-01) (21, -8.88655584408987619938e-01) (22, -1.94100376755743903034e-01) (23, -3.04097579066499701383e-01) (24, -9.08357536768112372449e-01) (25, 4.23130182754643424659e-01) (26, 1.35853147931287894512e-02) (27, -8.98393193183245508671e-01) (28, -6.38046860904796786507e-01) (29, 1.16735805366083387341e-02) (30, -5.73652087998730686458e-01) (31, 1.01553554497357678699e+00) (32, 2.05431627088893731248e-01) (33, -2.46814394040203638481e-01) (34, -9.67444031390837566597e-01) (35, 6.24681654289459875606e-01) (36, -1.03984650435103942456e+00) (37, -8.55700121015304016048e-01) (38, -8.77200188312929785006e-01) (39, -2.40797681461887930210e-01) (40, 1.44288439265375045828e+00) (41, 9.30686405621577783620e-01) (42, -1.03725727081713148259e+00) (43, 5.83123190250340317498e-01) (44, -6.59562479575805271637e-01) (45, -1.03321400803951757297e+00) (46, -1.54535230425004832533e-01) (47, -2.50261360997854953592e-01) (48, -7.19600503032231109124e-01) (49, 1.79260989351982791794e-03) (50, -2.74885559521325206767e-01) (51, -1.33920818410448383418e+00) (52, -2.32489229483523657249e-01) (53, -7.63918262990507468402e-01) (54, -9.03285437548024039423e-01) (55, 1.00329587193192071304e+00) (56, 5.67369174611358717542e-01) (57, -1.50731431736042975622e-01) (58, -7.82978925660445468360e-01) (59, -1.18944223436998106069e-01) (60, -1.02940525534757210124e+00) (61, -3.51512203180504245736e-01) (62, -4.00768758553188608751e-01) (63, 3.67926482537596299949e-01) (64, 3.90269447193746954472e-01) (65, 1.72297386418544029585e-01) (66, -7.94487123883145129888e-01) (67, 1.27072928038917698501e+00) (68, -4.94578381116748011515e-01) (69, -1.18967770487838686577e+00) (70, -1.74118675348198304054e-01) (71, -1.97486957483789610235e-01) (72, -1.27678103203073001204e+00) (73, 2.03790016885828401128e-01) (74, 1.16570033167358677595e+00) (75, -3.67063369239147008205e-01) (76, -6.92688753662512035625e-01) (77, 7.39892001092136430973e-02) (78, 4.73918145837777915474e-01) (79, 1.63626853678721961849e+00) (80, 7.15328441059934649893e-01) (81, -9.92994832463287568913e-01) (82, -1.64462027800826748880e+00) (83, 9.97640062795563276055e-01) (84, -1.99310503897308310961e+00) (85, -1.12351626021695105706e+00) (86, 2.99411160009285415295e-01) (87, 8.01435123257957071630e-01) (88, 1.27681522413341541622e+00) (89, -1.38901545568868883818e-01) (90, -1.11875795671901667738e+00) (91, 4.21538926035075867116e-01) (92, -1.07653311564570541847e+00) (93, -1.21491287943291981222e+00) (94, -2.03751394543752240018e-01) (95, 1.04427408061917220694e-01) (96, -9.91246764565069438113e-01) (97, 3.18576441822904121715e-01) (98, 1.59917164909921494242e+00) (99, -2.84534108827534715225e-01) (100, -5.99847894071601106525e-01) (101, -2.16005438650913067500e-01) (102, -9.63806459843558283040e-01) (103, 2.33775508461168968211e+00) (104, 1.05032305751834598162e+00) (105, -1.45942799573464543350e+00) (106, -2.23035768908162967961e+00) (107, 7.17271212883983655395e-01) (108, -2.14782977888402948352e+00) (109, -7.46701603013289361144e-01) (110, 9.13405838994576835255e-01) (111, 3.10523311655669043141e-01) (112, 8.36163754023651506486e-01) (113, 1.34253170648541975130e-01) (114, -5.02987439204012232175e-01) (115, 2.28170057053463298802e-01) (116, -6.51219248660859117983e-01) (117, -1.20958126497999240989e+00) (118, -3.39319345508179992521e-01) (119, 3.74177545388787377578e-02) (120, -1.95910688189202053522e+00) (121, 1.16416881819102369100e+00) (122, 9.78951505221574369564e-01) (123, -3.61978136525290539183e-01) (124, -3.54562692394124301387e-01) (125, 7.05195379686519019380e-02) (126, -2.51396538330747043588e-01) (127, 2.75505987171830524218e+00) (128, 1.06662875886530672531e+00) (129, -1.48341630104547106406e+00) (130, -2.23441125224707981545e+00) (131, 1.03891762371594698067e+00) (132, -2.05844770108252062002e+00) (133, -9.96072869121326420760e-01) (134, 4.15905115026334315509e-01) (135, -6.42462596433379884431e-01) (136, 1.37794564765142291130e+00) (137, 2.66472356114537123339e-01) (138, -6.20711595002146343525e-01) (139, 1.05554040601776288888e+00) (140, -8.75648379983556601758e-01) (141, -8.67683247038750660174e-01) (142, -2.96322087005186973752e-01) (143, 2.87092087008356366962e-01) (144, -2.41607033658522363240e+00) (145, 5.25345374936473707983e-01) (146, 1.15529857672665992041e+00) (147, -8.90118857055295364944e-01) (148, -3.53171262028773691455e-01) (149, -2.34851255261113528450e-01) (150, -2.78583181645607469434e-01) (151, 2.00917201762858477210e+00) (152, 9.96477630173318584816e-01) (153, -9.34441141048417023285e-01) (154, -2.39067200297295423539e+00) (155, 9.94778071465694746500e-01) (156, -2.40943523471951115411e+00) (157, -1.18438713014089902487e+00) (158, 3.17941342556936845654e-01) (159, -1.76069095650786960894e-01) (160, 2.21782035129040799859e+00) (161, -5.49586027120034681381e-01) (162, -7.51979925995036047048e-01) (163, 2.03815825882231127508e+00) (164, -2.14449745991889173524e+00) (165, -1.23451016868191931763e+00) (166, -2.99886187017879668470e-01) (167, 5.04245479864616097387e-01) (168, -4.15042040452807192707e+00) (169, -1.17807707314833212675e-01) (170, 6.84261555670840126986e-01) (171, -1.71789985166488978763e+00) (172, 4.64671620325596890222e-01) (173, -1.90907586633516235253e+00) (174, -1.67667920375040635506e+00) (175, 2.39189478351655848698e+00) (176, 5.52730773162551591859e-01) (177, -8.86260987439198233417e-01) (178, -2.17306949164518625750e+00) (179, 5.18738727694144710623e-02) (180, -2.80833692484081787200e+00) (181, 2.10317482850479020584e-01) (182, 8.78025203393264841445e-01) (183, -1.01478973616408385539e+00) (184, 1.09667374881978774148e+00) (185, 3.75451408495829586087e-01) (186, -3.84699964169746763676e-02) (187, 2.12872285921252402119e+00) (188, 2.12680307535411949882e-01) (189, -9.20797882181406790458e-01) (190, -2.59513810188366000897e-01) (191, 5.64379152741022904749e-01) (192, -3.66180940219852013584e+00) (193, 6.29387624828697034296e-01) (194, 3.65618774468529028621e-01) (195, -1.56775063486988464057e+00) (196, 5.96157325783819636023e-01) (197, -1.59071772368114383589e+00) (198, -4.08338460780955314622e-01) (199, 3.03147797581756117680e+00) (200, 7.86479693733908247211e-01) (201, 7.52774004085753761784e-02) (202, -1.82014714066729843545e+00) (203, 1.26277003826041989143e+00) (204, -1.74022033413121368639e+00) (205, 1.50523156901717303224e-01) (206, 1.04269329482736838877e+00) (207, -1.09111748840445291209e-01) (208, 1.39132574765056982180e+00) (209, -3.43062510397942610485e-01) (210, -6.32755808275883624425e-01) (211, 4.27062030083318955320e+00) (212, -2.41425471659730694896e+00) (213, -7.19416802636244523406e-01) (214, -2.49581452454574942434e-01) (215, 2.24025829967928746811e-01) (216, -6.30688674814596694773e+00) (217, 1.51112870493077672274e-01) (218, -2.23728273407440225728e-01) (219, -2.59275668135998049735e+00) (220, 8.59954604226258689792e-01) (221, -1.63641914752223138763e+00) (222, -2.90788050137318176969e-01) (223, 4.61951508289404877416e+00) (224, 1.24319685864534745789e+00) (225, 1.44576260190772076797e+00) (226, -2.61973059190556778475e+00) (227, 1.04545348871656629264e+00) (228, -2.42398283579474327354e+00) (229, 4.55774933759486647333e-02) (230, 4.21166301204889070853e-01) (231, -2.06848020836584911564e+00) (232, 1.79075085261756861144e+00) (233, -6.41839621594044951181e-01) (234, -2.63271876984413510936e-01) (235, 5.25068506796820955174e+00) (236, -6.30970875548702347935e-01) (237, -8.18824235565343977461e-02) (238, -2.54175317451973470373e-01) (239, 7.34212327212870191628e-02) (240, -9.08418210744141418900e+00) (241, -8.67015184749334255621e-01) (242, 6.98305088887775871065e-01) (243, -2.95474479028998748831e+00) (244, 1.12448702701281533223e+00) (245, -1.45763760724258251145e+00) (246, -1.48518131908233463889e+00) (247, 7.64649857699540369538e+00) (248, 1.98450897631206180094e+00) (249, 1.64713341942496471759e+00) (250, -4.61403388533412783801e+00) (251, -1.61235507331180305535e-01) (252, -3.78659315296256471228e+00) (253, 8.39138529067830707397e-01) (254, -2.09186276063165710326e+00) (255, -3.08326685841062619886e+00) (256, 2.58892613954843353596e+00) (257, -5.96509949202558398262e-01) (258, 2.85927927986393104476e-01) (259, 6.81207891782883745435e+00) (260, -2.35999584090979569462e-01) (261, -3.51339293485240455883e-01) (262, -2.90541122357057424175e-01) (263, 1.45568408246804087414e-01) (264, -9.54087614817578177906e+00) (265, -1.25353372946907248853e+00) (266, -1.56822017180660977509e+00) (267, -5.39347981617655047870e+00) (268, 2.64419109495978643665e+00) (269, -3.05531179323880008880e+00) (270, -3.25399502502097570655e+00) (271, 7.19186795026717362589e+00) (272, 1.12297988121646530324e+00) (273, 2.61987719758689063809e+00) (274, -5.30370849091064133773e+00) (275, -1.47901103608406159218e+00) (276, -2.69571350580019686305e+00) (277, 1.11236711324164327941e+00) (278, -2.91232499902999730779e+00) (279, -3.82077771853357983645e+00) (280, 4.03169093768321751270e+00) (281, -6.20442867763096539413e-01) (282, -5.57164003809766730790e-02) (283, 8.67279943843082179455e+00) (284, 1.00987506505725566086e+00) (285, -1.13047328506175559504e+00) (286, -2.86988225411693498312e-01) (287, 3.79602887067154726175e-02) (288, -1.22918168902870963421e+01) (289, -4.43511046908838690861e-01) (290, -5.80070636156600816236e-01) (291, -2.90799219175858913999e+00) (292, 2.34828776071853884133e+00) (293, -4.52067530925861760238e+00) (294, -4.80080245969171937048e+00) (295, 3.70190298840702602945e+00) (296, 9.15732224500423019897e-01) (297, 1.20212748926694690255e+00) (298, -7.48209104955142834115e+00) (299, -2.52512982428974419591e+00) (300, -4.80841440314621326735e+00) (301, -1.20838900249574199286e+00) (302, -1.60783478702676535521e-01) (303, 3.13759589139208761033e-01) (304, 6.61910425513890565696e+00) (305, -2.93021960624811561580e-01) (306, -2.34620595539592663448e-01) (307, 7.47956489927908485527e+00) (308, 2.99146168996247929783e+00) (309, -7.31856251268365620710e-01) (310, -4.00023786388265689684e-01) (311, -1.77180245518684387207e-02) (312, -1.00518405616641519629e+01) (313, -7.92852480123755642971e-01) (314, -1.39583965821062694346e+00) (315, -1.16169143041711375730e+00) (316, 2.11755342498815446461e-01) (317, -6.25891749961636989497e+00) (318, -4.14203102264202360772e+00) (319, 1.42972091165001735646e+00) (320, 3.00233283024621822044e-01) (321, 1.37174366625056598501e+00) (322, -7.00945329389797233688e+00) (323, -2.84617794674592650139e+00) (324, -4.64007586759578849467e+00) (325, -1.64065152775121525508e+00) (326, 1.06136774904258199825e+01) (327, 6.12146407138068560094e-01) (328, 6.20280751116866557737e+00) (329, -8.58344048875426701706e-01) (330, -1.41600596293159380901e-01) (331, 6.95515476388874098745e+00) (332, 3.27025530737921243940e+00) (333, -8.53915077212164808085e-02) (334, 2.43210761201046704594e-01) (335, -5.82880079250462146412e-01) (336, -7.33909580214463019843e+00) (337, -1.17773551440984469707e+00) (338, -1.00743112948700241915e+00) (339, 1.42283911299350895874e+00) (340, -1.19712351995454602260e+00) (341, -5.55091428745789006172e+00) (342, -1.34490556946867223509e+00) (343, 2.67360725406847121732e+00) (344, -8.08292362974973754852e-01) (345, 1.60563662903372006419e+00) (346, -5.61798654502039340741e+00) (347, -2.10640082478141366096e+00) (348, -4.53414102445764033433e+00) (349, -1.30524220790127531977e+00) (350, 1.02203029874565469726e+01) (351, 2.12283754550094139191e+00) (352, 4.53192323289833165489e+00) (353, 4.14789668896315022462e-01) (354, -8.54576780300542071522e-01) (355, 5.84613738894047063610e+00) (356, 8.60319654810956513380e-01) (357, -1.58094421396523382439e-01) (358, 8.62030271807580766863e-02) (359, -3.36138852586110814524e-01) (360, -6.50725100988210058972e+00) (361, -2.09337222305379500042e+00) (362, 9.96376290355938665222e-01) (363, 5.06766920215007754535e+00) (364, -1.87677168261838578367e+00) (365, -2.10242107731354099798e+00) (366, 2.30291441141803510106e+00) (367, 2.61353858343739142711e+00) (368, 3.81448424715682299357e-01) (369, -1.40253020369593439653e+00) (370, -6.56686190310478057341e+00) (371, -2.33234843524682089466e+00) (372, -5.20078261243223582966e+00) (373, -1.90585161977422345991e+00) (374, 6.03855814175220206863e+00) (375, 2.46259114470131601493e+00) (376, 4.92408094569250920358e+00) (377, -8.81684346179138933586e-01) (378, -1.11189434176113444153e+00) (379, 3.87985405383298775917e+00) (380, 1.63093924414562246872e-02) (381, -4.46628421813723419653e-01) (382, -2.98977502459321808903e-01) (383, -1.44517850231818234530e-01) (384, -6.19275066255204453824e+00) (385, -1.80194386094123415454e+00) (386, -1.61584712047713385807e+00) (387, 1.07434117274239859796e+00) (388, -1.03657618469350398804e+00) (389, -2.06052521476296757186e+00) (390, -6.79275258261842207475e-01) (391, 1.53329979330598642484e+00) (392, -1.62507771473896361902e-01) (393, -9.53835899296352242305e-03) (394, -3.61370659301542529462e+00) (395, -3.01230486607033665081e+00) (396, -2.97171107828144043239e+00) (397, -7.97500491134684741379e-02) (398, 2.58457638114432786125e+00) (399, 1.15851648056585010416e+00) (400, 3.85222146001488718881e+00) (401, 5.54264254359512986703e-01) (402, 2.51673637396685245804e-01) (403, 4.40902153425190590497e+00) (404, 6.41004742629734503012e-01) (405, -9.53750285013913234877e-01) (406, -3.88527935905210675127e-01) (407, -1.47613098475801785003e-01) (408, -5.03475218358569431842e+00) (409, -1.04741104072719459772e+00) (410, -1.11517370850937358462e+00) (411, 1.03797492604210961353e+00) (412, -9.98830495963125675196e-01) (413, -1.27582689650252301128e+00) (414, -3.44596430247894824905e-01) (415, 1.93054270933276272970e+00) (416, -4.64789152548137907139e-01) (417, -4.36711982669977516469e-01) (418, -4.24815896536188741806e+00) (419, -2.23151782732032311074e+00) (420, -2.98093309760818003795e+00) (421, -6.09273177161283929770e-01) (422, 5.34028441241670037698e-01) (423, 7.64581742208220949131e-01) (424, 3.59708465771468954841e+00) (425, -2.53632200941876946587e-02) (426, -3.17732725264475546201e-01) (427, 3.26532127506792280158e+00) (428, 6.06000169772826446923e-01) (429, -1.29502416504651685081e+00) (430, -2.48923829633388271620e-01) (431, -9.71029839732183014389e-02) (432, -3.77470577315965183374e+00) (433, -1.61612195792630775060e+00) (434, -1.58014278738880720176e+00) (435, 7.65971987524377562195e-01) (436, -1.20928021254047157740e+00) (437, -1.92776972031329640878e+00) (438, -4.37000041328641952720e-01) (439, 1.67996957220825104962e+00) (440, -1.34705091010342115077e+00) (441, -8.45582890222617566955e-01) (442, -3.03040546075014827210e+00) (443, -2.99616648575407440447e+00) (444, -2.45915796934576702526e+00) (445, -1.31077991828414813780e-01) (446, 1.23307656017871725140e+00) (447, 5.32683847378405794792e-01) (448, 2.75013386691545580476e+00) (449, 4.93040541752739924775e-01) (450, -2.98344061705271557106e-01) (451, 2.62975692895153079220e+00) (452, 1.53515873578054540260e+00) (453, -1.18745354185261042801e+00) (454, -4.62167063473715278299e-01) (455, -5.24010554380624840598e-02) (456, -2.82689583839830760326e+00) (457, -5.77307620231049867243e-01) (458, -3.38131894880312089402e-01) (459, 1.44428910394032095077e+00) (460, -1.86946912716976920699e+00) (461, -1.02908309901945660414e+00) (462, -2.42720976421988560157e-01) (463, 5.94221392138368220692e-01) (464, -1.39649654012061225083e-01) (465, -1.33666503779666978602e+00) (466, -3.02546903337927064470e+00) (467, -1.84151633289299776486e+00) (468, -1.88665682788281263704e+00) (469, 6.91926471128927605969e-02) (470, 9.10902876657591842324e-01) (471, 1.62393547367125468117e-01) (472, 2.58684439146062761239e+00) (473, 6.51640705294153188554e-01) (474, -6.03371563433668933740e-02) (475, 1.05870337363973199274e+00) (476, 2.26451299280538351222e-02) (477, -1.47474882793091510713e+00) (478, -5.17718061264395346122e-01) (479, 1.64177876860119781322e-01) (480, -3.66729945728503015090e+00) (481, -6.44062154488988930501e-02) (482, -7.54028491076712770180e-01) (483, 6.91007305646493930062e-01) (484, -1.56043450417247275830e+00) (485, -1.16520800800411361564e+00) (486, -3.56771583915336032433e-01) (487, 1.38097958907715101518e+00) (488, 2.53124565679073376678e-01) (489, -1.54949699022877251942e+00) (490, -3.21527225702781382921e+00) (491, -1.18296793650812470666e+00) (492, -1.73861345659049626455e+00) (493, 3.73644259512292353786e-01) (494, 1.86585509793951609403e+00) (495, -2.98028081031465941209e-01) (496, 1.83230123673671130291e+00) (497, 7.77895397966618107333e-01) (498, -2.72121995043142494985e-01) (499, 1.06996219186859065076e+00) (500, 3.04954806792392729697e-01) (501, -1.47384481546246237649e+00) (502, -5.38354908227166917278e-01) (503, 1.02989927716386889256e-01) (504, -2.78742010095621184362e+00) (505, -6.40164407487023190413e-01) (506, 4.72607991931801307839e-01) (507, 1.33197544181228821891e+00) (508, -1.89865068159485961274e+00) (509, -7.00751198920462781139e-01) (510, 3.95299226326423225331e-01) (511, 3.73955717356428352094e-01) (512, 6.98786534967168582178e-01) (513, -1.63697140463686086065e+00) (514, -3.47218927628447016076e+00) (515, -8.27117005821880191263e-01) (516, -2.27635421003943072549e+00) (517, -5.59328274816635384603e-01) (518, 8.64739555684111427247e-01) (519, 2.84082056619167411249e-01) (520, 2.48794218192781890764e+00) (521, 6.81827874801967048768e-01) (522, -7.99488648778245658555e-01) (523, 8.03678198689254719156e-01) (524, -1.52048828625134024861e-01) (525, -1.96586452831623437199e+00) (526, -6.09400852123626823875e-01) (527, 1.37590781960853114629e-01) (528, -1.76465174673023561525e+00) (529, -1.21058625571322542314e+00) (530, -1.04675007961390975630e+00) (531, 4.38811687176295928126e-01) (532, -8.22643864575946182072e-01) (533, -1.29687673964028782336e+00) (534, -4.58776095608186662567e-01) (535, 6.37361339914944369234e-01) (536, -5.10884616556025017431e-01) (537, -7.55449475805111264615e-02) (538, -1.96726612507885367798e+00) (539, -1.60988830352307843441e+00) (540, -1.09771835296815933880e+00) (541, -7.41481148863192829346e-02) (542, 4.11840208398327523032e-01) (543, -6.17072307830105956650e-02) (544, 2.61082623699336879852e+00) (545, 1.00567846068658961478e+00) (546, -1.09878769484982430349e+00) (547, 2.08811915930728275725e+00) (548, -1.97318867489458593667e-01) (549, -1.51182962128518250111e+00) (550, -3.88003036362584541319e-01) (551, 6.45007322607613897691e-02) (552, -5.47624019053413291225e-01) (553, 5.07652454144401146796e-02) (554, -1.08959241487541080851e+00) (555, -2.90712360195935770601e-01) (556, -8.06367071928289824712e-01) (557, -3.47476146520716233645e-01) (558, -8.47171762887388934971e-01) (559, 1.25360714737920453388e+00) (560, -8.32318616250258158651e-01) (561, -4.31765531907665311984e-01) (562, -2.05436172502821623453e+00) (563, -9.95064951470099101627e-01) (564, -9.12337862932186771658e-01) (565, -1.34237537647781191019e+00) (566, 3.02176387854140637845e-01) (567, 5.32870251244394133039e-01) (568, 2.72183713106252911373e+00) (569, 3.85752697139764511025e-01) (570, -1.12757633567202031344e+00) (571, 1.74409461869558057856e+00) (572, -7.62229235698985485570e-01) (573, -1.36845153978370071002e+00) (574, -2.08507097921906331406e-01) (575, -3.27615499464055215384e-01) (576, -1.33565366954955666579e+00) (577, 2.12661568398169020799e-01) (578, -1.20275523645579363041e+00) (579, -1.24207318523908760710e+00) (580, -8.80812408623073195280e-01) (581, -1.01882891317391610642e+00) (582, -1.30772491864573603415e+00) (583, 6.75264284604773501464e-02) (584, -1.94480043417323750221e-01) (585, -2.24204202384852113727e-01) (586, -1.37433168596553723084e+00) (587, -1.05859625928781109216e+00) (588, -1.05045246789032886703e+00) (589, -4.58305870157512340590e-01) (590, 2.93664305142032511231e-01) (591, 1.77059519978776835902e-01) (592, 1.28790027733357437256e+00) (593, 6.21966038391543296626e-01) (594, -4.12048195439730091660e-02) (595, 1.01138845531168075631e+00) (596, 7.81117433272242700504e-01) (597, -1.28784074135055970345e+00) (598, 1.81367528816634926425e-01) (599, -5.96672027105620617071e-01) (600, -6.40229789976637930771e-01) (0, -1.01578192674538136941e+00) (1, -3.60278898079229525919e-01) (2, -9.59653347752907559531e-01) (3, -2.01679640131070181397e+00) (4, -1.36130199891050951422e+00) (5, -1.64032092298021159316e+00) (6, -1.28588316701100890960e+00) (7, 1.31738904532720746410e-01) (8, -1.30304002770375570996e-01) (9, -1.01522634109847231798e+00) (10, -1.30271981349450549637e+00) (11, -1.35003332757450977830e+00) (12, -1.39593003851776109592e+00) (13, -6.46654995460833159626e-01) (14, -1.29870610903087624344e+00) (15, -1.11847486955825980992e+00) (16, 1.98449718701557531464e-01) (17, 1.26045283805448837811e+00) (18, -3.36160107136260377647e-01) (19, 1.83418736051537495380e-01) (20, -1.89784041841898543090e+00) (21, -1.94086467973329290793e+00) (22, -5.78135012387161473235e-01) (23, 1.21598746052861117484e+00) (24, -1.08927985449350761549e+00) (25, -1.70159114405349171095e-01) (26, -5.95711877284527346887e-01) (27, -1.98680746851827905175e+00) (28, -9.62030141189490706211e-01) (29, -1.37968406959438394388e+00) (30, -7.86103116997653339482e-01) (31, 3.34122263259952922976e-01) (32, -1.43682804854978612985e-01) (33, -9.97339554119029636503e-01) (34, -1.77015455797963117135e+00) (35, -7.40997446076783972124e-01) (36, -1.61735021921923638466e+00) (37, -1.29452688610260646662e+00) (38, -5.51767509424143876018e-01) (39, -1.16614125773137100595e+00) (40, -3.00689162838282467161e-02) (41, 9.50686240642103719267e-01) (42, -4.35157522199677959662e-01) (43, 2.43727059274301549596e-01) (44, -2.23137953523975518522e+00) (45, -2.11153665508127552641e+00) (46, -7.18528328754284628666e-01) (47, 1.25404924969708542193e+00) (48, -1.32995952334355238555e+00) (49, -4.43566223609366927505e-01) (50, 4.40987326112172284276e-01) (51, -2.05631958018637694963e+00) (52, -5.82525932723106709687e-01) (53, -1.53105776055749243092e+00) (54, -1.60051527925925052287e+00) (55, 9.36984307659040616123e-01) (56, 1.57619907746614523747e-01) (57, -1.09197045416599602952e+00) (58, -1.76126046844936268165e+00) (59, -5.23330313843928807138e-01) (60, -1.78385045688363752525e+00) (61, -1.64531212217469979819e+00) (62, -9.20806634215920016828e-01) (63, -7.40147931782404455703e-01) (64, 4.07812260168856910436e-02) (65, 3.25665828948951893707e-02) (66, -1.03026536710531169128e+00) (67, 1.61224295858356847511e-01) (68, -1.71407101504838199624e+00) (69, -1.94609855877945858715e+00) (70, -7.56106154254548634697e-01) (71, 1.17297696776648274763e+00) (72, -1.88229215340947120261e+00) (73, -2.50982507634464752089e-02) (74, 6.23429865136348904109e-01) (75, -1.73753098547328965751e+00) (76, -4.22818026749566699962e-01) (77, -1.47320478482474404025e+00) (78, -1.02595378427220729201e+00) (79, 1.20753431731181093411e+00) (80, 9.37312179602321909888e-02) (81, -2.04543840494499917781e+00) (82, -2.40517606360523972242e+00) (83, -1.42821413168465360943e-01) (84, -2.53692382740695832055e+00) (85, -1.12366295018342343681e+00) (86, -1.89949843521052458284e-01) (87, -1.14948692329524004840e+00) (88, 1.29569535114776368534e-01) (89, -1.46189758084118992532e-01) (90, -4.10953495598650242471e-01) (91, -1.95900786155084535856e-02) (92, -2.16305470452532100367e+00) (93, -1.74962567903361376764e+00) (94, -6.29174452526980565459e-01) (95, 1.38065951986707191601e+00) (96, -2.00985499167472125848e+00) (97, -2.66797145935893875723e-01) (98, 6.81442022219012732975e-01) (99, -1.42183133497984193205e+00) (100, -1.13196488997450428471e+00) (101, -7.28824514504820886174e-01) (102, -1.51657093231768835828e+00) (103, 1.58478085786268607649e+00) (104, 1.95190880737925065436e-01) (105, -1.39125475380766627786e+00) (106, -2.37678936008697361260e+00) (107, 3.19292755151979745776e-01) (108, -2.47589147356804240019e+00) (109, -1.15673543999453465325e+00) (110, -1.44085511095131596493e-01) (111, -1.27537640412478636698e+00) (112, 3.67448007739756138390e-02) (113, 8.66721482705615081654e-02) (114, -6.78507957820742246824e-01) (115, 4.13775165304032910285e-01) (116, -2.42943609939696436584e+00) (117, -1.43054386231931385254e+00) (118, -7.98876121243777492786e-01) (119, 1.30407317497936192652e+00) (120, -2.62000853998579730231e+00) (121, 8.19038912468238317066e-02) (122, 1.23282396026290277935e-01) (123, -1.51545492261562753100e+00) (124, -1.18333696775132635182e+00) (125, -1.46533622013101250126e+00) (126, -1.35609019841511591054e+00) (127, 1.74043747430031636725e+00) (128, 1.60016164384478276617e+00) (129, -8.90205852944692233031e-01) (130, -2.72768233022636419349e+00) (131, 2.36859913080296607957e-01) (132, -3.54721118732271634144e+00) (133, -1.03159710480087585260e+00) (134, 1.14054967484891467411e-01) (135, -1.65652339840178353114e+00) (136, 1.28413729113200834019e-03) (137, 1.53000087785061078538e-01) (138, -1.17791667308222103294e-01) (139, 7.20029841856216656915e-01) (140, -2.18496747404176616669e+00) (141, -1.50889194406722615405e+00) (142, -7.87304046150379521762e-01) (143, 1.36617823412972194674e+00) (144, -2.78320167006633401030e+00) (145, -4.25465010827952516692e-01) (146, -7.73877695494051054403e-01) (147, -2.61661421110173586513e+00) (148, -2.82849254577369757513e-01) (149, -2.66684864063029136716e+00) (150, -2.45165013638981044153e+00) (151, 1.13786872805192507130e+00) (152, 1.34973888333348696067e-01) (153, -5.44998062391823689943e-01) (154, -2.14865040069581114679e+00) (155, -4.65882590733608992206e-01) (156, -2.95302315806372384088e+00) (157, -6.08193033891338385999e-01) (158, -4.47627259956226541959e-01) (159, -1.53936423002220768019e+00) (160, 2.69563952881674950834e-01) (161, 3.44010650437050924388e-01) (162, -2.23350731286800802122e-01) (163, 1.64514859704668037210e+00) (164, -2.44433962007334271149e+00) (165, -1.74749404682440512282e+00) (166, -8.73459781764054810083e-01) (167, 1.74570339215351100215e+00) (168, -4.20149604200242432483e+00) (169, -3.42614974712031339354e-01) (170, -1.26965265333799898206e-01) (171, -2.17807527000106704307e+00) (172, 6.19666015213784171500e-01) (173, -2.53929742476988895561e+00) (174, -1.92536413630748404202e+00) (175, 1.87728101949908576795e-01) (176, 4.30583633109813346262e-01) (177, -1.01260318265881177346e+00) (178, -3.20216284056185029883e+00) (179, -3.63720012171553988556e-02) (180, -3.67429646973279444566e+00) (181, -8.48881486395860473948e-01) (182, -4.78558348052245952076e-01) (183, -2.27425625895962468803e+00) (184, 1.04298357120084020377e-01) (185, 4.88689731868860166575e-01) (186, -3.48508712399272890803e-01) (187, 1.12415845352079846187e+00) (188, -1.95418478289203911835e+00) (189, -2.13457950881033520218e+00) (190, -7.71124098691920112358e-01) (191, 2.32386066198041607578e+00) (192, -4.54799556944222516108e+00) (193, -1.05595607364458765609e+00) (194, -3.28541541479759557909e-01) (195, -2.16444746404820698160e+00) (196, 8.50365131173506316742e-01) (197, -3.10389430513697517355e+00) (198, -1.73748904499941447810e+00) (199, 1.34812130861079837452e+00) (200, 8.27567562166571124571e-01) (201, -9.29875699387591847511e-01) (202, -3.05034262658517629774e+00) (203, -6.32008480427824204106e-02) (204, -3.06497666597738227523e+00) (205, -5.47890084826069712065e-01) (206, 9.67790354894662474550e-01) (207, -1.91937701224628209928e+00) (208, -2.36969617130976445418e-01) (209, -3.73690161458317016141e-01) (210, -7.16415550588667127130e-01) (211, 1.81026169147268922721e+00) (212, -4.09854906556964859732e+00) (213, -2.14321416391699104409e+00) (214, -9.76702371138723046684e-01) (215, 2.98842659754163886277e+00) (216, -6.33633141116727927056e+00) (217, -7.28986576863364876822e-01) (218, -2.73350269948577584422e-01) (219, -3.04253674680808261499e+00) (220, 8.90927036914497483266e-01) (221, -3.16748683221702220791e+00) (222, -1.85788054538121194526e+00) (223, 4.39907372587316114476e+00) (224, 8.70965895199578565844e-01) (225, -7.01245237702873502883e-01) (226, -4.00439365653532952649e+00) (227, 4.22275840355558540473e-01) (228, -4.20965040925245759240e+00) (229, -5.49002638062570103017e-01) (230, 4.13720946993856253382e-01) (231, -2.72323406856301097889e+00) (232, 2.10187548984116207018e-01) (233, -7.68422721527111662887e-01) (234, -8.47467503792266430018e-01) (235, 2.81909708469313491364e+00) (236, -3.89310208791471579204e+00) (237, -1.80557800403350365848e+00) (238, -1.05244817657972355995e+00) (239, 3.40949529666186412769e+00) (240, -9.67795764848966122429e+00) (241, -1.37682439789115607098e+00) (242, 1.42093124884174271116e+00) (243, -3.19425231388887675976e+00) (244, 1.23091336936266082525e+00) (245, -3.15819599379526838590e+00) (246, -2.93092798017384037479e+00) (247, 8.74191311631882328470e+00) (248, 1.39876700538473386359e+00) (249, -7.60215122127187670209e-01) (250, -5.54139541250837019959e+00) (251, -7.76928752875616690510e-01) (252, -4.88928322580888252702e+00) (253, -3.71666913209690308317e-01) (254, -3.78656447100287729679e-01) (255, -3.05669122404579374219e+00) (256, 1.79665263814687148347e+00) (257, -1.18443613861217555971e+00) (258, -6.74884638461356600736e-01) (259, 3.80783994430990668789e+00) (260, -1.71326461916316707956e+00) (261, -1.68560297440554007764e+00) (262, -1.00418078968001434070e+00) (263, 2.76431119695478644260e+00) (264, -1.24226212892250273967e+01) (265, -3.06796718221267328275e+00) (266, 1.07474936796342013245e+00) (267, -4.88785360388055600822e+00) (268, 3.02370865285756895702e+00) (269, -4.75630841669569992547e+00) (270, -6.75272646446652213825e+00) (271, 9.67511251312028974780e+00) (272, 2.95657274145907422724e-01) (273, -4.60979251730224137695e-02) (274, -6.40236820969806963433e+00) (275, -1.63984909309120419074e+00) (276, 