FANN_FLO_2.1
num_layers=3
learning_rate=0.010000
connection_rate=1.000000
network_type=0
learning_momentum=0.100000
training_algorithm=0
train_error_function=1
train_stop_function=0
cascade_output_change_fraction=0.010000
quickprop_decay=-0.000100
quickprop_mu=1.750000
rprop_increase_factor=1.200000
rprop_decrease_factor=0.500000
rprop_delta_min=0.000000
rprop_delta_max=50.000000
rprop_delta_zero=0.100000
cascade_output_stagnation_epochs=12
cascade_candidate_change_fraction=0.010000
cascade_candidate_stagnation_epochs=12
cascade_max_out_epochs=150
cascade_max_cand_epochs=150
cascade_num_candidate_groups=2
bit_fail_limit=3.49999999999999977796e-01
cascade_candidate_limit=1.00000000000000000000e+03
cascade_weight_multiplier=4.00000000000000022204e-01
cascade_activation_functions_count=10
cascade_activation_functions=3 5 7 8 10 11 14 15 16 17 
cascade_activation_steepnesses_count=4
cascade_activation_steepnesses=2.50000000000000000000e-01 5.00000000000000000000e-01 7.50000000000000000000e-01 1.00000000000000000000e+00 
layer_sizes=649 61 4 
scale_included=0
neurons (num_inputs, activation_function, activation_steepness)=(0, 0, 0.00000000000000000000e+00) (0, 0, 0.00000000000000000000e+00) (0, 0, 0.00000000000000000000e+00) (0, 0, 0.00000000000000000000e+00) (0, 0, 0.00000000000000000000e+00) (0, 0, 0.00000000000000000000e+00) (0, 0, 0.00000000000000000000e+00) (0, 0, 0.00000000000000000000e+00) (0, 0, 0.00000000000000000000e+00) (0, 0, 0.00000000000000000000e+00) (0, 0, 0.00000000000000000000e+00) (0, 0, 0.00000000000000000000e+00) (0, 0, 0.00000000000000000000e+00) (0, 0, 0.00000000000000000000e+00) (0, 0, 0.00000000000000000000e+00) (0, 0, 0.00000000000000000000e+00) (0, 0, 0.00000000000000000000e+00) (0, 0, 0.00000000000000000000e+00) (0, 0, 0.00000000000000000000e+00) (0, 0, 0.00000000000000000000e+00) (0, 0, 0.00000000000000000000e+00) (0, 0, 0.00000000000000000000e+00) (0, 0, 0.00000000000000000000e+00) (0, 0, 0.00000000000000000000e+00) (0, 0, 0.00000000000000000000e+00) (0, 0, 0.00000000000000000000e+00) (0, 0, 0.00000000000000000000e+00) (0, 0, 0.00000000000000000000e+00) (0, 0, 0.00000000000000000000e+00) (0, 0, 0.00000000000000000000e+00) (0, 0, 0.00000000000000000000e+00) (0, 0, 0.00000000000000000000e+00) (0, 0, 0.00000000000000000000e+00) (0, 0, 0.00000000000000000000e+00) (0, 0, 0.00000000000000000000e+00) (0, 0, 0.00000000000000000000e+00) (0, 0, 0.00000000000000000000e+00) (0, 0, 0.00000000000000000000e+00) (0, 0, 0.00000000000000000000e+00) (0, 0, 0.00000000000000000000e+00) (0, 0, 0.00000000000000000000e+00) (0, 0, 0.00000000000000000000e+00) (0, 0, 0.00000000000000000000e+00) (0, 0, 0.00000000000000000000e+00) (0, 0, 0.00000000000000000000e+00) (0, 0, 0.00000000000000000000e+00) (0, 0, 0.00000000000000000000e+00) (0, 0, 0.00000000000000000000e+00) (0, 0, 0.00000000000000000000e+00) (0, 0, 0.00000000000000000000e+00) (0, 0, 0.00000000000000000000e+00) (0, 0, 0.00000000000000000000e+00) (0, 0, 0.00000000000000000000e+00) (0, 0, 0.00000000000000000000e+00) (0, 0, 0.00000000000000000000e+00) (0, 0, 0.00000000000000000000e+00) (0, 0, 0.00000000000000000000e+00) (0, 0, 0.00000000000000000000e+00) (0, 0, 0.00000000000000000000e+00) (0, 0, 0.00000000000000000000e+00) (0, 0, 0.00000000000000000000e+00) (0, 0, 0.00000000000000000000e+00) (0, 0, 0.00000000000000000000e+00) (0, 0, 0.00000000000000000000e+00) (0, 0, 0.00000000000000000000e+00) (0, 0, 0.00000000000000000000e+00) (0, 0, 0.00000000000000000000e+00) (0, 0, 0.00000000000000000000e+00) (0, 0, 0.00000000000000000000e+00) (0, 0, 0.00000000000000000000e+00) (0, 0, 0.00000000000000000000e+00) (0, 0, 0.00000000000000000000e+00) (0, 0, 0.00000000000000000000e+00) (0, 0, 0.00000000000000000000e+00) (0, 0, 0.00000000000000000000e+00) (0, 0, 0.00000000000000000000e+00) (0, 0, 0.00000000000000000000e+00) (0, 0, 0.00000000000000000000e+00) (0, 0, 0.00000000000000000000e+00) (0, 0, 0.00000000000000000000e+00) (0, 0, 0.00000000000000000000e+00) (0, 0, 0.00000000000000000000e+00) (0, 0, 0.00000000000000000000e+00) (0, 0, 0.00000000000000000000e+00) (0, 0, 0.00000000000000000000e+00) (0, 0, 0.00000000000000000000e+00) (0, 0, 0.00000000000000000000e+00) (0, 0, 0.00000000000000000000e+00) (0, 0, 0.00000000000000000000e+00) (0, 0, 0.00000000000000000000e+00) (0, 0, 0.00000000000000000000e+00) (0, 0, 0.00000000000000000000e+00) (0, 0, 0.00000000000000000000e+00) (0, 0, 0.00000000000000000000e+00) (0, 0, 0.00000000000000000000e+00) (0, 0, 0.00000000000000000000e+00) (0, 0, 0.00000000000000000000e+00) (0, 0, 0.00000000000000000000e+00) (0, 0, 0.00000000000000000000e+00) (0, 0, 0.00000000000000000000e+00) (0, 0, 0.00000000000000000000e+00) (0, 0, 0.00000000000000000000e+00) (0, 0, 0.00000000000000000000e+00) (0, 0, 0.00000000000000000000e+00) (0, 0, 0.00000000000000000000e+00) (0, 0, 0.00000000000000000000e+00) (0, 0, 0.00000000000000000000e+00) (0, 0, 0.00000000000000000000e+00) (0, 0, 0.00000000000000000000e+00) (0, 0, 0.00000000000000000000e+00) (0, 0, 0.00000000000000000000e+00) (0, 0, 0.00000000000000000000e+00) (0, 0, 0.00000000000000000000e+00) (0, 0, 0.00000000000000000000e+00) (0, 0, 0.00000000000000000000e+00) (0, 0, 0.00000000000000000000e+00) (0, 0, 0.00000000000000000000e+00) (0, 0, 0.00000000000000000000e+00) (0, 0, 0.00000000000000000000e+00) (0, 0, 0.00000000000000000000e+00) (0, 0, 0.00000000000000000000e+00) (0, 0, 0.00000000000000000000e+00) (0, 0, 0.00000000000000000000e+00) (0, 0, 0.00000000000000000000e+00) (0, 0, 0.00000000000000000000e+00) (0, 0, 0.00000000000000000000e+00) (0, 0, 0.00000000000000000000e+00) (0, 0, 0.00000000000000000000e+00) (0, 0, 0.00000000000000000000e+00) (0, 0, 0.00000000000000000000e+00) (0, 0, 0.00000000000000000000e+00) (0, 0, 0.00000000000000000000e+00) (0, 0, 0.00000000000000000000e+00) (0, 0, 0.00000000000000000000e+00) (0, 0, 0.00000000000000000000e+00) (0, 0, 0.00000000000000000000e+00) (0, 0, 0.00000000000000000000e+00) (0, 0, 0.00000000000000000000e+00) (0, 0, 0.00000000000000000000e+00) (0, 0, 0.00000000000000000000e+00) (0, 0, 0.00000000000000000000e+00) (0, 0, 0.00000000000000000000e+00) (0, 0, 0.00000000000000000000e+00) (0, 0, 0.00000000000000000000e+00) (0, 0, 0.00000000000000000000e+00) (0, 0, 0.00000000000000000000e+00) (0, 0, 0.00000000000000000000e+00) (0, 0, 0.00000000000000000000e+00) (0, 0, 0.00000000000000000000e+00) (0, 0, 0.00000000000000000000e+00) (0, 0, 0.00000000000000000000e+00) (0, 0, 0.00000000000000000000e+00) (0, 0, 0.00000000000000000000e+00) (0, 0, 0.00000000000000000000e+00) (0, 0, 0.00000000000000000000e+00) (0, 0, 0.00000000000000000000e+00) (0, 0, 0.00000000000000000000e+00) (0, 0, 0.00000000000000000000e+00) (0, 0, 0.00000000000000000000e+00) (0, 0, 0.00000000000000000000e+00) (0, 0, 0.00000000000000000000e+00) (0, 0, 0.00000000000000000000e+00) (0, 0, 0.00000000000000000000e+00) (0, 0, 0.00000000000000000000e+00) (0, 0, 0.00000000000000000000e+00) (0, 0, 0.00000000000000000000e+00) (0, 0, 0.00000000000000000000e+00) (0, 0, 0.00000000000000000000e+00) (0, 0, 0.00000000000000000000e+00) (0, 0, 0.00000000000000000000e+00) (0, 0, 0.00000000000000000000e+00) (0, 0, 0.00000000000000000000e+00) (0, 0, 0.00000000000000000000e+00) (0, 0, 0.00000000000000000000e+00) (0, 0, 0.00000000000000000000e+00) (0, 0, 0.00000000000000000000e+00) (0, 0, 0.00000000000000000000e+00) (0, 0, 0.00000000000000000000e+00) (0, 0, 0.00000000000000000000e+00) (0, 0, 0.00000000000000000000e+00) (0, 0, 0.00000000000000000000e+00) (0, 0, 0.00000000000000000000e+00) (0, 0, 0.00000000000000000000e+00) (0, 0, 0.00000000000000000000e+00) (0, 0, 0.00000000000000000000e+00) (0, 0, 0.00000000000000000000e+00) (0, 0, 0.00000000000000000000e+00) (0, 0, 0.00000000000000000000e+00) (0, 0, 0.00000000000000000000e+00) (0, 0, 0.00000000000000000000e+00) (0, 0, 0.00000000000000000000e+00) (0, 0, 0.00000000000000000000e+00) (0, 0, 0.00000000000000000000e+00) (0, 0, 0.00000000000000000000e+00) (0, 0, 0.00000000000000000000e+00) (0, 0, 0.00000000000000000000e+00) (0, 0, 0.00000000000000000000e+00) (0, 0, 0.00000000000000000000e+00) (0, 0, 0.00000000000000000000e+00) (0, 0, 0.00000000000000000000e+00) (0, 0, 0.00000000000000000000e+00) (0, 0, 0.00000000000000000000e+00) (0, 0, 0.00000000000000000000e+00) (0, 0, 0.00000000000000000000e+00) (0, 0, 0.00000000000000000000e+00) (0, 0, 0.00000000000000000000e+00) (0, 0, 0.00000000000000000000e+00) (0, 0, 0.00000000000000000000e+00) (0, 0, 0.00000000000000000000e+00) (0, 0, 0.00000000000000000000e+00) (0, 0, 0.00000000000000000000e+00) (0, 0, 0.00000000000000000000e+00) (0, 0, 0.00000000000000000000e+00) (0, 0, 0.00000000000000000000e+00) (0, 0, 0.00000000000000000000e+00) (0, 0, 0.00000000000000000000e+00) (0, 0, 0.00000000000000000000e+00) (0, 0, 0.00000000000000000000e+00) (0, 0, 0.00000000000000000000e+00) (0, 0, 0.00000000000000000000e+00) (0, 0, 0.00000000000000000000e+00) (0, 0, 0.00000000000000000000e+00) (0, 0, 0.00000000000000000000e+00) (0, 0, 0.00000000000000000000e+00) (0, 0, 0.00000000000000000000e+00) (0, 0, 0.00000000000000000000e+00) (0, 0, 0.00000000000000000000e+00) (0, 0, 0.00000000000000000000e+00) (0, 0, 0.00000000000000000000e+00) (0, 0, 0.00000000000000000000e+00) (0, 0, 0.00000000000000000000e+00) (0, 0, 0.00000000000000000000e+00) (0, 0, 0.00000000000000000000e+00) (0, 0, 0.00000000000000000000e+00) (0, 0, 0.00000000000000000000e+00) (0, 0, 0.00000000000000000000e+00) (0, 0, 0.00000000000000000000e+00) (0, 0, 0.00000000000000000000e+00) (0, 0, 0.00000000000000000000e+00) (0, 0, 0.00000000000000000000e+00) (0, 0, 0.00000000000000000000e+00) (0, 0, 0.00000000000000000000e+00) (0, 0, 0.00000000000000000000e+00) (0, 0, 0.00000000000000000000e+00) (0, 0, 0.00000000000000000000e+00) (0, 0, 0.00000000000000000000e+00) (0, 0, 0.00000000000000000000e+00) (0, 0, 0.00000000000000000000e+00) (0, 0, 0.00000000000000000000e+00) (0, 0, 0.00000000000000000000e+00) (0, 0, 0.00000000000000000000e+00) (0, 0, 0.00000000000000000000e+00) (0, 0, 0.00000000000000000000e+00) (0, 0, 0.00000000000000000000e+00) (0, 0, 0.00000000000000000000e+00) (0, 0, 0.00000000000000000000e+00) (0, 0, 0.00000000000000000000e+00) (0, 0, 0.00000000000000000000e+00) (0, 0, 0.00000000000000000000e+00) (0, 0, 0.00000000000000000000e+00) (0, 0, 0.00000000000000000000e+00) (0, 0, 0.00000000000000000000e+00) (0, 0, 0.00000000000000000000e+00) (0, 0, 0.00000000000000000000e+00) (0, 0, 0.00000000000000000000e+00) (0, 0, 0.00000000000000000000e+00) (0, 0, 0.00000000000000000000e+00) (0, 0, 0.00000000000000000000e+00) (0, 0, 0.00000000000000000000e+00) (0, 0, 0.00000000000000000000e+00) (0, 0, 0.00000000000000000000e+00) (0, 0, 0.00000000000000000000e+00) (0, 0, 0.00000000000000000000e+00) (0, 0, 0.00000000000000000000e+00) (0, 0, 0.00000000000000000000e+00) (0, 0, 0.00000000000000000000e+00) (0, 0, 0.00000000000000000000e+00) (0, 0, 0.00000000000000000000e+00) (0, 0, 0.00000000000000000000e+00) (0, 0, 0.00000000000000000000e+00) (0, 0, 0.00000000000000000000e+00) (0, 0, 0.00000000000000000000e+00) (0, 0, 0.00000000000000000000e+00) (0, 0, 0.00000000000000000000e+00) (0, 0, 0.00000000000000000000e+00) (0, 0, 0.00000000000000000000e+00) (0, 0, 0.00000000000000000000e+00) (0, 0, 0.00000000000000000000e+00) (0, 0, 0.00000000000000000000e+00) (0, 0, 0.00000000000000000000e+00) (0, 0, 0.00000000000000000000e+00) (0, 0, 0.00000000000000000000e+00) (0, 0, 0.00000000000000000000e+00) (0, 0, 0.00000000000000000000e+00) (0, 0, 0.00000000000000000000e+00) (0, 0, 0.00000000000000000000e+00) (0, 0, 0.00000000000000000000e+00) (0, 0, 0.00000000000000000000e+00) (0, 0, 0.00000000000000000000e+00) (0, 0, 0.00000000000000000000e+00) (0, 0, 0.00000000000000000000e+00) (0, 0, 0.00000000000000000000e+00) (0, 0, 0.00000000000000000000e+00) (0, 0, 0.00000000000000000000e+00) (0, 0, 0.00000000000000000000e+00) (0, 0, 0.00000000000000000000e+00) (0, 0, 0.00000000000000000000e+00) (0, 0, 0.00000000000000000000e+00) (0, 0, 0.00000000000000000000e+00) (0, 0, 0.00000000000000000000e+00) (0, 0, 0.00000000000000000000e+00) (0, 0, 0.00000000000000000000e+00) (0, 0, 0.00000000000000000000e+00) (0, 0, 0.00000000000000000000e+00) (0, 0, 0.00000000000000000000e+00) (0, 0, 0.00000000000000000000e+00) (0, 0, 0.00000000000000000000e+00) (0, 0, 0.00000000000000000000e+00) (0, 0, 0.00000000000000000000e+00) (0, 0, 0.00000000000000000000e+00) (0, 0, 0.00000000000000000000e+00) (0, 0, 0.00000000000000000000e+00) (0, 0, 0.00000000000000000000e+00) (0, 0, 0.00000000000000000000e+00) (0, 0, 0.00000000000000000000e+00) (0, 0, 0.00000000000000000000e+00) (0, 0, 0.00000000000000000000e+00) (0, 0, 0.00000000000000000000e+00) (0, 0, 0.00000000000000000000e+00) (0, 0, 0.00000000000000000000e+00) (0, 0, 0.00000000000000000000e+00) (0, 0, 0.00000000000000000000e+00) (0, 0, 0.00000000000000000000e+00) (0, 0, 0.00000000000000000000e+00) (0, 0, 0.00000000000000000000e+00) (0, 0, 0.00000000000000000000e+00) (0, 0, 0.00000000000000000000e+00) (0, 0, 0.00000000000000000000e+00) (0, 0, 0.00000000000000000000e+00) (0, 0, 0.00000000000000000000e+00) (0, 0, 0.00000000000000000000e+00) (0, 0, 0.00000000000000000000e+00) (0, 0, 0.00000000000000000000e+00) (0, 0, 0.00000000000000000000e+00) (0, 0, 0.00000000000000000000e+00) (0, 0, 0.00000000000000000000e+00) (0, 0, 0.00000000000000000000e+00) (0, 0, 0.00000000000000000000e+00) (0, 0, 0.00000000000000000000e+00) (0, 0, 0.00000000000000000000e+00) (0, 0, 0.00000000000000000000e+00) (0, 0, 0.00000000000000000000e+00) (0, 0, 0.00000000000000000000e+00) (0, 0, 0.00000000000000000000e+00) (0, 0, 0.00000000000000000000e+00) (0, 0, 0.00000000000000000000e+00) (0, 0, 0.00000000000000000000e+00) (0, 0, 0.00000000000000000000e+00) (0, 0, 0.00000000000000000000e+00) (0, 0, 0.00000000000000000000e+00) (0, 0, 0.00000000000000000000e+00) (0, 0, 0.00000000000000000000e+00) (0, 0, 0.00000000000000000000e+00) (0, 0, 0.00000000000000000000e+00) (0, 0, 0.00000000000000000000e+00) (0, 0, 0.00000000000000000000e+00) (0, 0, 0.00000000000000000000e+00) (0, 0, 0.00000000000000000000e+00) (0, 0, 0.00000000000000000000e+00) (0, 0, 0.00000000000000000000e+00) (0, 0, 0.00000000000000000000e+00) (0, 0, 0.00000000000000000000e+00) (0, 0, 0.00000000000000000000e+00) (0, 0, 0.00000000000000000000e+00) (0, 0, 0.00000000000000000000e+00) (0, 0, 0.00000000000000000000e+00) (0, 0, 0.00000000000000000000e+00) (0, 0, 0.00000000000000000000e+00) (0, 0, 0.00000000000000000000e+00) (0, 0, 0.00000000000000000000e+00) (0, 0, 0.00000000000000000000e+00) (0, 0, 0.00000000000000000000e+00) (0, 0, 0.00000000000000000000e+00) (0, 0, 0.00000000000000000000e+00) (0, 0, 0.00000000000000000000e+00) (0, 0, 0.00000000000000000000e+00) (0, 0, 0.00000000000000000000e+00) (0, 0, 0.00000000000000000000e+00) (0, 0, 0.00000000000000000000e+00) (0, 0, 0.00000000000000000000e+00) (0, 0, 0.00000000000000000000e+00) (0, 0, 0.00000000000000000000e+00) (0, 0, 0.00000000000000000000e+00) (0, 0, 0.00000000000000000000e+00) (0, 0, 0.00000000000000000000e+00) (0, 0, 0.00000000000000000000e+00) (0, 0, 0.00000000000000000000e+00) (0, 0, 0.00000000000000000000e+00) (0, 0, 0.00000000000000000000e+00) (0, 0, 0.00000000000000000000e+00) (0, 0, 0.00000000000000000000e+00) (0, 0, 0.00000000000000000000e+00) (0, 0, 0.00000000000000000000e+00) (0, 0, 0.00000000000000000000e+00) (0, 0, 0.00000000000000000000e+00) (0, 0, 0.00000000000000000000e+00) (0, 0, 0.00000000000000000000e+00) (0, 0, 0.00000000000000000000e+00) (0, 0, 0.00000000000000000000e+00) (0, 0, 0.00000000000000000000e+00) (0, 0, 0.00000000000000000000e+00) (0, 0, 0.00000000000000000000e+00) (0, 0, 0.00000000000000000000e+00) (0, 0, 0.00000000000000000000e+00) (0, 0, 0.00000000000000000000e+00) (0, 0, 0.00000000000000000000e+00) (0, 0, 0.00000000000000000000e+00) (0, 0, 0.00000000000000000000e+00) (0, 0, 0.00000000000000000000e+00) (0, 0, 0.00000000000000000000e+00) (0, 0, 0.00000000000000000000e+00) (0, 0, 0.00000000000000000000e+00) (0, 0, 0.00000000000000000000e+00) (0, 0, 0.00000000000000000000e+00) (0, 0, 0.00000000000000000000e+00) (0, 0, 0.00000000000000000000e+00) (0, 0, 0.00000000000000000000e+00) (0, 0, 0.00000000000000000000e+00) (0, 0, 0.00000000000000000000e+00) (0, 0, 0.00000000000000000000e+00) (0, 0, 0.00000000000000000000e+00) (0, 0, 0.00000000000000000000e+00) (0, 0, 0.00000000000000000000e+00) (0, 0, 0.00000000000000000000e+00) (0, 0, 0.00000000000000000000e+00) (0, 0, 0.00000000000000000000e+00) (0, 0, 0.00000000000000000000e+00) (0, 0, 0.00000000000000000000e+00) (0, 0, 0.00000000000000000000e+00) (0, 0, 0.00000000000000000000e+00) (0, 0, 0.00000000000000000000e+00) (0, 0, 0.00000000000000000000e+00) (0, 0, 0.00000000000000000000e+00) (0, 0, 0.00000000000000000000e+00) (0, 0, 0.00000000000000000000e+00) (0, 0, 0.00000000000000000000e+00) (0, 0, 0.00000000000000000000e+00) (0, 0, 0.00000000000000000000e+00) (0, 0, 0.00000000000000000000e+00) (0, 0, 0.00000000000000000000e+00) (0, 0, 0.00000000000000000000e+00) (0, 0, 0.00000000000000000000e+00) (0, 0, 0.00000000000000000000e+00) (0, 0, 0.00000000000000000000e+00) (0, 0, 0.00000000000000000000e+00) (0, 0, 0.00000000000000000000e+00) (0, 0, 0.00000000000000000000e+00) (0, 0, 0.00000000000000000000e+00) (0, 0, 0.00000000000000000000e+00) (0, 0, 0.00000000000000000000e+00) (0, 0, 0.00000000000000000000e+00) (0, 0, 0.00000000000000000000e+00) (0, 0, 0.00000000000000000000e+00) (0, 0, 0.00000000000000000000e+00) (0, 0, 0.00000000000000000000e+00) (0, 0, 0.00000000000000000000e+00) (0, 0, 0.00000000000000000000e+00) (0, 0, 0.00000000000000000000e+00) (0, 0, 0.00000000000000000000e+00) (0, 0, 0.00000000000000000000e+00) (0, 0, 0.00000000000000000000e+00) (0, 0, 0.00000000000000000000e+00) (0, 0, 0.00000000000000000000e+00) (0, 0, 0.00000000000000000000e+00) (0, 0, 0.00000000000000000000e+00) (0, 0, 0.00000000000000000000e+00) (0, 0, 0.00000000000000000000e+00) (0, 0, 0.00000000000000000000e+00) (0, 0, 0.00000000000000000000e+00) (0, 0, 0.00000000000000000000e+00) (0, 0, 0.00000000000000000000e+00) (0, 0, 0.00000000000000000000e+00) (0, 0, 0.00000000000000000000e+00) (0, 0, 0.00000000000000000000e+00) (0, 0, 0.00000000000000000000e+00) (0, 0, 0.00000000000000000000e+00) (0, 0, 0.00000000000000000000e+00) (0, 0, 0.00000000000000000000e+00) (0, 0, 0.00000000000000000000e+00) (0, 0, 0.00000000000000000000e+00) (0, 0, 0.00000000000000000000e+00) (0, 0, 0.00000000000000000000e+00) (0, 0, 0.00000000000000000000e+00) (0, 0, 0.00000000000000000000e+00) (0, 0, 0.00000000000000000000e+00) (0, 0, 0.00000000000000000000e+00) (0, 0, 0.00000000000000000000e+00) (0, 0, 0.00000000000000000000e+00) (0, 0, 0.00000000000000000000e+00) (0, 0, 0.00000000000000000000e+00) (0, 0, 0.00000000000000000000e+00) (0, 0, 0.00000000000000000000e+00) (0, 0, 0.00000000000000000000e+00) (0, 0, 0.00000000000000000000e+00) (0, 0, 0.00000000000000000000e+00) (0, 0, 0.00000000000000000000e+00) (0, 0, 0.00000000000000000000e+00) (0, 0, 0.00000000000000000000e+00) (0, 0, 0.00000000000000000000e+00) (0, 0, 0.00000000000000000000e+00) (0, 0, 0.00000000000000000000e+00) (0, 0, 0.00000000000000000000e+00) (0, 0, 0.00000000000000000000e+00) (0, 0, 0.00000000000000000000e+00) (0, 0, 0.00000000000000000000e+00) (0, 0, 0.00000000000000000000e+00) (0, 0, 0.00000000000000000000e+00) (0, 0, 0.00000000000000000000e+00) (0, 0, 0.00000000000000000000e+00) (0, 0, 0.00000000000000000000e+00) (0, 0, 0.00000000000000000000e+00) (0, 0, 0.00000000000000000000e+00) (0, 0, 0.00000000000000000000e+00) (0, 0, 0.00000000000000000000e+00) (0, 0, 0.00000000000000000000e+00) (0, 0, 0.00000000000000000000e+00) (0, 0, 0.00000000000000000000e+00) (0, 0, 0.00000000000000000000e+00) (0, 0, 0.00000000000000000000e+00) (0, 0, 0.00000000000000000000e+00) (0, 0, 0.00000000000000000000e+00) (0, 0, 0.00000000000000000000e+00) (0, 0, 0.00000000000000000000e+00) (0, 0, 0.00000000000000000000e+00) (0, 0, 0.00000000000000000000e+00) (0, 0, 0.00000000000000000000e+00) (0, 0, 0.00000000000000000000e+00) (0, 0, 0.00000000000000000000e+00) (0, 0, 0.00000000000000000000e+00) (0, 0, 0.00000000000000000000e+00) (0, 0, 0.00000000000000000000e+00) (0, 0, 0.00000000000000000000e+00) (0, 0, 0.00000000000000000000e+00) (0, 0, 0.00000000000000000000e+00) (0, 0, 0.00000000000000000000e+00) (0, 0, 0.00000000000000000000e+00) (0, 0, 0.00000000000000000000e+00) (0, 0, 0.00000000000000000000e+00) (0, 0, 0.00000000000000000000e+00) (0, 0, 0.00000000000000000000e+00) (0, 0, 0.00000000000000000000e+00) (0, 0, 0.00000000000000000000e+00) (0, 0, 0.00000000000000000000e+00) (0, 0, 0.00000000000000000000e+00) (0, 0, 0.00000000000000000000e+00) (0, 0, 0.00000000000000000000e+00) (0, 0, 0.00000000000000000000e+00) (0, 0, 0.00000000000000000000e+00) (0, 0, 0.00000000000000000000e+00) (0, 0, 0.00000000000000000000e+00) (0, 0, 0.00000000000000000000e+00) (0, 0, 0.00000000000000000000e+00) (0, 0, 0.00000000000000000000e+00) (0, 0, 0.00000000000000000000e+00) (0, 0, 0.00000000000000000000e+00) (0, 0, 0.00000000000000000000e+00) (0, 0, 0.00000000000000000000e+00) (0, 0, 0.00000000000000000000e+00) (0, 0, 0.00000000000000000000e+00) (0, 0, 0.00000000000000000000e+00) (0, 0, 0.00000000000000000000e+00) (0, 0, 0.00000000000000000000e+00) (0, 0, 0.00000000000000000000e+00) (0, 0, 0.00000000000000000000e+00) (0, 0, 0.00000000000000000000e+00) (0, 0, 0.00000000000000000000e+00) (0, 0, 0.00000000000000000000e+00) (0, 0, 0.00000000000000000000e+00) (0, 0, 0.00000000000000000000e+00) (0, 0, 0.00000000000000000000e+00) (0, 0, 0.00000000000000000000e+00) (0, 0, 0.00000000000000000000e+00) (0, 0, 0.00000000000000000000e+00) (0, 0, 0.00000000000000000000e+00) (0, 0, 0.00000000000000000000e+00) (0, 0, 0.00000000000000000000e+00) (0, 0, 0.00000000000000000000e+00) (0, 0, 0.00000000000000000000e+00) (0, 0, 0.00000000000000000000e+00) (0, 0, 0.00000000000000000000e+00) (0, 0, 0.00000000000000000000e+00) (0, 0, 0.00000000000000000000e+00) (0, 0, 0.00000000000000000000e+00) (0, 0, 0.00000000000000000000e+00) (0, 0, 0.00000000000000000000e+00) (0, 0, 0.00000000000000000000e+00) (0, 0, 0.00000000000000000000e+00) (0, 0, 0.00000000000000000000e+00) (0, 0, 0.00000000000000000000e+00) (0, 0, 0.00000000000000000000e+00) (0, 0, 0.00000000000000000000e+00) (0, 0, 0.00000000000000000000e+00) (0, 0, 0.00000000000000000000e+00) (0, 0, 0.00000000000000000000e+00) (0, 0, 0.00000000000000000000e+00) (0, 0, 0.00000000000000000000e+00) (0, 0, 0.00000000000000000000e+00) (0, 0, 0.00000000000000000000e+00) (0, 0, 0.00000000000000000000e+00) (0, 0, 0.00000000000000000000e+00) (0, 0, 0.00000000000000000000e+00) (0, 0, 0.00000000000000000000e+00) (0, 0, 0.00000000000000000000e+00) (0, 0, 0.00000000000000000000e+00) (0, 0, 0.00000000000000000000e+00) (0, 0, 0.00000000000000000000e+00) (0, 0, 0.00000000000000000000e+00) (0, 0, 0.00000000000000000000e+00) (0, 0, 0.00000000000000000000e+00) (0, 0, 0.00000000000000000000e+00) (0, 0, 0.00000000000000000000e+00) (0, 0, 0.00000000000000000000e+00) (0, 0, 0.00000000000000000000e+00) (0, 0, 0.00000000000000000000e+00) (0, 0, 0.00000000000000000000e+00) (0, 0, 0.00000000000000000000e+00) (0, 0, 0.00000000000000000000e+00) (0, 0, 0.00000000000000000000e+00) (0, 0, 0.00000000000000000000e+00) (0, 0, 0.00000000000000000000e+00) (0, 0, 0.00000000000000000000e+00) (0, 0, 0.00000000000000000000e+00) (0, 0, 0.00000000000000000000e+00) (0, 0, 0.00000000000000000000e+00) (0, 0, 0.00000000000000000000e+00) (0, 0, 0.00000000000000000000e+00) (0, 0, 0.00000000000000000000e+00) (0, 0, 0.00000000000000000000e+00) (0, 0, 0.00000000000000000000e+00) (0, 0, 0.00000000000000000000e+00) (0, 0, 0.00000000000000000000e+00) (0, 0, 0.00000000000000000000e+00) (0, 0, 0.00000000000000000000e+00) (0, 0, 0.00000000000000000000e+00) (0, 0, 0.00000000000000000000e+00) (0, 0, 0.00000000000000000000e+00) (0, 0, 0.00000000000000000000e+00) (0, 0, 0.00000000000000000000e+00) (0, 0, 0.00000000000000000000e+00) (649, 3, 5.00000000000000000000e-01) (649, 3, 5.00000000000000000000e-01) (649, 3, 5.00000000000000000000e-01) (649, 3, 5.00000000000000000000e-01) (649, 3, 5.00000000000000000000e-01) (649, 3, 5.00000000000000000000e-01) (649, 3, 5.00000000000000000000e-01) (649, 3, 5.00000000000000000000e-01) (649, 3, 5.00000000000000000000e-01) (649, 3, 5.00000000000000000000e-01) (649, 3, 5.00000000000000000000e-01) (649, 3, 5.00000000000000000000e-01) (649, 3, 5.00000000000000000000e-01) (649, 3, 5.00000000000000000000e-01) (649, 3, 5.00000000000000000000e-01) (649, 3, 5.00000000000000000000e-01) (649, 3, 5.00000000000000000000e-01) (649, 3, 5.00000000000000000000e-01) (649, 3, 5.00000000000000000000e-01) (649, 3, 5.00000000000000000000e-01) (649, 3, 5.00000000000000000000e-01) (649, 3, 5.00000000000000000000e-01) (649, 3, 5.00000000000000000000e-01) (649, 3, 5.00000000000000000000e-01) (649, 3, 5.00000000000000000000e-01) (649, 3, 5.00000000000000000000e-01) (649, 3, 5.00000000000000000000e-01) (649, 3, 5.00000000000000000000e-01) (649, 3, 5.00000000000000000000e-01) (649, 3, 5.00000000000000000000e-01) (649, 3, 5.00000000000000000000e-01) (649, 3, 5.00000000000000000000e-01) (649, 3, 5.00000000000000000000e-01) (649, 3, 5.00000000000000000000e-01) (649, 3, 5.00000000000000000000e-01) (649, 3, 5.00000000000000000000e-01) (649, 3, 5.00000000000000000000e-01) (649, 3, 5.00000000000000000000e-01) (649, 3, 5.00000000000000000000e-01) (649, 3, 5.00000000000000000000e-01) (649, 3, 5.00000000000000000000e-01) (649, 3, 5.00000000000000000000e-01) (649, 3, 5.00000000000000000000e-01) (649, 3, 5.00000000000000000000e-01) (649, 3, 5.00000000000000000000e-01) (649, 3, 5.00000000000000000000e-01) (649, 3, 5.00000000000000000000e-01) (649, 3, 5.00000000000000000000e-01) (649, 3, 5.00000000000000000000e-01) (649, 3, 5.00000000000000000000e-01) (649, 3, 5.00000000000000000000e-01) (649, 3, 5.00000000000000000000e-01) (649, 3, 5.00000000000000000000e-01) (649, 3, 5.00000000000000000000e-01) (649, 3, 5.00000000000000000000e-01) (649, 3, 5.00000000000000000000e-01) (649, 3, 5.00000000000000000000e-01) (649, 3, 5.00000000000000000000e-01) (649, 3, 5.00000000000000000000e-01) (649, 3, 5.00000000000000000000e-01) (0, 3, 0.00000000000000000000e+00) (61, 3, 5.00000000000000000000e-01) (61, 3, 5.00000000000000000000e-01) (61, 3, 5.00000000000000000000e-01) (0, 3, 0.00000000000000000000e+00) 
connections (connected_to_neuron, weight)=(0, 1.80479446351836068929e-02) (1, 2.97202193228553457338e-01) (2, -1.98330576401488239968e-01) (3, -2.13035028523793773525e-01) (4, 3.20189400212562286230e-02) (5, 8.01326677275992771410e-02) (6, 1.31457683590460588929e-01) (7, 2.75839223340338501878e-01) (8, -1.02402892776538398389e-01) (9, 3.90591259965729908910e-02) (10, 8.39448653892776036622e-02) (11, -1.17751684841201756382e-01) (12, -1.00658513592339599052e-01) (13, -1.05367067654866544690e-01) (14, -1.51773757488288446593e-01) (15, -2.39965889340870458524e-01) (16, 8.95975796724780282343e-02) (17, -1.53437233953137835279e-02) (18, 9.58470272013877272466e-02) (19, -1.08635588985917602711e-01) (20, 2.16562360671757908603e-01) (21, -1.31880009250543744903e-01) (22, 2.38026250009318769696e-02) (23, 9.74117905438603298718e-02) (24, 3.72177815227542063692e-01) (25, 2.54074395562961852235e-01) (26, -1.85361343248559462538e-01) (27, -1.84479184821145530959e-01) (28, -9.73448570782498717735e-03) (29, 1.05998934990830018243e-01) (30, 1.97134394683707685203e-02) (31, 1.85641654759631152816e-01) (32, -1.22540460956265390147e-02) (33, -2.86360243343006977412e-02) (34, 2.00102886827165066252e-01) (35, -1.64831303229695858015e-01) (36, -1.12678402363918864215e-01) (37, -1.01287218686403432399e-01) (38, -2.29982925623896550249e-01) (39, -1.35726556681316612440e-01) (40, -2.07962980237881484014e-01) (41, -7.03266742918597365097e-02) (42, -2.79113608349175409962e-02) (43, -2.52373616651089482943e-01) (44, 2.37106656592352665891e-01) (45, -5.50687249939754847050e-02) (46, 8.35764886553184982443e-02) (47, 2.98365695361891392068e-01) (48, 2.02549445923506987732e-01) (49, 8.73788686632665650977e-02) (50, -2.91564455099866046139e-02) (51, -3.56149905930495336293e-01) (52, 6.91524374572650979420e-02) (53, 2.82404307473419421970e-02) (54, 2.40809057351248440026e-01) (55, 1.36710598588334231174e-01) (56, -9.62686861249612522984e-03) (57, -7.30828210198721101021e-02) (58, 1.55348482332073184464e-01) (59, -1.01149071643537757925e-01) (60, -9.88750044215597201358e-03) (61, -2.50028658487773614016e-01) (62, -1.00342001887159137929e-01) (63, -2.51662456739328688204e-01) (64, -2.86940599969308318684e-01) (65, 2.15618772482490617115e-01) (66, 6.55645562759949313003e-02) (67, -2.03219024863389913227e-01) (68, -7.04521449657070225614e-02) (69, -1.03436611489190644075e-01) (70, 5.65549376144156429325e-02) (71, 2.97870568836300197990e-01) (72, 1.13362431217421372187e-01) (73, 4.63686132625959063214e-02) (74, 9.98329607875832608643e-02) (75, -2.55125582890317503804e-01) (76, 1.55006862739098694171e-01) (77, 6.70255786387060209508e-02) (78, 2.29676188216232285422e-01) (79, 2.49866894563291169762e-01) (80, -7.58539854292614168507e-02) (81, -2.17901780193401423125e-01) (82, 1.88907776083930445399e-01) (83, 6.39945417378773306893e-02) (84, -1.86373667434143103216e-01) (85, -1.79623739793367348527e-01) (86, 1.15074609559462220920e-01) (87, -8.75833578326949274695e-02) (88, -1.58850865494737758521e-01) (89, 3.69073683018595111172e-01) (90, -1.72903803764505564766e-01) (91, -2.85040933056199874418e-01) (92, -9.75214111076292272662e-02) (93, -8.24210417071406381551e-02) (94, 1.60140920563871969051e-01) (95, 3.30325138722485533993e-01) (96, -1.64899745103856687489e-01) (97, 7.53306246794376299647e-02) (98, 2.87680141347012530151e-01) (99, -5.69409448281129951241e-02) (100, 1.31900691954313920018e-01) (101, 2.36471301163371575016e-02) (102, 1.29377208026808104835e-01) (103, 2.32131705770173585313e-01) (104, -2.50137557809499755379e-01) (105, -2.52215541762771056078e-01) (106, 1.07814822550221484088e-01) (107, 4.88129338084453967550e-02) (108, -2.56799012596986286905e-01) (109, -7.18514395081230883289e-02) (110, 1.22849697503805838084e-01) (111, -1.39417874137250236144e-01) (112, -2.91669781269859429429e-01) (113, -3.33826768305128043779e-02) (114, -7.48128106109170187832e-02) (115, -2.27800582131510387374e-01) (116, -2.06496368784079675773e-01) (117, 6.77440460057401466765e-02) (118, 1.26450597933950609209e-01) (119, 3.16630177574268867335e-01) (120, -8.55201937450403570917e-02) (121, 9.02426681692716226024e-02) (122, 3.50386553054170102328e-01) (123, -6.43250004575379175087e-02) (124, -1.97731527143422708415e-01) (125, -2.38914284135738619330e-01) (126, -1.30892880161181029974e-01) (127, 2.24225410245001061105e-01) (128, 2.30605652247374615094e-01) (129, 7.43980979878719056453e-02) (130, -1.51688157498175213433e-01) (131, 2.96465215028366535499e-01) (132, -3.05693251609815030978e-01) (133, -3.39963951085209048486e-01) (134, 1.36782037996823369053e-01) (135, 1.32676544053971168236e-01) (136, -2.31457320539024374861e-01) (137, 1.11089499744052425112e-01) (138, 8.58619017946722073997e-02) (139, 8.72239308786186134936e-02) (140, -2.29759336733272978570e-01) (141, -1.52899525092855037567e-01) (142, 2.12273016971221001326e-01) (143, 2.72575089884085797198e-01) (144, -3.81436497966148382877e-02) (145, 2.91955582857475193226e-01) (146, 2.67346880917355755880e-01) (147, 1.09399155526699098928e-01) (148, -1.59514866952389894328e-01) (149, -2.20096687125468176705e-01) (150, 8.82866845910565758992e-03) (151, 4.11719089501175805612e-01) (152, -3.06632950228224697431e-02) (153, 4.32721642192551853023e-02) (154, -2.12083696427405238305e-01) (155, 3.45835311071427842222e-01) (156, -2.31736781064432212363e-01) (157, -2.51441138730507218746e-01) (158, 7.13863382241768790193e-02) (159, -2.11837947249505303970e-01) (160, -1.31387072934064069729e-01) (161, 7.76654648289480248335e-02) (162, 1.53416833315551837114e-01) (163, 2.97979848622368405364e-02) (164, -1.40484493618883876653e-01) (165, -3.09350394668494767247e-02) (166, 6.21428127136159774713e-02) (167, 3.35831010666089779804e-01) (168, -5.68505580398257562291e-02) (169, 6.10464637318326452942e-02) (170, 2.62831173302669862668e-01) (171, 2.93066564637511794977e-01) (172, 3.15451019065586257817e-02) (173, -2.58007635777976473967e-01) (174, 1.60118511656367756846e-01) (175, 1.92013343617039866640e-01) (176, 1.51029798681691588419e-02) (177, -1.02369343612516358610e-01) (178, -3.34619494148750140639e-01) (179, 5.10124755049656153361e-01) (180, -3.46035104779899960192e-01) (181, -2.51757329864397805252e-01) (182, 5.33041852558772746851e-02) (183, -6.85659566772437445437e-02) (184, -1.74259950570545524284e-01) (185, -1.96155241454944728741e-02) (186, 6.11376668939816250714e-02) (187, -1.86844884993816635899e-02) (188, -1.61911202076084254076e-01) (189, 8.84024412081807551937e-04) (190, 8.82480727286201055426e-02) (191, 3.78245121322546618003e-01) (192, -1.81800334496587001620e-01) (193, 9.16916616618794755311e-02) (194, 4.24413902843128798548e-01) (195, 4.64277836984555214439e-01) (196, 1.06185143719013913577e-01) (197, -1.16590068041746278138e-01) (198, 4.76455215791073069531e-02) (199, 5.09270896867598799052e-02) (200, 2.91606567269657002139e-01) (201, -3.04603614202942019062e-01) (202, -3.49913435754287183155e-01) (203, 3.76472526581494049136e-01) (204, -4.34918939879440857865e-01) (205, -1.41560425198933526048e-01) (206, 2.26778923868421855570e-01) (207, 7.76213528456941304068e-02) (208, 8.56128949245623244169e-02) (209, 9.31220096750920850459e-02) (210, 9.13654786319667011618e-02) (211, 2.19465420295946872509e-02) (212, -7.20332378973669723576e-02) (213, -1.23803001741639120969e-01) (214, 3.78732352170149666470e-02) (215, 3.00673565205246517973e-01) (216, -1.45564134870491523888e-01) (217, 3.48058077859436099111e-02) (218, 4.43485575557847289119e-01) (219, 6.28894221826216348603e-01) (220, 8.56229211739082535226e-02) (221, -1.09983427261890059912e-01) (222, 2.75042138491565169023e-01) (223, -3.32000372756048600653e-02) (224, 1.60143094861495610681e-01) (225, -9.14429982105048055896e-02) (226, -4.46136440451809057617e-01) (227, 1.69745170475566170554e-01) (228, -4.47939874196563947439e-01) (229, 1.16765775821692230352e-01) (230, 3.82097959316746949021e-01) (231, -7.72889752004891489312e-02) (232, -7.87231045347235175447e-02) (233, -1.16074887462187428810e-01) (234, 2.29883491868015654713e-01) (235, 3.62917818466462371862e-01) (236, 2.22437071311291340026e-01) (237, 2.76017731893275219957e-01) (238, 9.08736872789251831639e-02) (239, 2.37809867846202560582e-01) (240, -3.50706473657068307226e-01) (241, 1.19300558436909939775e-01) (242, 5.88980142456602351331e-01) (243, 9.72702025463099695379e-01) (244, 1.35068904231889608258e-01) (245, 1.56294957169453518908e-01) (246, 4.49792888484101538449e-02) (247, 2.53185200873912108488e-01) (248, 1.11085075124230048260e-01) (249, 1.05010509922363423629e-01) (250, -5.49618211005136192426e-01) (251, 1.79472292156489694748e-02) (252, -3.88867756529216679340e-01) (253, 2.75118852253742163239e-01) (254, 8.22051713673094486268e-01) (255, 1.03265767380594786218e-01) (256, -2.44397141336631568143e-01) (257, -1.73402027112878581727e-01) (258, 1.31137463441702677158e-02) (259, 3.26403396664441569630e-01) (260, 2.70745995190749301484e-02) (261, 4.00109918408683429281e-01) (262, 5.63532255227174663781e-02) (263, 4.18835780809831859095e-01) (264, -6.62433429428165077013e-01) (265, 4.77991103757401392116e-01) (266, 9.04498223497119946401e-01) (267, 1.10912665080445904664e+00) (268, -1.09453164662021956710e-01) (269, 3.63002584523251348170e-01) (270, 1.66623250932339019015e-02) (271, 5.49843220350738959290e-01) (272, 3.29812056818589993679e-02) (273, -3.70711882766509570608e-02) (274, -4.03269705006266521163e-01) (275, 3.09106485160310306970e-01) (276, -2.51843981485838197543e-01) (277, 7.18305526273169403506e-02) (278, 9.43963062416004916599e-01) (279, 3.53016034262227718088e-01) (280, -2.26442738977627178176e-02) (281, -2.99706030924403343807e-01) (282, -1.05954718035347728033e-01) (283, 3.79405273301326506630e-01) (284, 1.02585205387850611491e-01) (285, 2.68976988859442933677e-01) (286, 1.45846864749685556362e-01) (287, 3.14658415241016564678e-01) (288, -5.66158461889530451039e-01) (289, -1.34696685870818646386e-02) (290, 1.01750748408260527356e+00) (291, 9.28647341693172423405e-01) (292, 7.59175557505259585023e-02) (293, 1.13446760450348974048e-01) (294, 1.16274373878917619551e-01) (295, 3.96770789776896948275e-01) (296, 1.07488731925168591597e-02) (297, -5.01803438148328173618e-01) (298, -3.48863891205882625801e-01) (299, -3.13007799039626763427e-02) (300, -2.88361860938456338044e-01) (301, 2.18960750786154845215e-01) (302, 1.14781663180523585410e+00) (303, 2.78604116748853380958e-01) (304, 4.93680672176388668504e-02) (305, -3.55426245448138389271e-01) (306, -3.28617478613122071529e-01) (307, 2.02530256567072575180e-01) (308, 2.06945653126707984626e-01) (309, 2.85289382400994162570e-01) (310, 8.55309607600567532726e-03) (311, 1.88201363789481018740e-01) (312, -9.05368348830643210334e-01) (313, 3.77452440816904780108e-02) (314, 3.61517368470586464291e-01) (315, 9.85643099405951184089e-01) (316, 3.83073659691478066169e-02) (317, 2.58273346025870209619e-01) (318, 2.81874181378684085519e-01) (319, 8.52685998144783408037e-01) (320, 1.00539667115663616803e-01) (321, -4.03848704352362808390e-01) (322, -4.82013313292107337116e-01) (323, -4.85282120162637553573e-03) (324, -2.70272588907650601620e-01) (325, 2.08840222792984392397e-01) (326, 1.21417079118837123453e+00) (327, 2.00522482067054336197e-01) (328, -1.63645480676826854394e-01) (329, -3.34693994409984652005e-01) (330, -2.06098127746643572378e-01) (331, 2.19049480072762342564e-01) (332, 2.12753963484153540975e-01) (333, 8.70891590492105654997e-02) (334, 3.36744480183301803100e-02) (335, 9.85503569245338439941e-02) (336, -1.08303195254610118425e+00) (337, 3.14566142238068835457e-01) (338, 8.02282146410375873735e-01) (339, 1.06172101403911400830e+00) (340, -3.82270317956697261441e-02) (341, 2.61625340174428400175e-01) (342, 2.75955796495606253682e-01) (343, 9.52647071912863463439e-01) (344, -2.53923538329600996521e-02) (345, -4.54244710369035020747e-01) (346, -6.29103156765534521355e-01) (347, 3.98722877537467879083e-01) (348, -2.76057390743241093389e-01) (349, 3.00879081389518354683e-01) (350, 1.29572433523226226981e+00) (351, 5.33271199676001866896e-03) (352, -2.54123301722830374771e-01) (353, -1.82569590410692733640e-01) (354, -2.95158330051099093705e-01) (355, 4.67519039366443289740e-01) (356, 1.04019161236474241838e-01) (357, 1.15330290834556065116e-01) (358, -1.89663948807337195968e-01) (359, 1.89106922158382234622e-01) (360, -8.44829210433255650692e-01) (361, 5.10930573723973879829e-02) (362, 3.75218681690030364528e-01) (363, 8.96155530142660916582e-01) (364, 4.90739304374211010584e-02) (365, 1.16273490987329655710e-01) (366, 2.65227843040560296028e-01) (367, 6.68400176227048392619e-01) (368, -3.42307526436909648204e-01) (369, -2.87224773028823376908e-01) (370, -5.74602090707348911458e-01) (371, 5.49505905037779629474e-01) (372, -3.73651845721564179748e-01) (373, 4.07306713533793496307e-01) (374, 1.71898704978227923057e+00) (375, -1.11107294348884458324e-01) (376, 2.42519597726263913540e-01) (377, -8.22153167542677837387e-02) (378, -3.48972090872416540464e-01) (379, 6.36705543270795204513e-01) (380, 3.85524855247138045766e-02) (381, -5.31895304346916286686e-02) (382, -1.31914656018809500759e-01) (383, 3.20100412353152397049e-01) (384, -6.05395537134871930540e-01) (385, 6.08203401181494004990e-02) (386, 9.63134812030412568173e-02) (387, 4.70639872244146550972e-01) (388, 3.89181562499978511704e-02) (389, -1.45853594774351974506e-01) (390, -5.15537063277050899845e-02) (391, 4.61735560976063441618e-01) (392, -4.62376406243034387966e-01) (393, -6.88822949320903876735e-02) (394, -4.85929095441790026566e-01) (395, 3.06742501738939798983e-01) (396, -3.38637947769444946911e-01) (397, 3.94403792688380439024e-01) (398, 1.30681068172307468522e+00) (399, 1.29344573780529770168e-01) (400, 2.19856530005250683235e-01) (401, -2.23058720810225458164e-01) (402, -3.96039731935208361158e-01) (403, 5.86649004904594373322e-01) (404, 4.04395376961128316662e-02) (405, -1.36420263840771160968e-01) (406, -2.75646693101673001536e-01) (407, 3.35394911626052227849e-01) (408, -7.77938879890484269453e-01) (409, 4.89153936933701793954e-01) (410, 2.68304879762174097735e-01) (411, 3.29351334495091296883e-01) (412, -1.19863683654316488525e-01) (413, -8.85345404943387731533e-02) (414, -5.61729688970396129344e-02) (415, 1.32133155355810466558e-01) (416, -3.79085622260263932493e-01) (417, -2.33292856730652586883e-01) (418, -4.40835788532020766972e-01) (419, 2.38589168141426999359e-01) (420, -1.11087498218026062280e-01) (421, 1.82592813300028328216e-01) (422, 7.08081402517942826158e-01) (423, 2.66186880570463135776e-01) (424, 2.41218433463126824545e-01) (425, -4.29264618334575798198e-02) (426, -2.58581169155942647286e-01) (427, 6.11723456988008562618e-01) (428, 5.04252059421035625508e-02) (429, 8.31765398062977306948e-02) (430, -2.54044992794346446985e-01) (431, 2.28954766980826285305e-01) (432, -5.01803504980479542219e-01) (433, 4.88218389821262033212e-01) (434, 3.63370527660285436156e-01) (435, 2.76963373561030179459e-01) (436, -2.17519025176416691547e-01) (437, -3.88898318489455940838e-02) (438, 3.83072459491837144507e-02) (439, 1.84602332383199618793e-01) (440, -1.49867347225561442503e-01) (441, -2.14841371818093651580e-01) (442, -6.69622357313940597123e-01) (443, 1.59168997885441275419e-02) (444, -1.14585915915740424453e-01) (445, 2.28823521695177722890e-01) (446, 4.53682077991145515927e-01) (447, -1.80751213827935519607e-01) (448, 3.01615735993872702281e-01) (449, 1.86203207712174551025e-01) (450, -8.93259284204423742448e-02) (451, 3.85062818676278728613e-01) (452, -1.75828449339669942719e-02) (453, -1.79820217412991339989e-01) (454, -2.50459411579681101578e-01) (455, 2.48198455003429324650e-01) (456, -3.54220818571798434782e-01) (457, -1.97449600312110916389e-02) (458, 1.07351778303146808136e-01) (459, 8.70321307867453625162e-02) (460, -2.17955219900623220486e-01) (461, -2.68692477497955550803e-01) (462, 2.85009804102016373051e-01) (463, 1.28956629636231473457e-01) (464, -6.56961511037019215559e-03) (465, 2.31193249538173897784e-02) (466, -2.91019250457194567083e-01) (467, 4.92392445959906124853e-02) (468, 4.20716676385575819030e-02) (469, 2.73117059068155254575e-01) (470, 5.61123309779609336090e-01) (471, -2.75663087148988072972e-01) (472, 2.63890545868001535901e-01) (473, 3.12596666154060995324e-02) (474, -1.65137061139432245183e-01) (475, 2.59325052580965775828e-01) (476, 2.17036029409207395502e-02) (477, -1.92829876185151606605e-02) (478, -1.52313819149807516684e-01) (479, 2.98898900440729808903e-01) (480, -1.45350723728856240369e-01) (481, 1.76652044672590408103e-01) (482, -6.50187046237138150523e-03) (483, 7.45593700133213299619e-02) (484, -2.85902137864605276896e-01) (485, -2.49956951154696210837e-01) (486, 1.07825482838425926180e-01) (487, 7.75515873544089986286e-04) (488, -2.72200570097477945186e-01) (489, -6.55619496194387169075e-02) (490, -8.71483604004817391520e-02) (491, 1.29916208670962485261e-01) (492, -1.00046431727045213866e-02) (493, 1.79567669201718627114e-01) (494, 3.47200668499342723905e-01) (495, -7.48068186745628749268e-02) (496, 2.50885355137116405899e-01) (497, -3.67094048628576336002e-02) (498, -2.59574298640391387671e-01) (499, 3.20983190049060410076e-02) (500, 1.46298749515590575943e-01) (501, -1.07147709391191794936e-01) (502, -8.35831115449306993881e-02) (503, 2.84587198945681629780e-01) (504, -3.81173297983483205797e-01) (505, 1.87383669216810350155e-01) (506, -3.51806363368218286136e-02) (507, -8.85395830970570757446e-02) (508, -1.39639836597985955713e-01) (509, -1.48324429012726577426e-01) (510, 1.69955970301178260762e-01) (511, 1.31783360173913316471e-01) (512, -2.68979572985046433420e-01) (513, -1.36254984310774374112e-01) (514, -2.93967574770370720927e-01) (515, 2.11372163579479577233e-01) (516, 1.07409456936669533977e-01) (517, 1.71711059714638528129e-02) (518, 3.11118156074357499197e-01) (519, 1.16775733233878645234e-01) (520, 3.10291944737121572206e-01) (521, 1.72484018927100773988e-01) (522, -2.25095994265070820095e-01) (523, 5.17314371092523067608e-02) (524, 3.26960497250741097264e-02) (525, -1.70415197090268727420e-01) (526, -8.13266902281424147736e-02) (527, 8.90339819223376488511e-02) (528, -7.33169514330168359262e-02) (529, 3.99724258610773319766e-01) (530, -2.47790721468839764130e-02) (531, -1.77088818768015819616e-02) (532, -1.71876223698981395183e-01) (533, -1.15168358370985393635e-01) (534, 1.75111083503969866548e-01) (535, -1.09935475585564754186e-01) (536, -1.43022552577533657026e-01) (537, 1.32766229818874152008e-02) (538, -2.45210127430315921737e-01) (539, 2.20087349470484555658e-01) (540, 2.68899143525777817310e-01) (541, 1.58069552030823207156e-01) (542, 3.23761230751415995943e-01) (543, -1.05441636649345873988e-01) (544, 2.67280125606280880013e-02) (545, 9.67622398551550196022e-03) (546, 6.83500468370527164419e-02) (547, -1.72908880631496786329e-01) (548, 1.94273931575380032211e-01) (549, -1.10395322885512514599e-01) (550, -6.93138652233845492523e-02) (551, 1.36757646997841042502e-01) (552, 2.17021953415848400937e-01) (553, 2.26085796851924647477e-01) (554, -1.54232010922495693661e-01) (555, -1.96389312308808294816e-01) (556, 1.34884779307552049588e-01) (557, -1.74707617353202365740e-01) (558, 5.78434564407206835979e-02) (559, -8.76472500306626350897e-02) (560, -1.39498334764219300563e-01) (561, -2.10228927309719620942e-01) (562, -1.45530373920172255431e-02) (563, -2.33657728777797168984e-01) (564, -2.14607919924759277253e-02) (565, 2.18758961811245905560e-01) (566, 2.81678837251222169424e-01) (567, 7.08691704112942161276e-02) (568, 8.42920518486867664798e-02) (569, -8.43565281464191268901e-02) (570, -6.72847434514848852238e-02) (571, -6.87183219174265502716e-02) (572, 1.43605773513354684212e-01) (573, 3.78788598383286226334e-02) (574, 3.19829926974136841134e-02) (575, 1.11784491083171427794e-01) (576, 1.85058226510268014620e-01) (577, 1.46820593036521840347e-01) (578, 3.80581729739939284007e-02) (579, -4.44871430600569051084e-01) (580, -1.64104081212550767521e-01) (581, -1.13768589702748154635e-01) (582, 5.42715642155222402487e-02) (583, -1.34849770286222442328e-01) (584, -1.45001765051929659700e-01) (585, -1.75618194211127565119e-01) (586, 3.35321498437792867020e-02) (587, -1.53576377816503600870e-01) (588, 5.00273496196148702991e-03) (589, 1.20506580118985420769e-01) (590, 9.53602876774468088961e-02) (591, 1.40292534061752793839e-01) (592, 2.56127527127057386114e-01) (593, -2.01857726442090622265e-02) (594, -1.88996737346622090126e-01) (595, -2.03170259695110461129e-01) (596, 1.74448988471555016533e-01) (597, -1.56023315295691911153e-02) (598, 8.65950475197809692134e-04) (599, 1.34181038446106459805e-01) (600, 4.38282636776675893486e-01) (601, 2.12758075317362571610e-01) (602, 2.20648152910724648645e-01) (603, -1.61902939132609918760e-01) (604, -8.96613346118350640346e-02) (605, -1.68577438625907433112e-01) (606, -1.46395761918219277642e-02) (607, 2.55465215507168011411e-02) (608, -6.35402239555719755559e-02) (609, -1.66931137622851832880e-01) (610, 7.67012418143275115368e-02) (611, -1.17272223478400133834e-01) (612, 4.78194591179202863063e-02) (613, 1.26335812911500644518e-01) (614, -7.42581739429598181035e-02) (615, 1.03053302059109924693e-01) (616, -1.51677044484312489869e-01) (617, -1.15789687371114558001e-01) (618, -1.91594449039456771189e-01) (619, 4.74160921428863624261e-03) (620, 1.23813418308139702728e-01) (621, -5.96136741519149165880e-02) (622, 3.58875612633613666827e-03) (623, 3.59692083414637694960e-02) (624, 6.32783920418255596552e-01) (625, 1.66516550849974354076e-01) (626, -2.17226087985269433744e-01) (627, -2.38065366771251563094e-01) (628, -2.73520404305490738572e-01) (629, -1.12622822474838735207e-01) (630, -1.64275883371835712543e-01) (631, -1.83780539472676723856e-01) (632, -1.41541016897393148039e-02) (633, -1.09936492871522489834e-01) (634, 5.08769704171562614503e-02) (635, -1.52377245809596911785e-01) (636, 1.15262500217288371696e-01) (637, 2.74792655142615527275e-01) (638, -1.56282838324254214069e-01) (639, 1.28920627684159933013e-01) (640, 1.11864934090730783200e-01) (641, 1.89234729111534584478e-02) (642, -2.23658040532558083369e-01) (643, 6.77215991940073175348e-02) (644, 2.00355683466434703055e-01) (645, 6.48484873117141785714e-02) (646, 2.93711845513496654092e-02) (647, -7.44918297253247818634e-02) (648, 9.46083149578872406593e-02) (0, 2.79689681627861730373e-01) (1, 1.93250250176996637985e-02) (2, -1.60820637403689958855e-01) (3, 1.03605561386388100864e-01) (4, -4.16966779440082965791e-02) (5, 2.88448608675465623108e-01) (6, 1.18744301591842751908e-02) (7, 2.46867035046860194836e-01) (8, 2.03744084786926793473e-01) (9, 1.28553375795725816078e-01) (10, -2.41313038646937191856e-02) (11, 1.17736228081705123633e-02) (12, -2.36698924851071412778e-01) (13, -9.00645379923334932215e-02) (14, 9.22576101805989284843e-03) (15, -5.56620219853050310355e-02) (16, -9.61698998041993630137e-02) (17, -2.52471622298788223038e-01) (18, 1.36991687087189395466e-01) (19, 3.11987011717890450058e-01) (20, -9.33836805688543214465e-02) (21, 1.20964460783555272094e-01) (22, 1.01333598504350447245e-01) (23, 9.74595635855535491476e-02) (24, 2.69952346888974702155e-02) (25, -1.55874413277897305719e-01) (26, -2.76066886559960367187e-01) (27, 1.55055472101570473997e-01) (28, 1.30494523379281079922e-01) (29, 1.39231655481091343152e-01) (30, -1.27725259371409306797e-02) (31, 2.20145632179430089659e-01) (32, -7.57742863132783855962e-02) (33, 4.35428560429356875661e-02) (34, -3.72200902053554244509e-02) (35, 1.58590722730658384432e-01) (36, -1.40002592719367269236e-01) (37, 2.25576412247831981084e-01) (38, -9.23460232899254301886e-02) (39, 8.22284316268457604604e-02) (40, -1.74267307657117009878e-01) (41, -2.98599768265164100534e-01) (42, 3.41133699886654179201e-02) (43, -1.92824828207199566732e-01) (44, -1.12008328282856478575e-01) (45, -1.26278853658667363641e-02) (46, -8.42219077673183186272e-02) (47, 2.64933947640581847482e-02) (48, -4.20466011540251913270e-02) (49, -4.34560897499160547763e-01) (50, 2.26364442659588958884e-02) (51, 7.40679250265873639902e-02) (52, -1.12785248889745254308e-01) (53, 9.28005510515684667316e-02) (54, 5.47395167626162776342e-02) (55, 2.47413793034130316539e-02) (56, 9.48802539853131621239e-02) (57, -3.40891620679376672332e-01) (58, 2.11673486477034489273e-01) (59, 2.48129631742500340527e-03) (60, -8.85245093106982322562e-02) (61, 3.58275266645354528716e-01) (62, -5.39263556914297698119e-02) (63, -2.30296286083607221196e-01) (64, 7.30048298140789225785e-02) (65, -1.08402998821741244906e-01) (66, 7.93238727293074652458e-02) (67, 7.16056418220975404720e-02) (68, -2.13304279727931395128e-01) (69, -2.04883752760086718103e-01) (70, -4.46024631324611238459e-03) (71, 1.41722322882308515712e-01) (72, -5.77013157276483390490e-01) (73, -1.88960194869741221479e-01) (74, -5.72694412223270429840e-02) (75, 1.32034141520153414096e-01) (76, -5.54035527902457594629e-02) (77, 2.92216510803822333842e-02) (78, -2.47430796980370626414e-01) (79, -2.33349835635338814788e-01) (80, 6.63040591380476829197e-02) (81, 9.49616355995522298805e-02) (82, 2.66784109531538915494e-01) (83, 1.84094143820033362413e-01) (84, -1.65060967518383200359e-01) (85, 1.69784510696259660634e-01) (86, 1.01365863951777254726e-01) (87, -2.91016152528828286883e-01) (88, 1.98426204693651271095e-04) (89, -1.02598627719783508372e-01) (90, -9.67710811073750898359e-02) (91, 1.63372247880297805089e-01) (92, -3.38576194105202732398e-01) (93, -7.19380560711095767834e-02) (94, 7.54093317707597854405e-02) (95, 1.44822667953756756276e-01) (96, -1.89775632647407155318e-01) (97, -2.51426452311687975705e-01) (98, -1.02445152547199949677e-01) (99, 2.13124171665273864917e-01) (100, 5.72431226590888811434e-02) (101, 1.85997604562151114260e-01) (102, -6.27779473314178798615e-02) (103, 2.90440119152940746938e-02) (104, 4.13607649531998050607e-02) (105, 3.93625635746877450272e-02) (106, -9.61171250012232691873e-02) (107, 2.31466199493618463023e-01) (108, 1.68687405429150637237e-02) (109, 6.75388199478017536848e-02) (110, 4.77583547137252137360e-02) (111, 3.77978937389807827588e-03) (112, 2.32368069444674057999e-01) (113, 1.64140694113856649983e-01) (114, -2.59841559920510278836e-01) (115, -3.98656889474803474704e-02) (116, -1.93779428739275678961e-02) (117, 6.96994174400116101031e-02) (118, -7.09950685832449884805e-02) (119, 1.10246895182354157083e-01) (120, -2.52189122441918045503e-01) (121, -1.65164975837954086657e-01) (122, -1.05798679635805054078e-01) (123, -3.81474189209640799497e-03) (124, 5.22843072524316592603e-03) (125, 1.18642731462792069830e-01) (126, 1.20170039325162986144e-01) (127, 2.56432437781877409222e-01) (128, 4.04031002258179155334e-03) (129, -1.06622491040128927753e-01) (130, 1.55235340849309816358e-01) (131, 2.97808771693336249431e-01) (132, -2.33555339479437740202e-01) (133, -1.28975312421662526019e-02) (134, 5.43557165016264089152e-03) (135, 1.12855825726751679561e-01) (136, 2.58774264522856345394e-01) (137, -6.54311332923461635991e-02) (138, -2.05994841060392896992e-01) (139, -7.74321617154729580079e-02) (140, -2.63013427052305404086e-01) (141, -9.42021963764058389845e-02) (142, -1.07557096642311542101e-01) (143, 2.43679732429360029755e-01) (144, -1.93355910018551124807e-01) (145, -1.95599481275365055799e-01) (146, -6.13889514541338318643e-02) (147, 2.81865158671909588062e-01) (148, -2.20119702484164875278e-01) (149, 1.06068373344985242279e-01) (150, 1.36989984847208534635e-01) (151, 2.44607059465255738395e-01) (152, 5.00068629980126508339e-02) (153, -1.72249927310269834724e-02) (154, -1.80565663702693862680e-01) (155, 3.38915997830434689853e-01) (156, -2.28747051758874941907e-02) (157, 2.41756975858975931004e-01) (158, -1.19172611267582120864e-01) (159, 2.49416907013590236769e-03) (160, -4.38563751073366425715e-02) (161, 1.54057782363885675814e-01) (162, -2.57203443632151584897e-01) (163, 4.56050948863124111510e-02) (164, -1.10829943734636879316e-01) (165, -3.33527810365103205559e-02) (166, -3.50388068126846613515e-02) (167, 3.09439028790705950023e-01) (168, -3.40081817213607029426e-01) (169, -3.78399678605809641763e-01) (170, 3.78578791082559318326e-01) (171, 1.30908686362249115920e-01) (172, -1.32024904889110096529e-02) (173, -3.73223318271089093967e-02) (174, -4.60474437078745649221e-02) (175, 5.83918908811363435163e-01) (176, 2.79372831714472316667e-02) (177, -2.33290864874986098032e-01) (178, -4.96808575768346791235e-02) (179, -2.49413422454634686742e-01) (180, -2.75838729097914236998e-01) (181, -5.56620012445678616353e-02) (182, 1.04007909112904195492e-01) (183, -6.99324761807954553561e-02) (184, 7.11112676319678171932e-02) (185, -1.07607688926577668709e-01) (186, -1.53736937623806385611e-01) (187, 7.02973830863490856125e-02) (188, -1.65000281355624139890e-01) (189, -1.31550723085185866656e-01) (190, -6.92047822723486638630e-02) (191, 1.94473063350207003852e-01) (192, -4.09510308735936079394e-01) (193, -1.52235370375976675206e-01) (194, 6.67300109839360101188e-03) (195, -4.93088377624704976565e-02) (196, -1.82401451686267451757e-01) (197, 2.33601632864607694495e-01) (198, 1.09178619261716305933e-01) (199, 5.59941025281172177763e-01) (200, -7.14232459794568314004e-02) (201, -2.85819504142811764424e-01) (202, -1.80879617832781114384e-01) (203, -7.88634151447586556616e-02) (204, -1.68437656194218993155e-01) (205, -7.05458352029012109030e-02) (206, 1.51987377551285832850e-02) (207, -2.25160958879184802672e-01) (208, -1.92518708030545160348e-02) (209, -1.62914350976938127058e-01) (210, 3.58951393910451541092e-02) (211, 1.50296944181748576286e-01) (212, 6.38832929807782307075e-02) (213, -9.92825060437437234562e-02) (214, -5.57504789215986992779e-02) (215, 1.59321414384648502027e-01) (216, -3.73619480464017550414e-01) (217, 4.87156750124077442266e-01) (218, 5.84817582825171156102e-02) (219, -2.55354642259783715108e-01) (220, 7.03819458893296858587e-03) (221, -1.68995223242987095691e-02) (222, 1.03763013297102107968e-01) (223, 4.66784220771779001513e-01) (224, -1.69961779306790017330e-01) (225, -3.04965031284636090003e-01) (226, -3.47187128342001161130e-01) (227, 1.11712281615889488795e-01) (228, -1.45572208687500953550e-01) (229, 2.23551003851957197366e-01) (230, -4.75651388555219469846e-04) (231, -1.19132984834764518722e-01) (232, 3.83362032677628861155e-01) (233, -2.58271497574752262327e-01) (234, -2.34625138737866806293e-01) (235, 3.00566370341046940062e-01) (236, -2.58295038378674568502e-01) (237, 1.65403758015980950624e-01) (238, -6.83084475448805239495e-02) (239, 1.24977184035211005830e-01) (240, -2.39946129633414634297e-01) (241, -2.63424430038772111606e-02) (242, -3.11551498065970912388e-02) (243, 8.15913319860860353216e-02) (244, 8.11666574735456398948e-03) (245, -2.20598791061117210921e-01) (246, -2.77056644596775196454e-02) (247, 9.17049302377150911403e-03) (248, -8.62564364843017711282e-02) (249, -6.69209478875407576259e-02) (250, -1.87307921211596450917e-01) (251, 3.86176543206223771287e-02) (252, -1.10848877759766928364e-01) (253, 7.48243580135620790783e-03) (254, 3.63234820298042951348e-02) (255, 1.31628368715377159354e-02) (256, 4.09076083200407614182e-01) (257, -2.41383904296662843425e-01) (258, -2.12708669563609925612e-01) (259, 2.74761577696920167302e-01) (260, -3.17189976935770889810e-01) (261, 2.84309982579382947154e-02) (262, -9.93314559898459681353e-02) (263, -5.18019923023320741362e-02) (264, 9.53814570136505140985e-02) (265, -1.37697217197227717023e-01) (266, -6.67866415978645294738e-02) (267, 1.72925903890801063723e-01) (268, -2.50810396047150274690e-01) (269, -3.97523949096852888263e-02) (270, -1.06842353273034623706e-01) (271, -1.24012176957197045590e-01) (272, 2.13153980488343941513e-02) (273, -2.60278447609311791577e-01) (274, -3.25238896880635230957e-01) (275, -2.13530223500432048134e-01) (276, -5.73724268244709539877e-02) (277, -1.35197364324768615207e-01) (278, 1.57118510681891199177e-01) (279, -4.54783099391319334259e-01) (280, -6.80337023342925673042e-02) (281, -2.48354193637463055433e-01) (282, -2.47812571663789601994e-02) (283, -4.72391525868950685335e-03) (284, -1.43554258050847954875e-01) (285, -5.22435438689224720954e-02) (286, -9.92532722322885807564e-02) (287, -3.11061313661363247896e-01) (288, 5.38649978964949149862e-01) (289, -6.49911613357411488412e-02) (290, -4.97988655484792375194e-01) (291, -1.62014922788535381537e-01) (292, -4.44253759467105546754e-01) (293, 1.82793567249768355854e-02) (294, 2.65193747820664349479e-01) (295, -9.82524742201010270470e-01) (296, 2.90777917541535924073e-01) (297, 2.06305488677963555499e-01) (298, -3.43122196751672381421e-01) (299, -3.29517264158811551411e-01) (300, 2.92536081881589783704e-02) (301, -1.12456899575280964282e-02) (302, -6.60488519999592127441e-01) (303, 3.44537132946484275786e-02) (304, -7.41163253667764532207e-02) (305, 2.07681365146324681259e-01) (306, 4.63791109099982654107e-02) (307, 3.65727121702256963154e-01) (308, -4.44064891041189360732e-02) (309, -1.58300927212316228099e-01) (310, -7.20371260244064420819e-02) (311, -5.53974578457835487022e-01) (312, 1.07990351650626958957e+00) (313, 2.30406306300742491633e-01) (314, -1.29266109312837462753e+00) (315, -4.30173857228420164489e-01) (316, -4.29274078500650413392e-01) (317, 2.74491519811431716747e-01) (318, 9.05911954314672973609e-01) (319, -1.20344560447599935316e+00) (320, -1.53438876230255677457e-01) (321, 7.55457200808497542077e-01) (322, 2.09393919847293136227e-01) (323, -2.13183512905122413139e-01) (324, 2.02345654761144716494e-01) (325, -1.61641410113476269306e-01) (326, -7.36426367260441083751e-01) (327, -4.93106803022864748076e-01) (328, -5.06658158292183413707e-01) (329, 1.89423965554003204126e-01) (330, -1.37077229034246739214e-01) (331, 8.14681996672572128482e-01) (332, -1.89139597808167386761e-01) (333, -2.00690660165438100604e-01) (334, -9.12080670678924732009e-03) (335, -2.51904875040054321289e-03) (336, 9.53871052832009014288e-01) (337, 8.90846466987830869211e-03) (338, -1.24816504409001227671e+00) (339, -3.93517740907141200246e-01) (340, 9.22550572508562122254e-02) (341, 9.04108840080999759392e-02) (342, 7.38672724784914747076e-01) (343, -2.10512706524439918709e+00) (344, -2.79186546010509240023e-01) (345, 6.96327016971043266658e-01) (346, 6.58390654588427493010e-01) (347, -3.73379991092873397829e-01) (348, 2.04029791397392912256e-01) (349, 3.40944327708686045764e-01) (350, -2.24991508626982961161e+00) (351, -7.07673237471926452891e-01) (352, -5.70537140144014465193e-01) (353, 6.22278448739962478098e-02) (354, 3.46101053031715621966e-01) (355, 5.67811372591595309167e-01) (356, -6.10475393487313944263e-01) (357, -6.90834199017864691861e-01) (358, 2.14666062392309064943e-01) (359, -3.65793636727324511515e-01) (360, 8.38850176579557404999e-01) (361, 4.96105684749135467104e-01) (362, -6.88238217016865716502e-01) (363, -7.22928976414349389046e-01) (364, 1.49613422657461858645e-01) (365, 6.42065527925669621290e-01) (366, 4.18993437662661394327e-01) (367, -1.10363169196419175222e+00) (368, -5.11654663486492480851e-02) (369, 2.69718452302583233671e-01) (370, 5.22283992020134757439e-01) (371, 3.10427580266915970064e-01) (372, 2.83987287600807658539e-01) (373, 3.30257714724147388718e-01) (374, -2.10150886144281745516e+00) (375, -5.07419085867555574865e-01) (376, -4.52268757056055514809e-01) (377, 2.41343266511964221754e-01) (378, -8.56806505833522802362e-02) (379, 2.52367049808981114278e-01) (380, -2.30442609363472467043e-01) (381, -1.27500335358686350817e-01) (382, 2.14179531553373658781e-01) (383, -4.03742434533875205194e-01) (384, 4.85877585085071062032e-01) (385, 3.35255915781950963872e-01) (386, -3.29761034707702627156e-01) (387, -5.62549359663464310088e-01) (388, 2.39283637457690989692e-01) (389, -2.21806050636518883867e-02) (390, -8.34861710856399097391e-02) (391, -4.51801519790602235105e-01) (392, 9.12945779546116276126e-02) (393, 1.34775741452950792443e-01) (394, 4.95613213852564182815e-01) (395, 2.25299104987985304716e-01) (396, 4.14637546715464322400e-01) (397, 2.58485712674135947875e-01) (398, -1.02889825667982637292e+00) (399, -9.15116973902406760644e-02) (400, -3.05777182296446903287e-01) (401, 3.43678299811098042493e-01) (402, -5.64049164204191502692e-02) (403, 1.64211070830360128525e-01) (404, 2.89944067026142483778e-02) (405, -1.67271049243336772383e-01) (406, 3.45377857066902327343e-01) (407, -2.36716726303944857701e-01) (408, 4.88733601023223718229e-01) (409, 1.23301215436403988068e-01) (410, 2.58275536845849196244e-01) (411, -1.40649304485270052606e-02) (412, -1.39508749658408592875e-01) (413, 3.18094980197826504575e-01) (414, 1.03312424970833011129e-01) (415, 3.85688606062204564218e-01) (416, 1.60432083118997662052e-02) (417, -3.21394556361128513888e-01) (418, 5.19590883729435848437e-01) (419, 1.90927604698304498321e-01) (420, 3.99993333256405292353e-01) (421, 3.35054520652101756051e-02) (422, -6.67150829122830524298e-01) (423, 1.05646003406041147366e-01) (424, 9.92989368241741221510e-02) (425, -2.70036760709097378719e-01) (426, 7.93949946662937944275e-02) (427, -2.52051472523551423066e-01) (428, 6.94815037750394631777e-02) (429, 3.35713712830418564703e-02) (430, 1.86660987062837457895e-01) (431, -3.12232115514905983478e-01) (432, 1.18451054979565734149e-01) (433, -5.18777213865134131932e-02) (434, 5.37216731007438386136e-01) (435, 2.17188706679268150879e-01) (436, -1.40515516882641883223e-01) (437, 1.22985902065189542376e-01) (438, -4.09028612017633297349e-01) (439, 4.30612835074934086066e-01) (440, 9.43832522119391059690e-02) (441, -2.83168318252959086423e-02) (442, 3.21193885700336190236e-01) (443, 4.00175677940970642155e-01) (444, 3.71659934466186114843e-01) (445, 1.48253641671758657622e-02) (446, -2.49748816483063573735e-01) (447, 1.36366233295827671279e-01) (448, 1.77875214508968426674e-01) (449, -1.33215173944247311510e-01) (450, -7.04300552629296295476e-03) (451, -5.08889299536697398141e-02) (452, 4.13603188938613419712e-01) (453, 1.86460896198554493264e-01) (454, 1.87833462583760074649e-01) (455, -3.90339593099032045043e-01) (456, 2.84812154633338587839e-01) (457, 2.56128043388012760495e-01) (458, 3.33343036504774647977e-01) (459, 1.37871076365433414823e-01) (460, -9.98975755932269421367e-02) (461, 2.87235835367818902186e-02) (462, 7.71316445719898158284e-02) (463, 2.76038936219672070838e-01) (464, 1.37299309659914853254e-01) (465, -4.10781527393993928232e-01) (466, 5.13735144883097794022e-01) (467, 3.48037838716136860295e-01) (468, 1.93563417550082439433e-01) (469, 1.13506511516383343241e-01) (470, 1.88737295270324761942e-01) (471, 2.01398936257154714813e-01) (472, -5.20865800071659418302e-02) (473, -1.17542106674582993997e-01) (474, 2.11699206112939408708e-01) (475, -1.17213308240960531470e-01) (476, 4.68229116600884676114e-01) (477, 2.92092390158188053295e-01) (478, 2.58586083120750320763e-01) (479, -2.94367256940781973906e-01) (480, 1.65313080986176030862e-01) (481, -1.17046900001166576111e-01) (482, 1.06337300908524334808e-01) (483, 1.48024026330784458372e-01) (484, 1.65592784238329709945e-01) (485, -4.29366242894426500265e-02) (486, -2.95420067582229606273e-01) (487, 3.22427645439386179049e-01) (488, 2.49732988417428913852e-01) (489, -1.43387890514267896114e-01) (490, 2.33861696111389821828e-01) (491, 2.21589868050595328874e-01) (492, -1.19490316698978485399e-01) (493, 2.03959232690474612237e-01) (494, 3.06432237252516781467e-01) (495, 3.45611035373942387938e-01) (496, 5.09317601652818710556e-02) (497, 1.97004974685368143550e-02) (498, 2.29369425822607581056e-01) (499, -1.89907326563379996731e-01) (500, 1.71438798575470313645e-01) (501, 1.13991929289038257389e-01) (502, 1.86654510537164836093e-01) (503, -1.68981827162621389693e-01) (504, -3.25622005704345948707e-02) (505, 3.05339451793283922498e-02) (506, 1.18192658639956246769e-01) (507, 2.18179033104946712429e-01) (508, 2.25226971836445910569e-01) (509, 6.35920634601421300158e-03) (510, 1.82229565799097437129e-01) (511, 2.84097311933645291226e-01) (512, 2.51081370992356112115e-01) (513, -4.86182947765440923171e-02) (514, 1.46173637126490313376e-01) (515, -5.40124363899417356261e-02) (516, 1.22064152206874124151e-01) (517, 4.33572932649046172138e-01) (518, 1.16766625120799365928e-02) (519, 9.51350985672701487950e-02) (520, -9.51191287936279938897e-02) (521, -8.38333556291285669770e-02) (522, 7.63455722587888241382e-02) (523, -1.89851780540550213461e-01) (524, -8.58327238037510098501e-02) (525, 2.43478490343043835198e-01) (526, 1.05983832686895040887e-01) (527, -1.73889863382358567101e-01) (528, -3.21679086631304761434e-02) (529, -5.59777432213236919578e-02) (530, 6.94930646674804790991e-03) (531, -7.43808495223804017060e-02) (532, -1.04001570632639064179e-03) (533, 6.03462901337247087374e-02) (534, 4.40389659121485088633e-02) (535, 3.37925233327185492449e-01) (536, 4.08309666422325967527e-01) (537, -1.16178548218245164536e-01) (538, 1.18058887910876944560e-01) (539, -1.00356227802748512734e-01) (540, 1.69762725414810133895e-01) (541, 4.15723211633650113761e-02) (542, 1.03616934635971769119e-01) (543, 4.20425535328673785629e-02) (544, 2.01466519433291454955e-02) (545, -3.37080296393326081517e-02) (546, -1.15345595638873643640e-01) (547, 2.65479509655659161316e-02) (548, -1.84909284337951534960e-01) (549, 1.00321081769297770769e-01) (550, -1.03046095761797004697e-01) (551, 3.33413806537962917331e-02) (552, -1.46266538305451387902e-01) (553, -9.05554728135073289108e-02) (554, -6.24080180364442113627e-02) (555, -8.39832739537653971684e-02) (556, 6.44888644870343780147e-02) (557, 1.41136458858775404313e-01) (558, 4.89100087218947501833e-02) (559, 3.05226080954911882515e-01) (560, 3.24112013676096211157e-01) (561, -1.62835933918219800953e-02) (562, 2.57225951242504025096e-01) (563, -1.00249010364150820118e-01) (564, -1.05658020557407972273e-01) (565, 2.30819019919909107497e-01) (566, -4.07382794875673567847e-02) (567, 2.85807155517260880195e-01) (568, -4.14502171969229893378e-02) (569, 1.90266130218300383303e-01) (570, -3.03219045894972394350e-01) (571, -3.36806242713826420321e-01) (572, -1.82995588066709985453e-01) (573, -5.81079098611820762943e-03) (574, -3.19442756728960663981e-02) (575, 2.81270789546928879146e-03) (576, 4.82198579857342213284e-02) (577, 4.50510063743116417889e-02) (578, -1.21266202614399229431e-01) (579, 4.44507088320354737387e-02) (580, 9.56815356818646323145e-02) (581, 1.50040068899074480191e-01) (582, 1.25007156906832367360e-01) (583, 1.14934597681658687285e-01) (584, 4.32797069449490576232e-02) (585, 2.18771716214617273355e-01) (586, 3.08489564443714225916e-01) (587, 1.96440645729383106532e-01) (588, 7.19282640662340377880e-02) (589, 1.41979907659253251628e-01) (590, -1.84447454893915091523e-01) (591, 1.56289662107559707005e-01) (592, -1.56280627189929410825e-01) (593, -1.13773284797142840152e-01) (594, -1.55062461893369113453e-01) (595, -2.18786377103734955285e-02) (596, -1.33158056648152112178e-01) (597, 7.83664087024530942038e-02) (598, 1.33588337029050502162e-03) (599, 2.45762057431196494217e-02) (600, 7.57722893195337480338e-03) (601, 1.82362159296224515641e-03) (602, -8.61165948280915166668e-02) (603, -1.45986162871153540843e-01) (604, 4.72114646981650121216e-01) (605, 1.06337844003375689428e-01) (606, 4.46404618754594889607e-02) (607, 2.57899609664616669136e-01) (608, 7.60650578574104119234e-02) (609, 1.02572658882341086195e-01) (610, 1.66252445556199418553e-01) (611, 2.47144258176032576013e-02) (612, -2.71891347978949260433e-01) (613, 5.09719655142407482296e-02) (614, -4.08818201876901765601e-01) (615, 7.90276936385506667548e-02) (616, -1.57157653397245772320e-01) (617, -2.62267075005398087040e-01) (618, -2.12808370834727395016e-01) (619, 2.69464170382853918095e-01) (620, 2.88109896493300432496e-01) (621, 8.09794410031632327929e-02) (622, -7.77646132282010377201e-02) (623, -3.57444767206857236252e-02) (624, -5.40572064400969623521e-02) (625, -1.50387782189859292581e-01) (626, 2.92012265029407191985e-01) (627, -9.53056232040722095533e-03) (628, -2.73667204981735629268e-03) (629, 1.68761569293686963800e-01) (630, 2.20258647492054482342e-01) (631, 1.39399888875600730387e-01) (632, 1.51238424559226147803e-01) (633, 1.33283934580158774930e-01) (634, -5.98371901951606083303e-02) (635, -4.00689902375892317843e-02) (636, -3.05010377092828688372e-01) (637, 7.79289709329199636878e-02) (638, -1.22229313414772500224e-01) (639, 2.46891584486994171421e-02) (640, 3.34758452059327249462e-01) (641, 6.88062204435611890485e-02) (642, 2.14877655184779303710e-01) (643, 4.26856799680158868759e-02) (644, 9.33812018735095256128e-02) (645, -1.32568186483750637822e-02) (646, 1.28845793985566791501e-02) (647, -2.25089604375527579938e-01) (648, -3.78138364099355819836e-02) (0, -2.14496491116845551528e-02) (1, -2.58410031083224522863e-01) (2, 9.18320767015754074736e-02) (3, -1.39677324843747480143e-01) (4, -2.10810260892582215786e-02) (5, -1.76847441635331031895e-01) (6, -3.66580792932575602605e-02) (7, -1.21926793438638686462e-01) (8, -2.09455310338709038698e-01) (9, 3.14521614769643742537e-01) (10, -2.34188260611930432198e-01) (11, 2.55434350476520626028e-02) (12, -3.59345078215386887210e-02) (13, -1.18973177674168550250e-02) (14, -3.46531230538918599837e-01) (15, -1.41675140279599820481e-01) (16, -5.56110989650508771853e-02) (17, -8.29669440324962564892e-02) (18, -1.38999697999499571832e-01) (19, -4.05312996796073687911e-01) (20, -1.96567064075517695942e-02) (21, 7.11137181730395334656e-02) (22, -1.88212567142813265442e-02) (23, 9.47569406872699193656e-02) (24, 1.14662277859871333807e-01) (25, -1.70546792937331409545e-01) (26, 2.79485508167054530482e-01) (27, -2.66126463796895529335e-01) (28, 8.51175410812271271421e-02) (29, -7.71002591066497211525e-02) (30, 6.18573570711762471541e-02) (31, -1.92031600923693451799e-01) (32, -8.53659334299023200843e-03) (33, -1.80721269410425086632e-02) (34, -1.87052080087882870163e-02) (35, -8.61626684868296160991e-02) (36, 1.02198534215420411275e-01) (37, -5.25349840322127392689e-02) (38, 2.16378734546888384926e-01) (39, 3.87926724241165962748e-02) (40, -1.04994761277913176666e-03) (41, 7.78416143191698883808e-02) (42, 7.39033783332477961503e-02) (43, 1.73876829814625211146e-01) (44, -1.27779680493862152213e-01) (45, 2.07784275970126081079e-01) (46, -1.27692938505793995851e-01) (47, 3.78225584173218845607e-02) (48, -8.30221391702902072884e-02) (49, -2.54848313002977222563e-01) (50, 7.53752028769011928055e-02) (51, 4.82953948087297135761e-02) (52, 7.06155489654820556211e-02) (53, -3.31206994192499437624e-01) (54, 2.71070558353170121269e-01) (55, 2.75734987472442516498e-01) (56, -4.34206825147064046089e-02) (57, -1.17542177521562360432e-01) (58, -7.17658145238926365589e-03) (59, -1.75506411583460725234e-01) (60, 1.69901214058998765999e-02) (61, -2.62796539600798385872e-02) (62, 3.60726227318698522417e-01) (63, -9.64467245419670243800e-02) (64, 1.87892350867128438141e-01) (65, 1.30508710322645160584e-01) (66, -9.46790144264438582322e-02) (67, 8.86027712122241239978e-02) (68, -3.50693340995433255891e-01) (69, -1.09407685681604138761e-01) (70, -1.49148610468768344495e-01) (71, -1.34830264363711538333e-01) (72, -1.64209412967978684965e-03) (73, -1.04700680214101116139e-01) (74, -4.90202497833015157780e-02) (75, 2.14581803443209956361e-01) (76, 3.21316549748715610257e-04) (77, -2.51074087275572101208e-02) (78, -1.24214471514391924800e-01) (79, 1.52306261579454482735e-01) (80, 1.50023480287990562676e-01) (81, 3.39730107027149882959e-02) (82, 6.20021337593239033059e-02) (83, 3.37452227043811892049e-01) (84, 9.50559520311761302347e-02) (85, 1.16367448935805861687e-01) (86, -2.12224480417685185119e-01) (87, -3.36342508160665631944e-01) (88, -2.63584846723285248782e-01) (89, -6.10415819921532182279e-02) (90, -9.96045528743597641252e-02) (91, -2.95678332570877666630e-01) (92, -3.82684766590649164120e-02) (93, -2.16087619216206838768e-01) (94, -2.08582097914486924717e-01) (95, -2.04367815079596060190e-01) (96, 2.11655871732845148048e-02) (97, -4.25524280814392197314e-01) (98, 4.56796160265118378341e-01) (99, -3.22877709310351798666e-02) (100, 2.21529547272237642419e-01) (101, -1.13694910933769849359e-01) (102, -1.51978990517547984940e-01) (103, 5.69420865860619726528e-02) (104, 8.58107167005832394135e-02) (105, 1.57182517920636775910e-02) (106, -7.19878756847227435633e-02) (107, -1.68065665133930314257e-01) (108, 7.32552709972633404184e-03) (109, -8.09973546835901225815e-02) (110, -8.07234837454067905016e-02) (111, 1.34261814914513083474e-01) (112, 5.67370455147922503336e-02) (113, -1.96824614929801106067e-01) (114, -2.58637880918213658443e-01) (115, 2.72170551362835473619e-02) (116, -5.10409529376687348678e-02) (117, 2.13864351116291734334e-01) (118, -5.91258655323027917938e-02) (119, -3.09095540740461638407e-01) (120, -2.09212933518613530826e-01) (121, -2.21337541219911559942e-01) (122, -5.15180694837268013386e-02) (123, 1.69947395022910674456e-01) (124, 3.72649297161172843307e-01) (125, -2.71318799227774076765e-01) (126, -8.17426208123169101283e-02) (127, 4.09065267577367885909e-01) (128, 1.66153499068603077715e-01) (129, -3.75347917826502008865e-01) (130, -2.04496001371975433258e-01) (131, 1.20179305053775803414e-01) (132, 2.98326048883149286262e-01) (133, -6.14247641052462073352e-02) (134, 4.75466098640854734070e-02) (135, 3.42612323200012294788e-02) (136, -2.04910943241045501173e-01) (137, 7.41969736203655083617e-02) (138, -1.27479062433777046159e-01) (139, 1.47220627700494932633e-01) (140, -1.39577086907139991112e-01) (141, 2.36091145471814506385e-01) (142, -7.65762667604967806056e-02) (143, 4.15621140860428367469e-02) (144, -3.26681905566279240372e-01) (145, -1.24482320639402121998e-01) (146, 1.00192252007019921844e-01) (147, 1.59078133304337732135e-01) (148, 1.66567105713552571222e-01) (149, -1.29340221053920206851e-01) (150, -1.97855172578023069674e-01) (151, 1.14372815777608341503e-01) (152, -1.61457850298186628146e-01) (153, 7.19136751715185873479e-02) (154, -1.73367883081657708777e-01) (155, 2.80246050230555099336e-01) (156, -4.97073731871195481635e-02) (157, 1.77332507163957264762e-01) (158, -7.82210314830932701424e-02) (159, 1.97247713993822737510e-01) (160, 2.60368070275260633795e-02) (161, -2.16870038538247628113e-01) (162, -5.29697623123923707483e-03) (163, 1.13128334474082242744e-01) (164, -1.83265467552789329542e-01) (165, 1.61136442305175486833e-01) (166, -1.94949679300433914575e-01) (167, -1.68717974424004768519e-01) (168, -2.28977956834262724728e-01) (169, -9.84072491883784816746e-02) (170, -4.33305475987356081280e-01) (171, 3.10374027761635473688e-01) (172, -8.11586312377397534057e-02) (173, -6.32195618811178666752e-02) (174, 3.95841366537144495608e-02) (175, -5.23834625512746426823e-02) (176, 4.61830161533724817269e-02) (177, -3.74539493355706062938e-03) (178, -7.17114738757087828019e-03) (179, -8.97492414430721939522e-03) (180, 1.70374736854837366407e-01) (181, 1.42017544668123579799e-01) (182, -1.90430608536145934417e-01) (183, 1.74009568536703379538e-01) (184, -5.29187362621490707537e-03) (185, -1.10425452628044123982e-01) (186, -8.53860571318688227338e-02) (187, -2.72110995594943672060e-01) (188, -1.90444333183743708116e-01) (189, 1.50766350836027102078e-01) (190, -1.75972543937385844659e-01) (191, -3.24398870656815496716e-01) (192, -1.39536545491188712642e-01) (193, 4.39287657433017619812e-01) (194, -1.59595398736615962099e-01) (195, -1.03996973964627717479e-01) (196, 3.10396391728899823104e-01) (197, -2.42422547175164149191e-01) (198, -3.29640191547699468178e-01) (199, -1.30284793130594822586e-01) (200, -9.81451728489031623159e-03) (201, -2.49105271738321726316e-01) (202, -4.02287684669817180438e-01) (203, -2.41423595769224091923e-01) (204, 1.39427762142072253493e-01) (205, 1.20286782675017037136e-01) (206, -9.39756514734133886757e-03) (207, 2.16618782835557521782e-01) (208, -2.95797260244426651887e-01) (209, -2.73561647519973936971e-02) (210, 5.89714642541704220369e-02) (211, -1.29519244499556290817e-01) (212, 1.20936690719820206380e-02) (213, -4.50310009524798812719e-02) (214, -2.16661323969416175217e-01) (215, -5.08413290188766020528e-01) (216, -1.59877664027446658723e-01) (217, -2.53329799987076664802e-01) (218, 3.18100458735332936033e-01) (219, 2.65705716209058029342e-01) (220, -1.11653318165601117551e-01) (221, 3.57183342818459648171e-01) (222, 1.30457826669635928996e-01) (223, 5.59457785508957416987e-01) (224, -1.04173156752590423402e-01) (225, 3.09806563329336648316e-01) (226, -2.91808819037127964435e-01) (227, 1.48451157144754042339e-01) (228, -1.48404622780763106871e-01) (229, 1.04683173177728489067e-01) (230, 1.91443374218435075074e-01) (231, -2.16470312915038286261e-02) (232, 1.52904424154690271598e-01) (233, -1.08926247525230210367e-01) (234, 2.61219102165821843997e-02) (235, -6.40767241907263251921e-02) (236, 1.11458190791391284491e-01) (237, 4.18192305934730224060e-01) (238, -1.57567543967441131558e-01) (239, -5.77750433560320519888e-01) (240, 2.99215113101329366341e-01) (241, -7.32189612539529618984e-03) (242, -4.56183272109886434054e-02) (243, 4.47973428367111792259e-01) (244, 5.36835604800591920105e-02) (245, 8.97032486261635925162e-02) (246, 7.74107918841256681386e-02) (247, -1.53989583876452978961e-01) (248, -3.73016689469801709933e-01) (249, -5.79544924230224675621e-02) (250, -1.43630349744028440462e-01) (251, -1.29288503428941103923e-01) (252, 1.39067009311574146802e-01) (253, -1.18646045322981702475e-01) (254, -1.65252646974162947791e-01) (255, -2.22220143557902982678e-01) (256, -8.24737210614240462414e-02) (257, -1.50126288359685916562e-01) (258, -2.78089534386260883725e-01) (259, 4.46835906774311508727e-01) (260, 8.90079401808544501407e-02) (261, 1.55978411308729469908e-01) (262, -8.32363366799527271134e-02) (263, -7.11378230459725369172e-01) (264, 1.74882078330648199627e-01) (265, -6.81786661313805941731e-01) (266, -1.72147172951196331114e-01) (267, 3.12646428350063732005e-01) (268, 5.91638238863059565120e-02) (269, -1.05987448986833543429e-01) (270, -1.07285821979055451258e+00) (271, -9.40637871541915027152e-01) (272, -2.38440696995953188564e-01) (273, -1.96579397677238615350e-01) (274, 5.50766038747234953910e-01) (275, -7.19334252525805628586e-01) (276, -1.19618050230939229617e-01) (277, 3.19837353089341802637e-01) (278, -6.03442764889070337730e-01) (279, 1.23064425742315644574e-01) (280, 5.21303157417342677427e-01) (281, -5.52954733757644589787e-01) (282, -2.00040729215823220866e-01) (283, -2.58556646397045231112e-01) (284, 2.47640985218755216302e-01) (285, -7.77638521396272625053e-02) (286, -9.35791132693625238304e-02) (287, -5.56664982489064597004e-01) (288, -4.04990028066340296276e-02) (289, 3.44420166420118800676e-01) (290, -3.06218194459787540485e-01) (291, -5.52875023831189471579e-01) (292, -2.67670806966944174743e-01) (293, -2.12780799039508743131e-02) (294, -5.68382366602424471402e-01) (295, -7.64576203620717764764e-01) (296, 1.67649138281734888523e-01) (297, 2.28112196578038967099e-01) (298, 7.75561565721135215412e-01) (299, 3.30149988988503936826e-02) (300, 1.36914113023348243958e-01) (301, -1.53488463507283040554e-01) (302, 4.99720189170575979087e-01) (303, -4.01752849614900653386e-01) (304, -3.56148786762980895659e-01) (305, 3.05662829854733419932e-01) (306, -1.31933997770430438967e-01) (307, -4.66660235917453647403e-01) (308, 1.30959765297494427211e-02) (309, -3.87469093582820667265e-02) (310, -2.52641210903564339407e-01) (311, -5.40891188817272050571e-01) (312, 1.14839184068000177419e+00) (313, 2.42008779836852205847e-01) (314, 8.97645624020836363499e-02) (315, 8.08813428898890518504e-01) (316, -8.67719327240730642359e-01) (317, 5.15294735542447979171e-01) (318, 9.45044115022113495606e-01) (319, 3.41597818485610410510e-02) (320, 1.20390475659003001740e-01) (321, 5.58050664097246434947e-02) (322, -1.67234186527464856464e-01) (323, 1.48361706460274477698e-02) (324, -2.70446316899385807986e-01) (325, -2.49796608039403927881e-01) (326, 9.93499375868499456921e-01) (327, 9.22826727015445963387e-02) (328, -4.59461765837297919646e-01) (329, 9.60851824615848726374e-02) (330, 2.86225913897119488283e-01) (331, -5.84018363083106173406e-01) (332, -6.21825231351650242750e-01) (333, 1.06596373596646376569e+00) (334, -1.56193184075868241045e-01) (335, 5.55981174111366271973e-02) (336, 1.62104620153752554401e+00) (337, -4.78643164124382403113e-01) (338, -1.49537837111778704191e+00) (339, 3.12183752215102860994e-01) (340, -5.60594886768581157632e-01) (341, 7.50337187036335673262e-01) (342, 5.56009027594123184102e-01) (343, -1.80780645083316060528e+00) (344, -1.88520630094607899441e-01) (345, -2.21036577202953880839e-02) (346, 1.59197454748510658362e-01) (347, 3.24488523896016220482e-02) (348, 4.69148089114875058159e-02) (349, -2.07531739158987899030e-01) (350, -1.23423726468396366407e+00) (351, -1.11545841805900636245e+00) (352, -3.92163097300474716711e-02) (353, 9.54258976295435934478e-02) (354, -2.76312417933916934509e-02) (355, 1.10807583173865280973e-02) (356, -1.80808728324990841685e-01) (357, -2.45118267223322000570e-01) (358, -8.05824996643129086438e-03) (359, -1.44443897059494480439e-01) (360, 9.31297198719885033213e-01) (361, -6.63205970692809065881e-01) (362, -1.50079530253663806505e+00) (363, -1.06285018152964960692e+00) (364, 4.63047278678705320765e-01) (365, -8.06874680356024609473e-01) (366, -8.43693320686338177339e-01) (367, -1.42559064178013605861e+00) (368, -4.72112649180327859089e-01) (369, 3.04135979905294229209e-01) (370, 7.53902607417089698494e-01) (371, -1.07989418910137047192e+00) (372, 7.96957929709976697907e-01) (373, 2.22949421237738254487e-01) (374, -1.79492661821009136247e+00) (375, -5.21862560815361642419e-01) (376, -4.53142859700519651245e-01) (377, -9.13856962853177995365e-02) (378, -2.15787874885221442334e-01) (379, -2.51094580985711746113e-01) (380, 1.49006863312413397049e-02) (381, -8.82931088482574510934e-01) (382, 2.78507404935584679251e-01) (383, -4.96205729384363136703e-01) (384, 8.45159110613092678932e-01) (385, 6.44880890338282664054e-01) (386, 7.45631086797316156023e-01) (387, -7.74746231334381807443e-01) (388, -2.63753924536794109867e-02) (389, 1.01939291433775580664e+00) (390, 2.06320103035522832424e-02) (391, -1.02403796132766378157e+00) (392, -4.23392684142236186418e-01) (393, 2.43533970945996547375e-01) (394, 4.87385903837577905140e-01) (395, 3.26166821727119415897e-01) (396, 7.86086219251065143609e-01) (397, -4.32907218657864134581e-01) (398, -2.21655503692096722546e+00) (399, -3.76850956011451965200e-01) (400, -8.14604007031603072342e-01) (401, 1.53765250602968528426e-01) (402, -2.70797462073992870057e-02) (403, -6.19212198535780800057e-01) (404, -1.37433499589710184097e-01) (405, -1.59975802932322413996e-01) (406, 4.80812602108224629305e-01) (407, -6.70981371828238359889e-01) (408, 1.46135140307463684550e+00) (409, 9.81332635696299138139e-01) (410, 1.23094916742836701928e+00) (411, -9.39087153400950877535e-03) (412, -1.52449712553598265563e-01) (413, 8.99437130969377829359e-01) (414, 3.63482611828399526654e-01) (415, -2.15773823679118348373e-01) (416, 1.33112503050349439970e-01) (417, -2.68310074526190378563e-01) (418, -2.84416407730366471718e-01) (419, 4.28189009778164431097e-01) (420, 3.41595996374830512821e-01) (421, -2.53288794089733093617e-01) (422, -1.33544720910634273636e+00) (423, -1.78949773423835861719e-01) (424, 1.92510374341698958789e-01) (425, 5.69662890855466508278e-01) (426, -8.89477059766915073569e-02) (427, -5.10290923781050786978e-01) (428, -1.70177974348367982982e-01) (429, 3.18107882511873940601e-01) (430, 2.20992323812970459240e-01) (431, -4.21504274640518983297e-01) (432, 6.40568210607974419801e-01) (433, -3.74974040892234017353e-01) (434, 1.06960012821959452034e-01) (435, -6.24180908532369738140e-01) (436, 1.18405310286423356980e-01) (437, 4.65814752277482410636e-02) (438, -2.40355187866737485258e-01) (439, -4.66019132079035836025e-01) (440, 2.76690528607341112988e-01) (441, 2.09013542891096804066e-01) (442, 7.39193422114316267546e-01) (443, 1.26254308389931485523e-01) (444, 3.51369259697972835532e-01) (445, 1.54851788508544696565e-01) (446, -8.23996584163026790648e-01) (447, -2.84816693535561937800e-01) (448, -4.97970206865598452595e-01) (449, -2.32732945764589332915e-01) (450, 3.72424831962333557911e-01) (451, -7.56952872362625539537e-01) (452, -2.76880869635295789877e-01) (453, -2.29866922690087627235e-01) (454, 2.78480882843533006366e-01) (455, -4.00948323516927052079e-01) (456, 3.93131391540068042545e-01) (457, -4.80034390842170144431e-01) (458, -3.00991416499671149420e-01) (459, -8.11496999097393922895e-01) (460, 2.76592798841408860078e-01) (461, -7.92317737967936086552e-02) (462, -5.61836770176143862621e-01) (463, -5.21187751457998227345e-01) (464, -1.96823871426247021255e-01) (465, 6.66637551682611462223e-02) (466, 5.28295283930653725157e-01) (467, -9.94062781763452307793e-02) (468, 1.91949463642741652292e-01) (469, 1.22141305280852208170e-01) (470, -7.10292293431982080243e-01) (471, -3.06568953011252753882e-01) (472, -1.11731490121280141459e-01) (473, -2.62330719828425040774e-01) (474, 1.37452800557237464485e-01) (475, -4.76417405310481156810e-01) (476, -2.39709127400899724147e-01) (477, -4.50243298348171200329e-02) (478, 2.91700178715708247079e-01) (479, -2.99192029733041597872e-01) (480, -1.62931110136873502636e-01) (481, 2.03492021394228589370e-02) (482, 5.99466710482525755310e-01) (483, -3.58373404715795484954e-01) (484, 2.00795144132311031981e-01) (485, 2.17282286272871855148e-01) (486, 4.93814918176947934003e-02) (487, 2.70434309835193842364e-01) (488, -1.42685206665661788034e-03) (489, -1.50070584431598874620e-01) (490, 4.44890969513347389608e-01) (491, 5.34796163478087449583e-01) (492, 6.45563006098776731578e-02) (493, -7.31523774172046503672e-02) (494, -1.90046482473085226461e-01) (495, -2.20001781493718399918e-02) (496, -2.54524092314919903046e-01) (497, 8.97278527641824641403e-03) (498, 2.27875819415085702213e-02) (499, -5.06325029145316740653e-01) (500, -1.76231456596777885659e-01) (501, -1.99098379471881858915e-01) (502, 2.21427032609181007050e-01) (503, -4.38876167905847713868e-01) (504, 3.93514724474329086190e-02) (505, -3.32475528042136814211e-02) (506, 5.76951203531243628220e-01) (507, -2.15526522993020552832e-01) (508, 8.76326566546290069981e-02) (509, 1.13924591402242203486e-01) (510, -5.86699175187833446565e-02) (511, 8.33206290006449981633e-03) (512, -1.13522165263156435411e-01) (513, -1.86480664087783243321e-01) (514, 2.51055672916807248729e-01) (515, 2.37106636337543724702e-01) (516, 2.81626530902763516639e-01) (517, -1.80227029348217937521e-01) (518, -3.81668846036127218380e-01) (519, 3.65219129409323328694e-01) (520, 5.70691457009315280396e-03) (521, 2.09440532377670601827e-01) (522, -4.06398934755476462510e-02) (523, -9.40534602839844802169e-02) (524, -1.90494688178402017675e-02) (525, 1.30540832652041249862e-01) (526, -2.19398547716312432299e-02) (527, -1.27150966008007959562e-01) (528, 1.31102799695901772736e-01) (529, -4.36748705207089971125e-01) (530, -3.97690090106727456298e-01) (531, -1.17103283232472030195e-01) (532, 1.33464784090655957938e-01) (533, -1.77244574812804006614e-01) (534, -3.72192668701995965641e-01) (535, -5.48187773088096741425e-01) (536, -5.76000289590294228814e-02) (537, -6.27842238078241410282e-02) (538, 3.58394354809935755668e-01) (539, 5.87024160962129684660e-02) (540, 1.63272330091495887494e-01) (541, -5.95914810100514058533e-02) (542, -1.03234614570175839421e-01) (543, 9.50821751729342412585e-02) (544, -1.82617540748779894066e-01) (545, -7.82189212462469085629e-02) (546, 1.70879493399667126141e-01) (547, -3.81350636486896488186e-01) (548, -2.28397092735417528431e-01) (549, 1.24122926202201541712e-01) (550, 1.74442934707467217637e-01) (551, -3.80504705731431469573e-01) (552, -1.65912277213304620860e-01) (553, -2.32679011904941751565e-01) (554, 1.19402514416482516402e-01) (555, -2.49022116502537971261e-01) (556, 2.52157922453934313367e-01) (557, 1.17225739108907017760e-01) (558, -2.89260015808633863532e-01) (559, -3.74728841039535243151e-01) (560, -2.37553076910009923484e-02) (561, 3.38545581828800026813e-02) (562, -1.22993838005575256700e-01) (563, 9.32976493578925591965e-02) (564, -3.86114340286528440194e-02) (565, 2.01383658527972325691e-01) (566, -2.61346220297210829475e-01) (567, 1.60832999138767723801e-01) (568, -3.30510476671767639001e-01) (569, -6.32936905618835116138e-02) (570, -1.53713030772947775726e-02) (571, -4.78343176606391085048e-01) (572, -2.37861182219327615961e-01) (573, -3.34760333049237204794e-02) (574, 1.77336854654935621722e-01) (575, -2.28821067957144241856e-01) (576, -5.28138041488004847390e-02) (577, -2.79284344608713541724e-01) (578, 3.62660179065470544835e-01) (579, -1.01478923893629682795e-01) (580, 1.73310285845284656192e-01) (581, 3.52984346302834373077e-01) (582, 1.11741365424173344501e-01) (583, -3.10842152513862268748e-01) (584, 1.09692218938768848435e-01) (585, 4.41112556972714578429e-02) (586, -1.65890421499196749622e-01) (587, 1.86149609885307376622e-01) (588, -9.63147435796427864307e-02) (589, 1.70781146838273195643e-01) (590, 4.63565871722824984769e-02) (591, 2.74616304321998905280e-01) (592, -1.05089848102121991014e-01) (593, 3.84060294623205997211e-02) (594, 7.12484075953270512560e-02) (595, 1.49046679202316401103e-01) (596, 6.10593827279262840735e-02) (597, 1.71029156879684146597e-01) (598, 6.91213742043602242388e-03) (599, -2.41479268787416823105e-01) (600, 3.58756715089719846468e-01) (601, 1.41138816406464195907e-01) (602, -2.72615115046536760426e-03) (603, 9.36256734955769054363e-02) (604, 2.99665646867076418403e-01) (605, 6.08940727836815645646e-02) (606, 4.54652254226968144390e-01) (607, -2.41119966007379116224e-01) (608, 1.40523410497987000234e-01) (609, 1.86187182283852559195e-01) (610, -4.91336959185419142049e-02) (611, 2.95683327517758977321e-03) (612, 1.83966032320363570562e-01) (613, -1.83032762580813634923e-01) (614, -2.42679322738544867022e-01) (615, -3.60995077090794702634e-01) (616, -8.88326765534426868176e-03) (617, 2.65158668667294095123e-01) (618, -1.76695351114094983958e-01) (619, -1.86376923343184619508e-01) (620, -4.74109640674996307697e-02) (621, -3.55290915675688878661e-01) (622, 9.69221706399363419626e-02) (623, -1.70733328536107564766e-01) (624, -1.83235031816799398552e-02) (625, -2.23398580638738020188e-01) (626, 9.01265565219402653430e-02) (627, -2.39444250890043147662e-01) (628, 2.24986042580025691340e-01) (629, 1.92728082085408453095e-01) (630, -1.83443010031418357597e-01) (631, -5.74830794019804830475e-02) (632, 3.32706723288798744687e-01) (633, 1.98489078381540208496e-02) (634, 1.89956767469165122009e-01) (635, 1.95841663739491855800e-01) (636, -2.10452444219625139921e-01) (637, 2.87172328504425700135e-01) (638, -6.86107022528953669482e-02) (639, -6.70087455106128382365e-02) (640, -1.35362606309228306056e-01) (641, -1.27723485981863948968e-01) (642, -1.27276415477353771477e-01) (643, -1.35623511820781366896e-03) (644, -4.46771371549651019617e-02) (645, -1.98207709305402351996e-01) (646, 9.83395965813585737347e-02) (647, -2.23077472301864004889e-01) (648, -4.43576369903772305125e-01) (0, -4.24110028799306593150e-02) (1, -7.96456423502477223186e-02) (2, 8.41493009495226668842e-04) (3, 2.03928008055096338103e-01) (4, 1.95984491442718761212e-01) (5, 1.77656653921598128854e-01) (6, 4.83491645336460648674e-02) (7, 1.08843969909480600688e-01) (8, -3.34284708750314518699e-02) (9, 1.02381463146070619818e-01) (10, 2.48314452852416517326e-01) (11, 4.76216058640029360483e-02) (12, 9.60596559741003913624e-03) (13, 1.72078542275940965522e-01) (14, -3.90686154620719303110e-02) (15, -6.12787164916582596796e-02) (16, -1.80406115935763805558e-01) (17, -2.11393290836661723597e-01) (18, -1.58454905704503101749e-01) (19, -3.36528880892774995282e-01) (20, 7.63706399772837163376e-02) (21, -4.31764894237565491353e-02) (22, -1.88031261986844333567e-01) (23, -3.12367225758064637198e-01) (24, -1.62041058647338920284e-01) (25, 4.31446447952591322084e-02) (26, -5.43801750417869309007e-02) (27, 1.40510393692647034269e-01) (28, 3.35958597534977199128e-01) (29, 2.05614826930847855932e-03) (30, 5.75193272227652596662e-02) (31, -1.87473782163103785958e-01) (32, -3.58933535675953208077e-02) (33, 5.50579277965142221962e-02) (34, 1.02092484551514442459e-01) (35, -2.85009375352769434020e-01) (36, -4.14586833454996972481e-01) (37, 1.21245942177115179073e-01) (38, 4.49020352565043384674e-02) (39, 1.12790988697592881040e-01) (40, 7.14906707089571491487e-02) (41, -3.05946507595926397993e-01) (42, -1.33652908256424396427e-01) (43, -4.83116514291984863738e-02) (44, 7.85236707806140077359e-02) (45, 5.42495752014287169890e-03) (46, -8.75645665837235104290e-02) (47, -3.04504132253984372003e-01) (48, 2.75008917913393269306e-01) (49, -5.76098753168982485873e-02) (50, -1.11272641512923639584e-01) (51, 2.05848226677005086138e-01) (52, 4.11823919689083994822e-01) (53, 2.08830937605706153104e-02) (54, -7.53135640449203586089e-02) (55, -2.36982409683239893250e-02) (56, -2.14811702923378589070e-01) (57, -3.51829935860727749386e-01) (58, 2.12170242404276176984e-01) (59, -8.23297439286333095076e-03) (60, 2.03575353864187819086e-02) (61, -2.45170443148504973996e-01) (62, -1.72103554093768568167e-01) (63, 1.42848355890539985280e-01) (64, -2.93002321451848624090e-01) (65, -1.03125679474475928643e-01) (66, 2.92342975855801823215e-01) (67, -1.86474810959057352155e-01) (68, 6.11215061254260644263e-02) (69, 2.08452368039768881625e-01) (70, -8.59213828594249384718e-02) (71, -1.04495587322417426979e-01) (72, -4.37707769726660769760e-02) (73, 1.55504989941757765237e-01) (74, -7.61080780873974252487e-03) (75, 2.26372298653738895924e-01) (76, 4.47821725983264945503e-02) (77, -1.78236554094055699160e-01) (78, -1.03001277680018904492e-01) (79, 1.15128773655021832134e-01) (80, -4.20703194194420537766e-01) (81, -1.70164906859026549002e-01) (82, -2.78442893556366866115e-01) (83, -6.94348010520624558950e-02) (84, -5.43897419966442169370e-02) (85, -6.02470770940701991214e-02) (86, 5.00886179677818704770e-02) (87, 2.10056226225932868301e-01) (88, 1.16672201913343171614e-02) (89, -5.77772175376095251109e-02) (90, 9.34407253681863031458e-02) (91, 1.58941562762930338470e-01) (92, -8.42701341230864819920e-02) (93, -9.29321952200011236478e-02) (94, -2.23380550856132814586e-01) (95, -1.43431248076209300057e-01) (96, 3.61369068246559926871e-02) (97, 8.02289930938859252585e-02) (98, -1.91424887425241219141e-01) (99, 1.26740669577683207070e-01) (100, -2.07247468341406809733e-01) (101, -7.91809072086163273640e-02) (102, -1.50320666056618423845e-01) (103, -3.18047264474096091913e-01) (104, -2.29063117995499915258e-01) (105, -1.58102959108899418506e-02) (106, 8.91972341995427575601e-02) (107, -4.43680103596528319088e-01) (108, -1.60143739546149688202e-01) (109, 9.39732687202511768332e-02) (110, 2.25662944782355989748e-01) (111, -2.39321760243795617074e-01) (112, 1.75414425050026967501e-02) (113, -3.02154539551126311014e-01) (114, -2.29401681130471379877e-01) (115, -3.94063370674421820095e-01) (116, -3.31272988987317384968e-01) (117, -3.81579239385755886182e-01) (118, -2.37547421312701650953e-01) (119, -3.96366592493781255691e-01) (120, 4.28498943442939123072e-02) (121, 3.82176903604638906753e-01) (122, 1.35491641788582396766e-02) (123, 1.46678031306491894747e-02) (124, 3.35528120007309860195e-01) (125, -1.02661642793625773606e-01) (126, -4.02872872244776747408e-01) (127, -2.59696748101349739191e-01) (128, -1.71952838689113735038e-01) (129, -3.35149407783561725793e-01) (130, -9.87603077659661848786e-02) (131, -1.78558294013691915003e-01) (132, 2.01682673686140845337e-01) (133, 4.33565091440372713666e-03) (134, 2.59454510504227089940e-02) (135, 2.95672105459114431536e-01) (136, 1.72011855541793459885e-03) (137, 8.96105296830100594985e-02) (138, -1.33659250301622796464e-02) (139, -8.54288132482873899254e-03) (140, 2.94072319466897602602e-02) (141, 7.33351378265986904303e-03) (142, -1.39311004790436288037e-01) (143, -3.65375876648367403643e-01) (144, 1.02168440488056316839e-01) (145, -2.72638527124537677349e-01) (146, 5.49330880600286258764e-02) (147, 1.57212204910137515190e-01) (148, -4.51003808257854771346e-02) (149, 1.31588111886714625998e-01) (150, 1.54482831818310656358e-01) (151, -2.83792141816989230974e-02) (152, -2.46952311772756144537e-01) (153, -6.75365800795183802985e-03) (154, -4.44037794159882481804e-02) (155, 9.91691081178033700949e-02) (156, -1.18086178756629245346e-01) (157, -1.47553668565547579927e-01) (158, -2.12544227295565657521e-01) (159, 4.41827994485807923342e-02) (160, -1.42585201103985759197e-02) (161, 1.05662701535573694267e-01) (162, 1.58470597215575048633e-02) (163, 1.29206462225233020824e-01) (164, -1.04550291147565310723e-01) (165, -2.07682284589169346978e-01) (166, -2.27029376485377909489e-01) (167, -3.64419010611543692235e-01) (168, 4.04158781514141085545e-01) (169, 2.99830119991131682777e-01) (170, -7.67161630400235855509e-02) (171, 5.52949710227302215770e-01) (172, -1.09918314350592270096e-02) (173, 1.11068453727541691101e-01) (174, 7.69622716311380850041e-02) (175, 1.26469028161496355178e-01) (176, -1.12787078859315645363e-01) (177, 7.60644389444224411356e-02) (178, 3.08908874681946277185e-02) (179, -1.97066136372605144045e-01) (180, -1.64459866643147351040e-01) (181, -1.78823577954689505454e-01) (182, 8.92241294345920595010e-03) (183, 1.18174132738512807639e-01) (184, 2.26404946445742411010e-01) (185, -7.37770496685371118817e-02) (186, 7.85106190125545028158e-02) (187, -8.03432719552910207250e-02) (188, 2.10463887411933781024e-01) (189, 8.87261147217258683284e-02) (190, -5.60118288551253104557e-02) (191, -5.33959366165031368290e-01) (192, 3.41115758241824079677e-02) (193, -5.37518588773717054252e-01) (194, -5.04260673214153243293e-01) (195, -7.43828657019799943662e-02) (196, -3.09546767855058690966e-01) (197, -2.48488060881669581281e-01) (198, -3.26224240216947181104e-01) (199, -3.46363188545438904775e-01) (200, -2.77742647472202786041e-01) (201, -2.62269532215114287155e-01) 